FANN_FLO_2.1
num_layers=3
learning_rate=0.100000
connection_rate=1.000000
network_type=0
learning_momentum=0.300000
training_algorithm=0
train_error_function=0
train_stop_function=0
cascade_output_change_fraction=0.010000
quickprop_decay=-0.000100
quickprop_mu=1.750000
rprop_increase_factor=1.200000
rprop_decrease_factor=0.500000
rprop_delta_min=0.000000
rprop_delta_max=50.000000
rprop_delta_zero=0.100000
cascade_output_stagnation_epochs=12
cascade_candidate_change_fraction=0.010000
cascade_candidate_stagnation_epochs=12
cascade_max_out_epochs=150
cascade_max_cand_epochs=150
cascade_num_candidate_groups=2
bit_fail_limit=3.49999999999999977796e-01
cascade_candidate_limit=1.00000000000000000000e+03
cascade_weight_multiplier=4.00000000000000022204e-01
cascade_activation_functions_count=10
cascade_activation_functions=3 5 7 8 10 11 14 15 16 17 
cascade_activation_steepnesses_count=4
cascade_activation_steepnesses=2.50000000000000000000e-01 5.00000000000000000000e-01 7.50000000000000000000e-01 1.00000000000000000000e+00 
layer_sizes=709 81 3 
scale_included=0
neurons (num_inputs, activation_function, activation_steepness)=(0, 0, 0.00000000000000000000e+00) (0, 0, 0.00000000000000000000e+00) (0, 0, 0.00000000000000000000e+00) (0, 0, 0.00000000000000000000e+00) (0, 0, 0.00000000000000000000e+00) (0, 0, 0.00000000000000000000e+00) (0, 0, 0.00000000000000000000e+00) (0, 0, 0.00000000000000000000e+00) (0, 0, 0.00000000000000000000e+00) (0, 0, 0.00000000000000000000e+00) (0, 0, 0.00000000000000000000e+00) (0, 0, 0.00000000000000000000e+00) (0, 0, 0.00000000000000000000e+00) (0, 0, 0.00000000000000000000e+00) (0, 0, 0.00000000000000000000e+00) (0, 0, 0.00000000000000000000e+00) (0, 0, 0.00000000000000000000e+00) (0, 0, 0.00000000000000000000e+00) (0, 0, 0.00000000000000000000e+00) (0, 0, 0.00000000000000000000e+00) (0, 0, 0.00000000000000000000e+00) (0, 0, 0.00000000000000000000e+00) (0, 0, 0.00000000000000000000e+00) (0, 0, 0.00000000000000000000e+00) (0, 0, 0.00000000000000000000e+00) (0, 0, 0.00000000000000000000e+00) (0, 0, 0.00000000000000000000e+00) (0, 0, 0.00000000000000000000e+00) (0, 0, 0.00000000000000000000e+00) (0, 0, 0.00000000000000000000e+00) (0, 0, 0.00000000000000000000e+00) (0, 0, 0.00000000000000000000e+00) (0, 0, 0.00000000000000000000e+00) (0, 0, 0.00000000000000000000e+00) (0, 0, 0.00000000000000000000e+00) (0, 0, 0.00000000000000000000e+00) (0, 0, 0.00000000000000000000e+00) (0, 0, 0.00000000000000000000e+00) (0, 0, 0.00000000000000000000e+00) (0, 0, 0.00000000000000000000e+00) (0, 0, 0.00000000000000000000e+00) (0, 0, 0.00000000000000000000e+00) (0, 0, 0.00000000000000000000e+00) (0, 0, 0.00000000000000000000e+00) (0, 0, 0.00000000000000000000e+00) (0, 0, 0.00000000000000000000e+00) (0, 0, 0.00000000000000000000e+00) (0, 0, 0.00000000000000000000e+00) (0, 0, 0.00000000000000000000e+00) (0, 0, 0.00000000000000000000e+00) (0, 0, 0.00000000000000000000e+00) (0, 0, 0.00000000000000000000e+00) (0, 0, 0.00000000000000000000e+00) (0, 0, 0.00000000000000000000e+00) (0, 0, 0.00000000000000000000e+00) (0, 0, 0.00000000000000000000e+00) (0, 0, 0.00000000000000000000e+00) (0, 0, 0.00000000000000000000e+00) (0, 0, 0.00000000000000000000e+00) (0, 0, 0.00000000000000000000e+00) (0, 0, 0.00000000000000000000e+00) (0, 0, 0.00000000000000000000e+00) (0, 0, 0.00000000000000000000e+00) (0, 0, 0.00000000000000000000e+00) (0, 0, 0.00000000000000000000e+00) (0, 0, 0.00000000000000000000e+00) (0, 0, 0.00000000000000000000e+00) (0, 0, 0.00000000000000000000e+00) (0, 0, 0.00000000000000000000e+00) (0, 0, 0.00000000000000000000e+00) (0, 0, 0.00000000000000000000e+00) (0, 0, 0.00000000000000000000e+00) (0, 0, 0.00000000000000000000e+00) (0, 0, 0.00000000000000000000e+00) (0, 0, 0.00000000000000000000e+00) (0, 0, 0.00000000000000000000e+00) (0, 0, 0.00000000000000000000e+00) (0, 0, 0.00000000000000000000e+00) (0, 0, 0.00000000000000000000e+00) (0, 0, 0.00000000000000000000e+00) (0, 0, 0.00000000000000000000e+00) (0, 0, 0.00000000000000000000e+00) (0, 0, 0.00000000000000000000e+00) (0, 0, 0.00000000000000000000e+00) (0, 0, 0.00000000000000000000e+00) (0, 0, 0.00000000000000000000e+00) (0, 0, 0.00000000000000000000e+00) (0, 0, 0.00000000000000000000e+00) (0, 0, 0.00000000000000000000e+00) (0, 0, 0.00000000000000000000e+00) (0, 0, 0.00000000000000000000e+00) (0, 0, 0.00000000000000000000e+00) (0, 0, 0.00000000000000000000e+00) (0, 0, 0.00000000000000000000e+00) (0, 0, 0.00000000000000000000e+00) (0, 0, 0.00000000000000000000e+00) (0, 0, 0.00000000000000000000e+00) (0, 0, 0.00000000000000000000e+00) (0, 0, 0.00000000000000000000e+00) (0, 0, 0.00000000000000000000e+00) (0, 0, 0.00000000000000000000e+00) (0, 0, 0.00000000000000000000e+00) (0, 0, 0.00000000000000000000e+00) (0, 0, 0.00000000000000000000e+00) (0, 0, 0.00000000000000000000e+00) (0, 0, 0.00000000000000000000e+00) (0, 0, 0.00000000000000000000e+00) (0, 0, 0.00000000000000000000e+00) (0, 0, 0.00000000000000000000e+00) (0, 0, 0.00000000000000000000e+00) (0, 0, 0.00000000000000000000e+00) (0, 0, 0.00000000000000000000e+00) (0, 0, 0.00000000000000000000e+00) (0, 0, 0.00000000000000000000e+00) (0, 0, 0.00000000000000000000e+00) (0, 0, 0.00000000000000000000e+00) (0, 0, 0.00000000000000000000e+00) (0, 0, 0.00000000000000000000e+00) (0, 0, 0.00000000000000000000e+00) (0, 0, 0.00000000000000000000e+00) (0, 0, 0.00000000000000000000e+00) (0, 0, 0.00000000000000000000e+00) (0, 0, 0.00000000000000000000e+00) (0, 0, 0.00000000000000000000e+00) (0, 0, 0.00000000000000000000e+00) (0, 0, 0.00000000000000000000e+00) (0, 0, 0.00000000000000000000e+00) (0, 0, 0.00000000000000000000e+00) (0, 0, 0.00000000000000000000e+00) (0, 0, 0.00000000000000000000e+00) (0, 0, 0.00000000000000000000e+00) (0, 0, 0.00000000000000000000e+00) (0, 0, 0.00000000000000000000e+00) (0, 0, 0.00000000000000000000e+00) (0, 0, 0.00000000000000000000e+00) (0, 0, 0.00000000000000000000e+00) (0, 0, 0.00000000000000000000e+00) (0, 0, 0.00000000000000000000e+00) (0, 0, 0.00000000000000000000e+00) (0, 0, 0.00000000000000000000e+00) (0, 0, 0.00000000000000000000e+00) (0, 0, 0.00000000000000000000e+00) (0, 0, 0.00000000000000000000e+00) (0, 0, 0.00000000000000000000e+00) (0, 0, 0.00000000000000000000e+00) (0, 0, 0.00000000000000000000e+00) (0, 0, 0.00000000000000000000e+00) (0, 0, 0.00000000000000000000e+00) (0, 0, 0.00000000000000000000e+00) (0, 0, 0.00000000000000000000e+00) (0, 0, 0.00000000000000000000e+00) (0, 0, 0.00000000000000000000e+00) (0, 0, 0.00000000000000000000e+00) (0, 0, 0.00000000000000000000e+00) (0, 0, 0.00000000000000000000e+00) (0, 0, 0.00000000000000000000e+00) (0, 0, 0.00000000000000000000e+00) (0, 0, 0.00000000000000000000e+00) (0, 0, 0.00000000000000000000e+00) (0, 0, 0.00000000000000000000e+00) (0, 0, 0.00000000000000000000e+00) (0, 0, 0.00000000000000000000e+00) (0, 0, 0.00000000000000000000e+00) (0, 0, 0.00000000000000000000e+00) (0, 0, 0.00000000000000000000e+00) (0, 0, 0.00000000000000000000e+00) (0, 0, 0.00000000000000000000e+00) (0, 0, 0.00000000000000000000e+00) (0, 0, 0.00000000000000000000e+00) (0, 0, 0.00000000000000000000e+00) (0, 0, 0.00000000000000000000e+00) (0, 0, 0.00000000000000000000e+00) (0, 0, 0.00000000000000000000e+00) (0, 0, 0.00000000000000000000e+00) (0, 0, 0.00000000000000000000e+00) (0, 0, 0.00000000000000000000e+00) (0, 0, 0.00000000000000000000e+00) (0, 0, 0.00000000000000000000e+00) (0, 0, 0.00000000000000000000e+00) (0, 0, 0.00000000000000000000e+00) (0, 0, 0.00000000000000000000e+00) (0, 0, 0.00000000000000000000e+00) (0, 0, 0.00000000000000000000e+00) (0, 0, 0.00000000000000000000e+00) (0, 0, 0.00000000000000000000e+00) (0, 0, 0.00000000000000000000e+00) (0, 0, 0.00000000000000000000e+00) (0, 0, 0.00000000000000000000e+00) (0, 0, 0.00000000000000000000e+00) (0, 0, 0.00000000000000000000e+00) (0, 0, 0.00000000000000000000e+00) (0, 0, 0.00000000000000000000e+00) (0, 0, 0.00000000000000000000e+00) (0, 0, 0.00000000000000000000e+00) (0, 0, 0.00000000000000000000e+00) (0, 0, 0.00000000000000000000e+00) (0, 0, 0.00000000000000000000e+00) (0, 0, 0.00000000000000000000e+00) (0, 0, 0.00000000000000000000e+00) (0, 0, 0.00000000000000000000e+00) (0, 0, 0.00000000000000000000e+00) (0, 0, 0.00000000000000000000e+00) (0, 0, 0.00000000000000000000e+00) (0, 0, 0.00000000000000000000e+00) (0, 0, 0.00000000000000000000e+00) (0, 0, 0.00000000000000000000e+00) (0, 0, 0.00000000000000000000e+00) (0, 0, 0.00000000000000000000e+00) (0, 0, 0.00000000000000000000e+00) (0, 0, 0.00000000000000000000e+00) (0, 0, 0.00000000000000000000e+00) (0, 0, 0.00000000000000000000e+00) (0, 0, 0.00000000000000000000e+00) (0, 0, 0.00000000000000000000e+00) (0, 0, 0.00000000000000000000e+00) (0, 0, 0.00000000000000000000e+00) (0, 0, 0.00000000000000000000e+00) (0, 0, 0.00000000000000000000e+00) (0, 0, 0.00000000000000000000e+00) (0, 0, 0.00000000000000000000e+00) (0, 0, 0.00000000000000000000e+00) (0, 0, 0.00000000000000000000e+00) (0, 0, 0.00000000000000000000e+00) (0, 0, 0.00000000000000000000e+00) (0, 0, 0.00000000000000000000e+00) (0, 0, 0.00000000000000000000e+00) (0, 0, 0.00000000000000000000e+00) (0, 0, 0.00000000000000000000e+00) (0, 0, 0.00000000000000000000e+00) (0, 0, 0.00000000000000000000e+00) (0, 0, 0.00000000000000000000e+00) (0, 0, 0.00000000000000000000e+00) (0, 0, 0.00000000000000000000e+00) (0, 0, 0.00000000000000000000e+00) (0, 0, 0.00000000000000000000e+00) (0, 0, 0.00000000000000000000e+00) (0, 0, 0.00000000000000000000e+00) (0, 0, 0.00000000000000000000e+00) (0, 0, 0.00000000000000000000e+00) (0, 0, 0.00000000000000000000e+00) (0, 0, 0.00000000000000000000e+00) (0, 0, 0.00000000000000000000e+00) (0, 0, 0.00000000000000000000e+00) (0, 0, 0.00000000000000000000e+00) (0, 0, 0.00000000000000000000e+00) (0, 0, 0.00000000000000000000e+00) (0, 0, 0.00000000000000000000e+00) (0, 0, 0.00000000000000000000e+00) (0, 0, 0.00000000000000000000e+00) (0, 0, 0.00000000000000000000e+00) (0, 0, 0.00000000000000000000e+00) (0, 0, 0.00000000000000000000e+00) (0, 0, 0.00000000000000000000e+00) (0, 0, 0.00000000000000000000e+00) (0, 0, 0.00000000000000000000e+00) (0, 0, 0.00000000000000000000e+00) (0, 0, 0.00000000000000000000e+00) (0, 0, 0.00000000000000000000e+00) (0, 0, 0.00000000000000000000e+00) (0, 0, 0.00000000000000000000e+00) (0, 0, 0.00000000000000000000e+00) (0, 0, 0.00000000000000000000e+00) (0, 0, 0.00000000000000000000e+00) (0, 0, 0.00000000000000000000e+00) (0, 0, 0.00000000000000000000e+00) (0, 0, 0.00000000000000000000e+00) (0, 0, 0.00000000000000000000e+00) (0, 0, 0.00000000000000000000e+00) (0, 0, 0.00000000000000000000e+00) (0, 0, 0.00000000000000000000e+00) (0, 0, 0.00000000000000000000e+00) (0, 0, 0.00000000000000000000e+00) (0, 0, 0.00000000000000000000e+00) (0, 0, 0.00000000000000000000e+00) (0, 0, 0.00000000000000000000e+00) (0, 0, 0.00000000000000000000e+00) (0, 0, 0.00000000000000000000e+00) (0, 0, 0.00000000000000000000e+00) (0, 0, 0.00000000000000000000e+00) (0, 0, 0.00000000000000000000e+00) (0, 0, 0.00000000000000000000e+00) (0, 0, 0.00000000000000000000e+00) (0, 0, 0.00000000000000000000e+00) (0, 0, 0.00000000000000000000e+00) (0, 0, 0.00000000000000000000e+00) (0, 0, 0.00000000000000000000e+00) (0, 0, 0.00000000000000000000e+00) (0, 0, 0.00000000000000000000e+00) (0, 0, 0.00000000000000000000e+00) (0, 0, 0.00000000000000000000e+00) (0, 0, 0.00000000000000000000e+00) (0, 0, 0.00000000000000000000e+00) (0, 0, 0.00000000000000000000e+00) (0, 0, 0.00000000000000000000e+00) (0, 0, 0.00000000000000000000e+00) (0, 0, 0.00000000000000000000e+00) (0, 0, 0.00000000000000000000e+00) (0, 0, 0.00000000000000000000e+00) (0, 0, 0.00000000000000000000e+00) (0, 0, 0.00000000000000000000e+00) (0, 0, 0.00000000000000000000e+00) (0, 0, 0.00000000000000000000e+00) (0, 0, 0.00000000000000000000e+00) (0, 0, 0.00000000000000000000e+00) (0, 0, 0.00000000000000000000e+00) (0, 0, 0.00000000000000000000e+00) (0, 0, 0.00000000000000000000e+00) (0, 0, 0.00000000000000000000e+00) (0, 0, 0.00000000000000000000e+00) (0, 0, 0.00000000000000000000e+00) (0, 0, 0.00000000000000000000e+00) (0, 0, 0.00000000000000000000e+00) (0, 0, 0.00000000000000000000e+00) (0, 0, 0.00000000000000000000e+00) (0, 0, 0.00000000000000000000e+00) (0, 0, 0.00000000000000000000e+00) (0, 0, 0.00000000000000000000e+00) (0, 0, 0.00000000000000000000e+00) (0, 0, 0.00000000000000000000e+00) (0, 0, 0.00000000000000000000e+00) (0, 0, 0.00000000000000000000e+00) (0, 0, 0.00000000000000000000e+00) (0, 0, 0.00000000000000000000e+00) (0, 0, 0.00000000000000000000e+00) (0, 0, 0.00000000000000000000e+00) (0, 0, 0.00000000000000000000e+00) (0, 0, 0.00000000000000000000e+00) (0, 0, 0.00000000000000000000e+00) (0, 0, 0.00000000000000000000e+00) (0, 0, 0.00000000000000000000e+00) (0, 0, 0.00000000000000000000e+00) (0, 0, 0.00000000000000000000e+00) (0, 0, 0.00000000000000000000e+00) (0, 0, 0.00000000000000000000e+00) (0, 0, 0.00000000000000000000e+00) (0, 0, 0.00000000000000000000e+00) (0, 0, 0.00000000000000000000e+00) (0, 0, 0.00000000000000000000e+00) (0, 0, 0.00000000000000000000e+00) (0, 0, 0.00000000000000000000e+00) (0, 0, 0.00000000000000000000e+00) (0, 0, 0.00000000000000000000e+00) (0, 0, 0.00000000000000000000e+00) (0, 0, 0.00000000000000000000e+00) (0, 0, 0.00000000000000000000e+00) (0, 0, 0.00000000000000000000e+00) (0, 0, 0.00000000000000000000e+00) (0, 0, 0.00000000000000000000e+00) (0, 0, 0.00000000000000000000e+00) (0, 0, 0.00000000000000000000e+00) (0, 0, 0.00000000000000000000e+00) (0, 0, 0.00000000000000000000e+00) (0, 0, 0.00000000000000000000e+00) (0, 0, 0.00000000000000000000e+00) (0, 0, 0.00000000000000000000e+00) (0, 0, 0.00000000000000000000e+00) (0, 0, 0.00000000000000000000e+00) (0, 0, 0.00000000000000000000e+00) (0, 0, 0.00000000000000000000e+00) (0, 0, 0.00000000000000000000e+00) (0, 0, 0.00000000000000000000e+00) (0, 0, 0.00000000000000000000e+00) (0, 0, 0.00000000000000000000e+00) (0, 0, 0.00000000000000000000e+00) (0, 0, 0.00000000000000000000e+00) (0, 0, 0.00000000000000000000e+00) (0, 0, 0.00000000000000000000e+00) (0, 0, 0.00000000000000000000e+00) (0, 0, 0.00000000000000000000e+00) (0, 0, 0.00000000000000000000e+00) (0, 0, 0.00000000000000000000e+00) (0, 0, 0.00000000000000000000e+00) (0, 0, 0.00000000000000000000e+00) (0, 0, 0.00000000000000000000e+00) (0, 0, 0.00000000000000000000e+00) (0, 0, 0.00000000000000000000e+00) (0, 0, 0.00000000000000000000e+00) (0, 0, 0.00000000000000000000e+00) (0, 0, 0.00000000000000000000e+00) (0, 0, 0.00000000000000000000e+00) (0, 0, 0.00000000000000000000e+00) (0, 0, 0.00000000000000000000e+00) (0, 0, 0.00000000000000000000e+00) (0, 0, 0.00000000000000000000e+00) (0, 0, 0.00000000000000000000e+00) (0, 0, 0.00000000000000000000e+00) (0, 0, 0.00000000000000000000e+00) (0, 0, 0.00000000000000000000e+00) (0, 0, 0.00000000000000000000e+00) (0, 0, 0.00000000000000000000e+00) (0, 0, 0.00000000000000000000e+00) (0, 0, 0.00000000000000000000e+00) (0, 0, 0.00000000000000000000e+00) (0, 0, 0.00000000000000000000e+00) (0, 0, 0.00000000000000000000e+00) (0, 0, 0.00000000000000000000e+00) (0, 0, 0.00000000000000000000e+00) (0, 0, 0.00000000000000000000e+00) (0, 0, 0.00000000000000000000e+00) (0, 0, 0.00000000000000000000e+00) (0, 0, 0.00000000000000000000e+00) (0, 0, 0.00000000000000000000e+00) (0, 0, 0.00000000000000000000e+00) (0, 0, 0.00000000000000000000e+00) (0, 0, 0.00000000000000000000e+00) (0, 0, 0.00000000000000000000e+00) (0, 0, 0.00000000000000000000e+00) (0, 0, 0.00000000000000000000e+00) (0, 0, 0.00000000000000000000e+00) (0, 0, 0.00000000000000000000e+00) (0, 0, 0.00000000000000000000e+00) (0, 0, 0.00000000000000000000e+00) (0, 0, 0.00000000000000000000e+00) (0, 0, 0.00000000000000000000e+00) (0, 0, 0.00000000000000000000e+00) (0, 0, 0.00000000000000000000e+00) (0, 0, 0.00000000000000000000e+00) (0, 0, 0.00000000000000000000e+00) (0, 0, 0.00000000000000000000e+00) (0, 0, 0.00000000000000000000e+00) (0, 0, 0.00000000000000000000e+00) (0, 0, 0.00000000000000000000e+00) (0, 0, 0.00000000000000000000e+00) (0, 0, 0.00000000000000000000e+00) (0, 0, 0.00000000000000000000e+00) (0, 0, 0.00000000000000000000e+00) (0, 0, 0.00000000000000000000e+00) (0, 0, 0.00000000000000000000e+00) (0, 0, 0.00000000000000000000e+00) (0, 0, 0.00000000000000000000e+00) (0, 0, 0.00000000000000000000e+00) (0, 0, 0.00000000000000000000e+00) (0, 0, 0.00000000000000000000e+00) (0, 0, 0.00000000000000000000e+00) (0, 0, 0.00000000000000000000e+00) (0, 0, 0.00000000000000000000e+00) (0, 0, 0.00000000000000000000e+00) (0, 0, 0.00000000000000000000e+00) (0, 0, 0.00000000000000000000e+00) (0, 0, 0.00000000000000000000e+00) (0, 0, 0.00000000000000000000e+00) (0, 0, 0.00000000000000000000e+00) (0, 0, 0.00000000000000000000e+00) (0, 0, 0.00000000000000000000e+00) (0, 0, 0.00000000000000000000e+00) (0, 0, 0.00000000000000000000e+00) (0, 0, 0.00000000000000000000e+00) (0, 0, 0.00000000000000000000e+00) (0, 0, 0.00000000000000000000e+00) (0, 0, 0.00000000000000000000e+00) (0, 0, 0.00000000000000000000e+00) (0, 0, 0.00000000000000000000e+00) (0, 0, 0.00000000000000000000e+00) (0, 0, 0.00000000000000000000e+00) (0, 0, 0.00000000000000000000e+00) (0, 0, 0.00000000000000000000e+00) (0, 0, 0.00000000000000000000e+00) (0, 0, 0.00000000000000000000e+00) (0, 0, 0.00000000000000000000e+00) (0, 0, 0.00000000000000000000e+00) (0, 0, 0.00000000000000000000e+00) (0, 0, 0.00000000000000000000e+00) (0, 0, 0.00000000000000000000e+00) (0, 0, 0.00000000000000000000e+00) (0, 0, 0.00000000000000000000e+00) (0, 0, 0.00000000000000000000e+00) (0, 0, 0.00000000000000000000e+00) (0, 0, 0.00000000000000000000e+00) (0, 0, 0.00000000000000000000e+00) (0, 0, 0.00000000000000000000e+00) (0, 0, 0.00000000000000000000e+00) (0, 0, 0.00000000000000000000e+00) (0, 0, 0.00000000000000000000e+00) (0, 0, 0.00000000000000000000e+00) (0, 0, 0.00000000000000000000e+00) (0, 0, 0.00000000000000000000e+00) (0, 0, 0.00000000000000000000e+00) (0, 0, 0.00000000000000000000e+00) (0, 0, 0.00000000000000000000e+00) (0, 0, 0.00000000000000000000e+00) (0, 0, 0.00000000000000000000e+00) (0, 0, 0.00000000000000000000e+00) (0, 0, 0.00000000000000000000e+00) (0, 0, 0.00000000000000000000e+00) (0, 0, 0.00000000000000000000e+00) (0, 0, 0.00000000000000000000e+00) (0, 0, 0.00000000000000000000e+00) (0, 0, 0.00000000000000000000e+00) (0, 0, 0.00000000000000000000e+00) (0, 0, 0.00000000000000000000e+00) (0, 0, 0.00000000000000000000e+00) (0, 0, 0.00000000000000000000e+00) (0, 0, 0.00000000000000000000e+00) (0, 0, 0.00000000000000000000e+00) (0, 0, 0.00000000000000000000e+00) (0, 0, 0.00000000000000000000e+00) (0, 0, 0.00000000000000000000e+00) (0, 0, 0.00000000000000000000e+00) (0, 0, 0.00000000000000000000e+00) (0, 0, 0.00000000000000000000e+00) (0, 0, 0.00000000000000000000e+00) (0, 0, 0.00000000000000000000e+00) (0, 0, 0.00000000000000000000e+00) (0, 0, 0.00000000000000000000e+00) (0, 0, 0.00000000000000000000e+00) (0, 0, 0.00000000000000000000e+00) (0, 0, 0.00000000000000000000e+00) (0, 0, 0.00000000000000000000e+00) (0, 0, 0.00000000000000000000e+00) (0, 0, 0.00000000000000000000e+00) (0, 0, 0.00000000000000000000e+00) (0, 0, 0.00000000000000000000e+00) (0, 0, 0.00000000000000000000e+00) (0, 0, 0.00000000000000000000e+00) (0, 0, 0.00000000000000000000e+00) (0, 0, 0.00000000000000000000e+00) (0, 0, 0.00000000000000000000e+00) (0, 0, 0.00000000000000000000e+00) (0, 0, 0.00000000000000000000e+00) (0, 0, 0.00000000000000000000e+00) (0, 0, 0.00000000000000000000e+00) (0, 0, 0.00000000000000000000e+00) (0, 0, 0.00000000000000000000e+00) (0, 0, 0.00000000000000000000e+00) (0, 0, 0.00000000000000000000e+00) (0, 0, 0.00000000000000000000e+00) (0, 0, 0.00000000000000000000e+00) (0, 0, 0.00000000000000000000e+00) (0, 0, 0.00000000000000000000e+00) (0, 0, 0.00000000000000000000e+00) (0, 0, 0.00000000000000000000e+00) (0, 0, 0.00000000000000000000e+00) (0, 0, 0.00000000000000000000e+00) (0, 0, 0.00000000000000000000e+00) (0, 0, 0.00000000000000000000e+00) (0, 0, 0.00000000000000000000e+00) (0, 0, 0.00000000000000000000e+00) (0, 0, 0.00000000000000000000e+00) (0, 0, 0.00000000000000000000e+00) (0, 0, 0.00000000000000000000e+00) (0, 0, 0.00000000000000000000e+00) (0, 0, 0.00000000000000000000e+00) (0, 0, 0.00000000000000000000e+00) (0, 0, 0.00000000000000000000e+00) (0, 0, 0.00000000000000000000e+00) (0, 0, 0.00000000000000000000e+00) (0, 0, 0.00000000000000000000e+00) (0, 0, 0.00000000000000000000e+00) (0, 0, 0.00000000000000000000e+00) (0, 0, 0.00000000000000000000e+00) (0, 0, 0.00000000000000000000e+00) (0, 0, 0.00000000000000000000e+00) (0, 0, 0.00000000000000000000e+00) (0, 0, 0.00000000000000000000e+00) (0, 0, 0.00000000000000000000e+00) (0, 0, 0.00000000000000000000e+00) (0, 0, 0.00000000000000000000e+00) (0, 0, 0.00000000000000000000e+00) (0, 0, 0.00000000000000000000e+00) (0, 0, 0.00000000000000000000e+00) (0, 0, 0.00000000000000000000e+00) (0, 0, 0.00000000000000000000e+00) (0, 0, 0.00000000000000000000e+00) (0, 0, 0.00000000000000000000e+00) (0, 0, 0.00000000000000000000e+00) (0, 0, 0.00000000000000000000e+00) (0, 0, 0.00000000000000000000e+00) (0, 0, 0.00000000000000000000e+00) (0, 0, 0.00000000000000000000e+00) (0, 0, 0.00000000000000000000e+00) (0, 0, 0.00000000000000000000e+00) (0, 0, 0.00000000000000000000e+00) (0, 0, 0.00000000000000000000e+00) (0, 0, 0.00000000000000000000e+00) (0, 0, 0.00000000000000000000e+00) (0, 0, 0.00000000000000000000e+00) (0, 0, 0.00000000000000000000e+00) (0, 0, 0.00000000000000000000e+00) (0, 0, 0.00000000000000000000e+00) (0, 0, 0.00000000000000000000e+00) (0, 0, 0.00000000000000000000e+00) (0, 0, 0.00000000000000000000e+00) (0, 0, 0.00000000000000000000e+00) (0, 0, 0.00000000000000000000e+00) (0, 0, 0.00000000000000000000e+00) (0, 0, 0.00000000000000000000e+00) (0, 0, 0.00000000000000000000e+00) (0, 0, 0.00000000000000000000e+00) (0, 0, 0.00000000000000000000e+00) (0, 0, 0.00000000000000000000e+00) (0, 0, 0.00000000000000000000e+00) (0, 0, 0.00000000000000000000e+00) (0, 0, 0.00000000000000000000e+00) (0, 0, 0.00000000000000000000e+00) (0, 0, 0.00000000000000000000e+00) (0, 0, 0.00000000000000000000e+00) (0, 0, 0.00000000000000000000e+00) (0, 0, 0.00000000000000000000e+00) (0, 0, 0.00000000000000000000e+00) (0, 0, 0.00000000000000000000e+00) (0, 0, 0.00000000000000000000e+00) (0, 0, 0.00000000000000000000e+00) (0, 0, 0.00000000000000000000e+00) (0, 0, 0.00000000000000000000e+00) (0, 0, 0.00000000000000000000e+00) (0, 0, 0.00000000000000000000e+00) (0, 0, 0.00000000000000000000e+00) (0, 0, 0.00000000000000000000e+00) (0, 0, 0.00000000000000000000e+00) (0, 0, 0.00000000000000000000e+00) (0, 0, 0.00000000000000000000e+00) (0, 0, 0.00000000000000000000e+00) (0, 0, 0.00000000000000000000e+00) (0, 0, 0.00000000000000000000e+00) (0, 0, 0.00000000000000000000e+00) (0, 0, 0.00000000000000000000e+00) (0, 0, 0.00000000000000000000e+00) (0, 0, 0.00000000000000000000e+00) (0, 0, 0.00000000000000000000e+00) (0, 0, 0.00000000000000000000e+00) (0, 0, 0.00000000000000000000e+00) (0, 0, 0.00000000000000000000e+00) (0, 0, 0.00000000000000000000e+00) (0, 0, 0.00000000000000000000e+00) (0, 0, 0.00000000000000000000e+00) (0, 0, 0.00000000000000000000e+00) (0, 0, 0.00000000000000000000e+00) (0, 0, 0.00000000000000000000e+00) (0, 0, 0.00000000000000000000e+00) (0, 0, 0.00000000000000000000e+00) (0, 0, 0.00000000000000000000e+00) (0, 0, 0.00000000000000000000e+00) (0, 0, 0.00000000000000000000e+00) (0, 0, 0.00000000000000000000e+00) (0, 0, 0.00000000000000000000e+00) (0, 0, 0.00000000000000000000e+00) (0, 0, 0.00000000000000000000e+00) (0, 0, 0.00000000000000000000e+00) (0, 0, 0.00000000000000000000e+00) (0, 0, 0.00000000000000000000e+00) (0, 0, 0.00000000000000000000e+00) (0, 0, 0.00000000000000000000e+00) (0, 0, 0.00000000000000000000e+00) (0, 0, 0.00000000000000000000e+00) (0, 0, 0.00000000000000000000e+00) (0, 0, 0.00000000000000000000e+00) (0, 0, 0.00000000000000000000e+00) (0, 0, 0.00000000000000000000e+00) (0, 0, 0.00000000000000000000e+00) (0, 0, 0.00000000000000000000e+00) (0, 0, 0.00000000000000000000e+00) (0, 0, 0.00000000000000000000e+00) (0, 0, 0.00000000000000000000e+00) (0, 0, 0.00000000000000000000e+00) (0, 0, 0.00000000000000000000e+00) (0, 0, 0.00000000000000000000e+00) (0, 0, 0.00000000000000000000e+00) (0, 0, 0.00000000000000000000e+00) (0, 0, 0.00000000000000000000e+00) (0, 0, 0.00000000000000000000e+00) (0, 0, 0.00000000000000000000e+00) (0, 0, 0.00000000000000000000e+00) (0, 0, 0.00000000000000000000e+00) (0, 0, 0.00000000000000000000e+00) (0, 0, 0.00000000000000000000e+00) (0, 0, 0.00000000000000000000e+00) (0, 0, 0.00000000000000000000e+00) (0, 0, 0.00000000000000000000e+00) (0, 0, 0.00000000000000000000e+00) (0, 0, 0.00000000000000000000e+00) (0, 0, 0.00000000000000000000e+00) (0, 0, 0.00000000000000000000e+00) (0, 0, 0.00000000000000000000e+00) (0, 0, 0.00000000000000000000e+00) (0, 0, 0.00000000000000000000e+00) (0, 0, 0.00000000000000000000e+00) (0, 0, 0.00000000000000000000e+00) (0, 0, 0.00000000000000000000e+00) (0, 0, 0.00000000000000000000e+00) (0, 0, 0.00000000000000000000e+00) (0, 0, 0.00000000000000000000e+00) (0, 0, 0.00000000000000000000e+00) (0, 0, 0.00000000000000000000e+00) (0, 0, 0.00000000000000000000e+00) (0, 0, 0.00000000000000000000e+00) (0, 0, 0.00000000000000000000e+00) (0, 0, 0.00000000000000000000e+00) (0, 0, 0.00000000000000000000e+00) (0, 0, 0.00000000000000000000e+00) (0, 0, 0.00000000000000000000e+00) (0, 0, 0.00000000000000000000e+00) (0, 0, 0.00000000000000000000e+00) (0, 0, 0.00000000000000000000e+00) (0, 0, 0.00000000000000000000e+00) (0, 0, 0.00000000000000000000e+00) (0, 0, 0.00000000000000000000e+00) (0, 0, 0.00000000000000000000e+00) (0, 0, 0.00000000000000000000e+00) (0, 0, 0.00000000000000000000e+00) (0, 0, 0.00000000000000000000e+00) (0, 0, 0.00000000000000000000e+00) (0, 0, 0.00000000000000000000e+00) (0, 0, 0.00000000000000000000e+00) (0, 0, 0.00000000000000000000e+00) (0, 0, 0.00000000000000000000e+00) (0, 0, 0.00000000000000000000e+00) (0, 0, 0.00000000000000000000e+00) (0, 0, 0.00000000000000000000e+00) (0, 0, 0.00000000000000000000e+00) (709, 3, 5.00000000000000000000e-01) (709, 3, 5.00000000000000000000e-01) (709, 3, 5.00000000000000000000e-01) (709, 3, 5.00000000000000000000e-01) (709, 3, 5.00000000000000000000e-01) (709, 3, 5.00000000000000000000e-01) (709, 3, 5.00000000000000000000e-01) (709, 3, 5.00000000000000000000e-01) (709, 3, 5.00000000000000000000e-01) (709, 3, 5.00000000000000000000e-01) (709, 3, 5.00000000000000000000e-01) (709, 3, 5.00000000000000000000e-01) (709, 3, 5.00000000000000000000e-01) (709, 3, 5.00000000000000000000e-01) (709, 3, 5.00000000000000000000e-01) (709, 3, 5.00000000000000000000e-01) (709, 3, 5.00000000000000000000e-01) (709, 3, 5.00000000000000000000e-01) (709, 3, 5.00000000000000000000e-01) (709, 3, 5.00000000000000000000e-01) (709, 3, 5.00000000000000000000e-01) (709, 3, 5.00000000000000000000e-01) (709, 3, 5.00000000000000000000e-01) (709, 3, 5.00000000000000000000e-01) (709, 3, 5.00000000000000000000e-01) (709, 3, 5.00000000000000000000e-01) (709, 3, 5.00000000000000000000e-01) (709, 3, 5.00000000000000000000e-01) (709, 3, 5.00000000000000000000e-01) (709, 3, 5.00000000000000000000e-01) (709, 3, 5.00000000000000000000e-01) (709, 3, 5.00000000000000000000e-01) (709, 3, 5.00000000000000000000e-01) (709, 3, 5.00000000000000000000e-01) (709, 3, 5.00000000000000000000e-01) (709, 3, 5.00000000000000000000e-01) (709, 3, 5.00000000000000000000e-01) (709, 3, 5.00000000000000000000e-01) (709, 3, 5.00000000000000000000e-01) (709, 3, 5.00000000000000000000e-01) (709, 3, 5.00000000000000000000e-01) (709, 3, 5.00000000000000000000e-01) (709, 3, 5.00000000000000000000e-01) (709, 3, 5.00000000000000000000e-01) (709, 3, 5.00000000000000000000e-01) (709, 3, 5.00000000000000000000e-01) (709, 3, 5.00000000000000000000e-01) (709, 3, 5.00000000000000000000e-01) (709, 3, 5.00000000000000000000e-01) (709, 3, 5.00000000000000000000e-01) (709, 3, 5.00000000000000000000e-01) (709, 3, 5.00000000000000000000e-01) (709, 3, 5.00000000000000000000e-01) (709, 3, 5.00000000000000000000e-01) (709, 3, 5.00000000000000000000e-01) (709, 3, 5.00000000000000000000e-01) (709, 3, 5.00000000000000000000e-01) (709, 3, 5.00000000000000000000e-01) (709, 3, 5.00000000000000000000e-01) (709, 3, 5.00000000000000000000e-01) (709, 3, 5.00000000000000000000e-01) (709, 3, 5.00000000000000000000e-01) (709, 3, 5.00000000000000000000e-01) (709, 3, 5.00000000000000000000e-01) (709, 3, 5.00000000000000000000e-01) (709, 3, 5.00000000000000000000e-01) (709, 3, 5.00000000000000000000e-01) (709, 3, 5.00000000000000000000e-01) (709, 3, 5.00000000000000000000e-01) (709, 3, 5.00000000000000000000e-01) (709, 3, 5.00000000000000000000e-01) (709, 3, 5.00000000000000000000e-01) (709, 3, 5.00000000000000000000e-01) (709, 3, 5.00000000000000000000e-01) (709, 3, 5.00000000000000000000e-01) (709, 3, 5.00000000000000000000e-01) (709, 3, 5.00000000000000000000e-01) (709, 3, 5.00000000000000000000e-01) (709, 3, 5.00000000000000000000e-01) (709, 3, 5.00000000000000000000e-01) (0, 3, 0.00000000000000000000e+00) (81, 3, 5.00000000000000000000e-01) (81, 3, 5.00000000000000000000e-01) (0, 3, 0.00000000000000000000e+00) 
connections (connected_to_neuron, weight)=(0, 7.71700143822736939203e-02) (1, -9.67919781153338404378e-02) (2, 6.25167639298020022531e-02) (3, 4.38303411939032980249e-02) (4, -2.48953455804611784030e-02) (5, 5.32836521323829925140e-03) (6, -5.47756794777870814617e-02) (7, 6.95355185324500746358e-02) (8, 5.31376553541922092005e-03) (9, 7.78578085329404562254e-03) (10, 8.91925782065486616457e-02) (11, 5.07384187372839842722e-02) (12, 4.15685388898167709759e-02) (13, -2.46222543658000045386e-02) (14, -1.39232113918010599191e-02) (15, 1.98203144208354310740e-02) (16, -3.63091563839813835646e-02) (17, -7.29597149233069675045e-02) (18, 2.62860720718228642323e-02) (19, 7.94235945689002742487e-02) (20, -1.30954533815383911133e-02) (21, 1.34087165748600321835e-02) (22, -1.18509710464872297653e-01) (23, 1.77988154175108492794e-01) (24, 4.17200814993904101069e-02) (25, 4.37677216730875603967e-02) (26, 7.00052581070779306183e-02) (27, 2.73577632857300162561e-02) (28, 4.87055596352530123516e-02) (29, -6.61643473364556949923e-02) (30, -6.43503680325915039528e-02) (31, -5.22238313211426524729e-02) (32, -5.87452004244375380893e-02) (33, -4.78529397521701427287e-02) (34, -5.47369668453328364621e-02) (35, 5.35798135475720679888e-02) (36, 2.34215488060014603855e-02) (37, 2.71617509211247408485e-02) (38, 4.20177723378141743105e-02) (39, -5.46373129178290284358e-02) (40, -7.44511443675650447238e-02) (41, 3.26633942956012918168e-02) (42, -1.15883185678212347058e-01) (43, 5.16893057159750202167e-02) (44, 2.98211852289826800932e-02) (45, 1.70751291077795956663e-02) (46, -7.76118707254933384854e-03) (47, -6.98275199776765415072e-02) (48, 1.34573716430981173836e-02) (49, -8.33658773943536934858e-02) (50, -6.33571289905571211065e-02) (51, -8.70197653588909020295e-02) (52, -1.95081891112902118535e-02) (53, -3.59259663518914848512e-02) (54, -8.33411562683634421500e-02) (55, 9.99569390271941998760e-02) (56, 7.91122721236648118737e-02) (57, 8.07576296267545901131e-02) (58, 7.68796411269072055283e-02) (59, -1.59739664739143791272e-02) (60, -9.70810528969004021826e-02) (61, -2.14278255291779455571e-02) (62, -4.23115533693722151165e-02) (63, 6.80768934788941780870e-04) (64, -4.12243202703468578085e-03) (65, 7.69665780047597194308e-03) (66, -2.57480940621940997126e-02) (67, -4.70778683797302630043e-02) (68, -1.07408741265439561241e-01) (69, 7.15463539086326205663e-02) (70, 9.20540574011546042232e-02) (71, -3.25340167206298741531e-02) (72, -1.92882204807530363566e-02) (73, 8.84037634710595487952e-02) (74, 1.43258352831907520564e-01) (75, -4.88146212148833982813e-02) (76, -1.87370488106343921486e-02) (77, -7.90111226590447558726e-03) (78, 5.25269120852983779912e-03) (79, -8.37914712219242491242e-02) (80, -4.80514358447813386133e-02) (81, 2.23799224140991334653e-02) (82, -1.03699320733874680855e-01) (83, -9.97551146306552283249e-02) (84, 5.94976884127955685244e-02) (85, -1.89918558577431319245e-02) (86, -6.77195706409400438597e-02) (87, -2.25928964614770834418e-02) (88, -1.10679989174929493956e-01) (89, -1.09094376334852610766e-01) (90, 5.97859140155344859213e-03) (91, -5.70975452267401956119e-02) (92, -6.11498428080980011012e-02) (93, 1.94281128277018245998e-02) (94, 2.76676672434103820830e-02) (95, -7.51201830566474992867e-02) (96, -7.30581832501776412547e-02) (97, 1.11573625344405957804e-01) (98, 4.07760825517090655379e-02) (99, -8.77309565635315674603e-02) (100, -3.22863824216548592205e-02) (101, -5.18361864298282626340e-02) (102, -6.62330849221225009815e-02) (103, 1.15544545057443617808e-01) (104, -1.07942255952775345573e-01) (105, -6.29407923170924449296e-02) (106, -3.51824187091931903093e-02) (107, -1.78630728199733455376e-03) (108, -5.91317463885290914988e-03) (109, -1.66405486796565777775e-03) (110, 5.27329429559787454806e-02) (111, -5.84196606710237972826e-02) (112, -1.21601114989661779342e-01) (113, 2.79700463249747295624e-02) (114, -4.98846890670014350699e-02) (115, 5.55948395176942555818e-02) (116, -9.25780266079756219977e-02) (117, -7.31727900244024398457e-02) (118, 3.21088137875126730658e-02) (119, -4.50987790237229388413e-02) (120, -5.46154319474328880935e-02) (121, 7.39695788316942492990e-02) (122, -2.02431217336153136677e-02) (123, 3.34308021566237165145e-02) (124, -5.47155577011184668379e-02) (125, -1.14715038405170013935e-01) (126, 4.77599114247616585160e-02) (127, -1.99211716716085063261e-02) (128, -1.60537620503290567875e-01) (129, -1.00324737054637222466e-01) (130, -3.51293244655525721543e-02) (131, 2.40305921467288789717e-02) (132, -3.00249126684101232121e-03) (133, 3.21395386285591860842e-02) (134, -1.44249073243226284824e-02) (135, 3.38174164205838762021e-02) (136, 1.13814133976335218890e-01) (137, 6.27197025763641669016e-02) (138, -6.42015563013592360786e-02) (139, 5.91674703255496356458e-02) (140, -7.67434505329608607216e-02) (141, 3.99202436265608529009e-02) (142, 5.55323485580321105776e-03) (143, -3.66001056071799113489e-02) (144, -9.28235774652657052997e-02) (145, 2.08399739965605575176e-02) (146, -5.25409036128755488337e-02) (147, -3.45635983310852573647e-02) (148, 1.35189310835184088588e-02) (149, 1.12101781316237669034e-02) (150, -1.02373333228924102284e-03) (151, -5.32046929895156964219e-02) (152, -2.70984820244137003531e-02) (153, 8.68984649372221973351e-02) (154, 4.53639092960693643408e-02) (155, 3.04388168370976035237e-02) (156, 1.11676285300934194367e-01) (157, 6.31506404970956919387e-02) (158, -5.47534567542498004644e-02) (159, 1.51392379627464490621e-01) (160, 5.92847180375046037271e-02) (161, 4.97024486256945827178e-02) (162, 4.19124949903202370649e-02) (163, 4.52348622750942640225e-03) (164, -6.04783762432220470262e-02) (165, -3.67244516297028644747e-02) (166, -6.82301342370111169044e-02) (167, -4.77135318113838663434e-02) (168, -1.29943185550544931806e-01) (169, -5.50929709390352989606e-02) (170, 8.22360727402898228355e-02) (171, -3.54623246902853938786e-03) (172, 6.44689507135226269607e-02) (173, 5.54359992653371477789e-02) (174, -1.25208646414462394791e-02) (175, -6.59713389881632500389e-02) (176, 3.84133208785387286754e-02) (177, -2.13887657941242391446e-03) (178, 2.32997663704024235432e-02) (179, 6.52684433756412357708e-02) (180, 4.39754935371043584325e-02) (181, 1.19340112952202967445e-01) (182, 6.90315390961804414838e-02) (183, 1.32401426985103206485e-02) (184, -3.78531007210199596513e-02) (185, 2.21464965359186097271e-02) (186, 1.53626185272757398437e-01) (187, 8.01605942159626938537e-02) (188, -1.24313964231765869406e-01) (189, -8.01930562198986535138e-02) (190, 3.17017873935719340928e-02) (191, -7.54502693654243716814e-02) (192, 9.59564621392283989554e-02) (193, -3.52536871955491382113e-02) (194, -4.69627631645297069496e-04) (195, -8.09987674644706140414e-02) (196, 4.54557295756327084391e-02) (197, 5.09731111159855698745e-02) (198, 4.20117887820542351696e-02) (199, 1.33790370300652855517e-01) (200, 2.79262050530590597019e-02) (201, 1.34745276014543429594e-02) (202, -5.38747917835686526700e-02) (203, 2.92488896669431917841e-02) (204, -1.24726867540930361211e-01) (205, -8.34638744806049381886e-02) (206, 8.05863422572620780038e-02) (207, -3.69954217272476862388e-03) (208, -7.52778954007563283479e-02) (209, -1.28576354263493231045e-01) (210, -1.71019565641241343135e-02) (211, 8.05940582582540254730e-02) (212, 9.90863915405234135791e-02) (213, -8.45354948970622049886e-02) (214, -9.41937295366146454256e-02) (215, 6.80108483604041913484e-02) (216, 3.27223852148835550602e-02) (217, 1.09941686203297611657e-01) (218, -6.71893025097414740843e-03) (219, 1.05145581470478852171e-01) (220, 4.77785740864765939850e-02) (221, -8.29754452479293802547e-02) (222, 9.44940756479010213198e-02) (223, 5.06068082548826181366e-02) (224, -3.79155435213384198190e-02) (225, -1.15869269566783068826e-02) (226, 1.11117439356080496826e-01) (227, 1.04541192227739998533e-01) (228, -1.25859983349947551767e-01) (229, 1.19988901351597392064e-02) (230, -1.67135463613932583327e-02) (231, 8.79833438581013316249e-02) (232, 1.53792030177227395660e-01) (233, 1.00068330936885788174e-01) (234, -6.67503900146600298582e-02) (235, -1.16184974643236890723e-01) (236, -1.40573418820714116789e-02) (237, 2.35862607870735221938e-03) (238, -2.61846248630579828132e-02) (239, 2.74964494119050613385e-02) (240, -7.63889800194264279032e-02) (241, -1.01395033469396114723e-01) (242, 3.29196833499790508792e-02) (243, -1.31285463962455568182e-02) (244, -1.03282690553612985229e-01) (245, -3.19790287837343461391e-03) (246, -1.13792695169816882039e-01) (247, 3.83733984518883561310e-02) (248, -9.08449185514334234259e-02) (249, -3.24366457957807677315e-02) (250, -7.43699299904103106051e-02) (251, -8.24975005005440520378e-02) (252, -1.64028230092603671819e-02) (253, -8.65630737582445686229e-02) (254, 8.32717336192748958101e-02) (255, 5.15878271496982288014e-02) (256, 5.77118208208235450307e-03) (257, 1.09665995145401470867e-01) (258, -8.37420812435407842245e-03) (259, 3.78235868956508722305e-02) (260, -6.90698834045637560797e-02) (261, 2.26732152994586176609e-02) (262, 4.58436894164914315875e-02) (263, -3.41740006890323341771e-02) (264, -6.30051805373806061983e-02) (265, -7.37142255627577375199e-02) (266, -2.61656296376392948078e-02) (267, 4.17373785768444111044e-02) (268, -5.18548796498768810315e-02) (269, 5.27426324379784219887e-02) (270, -8.74601656526364790167e-02) (271, 1.78757297316493000972e-02) (272, 4.08872759369998534096e-02) (273, -1.83900786356078344008e-02) (274, -1.25680862552627697903e-01) (275, 1.08471414055770862261e-01) (276, 8.24430638223457162850e-02) (277, -7.67151764986672840552e-02) (278, 5.45752122936418518351e-02) (279, -1.54113316352679323440e-02) (280, -3.24104424465559218249e-02) (281, 8.99829710649651393073e-02) (282, -3.07156246147476498856e-03) (283, 6.75487022611873794142e-02) (284, -9.08176962189955611082e-02) (285, -2.91401452965418718971e-03) (286, 4.95862617580260928163e-02) (287, 5.78529324725941818119e-02) (288, -1.82292284256027233014e-02) (289, -1.41762963631773125650e-02) (290, -5.21604373971849485936e-02) (291, 3.78239727008181994550e-02) (292, 2.09844295267001337835e-02) (293, -6.25121899688366317038e-02) (294, -7.77531940233696095000e-02) (295, -1.07655762331190785197e-01) (296, -6.06454038970412612208e-02) (297, -3.85659419784634346917e-02) (298, 3.64253283722573775738e-02) (299, 2.77322364396603224246e-02) (300, -1.01844151443981470462e-01) (301, 7.52152408669475545933e-03) (302, 6.28228078929095410526e-03) (303, 6.74009418327509851609e-02) (304, -8.19965391629575018895e-02) (305, -1.53380927429436972331e-02) (306, 6.94651557639914263298e-02) (307, -5.62324552591572449090e-02) (308, -3.70200523476665269845e-03) (309, -2.76745881500697690769e-02) (310, -9.77242737750666327912e-03) (311, -1.05477146654463824205e-01) (312, -4.06087380780733100960e-03) (313, -8.39124683401681337180e-02) (314, 9.80304393487616866631e-03) (315, -1.43356635466957080260e-02) (316, 5.37638913639266330380e-02) (317, 7.02907035988434847340e-02) (318, -4.62687188051199016492e-02) (319, -6.62687173049170130668e-02) (320, -1.15844365798001410969e-03) (321, 7.98706527385423248333e-02) (322, -7.58138187898986654067e-02) (323, 1.73718693422689890449e-02) (324, -1.46157512326279354076e-01) (325, -9.57209965528652562128e-02) (326, 3.74623180574140957066e-02) (327, 2.53582668320654590344e-02) (328, 3.00618328507914860104e-03) (329, -2.78494243601856393544e-02) (330, 2.58304999432562012660e-03) (331, 5.62763506665053120370e-03) (332, 7.02418440106604424766e-02) (333, 8.44508036794736210995e-02) (334, -2.84964762135097747150e-03) (335, -9.68292997262861637742e-02) (336, 1.23213268229755150591e-03) (337, -3.67780883748349413098e-02) (338, -7.08507732374006327092e-02) (339, -8.32363699178859384187e-02) (340, 2.35588729891611191325e-02) (341, 2.69076004621664512106e-02) (342, -9.33788800784172423608e-02) (343, -1.18691655237918580745e-01) (344, 5.41588267903754180810e-02) (345, -9.27291121218942054893e-02) (346, -1.94764396204992538790e-03) (347, 1.26355574242766836163e-02) (348, 2.54946605164273823463e-02) (349, -8.16125941491916001569e-02) (350, -8.70265521033014577412e-02) (351, -3.24158479771149673002e-03) (352, 1.08342004203420549935e-01) (353, -8.25085058724481651415e-02) (354, -8.14135169607591441254e-02) (355, -9.16205094252372370667e-02) (356, -2.42220158425812508163e-02) (357, -8.99894398003704514000e-03) (358, 5.73607348049321383310e-02) (359, 3.29655171342299393999e-02) (360, 7.09228772849365002306e-02) (361, -1.10899654206304321136e-01) (362, 7.89729187734216145356e-03) (363, -2.03335039735564361563e-02) (364, -7.34119851986938243282e-02) (365, 6.43680132247015784897e-02) (366, 2.37420289437776238506e-02) (367, -8.76924768600533498242e-03) (368, -4.73797625430492849730e-02) (369, 4.91219136891836022363e-02) (370, 4.93550227068552324616e-02) (371, -1.09904938535752852435e-01) (372, 8.92346625220865122263e-03) (373, -1.07123399405801636441e-01) (374, -9.42874063951430751995e-02) (375, 9.18654346657156797851e-03) (376, -1.07622032548240778582e-01) (377, 7.86939157609711226193e-02) (378, -2.44754449887740650749e-02) (379, 6.61824465976305204018e-02) (380, 7.50969447868201217533e-02) (381, -1.60739759979171108195e-02) (382, -1.36797435296359334855e-03) (383, 6.40471413472604722550e-02) (384, 4.93733464673446822979e-02) (385, -4.86138339146335585195e-02) (386, -6.31321316143529376319e-02) (387, 4.36768666447796896635e-02) (388, -8.68574098324358667700e-02) (389, 3.50476793699456348752e-02) (390, 9.10281831151387443857e-02) (391, -1.48140816318105134064e-02) (392, 1.29310235443544030431e-01) (393, -1.51718159031360405598e-01) (394, 2.50040536146155095709e-02) (395, 3.24088985697916012740e-02) (396, -5.91729926114772306067e-02) (397, -1.44884999841724537717e-01) (398, -3.71947207145318595872e-03) (399, -3.18385080084404789580e-02) (400, 7.78546782714037988171e-02) (401, -4.56567581654292592441e-02) (402, 7.41280187608960462048e-03) (403, -1.61831093905900336161e-02) (404, -4.86314414578710614567e-04) (405, -1.34605343023008368342e-02) (406, -9.00170150738895946674e-02) (407, -6.29685033814291264531e-03) (408, 6.52609781429381169415e-02) (409, -2.45522962517535914273e-02) (410, -3.57883789897768672672e-02) (411, 5.10581881585860861139e-02) (412, 5.62010626480388061910e-02) (413, 4.80303650367553611189e-02) (414, 1.83678029013394916724e-02) (415, -4.35088182075755655620e-02) (416, -2.07984889748702092560e-02) (417, 5.09319247009583451341e-03) (418, -7.78239973094234788187e-02) (419, 1.54079422293306456115e-02) (420, -3.35051476817396984287e-02) (421, -1.20262732702692984321e-01) (422, -5.44325420969561449280e-02) (423, -5.33059730102662665541e-02) (424, -8.55845572921440506109e-02) (425, 1.13121781997816001075e-02) (426, -8.56888830629242426173e-02) (427, -4.22558936358296277636e-02) (428, 2.82707432402789261838e-02) (429, -2.31772341465909855612e-03) (430, 7.50211354363184285132e-02) (431, 1.83571787499840939628e-02) (432, -1.30662797461486679396e-01) (433, -1.16833428175393185672e-02) (434, -7.08355696308672760919e-02) (435, -5.33774476238460526822e-02) (436, 1.26233765270438946793e-01) (437, -5.55341755195015232549e-02) (438, -1.48787582900204301550e-01) (439, 2.71090199427318108427e-02) (440, 7.20127022795339910566e-02) (441, -4.38014896867502181999e-02) (442, -7.63876202673643978081e-02) (443, 5.90406715169281212652e-02) (444, -4.64929730164300725193e-02) (445, 1.48778247081317177569e-02) (446, -5.20227411982555690284e-02) (447, 3.02270465031965543390e-02) (448, 1.11936165386358310592e-01) (449, 8.60465294098745892004e-03) (450, -9.64444947074693664790e-02) (451, -4.83177903682751389014e-02) (452, 2.78749875142106952330e-02) (453, -1.08664405117968147774e-02) (454, -2.90908080955562288461e-02) (455, 4.39317873257937530074e-02) (456, -7.21746133971478964764e-02) (457, -4.01926809590561831542e-02) (458, -6.65843243177199756166e-02) (459, 8.07956713978934676357e-02) (460, 2.58616818075255577858e-02) (461, 5.97360154659083569806e-02) (462, -1.60103982320360938019e-02) (463, -3.84458637236491443390e-02) (464, -1.29206328127651065563e-01) (465, 1.80719225316847281748e-02) (466, 4.61793394359442180286e-02) (467, 1.23998834426312987134e-01) (468, -9.83150494802390167992e-02) (469, 9.71828083642400086806e-02) (470, -1.27913718933673464101e-02) (471, 7.55718009688616798591e-02) (472, 2.87349345369075845347e-02) (473, 5.56366140370045184071e-02) (474, 2.61226418117300879240e-02) (475, -4.37272187356604752351e-02) (476, 1.15939268120935523587e-01) (477, 7.36885822658811390218e-02) (478, 9.31635936497422212366e-02) (479, 9.55401936267502027711e-02) (480, -1.67642910351164207972e-02) (481, -2.50795119813634823092e-02) (482, -7.68527148484596939193e-02) (483, -8.86676674607541903672e-02) (484, 3.66628394477322080980e-02) (485, -2.44555637442038995011e-02) (486, 8.08324537543932963857e-02) (487, 2.47597034378041098990e-02) (488, 4.15004085331930998304e-03) (489, -1.62305329736153330922e-01) (490, -1.08233965979428845006e-01) (491, -1.46027942199178500937e-01) (492, -4.72633636876394584714e-03) (493, 1.85701675014356103188e-02) (494, -5.81304445678600956171e-02) (495, 4.83796616533253356907e-02) (496, 2.56203730749887219342e-02) (497, -1.49375657827383628851e-01) (498, 3.99594979741547812191e-02) (499, 9.30479014827484060546e-03) (500, 1.18236509399538655685e-01) (501, -2.67252718130568736599e-02) (502, 1.02780555243950875999e-02) (503, -1.44786392578720151531e-02) (504, 8.17957172537066845575e-02) (505, -1.60972151563773119287e-01) (506, -7.43143775827926050120e-03) (507, 3.23935643502563375140e-02) (508, 6.63125227061186484079e-02) (509, -2.50212780155853568853e-02) (510, 2.87804612217446055544e-02) (511, -4.11311228092090114261e-02) (512, -2.09233776341004942823e-02) (513, 1.83153205187792413045e-02) (514, -2.18216403180427273578e-02) (515, -2.69662259166303583391e-02) (516, -6.11945341314156926460e-02) (517, -1.81401950836455813643e-02) (518, -9.59402297044381069391e-02) (519, 1.06700236362716013860e-01) (520, -7.51904922402191200348e-02) (521, 1.88199973124968909788e-02) (522, 7.03892789570301213864e-02) (523, -5.40139532044591960669e-02) (524, 2.87506820039250743024e-03) (525, -4.98622570420320862516e-02) (526, -5.72857673710690379343e-02) (527, -9.26059171475580034105e-02) (528, -5.95788100990138486113e-02) (529, -9.52534514103398483043e-02) (530, 5.28594793431432091735e-02) (531, -4.88912168171921623916e-02) (532, -7.92059635574778597711e-02) (533, -2.58367396080085541532e-02) (534, 6.79934616338001840408e-02) (535, -4.63357128769114404165e-02) (536, 8.68824354336848909963e-03) (537, -7.99024288529392584524e-02) (538, 9.98810544928184634861e-02) (539, -5.12723963765201462550e-02) (540, -2.40608843097051480764e-02) (541, 7.08280562619108700756e-03) (542, 6.55607901856934266460e-02) (543, -5.87534820882059938274e-02) (544, -3.87488189283728412526e-02) (545, -7.03128871102700198081e-02) (546, -3.52295367219022520500e-02) (547, -2.70398583416547703961e-02) (548, -1.72951474740843623434e-02) (549, -7.28696883638799922794e-03) (550, -1.95826390445288413267e-02) (551, 8.70896103392638509799e-02) (552, -1.23918809830175086217e-01) (553, -6.22117985059785980062e-02) (554, -8.27424711127953543821e-02) (555, -1.75875779239035544277e-02) (556, 1.20658346503512772796e-02) (557, -1.66398818377137443225e-02) (558, 7.74375271860183039818e-02) (559, -8.62633162740087389153e-02) (560, 5.07000197028273022481e-03) (561, 4.20512158250000156468e-02) (562, -2.83093366393913220547e-02) (563, 7.78314989661187811576e-02) (564, -8.91548496286747038653e-02) (565, -8.47447325027319425805e-02) (566, -8.29413141856361474380e-02) (567, -1.01603800187515707146e-03) (568, -4.86842890168271216766e-02) (569, -8.95507675708366868150e-02) (570, 5.32181422243056673205e-02) (571, 5.55966932591001605779e-02) (572, 3.71662747187269520976e-02) (573, 1.09890535367608548761e-02) (574, 1.01383584052541372844e-01) (575, -3.81754862572983369451e-02) (576, 3.61784204888458832405e-02) (577, -5.76913459175722349859e-03) (578, 1.78928287725575070610e-02) (579, -6.26354270442683880304e-02) (580, 6.47520095480526580722e-02) (581, 9.10769630992635109701e-02) (582, -7.56363097835671127633e-02) (583, 4.85096372326399502550e-02) (584, -3.85546145318851410377e-02) (585, -6.55303394135587774505e-02) (586, -2.56733800627071025169e-02) (587, -1.43289540570123885566e-01) (588, 5.61578642631448202160e-02) (589, -2.70892304981948280063e-02) (590, -1.02947916704138275890e-01) (591, 3.31990459605003467372e-04) (592, 2.64081291151282288032e-02) (593, -1.66644031189934517523e-02) (594, -1.12832354292580344657e-01) (595, 1.07166557672803391954e-01) (596, 8.56218759146447588697e-04) (597, -3.67971153281105856081e-02) (598, -4.31925094245326837705e-02) (599, 1.29850711456290270063e-02) (600, -7.08755530522695575968e-02) (601, -3.90745465431335745055e-02) (602, -3.94887134491275840209e-02) (603, 1.02818419678626690739e-01) (604, -1.06955384072658140487e-02) (605, -3.31575805844597226724e-02) (606, 7.07587616281776660143e-02) (607, -4.15314424088191885831e-02) (608, 2.45946583263628344718e-02) (609, 2.70874094513482571722e-02) (610, -5.14369170315292570383e-02) (611, -3.52844410227523760937e-02) (612, 6.03700449377123499195e-02) (613, -6.72487941930733634788e-02) (614, -6.46595500670357065109e-02) (615, 9.56248841998159349043e-02) (616, -1.83357239840567197431e-02) (617, 7.44563221149369958152e-02) (618, 1.19754622996592022255e-01) (619, -1.33561799294910146796e-02) (620, -1.23955306334764273068e-01) (621, -6.35471545903749518436e-02) (622, 7.03489614527005868716e-02) (623, -1.55506189021511281867e-01) (624, -5.13776850707959968634e-03) (625, 2.16326510067832607220e-02) (626, -6.46822556942332343999e-02) (627, 5.88849627606790812506e-02) (628, -9.75620100503918619150e-02) (629, -2.51268292558631256561e-02) (630, 1.96673030224353805051e-02) (631, -6.96194247347725891917e-02) (632, -2.15088606289843935204e-02) (633, 9.53223611628397776707e-02) (634, -5.24444275451118324671e-02) (635, -6.30598339719357775524e-02) (636, -7.95626982565522389290e-02) (637, -6.71179233054911145162e-02) (638, -1.03251413143702654163e-02) (639, 6.38434110771305823873e-02) (640, 6.09789445843431088257e-02) (641, 6.68226943905175091443e-02) (642, -2.06803019255474423987e-02) (643, -6.41971714345495186871e-02) (644, -8.05427135795202531199e-02) (645, 9.50982080869562512726e-02) (646, 9.64282191889257456197e-02) (647, 1.06312531657483999581e-01) (648, 4.70322053735824710530e-02) (649, 6.63019472760104505715e-02) (650, -2.81247823627760601406e-02) (651, 7.36931597668500221188e-02) (652, 7.83803959352935147864e-02) (653, -6.27269704094481767020e-02) (654, 8.15992489913608676222e-02) (655, -1.06087687458091120551e-01) (656, -9.16115353459343584319e-02) (657, -1.44440243973183973791e-01) (658, -1.20773363610738898588e-01) (659, -8.37510596521808259318e-02) (660, -1.45252230165362431619e-02) (661, -2.55200870576285862579e-02) (662, -1.82947020655150442703e-02) (663, -5.35545135145778020136e-02) (664, -1.72740119255593536918e-02) (665, 5.76106420287961634719e-02) (666, 2.02935420441085730484e-03) (667, 2.70059676366184164831e-02) (668, 8.46030308462478036757e-02) (669, 8.99660186404921541348e-02) (670, 1.80346020820091219872e-02) (671, 1.20410694625803695729e-02) (672, 3.39825131218169998459e-02) (673, 1.06768878416567208900e-01) (674, 2.22335896992135982619e-02) (675, 5.43300637901014543685e-02) (676, 7.73718297723699766077e-02) (677, 1.64344533822670148260e-02) (678, -5.94611403097691174763e-03) (679, 2.53437332824449496060e-02) (680, 3.42082192989444505704e-02) (681, 1.06004115316531102864e-01) (682, 1.58049410610299964630e-02) (683, -2.22877974309590685953e-02) (684, -7.59201489020697867227e-02) (685, -1.07451215793862107223e-02) (686, 2.37840459126561452885e-02) (687, -7.93955509327794878294e-02) (688, 6.45592136398548312876e-03) (689, 2.57511138257992162892e-02) (690, -4.25018058870448110081e-03) (691, -1.02420850226930301718e-01) (692, -4.46622974428581773210e-02) (693, -8.51729920869518652982e-02) (694, -7.40194752049355975121e-02) (695, 1.55281824519224349868e-02) (696, 8.86326449631085755421e-02) (697, 3.86044094337588336585e-02) (698, -8.42121723509368091953e-02) (699, 2.23867013400743351814e-02) (700, -5.46510014726117251960e-02) (701, 2.96463575976636849532e-03) (702, -1.15006286577470806520e-01) (703, -8.51150019083614095550e-02) (704, -2.12700367632439227392e-05) (705, 1.01825868530634772169e-01) (706, 1.71212336800190510766e-02) (707, -4.34220442244310101537e-03) (708, -1.04614813574807535845e-01) (0, -5.21093488320999789765e-02) (1, 9.74844181627235878418e-02) (2, 2.39664328638298194940e-03) (3, -4.69564184338012030606e-02) (4, -1.36304585960623433905e-02) (5, 6.78183442786158829918e-02) (6, -2.97882829790868455810e-02) (7, 8.65097929633719398002e-02) (8, 1.43255672163892320420e-02) (9, 1.45534158536455831418e-02) (10, -3.30703706512427350606e-02) (11, -4.94409392938766970027e-02) (12, -9.53751039390511035077e-02) (13, -2.29141567110131803842e-02) (14, -2.83277718648112727950e-03) (15, -8.98648191903783644108e-02) (16, 1.71984124988815052781e-02) (17, -9.08156930410365104134e-02) (18, 5.87001102608864025467e-02) (19, -6.45375264753839245069e-02) (20, -6.32646381855010986328e-02) (21, -5.62724958897608401598e-02) (22, 8.25080025942992317800e-02) (23, -8.51267169798431561079e-02) (24, -1.40156248787669940326e-01) (25, 4.19341724897081130630e-02) (26, -6.06451903606571585126e-02) (27, 1.30031493507194062520e-01) (28, 2.23246905332714798247e-04) (29, 4.78248498288135065470e-02) (30, -6.64606662642115569861e-02) (31, 1.20918949400357245150e-01) (32, 6.70672532232845231004e-02) (33, 1.68246196234727099506e-02) (34, -5.94138135047204210548e-02) (35, -6.62146856346797346715e-02) (36, 2.84160316817209553097e-02) (37, -4.72358584497195796437e-02) (38, -7.33488545890704640717e-02) (39, 1.46825566623775188857e-01) (40, -7.98674219098371718228e-02) (41, 5.03089831141344191907e-04) (42, -4.88340135485941934101e-02) (43, -7.03830734024966098161e-02) (44, 1.09243829447952411904e-01) (45, 3.80006334243690527264e-02) (46, -8.88731255361606409249e-02) (47, 8.41971110271973362249e-03) (48, 6.47762694036232988815e-02) (49, 7.20036776327942912301e-02) (50, 3.57736656132985469947e-02) (51, 1.04687744116157291363e-01) (52, -4.00880210848422735559e-02) (53, -5.05395705010191001461e-02) (54, 2.95753419422833604968e-02) (55, 6.43226918029589801035e-03) (56, -5.92443390341097428364e-02) (57, -6.78289358968744843237e-02) (58, 8.06584776123972979275e-04) (59, 9.00581382041528294424e-02) (60, 7.56635922509628078281e-02) (61, 2.90967046475717723911e-03) (62, 4.73408532707545320894e-02) (63, 9.26951917623588111939e-02) (64, -5.32461705216863701029e-02) (65, 1.01606384033956220758e-01) (66, -6.19134497606613903864e-02) (67, 5.66348125850975950279e-02) (68, -4.85524543325627291890e-02) (69, -8.10943858384124971472e-02) (70, 3.67230147717751906344e-02) (71, 3.26388921575469130934e-03) (72, 3.84562133902442426781e-02) (73, 4.04715678363498573833e-02) (74, -2.41376625810886639989e-02) (75, 1.37889398265823824585e-02) (76, 1.79849811605459243558e-02) (77, 3.50775843115048446830e-02) (78, -1.07663153174356054920e-01) (79, -5.18941328241121352383e-02) (80, 9.55604095589866614491e-02) (81, 4.21669837921911164202e-02) (82, -6.61164889695530499925e-02) (83, 6.30194781353674710056e-02) (84, -4.17257688291361381050e-02) (85, -1.41831122056535585685e-01) (86, -1.27577666048162494117e-02) (87, 1.82163680605532292411e-02) (88, -4.61961992129796480966e-02) (89, -1.11908651199628950135e-01) (90, -6.74122198175364784056e-02) (91, -6.28786563383471192035e-02) (92, 3.09944159837935752366e-02) (93, -8.87631214467380913469e-02) (94, 9.54719194380981295289e-02) (95, 5.15750799983289362483e-02) (96, -1.21805134412741586369e-01) (97, 7.88826059681195790318e-02) (98, -6.50157559299086446059e-02) (99, -3.44513091071245169950e-02) (100, -5.14654807352407928089e-02) (101, -1.24591888193112218519e-01) (102, 8.29808430137011221461e-02) (103, 6.59301730404402847041e-02) (104, 8.85043019699612021345e-02) (105, -1.56977386611096246527e-02) (106, -3.21785132636667123296e-02) (107, -7.95658064188751665280e-03) (108, -9.38221410937949973352e-02) (109, 3.01640889621096345077e-03) (110, 1.63646411801110537587e-02) (111, 8.36627037719971967944e-03) (112, -9.25227942624825931694e-03) (113, -1.42244280414936974388e-01) (114, -2.38986676117630587879e-02) (115, 5.11041974679189714426e-02) (116, -9.65737296916912429934e-02) (117, 9.47133524539624654937e-02) (118, -1.22017103869843573927e-01) (119, -9.60785240619825842145e-02) (120, 1.12082096619563392759e-01) (121, 1.29143960408490739850e-02) (122, -4.45674491368473688069e-02) (123, -1.50481681960795525554e-03) (124, 5.90576165336452324484e-02) (125, -3.34190049341544295758e-02) (126, -5.79284568646295447425e-02) (127, 3.26607312167366331188e-03) (128, 1.62517784703473111563e-02) (129, 7.70154236790325658069e-02) (130, -4.81237779402733864553e-02) (131, 1.26803718024651127655e-02) (132, 3.68109312714769848496e-02) (133, -9.56459291512084530673e-02) (134, 6.76372927977288585649e-03) (135, -1.55162543158712615959e-02) (136, -6.36799826447060207668e-02) (137, 4.33070664626784215812e-02) (138, -1.25596904708447421051e-01) (139, -4.98047675565185324342e-02) (140, -1.32920007393275523000e-02) (141, 4.50437682596780478161e-02) (142, -9.90102353952948266436e-02) (143, 3.17130032144152720214e-03) (144, 1.01202467186140065980e-01) (145, 1.74979498826467977195e-03) (146, -5.42501347224864649554e-02) (147, 1.05262766024263057507e-01) (148, 4.23372902338353188090e-02) (149, -4.47260862883965936831e-04) (150, -6.18169501082030323214e-02) (151, 1.86068864768793376663e-03) (152, -9.57868578718406304962e-02) (153, 2.45083242319456403799e-03) (154, -5.23898598714980026636e-02) (155, 8.76835041021747363388e-02) (156, 5.76709903400855830591e-02) (157, -6.03986912487732285904e-02) (158, -6.45051108550338727493e-03) (159, -1.13688881511937789348e-01) (160, -6.66905525823946326858e-02) (161, 3.02263644064012654278e-02) (162, 1.29146276658688875100e-02) (163, 3.75023940778518374839e-02) (164, 1.14515249272267111147e-01) (165, -1.02023941189054737078e-01) (166, -1.57056638170888218653e-02) (167, -1.46709710813870269908e-02) (168, 1.16871794749243265721e-01) (169, 1.48966637343744649769e-02) (170, 8.62496461162757521723e-02) (171, -7.44496348232167176606e-02) (172, -8.88575128564503546880e-02) (173, 2.07447491005746560699e-02) (174, 9.43080610250393858163e-02) (175, 6.50149281677130513879e-02) (176, -1.40032071197430579845e-01) (177, 4.97108568873136976579e-03) (178, 7.61656275868656616052e-03) (179, -2.47057632615651473484e-01) (180, -2.30242612517296170449e-02) (181, 9.24027574886407965238e-02) (182, -6.66803472573020139524e-02) (183, -8.95684081994285591355e-02) (184, 4.68140907064851230501e-02) (185, -6.17938292840289268848e-02) (186, -1.00510399059698399271e-01) (187, -6.78648835429367242034e-02) (188, 1.11304456986877506330e-01) (189, 8.63786325813245131622e-02) (190, 2.01740342097735114724e-02) (191, 1.14216997481451448815e-01) (192, -3.02365162160071927755e-02) (193, -3.83145954687256831694e-02) (194, 2.49018033015221233739e-02) (195, -2.43202780792000083920e-02) (196, -9.03108243589489101399e-02) (197, -1.22850509335451607562e-01) (198, -1.76726397525929328214e-02) (199, -1.92983069199094192658e-01) (200, 1.02398905268608953791e-03) (201, -5.00148781256262789374e-02) (202, -5.26438224583335862006e-02) (203, 1.76854954302113481779e-02) (204, -2.69573942242542462233e-02) (205, 7.02629503276645528409e-02) (206, -2.87576188581999472871e-03) (207, 7.80389375620291550484e-03) (208, 2.60313838752588670722e-02) (209, 4.16404348293606882403e-03) (210, 1.19494273931039118875e-01) (211, -9.37382023160569441411e-03) (212, -9.04940304106541769380e-03) (213, -5.92867229230760808822e-02) (214, 5.33557013038889887957e-02) (215, 5.31357358810390992265e-02) (216, 1.50915920815367782248e-02) (217, -9.20725716345910660809e-02) (218, -4.29420974826059814733e-02) (219, -5.14546064354074392244e-02) (220, -5.19005285214947237327e-02) (221, -8.33899817893593575668e-02) (222, -4.77138970771883649813e-02) (223, 1.28363470903635305820e-02) (224, 1.48123344022774725351e-03) (225, -1.30291992272756729232e-01) (226, -7.58137599904448733490e-02) (227, 4.89156066707461603671e-02) (228, -2.18314131680543560554e-02) (229, 3.56526679260544543393e-02) (230, -2.67406393590549767980e-02) (231, 6.61389825732782571377e-02) (232, -1.01670876422830971930e-01) (233, -5.95642454058447415322e-02) (234, -1.03745688730969825436e-02) (235, 7.10976052239586653325e-02) (236, -9.44649541351442884052e-02) (237, 2.33171488674179423761e-02) (238, -2.40602736499296657180e-02) (239, 7.01207884750673221541e-02) (240, -2.30088113867722640626e-02) (241, -2.72986677261861654387e-02) (242, -1.08654548803411146740e-01) (243, 9.23188803404387595131e-03) (244, 1.89631128374199531099e-03) (245, 8.31015311367816755794e-02) (246, 4.02749983652005844048e-02) (247, -2.04151968246417299391e-02) (248, -6.17128853168838961696e-02) (249, -9.28638721262038668858e-02) (250, 1.08399767403812741229e-01) (251, -1.37359005734063628623e-02) (252, -5.15762791513519752717e-02) (253, -3.43461239585204705649e-02) (254, 6.72940071409451751050e-02) (255, 1.21292964786983165776e-02) (256, 2.16815555860825938395e-02) (257, -1.28820038736092157272e-01) (258, 2.09786465240534222843e-02) (259, 2.19903705375107186293e-02) (260, -6.22985976726545889748e-02) (261, -3.48249751483669690855e-03) (262, -4.99544114327142366183e-02) (263, -3.88619864979559623275e-02) (264, -7.30459473291441008236e-02) (265, -6.28002617852902855072e-03) (266, -1.18048866002975913481e-01) (267, -5.07188546847176582877e-02) (268, -1.92677771830503195144e-03) (269, 4.77401954984356131223e-03) (270, -3.30851439865206334301e-02) (271, 4.34049602246782614823e-02) (272, 7.80391777034843692196e-02) (273, -5.18468433224024485839e-02) (274, -2.41218972685077470697e-02) (275, -4.56642741200858348627e-02) (276, 4.11468176676577784834e-02) (277, -6.15856657269824511736e-02) (278, 9.25061908332608894001e-03) (279, 1.02615181351830356271e-02) (280, -4.07818386342454208826e-02) (281, 6.15688508486206265147e-02) (282, 4.99329492562700719138e-02) (283, 7.50981566062299682462e-03) (284, -5.52090016667001193262e-02) (285, 3.86043857056109010473e-02) (286, -5.12036546995834548901e-02) (287, 5.40385981545352667155e-02) (288, 5.44382622253445497273e-02) (289, 3.71170124493198656107e-03) (290, 3.57376197181218172028e-02) (291, 9.93955635928497199805e-02) (292, 2.00007458855141380394e-02) (293, 7.09148571693900414692e-02) (294, -1.88689185817646947266e-03) (295, 5.46915157525108899805e-02) (296, 5.37197783783844515226e-02) (297, 1.78215322141485991991e-02) (298, -7.86977794998525992387e-02) (299, -6.19481079173444387775e-02) (300, -3.39943167710780522195e-02) (301, -4.85201146407432219732e-03) (302, 5.21063498657378873502e-02) (303, -9.05856614278029576015e-02) (304, 8.25886701529390532261e-02) (305, -3.65838280376917027170e-02) (306, -4.11345750260031992052e-02) (307, -5.54050808577490200291e-02) (308, 3.35725753631452156212e-02) (309, -7.69790898570353460117e-02) (310, 7.02981089361072453148e-02) (311, 9.60292376688075682845e-02) (312, 4.27883223768805165399e-02) (313, -2.08910664930642012496e-03) (314, 5.72008096671432011179e-06) (315, -6.41500832868059644998e-02) (316, -5.52370471702100379607e-02) (317, -4.84285448558443437639e-02) (318, 1.05184577966843745278e-01) (319, -6.37924089151497564210e-02) (320, 3.01747330769214401613e-02) (321, -1.47888685960328673114e-02) (322, 7.90147185486644171304e-02) (323, -8.69472349755451290321e-02) (324, 1.06830448087937186774e-02) (325, -2.24868772921930498709e-02) (326, 5.41313531178793175269e-02) (327, 6.89856004194460553647e-02) (328, -8.28646362942479230984e-02) (329, -1.05602068484844102692e-01) (330, -8.88800677447619397187e-02) (331, -3.45979553505772058353e-02) (332, -1.82383153364658393003e-02) (333, 5.66250967291111184654e-02) (334, -6.06422662723159824893e-02) (335, -9.05309589934792796617e-02) (336, -9.07568151697389913224e-02) (337, 2.88649124152866864979e-02) (338, -3.51563832650454641260e-02) (339, 1.96119475294404786714e-02) (340, -1.25279411621175840175e-01) (341, -8.17678409608234568751e-02) (342, 6.34802739005201847183e-03) (343, 7.95449523992240864478e-02) (344, 3.26818203941409007873e-02) (345, -1.18927745553164404546e-01) (346, -1.01655192134215449640e-01) (347, 6.97733721956131092146e-02) (348, 3.61344187394827959237e-02) (349, 6.73776565387873838109e-02) (350, 6.23320318487352378889e-02) (351, -6.17746328680622638907e-02) (352, -5.96235188050346226474e-02) (353, 7.67094747390399955833e-02) (354, -5.37218902370997369866e-02) (355, 5.48128992698634007197e-02) (356, -7.45306762082524609792e-02) (357, -1.56630396216315102842e-02) (358, 8.63432000357207060648e-03) (359, -1.94592514956574529073e-02) (360, -6.20159511204788002625e-02) (361, 7.31969503711273478119e-02) (362, -3.90154849753963015035e-02) (363, 9.28316731552494972535e-02) (364, -2.08263679022157484344e-02) (365, 9.67598957320851965624e-02) (366, -1.13092659294561109773e-01) (367, 6.63249839939176605297e-02) (368, 2.42892153543121311343e-02) (369, -6.47605819532511093467e-03) (370, -8.62793130790534025520e-03) (371, 3.69991789422435546353e-02) (372, 3.08343283252570515840e-02) (373, -8.57390216852625119959e-02) (374, 3.13519541951213787101e-02) (375, -3.44756519275586648110e-02) (376, -6.52873995476928592474e-02) (377, 1.80277947821590386890e-02) (378, -6.02350300599590465778e-03) (379, 1.36881151708047148208e-02) (380, 4.76356119267836441988e-02) (381, -1.04104223136184448339e-01) (382, -1.08762800100981202323e-01) (383, 6.90257198416142636610e-02) (384, -6.77323418499332086107e-02) (385, -5.86177818281991419580e-02) (386, 5.78572887980508196448e-02) (387, -5.82940793589916336770e-02) (388, 8.48818649721344714587e-02) (389, -7.01612081489985106586e-02) (390, 3.24488058569632753514e-02) (391, -6.75092485500718847424e-02) (392, -7.20673608896047063199e-02) (393, -4.35660410777571061036e-02) (394, 1.09082262939754717768e-01) (395, 2.53173833035004007541e-02) (396, -5.43385493388648388446e-02) (397, -1.07257917905948838011e-01) (398, 9.69322807082616394458e-02) (399, 3.46824004032428431440e-03) (400, 4.97823453770528043250e-02) (401, -1.33883003971084296735e-01) (402, 5.31188059690814590175e-02) (403, -1.18593299802770488216e-01) (404, -3.89312466937022372271e-02) (405, -7.15028378979972178975e-02) (406, 2.81577985353662976764e-02) (407, -3.02230064116798119445e-02) (408, 6.62074961284134649864e-02) (409, 8.01227015516003948647e-02) (410, -5.38260949568906549301e-02) (411, -3.53337432916963397472e-03) (412, -5.78332494723638249057e-02) (413, -8.67790166432588078171e-02) (414, -2.80815975269638543055e-02) (415, -1.87764075993151098587e-02) (416, -1.79826648650531079054e-02) (417, -8.92130659213660748286e-02) (418, 7.01127814358106643544e-02) (419, -6.06468368401556490177e-02) (420, -2.15775633661352272963e-02) (421, 1.62254605458828637943e-02) (422, 2.35601294635781740791e-03) (423, 5.64303178869565921771e-02) (424, 8.95950541122634280811e-02) (425, -3.82787298101064724087e-02) (426, 3.21954824293093910814e-02) (427, -7.87016319120815849297e-02) (428, -3.02391572614510266426e-02) (429, -2.46519315128073158994e-02) (430, 8.51318100556205381579e-02) (431, -1.33246975077497969986e-01) (432, -3.42248340061161553105e-03) (433, -1.14614315044597910032e-02) (434, -7.07121533687179171235e-02) (435, 4.21144944463836823356e-02) (436, 4.03968980703141439248e-02) (437, 6.93473395908635742435e-02) (438, -6.14780536064148397379e-02) (439, 2.43129300587237272280e-02) (440, 3.96218592187876292310e-02) (441, -2.58557684744027162227e-02) (442, -7.78693985892505990964e-02) (443, 7.71350276253027072881e-02) (444, 3.02217870087076213859e-02) (445, 1.05261164438505017832e-02) (446, -8.84655940131715418095e-02) (447, -3.82676092181627042210e-02) (448, 3.96723533809749812074e-02) (449, 5.31839550326980783912e-02) (450, 5.79372070093141094960e-02) (451, -2.46950169679084133301e-02) (452, -8.59396473381132119940e-02) (453, -7.39532366153386744312e-02) (454, -5.73321190037416744678e-02) (455, -7.12561232812174705220e-02) (456, 4.91572625776651728202e-02) (457, 3.33412859449896750719e-02) (458, -1.07628034708702233213e-01) (459, -5.91611490893366800958e-02) (460, -1.89525710545625974968e-01) (461, -6.39183818311672702350e-02) (462, -6.89229326327783498041e-02) (463, -9.96094965629395340256e-03) (464, 5.75114463098486752846e-02) (465, -1.93650259166429222768e-02) (466, -1.02231229728716635496e-01) (467, -5.21129809408492836176e-02) (468, -1.57976282312121095452e-02) (469, -4.67092017720468627440e-02) (470, -9.69237722068482937532e-02) (471, -9.21298938968829195240e-02) (472, 1.16015888882345244784e-03) (473, -7.45037291322542538641e-02) (474, -1.23300299173178501411e-01) (475, -9.96468443280339871704e-02) (476, 6.93957076595282107423e-02) (477, -7.36648823439115946199e-02) (478, -4.35362610876984489072e-03) (479, 4.67669759830455986083e-02) (480, -9.32447471800425531363e-02) (481, -1.10864654865695064223e-01) (482, -8.35854533347373529484e-02) (483, -6.22699259477341379720e-02) (484, -7.93127936402445027353e-02) (485, -7.83148638258988616379e-02) (486, -6.43726096990046830343e-03) (487, 9.19880494836550210991e-02) (488, -3.49047537397938756332e-02) (489, 2.70589774850203343415e-02) (490, 4.73910918536992950556e-02) (491, -5.83660732515146468691e-02) (492, 8.77574445587429030624e-02) (493, 1.52501214338418324135e-02) (494, 2.92599683996076498360e-02) (495, -3.28349603283642349494e-02) (496, -9.62084574668794073604e-02) (497, 6.43484617071702347246e-02) (498, 6.48727258708769044526e-02) (499, 4.55257444791745246454e-03) (500, -1.00188468699375088367e-01) (501, -1.21757374039085777828e-01) (502, 2.88007808308771715358e-03) (503, 5.39355973342637295964e-02) (504, -4.89233415322516199120e-02) (505, 7.43820062427089784274e-02) (506, -1.13213866443377775273e-01) (507, -5.92431006967666443086e-02) (508, 2.73919988205295478201e-02) (509, -2.60272796965242449174e-02) (510, -1.10412618222422195813e-01) (511, 6.29643289651078685853e-02) (512, 1.70799231578617205507e-02) (513, -9.68390628992043395185e-02) (514, -4.57696233246109029924e-02) (515, 2.52660488807491916130e-02) (516, -4.45682835485335798742e-02) (517, 5.66578789971681692772e-03) (518, 2.55039936254216129119e-02) (519, -1.76852368433934696579e-02) (520, -1.75184573323191351835e-02) (521, 5.40825821315846916315e-02) (522, 6.63274213086300756109e-03) (523, 4.94918978896592837158e-02) (524, -2.81036328278196773089e-02) (525, -5.60637596768719312368e-02) (526, -6.02092999044004581477e-02) (527, -4.05123894772498830547e-03) (528, -5.79349593381539990089e-02) (529, -5.67137311260339713193e-02) (530, 1.04833580674742729566e-01) (531, -4.43740701383496180532e-02) (532, -8.05257345071707930639e-02) (533, -6.57464943919424272406e-03) (534, -9.29091837159212036168e-02) (535, 1.48283830706030256980e-02) (536, -7.36286224803004152317e-02) (537, -9.84892038372637279586e-02) (538, 8.14926805829590261698e-02) (539, -2.10488763029047752651e-02) (540, 3.85533226763871764153e-02) (541, 7.27579044946367881064e-02) (542, 5.21682366066866659571e-02) (543, -9.15863008809000150867e-02) (544, -8.34196396251064564709e-02) (545, -7.70545662146573245854e-02) (546, 8.27399095800506884091e-02) (547, 4.74095522866265894207e-03) (548, 8.06599360490719147210e-02) (549, -2.05176348908588483677e-02) (550, 6.65120205522588409108e-02) (551, -9.47722605523540762018e-02) (552, -1.02202533251364961753e-02) (553, 6.65779527433686818538e-02) (554, -4.64474455421652054898e-02) (555, 9.68723869527230996290e-02) (556, 1.03967333575106901655e-01) (557, -2.13631336970750637660e-02) (558, -6.03477624312691932063e-02) (559, -9.73260315064655989747e-02) (560, 2.48515524225815902237e-02) (561, -6.38190574531069532149e-02) (562, -4.83869164875001811499e-02) (563, 8.06563494242426570757e-02) (564, 4.87873990801918622218e-02) (565, -3.68350187615858123968e-02) (566, 6.09081807093958971927e-03) (567, -1.12317848745164136637e-01) (568, -1.71848592702053305781e-02) (569, -2.91995080676132683865e-04) (570, -8.40362880957780666868e-02) (571, -9.03478304905005746850e-02) (572, -8.07191597328079865625e-03) (573, -1.07948144308124160951e-01) (574, -9.10658638640863687952e-02) (575, -4.63742352706883742552e-02) (576, -7.10183647382683636007e-02) (577, -1.17492046878846803648e-01) (578, 8.19948683898814312254e-02) (579, -1.01507247565325323113e-01) (580, -2.45497643222016264514e-03) (581, 8.17841722992185549135e-02) (582, -8.89026639824458675410e-02) (583, 9.89728902390739767592e-02) (584, 1.89383596442461096809e-02) (585, -3.71446615862188952994e-02) (586, 4.35768988023135864229e-02) (587, 3.69722662604365925887e-02) (588, 4.34790700214459941569e-03) (589, 1.16320136132617518721e-01) (590, 9.47854100918688567690e-03) (591, -5.58459089657833071541e-02) (592, -3.29227099135759385118e-02) (593, 6.34148988414126590918e-02) (594, -2.01021172866481141750e-02) (595, -1.36044161386304207628e-01) (596, -4.98460074560851049141e-02) (597, 6.61629863666547968215e-02) (598, -1.02981447228866193622e-01) (599, 5.28197559176765418787e-02) (600, -2.06757968699973759819e-02) (601, -7.13921210871735767434e-02) (602, 3.86058966308894940811e-02) (603, 7.13299833878381223107e-02) (604, -7.58803904213974367288e-02) (605, 8.16864848657548603406e-02) (606, -6.70300380002736024415e-03) (607, -6.01047380043475409916e-02) (608, 8.94040789965596244260e-02) (609, -6.99157469338915343871e-02) (610, 3.12849155765431985454e-02) (611, -3.20775328385546204535e-02) (612, -6.43345194074652210192e-02) (613, 2.11507635668885113356e-02) (614, -3.05192712083320015493e-02) (615, 7.67705600963942361853e-03) (616, 1.25847321378091986377e-01) (617, -9.50929876567542381460e-02) (618, -7.66465457653707354924e-02) (619, 8.93818162107059763222e-03) (620, -6.06877834578114574993e-02) (621, 1.77781049422459994092e-02) (622, 1.33188920115563047553e-01) (623, -5.19122811106748419108e-02) (624, 7.45681507919915137483e-02) (625, -8.30740467139488292236e-02) (626, -4.81439216364777933244e-02) (627, -9.26396905593034059034e-02) (628, -4.35876087686860799741e-02) (629, -6.02217936536635495282e-02) (630, 6.50119964499526192814e-02) (631, -1.72776018239500193940e-02) (632, 2.50412709775285277636e-02) (633, 4.42269753246366317811e-02) (634, -3.29075455078455050839e-02) (635, 3.59624462403137154509e-02) (636, 7.47523018068095429500e-02) (637, 3.01632289742370975072e-02) (638, -8.42835720545029865036e-02) (639, 5.62120911302132972298e-02) (640, -1.31550781792592302866e-01) (641, -9.84684496067432871169e-03) (642, -6.61979624715787751121e-02) (643, -5.21212310250562110836e-02) (644, -9.02379392156338056008e-02) (645, -2.86131310592965034528e-03) (646, -8.98857480295112143409e-02) (647, 4.52469507929565972759e-02) (648, 2.00621757536700827396e-02) (649, -2.16399473162184954877e-02) (650, -3.81496488709951245277e-02) (651, 3.62197936983814638978e-02) (652, -2.22830968985885773115e-02) (653, -7.35300201523932384085e-02) (654, -1.17224422659872179464e-01) (655, -7.69909838401490291548e-03) (656, -3.98733193725072376790e-02) (657, -7.77217008608704473110e-03) (658, 7.58995798495382470450e-03) (659, -1.60622126524033910500e-02) (660, 4.13103203413135722233e-02) (661, -1.15145784946356789097e-02) (662, 4.78289269033020172928e-02) (663, -6.08114135567501892798e-02) (664, -5.16410310178377351953e-02) (665, -8.38383295419793533876e-02) (666, 6.64609451173928666989e-02) (667, -1.07924812320302432322e-01) (668, 4.98893742416817095875e-02) (669, 7.52493671482343806645e-02) (670, 3.14927606885519809077e-02) (671, 5.76029280095482904001e-02) (672, -1.90918344077067106412e-02) (673, 7.60396228011356728471e-02) (674, -7.60278295889676991592e-02) (675, 5.20034274353697693882e-03) (676, -9.40025330104286719127e-04) (677, -5.12383479040819031503e-02) (678, 8.91104778534997608863e-03) (679, -9.30857365427904398514e-02) (680, 1.69960196024627023526e-02) (681, 5.39785022369445449675e-02) (682, -1.31769692931865189944e-01) (683, -7.81446438479429239532e-02) (684, -1.00188890267617500274e-01) (685, -1.07339918598283914908e-01) (686, 1.29360731496874162977e-02) (687, 3.52669149693775373436e-03) (688, -4.04909566100107726205e-02) (689, -1.10329087698015221308e-01) (690, 3.07885852051444225408e-02) (691, -1.04850180655768274174e-01) (692, -4.42827444192109773158e-02) (693, 3.92013982640092017995e-02) (694, -6.27111907835202764261e-02) (695, 5.88818164015815700973e-02) (696, 1.98869974485237702155e-02) (697, -4.00710982549241576112e-02) (698, 4.18182950745321982411e-02) (699, 3.27434504220072350456e-02) (700, -1.85860095461786063720e-02) (701, -1.01015714040369481569e-02) (702, -3.30946758125555962060e-02) (703, 3.51100241652347808130e-02) (704, -9.00840030144567892323e-03) (705, -1.89844600537523284199e-03) (706, -1.60541944216577130156e-02) (707, -7.66640672023869707008e-02) (708, 5.04118800686984766535e-02) (0, 5.44366431055631760927e-02) (1, -4.17374135948856486711e-02) (2, 2.72183906751060807061e-02) (3, 5.32394850573057257237e-02) (4, -3.88384486398451675426e-02) (5, 6.45960714020312742889e-02) (6, 8.44753952613439135222e-02) (7, -1.94801667672379816287e-02) (8, -2.27488227225519541730e-02) (9, -1.40374258888379607746e-02) (10, 6.45398474096875590655e-02) (11, -1.31744937988541675061e-02) (12, -4.61156408083271962539e-02) (13, -9.86578693494851999279e-02) (14, -9.51976061052170058341e-02) (15, 8.25755032072487960004e-02) (16, -1.62747318561630889555e-02) (17, 7.86530022961334229770e-02) (18, 3.92717089672310268322e-02) (19, 4.53139363003457751322e-02) (20, 5.50021007657051086426e-02) (21, -6.00947271158289511583e-02) (22, -8.59873135706723801253e-02) (23, -4.69545127495996639233e-02) (24, -2.20324659804261484622e-03) (25, 4.52113864930668019060e-02) (26, 7.70520899264506564652e-02) (27, 1.85363669516500594037e-02) (28, -6.24347232505432156446e-02) (29, -1.11396029406629126779e-01) (30, -5.86574715738308119506e-02) (31, 5.52898601557316807242e-02) (32, -4.32367711006032828802e-02) (33, 8.03002143549338548434e-02) (34, 9.00886275389607173170e-03) (35, 1.77039005165719812163e-02) (36, 5.11106913996963452274e-02) (37, -3.26331674009414374193e-02) (38, -1.10853842171237615410e-01) (39, -8.04971984138388163554e-02) (40, 8.69751803517263971655e-02) (41, 3.98536672070430655901e-02) (42, 7.09823313958224573483e-03) (43, -5.58502592754052326618e-02) (44, 7.37288462169335828689e-02) (45, 8.58159062408475788175e-03) (46, -9.08649455810866119032e-02) (47, -6.46669605657437807089e-02) (48, -2.29431137637715158728e-02) (49, 3.40959737383333405525e-02) (50, -1.02239680000188237763e-01) (51, -7.68857954182971536916e-02) (52, -7.12232431503256185890e-02) (53, -1.13481179932894957196e-01) (54, -7.06970682900202006260e-03) (55, 4.42594405623506145786e-02) (56, 5.48965222266234662007e-02) (57, 1.23127264394904930092e-03) (58, -8.73016071823689426834e-02) (59, 6.43747695967276378770e-02) (60, -3.60402848367886042419e-03) (61, -6.77805299886519024843e-02) (62, 3.83799813146303708811e-02) (63, 9.96158562492722304826e-02) (64, -7.84913071515297433578e-02) (65, -7.58642761416598726543e-02) (66, -2.87670364727907815205e-02) (67, 6.02870735851625053070e-02) (68, 1.19997663428238598299e-02) (69, -1.93685349328747667685e-02) (70, 6.42416393041809891118e-02) (71, -1.04930702584712359088e-02) (72, -2.16699532571535818937e-02) (73, -3.14987897014417719821e-02) (74, -5.65145030921012942599e-03) (75, -1.06395289192281444768e-01) (76, 7.41249450101352513887e-02) (77, 6.46752372041637380029e-02) (78, -3.18293500485702998692e-02) (79, -4.38865014182466886550e-02) (80, 1.88323128630025413144e-02) (81, -2.18463231021296631906e-02) (82, 4.56463779041605191567e-02) (83, 8.54370780299619353437e-02) (84, -3.58723925520115435872e-02) (85, -7.46792155395291090692e-02) (86, 3.35346119870406434230e-03) (87, -5.07689384118812647717e-02) (88, 1.15735858972244760878e-02) (89, -1.40628582373890365087e-02) (90, -1.06572788943666812989e-01) (91, -5.32816268258229017163e-02) (92, 1.14801846676789373602e-01) (93, 1.30492847585765067014e-02) (94, -1.30170579253920198903e-01) (95, -1.23118338948182276527e-01) (96, 5.14692104432776867395e-02) (97, -4.37849126369127192304e-03) (98, 5.61164155522475213700e-02) (99, -1.11050694592757254880e-02) (100, -8.77710428576625040220e-02) (101, 3.10781220779481788530e-02) (102, -4.83619454320548397552e-02) (103, 6.13849081813740496405e-03) (104, -7.69994157827392361471e-02) (105, 8.06344726653812210460e-02) (106, 1.10684407446102351519e-02) (107, -9.22186313174892663413e-02) (108, 2.91191586793836873492e-02) (109, -1.13419283721556587996e-01) (110, -6.14790117081276139138e-03) (111, -2.53295814071372200893e-02) (112, 2.71980867659112925117e-02) (113, -1.02697726262603566960e-01) (114, -1.06038845497030173592e-01) (115, -9.04804100118034027034e-02) (116, -3.13714060388199933449e-02) (117, 1.45885763701759253036e-02) (118, -4.73960895556376840543e-02) (119, 8.92589264628635553622e-02) (120, -6.80038400282567262467e-02) (121, -2.99930425932063565719e-02) (122, -6.85762137454215825461e-02) (123, -8.98056907577771956763e-02) (124, -8.82292582419363230484e-02) (125, -7.19816478193641418049e-02) (126, -9.28596516100778923697e-02) (127, 5.78942702548091714387e-02) (128, 4.82712379821633383314e-02) (129, -1.10893501487657794580e-01) (130, -4.80802528130704672632e-03) (131, 4.05870270381884154509e-02) (132, 7.27596883449790760023e-02) (133, 1.00305403675661035379e-02) (134, -5.82901641403350406767e-02) (135, -9.06078960059346905087e-02) (136, -1.21761659654623689841e-02) (137, 4.15834776771161415687e-02) (138, -3.85332403939405501725e-02) (139, -7.02894741849798138089e-02) (140, 9.23578676376510809831e-02) (141, 7.37044445125741437552e-02) (142, 2.62385863996925546016e-02) (143, -1.37671836290525571173e-02) (144, -8.57528514055530821647e-02) (145, 4.42149184005912049278e-02) (146, -1.99867116205159137121e-02) (147, -4.96207407114676382620e-02) (148, -3.23251327307002914169e-02) (149, 4.19658189661990810304e-02) (150, -4.67061574139001137174e-02) (151, -5.05456047110037793441e-03) (152, -5.32949874268515491615e-02) (153, -2.88260286984488647843e-02) (154, -1.83211326677590533030e-02) (155, -3.69738512372065758482e-02) (156, 4.13775933088048261665e-02) (157, 3.31003852724042688105e-02) (158, -2.85421185684628583856e-02) (159, -2.52819395085515756516e-02) (160, 7.82074932792958532612e-02) (161, 5.49418733303976836169e-02) (162, -7.76701477432499703957e-02) (163, 1.30164628159845988109e-02) (164, -1.61531108495466214567e-03) (165, -2.25926049367597865658e-02) (166, 4.64219435479888906104e-02) (167, -1.18203481770683391239e-01) (168, -5.37153668331921615997e-02) (169, -8.15613106049128538944e-02) (170, -3.71484674337888218232e-02) (171, -7.68140515377260940655e-02) (172, -1.17934155546830538031e-01) (173, 3.61916226985619093881e-02) (174, -4.01685882082583860936e-03) (175, -1.02059683442843246448e-01) (176, -1.22387077067293605082e-02) (177, -1.37337760494392169264e-01) (178, -2.98852601354558065905e-02) (179, 3.30685421786606412176e-02) (180, 6.92412002032710277577e-02) (181, 1.68276178938083671721e-02) (182, -4.73211404013282876946e-02) (183, -1.06426424201751190779e-01) (184, -5.40794204001006362237e-02) (185, -1.14007549722069445597e-01) (186, -1.06999802808432041556e-02) (187, 4.03764638984302273728e-02) (188, 3.41854040513285342695e-02) (189, 5.31949255206044316346e-02) (190, -5.26300775658756561648e-02) (191, 1.29576203905194392574e-02) (192, 2.85866155960499204736e-02) (193, 1.13280615494866319232e-02) (194, -8.76625163975752741408e-02) (195, -2.79291517557846945274e-02) (196, -1.11978800673718389969e-01) (197, 7.41598893593633096133e-02) (198, -7.51722677469575245590e-02) (199, -1.04876164561927734398e-01) (200, -8.60202188595789868364e-02) (201, -3.76372030718311696360e-03) (202, -2.89089560752906725438e-02) (203, -9.63281404525614809442e-02) (204, -5.08649457361786197507e-03) (205, 6.66263890504093514444e-02) (206, -6.23166595476331436343e-02) (207, -9.41735371618440675334e-02) (208, 9.31051378913219235267e-02) (209, 5.53543315696384957691e-02) (210, -7.50150812304929415220e-02) (211, 7.43865887314347357107e-02) (212, -8.54207317692303423617e-03) (213, -9.45833190126143738552e-03) (214, 4.79355286840413841176e-02) (215, 3.27024983144922343214e-02) (216, 9.26867880464157800624e-04) (217, -3.55487893479027733390e-02) (218, 7.74787116012389323605e-03) (219, -8.93296233043452125866e-02) (220, -3.25323326713707131064e-02) (221, 7.07369382767163573655e-02) (222, 2.71093335548247653388e-02) (223, -8.40817828366558217557e-02) (224, -2.44287454426949379727e-02) (225, 5.34590420801531740480e-02) (226, -1.44233025887357119155e-02) (227, -7.71381056436749954625e-03) (228, 6.28565048681539589870e-02) (229, 3.73983657050546008938e-02) (230, 6.43119514007018805435e-02) (231, 7.92857386168253075454e-02) (232, -4.54339444192659938637e-02) (233, -6.58783375782552721445e-02) (234, 8.87109843464659736378e-02) (235, 4.66413355687746930545e-02) (236, -1.02548624156586318246e-01) (237, -9.55170244864119305506e-02) (238, 8.60158043650251780132e-02) (239, 9.19921610153182217617e-02) (240, 1.05937916185811636938e-01) (241, -1.01889788288923768822e-01) (242, 4.56807515599160895298e-03) (243, -3.09315950867228954546e-02) (244, -2.13579719490973769791e-02) (245, 1.64803503328791907390e-02) (246, -6.70853307621468997191e-02) (247, -7.42192933121176151579e-02) (248, -7.90481920362163942295e-02) (249, 3.57662371598820930108e-02) (250, -2.38593903576764798657e-02) (251, 9.20271512259660320887e-03) (252, 2.57803494600301018325e-02) (253, -9.42842169969879406732e-02) (254, 1.23757639921732599114e-02) (255, -6.41570958268767033150e-02) (256, 1.09970706469588980214e-01) (257, 4.35519495725198227398e-02) (258, 5.70857293775578963912e-02) (259, 4.38239116550665705474e-02) (260, 7.51632170866742554960e-02) (261, -4.06384726817833122348e-02) (262, -3.57654247152949453237e-02) (263, -7.53029552488769793328e-02) (264, 1.45426710562446426939e-02) (265, -2.67838826319271930410e-02) (266, -1.07038663356652047343e-01) (267, 3.85042680211436227911e-02) (268, 4.08129538418395901300e-02) (269, -9.10907219214314722855e-02) (270, 7.24617005100095900975e-04) (271, 2.16711124351658783460e-02) (272, -9.54700263711293212188e-02) (273, -4.16258855652449910600e-02) (274, -9.91695447336043423014e-02) (275, 3.26693629552353564938e-02) (276, 1.26268501652299081073e-01) (277, -1.00081005066927269942e-01) (278, 3.55724863120550766071e-02) (279, -9.24563745876716969185e-02) (280, 1.00618158708675770052e-01) (281, -8.85283315399051085048e-02) (282, -2.39633955134674891951e-02) (283, 1.95832302368408733839e-02) (284, -7.83497867562071154124e-02) (285, 7.24094645532581682179e-02) (286, 6.38079468891186440960e-02) (287, 9.81733445184276160012e-02) (288, 1.02150051134335284608e-01) (289, -2.19022794482016773532e-02) (290, 5.68263030583738976143e-02) (291, 5.44484114166423754932e-02) (292, 7.57131125762388751399e-02) (293, -9.68770470000602235139e-02) (294, 7.80580210333252366706e-02) (295, 1.15706940498955003493e-02) (296, 6.39418288719616340066e-02) (297, -1.14956163719582157845e-01) (298, -8.43684996076677767851e-02) (299, -3.55940965386028138062e-02) (300, -6.24247489841277258815e-02) (301, 4.03444206080808068227e-02) (302, 4.27235979277528210574e-02) (303, -8.66582895138754416564e-02) (304, -9.46559242825720931203e-02) (305, 4.29333138682516726736e-02) (306, 4.55621275108257506314e-02) (307, -9.44966846604186616609e-02) (308, -8.61403706682584979770e-02) (309, -2.13973395775485979511e-03) (310, -8.24418562348133848738e-02) (311, 1.03679261849644044347e-01) (312, -2.07177830535907152310e-02) (313, 3.09842485554324247043e-02) (314, 4.46988400910053804149e-02) (315, 4.35593026606823779945e-02) (316, 2.19598895755919211459e-02) (317, -4.46680469182998279853e-02) (318, 3.57344368155255373565e-02) (319, 1.43658363806043482686e-02) (320, -7.15512838364368991551e-02) (321, -6.34957234150809873841e-02) (322, -8.62367234518072733884e-02) (323, -1.22238836515979054642e-01) (324, -1.14120442851227358455e-02) (325, -9.05237929246179573450e-02) (326, -1.17762814652712533708e-02) (327, 1.04696185179441625390e-01) (328, -7.16265942628537127801e-02) (329, 3.56855906795827265698e-02) (330, -7.53875623886311740929e-02) (331, -5.50641068480687834175e-02) (332, -1.69941528941013955678e-02) (333, -1.01965890221739338695e-01) (334, -3.25803632969412643172e-02) (335, -9.84738975213971315381e-03) (336, 6.01197098534188081875e-02) (337, -6.31392963433054649203e-02) (338, 1.02205490059909549078e-02) (339, 7.02117570911637428610e-02) (340, 5.42996313419996309846e-02) (341, 3.01267376628167084240e-02) (342, 7.53458365233369148362e-02) (343, -2.51023163836144071193e-02) (344, -6.70780133702099379267e-02) (345, -1.87114047384916702167e-03) (346, -1.01545248719805442095e-01) (347, 3.35634272708956113429e-02) (348, -8.37563126234178167984e-02) (349, 3.69557826673271513918e-02) (350, -8.72741091118416634220e-02) (351, -5.54436050694985388398e-02) (352, 6.18059976734218127770e-02) (353, -2.54430012172597759534e-02) (354, -8.03363149879586374569e-02) (355, -2.24313970347778460224e-02) (356, -3.61075122004368281869e-02) (357, 7.45918491048164072899e-02) (358, -6.04754958183630828006e-02) (359, 2.09919661159752093949e-02) (360, -1.07452049201038780241e-02) (361, 5.66183036173774183186e-03) (362, 4.16086737267322634426e-02) (363, 1.02818756254947074602e-01) (364, -5.12785883216527560262e-04) (365, -6.97742271179311313034e-02) (366, 1.18030306649718995382e-02) (367, -2.88511270698212675401e-02) (368, -7.44832260567200067636e-03) (369, -8.95190437000390609734e-02) (370, -2.90421799646265188510e-02) (371, -7.52890925616162692835e-02) (372, 7.73666901953931479552e-02) (373, -8.38408512593317722938e-02) (374, 3.69356240146509820499e-02) (375, -1.09185619479082313132e-01) (376, 6.84461853149954668751e-02) (377, 2.28393080216780265668e-02) (378, 5.85342781998893363360e-02) (379, 7.08521384807786896998e-02) (380, -2.34104942681690776640e-02) (381, 8.27277154691573174405e-02) (382, -8.91279628609689816843e-02) (383, -3.77222344487493574383e-02) (384, -8.01210467632958445172e-02) (385, -1.37549398385232758690e-02) (386, 5.32742871778083340595e-03) (387, 5.98574781321030632841e-02) (388, -9.89195832485479931151e-02) (389, 1.13567997402129153284e-01) (390, -8.16429452328392285532e-02) (391, 6.28575804236846114037e-02) (392, -5.03924118978389679047e-02) (393, -5.74094415953091199989e-02) (394, 1.74467824888735086042e-02) (395, 1.06404854167913009988e-01) (396, -7.28300899315898059294e-02) (397, -4.54180673280676697190e-02) (398, -1.28492205923245710747e-02) (399, 1.17843398595365508874e-02) (400, -1.53445183164786468077e-02) (401, 1.28703291147110113202e-02) (402, 9.20111355087559618093e-02) (403, -9.58479999143942162920e-02) (404, 8.50269552380644999534e-02) (405, -1.19477012990247891122e-02) (406, -2.49661687144513352865e-02) (407, 7.09973196619223881343e-03) (408, -5.13378248503571152361e-02) (409, -8.84572957550829735984e-02) (410, 1.17104286388567818689e-02) (411, 3.62935784890959997617e-02) (412, 1.11091102866190297171e-01) (413, 1.19700484152275490185e-02) (414, -9.35310081639383478214e-02) (415, -1.79989320187742274371e-02) (416, -1.40578346010340582417e-01) (417, 4.51468822805915007135e-02) (418, 1.31293534763831432066e-01) (419, -1.17145717932387483096e-01) (420, 2.78909273383838932081e-02) (421, -1.90679600274811858474e-02) (422, 3.90742178187027666691e-02) (423, -8.24674077790871901117e-02) (424, -6.41170512695301512279e-03) (425, -2.23608608903134511992e-02) (426, -9.96589937678368509300e-02) (427, 2.51796416882070807353e-02) (428, 4.61545514099096637617e-02) (429, -2.65526766136294223308e-02) (430, -5.46877300089134085748e-02) (431, -6.85552458997819025299e-02) (432, -9.16338576824205636173e-02) (433, -8.02745847193924999541e-02) (434, -2.57854556026457862328e-02) (435, -1.07174596671729099873e-01) (436, 2.56977175273677589662e-02) (437, 3.01974659347008754506e-02) (438, 4.60576470044768912504e-02) (439, 7.18308696098415022657e-02) (440, 2.85462975864585917496e-02) (441, -3.27158299765905186129e-02) (442, -5.96981581215259501927e-03) (443, 3.22277346366381042819e-02) (444, -9.23819170079453189093e-02) (445, -1.49367627700030466964e-02) (446, 9.54380829202696040481e-02) (447, -8.18588819393439581784e-02) (448, -7.70258460482418777504e-02) (449, 9.08559012469515869803e-02) (450, -2.17360937312016423706e-02) (451, 6.50599140513246632089e-02) (452, -8.30753251396791764227e-02) (453, -3.37487927087829903128e-02) (454, -8.31463699894112173716e-02) (455, 4.76962358764685713519e-03) (456, 8.75163094753123871339e-02) (457, -7.65141031517628245062e-02) (458, 5.72813430492714534270e-02) (459, 8.04901808471368378217e-03) (460, 1.43944243505617942847e-02) (461, -9.49243677405481184328e-02) (462, 5.12528351230688850038e-02) (463, 7.82747386451300986021e-02) (464, -8.51637573416401533200e-02) (465, -1.02922449754406147848e-01) (466, -1.16295174207232107633e-01) (467, 8.48146343886899269993e-05) (468, 1.87111349643871299753e-02) (469, 6.20348177116729002090e-02) (470, -2.46398863031463757900e-02) (471, -5.26445582126070371620e-02) (472, -4.05827404347018430575e-02) (473, 6.16325287932718360318e-02) (474, 6.32241667579147431644e-02) (475, -2.36690074833083644035e-02) (476, -4.64649699476928634834e-02) (477, 4.58936121002441188566e-02) (478, 3.98411177962945395326e-02) (479, 1.13009027469562119833e-02) (480, 2.32007237124073721624e-02) (481, -1.00293951430936487124e-01) (482, -2.87374314072473442672e-02) (483, 3.19704678378841394837e-02) (484, -4.76486899879398906332e-02) (485, -4.46587995904731624441e-02) (486, -1.03717955640673417661e-01) (487, -6.97687434826008978650e-02) (488, 6.26138731017478102764e-03) (489, 9.26990367415880672786e-02) (490, 6.08810439804019984389e-02) (491, -5.38860625861040179463e-02) (492, -7.84923998885715540341e-02) (493, 1.06301232349959185602e-02) (494, -1.04870239682718593976e-01) (495, -1.07730129916970673865e-01) (496, 2.27213644888248078590e-02) (497, -1.06237298663707915858e-01) (498, 3.10960899458839930276e-02) (499, -3.89971858284355599178e-02) (500, 8.36701035407128729249e-02) (501, -9.85454540421275421158e-02) (502, 1.09971013250010369450e-02) (503, -4.68412797460588462006e-02) (504, 7.41063197710016829944e-02) (505, 6.78395737361855641345e-03) (506, 4.51873636013990012672e-02) (507, -6.00138236346242845420e-02) (508, -7.90035946191531834870e-02) (509, -3.59984514517219106322e-02) (510, 4.08539857658166694065e-02) (511, 6.11807728109001885963e-02) (512, -7.39434468624521751279e-03) (513, -6.74092015265468219587e-02) (514, 2.25276836904092503389e-02) (515, 8.21033370276708501789e-02) (516, 7.66967744798515999732e-03) (517, 3.29644178637826384959e-02) (518, -8.39833487024785746433e-02) (519, -9.54804499985226345915e-02) (520, 3.89113753061486392082e-02) (521, 7.01770989490795166210e-02) (522, -5.58344522058685996391e-02) (523, 4.39514831952964382666e-03) (524, -2.14045523361967547638e-02) (525, -5.62577152765564025838e-02) (526, 2.28837289976352581400e-02) (527, -9.00466804679332238903e-02) (528, -2.50659226080781338819e-02) (529, 8.62984436655793787918e-03) (530, 2.79145837938789232943e-03) (531, -2.90554073385897240756e-02) (532, -1.44378116289186151505e-02) (533, -1.04945079234126298351e-01) (534, 1.68202577220075816765e-03) (535, -4.49661382986013824503e-02) (536, -1.01704671153744641982e-02) (537, -4.22177466950229007825e-02) (538, -1.47838416996372776224e-02) (539, 5.00993141623911272808e-02) (540, 4.59423485780507262488e-02) (541, -6.72159346318948469623e-02) (542, 2.37835362133409881913e-02) (543, -6.65114847059945085705e-02) (544, -2.16099676262064381571e-02) (545, -4.39685263457286340527e-02) (546, -5.39041694350577693662e-02) (547, 1.09217409540751500541e-01) (548, 1.07089884326592277297e-01) (549, -6.22242317784851492468e-02) (550, -9.51321863715151039287e-02) (551, 2.17039149335080776282e-02) (552, -6.99109564642894087960e-02) (553, -2.26625092524211438350e-02) (554, -1.18648264647022230744e-02) (555, 3.48673878985264265595e-02) (556, 1.25835205953611483504e-02) (557, -9.05853303731799369691e-02) (558, 3.94355052831450517137e-02) (559, 7.67956265751175010115e-02) (560, -1.05816728813078152205e-02) (561, -6.67206004629627702496e-02) (562, -6.49461045525118324528e-02) (563, 7.47380910249437063753e-02) (564, -5.70697909118723784028e-02) (565, 4.64790249247981623881e-02) (566, -6.16053639607741093664e-02) (567, 5.07647919432614724844e-02) (568, -9.02934580718782742181e-02) (569, 4.91261369515703094635e-02) (570, 1.55892071761892497123e-02) (571, 6.48247173278338334468e-02) (572, -8.91200544390308296849e-02) (573, -7.37800461280740255132e-02) (574, -1.15055419065082389918e-01) (575, -5.49363607148937796443e-02) (576, -3.04116564433055368288e-02) (577, -8.79976971889057518750e-02) (578, -3.93818311561466016801e-02) (579, -3.29233212306497199928e-02) (580, -4.01387331503200509020e-02) (581, -1.98806453666442381478e-02) (582, -8.45019821705470242090e-02) (583, -3.24066548361418493504e-03) (584, 3.95890211066664693407e-02) (585, -3.92994660420925047417e-03) (586, -8.22194386161052004347e-02) (587, -3.89998292460651194147e-02) (588, 1.53729586267026471780e-02) (589, 7.45020669825896125760e-02) (590, -9.47235812267669813336e-02) (591, 1.01844187309899941729e-01) (592, 1.52512004296969372330e-01) (593, -9.83503869126475666063e-02) (594, 1.16587254637577325544e-01) (595, -5.78189680562106109174e-02) (596, -1.36019894351559200718e-01) (597, -5.16968894110921839413e-02) (598, 9.98925651173761669499e-02) (599, -1.19051934988621072042e-01) (600, 9.59348487520219617153e-02) (601, 8.83454413182216055644e-03) (602, 4.85463158821599280457e-02) (603, 9.13642075944856579817e-02) (604, 7.01519519131090646402e-02) (605, -1.37364991738637171048e-01) (606, 1.33152261860612908251e-02) (607, -3.16908430398744889178e-02) (608, -1.22080646005414156230e-01) (609, 6.60289755551293350289e-02) (610, 7.69251257929243759115e-02) (611, -1.57377536688489173822e-02) (612, -7.05255303765964236540e-02) (613, 1.07465200759052872947e-01) (614, -9.05573170680337991012e-02) (615, 7.24845497623695100842e-02) (616, 3.46693596049314975427e-02) (617, -9.96271764425601669135e-02) (618, -6.46790994244736960894e-02) (619, 1.06187074962099559094e-01) (620, -1.13319717668633287988e-01) (621, -7.01380806334030715288e-02) (622, 1.00741865678555697627e-01) (623, -7.79894705881501310030e-02) (624, 1.60156151107774154252e-02) (625, 6.53639546763415679731e-02) (626, -3.97628932119430122949e-02) (627, 4.23974590357411237895e-02) (628, 8.92962357151363267382e-02) (629, -5.53005231451626777517e-02) (630, 5.95624618518936568834e-02) (631, 6.32762618453880099079e-02) (632, 6.57414089674028395693e-02) (633, 6.87388827894021975373e-02) (634, 2.84363420801516109115e-02) (635, 4.99522035311060416674e-02) (636, 1.13839400437595397730e-01) (637, 9.65298804721069630963e-02) (638, 1.02562966790255907790e-01) (639, -5.64317389456096205058e-02) (640, 2.36022127381204614716e-02) (641, 4.37982965153080397447e-02) (642, 4.81865676355856115132e-02) (643, 