FANN_FLO_2.1
num_layers=3
learning_rate=0.100000
connection_rate=1.000000
network_type=0
learning_momentum=0.300000
training_algorithm=0
train_error_function=0
train_stop_function=0
cascade_output_change_fraction=0.010000
quickprop_decay=-0.000100
quickprop_mu=1.750000
rprop_increase_factor=1.200000
rprop_decrease_factor=0.500000
rprop_delta_min=0.000000
rprop_delta_max=50.000000
rprop_delta_zero=0.100000
cascade_output_stagnation_epochs=12
cascade_candidate_change_fraction=0.010000
cascade_candidate_stagnation_epochs=12
cascade_max_out_epochs=150
cascade_max_cand_epochs=150
cascade_num_candidate_groups=2
bit_fail_limit=3.49999999999999977796e-01
cascade_candidate_limit=1.00000000000000000000e+03
cascade_weight_multiplier=4.00000000000000022204e-01
cascade_activation_functions_count=10
cascade_activation_functions=3 5 7 8 10 11 14 15 16 17 
cascade_activation_steepnesses_count=4
cascade_activation_steepnesses=2.50000000000000000000e-01 5.00000000000000000000e-01 7.50000000000000000000e-01 1.00000000000000000000e+00 
layer_sizes=439 31 3 
scale_included=0
neurons (num_inputs, activation_function, activation_steepness)=(0, 0, 0.00000000000000000000e+00) (0, 0, 0.00000000000000000000e+00) (0, 0, 0.00000000000000000000e+00) (0, 0, 0.00000000000000000000e+00) (0, 0, 0.00000000000000000000e+00) (0, 0, 0.00000000000000000000e+00) (0, 0, 0.00000000000000000000e+00) (0, 0, 0.00000000000000000000e+00) (0, 0, 0.00000000000000000000e+00) (0, 0, 0.00000000000000000000e+00) (0, 0, 0.00000000000000000000e+00) (0, 0, 0.00000000000000000000e+00) (0, 0, 0.00000000000000000000e+00) (0, 0, 0.00000000000000000000e+00) (0, 0, 0.00000000000000000000e+00) (0, 0, 0.00000000000000000000e+00) (0, 0, 0.00000000000000000000e+00) (0, 0, 0.00000000000000000000e+00) (0, 0, 0.00000000000000000000e+00) (0, 0, 0.00000000000000000000e+00) (0, 0, 0.00000000000000000000e+00) (0, 0, 0.00000000000000000000e+00) (0, 0, 0.00000000000000000000e+00) (0, 0, 0.00000000000000000000e+00) (0, 0, 0.00000000000000000000e+00) (0, 0, 0.00000000000000000000e+00) (0, 0, 0.00000000000000000000e+00) (0, 0, 0.00000000000000000000e+00) (0, 0, 0.00000000000000000000e+00) (0, 0, 0.00000000000000000000e+00) (0, 0, 0.00000000000000000000e+00) (0, 0, 0.00000000000000000000e+00) (0, 0, 0.00000000000000000000e+00) (0, 0, 0.00000000000000000000e+00) (0, 0, 0.00000000000000000000e+00) (0, 0, 0.00000000000000000000e+00) (0, 0, 0.00000000000000000000e+00) (0, 0, 0.00000000000000000000e+00) (0, 0, 0.00000000000000000000e+00) (0, 0, 0.00000000000000000000e+00) (0, 0, 0.00000000000000000000e+00) (0, 0, 0.00000000000000000000e+00) (0, 0, 0.00000000000000000000e+00) (0, 0, 0.00000000000000000000e+00) (0, 0, 0.00000000000000000000e+00) (0, 0, 0.00000000000000000000e+00) (0, 0, 0.00000000000000000000e+00) (0, 0, 0.00000000000000000000e+00) (0, 0, 0.00000000000000000000e+00) (0, 0, 0.00000000000000000000e+00) (0, 0, 0.00000000000000000000e+00) (0, 0, 0.00000000000000000000e+00) (0, 0, 0.00000000000000000000e+00) (0, 0, 0.00000000000000000000e+00) (0, 0, 0.00000000000000000000e+00) (0, 0, 0.00000000000000000000e+00) (0, 0, 0.00000000000000000000e+00) (0, 0, 0.00000000000000000000e+00) (0, 0, 0.00000000000000000000e+00) (0, 0, 0.00000000000000000000e+00) (0, 0, 0.00000000000000000000e+00) (0, 0, 0.00000000000000000000e+00) (0, 0, 0.00000000000000000000e+00) (0, 0, 0.00000000000000000000e+00) (0, 0, 0.00000000000000000000e+00) (0, 0, 0.00000000000000000000e+00) (0, 0, 0.00000000000000000000e+00) (0, 0, 0.00000000000000000000e+00) (0, 0, 0.00000000000000000000e+00) (0, 0, 0.00000000000000000000e+00) (0, 0, 0.00000000000000000000e+00) (0, 0, 0.00000000000000000000e+00) (0, 0, 0.00000000000000000000e+00) (0, 0, 0.00000000000000000000e+00) (0, 0, 0.00000000000000000000e+00) (0, 0, 0.00000000000000000000e+00) (0, 0, 0.00000000000000000000e+00) (0, 0, 0.00000000000000000000e+00) (0, 0, 0.00000000000000000000e+00) (0, 0, 0.00000000000000000000e+00) (0, 0, 0.00000000000000000000e+00) (0, 0, 0.00000000000000000000e+00) (0, 0, 0.00000000000000000000e+00) (0, 0, 0.00000000000000000000e+00) (0, 0, 0.00000000000000000000e+00) (0, 0, 0.00000000000000000000e+00) (0, 0, 0.00000000000000000000e+00) (0, 0, 0.00000000000000000000e+00) (0, 0, 0.00000000000000000000e+00) (0, 0, 0.00000000000000000000e+00) (0, 0, 0.00000000000000000000e+00) (0, 0, 0.00000000000000000000e+00) (0, 0, 0.00000000000000000000e+00) (0, 0, 0.00000000000000000000e+00) (0, 0, 0.00000000000000000000e+00) (0, 0, 0.00000000000000000000e+00) (0, 0, 0.00000000000000000000e+00) (0, 0, 0.00000000000000000000e+00) (0, 0, 0.00000000000000000000e+00) (0, 0, 0.00000000000000000000e+00) (0, 0, 0.00000000000000000000e+00) (0, 0, 0.00000000000000000000e+00) (0, 0, 0.00000000000000000000e+00) (0, 0, 0.00000000000000000000e+00) (0, 0, 0.00000000000000000000e+00) (0, 0, 0.00000000000000000000e+00) (0, 0, 0.00000000000000000000e+00) (0, 0, 0.00000000000000000000e+00) (0, 0, 0.00000000000000000000e+00) (0, 0, 0.00000000000000000000e+00) (0, 0, 0.00000000000000000000e+00) (0, 0, 0.00000000000000000000e+00) (0, 0, 0.00000000000000000000e+00) (0, 0, 0.00000000000000000000e+00) (0, 0, 0.00000000000000000000e+00) (0, 0, 0.00000000000000000000e+00) (0, 0, 0.00000000000000000000e+00) (0, 0, 0.00000000000000000000e+00) (0, 0, 0.00000000000000000000e+00) (0, 0, 0.00000000000000000000e+00) (0, 0, 0.00000000000000000000e+00) (0, 0, 0.00000000000000000000e+00) (0, 0, 0.00000000000000000000e+00) (0, 0, 0.00000000000000000000e+00) (0, 0, 0.00000000000000000000e+00) (0, 0, 0.00000000000000000000e+00) (0, 0, 0.00000000000000000000e+00) (0, 0, 0.00000000000000000000e+00) (0, 0, 0.00000000000000000000e+00) (0, 0, 0.00000000000000000000e+00) (0, 0, 0.00000000000000000000e+00) (0, 0, 0.00000000000000000000e+00) (0, 0, 0.00000000000000000000e+00) (0, 0, 0.00000000000000000000e+00) (0, 0, 0.00000000000000000000e+00) (0, 0, 0.00000000000000000000e+00) (0, 0, 0.00000000000000000000e+00) (0, 0, 0.00000000000000000000e+00) (0, 0, 0.00000000000000000000e+00) (0, 0, 0.00000000000000000000e+00) (0, 0, 0.00000000000000000000e+00) (0, 0, 0.00000000000000000000e+00) (0, 0, 0.00000000000000000000e+00) (0, 0, 0.00000000000000000000e+00) (0, 0, 0.00000000000000000000e+00) (0, 0, 0.00000000000000000000e+00) (0, 0, 0.00000000000000000000e+00) (0, 0, 0.00000000000000000000e+00) (0, 0, 0.00000000000000000000e+00) (0, 0, 0.00000000000000000000e+00) (0, 0, 0.00000000000000000000e+00) (0, 0, 0.00000000000000000000e+00) (0, 0, 0.00000000000000000000e+00) (0, 0, 0.00000000000000000000e+00) (0, 0, 0.00000000000000000000e+00) (0, 0, 0.00000000000000000000e+00) (0, 0, 0.00000000000000000000e+00) (0, 0, 0.00000000000000000000e+00) (0, 0, 0.00000000000000000000e+00) (0, 0, 0.00000000000000000000e+00) (0, 0, 0.00000000000000000000e+00) (0, 0, 0.00000000000000000000e+00) (0, 0, 0.00000000000000000000e+00) (0, 0, 0.00000000000000000000e+00) (0, 0, 0.00000000000000000000e+00) (0, 0, 0.00000000000000000000e+00) (0, 0, 0.00000000000000000000e+00) (0, 0, 0.00000000000000000000e+00) (0, 0, 0.00000000000000000000e+00) (0, 0, 0.00000000000000000000e+00) (0, 0, 0.00000000000000000000e+00) (0, 0, 0.00000000000000000000e+00) (0, 0, 0.00000000000000000000e+00) (0, 0, 0.00000000000000000000e+00) (0, 0, 0.00000000000000000000e+00) (0, 0, 0.00000000000000000000e+00) (0, 0, 0.00000000000000000000e+00) (0, 0, 0.00000000000000000000e+00) (0, 0, 0.00000000000000000000e+00) (0, 0, 0.00000000000000000000e+00) (0, 0, 0.00000000000000000000e+00) (0, 0, 0.00000000000000000000e+00) (0, 0, 0.00000000000000000000e+00) (0, 0, 0.00000000000000000000e+00) (0, 0, 0.00000000000000000000e+00) (0, 0, 0.00000000000000000000e+00) (0, 0, 0.00000000000000000000e+00) (0, 0, 0.00000000000000000000e+00) (0, 0, 0.00000000000000000000e+00) (0, 0, 0.00000000000000000000e+00) (0, 0, 0.00000000000000000000e+00) (0, 0, 0.00000000000000000000e+00) (0, 0, 0.00000000000000000000e+00) (0, 0, 0.00000000000000000000e+00) (0, 0, 0.00000000000000000000e+00) (0, 0, 0.00000000000000000000e+00) (0, 0, 0.00000000000000000000e+00) (0, 0, 0.00000000000000000000e+00) (0, 0, 0.00000000000000000000e+00) (0, 0, 0.00000000000000000000e+00) (0, 0, 0.00000000000000000000e+00) (0, 0, 0.00000000000000000000e+00) (0, 0, 0.00000000000000000000e+00) (0, 0, 0.00000000000000000000e+00) (0, 0, 0.00000000000000000000e+00) (0, 0, 0.00000000000000000000e+00) (0, 0, 0.00000000000000000000e+00) (0, 0, 0.00000000000000000000e+00) (0, 0, 0.00000000000000000000e+00) (0, 0, 0.00000000000000000000e+00) (0, 0, 0.00000000000000000000e+00) (0, 0, 0.00000000000000000000e+00) (0, 0, 0.00000000000000000000e+00) (0, 0, 0.00000000000000000000e+00) (0, 0, 0.00000000000000000000e+00) (0, 0, 0.00000000000000000000e+00) (0, 0, 0.00000000000000000000e+00) (0, 0, 0.00000000000000000000e+00) (0, 0, 0.00000000000000000000e+00) (0, 0, 0.00000000000000000000e+00) (0, 0, 0.00000000000000000000e+00) (0, 0, 0.00000000000000000000e+00) (0, 0, 0.00000000000000000000e+00) (0, 0, 0.00000000000000000000e+00) (0, 0, 0.00000000000000000000e+00) (0, 0, 0.00000000000000000000e+00) (0, 0, 0.00000000000000000000e+00) (0, 0, 0.00000000000000000000e+00) (0, 0, 0.00000000000000000000e+00) (0, 0, 0.00000000000000000000e+00) (0, 0, 0.00000000000000000000e+00) (0, 0, 0.00000000000000000000e+00) (0, 0, 0.00000000000000000000e+00) (0, 0, 0.00000000000000000000e+00) (0, 0, 0.00000000000000000000e+00) (0, 0, 0.00000000000000000000e+00) (0, 0, 0.00000000000000000000e+00) (0, 0, 0.00000000000000000000e+00) (0, 0, 0.00000000000000000000e+00) (0, 0, 0.00000000000000000000e+00) (0, 0, 0.00000000000000000000e+00) (0, 0, 0.00000000000000000000e+00) (0, 0, 0.00000000000000000000e+00) (0, 0, 0.00000000000000000000e+00) (0, 0, 0.00000000000000000000e+00) (0, 0, 0.00000000000000000000e+00) (0, 0, 0.00000000000000000000e+00) (0, 0, 0.00000000000000000000e+00) (0, 0, 0.00000000000000000000e+00) (0, 0, 0.00000000000000000000e+00) (0, 0, 0.00000000000000000000e+00) (0, 0, 0.00000000000000000000e+00) (0, 0, 0.00000000000000000000e+00) (0, 0, 0.00000000000000000000e+00) (0, 0, 0.00000000000000000000e+00) (0, 0, 0.00000000000000000000e+00) (0, 0, 0.00000000000000000000e+00) (0, 0, 0.00000000000000000000e+00) (0, 0, 0.00000000000000000000e+00) (0, 0, 0.00000000000000000000e+00) (0, 0, 0.00000000000000000000e+00) (0, 0, 0.00000000000000000000e+00) (0, 0, 0.00000000000000000000e+00) (0, 0, 0.00000000000000000000e+00) (0, 0, 0.00000000000000000000e+00) (0, 0, 0.00000000000000000000e+00) (0, 0, 0.00000000000000000000e+00) (0, 0, 0.00000000000000000000e+00) (0, 0, 0.00000000000000000000e+00) (0, 0, 0.00000000000000000000e+00) (0, 0, 0.00000000000000000000e+00) (0, 0, 0.00000000000000000000e+00) (0, 0, 0.00000000000000000000e+00) (0, 0, 0.00000000000000000000e+00) (0, 0, 0.00000000000000000000e+00) (0, 0, 0.00000000000000000000e+00) (0, 0, 0.00000000000000000000e+00) (0, 0, 0.00000000000000000000e+00) (0, 0, 0.00000000000000000000e+00) (0, 0, 0.00000000000000000000e+00) (0, 0, 0.00000000000000000000e+00) (0, 0, 0.00000000000000000000e+00) (0, 0, 0.00000000000000000000e+00) (0, 0, 0.00000000000000000000e+00) (0, 0, 0.00000000000000000000e+00) (0, 0, 0.00000000000000000000e+00) (0, 0, 0.00000000000000000000e+00) (0, 0, 0.00000000000000000000e+00) (0, 0, 0.00000000000000000000e+00) (0, 0, 0.00000000000000000000e+00) (0, 0, 0.00000000000000000000e+00) (0, 0, 0.00000000000000000000e+00) (0, 0, 0.00000000000000000000e+00) (0, 0, 0.00000000000000000000e+00) (0, 0, 0.00000000000000000000e+00) (0, 0, 0.00000000000000000000e+00) (0, 0, 0.00000000000000000000e+00) (0, 0, 0.00000000000000000000e+00) (0, 0, 0.00000000000000000000e+00) (0, 0, 0.00000000000000000000e+00) (0, 0, 0.00000000000000000000e+00) (0, 0, 0.00000000000000000000e+00) (0, 0, 0.00000000000000000000e+00) (0, 0, 0.00000000000000000000e+00) (0, 0, 0.00000000000000000000e+00) (0, 0, 0.00000000000000000000e+00) (0, 0, 0.00000000000000000000e+00) (0, 0, 0.00000000000000000000e+00) (0, 0, 0.00000000000000000000e+00) (0, 0, 0.00000000000000000000e+00) (0, 0, 0.00000000000000000000e+00) (0, 0, 0.00000000000000000000e+00) (0, 0, 0.00000000000000000000e+00) (0, 0, 0.00000000000000000000e+00) (0, 0, 0.00000000000000000000e+00) (0, 0, 0.00000000000000000000e+00) (0, 0, 0.00000000000000000000e+00) (0, 0, 0.00000000000000000000e+00) (0, 0, 0.00000000000000000000e+00) (0, 0, 0.00000000000000000000e+00) (0, 0, 0.00000000000000000000e+00) (0, 0, 0.00000000000000000000e+00) (0, 0, 0.00000000000000000000e+00) (0, 0, 0.00000000000000000000e+00) (0, 0, 0.00000000000000000000e+00) (0, 0, 0.00000000000000000000e+00) (0, 0, 0.00000000000000000000e+00) (0, 0, 0.00000000000000000000e+00) (0, 0, 0.00000000000000000000e+00) (0, 0, 0.00000000000000000000e+00) (0, 0, 0.00000000000000000000e+00) (0, 0, 0.00000000000000000000e+00) (0, 0, 0.00000000000000000000e+00) (0, 0, 0.00000000000000000000e+00) (0, 0, 0.00000000000000000000e+00) (0, 0, 0.00000000000000000000e+00) (0, 0, 0.00000000000000000000e+00) (0, 0, 0.00000000000000000000e+00) (0, 0, 0.00000000000000000000e+00) (0, 0, 0.00000000000000000000e+00) (0, 0, 0.00000000000000000000e+00) (0, 0, 0.00000000000000000000e+00) (0, 0, 0.00000000000000000000e+00) (0, 0, 0.00000000000000000000e+00) (0, 0, 0.00000000000000000000e+00) (0, 0, 0.00000000000000000000e+00) (0, 0, 0.00000000000000000000e+00) (0, 0, 0.00000000000000000000e+00) (0, 0, 0.00000000000000000000e+00) (0, 0, 0.00000000000000000000e+00) (0, 0, 0.00000000000000000000e+00) (0, 0, 0.00000000000000000000e+00) (0, 0, 0.00000000000000000000e+00) (0, 0, 0.00000000000000000000e+00) (0, 0, 0.00000000000000000000e+00) (0, 0, 0.00000000000000000000e+00) (0, 0, 0.00000000000000000000e+00) (0, 0, 0.00000000000000000000e+00) (0, 0, 0.00000000000000000000e+00) (0, 0, 0.00000000000000000000e+00) (0, 0, 0.00000000000000000000e+00) (0, 0, 0.00000000000000000000e+00) (0, 0, 0.00000000000000000000e+00) (0, 0, 0.00000000000000000000e+00) (0, 0, 0.00000000000000000000e+00) (0, 0, 0.00000000000000000000e+00) (0, 0, 0.00000000000000000000e+00) (0, 0, 0.00000000000000000000e+00) (0, 0, 0.00000000000000000000e+00) (0, 0, 0.00000000000000000000e+00) (0, 0, 0.00000000000000000000e+00) (0, 0, 0.00000000000000000000e+00) (0, 0, 0.00000000000000000000e+00) (0, 0, 0.00000000000000000000e+00) (0, 0, 0.00000000000000000000e+00) (0, 0, 0.00000000000000000000e+00) (0, 0, 0.00000000000000000000e+00) (0, 0, 0.00000000000000000000e+00) (0, 0, 0.00000000000000000000e+00) (0, 0, 0.00000000000000000000e+00) (0, 0, 0.00000000000000000000e+00) (0, 0, 0.00000000000000000000e+00) (0, 0, 0.00000000000000000000e+00) (0, 0, 0.00000000000000000000e+00) (0, 0, 0.00000000000000000000e+00) (0, 0, 0.00000000000000000000e+00) (0, 0, 0.00000000000000000000e+00) (0, 0, 0.00000000000000000000e+00) (0, 0, 0.00000000000000000000e+00) (0, 0, 0.00000000000000000000e+00) (0, 0, 0.00000000000000000000e+00) (0, 0, 0.00000000000000000000e+00) (0, 0, 0.00000000000000000000e+00) (0, 0, 0.00000000000000000000e+00) (0, 0, 0.00000000000000000000e+00) (0, 0, 0.00000000000000000000e+00) (0, 0, 0.00000000000000000000e+00) (0, 0, 0.00000000000000000000e+00) (0, 0, 0.00000000000000000000e+00) (0, 0, 0.00000000000000000000e+00) (0, 0, 0.00000000000000000000e+00) (0, 0, 0.00000000000000000000e+00) (0, 0, 0.00000000000000000000e+00) (0, 0, 0.00000000000000000000e+00) (0, 0, 0.00000000000000000000e+00) (0, 0, 0.00000000000000000000e+00) (0, 0, 0.00000000000000000000e+00) (0, 0, 0.00000000000000000000e+00) (0, 0, 0.00000000000000000000e+00) (0, 0, 0.00000000000000000000e+00) (0, 0, 0.00000000000000000000e+00) (0, 0, 0.00000000000000000000e+00) (0, 0, 0.00000000000000000000e+00) (0, 0, 0.00000000000000000000e+00) (0, 0, 0.00000000000000000000e+00) (0, 0, 0.00000000000000000000e+00) (0, 0, 0.00000000000000000000e+00) (0, 0, 0.00000000000000000000e+00) (0, 0, 0.00000000000000000000e+00) (0, 0, 0.00000000000000000000e+00) (0, 0, 0.00000000000000000000e+00) (0, 0, 0.00000000000000000000e+00) (0, 0, 0.00000000000000000000e+00) (0, 0, 0.00000000000000000000e+00) (0, 0, 0.00000000000000000000e+00) (0, 0, 0.00000000000000000000e+00) (0, 0, 0.00000000000000000000e+00) (0, 0, 0.00000000000000000000e+00) (0, 0, 0.00000000000000000000e+00) (0, 0, 0.00000000000000000000e+00) (0, 0, 0.00000000000000000000e+00) (0, 0, 0.00000000000000000000e+00) (0, 0, 0.00000000000000000000e+00) (0, 0, 0.00000000000000000000e+00) (0, 0, 0.00000000000000000000e+00) (0, 0, 0.00000000000000000000e+00) (0, 0, 0.00000000000000000000e+00) (0, 0, 0.00000000000000000000e+00) (0, 0, 0.00000000000000000000e+00) (439, 3, 5.00000000000000000000e-01) (439, 3, 5.00000000000000000000e-01) (439, 3, 5.00000000000000000000e-01) (439, 3, 5.00000000000000000000e-01) (439, 3, 5.00000000000000000000e-01) (439, 3, 5.00000000000000000000e-01) (439, 3, 5.00000000000000000000e-01) (439, 3, 5.00000000000000000000e-01) (439, 3, 5.00000000000000000000e-01) (439, 3, 5.00000000000000000000e-01) (439, 3, 5.00000000000000000000e-01) (439, 3, 5.00000000000000000000e-01) (439, 3, 5.00000000000000000000e-01) (439, 3, 5.00000000000000000000e-01) (439, 3, 5.00000000000000000000e-01) (439, 3, 5.00000000000000000000e-01) (439, 3, 5.00000000000000000000e-01) (439, 3, 5.00000000000000000000e-01) (439, 3, 5.00000000000000000000e-01) (439, 3, 5.00000000000000000000e-01) (439, 3, 5.00000000000000000000e-01) (439, 3, 5.00000000000000000000e-01) (439, 3, 5.00000000000000000000e-01) (439, 3, 5.00000000000000000000e-01) (439, 3, 5.00000000000000000000e-01) (439, 3, 5.00000000000000000000e-01) (439, 3, 5.00000000000000000000e-01) (439, 3, 5.00000000000000000000e-01) (439, 3, 5.00000000000000000000e-01) (439, 3, 5.00000000000000000000e-01) (0, 3, 0.00000000000000000000e+00) (31, 3, 5.00000000000000000000e-01) (31, 3, 5.00000000000000000000e-01) (0, 3, 0.00000000000000000000e+00) 
connections (connected_to_neuron, weight)=(0, 8.30422088163585286891e-02) (1, 1.20428579086068937576e-01) (2, -1.08028236709959785111e-01) (3, 9.17267685283507244742e-02) (4, -5.57013817762798610356e-02) (5, -5.40270151142954457857e-02) (6, -6.48010886299839883318e-02) (7, -3.41810667029209536150e-02) (8, -5.75099854775124458284e-02) (9, -1.49324890153774408191e-02) (10, 4.33251657318845101452e-02) (11, 9.08644127454657085652e-02) (12, 2.91886073696573655756e-02) (13, -1.30032835749308933737e-01) (14, -1.82143884051123236545e-02) (15, 3.46420703471844101951e-02) (16, 3.35922117128334210556e-02) (17, -4.53797766404914898475e-02) (18, 1.11690399965420020939e-02) (19, 1.82699131192879324348e-02) (20, 9.04200747609138488770e-02) (21, -8.37528448256274760109e-02) (22, 4.40973079218103872212e-02) (23, -1.35307999261565614635e-01) (24, -9.04888145979683422571e-02) (25, -7.15882203608857702049e-03) (26, 3.68098921371689397075e-02) (27, 5.44382581266434004141e-02) (28, -1.76381922690126591302e-01) (29, -7.64355792753500656866e-02) (30, 1.76506421102477911722e-01) (31, 1.23321170668053300967e-01) (32, 1.16850826682555308800e-01) (33, -1.89645969369842126717e-01) (34, 1.82225707680976067859e-01) (35, -4.83537581341802885637e-02) (36, -2.23103853141721014675e-01) (37, 5.59191158463362911202e-02) (38, -7.93794864301073932467e-02) (39, -2.01483466911747788330e-01) (40, 3.55819783066850525710e-02) (41, -5.39139507143786417265e-02) (42, -5.54555005177985102516e-02) (43, -1.62190770300694397932e-01) (44, 3.27859516368085752991e-03) (45, 8.91805853001301739036e-03) (46, 4.67620559082525120076e-05) (47, 2.01212945593944661504e-02) (48, -1.32304068473273750417e-01) (49, 5.99015827736066736042e-02) (50, -2.60151634934914499642e-02) (51, -1.99416901021863351984e-01) (52, -1.45038772801528492717e-01) (53, -8.66925906111396804565e-02) (54, 5.17644928512971808088e-02) (55, 5.02729513193094362800e-02) (56, -8.04944420919505437828e-02) (57, -6.46982325219431220198e-02) (58, -7.35925613975031145397e-02) (59, -2.56100581632321522285e-01) (60, 1.56492675804980573007e-02) (61, 2.95593666296081053479e-02) (62, 8.12393537810450205860e-02) (63, -1.39375526119470700276e-02) (64, 3.03093825253834756039e-02) (65, 1.44787669994752878078e-02) (66, -1.28800997779761838835e-01) (67, 5.70220154794579200952e-02) (68, -1.30127326087251471431e-01) (69, -1.36328545628849398530e-02) (70, -4.77535176332144623013e-02) (71, -1.30538653526980741315e-01) (72, 3.76017311749476113025e-02) (73, -2.38152577734811465859e-02) (74, 9.42787199923786345401e-02) (75, 7.29987377244651763908e-02) (76, -2.04128427895652886370e-01) (77, 3.60860180649770004302e-02) (78, 7.26914999393847849340e-02) (79, -2.11489738488441242348e-01) (80, -6.61739390031928914615e-02) (81, -9.88007850915688518034e-02) (82, 3.10133897325446626636e-02) (83, -7.17602860959221655612e-02) (84, 7.24043587271716235221e-03) (85, -4.16594081877746241771e-02) (86, 1.16178564132399780168e-02) (87, -1.25897021516192864077e-01) (88, -9.90331490132929925796e-02) (89, 3.32274850398850130073e-02) (90, -1.62894949596872513908e-02) (91, -1.54960784189544481526e-01) (92, -1.13341423400513119368e-01) (93, -2.44129275140031326563e-02) (94, 7.53132531887682477034e-02) (95, 2.12960303864233625737e-02) (96, -2.19490816670430605173e-01) (97, 3.32626554460058523888e-02) (98, -3.74562066820963573965e-02) (99, -1.76770174737581026170e-01) (100, 7.73213977703119947904e-02) (101, 9.56340378150302289351e-02) (102, 6.04565095778439864915e-02) (103, -9.07372782007336980969e-02) (104, 6.35643664151840509513e-02) (105, 6.79098302546352894371e-02) (106, -1.15615015495018153002e-01) (107, 1.11431828758028372839e-01) (108, 6.84582218156603861114e-02) (109, -5.74328888259223735435e-02) (110, -1.04098838313534836075e-01) (111, -2.08866416787127973098e-01) (112, -4.59313953008168227021e-02) (113, 4.87597748286062310230e-03) (114, 1.37477372128248065408e-01) (115, -1.05776936000317442477e-01) (116, -2.36214617186100289681e-01) (117, -1.06088789612974770948e-01) (118, -2.80214353530431163619e-02) (119, -4.69724537778304196411e-01) (120, 6.89543626458092445697e-02) (121, 5.86628742731502977881e-02) (122, -1.41924208765659365383e-01) (123, -8.79998755238137614354e-02) (124, 2.66621409609854170819e-02) (125, 9.41322110350980983950e-02) (126, -8.69881305922516473439e-02) (127, -1.00116710095150426851e-01) (128, -5.00961022830649915782e-02) (129, -7.04140729925281094737e-02) (130, 8.25928141564746531866e-02) (131, -1.21208589313400255660e-01) (132, -2.15819781031026169948e-01) (133, -9.94288823710370861519e-03) (134, 1.58026484663437799538e-01) (135, -2.79301116211032075809e-02) (136, -2.71203427569951693865e-01) (137, -1.07563517569640415550e-01) (138, 2.03369208074028508249e-02) (139, -2.77268145878845850838e-01) (140, 6.78101173780389226975e-02) (141, 1.25740128402025919119e-01) (142, -1.29123900326565232977e-01) (143, -7.51507246399065187425e-02) (144, 1.03645113261437452068e-01) (145, 2.08682348097644319862e-02) (146, -1.01208054406482214627e-01) (147, -4.49960861396517114441e-02) (148, -5.05929731074565708360e-02) (149, -5.20367870808612631439e-02) (150, 1.08633427648830951928e-01) (151, -2.31535837518706544280e-02) (152, -6.14956846089700290281e-02) (153, -4.74318508714028572171e-02) (154, 7.14916752375327202440e-02) (155, -4.68180107792536548406e-02) (156, -1.80761467598069380802e-01) (157, -8.84341847205234732332e-02) (158, 8.33155536208285696365e-02) (159, -1.95070089307021826697e-01) (160, 5.50539930179825276468e-02) (161, -2.03031354376346541424e-02) (162, 2.88101224376624415191e-02) (163, -3.24906182715241700909e-02) (164, 1.32056768653315614870e-01) (165, 6.10212270248795055072e-02) (166, -7.72301567687474210810e-02) (167, 1.38833803606892656340e-02) (168, -5.31655547115157875449e-02) (169, -5.64305705428776779170e-03) (170, -3.06596994948544372683e-02) (171, 6.76443990628261965226e-02) (172, -6.38247165698967444669e-02) (173, -4.93663213973903058918e-02) (174, 1.28887766263588998683e-01) (175, -3.29852923364496036784e-02) (176, -1.48413104824834440887e-01) (177, -9.14849248236511702892e-02) (178, 6.20674549024508442896e-02) (179, -2.89867017227668000157e-01) (180, 1.34132289234256157906e-01) (181, 6.35131822809692353493e-02) (182, -1.06924783176435660159e-02) (183, -1.89728129781879771565e-02) (184, 1.69868753106609426951e-01) (185, 1.52172782270705242436e-01) (186, -1.12647763416196936004e-01) (187, -1.32891990565467715824e-01) (188, -1.01776803351909153617e-01) (189, 5.21240310287638397568e-02) (190, 7.15718118301579692142e-02) (191, -4.87775932595640934752e-02) (192, 4.27160453444309431981e-02) (193, -4.74766641277447887237e-02) (194, 1.20379507343087971405e-01) (195, 6.32833657524162901398e-02) (196, -1.75085382497786656852e-01) (197, -1.35174295486003598343e-01) (198, 1.00575695825378230719e-01) (199, -1.06791538582437658955e-01) (200, 1.88578024707825413209e-02) (201, 1.37193018396432137029e-01) (202, 4.28922176574637950552e-02) (203, -4.70025007701027619511e-02) (204, 2.06443840723122190584e-01) (205, 2.73755646025284453404e-02) (206, -1.64040036929019826528e-02) (207, -1.11482756674303004618e-01) (208, 1.00458707108755079113e-02) (209, 9.61472937280526268600e-02) (210, 2.44864400054960219821e-02) (211, -2.96915947170460110816e-02) (212, -6.58499783142972722194e-02) (213, -9.24130806402610402439e-03) (214, -1.26921513045567119216e-01) (215, -1.03989975208928941974e-01) (216, 5.73690307045975154271e-03) (217, -5.64657123926969248262e-02) (218, -3.79696215388035593352e-02) (219, 7.41122596473235140113e-02) (220, -6.17216684414333902065e-02) (221, -1.02292201364425905386e-01) (222, -5.54097529759291981821e-02) (223, -1.35558506170186471307e-01) (224, -6.68394284285211554009e-02) (225, -5.30907140307832481341e-02) (226, 7.10139654202492365265e-02) (227, 1.38516699893578686814e-02) (228, 3.44893569027330398891e-02) (229, 7.19158685718464668613e-02) (230, -2.49963210017209239155e-02) (231, -6.45401372299963249635e-02) (232, 2.19706937942222672866e-02) (233, -4.73133900494138448511e-02) (234, 8.11034357106550918282e-02) (235, 4.66868987504744925587e-02) (236, -3.35538554323919343755e-03) (237, 7.47030330761930677630e-02) (238, -1.02293776855949036797e-01) (239, -7.66652603714273045421e-02) (240, -8.45659674531372140827e-02) (241, -1.89353775562317167003e-02) (242, -2.41083467149826279063e-02) (243, 7.84969632791684100714e-03) (244, -8.90798755993196106351e-02) (245, 4.20087431479048475230e-03) (246, -6.33662484853960983333e-02) (247, -1.76546648148697193914e-01) (248, 1.31712024318493131636e-01) (249, -9.32253322121360250563e-02) (250, 1.19951594363645455688e-01) (251, -1.50746329139353735238e-01) (252, -1.52729463601060794220e-02) (253, -5.67579733794242313749e-02) (254, -1.65576842092416513796e-02) (255, -1.10293354918992222297e-02) (256, 1.59848514931398427708e-01) (257, -2.01467032414063662582e-01) (258, -1.52245206471608579557e-01) (259, -9.40209684585615462771e-03) (260, -3.98948085155498011201e-02) (261, -1.00884011166821677130e-02) (262, 4.63971748542352582789e-02) (263, 7.42083317336494907579e-02) (264, -1.36041400046465005280e-01) (265, -5.00364542845158338097e-03) (266, 6.60622871366512744162e-03) (267, 1.60618367234454280379e-02) (268, -6.39763606523469224863e-02) (269, -1.62633568771002427755e-02) (270, 7.43370315123032532334e-02) (271, -4.54290482586071006632e-03) (272, 7.57609474165120838629e-02) (273, -2.06996840748590697767e-02) (274, -6.99747141006777234606e-02) (275, -6.28946864023647439490e-02) (276, 1.11904437134039413948e-01) (277, -9.73199956573929658710e-02) (278, -2.07356408431803133918e-02) (279, 1.15392537509904746784e-01) (280, -3.40415669830739023305e-02) (281, -3.92953294604760638986e-02) (282, 1.27012771782566313838e-01) (283, -1.49914348829025129151e-01) (284, -1.97611266885114357506e-02) (285, -3.91701315389899953900e-02) (286, 1.08597541030709607290e-02) (287, -9.23395932542730307757e-02) (288, 2.79323167732590648543e-03) (289, -2.62100665086185513619e-01) (290, -8.28121746458290869386e-02) (291, 3.25345082723726489182e-02) (292, -1.88486577904274310580e-01) (293, -1.74497401631113019382e-01) (294, 3.47098728388519905952e-02) (295, -6.57970560818187805152e-02) (296, 7.95581288147423522361e-03) (297, -1.98498588402190381808e-02) (298, 8.51008117454740004026e-03) (299, -1.00351521081856104312e-01) (300, 7.81866049115638173106e-02) (301, -4.80454892108280462448e-02) (302, 4.36157303715924565823e-02) (303, 1.07139396622870392006e-01) (304, 8.90870942186661012030e-03) (305, -1.86688993547313511479e-02) (306, -2.61939309590360908109e-02) (307, 3.22504682277321319539e-01) (308, 2.24849400324536902174e-01) (309, 1.84757840337478121406e-02) (310, 4.69582277990083854502e-02) (311, 1.85977418574600816825e-01) (312, -1.13880163381217258678e-01) (313, 7.35549229037898728151e-03) (314, -1.11507258888010094000e-01) (315, -1.70010274468212568832e-01) (316, 1.18796275712930374246e-01) (317, -1.18719306948208480623e-01) (318, -1.40897389289925706324e-01) (319, 1.44547483984927838119e-02) (320, -5.16590964600888297165e-02) (321, -1.06484272804131446799e-01) (322, -8.21705495185628270738e-02) (323, -2.39693544498536387222e-02) (324, -4.93748907414441086383e-03) (325, 2.57749976611162043283e-02) (326, -2.65237369593060955120e-02) (327, -3.78767050962233314815e-02) (328, 2.19460102551930066536e-03) (329, -9.72708381817555117754e-02) (330, 5.10531210834586288150e-02) (331, -2.23440137883912023908e-02) (332, -5.48387502954053758508e-03) (333, 9.44023133514859807969e-02) (334, -7.56319278181774301562e-02) (335, 1.86496303116728302796e-02) (336, -1.37757211572376747633e-01) (337, -3.18726326803298390389e-02) (338, -2.70662017647973303022e-03) (339, 1.37994728398430743788e-01) (340, 1.23983905157460605473e-01) (341, 1.07094006090007701215e-01) (342, 7.24659236127289801965e-02) (343, -3.36620959427246782200e-03) (344, 6.92332508871274371343e-02) (345, -1.03819041289875568790e-01) (346, -8.67821114265054753545e-03) (347, -3.25523560995774549620e-02) (348, -5.69334932063200113705e-02) (349, 5.13621572777352777828e-02) (350, -2.98189463293336322336e-02) (351, 3.27361449654714406488e-02) (352, -1.14683372837387029947e-02) (353, 1.09632596613140481656e-01) (354, -5.71951116884468202528e-02) (355, -3.05558875729966886170e-02) (356, -1.72664116918983916171e-02) (357, 3.41483098775800658631e-02) (358, 7.14448458613712727994e-02) (359, 9.08905852355672144727e-02) (360, 7.09617610624373312822e-02) (361, 3.04684016454086319114e-02) (362, 9.03218416721464009700e-03) (363, -5.74198564666285934249e-03) (364, -2.33654276304612051884e-02) (365, 6.95899521608698279351e-02) (366, -2.03785250889241070782e-01) (367, -6.35723898171859647110e-03) (368, -1.76060969036691029876e-02) (369, -2.81351925740278008270e-02) (370, -5.51203786936549089415e-02) (371, -1.63813195855013228608e-02) (372, -3.90545945643510986067e-02) (373, 5.00301711099926521564e-02) (374, 1.66179402509596979565e-01) (375, -3.24841855453094144335e-02) (376, 1.08809127263785831996e-01) (377, 1.62894936553176494787e-02) (378, -1.85205778213868577087e-01) (379, 8.81826634860101953028e-03) (380, -1.40362608218178482045e-02) (381, -1.70358988094046925887e-01) (382, 1.07188118570195098367e-01) (383, 1.07584157938641650221e-01) (384, -1.37851839692072541954e-01) (385, 5.36328201741699331362e-02) (386, 1.72250252670723719151e-01) (387, -1.10311825630863488690e-01) (388, -1.83915405786307314950e-02) (389, 1.67834194690077376233e-01) (390, -1.20277647586341830677e-02) (391, -1.27201924550615075304e-01) (392, 4.36136887221169403106e-02) (393, -1.23774158912462892146e-01) (394, 1.83070386291617204222e-02) (395, -3.26895285693503609425e-02) (396, 8.06282546045680725832e-02) (397, -1.83143246140533982880e-02) (398, -3.84096636418229941956e-02) (399, -7.51133305987718435937e-02) (400, -3.45440458507711295466e-02) (401, 1.72592114211150941816e-02) (402, -7.23889975056119568814e-03) (403, -7.76206633607509910444e-02) (404, 2.12308290239268844524e-02) (405, 4.85049029096286561658e-03) (406, 1.35159343816553617623e-01) (407, 5.70830090003681608901e-02) (408, -2.46643013318738717199e-02) (409, -4.87589560117810127959e-02) (410, 6.84137043277871503832e-02) (411, 1.06239828594647586074e-02) (412, 3.80246673795787762384e-02) (413, 1.81634719553966442196e-02) (414, -5.85416887002609964696e-02) (415, -7.68953219312650121386e-02) (416, -4.19501597836575007561e-02) (417, 8.84971533471933247128e-02) (418, 3.54642801903583132495e-02) (419, 1.21879434968262777284e-02) (420, 3.26034492444769660735e-02) (421, 4.91850934243157553172e-02) (422, 3.93518077038847793880e-02) (423, -4.03858105141609233235e-02) (424, -1.16902239121793635745e-01) (425, -1.06262491693285318628e-01) (426, -1.62725517446599882154e-01) (427, -1.43018535489393916471e-01) (428, -1.05308789525408688648e-01) (429, 5.40478014929667571753e-02) (430, -1.42988733950648264776e-02) (431, 5.33793867397799673413e-02) (432, 4.79490694347050380036e-03) (433, 2.39665514593181659675e-02) (434, -5.30834553714102305721e-02) (435, -2.86727435671813718487e-02) (436, -4.58524635313211914589e-02) (437, -1.57028641156582271510e-01) (438, -1.24250200593838205920e-01) (0, -1.28345816916303562261e-01) (1, -1.59829651164312996903e-01) (2, 9.38504416617794157141e-02) (3, 9.34693693426492879135e-05) (4, 9.17083233535099517919e-02) (5, -6.50681953985753937231e-03) (6, 8.76811775547865629443e-02) (7, 4.06759432501081832911e-02) (8, 1.22852029505313240648e-02) (9, 1.27409315031798003881e-01) (10, 3.49215810418775987611e-02) (11, -7.00502749860018314454e-02) (12, 1.19682228104198169066e-02) (13, 1.30366749506413387438e-01) (14, -2.38858555229031765954e-02) (15, -4.48021006553631865460e-03) (16, -6.06060473394722173945e-02) (17, 6.69032736330468363883e-02) (18, 2.32350716526917994154e-02) (19, -2.31502262898557152615e-02) (20, -8.43595340847969055176e-02) (21, -8.37134965074520925876e-02) (22, 8.72393462461675400776e-02) (23, 1.32874760828209981245e-01) (24, 1.31757928724484441041e-01) (25, -6.67818389495394154620e-02) (26, -2.63977678333412124623e-01) (27, -6.22914794540284436075e-02) (28, 5.22858418500810814833e-02) (29, -1.77826680479185816885e-01) (30, -1.18093750122204285691e-01) (31, -9.33049912389287000591e-02) (32, 6.44334148000432482828e-02) (33, 1.92851890608125769999e-01) (34, -1.50292656275809927147e-01) (35, -1.59995817697241998756e-01) (36, 1.55392608171662061078e-01) (37, 2.02798061233406996806e-02) (38, 1.39272848232496637699e-01) (39, 3.05401226257408286990e-01) (40, -7.53886950980298814473e-02) (41, -2.04319892621673002489e-03) (42, -8.72683389245985374760e-02) (43, 6.91624484145156488701e-03) (44, -7.49177040163437751863e-02) (45, 8.12524732144146027979e-02) (46, 7.58386850358262198935e-02) (47, -3.65321789821367601606e-03) (48, -7.58167613086471042783e-03) (49, 2.53024177920932180630e-02) (50, -5.81072326421116919226e-02) (51, -4.77663465555703235788e-03) (52, 1.14535607533438679728e-01) (53, 2.09236296890337770960e-02) (54, -2.43320695308640477794e-01) (55, -3.27376096886734246905e-02) (56, 1.05647859151474718398e-01) (57, -2.09714782989121086010e-02) (58, 6.80713708387205712613e-02) (59, 2.54378586501445069779e-01) (60, -1.64916190923433125803e-01) (61, -6.17996157267890061648e-02) (62, -5.84144302170477719427e-02) (63, 1.22851208565597960765e-01) (64, -1.14844530121196566896e-01) (65, -1.24097244896326577845e-01) (66, 3.76256416388613679214e-02) (67, -3.59504982018582670833e-03) (68, 9.56667176426688192770e-02) (69, 5.13013882171243912333e-02) (70, -5.45683895883884162448e-02) (71, 4.30621142519130237214e-02) (72, -1.19943758601858824209e-01) (73, 1.10924963941123277955e-01) (74, -1.01779021807901867702e-01) (75, -7.95390307390004820502e-04) (76, 1.19744665733126545715e-01) (77, -1.36052386522946613945e-02) (78, -1.07166464195428010053e-01) (79, 2.03277040987880713852e-01) (80, 1.12594393699986139445e-01) (81, 2.40841277488977184573e-02) (82, 2.43077687300633678291e-02) (83, 3.53745427034086665219e-02) (84, 3.99111424412774487558e-02) (85, -1.06410250839997319594e-01) (86, 4.29824590351035509123e-04) (87, 1.37966869652433182791e-01) (88, 1.08900555444890120849e-02) (89, 5.72280507979621780312e-02) (90, -9.74039762097335254376e-02) (91, 1.28985942987705659579e-01) (92, -2.00467173559737803223e-02) (93, -1.18410421302858920312e-01) (94, -1.51198262385621673420e-01) (95, 7.96129075738371133619e-02) (96, 1.64134729519497563066e-01) (97, -1.39378441908154987461e-01) (98, 4.85798159706488166809e-02) (99, 1.47873498858002133671e-01) (100, 8.19870161497066318734e-02) (101, -5.67023637150898610071e-02) (102, 1.57747141941738389104e-02) (103, 1.29400234220588827849e-01) (104, -1.98165852019288914188e-02) (105, -2.07180066540509244533e-01) (106, 3.25227596211875441545e-02) (107, -1.46412993612806019428e-01) (108, 6.47981498936208571982e-02) (109, 3.44279569476324612265e-02) (110, 1.04464837667608598237e-01) (111, 1.52483383914524678326e-01) (112, 1.07134393949657930056e-01) (113, 2.04463687274613531430e-01) (114, -2.83182200334915534778e-01) (115, 1.35184986309465515752e-01) (116, 4.47898930970016651010e-01) (117, 7.90237265548929812553e-02) (118, 1.58933363262737853416e-01) (119, 4.62195972712314884223e-01) (120, 5.85418333409756623531e-03) (121, -1.32203312104677145333e-01) (122, 1.47112972947455733497e-01) (123, 3.14462649223051005087e-01) (124, -1.10471726207817713683e-01) (125, 4.86373228645385624613e-02) (126, 1.42864152010740264043e-01) (127, 4.59624573215501180945e-02) (128, -1.02301000670019945349e-01) (129, -5.55434522334444097380e-02) (130, -6.38311665243972148343e-02) (131, 5.93163357353985176701e-02) (132, 1.46402097548931547921e-01) (133, 8.09186480633522636774e-02) (134, -4.07335268150243318130e-02) (135, 8.00930820588176273223e-03) (136, 3.10650995317471645407e-01) (137, -1.06938232641613478746e-01) (138, 1.71890046172635483496e-03) (139, 3.40249387139278991476e-01) (140, -7.40917999233726976005e-02) (141, -1.10736981793105055544e-02) (142, 1.62981253466424930339e-03) (143, 1.20620808711178778561e-01) (144, -7.97026888884995732276e-02) (145, 2.22647666207344656353e-02) (146, 9.41197447821065930063e-02) (147, -1.92960954613184236528e-02) (148, 7.88391108277184393671e-02) (149, -1.52823860339380986594e-03) (150, -5.16909952503556910375e-02) (151, -8.07646840897660589498e-02) (152, 3.73520581629220443931e-02) (153, 8.87069159643322086017e-02) (154, 3.99508476697899624769e-03) (155, 7.61538131237036869381e-02) (156, 1.77111478405656497248e-01) (157, 2.11280133900918209999e-02) (158, 6.83823814285232922661e-02) (159, 3.14617786749739780650e-01) (160, -1.19534668663579435495e-03) (161, -1.84871861550668717400e-02) (162, 6.37319759186951162455e-02) (163, 1.14179329271486162956e-01) (164, -8.68746472979000927683e-02) (165, -8.57224598589944181137e-02) (166, 1.43602306667664270101e-01) (167, 4.69582532953531431308e-02) (168, 7.07949955019045451543e-02) (169, 1.30086705809197306777e-02) (170, -5.29159511143169267178e-02) (171, 4.74292504208827410406e-03) (172, 7.74062842523426247743e-02) (173, 8.98387062204829833778e-02) (174, 5.65521460172841057557e-03) (175, 7.40332545404681630075e-02) (176, 2.12625344160446622110e-01) (177, -1.69958843281984295359e-02) (178, -2.35333079370716041767e-02) (179, 2.74581725044535374103e-01) (180, -1.13165072260411378458e-01) (181, 1.25891848663558115345e-02) (182, 2.66273303503666639025e-02) (183, 1.06578882623665507912e-01) (184, -5.02539487452495908792e-02) (185, -2.39359239778092688922e-02) (186, -6.44758787362949836730e-02) (187, 6.89358108522493129300e-02) (188, -4.91336611067450940160e-02) (189, -5.02650520680332849044e-02) (190, -7.89901838788538285252e-02) (191, 8.52829675502399658926e-02) (192, 6.13930081443710071176e-02) (193, -8.46404583954667583123e-02) (194, -1.12852777364600503907e-01) (195, 1.19015578312172465303e-01) (196, 2.24888773481820597455e-01) (197, 1.69347794584965766207e-01) (198, -5.86541994885016806927e-02) (199, 2.32065916610240896567e-01) (200, -4.48391865054921685829e-03) (201, -1.01603321572340671297e-02) (202, 9.47150432663329128191e-02) (203, 1.21151632918810758799e-01) (204, -1.16094888192912332192e-01) (205, 3.44908583483824610072e-02) (206, 2.82929260706227987676e-02) (207, -3.03888375371400600022e-02) (208, 7.94463758687809773473e-02) (209, -6.75884464166295328980e-02) (210, 3.07039110109609790500e-02) (211, -9.12591009562608995731e-02) (212, 1.19148187141219746854e-01) (213, -6.87774047189770726396e-02) (214, 5.54771495584327131723e-03) (215, -4.26946241795519848550e-02) (216, -6.54629968878736568337e-04) (217, -1.61352618913212335350e-02) (218, -1.74716359371544116552e-01) (219, -3.94991098962166886643e-02) (220, -2.90650515578097512481e-02) (221, -8.24508617197010351685e-02) (222, -2.86440644975618184664e-03) (223, -4.51200144729748883754e-02) (224, 4.84207509308688249794e-02) (225, -1.12321457987353920394e-01) (226, -2.51041785550137133698e-02) (227, -4.80981723323639087653e-02) (228, 7.82626874881080097923e-02) (229, -9.03217028112666131534e-02) (230, -1.87124426631383004860e-02) (231, -1.41084730529961011047e-01) (232, -1.29663705328262098687e-02) (233, -2.16981434611004053714e-01) (234, 8.42351310172583800373e-02) (235, -7.20500121726087711105e-02) (236, 9.97034915175289554456e-02) (237, -2.07733201967796293763e-01) (238, -6.01741034414529918362e-02) (239, -3.00216455918840968708e-02) (240, 2.40855722881945337466e-02) (241, 6.16793118999232198307e-03) (242, -4.38421973414538854175e-02) (243, -1.30545125792455390945e-01) (244, -7.46786014827966193597e-02) (245, 4.70451732430245961325e-02) (246, 1.85434972802781296297e-02) (247, 8.25568734017258082369e-02) (248, 3.71655618454969152720e-02) (249, -1.02247928268033982241e-02) (250, 3.32364337663948669621e-02) (251, -4.93754031228135145670e-02) (252, -2.57266574978960646525e-02) (253, -1.42702976389906088794e-01) (254, 6.83646975484327595884e-02) (255, -1.69822898243740388891e-01) (256, -6.07305736504643034479e-02) (257, -9.11296137881168755168e-02) (258, 2.55152852067551727533e-01) (259, -1.91880254121374022036e-01) (260, -7.53661510752150209935e-02) (261, 2.51834150416640034642e-01) (262, -1.28308069510298383697e-01) (263, 3.75206708295616926663e-03) (264, 1.64040255405086127238e-02) (265, -1.04689930833508332286e-01) (266, -4.88114016922613497274e-02) (267, 1.22521237186028711386e-01) (268, -5.20683527814358518282e-02) (269, 5.63938638923952486465e-03) (270, 4.20369674126982520446e-02) (271, 5.52133307164541786705e-02) (272, -2.38167814172774543191e-02) (273, 3.77169564989157657386e-02) (274, -7.43368560131864031248e-02) (275, 2.73741878556866824468e-02) (276, -3.67127928086153840215e-02) (277, 1.51222506434097986316e-01) (278, -1.13264716768348115694e-02) (279, -1.35585980363461894305e-01) (280, 1.30981070548700978540e-01) (281, -2.84203260116765860088e-02) (282, -3.57817680485482195185e-02) (283, 8.50470799820106826590e-04) (284, 6.14229609119404731943e-02) (285, 1.18661196741315283498e-01) (286, 4.16151465678697499162e-02) (287, -2.70922648006667043941e-02) (288, 1.43951019898171050926e-01) (289, 3.04725433745794194174e-01) (290, 4.77221958896007630857e-02) (291, 6.77348569975263908871e-02) (292, 1.43730038032565371475e-01) (293, -3.05232767401597583634e-02) (294, -5.60032560011776911479e-02) (295, 6.48288031170732442776e-02) (296, 4.96676820940258195725e-02) (297, -7.44504425596578256474e-02) (298, 1.58469104270186456063e-01) (299, -7.71260622140242518840e-02) (300, 5.72895695948607980297e-02) (301, -8.27647329696382105801e-03) (302, -7.80327553352116454199e-02) (303, -5.28357923270180579456e-02) (304, -1.60745839993541445034e-01) (305, -6.60553847118934001070e-02) (306, -1.49311284821383449817e-01) (307, -4.51608659224884301242e-01) (308, -2.20471873615348867848e-01) (309, -1.85582973833680608955e-01) (310, -8.24638839195213219080e-02) (311, -1.71675131815914677746e-01) (312, 1.24840036890542765979e-01) (313, -9.70077336281033146548e-03) (314, -6.98951856255555920017e-02) (315, 4.32959022429400958165e-02) (316, -2.15288828652587943546e-01) (317, 6.85326572776567416456e-02) (318, 1.48599074274521458783e-01) (319, -5.68739305803102265791e-02) (320, 4.21851567979253383456e-02) (321, 1.18296881932830860729e-01) (322, 1.34558232134204092123e-01) (323, -4.81086091947940802660e-02) (324, 8.82414882678211054401e-02) (325, -1.18929468841050142713e-01) (326, 3.64068622410905831654e-02) (327, 4.73587857572380435678e-02) (328, 4.51305322303530431771e-02) (329, -2.94459984474652013142e-02) (330, 3.30882890505582128934e-03) (331, 2.89110163216928957308e-02) (332, 7.28487753143942234901e-02) (333, 1.09371327565399717452e-02) (334, 1.34833412679724679029e-01) (335, 6.55996570435166403978e-02) (336, -1.08425010408599916539e-02) (337, -9.18214543605229138734e-02) (338, -1.04030585247358434153e-01) (339, -8.87904754944429525088e-02) (340, -7.77280514551189488648e-02) (341, -2.03564010774702000561e-02) (342, -4.45385769929003833001e-02) (343, 7.51997025892837955841e-02) (344, 4.82001278939386407218e-02) (345, 5.11174794278175352591e-03) (346, -9.63466745229053789235e-03) (347, -2.14611638824830953942e-02) (348, -4.45619458708405996594e-02) (349, 4.37275161726895927883e-03) (350, 1.38472892853718442495e-03) (351, 3.99773943966934136585e-02) (352, -9.14302859570443188231e-02) (353, -1.88963705611769894332e-02) (354, -8.81534492918270434769e-02) (355, 5.30615821406752799505e-02) (356, -1.09331693709575628048e-01) (357, -4.03978433849765811159e-02) (358, -8.40284406354629281877e-02) (359, -3.39584034761981250553e-03) (360, 1.36435633669033957310e-02) (361, 2.57008925388375678023e-02) (362, -5.58828076829706796302e-02) (363, -6.88884015110672320858e-02) (364, 1.27456005165405374981e-03) (365, -3.83305364874234888450e-02) (366, -3.59483225404336331765e-02) (367, -2.20370074865118559249e-02) (368, -1.61916892645570416331e-02) (369, -9.80491832200193133562e-03) (370, 2.78219107243738231205e-02) (371, 2.20766321668428057434e-02) (372, 6.14225209924037646170e-02) (373, -8.82674823401415412083e-03) (374, -2.02001227231969580911e-02) (375, 1.11611018790824870206e-02) (376, -8.20642939908700075335e-02) (377, -4.76358539902578259628e-02) (378, 1.94959917885110911584e-01) (379, -1.72814447561171841139e-01) (380, 4.62200797788156481083e-02) (381, -1.19221471442619159076e-02) (382, -1.11902947520569187589e-01) (383, 8.82339371444150755153e-02) (384, -5.41223482385490631263e-02) (385, -8.71092563316920726058e-02) (386, 1.31632186391913222345e-02) (387, -2.56873345105081175854e-02) (388, 4.79694144262745800211e-03) (389, -1.23347312880262849344e-01) (390, 3.68756167013700869584e-02) (391, 1.77193852765221322720e-02) (392, -1.30400996337000946168e-01) (393, -1.36201133149041215403e-02) (394, 1.01054090226242787587e-01) (395, 4.52163803008842277165e-02) (396, -4.01531713849221927326e-02) (397, 4.40906658344641863567e-02) (398, -1.87304697395435856833e-02) (399, 6.73917593248906376946e-02) (400, -2.90495756235815538043e-03) (401, 3.51087591418071734428e-03) (402, -4.53512356189053750244e-02) (403, 4.70743873832403306179e-02) (404, -2.87317911713392652728e-02) (405, -9.74027245357468596243e-02) (406, -1.58443167684632180148e-01) (407, -3.27745309907070264677e-02) (408, -1.06397241311216736448e-01) (409, -1.41006362871191920361e-01) (410, -1.20164929474711940083e-01) (411, 3.94431711334606235897e-02) (412, 1.24757421624717035336e-01) (413, 6.75865628219176617364e-02) (414, 2.27600330239669766674e-02) (415, 1.20142892336143142229e-01) (416, -3.01715092610134599793e-02) (417, 1.91647085590004144506e-02) (418, -2.99599420220561067640e-02) (419, -2.09985605765741593920e-03) (420, 9.72445136945686121333e-03) (421, 1.65583649520660673715e-02) (422, 9.46756571213368258721e-02) (423, 1.41301340653527868207e-01) (424, 2.02429451402276888716e-01) (425, 1.17371948941899062469e-01) (426, -5.95536728351570189425e-05) (427, -1.52339388586449318852e-02) (428, 2.33731827621390386707e-02) (429, -1.16642289446997789171e-02) (430, -1.23134584549431061462e-01) (431, 4.53482599427251567570e-02) (432, 3.85119432989595653072e-02) (433, -8.66717620290244350478e-02) (434, 2.41754194432763011569e-02) (435, -9.18292865436391991807e-02) (436, -2.92155152213247407134e-03) (437, -8.14440651637768874005e-03) (438, -1.30970047352748364400e-01) (0, -5.24406513903317647585e-02) (1, -1.43164999765099804074e-01) (2, 3.55317532245312331374e-02) (3, 5.15860080964143791205e-02) (4, 1.03349904374186007949e-01) (5, -3.69551584187510773205e-02) (6, -2.94772225645917491932e-02) (7, 5.89035409260214234961e-02) (8, -2.46574398234548561315e-02) (9, 6.52272826885988143975e-02) (10, 9.59011973028643244232e-02) (11, 4.32380071759572517671e-04) (12, -4.94647261077881816860e-02) (13, 9.16453752871352333997e-02) (14, -1.15830126425112093363e-02) (15, 7.93856597822430037903e-02) (16, 5.25315773153638351789e-02) (17, 1.04072233617480316981e-01) (18, -7.63118402503123322012e-02) (19, -1.05875732566261621104e-01) (20, 3.56147363781929016113e-02) (21, -1.61658236908652011565e-02) (22, -3.27911689223893479395e-02) (23, 6.47093488537769656599e-02) (24, -9.33393412479998664522e-03) (25, -3.03275945739952153268e-02) (26, -8.18475255216861291574e-02) (27, -9.66372659489052460158e-02) (28, -3.09123554068905584402e-02) (29, -1.21015655113774087126e-01) (30, -3.72549970621640635926e-02) (31, 1.27144444094509593418e-02) (32, -7.51863215832917000658e-03) (33, 4.21399404093181564890e-02) (34, -4.31523478322761999681e-02) (35, -1.11554977873471114491e-01) (36, 1.49473984381266439270e-01) (37, -6.24444559768256579613e-02) (38, -7.22323398776033576141e-02) (39, 5.09288327979129790135e-02) (40, 4.26199190690284002159e-02) (41, 5.75476704623696794227e-02) (42, 1.63382012794477810003e-02) (43, -3.07039994399755655774e-02) (44, 1.24123064340199880384e-02) (45, -5.78614025301310633265e-02) (46, 1.43195526995516186908e-01) (47, 6.79921421199334782837e-03) (48, -5.55740542314194715945e-02) (49, 7.02121967160837662236e-02) (50, 3.63576273256060317207e-02) (51, 8.23372847540099345176e-02) (52, -1.29406535348406143832e-02) (53, 6.07710075983443828718e-02) (54, -1.32116632717205279013e-01) (55, -5.11154153302617771104e-03) (56, 5.93501926876336266536e-02) (57, -1.00132958431290788881e-01) (58, -4.12513777826042302155e-02) (59, 1.79688499877571072894e-01) (60, -1.42546463148768315365e-01) (61, -1.37582200678684735129e-01) (62, 2.71984830881275424508e-02) (63, 2.60964322554231090145e-02) (64, -5.82251245831382144291e-02) (65, -4.10762867793924759535e-03) (66, 1.20511691414297728714e-02) (67, -6.80523786796159296797e-02) (68, 9.33544076574354675380e-02) (69, 2.54127844035062604167e-02) (70, -4.63243145225890121108e-02) (71, 9.36530998480535337158e-02) (72, -4.76449363251364443883e-02) (73, -4.04072099646368559922e-02) (74, -9.27147070067427594986e-03) (75, -7.85056473460852416446e-02) (76, 3.25320405232176132482e-02) (77, 4.01173521623028120353e-02) (78, 1.92708174279596217149e-02) (79, 6.50018487636398051288e-02) (80, 8.10848083292408927658e-02) (81, -2.48687586263307142120e-02) (82, -6.77320012908951274433e-02) (83, -1.65847841480017219734e-03) (84, -1.11114416058615175786e-01) (85, 2.34752784575222462476e-03) (86, -6.63856601583477923256e-02) (87, 3.30592507100256893793e-02) (88, 2.50166252288119041192e-02) (89, -5.32467620293639726237e-02) (90, -8.18832575139225443683e-02) (91, 8.38900063113024035966e-02) (92, -1.44058134000031885097e-02) (93, -8.24514690735409921940e-02) (94, -1.52741752902578270534e-01) (95, 6.59663101743136609523e-02) (96, 1.64360140624347200733e-01) (97, -4.21552993754966132123e-02) (98, 1.37002599315472872732e-01) (99, 1.52022914239539369552e-01) (100, -8.40791594137647452234e-02) (101, -1.25094502704612871302e-02) (102, -2.27297197332057381025e-02) (103, 3.44026468323187159526e-02) (104, -1.15765827586056559151e-02) (105, -1.00578370880690479150e-01) (106, 8.95232770407862060713e-02) (107, 4.74166616738475252268e-02) (108, -5.47574406503595206841e-02) (109, 7.37931769382064225299e-03) (110, -3.97892289509148774918e-02) (111, -2.99514976986193625502e-03) (112, 8.39610265906368391509e-02) (113, 5.84137181037710090381e-02) (114, -1.74798017714567571756e-01) (115, -6.36392730402469963824e-02) (116, 2.71949951058903405254e-01) (117, 2.03862240031526739670e-02) (118, 7.16087334255666035920e-02) (119, 2.59749395831601503914e-01) (120, 3.44560896553520595864e-02) (121, 3.17338266233520641113e-02) (122, 8.17850363121892381946e-02) (123, 6.38681551026052674036e-02) (124, -1.41595307112567014851e-01) (125, 2.84686716467842555744e-02) (126, 1.47331192945580613518e-01) (127, 8.69299084851551662201e-02) (128, -7.39604303693191661440e-02) (129, 8.97584143759787844719e-02) (130, -7.63584650655944330300e-02) (131, -3.45490823671368296743e-02) (132, 7.30626934398783123292e-02) (133, 5.47275987188762524926e-03) (134, -2.24619519190301202005e-02) (135, 8.73912665811352601386e-02) (136, 2.01058222394787572407e-01) (137, -1.51099926235323533952e-02) (138, 2.31713792012368281770e-02) (139, 4.34928706909711582096e-02) (140, 3.88774108814511007437e-02) (141, 6.61082641598082915158e-02) (142, -5.02591280374994342495e-02) (143, 1.25310709435952682966e-01) (144, -8.87428021296723379407e-02) (145, -1.45539699918624965830e-02) (146, 1.23381444991124106236e-01) (147, -3.68671378176847613917e-02) (148, -5.40776702441636489271e-02) (149, 1.56314755691887609379e-02) (150, 2.16416886832472322999e-02) (151, 8.54906625291623895047e-02) (152, 1.68492075586050994024e-04) (153, -7.32356414180549558646e-02) (154, 4.08894482192262431752e-02) (155, -1.09910147959302924997e-02) (156, 1.17671983132207308431e-01) (157, 5.12190829020759894052e-02) (158, -1.09120360066791821652e-01) (159, 2.08308060285309876170e-01) (160, -2.01923544632137859367e-02) (161, -5.00546803128522482806e-02) (162, -2.64569381678660606183e-02) (163, 1.19499188448286844388e-01) (164, 4.52206496950240399713e-02) (165, -1.35583025651109023713e-01) (166, 5.28351278033715940352e-02) (167, 1.02140958511599239111e-01) (168, -4.18333857444600550751e-03) (169, -9.66972561329379476369e-03) (170, 8.34371412959587777092e-02) (171, -1.64249743733741460083e-02) (172, -2.60673429158607312950e-02) (173, -6.74816337296397089629e-02) (174, -9.24000197668917305771e-02) (175, 2.66264753589376748644e-03) (176, 1.40477186888216865057e-01) (177, -4.52448661246497366162e-02) (178, 6.71005325366441640611e-02) (179, 2.46820514791363021523e-01) (180, -3.67123150518440313772e-02) (181, -4.35208369336025947816e-03) (182, 1.05948635677517222220e-01) (183, 1.34204874351690733869e-01) (184, 7.93794579847626781410e-03) (185, 8.32174226783409659580e-02) (186, -4.38283862961763928667e-02) (187, 2.96022071324682535531e-02) (188, 6.85650618226474328765e-02) (189, -4.02764353518066803295e-02) (190, -2.27699242737208623621e-02) (191, 6.30592528994957084859e-03) (192, 3.84896575859687214982e-02) (193, 2.91215125104995337102e-02) (194, -1.21156344514771682763e-01) (195, -2.17386315288360006115e-02) (196, 1.29940322364721277948e-01) (197, 1.67210537331180325582e-01) (198, -6.40704823689136615528e-02) (199, 7.06276949499832773505e-02) (200, -7.94574605853828747071e-02) (201, -8.54329693162702852316e-02) (202, 3.18303497128032270025e-02) (203, 3.55584718161845517170e-02) (204, -1.07268383649707116367e-01) (205, -1.25380908124130135972e-01) (206, 1.14073754573666877321e-01) (207, -5.84813454702789656259e-02) (208, -8.51573259148376421335e-02) (209, -3.24610279257660713781e-02) (210, -7.80296560132067162918e-02) (211, 3.30724681611527723812e-02) (212, -8.52761912798160465199e-02) (213, -1.13266634417250613986e-01) (214, -3.54730546078037972668e-02) (215, 1.66541350982095555378e-02) (216, 6.36868943223545258547e-02) (217, -1.49658230376745644830e-02) (218, -8.48060084785944023889e-02) (219, -1.44990433103288230560e-02) (220, 9.74097309044482696783e-03) (221, 2.18097543317444519939e-02) (222, -8.81338709249642471288e-02) (223, -6.41807591233975044398e-02) (224, 9.06922319422109185494e-03) (225, -5.58488383854409409235e-02) (226, 4.14805711911565219707e-02) (227, -6.77913911624242609966e-02) (228, -1.79023476497398199847e-02) (229, 2.43054269579578950677e-02) (230, 5.27775003004045464849e-02) (231, -6.01887108820030186651e-02) (232, -6.67147335117749401556e-02) (233, -8.35693384953868356746e-02) (234, 8.81598147308747109863e-02) (235, -7.00525379555321514591e-02) (236, -4.14797920769618272407e-03) (237, -7.77421689182567193094e-03) (238, 3.30582442276281529558e-02) (239, -4.10393873456825625246e-02) (240, -1.90102976767149503545e-02) (241, 1.18899690589478277541e-02) (242, -4.26389574975456486783e-02) (243, -7.01352603366235810567e-02) (244, 5.92198840501423351412e-02) (245, 4.40891302008423538461e-02) (246, -8.06872015863046854189e-02) (247, 5.19241998710792893035e-02) (248, -3.77708888847642434983e-02) (249, -1.46877383821698050126e-02) (250, -2.22320072819324233981e-02) (251, -3.90755777991216926570e-02) (252, -4.80298567626939107433e-02) (253, -8.98051265119369896382e-04) (254, 7.09110899937913027880e-03) (255, 5.21462838188684815743e-02) (256, -1.50004562578324646127e-01) (257, -1.71983930949764080021e-02) (258, 6.16358841837133450414e-02) (259, -7.89151284044354583980e-02) (260, -1.21113712185276903299e-01) (261, -1.05566984141422116200e-02) (262, 1.09068683932665739383e-02) (263, -8.75219816454746307732e-02) (264, 5.38159439745149112411e-02) (265, 3.08614458733906874000e-02) (266, -5.70901805259863351361e-03) (267, 1.08463463019740191662e-01) (268, 8.67438045542786445585e-03) (269, -6.27946466069520814468e-02) (270, 5.30399130364853977661e-04) (271, -1.06349322931606704579e-01) (272, -1.12554099119486966663e-01) (273, 4.21473817117602456150e-02) (274, -2.32433385771373332562e-02) (275, -1.30016487459949398042e-01) (276, -1.56813086094043790952e-02) (277, 3.60704654371961225268e-02) (278, 3.57234238296789061162e-02) (279, -1.36174436555632438761e-01) (280, -5.90748884139378413471e-02) (281, -2.74981167122507787204e-02) (282, -6.83656038141476768422e-02) (283, 6.92638264878778307093e-03) (284, -7.50489817153926486171e-02) (285, -6.16581942705188845721e-02) (286, -6.55105407788564558097e-03) (287, -2.25881999488028624434e-02) (288, -1.57030134779253191524e-02) (289, 1.58540278002505530264e-01) (290, 8.00518043236042725619e-02) (291, 3.34942139303598812594e-02) (292, 6.18858627361514174181e-02) (293, 6.74349922411977831249e-02) (294, 6.14940197297481963568e-02) (295, -8.27508508311803198110e-02) (296, 3.84281677241810545875e-02) (297, 3.72157218107384279993e-02) (298, -5.71399701007827970356e-02) (299, -4.12102690802479895704e-02) (300, -9.57321591296571988705e-02) (301, -1.52424393246512572542e-02) (302, -2.74788088808580570344e-02) (303, -1.09258662692916397319e-01) (304, -1.35437937168234906471e-01) (305, 3.35113286852423055556e-03) (306, -1.03513606693985044105e-01) (307, -1.48881779777777584206e-01) (308, -1.56139603528536424770e-01) (309, -1.26109242142194877268e-01) (310, 3.65663055522154264998e-02) (311, -1.17058537009360891235e-01) (312, 8.69450948335061396532e-02) (313, -3.69921567707784462731e-02) (314, 1.28049104721412333047e-02) (315, -7.13722790202718365693e-02) (316, -1.19367785203853396525e-01) (317, 1.12544841679213164509e-01) (318, 7.23394957415185967109e-03) (319, 5.43563723523250649783e-02) (320, 2.84153698775209892502e-02) (321, -3.08720255231389635597e-02) (322, -8.78697574342835081851e-03) (323, -6.03475598600619819734e-02) (324, 9.87282291587017468704e-02) (325, -1.07874275463603480629e-01) (326, 8.84192588752133468155e-03) (327, 3.78361431325538663528e-02) (328, 1.02665412235648345618e-01) (329, -8.09654570887858617001e-03) (330, 3.68552178315003572950e-02) (331, 1.08568648212752999482e-01) (332, 1.13718079994122756027e-01) (333, -1.06489380105632636120e-01) (334, -2.25039105592886243268e-02) (335, -9.40925208734565421409e-02) (336, 1.15342500003285899912e-01) (337, -2.24220471978699327498e-02) (338, 6.38451881467043402818e-02) (339, -9.57276308401860120956e-02) (340, 1.22676492578780767934e-02) (341, 6.10152678527070488346e-02) (342, -2.64711881273409083137e-02) (343, -1.98506722026490049771e-02) (344, -8.53601644927317326772e-02) (345, -1.28100811582849249959e-01) (346, -4.66868433866329604620e-02) (347, 2.65029385447850297786e-02) (348, 1.02106117339417101775e-01) (349, 5.22497794356739445054e-02) (350, -2.19869906447211667377e-02) (351, 1.72145047582730609248e-02) (352, 7.10300794792726175597e-02) (353, 4.84652072364805744376e-02) (354, 6.84594127610022862296e-02) (355, 3.51154741674771023185e-02) (356, -8.96574772485059789950e-02) (357, -8.28307820194065097530e-02) (358, -1.07938677187954634729e-01) (359, -1.37657818873767934242e-01) (360, 2.52546386137642783765e-02) (361, 4.34984180367229827935e-02) (362, -1.16224412188236564392e-01) (363, -8.59765359431891723618e-03) (364, -1.20951041860945823769e-01) (365, -5.84948180602543679751e-02) (366, 5.83606078946555389964e-02) (367, 6.02398324270822585480e-02) (368, -1.69033256878950918778e-02) (369, 5.28188310835151150768e-02) (370, 5.62219423925326214353e-02) (371, -9.11916581541092202690e-02) (372, 9.89935722733431555653e-03) (373, -6.05529675212286566666e-02) (374, -1.23236725976268220867e-02) (375, -3.54787009580417034282e-02) (376, -3.64766844071714932407e-02) (377, -7.02361196249286501292e-02) (378, -3.51356680570532025482e-03) (379, -1.32359729854484187150e-01) (380, 4.14025366889970436457e-02) (381, 2.72566479137682261824e-02) (382, 5.58366426819429453876e-02) (383, -9.67638533223980253084e-03) (384, 7.51576847542717238482e-03) (385, 1.63815382207046084106e-02) (386, -8.66260816258193067085e-02) (387, 5.01792753877676814267e-03) (388, -1.23756740664373185434e-01) (389, -3.73867973696987432319e-02) (390, -3.60246041330883129405e-02) (391, 6.98157466835993556487e-02) (392, -5.20584188774875916694e-02) (393, 2.70954928614487999816e-02) (394, -1.95688416303675151442e-02) (395, 2.22791758046838152610e-03) (396, 4.36800014168888181554e-02) (397, 1.72109995400318432912e-01) (398, -2.34391955757704446850e-02) (399, -1.73272087593661777705e-02) (400, 3.19447962882802305451e-02) (401, -2.66905239051184219046e-02) (402, -6.36333117986059588339e-03) (403, 5.40656542424510083711e-02) (404, -3.50931880802049442347e-02) (405, -8.13746873032477197052e-02) (406, -9.62981635303014754657e-02) (407, 2.81054742225989862003e-02) (408, -9.76407429377481733690e-02) (409, -3.50920844686738245266e-02) (410, -9.42729863475051388377e-02) (411, -5.93371102838593858508e-02) (412, -3.82856926269760575177e-02) (413, -5.19620695793052075895e-02) (414, 6.28425480992308854722e-02) (415, 2.29300314043181414914e-02) (416, -8.39632974852654867526e-02) (417, -5.82295905124365353878e-02) (418, 1.18783893697035000669e-01) (419, -5.29474840578390212875e-02) (420, 1.04552253805508723467e-02) (421, -5.24893248478273538593e-02) (422, 8.59230101159515202713e-02) (423, -2.27242396905201413104e-02) (424, 1.41753270167591899353e-01) (425, -2.76200761426096293161e-02) (426, 1.37131929579488252152e-02) (427, 2.60056026408495705171e-02) (428, -6.60503324110455480866e-02) (429, 3.25653537316845723137e-02) (430, 1.13606555485191162980e-01) (431, 1.35023419900018211426e-02) (432, -8.17007103582656907248e-02) (433, -1.57672203148770256886e-02) (434, 6.67604049366248312666e-04) (435, -2.46976848230689959018e-02) (436, 5.56722810897970488142e-02) (437, -5.67567458027830318290e-02) (438, -5.31225708556684328432e-02) (0, -8.62510420516130055235e-02) (1, -1.49710013000126568317e-01) (2, 5.91350675625530730617e-02) (3, -4.81911622273066900246e-02) (4, -3.27447527784154382435e-02) (5, 9.34801546386465065375e-02) (6, -6.51462181641265375420e-02) (7, 4.73437549012395361703e-02) (8, 7.51714232705583268457e-02) (9, -1.25876469709854232198e-02) (10, 7.09042925023342096580e-02) (11, -1.10016988061935203080e-01) (12, 9.45117375291336381249e-02) (13, -2.27442647987805383891e-02) (14, 1.05801616673024581616e-01) (15, -7.51473283339678527204e-02) (16, -7.94460563053750457030e-02) (17, -6.21936463198217090453e-02) (18, 2.42871930806616807830e-02) (19, 2.81962813296078793068e-02) (20, -3.17537337541580200195e-02) (21, -4.88555756934425794435e-02) (22, 1.29147043407645961688e-01) (23, -5.36280092824413870400e-02) (24, 1.43534416023608380614e-02) (25, -6.82303775323855055124e-02) (26, -1.01885853827930004251e-02) (27, -2.80017278113889496460e-03) (28, -3.11162610415290294408e-02) (29, -1.31290000830822456424e-01) (30, -1.50120191858987922506e-01) (31, -6.88403964395400275178e-02) (32, 5.00525429213746070323e-03) (33, 3.78136203724018524555e-03) (34, -2.02491491450244337491e-01) (35, -4.64060577036050081468e-02) (36, 3.87783041584541729452e-02) (37, -6.14371009649335234060e-02) (38, -1.05849367886809830192e-02) (39, 3.33950936135236561841e-02) (40, -1.77062750214205984201e-02) (41, -8.21287813132032945562e-02) (42, -1.16924015092111838188e-01) (43, 4.41274597212109737088e-02) (44, -8.80375086542294904568e-02) (45, -6.92676732260314176326e-02) (46, 6.23718714081873473742e-02) (47, -3.26126168999830642892e-02) (48, -2.28002203830833007070e-02) (49, -1.08685292931133103966e-01) (50, -6.17835895447583910434e-02) (51, 2.84044017146822536102e-02) (52, -2.23608330927984842729e-02) (53, 1.07384487006094722639e-01) (54, -8.35356946173649861365e-02) (55, -5.06533031814716209335e-03) (56, 5.76374273702183193002e-02) (57, 8.96527368965523673017e-03) (58, 3.16117913276623627161e-02) (59, 1.65828623983501538541e-01) (60, -6.74006933797138274578e-02) (61, 5.69793664216163148195e-02) (62, -6.31593721136164271135e-02) (63, 1.31359823910749240472e-01) (64, -1.32506106384869926096e-01) (65, -6.41537741598450922398e-02) (66, -2.57233966559653748352e-02) (67, -9.57160036726398127938e-02) (68, 4.56385598302527645265e-02) (69, 7.04236640580314099402e-02) (70, -1.05092993386401087341e-01) (71, -1.04242105957025477797e-02) (72, 5.61846588104704391942e-03) (73, -1.67295654515340307122e-02) (74, -6.97233175830511003879e-02) (75, 5.88144794405017837247e-02) (76, 3.11724205340098321770e-02) (77, -8.86516821372139857127e-02) (78, -7.43220732902682146293e-02) (79, 8.16334060184567694707e-02) (80, 3.27559080581735456543e-04) (81, 2.59863186775339018164e-02) (82, 6.18624995040793421164e-02) (83, 4.63190356671157182911e-02) (84, -5.85044440702444309976e-02) (85, -2.22358296594634789745e-02) (86, -3.30587091293451859619e-03) (87, 7.27879793891459681010e-02) (88, 8.43997725340631249624e-02) (89, 4.34956859659054659306e-02) (90, -7.43303253361991822512e-02) (91, 5.95412074639393856801e-02) (92, 7.09867987526516946994e-02) (93, 2.03400232695239331637e-02) (94, -1.08305973237300817713e-01) (95, 9.44008295966502486429e-02) (96, 2.14541903925212051885e-01) (97, -2.46043777666282471872e-02) (98, 1.58824989217810325082e-01) (99, 1.59282479181252489830e-01) (100, -9.53374799588594667998e-02) (101, -4.25194189522053456187e-02) (102, 3.91685891799953347925e-02) (103, 8.13301239780016005376e-02) (104, -5.31533031871021244275e-02) (105, -1.28359604249754483130e-01) (106, 4.52858483844783485384e-02) (107, -1.40839631354596379886e-02) (108, 5.16233125753504194094e-03) (109, 1.24654923274764531382e-01) (110, -7.87554198124193888253e-02) (111, 1.24743083310557320575e-01) (112, 2.44060697599085170417e-02) (113, 1.53532597316508923058e-01) (114, -2.08328563553770024219e-01) (115, 8.58771292625532672860e-02) (116, 1.62810877658260966250e-01) (117, 4.56941830644295512998e-02) (118, 7.27617230149125993055e-02) (119, 2.24666047083824871322e-01) (120, -1.26268837797089538560e-02) (121, 2.21744558014065167029e-02) (122, 1.91452523722531908756e-01) (123, 1.02763047227765122460e-01) (124, -9.93639929698515028678e-02) (125, -4.62912130864429546828e-02) (126, 2.58699134729003295957e-03) (127, -3.10168598708609804734e-03) (128, 4.33367117915599009415e-02) (129, -7.92082841430047090991e-02) (130, 1.48305682447575359895e-02) (131, 1.00838603083135858185e-01) (132, 8.98207133269031121614e-02) (133, -8.24637670236344072494e-02) (134, -3.22238339468523052322e-02) (135, 8.18321572638550515100e-02) (136, 1.12036197351565364189e-01) (137, -9.25897188744107396685e-02) (138, -1.57028845666567253014e-02) (139, 2.28088868204003758500e-01) (140, 4.15413239395359540351e-02) (141, -1.94216872006324065003e-02) (142, 2.46451797402745791804e-03) (143, 2.44100141991480598658e-02) (144, -7.04930913730173192011e-02) (145, 3.95512547074346396125e-02) (146, -5.26347592028365233313e-03) (147, 2.79925893985105249395e-02) (148, 4.42341917221046182496e-02) (149, 1.17947492161457473392e-01) (150, 1.39831299701764135562e-02) (151, -8.56200386483469272347e-02) (152, 7.32774315295309092155e-02) (153, 2.91370302588064671034e-02) (154, -1.23474047620507745848e-01) (155, -2.72056071546459797561e-02) (156, 1.48966361727802421022e-01) (157, -5.18966736378891554948e-02) (158, -3.30341477295134633430e-02) (159, 1.80953135378652596454e-01) (160, -6.66360982732803613926e-02) (161, -1.06823961410592208066e-01) (162, 3.65443737378886579492e-02) (163, 3.59216916573451838790e-02) (164, -9.19592225883776176465e-02) (165, -1.24367319176576382467e-01) (166, -3.73075599643934788241e-02) (167, 7.84152234009577314700e-02) (168, -4.43300129562592109406e-03) (169, 1.38832733730332256311e-02) (170, 3.88586715820929970780e-03) (171, -2.10503445190623576788e-02) (172, 7.20716568610087898739e-02) (173, -5.46551654258690400301e-02) (174, -2.29528748856861440630e-02) (175, 6.37076457085160030580e-02) (176, -7.53478109775326549552e-03) (177, 1.15347724548535340849e-01) (178, 1.03830311704196133482e-02) (179, 1.99969467151852542397e-01) (180, -1.24348888374053549721e-02) (181, -8.98205694632784046316e-02) (182, 9.02083378329771173876e-02) (183, 5.67562707198523835883e-02) (184, 1.65908236389005862843e-02) (185, 9.47010944951779953804e-02) (186, 2.96674003078584679061e-02) (187, 7.88351430165241950920e-02) (188, -2.94546167769667265046e-02) (189, 1.06265382578437164729e-01) (190, -3.83597931255361818126e-02) (191, 4.39812973515240346334e-02) (192, 1.66177277907996967521e-01) (193, -9.29818216517553780553e-02) (194, -1.26119015598464834227e-01) (195, -4.79241933692310384529e-02) (196, 4.74121129966637647191e-02) (197, 6.92490739791047638096e-02) (198, 8.57130194830161840081e-02) (199, 1.69411111609866354977e-01) (200, 1.13250765093389927501e-02) (201, -6.52638271241779560627e-03) (202, -8.29944517490277117178e-02) (203, 6.77408543211862057554e-02) (204, -1.93301592468820872261e-02) (205, 5.14290519765105216821e-02) (206, 3.78654015500097737568e-02) (207, 1.02463947367198160432e-01) (208, 4.22584840397480093754e-02) (209, 4.52475101670943916088e-02) (210, 8.06437068363436392049e-03) (211, -2.03602682531287201839e-02) (212, -6.75976010040164887460e-02) (213, -1.74087995812829167408e-02) (214, 5.61126424130165488147e-02) (215, 6.92994796756267461557e-02) (216, -3.98947278495238033535e-02) (217, -5.89072243125922864748e-02) (218, -2.63889044766530930005e-04) (219, -2.10780994156061600442e-02) (220, -8.45420249782241478576e-02) (221, -1.08045676587974856520e-01) (222, -3.96744303168913639568e-02) (223, -2.70538592846458203489e-02) (224, -4.06799503245430238429e-02) (225, -1.08072299872573763385e-02) (226, 4.16891446616202282494e-02) (227, 4.79406990352145533085e-03) (228, 1.08954273038184237810e-01) (229, -2.36779382485996538199e-02) (230, 1.79485580313689502795e-03) (231, -1.36874973103646834643e-02) (232, -3.26325837939668850218e-02) (233, -6.51381278675363661890e-02) (234, -4.07964688945197384573e-02) (235, -1.55769679285786083467e-01) (236, -2.19384798370515603227e-02) (237, -1.86000613694436781054e-02) (238, -9.49788196492085262657e-02) (239, -1.28833872540699168052e-01) (240, 3.81970537795747397403e-02) (241, 1.94591410339216182301e-02) (242, 5.26896615382013155937e-02) (243, -9.30483850832952881504e-03) (244, -7.60445050782290327129e-02) (245, 3.73621592021833271932e-03) (246, 3.34396746444724224379e-02) (247, -1.33176808790691817395e-03) (248, -1.24948022221909774143e-01) (249, -3.44489749469189948661e-02) (250, -5.83086713250690613641e-02) (251, -4.11411389714715150512e-02) (252, 9.76610281484081160785e-03) (253, -1.00388507943084247936e-02) (254, -8.66472211097949417645e-04) (255, 9.79011537019333771825e-02) (256, -1.13220414425615298337e-01) (257, -6.57798308459020715511e-03) (258, 1.60848917447366096534e-01) (259, -1.29914517463641104866e-01) (260, -1.53369603934749187957e-01) (261, 3.44944324210634117867e-02) (262, 1.17154350090055807410e-02) (263, -1.01642192116296020687e-01) (264, 1.11395932492310653639e-01) (265, -9.33001054358893605611e-02) (266, -9.52260012005469863583e-02) (267, -5.43698804893372536484e-02) (268, 7.08363745361730023919e-02) (269, -7.09516863799685287839e-02) (270, -6.16670295210576951961e-02) (271, 1.68832794559021504011e-02) (272, -1.35781725582843154632e-01) (273, 4.74221733012878746139e-02) (274, -4.01441077486553929421e-02) (275, -7.85949424140441887943e-02) (276, -6.90243311448172081057e-02) (277, 1.20891020060268764014e-01) (278, 4.07520783957579443846e-02) (279, -7.79840768713145754409e-02) (280, 1.20549602747654326096e-02) (281, -8.43265867115741418747e-02) (282, 9.24982008356304598318e-03) (283, 1.52060880854272273410e-01) (284, 4.15747463692901983445e-02) (285, 7.27425001104373275540e-02) (286, 1.47020429788058126785e-01) (287, -6.81088757790644927503e-02) (288, -4.69578599161223769753e-02) (289, 1.82652072069804577437e-01) (290, -4.93174838950250216119e-02) (291, -3.36388295276984217175e-02) (292, 1.17975637609528768990e-01) (293, -6.02953241827166724898e-02) (294, -2.28242270403283924185e-02) (295, -5.87722255622733120994e-03) (296, -1.94634099714038506790e-02) (297, 7.43365405863514461249e-02) (298, 7.35082340603484818420e-02) (299, -4.66464864557927932909e-02) (300, -5.37620276441947361756e-02) (301, 4.19184634658295238174e-02) (302, 9.53951784487323262152e-02) (303, -6.53664410733216932892e-02) (304, -5.85790117775827692825e-02) (305, -1.06238317747925303802e-01) (306, -3.99349154725493898921e-02) (307, -3.20364547340252769914e-01) (308, -1.91674279084568827125e-01) (309, -7.13513522434626595858e-02) (310, -6.04030033092451124066e-02) (311, -6.83173960473754809941e-02) (312, 9.39322888236023417763e-02) (313, -8.86365969041382970039e-03) (314, -2.54532036277890644227e-02) (315, 5.87645400350964366987e-02) (316, -1.86847218032377665464e-01) (317, 2.60630100244125945119e-02) (318, 7.53896563779962447516e-02) (319, -7.05536691566071155757e-02) (320, -5.20328318898536784642e-02) (321, -5.29609140583705770289e-02) (322, 1.97068392003391344713e-02) (323, 8.13655958806841633768e-02) (324, -3.49639901104208047911e-02) (325, 3.19242568870634416123e-02) (326, 3.84896528375320845505e-02) (327, 3.87422203621885993807e-02) (328, 8.35399511997604038438e-02) (329, -6.12062386232149896470e-02) (330, 5.30738577323024429688e-02) (331, -1.79309411509962629561e-02) (332, 8.17758615087193219129e-02) (333, 1.76916335856114118052e-02) (334, 6.06838764383638359923e-02) (335, -3.12164594124487299043e-02) (336, 1.15255239305078305279e-01) (337, -8.64992083883087820029e-02) (338, -1.46122492866420389951e-02) (339, 6.75636603414464381734e-02) (340, 9.85914295672732539366e-03) (341, -1.10482330726004523980e-01) (342, -5.81061451673484177793e-02) (343, -2.99966323645840908518e-02) (344, -4.70882443370154793461e-02) (345, 1.83077487805180759428e-02) (346, -1.04849444677151570904e-01) (347, 8.89201528098528502786e-03) (348, -5.96643874929890100089e-02) (349, 7.21144668842577524215e-02) (350, 3.91471874063229266505e-02) (351, -4.43930896058609830712e-02) (352, 6.80579601300839442946e-02) (353, -7.81560446192777064089e-02) (354, -5.55083205493519735163e-02) (355, -1.04263655625035853158e-01) (356, -7.69198875490918060338e-02) (357, 1.68334243946030685801e-02) (358, -1.41481818909436878745e-02) (359, -1.26459261736561356937e-01) (360, 6.08103462657034951611e-02) (361, -7.12350541934795022936e-02) (362, -5.65227846988192728084e-02) (363, 8.31885996278143753646e-03) (364, -1.17044907005578013859e-01) (365, 5.60339158601234413326e-02) (366, -2.59914076052286530105e-02) (367, 2.27264956410008767129e-02) (368, 7.32268656712139753839e-02) (369, 4.49858783124623753946e-02) (370, 4.80998680262573613531e-02) (371, -2.35242695064534074190e-02) (372, 5.95014797023715319435e-02) (373, -1.13218649317317621161e-01) (374, -1.15166916147220674271e-01) (375, -1.36454407198814631208e-01) (376, 6.57918944665366600688e-02) (377, -4.42641214835930441041e-02) (378, 9.28522485478060627395e-02) (379, -1.85651345673476714238e-01) (380, -1.36217399190098759076e-01) (381, -8.20545260074886512180e-02) (382, -3.61301045210324495160e-02) (383, 6.71600848885244433584e-02) (384, 1.50200815292767936304e-02) (385, -9.17833725903722391637e-03) (386, 2.05190088031489206721e-02) (387, 5.30943211225032365985e-02) (388, -7.27815814305573377530e-02) (389, -6.12746787369608664209e-02) (390, -6.00205715977628496277e-03) (391, -5.35099378147418369700e-02) (392, 3.47848871526609190741e-02) (393, 1.27391374563015052912e-01) (394, 8.67935167374856986200e-02) (395, 9.34563176852419436047e-02) (396, 2.21551010358779845721e-02) (397, 1.74685935671664793745e-01) (398, 6.09108610404951664186e-02) (399, 2.44046201724046826764e-02) (400, 2.94062174416466447224e-02) (401, 3.83925288044233217755e-02) (402, -9.51999127822363289120e-02) (403, -1.05952103422216975526e-01) (404, -5.12981023331407406246e-03) (405, -1.07593591533821947293e-01) (406, -1.67595693824345415290e-01) (407, -5.15528982409074812421e-02) (408, -1.04119118368341964653e-01) (409, -4.09271382737574421218e-02) (410, -2.69224301445390758192e-02) (411, -1.87995562895033989370e-02) (412, 8.71198963475881965612e-02) (413, -8.93507547032726251457e-02) (414, -5.42284973963228292271e-02) (415, -3.87103254966944809734e-02) (416, 4.95937623945133243542e-02) (417, -6.24758087583925855735e-02) (418, 8.87563250936580644401e-02) (419, -5.14469229050839998996e-02) (420, 1.04125151269589526909e-02) (421, -4.87167253231276936587e-02) (422, 1.09766182680857363879e-02) (423, 4.80263033761692201273e-02) (424, 1.80421817997078320905e-02) (425, -1.27898308440038705608e-02) (426, -4.23082464231445895542e-02) (427, 9.18420121311178810908e-02) (428, -7.80077683731637133713e-02) (429, 7.61170359294832676866e-02) (430, 1.23639427684139636965e-02) (431, 3.08887059044740258651e-02) (432, 2.37008859633098672992e-02) (433, -5.23398402742887569605e-02) (434, 6.45808148496226641644e-02) (435, -1.03425912976895906237e-01) (436, -1.27567315132494311231e-02) (437, -1.20323986206489819129e-01) (438, -1.81558863075269132092e-02) (0, -7.41805408248797648607e-02) (1, 4.84603359071516595624e-02) (2, -4.19208173279295506775e-02) (3, -3.05156034062146032729e-03) (4, 3.57382280561103909955e-02) (5, -3.48608915130735816379e-02) (6, 3.95773102534555040743e-02) (7, 9.15205463171732819250e-02) (8, -9.44453899521749268287e-02) (9, 6.41509696756865643863e-02) (10, 6.13484472520381476923e-02) (11, -7.27206353924647330711e-02) (12, -2.59414522880745748723e-02) (13, -4.64089054766273281794e-02) (14, 2.38690423471015541329e-03) (15, 4.07205329806547555727e-02) (16, 1.06562489403225022638e-02) (17, 5.11527612438347975554e-02) (18, 8.04082094852943130014e-02) (19, -7.96469570172073787484e-03) (20, 9.30747911334037780762e-02) (21, 2.87283242155902326931e-02) (22, 6.72737003686306178629e-02) (23, 5.06799444552450545354e-02) (24, -3.96823473518046337949e-02) (25, -3.23524491998524107994e-02) (26, -9.84032847892837457190e-04) (27, -3.84936441024932365917e-02) (28, -3.39600247246490474784e-02) (29, 5.25055361907904565716e-03) (30, -1.28942122323103203207e-01) (31, -3.68691997962764805852e-02) (32, -1.35257483432353504960e-02) (33, -4.43951157326332793152e-02) (34, 7.10135115264610566888e-02) (35, -7.05952692026347722321e-02) (36, 3.94497805012012439652e-02) (37, 3.19106976092498398345e-02) (38, -7.84705579107432965591e-02) (39, 4.28209813337680905709e-02) (40, -1.06162448581825549082e-02) (41, 8.04908113358624027756e-02) (42, 6.61831570586091377795e-02) (43, 6.86434638684078474169e-02) (44, -7.05488977778420262021e-02) (45, -3.00687995583749333173e-02) (46, 1.02246458402375367536e-02) (47, 5.89438561473439731619e-02) (48, -8.01219286036175398769e-02) (49, -1.40593586116472164804e-02) (50, -4.45140854732658033943e-02) (51, -8.42657131735909947778e-02) (52, -4.30450111556726702777e-02) (53, -6.31916122279894271196e-02) (54, 4.27995843064195233274e-02) (55, 1.30288861560953171670e-02) (56, 4.93231270916360126089e-02) (57, -3.69809105047515023976e-03) (58, -1.11837960638925870693e-01) (59, -8.61031203174660725308e-02) (60, -6.43193884593177556130e-02) (61, -9.90149931472589367454e-02) (62, -4.74124505673937431810e-03) (63, 3.49549127832880432432e-02) (64, -3.97895165607341991243e-02) (65, -1.16166313580502132685e-02) (66, 7.11359503906230095094e-02) (67, -9.53808536150252961328e-02) (68, -7.66395356403838518000e-02) (69, -9.72261266307170579637e-02) (70, 5.37231278171463044746e-02) (71, 2.49717446621456375111e-02) (72, -1.01345456264066768881e-01) (73, 2.28669034506189979006e-02) (74, -1.45531261952601582987e-02) (75, -5.46853920865462764245e-02) (76, -9.08533333762782807641e-02) (77, -7.94678502453378537984e-02) (78, -8.61351617130168140113e-02) (79, -6.27385136653490910197e-02) (80, 9.13202705248192074527e-03) (81, -2.39007737142515538920e-02) (82, -3.96221972836997352041e-02) (83, 8.67977054384718449409e-02) (84, 8.25588247773796114759e-03) (85, -7.40028407566395846073e-02) (86, 5.12353853264421905955e-03) (87, -3.02326771621233315879e-02) (88, 8.62433300667114592641e-03) (89, -4.02285632071392069975e-03) (90, -1.21665475419293969694e-02) (91, 6.18270024028291440010e-02) (92, 2.13279650962858724483e-02) (93, 8.15447864908002972850e-02) (94, -1.84182812018592149961e-02) (95, -1.03910763454873461553e-01) (96, -5.65710339745646283854e-03) (97, -2.01253359622703999199e-02) (98, -9.41615585062816062845e-02) (99, 2.56153399834797255996e-02) (100, -6.83408898495413419383e-03) (101, 6.61790007855835998862e-02) (102, -5.26297271467131289047e-02) (103, -1.25915676305279476861e-03) (104, -1.71645889761600188572e-02) (105, 4.95950768888058571293e-02) (106, 6.06847407181357392791e-02) (107, 6.68730693234052819829e-03) (108, 7.06614213572232113814e-02) (109, 7.47212631730107823547e-02) (110, 5.09407756593122859612e-02) (111, 2.91402193893178056150e-03) (112, -3.55234627168834610211e-02) (113, -9.15371653355018938258e-02) (114, -4.07204445054386021674e-02) (115, -1.12221962377206121997e-01) (116, -5.47060815898720020911e-02) (117, -9.33469314836814778591e-02) (118, -3.32182255611730148370e-02) (119, 7.32023681718041996369e-02) (120, 7.34202189701185347487e-03) (121, 4.41108977444502475818e-02) (122, 3.86307104561712383317e-02) (123, -5.85614064242059376153e-02) (124, 2.63434606847255357864e-02) (125, -5.82807711954804116838e-02) (126, -6.51097397904646379985e-02) (127, -5.96558402456865838337e-02) (128, 1.97376030177154118683e-02) (129, -5.06830539960982096037e-02) (130, 5.96352786445650540070e-02) (131, -8.08271674046407845315e-02) (132, -6.63495681856913627206e-02) (133, -8.41156035115897537935e-02) (134, 9.76720990113610736116e-03) (135, 2.59805828012491697721e-02) (136, 8.00517314938372637201e-02) (137, -3.99621639273919741775e-03) (138, -5.70068298783321658618e-02) (139, 6.18740953729809486927e-02) (140, -1.74856365553145189085e-02) (141, -1.04125873099919372122e-01) (142, -2.53913602820875702881e-02) (143, 6.07726096600399584569e-02) (144, -9.87677835371163770350e-02) (145, 6.19947608731564459017e-02) (146, 5.52661014169650091632e-02) (147, -3.11904514258444613695e-02) (148, 5.68430072368313749065e-02) (149, -7.38846883080331723326e-02) (150, -6.07786251115575090753e-02) (151, -1.91025621367488553093e-02) (152, -9.95246092330543119520e-02) (153, 7.20098371228142936085e-02) (154, 8.13270483741220136242e-03) (155, 4.72644221347329335225e-02) (156, -6.86898200181301488154e-02) (157, 6.69632873171364800813e-02) (158, -1.05237776054586215646e-01) (159, 6.52015474440744841056e-02) (160, -7.79622701809224577518e-02) (161, 5.90914372207505950163e-02) (162, 9.67383962425410193209e-02) (163, -3.37430847330457486799e-02) (164, 7.78638017756309863682e-02) (165, 2.35596348793442704472e-02) (166, -9.72962845753228139367e-02) (167, 7.32815093183569604696e-02) (168, -8.10409062363810772656e-02) (169, -4.74256402868301063513e-02) (170, 4.48809865558390808093e-02) (171, 1.28091524888977112417e-02) (172, -2.82861037198341921939e-02) (173, -9.17029190627470097708e-02) (174, -3.26756015097563259908e-02) (175, -1.45468781584145948754e-02) (176, 8.58859137089919427721e-02) (177, -5.55849060421070850779e-02) (178, 5.92404061521827340897e-02) (179, 5.80540884764514722449e-02) (180, -2.28028250074682470316e-02) (181, -9.69628551942199740088e-02) (182, -5.15903960750990972506e-02) (183, -1.62944472189642877713e-02) (184, -1.17100446316370454536e-01) (185, 7.42478490987714401239e-02) (186, -5.33061309813659262025e-02) (187, -6.88519374841020936895e-02) (188, 3.75773388118427753568e-02) (189, -5.04995377557134472735e-02) (190, 9.14753276658075986649e-02) (191, 8.04306002378976925282e-02) (192, -7.16934781981361235470e-02) (193, 8.01724238382991311047e-02) (194, -7.20504882633340448805e-02) (195, -7.92316402083483861674e-02) (196, 1.98923764020803965635e-02) (197, -4.59864639367619162935e-02) (198, -9.97925738702020309612e-02) (199, 5.62866338084020423338e-02) (200, 1.94679650662187980759e-02) (201, 4.80031695799984364781e-02) (202, -2.49480354048414593171e-02) (203, 8.89897263343435579452e-02) (204, 6.08269563485229342037e-02) (205, 6.19233062909794462758e-02) (206, -9.34725667286226413744e-03) (207, 5.89220509923922136641e-02) (208, -9.65614571562105339364e-02) (209, -4.13266894802746739823e-02) (210, 3.24254044059533799715e-02) (211, 5.69244961999539403341e-03) (212, -2.59511075708723712441e-02) (213, 4.88700610252084249874e-02) (214, -1.38085690721342302378e-01) (215, -5.45088744412495079805e-02) (216, 2.81618931620894463741e-02) (217, -9.02372030562991062075e-02) (218, -2.54514751665961096172e-02) (219, -1.71394715718807440219e-02) (220, -2.88776866351298684699e-02) (221, -2.93061479591266611788e-02) (222, -4.92907680376794814919e-03) (223, 2.73944947623627511890e-02) (224, -1.46425178494605477686e-02) (225, 4.70745264934165769111e-02) (226, 5.98943759584004975505e-02) (227, -8.86142465547333363363e-02) (228, -9.31616361115763375045e-02) (229, 7.32208666474210428943e-02) (230, 6.64924877491605420543e-02) (231, 3.19584428764856098848e-02) (232, 3.29185097493082390319e-02) (233, -4.52517376358214096221e-02) (234, 2.82262553811761761346e-02) (235, 1.70794777526350055608e-02) (236, -7.36223336095542107982e-02) (237, -7.60479775503814653392e-02) (238, -1.01447441221707360115e-02) (239, -5.36691276176323867064e-02) (240, -2.18750435229156468125e-03) (241, -7.63489162759531519997e-02) (242, 6.07234992623808048084e-02) (243, -1.22824510821218063628e-01) (244, -8.33934409497116974075e-02) (245, 5.67916176544928374970e-02) (246, -3.13526504451702853205e-02) (247, -1.21577130064940128196e-01) (248, -8.98668657689929151200e-02) (249, -1.16293432781816599708e-01) (250, 4.93905640369987110339e-03) (251, 3.00184033805330624523e-02) (252, -1.38234792223308213498e-03) (253, -8.34490607386138977253e-02) (254, -1.98981702268834562131e-02) (255, -1.02708468518061063479e-01) (256, -1.09227279820124395515e-01) (257, -4.79873885395256036257e-02) (258, -4.52341414344035672168e-02) (259, -7.34301289677710133930e-02) (260, -5.86749086095986679967e-02) (261, -5.33904397433531824335e-02) (262, 7.83747594205716074933e-02) (263, -1.06123446315529057493e-01) (264, 2.21527227709800711430e-02) (265, 2.75943259000099722078e-02) (266, 3.19641469034419173356e-02) (267, 6.51409979768842878345e-02) (268, 7.63223743064414816839e-02) (269, -5.79699597229825225320e-02) (270, -6.90200234627945524712e-02) (271, -7.20896759222414834634e-03) (272, -1.51008964444511936676e-02) (273, -9.26888920909642588519e-02) (274, -8.03028132833006995372e-03) (275, 2.31219935225262310241e-02) (276, 8.91527118409834035129e-02) (277, 7.83285986228302311130e-02) (278, 2.50704305673661621834e-02) (279, -7.57661326858924122352e-02) (280, 8.43950050952797931059e-02) (281, -4.93867815686304459377e-02) (282, 7.27326824791685588867e-02) (283, 1.10633393628847289357e-03) (284, -7.69701584331841485997e-03) (285, -3.12672766761237230781e-02) (286, 1.34904406250014891749e-02) (287, 2.18776793887173401365e-02) (288, 3.90311074295433199643e-02) (289, 7.98866832468208415419e-02) (290, 6.03650755331166799511e-02) (291, -8.27780046481554343529e-02) (292, -8.88680251866602322064e-02) (293, 4.12034798448169606311e-02) (294, -4.98154232533800783722e-02) (295, 3.98246716632176603334e-02) (296, -1.12224840887573638903e-02) (297, -8.26290673659290098030e-02) (298, 1.03793880877767839138e-02) (299, -2.54455419550103853488e-02) (300, -1.16483110161881772693e-02) (301, 4.68113601600348150367e-02) (302, 7.05635394542766247739e-02) (303, -1.15853375411944292672e-01) (304, 2.94845072985919290365e-02) (305, -5.18283997518852040942e-02) (306, 3.08360570234199084239e-02) (307, 1.19503503223874138484e-02) (308, -6.99476688115092531950e-02) (309, -1.16033666428696797396e-02) (310, 5.54387795014142717442e-02) (311, -8.86802078645605729168e-02) (312, -1.11395158479000097596e-01) (313, 4.25060779270772515215e-02) (314, 3.61189910836332769839e-02) (315, 9.82791582910597094624e-03) (316, -9.17809234088681064057e-02) (317, -4.36210782042559461202e-02) (318, -5.82408146479519439609e-02) (319, 7.60931136449651129849e-02) (320, -6.30775970380399453319e-02) (321, -8.44850221467787071417e-02) (322, -9.88607090709653774097e-02) (323, -3.24045346098420228298e-02) (324, 6.56389607097428162685e-02) (325, -5.44232047111369021675e-02) (326, -9.27115155833176662892e-02) (327, -3.86512335832542922032e-02) (328, -2.81632224551472548635e-02) (329, 1.61838848053094432056e-02) (330, 5.51557523983928002509e-02) (331, 7.55010889675937074683e-02) (332, -2.32792734089167022149e-02) (333, 3.03964781113382799538e-02) (334, 9.50485077033186576134e-02) (335, -6.06255600881528203261e-02) (336, -9.11765032729024427205e-02) (337, 5.62498272930727141738e-02) (338, 9.00024631091921184511e-02) (339, -4.04893764419939419796e-02) (340, -3.03865453156123357936e-02) (341, 7.11307144487705322877e-02) (342, 3.12337017639802974264e-03) (343, -2.74716375020746632341e-02) (344, 3.42404167786945351493e-02) (345, -4.57870922125255680468e-02) (346, -9.68793977343203882580e-02) (347, 7.46562631526403591709e-02) (348, 3.48450074489913205755e-02) (349, -2.72542624676864568556e-02) (350, 7.53451756949129053398e-02) (351, 9.05828634165007640089e-02) (352, 2.71694115221261627002e-03) (353, 9.66915595153300527764e-02) (354, -2.91268268721491044304e-02) (355, -9.73158700707934219698e-03) (356, -2.85440657974985884104e-02) (357, -2.76207457412948331754e-02) (358, 4.70409685755611983726e-02) (359, 3.81465433637173390036e-02) (360, -9.23569270741667475155e-02) (361, -1.11640872748658060072e-04) (362, 1.65371959996055313546e-02) (363, -1.25358933786757706375e-02) (364, -6.02081816054358884283e-02) (365, 1.19908234499788036304e-02) (366, 5.18538165872684947422e-02) (367, -3.58339449258937778331e-02) (368, -3.57779727817802081780e-02) (369, 4.53727291601518090136e-02) (370, 3.58972166972792855466e-02) (371, 3.48418119132791817560e-02) (372, 2.34405183725417132212e-02) (373, -6.11478554355545309007e-02) (374, -7.52038596109607798690e-02) (375, -3.84503374947372938975e-02) (376, -5.17688086498297220760e-04) (377, -6.31853105533580761133e-02) (378, -4.41174651536551803988e-02) (379, -7.04375407660172286883e-02) (380, -1.10614113305742157306e-03) (381, -7.09323379465010422917e-02) (382, -7.12200349421462652888e-02) (383, -1.00686748714639423552e-01) (384, -8.06012939737992678557e-02) (385, 3.27463488874321943453e-03) (386, -6.36104075068003125409e-03) (387, -1.19375803198370853547e-02) (388, -1.03690747550217676753e-01) (389, -3.05860193886269352004e-02) (390, -4.97966073374816464714e-02) (391, -7.44019325739712078516e-02) (392, -9.95834674512840745120e-02) (393, 9.98594152093291304029e-02) (394, 4.60227757969610892785e-02) (395, -4.84468944160812951816e-03) (396, 3.42813836283015760387e-02) (397, 3.53337462332407176158e-04) (398, 6.79751031113910303416e-02) (399, -7.10281973197646604445e-02) (400, -5.14912083334678194468e-02) (401, 5.11131899920513627783e-03) (402, 6.95976631100285042519e-02) (403, 4.38790821618017107264e-02) (404, 2.03338763996760291120e-02) (405, -8.21462687209416758671e-02) (406, -9.24105208487479290458e-02) (407, -7.20297805972854449097e-02) (408, -1.85059419026799114316e-02) (409, -3.98806571221138328465e-02) (410, -2.61975758037471771755e-02) (411, -4.38914566951114498705e-02) (412, 2.13659670000301664394e-02) (413, 4.48017525778909367351e-02) (414, -3.89936357866174729964e-03) (415, 4.37564079347418158350e-02) (416, -4.80068332241793613302e-02) (417, -7.36590106607561551089e-02) (418, -6.19576315921691253563e-02) (419, -4.60335928440474620449e-02) (420, 5.77693095912083722128e-04) (421, -3.54445690316823880384e-02) (422, -4.13185033359845590994e-02) (423, 3.07833499362136428501e-02) (424, -3.32177306775255296034e-02) (425, -9.18402457205212130464e-02) (426, -7.39421372960776673855e-02) (427, -1.00942552096893983782e-01) (428, 5.91430291759374206217e-03) (429, -1.03634842541842311925e-01) (430, -6.65822031011543830070e-02) (431, 5.04301369808677416029e-02) (432, 2.12397176320388257620e-03) (433, -7.55080930421532653396e-02) (434, 2.37295082726338077417e-02) (435, -5.48910385570306955105e-02) (436, -2.21048071703011002331e-02) (437, 8.18578717733570437876e-02) (438, -1.69070800788057584718e-02) (0, -2.18518347452663963537e-01) (1, -1.50712990802813556757e-01) (2, -3.32285487695754486182e-02) (3, -1.38457458270950434231e-01) (4, -4.68220663712532944589e-02) (5, 8.57736469644628102271e-02) (6, 3.70584118692274394613e-02) (7, -9.20788510084104283582e-03) (8, -1.26134559187293160409e-01) (9, 1.47752511327286450982e-01) (10, 9.88435836555335844977e-02) (11, -7.99771228126000405245e-02) (12, 1.46520706759328787905e-02) (13, 4.71171810830090520561e-02) (14, 1.11568275839265693139e-01) (15, 2.35709762202790697183e-02) (16, 2.81937039223562682655e-02) (17, 1.06991230287933267173e-01) (18, 6.64151851352576816367e-02) (19, 6.08205144574978148059e-03) (20, 3.26625257730484008789e-03) (21, 3.20575972309806653260e-02) (22, 8.84523559206344955896e-02) (23, 1.09752893004517165093e-02) (24, 6.96241443775501567259e-02) (25, -1.12800783023560793894e-01) (26, -2.99592409918286062265e-01) (27, -2.16420114122883644470e-01) (28, 9.53125287407882437751e-02) (29, -1.77355833013645131091e-01) (30, -3.65885142202509172638e-01) (31, -1.52613019596126497923e-01) (32, 1.38519086224561049914e-01) (33, 1.08282734263323243695e-01) (34, -3.85220776731721781250e-01) (35, -6.50976904482244295158e-02) (36, 2.39190930585649774720e-01) (37, 9.69210904966624625656e-02) (38, 3.22549740688692007651e-02) (39, 2.42578969034634800428e-01) (40, -6.85023784262536877820e-02) (41, -1.18785307928172420566e-01) (42, -8.03441025706549821761e-02) (43, 9.34857788825402546973e-02) (44, -1.46263795791245737599e-01) (45, 7.35067288594608153618e-02) (46, 1.55001031303873437750e-01) (47, -1.85255217141760353261e-01) (48, 6.04135944783484729603e-02) (49, -1.15721491949436178226e-01) (50, -8.76422023703900127112e-02) (51, 1.57919239303594499679e-01) (52, 2.33040994641234601448e-02) (53, -1.16978639164646326665e-02) (54, -3.40873465821932342124e-01) (55, -1.17072797052325140027e-02) (56, 2.89833966969957279591e-01) (57, -7.89096274889810322950e-02) (58, 8.29043816559212609629e-02) (59, 3.23524288958238925851e-01) (60, -1.87205565641523685727e-01) (61, -1.61399060205002803370e-01) (62, -1.54472624238577965761e-01) (63, 2.25342272937043286429e-01) (64, -5.05916102257061989222e-02) (65, -1.22838784779996976204e-01) (66, 2.67643620445069153890e-03) (67, -1.35909081439729712004e-02) (68, 7.08421485344824658492e-02) (69, 1.23422475967946615460e-01) (70, -3.01982129026663673188e-02) (71, 2.29613479089635121044e-02) (72, -1.51232866143931263259e-02) (73, 3.75886261754426118098e-02) (74, -2.00432478813128422956e-01) (75, -3.95182197279782612687e-02) (76, 3.03187641902842919261e-01) (77, -2.02041420298343460393e-01) (78, -4.29504787704406421067e-02) (79, 4.03060752918746378892e-01) (80, -2.09101874698352108856e-03) (81, -2.24505726068649274704e-03) (82, 5.12426221510382112756e-03) (83, 1.17478545133889195062e-01) (84, -9.07850743656725689412e-02) (85, 1.40068503084556893190e-02) (86, 1.47867545202032824037e-01) (87, 1.80874484588337852697e-01) (88, 1.17642666652344893286e-01) (89, 3.07914811085399121870e-02) (90, -1.95977172085619544273e-01) (91, 1.36411177442657655101e-01) (92, -1.34319567707929885675e-02) (93, -5.15651611045338034711e-02) (94, -3.17805752105246031025e-01) (95, 9.75480474185894397277e-02) (96, 4.30715855322613583311e-01) (97, -7.69551983358838925797e-02) (98, 8.79297849815177529065e-02) (99, 5.12593528649684104792e-01) (100, -7.16167879231663362383e-02) (101, 2.42853501800430610080e-02) (102, -1.80541599063908549117e-02) (103, 5.89781011737764079839e-02) (104, -9.84606806699391129412e-02) (105, -1.26671139169735103014e-01) (106, 1.24256064748724193159e-01) (107, -4.23116736015105993074e-02) (108, 1.00408737815908505331e-01) (109, 1.61100798364504110838e-01) (110, 1.26265407600730406035e-01) (111, 1.96716460989392605274e-01) (112, 2.33585306859212422925e-02) (113, 1.04405900092940512325e-01) (114, -4.68394667646851614595e-01) (115, 2.54729249169996674329e-01) (116, 7.18310193654961848253e-01) (117, 1.17324356512565841637e-01) (118, 2.60966050695759843592e-01) (119, 8.45320739889114936005e-01) (120, 5.13391895612838947138e-02) (121, -8.83607005582933216492e-03) (122, 2.18424170836396147610e-01) (123, 4.30103165830972855588e-01) (124, -1.64921012647104819893e-01) (125, -2.63370244911850619196e-02) (126, 2.17262372387943825114e-01) (127, 2.12867415621604272324e-01) (128, -6.86362101507171640247e-02) (129, -1.69754217803560272793e-02) (130, -2.33049449099825625731e-02) (131, 1.73995907979973551960e-02) (132, 3.34979631788324294650e-01) (133, -1.19814241027005066731e-01) (134, -6.58943527292069480827e-02) (135, 1.75801436674995037457e-01) (136, 4.23210814861814887955e-01) (137, -8.32667051574851602158e-02) (138, 1.55181968424615845947e-01) (139, 4.41353889406174426657e-01) (140, -2.36811776372157389847e-01) (141, 2.93888361229863934176e-02) (142, 6.83255663519998363009e-02) (143, 1.61078166257443949894e-01) (144, 6.32275468648495209134e-02) (145, 1.03504896024254541831e-03) (146, 7.73494592245875106640e-02) (147, 1.84143198433707855344e-01) (148, 1.77263084571996382133e-01) (149, 2.03856812776162854561e-01) (150, -1.02055452434360177660e-01) (151, -5.25043733336313239723e-02) (152, 2.18424547002899094306e-01) (153, -1.17489650986103019714e-01) (154, -2.00465378676067923491e-01) (155, 2.45719796218543756749e-01) (156, 2.36277230637352370080e-01) (157, 4.66198990547244465632e-02) (158, 4.98572352649885794373e-02) (159, 4.29399199709026901939e-01) (160, 2.65431208923606297423e-02) (161, 1.26522016477047024446e-02) (162, -6.03318443174599358669e-02) (163, 2.22324923576287282467e-02) (164, -8.77813349841740780954e-02) (165, -9.57207984014813995088e-02) (166, 9.12009576157935819563e-02) (167, 1.45231266927148772172e-01) (168, 6.49858741796029929644e-03) (169, 1.39205723136627296244e-01) (170, -9.45527367926383977004e-02) (171, -7.59120734199708740997e-02) (172, 4.51960457773489601707e-02) (173, 1.08875577632441086773e-01) (174, -1.60790683808315904013e-01) (175, -1.56803112886859732922e-02) (176, 3.38594360395757465465e-01) (177, 7.07398458253348100255e-02) (178, 1.65309611783304666321e-01) (179, 4.70058397201383870723e-01) (180, -5.63924264369444830369e-02) (181, -1.32363240910269748529e-02) (182, -2.86562380688230936010e-02) (183, 1.24712325791603309555e-01) (184, -1.10445447304382507459e-01) (185, -2.61708364550352658162e-02) (186, -7.30591323314673610906e-03) (187, 5.25179083458165094078e-02) (188, 1.69604378725351917501e-02) (189, -3.34684954032043804895e-02) (190, -3.94829062277228387545e-02) (191, -2.34220224942519768263e-02) (192, 1.44690577766724476350e-01) (193, -1.50359491423677354982e-01) (194, -1.47466283745945170303e-01) (195, 2.82516089686803729963e-02) (196, 3.38931592797281411311e-01) (197, 1.74969889515015158965e-01) (198, 4.70848384875094325142e-02) (199, 4.30495650750631564385e-01) (200, -5.52637804738992446940e-02) (201, 7.01178189066233026328e-02) (202, 4.48975204055806834114e-02) (203, 2.42470445807607959399e-01) (204, 