FANN_FLO_2.1
num_layers=3
learning_rate=0.100000
connection_rate=1.000000
network_type=0
learning_momentum=0.300000
training_algorithm=0
train_error_function=0
train_stop_function=0
cascade_output_change_fraction=0.010000
quickprop_decay=-0.000100
quickprop_mu=1.750000
rprop_increase_factor=1.200000
rprop_decrease_factor=0.500000
rprop_delta_min=0.000000
rprop_delta_max=50.000000
rprop_delta_zero=0.100000
cascade_output_stagnation_epochs=12
cascade_candidate_change_fraction=0.010000
cascade_candidate_stagnation_epochs=12
cascade_max_out_epochs=150
cascade_max_cand_epochs=150
cascade_num_candidate_groups=2
bit_fail_limit=3.49999999999999977796e-01
cascade_candidate_limit=1.00000000000000000000e+03
cascade_weight_multiplier=4.00000000000000022204e-01
cascade_activation_functions_count=10
cascade_activation_functions=3 5 7 8 10 11 14 15 16 17 
cascade_activation_steepnesses_count=4
cascade_activation_steepnesses=2.50000000000000000000e-01 5.00000000000000000000e-01 7.50000000000000000000e-01 1.00000000000000000000e+00 
layer_sizes=1159 26 3 
scale_included=0
neurons (num_inputs, activation_function, activation_steepness)=(0, 0, 0.00000000000000000000e+00) (0, 0, 0.00000000000000000000e+00) (0, 0, 0.00000000000000000000e+00) (0, 0, 0.00000000000000000000e+00) (0, 0, 0.00000000000000000000e+00) (0, 0, 0.00000000000000000000e+00) (0, 0, 0.00000000000000000000e+00) (0, 0, 0.00000000000000000000e+00) (0, 0, 0.00000000000000000000e+00) (0, 0, 0.00000000000000000000e+00) (0, 0, 0.00000000000000000000e+00) (0, 0, 0.00000000000000000000e+00) (0, 0, 0.00000000000000000000e+00) (0, 0, 0.00000000000000000000e+00) (0, 0, 0.00000000000000000000e+00) (0, 0, 0.00000000000000000000e+00) (0, 0, 0.00000000000000000000e+00) (0, 0, 0.00000000000000000000e+00) (0, 0, 0.00000000000000000000e+00) (0, 0, 0.00000000000000000000e+00) (0, 0, 0.00000000000000000000e+00) (0, 0, 0.00000000000000000000e+00) (0, 0, 0.00000000000000000000e+00) (0, 0, 0.00000000000000000000e+00) (0, 0, 0.00000000000000000000e+00) (0, 0, 0.00000000000000000000e+00) (0, 0, 0.00000000000000000000e+00) (0, 0, 0.00000000000000000000e+00) (0, 0, 0.00000000000000000000e+00) (0, 0, 0.00000000000000000000e+00) (0, 0, 0.00000000000000000000e+00) (0, 0, 0.00000000000000000000e+00) (0, 0, 0.00000000000000000000e+00) (0, 0, 0.00000000000000000000e+00) (0, 0, 0.00000000000000000000e+00) (0, 0, 0.00000000000000000000e+00) (0, 0, 0.00000000000000000000e+00) (0, 0, 0.00000000000000000000e+00) (0, 0, 0.00000000000000000000e+00) (0, 0, 0.00000000000000000000e+00) (0, 0, 0.00000000000000000000e+00) (0, 0, 0.00000000000000000000e+00) (0, 0, 0.00000000000000000000e+00) (0, 0, 0.00000000000000000000e+00) (0, 0, 0.00000000000000000000e+00) (0, 0, 0.00000000000000000000e+00) (0, 0, 0.00000000000000000000e+00) (0, 0, 0.00000000000000000000e+00) (0, 0, 0.00000000000000000000e+00) (0, 0, 0.00000000000000000000e+00) (0, 0, 0.00000000000000000000e+00) (0, 0, 0.00000000000000000000e+00) (0, 0, 0.00000000000000000000e+00) (0, 0, 0.00000000000000000000e+00) (0, 0, 0.00000000000000000000e+00) (0, 0, 0.00000000000000000000e+00) (0, 0, 0.00000000000000000000e+00) (0, 0, 0.00000000000000000000e+00) (0, 0, 0.00000000000000000000e+00) (0, 0, 0.00000000000000000000e+00) (0, 0, 0.00000000000000000000e+00) (0, 0, 0.00000000000000000000e+00) (0, 0, 0.00000000000000000000e+00) (0, 0, 0.00000000000000000000e+00) (0, 0, 0.00000000000000000000e+00) (0, 0, 0.00000000000000000000e+00) (0, 0, 0.00000000000000000000e+00) (0, 0, 0.00000000000000000000e+00) (0, 0, 0.00000000000000000000e+00) (0, 0, 0.00000000000000000000e+00) (0, 0, 0.00000000000000000000e+00) (0, 0, 0.00000000000000000000e+00) (0, 0, 0.00000000000000000000e+00) (0, 0, 0.00000000000000000000e+00) (0, 0, 0.00000000000000000000e+00) (0, 0, 0.00000000000000000000e+00) (0, 0, 0.00000000000000000000e+00) (0, 0, 0.00000000000000000000e+00) (0, 0, 0.00000000000000000000e+00) (0, 0, 0.00000000000000000000e+00) (0, 0, 0.00000000000000000000e+00) (0, 0, 0.00000000000000000000e+00) (0, 0, 0.00000000000000000000e+00) (0, 0, 0.00000000000000000000e+00) (0, 0, 0.00000000000000000000e+00) (0, 0, 0.00000000000000000000e+00) (0, 0, 0.00000000000000000000e+00) (0, 0, 0.00000000000000000000e+00) (0, 0, 0.00000000000000000000e+00) (0, 0, 0.00000000000000000000e+00) (0, 0, 0.00000000000000000000e+00) (0, 0, 0.00000000000000000000e+00) (0, 0, 0.00000000000000000000e+00) (0, 0, 0.00000000000000000000e+00) (0, 0, 0.00000000000000000000e+00) (0, 0, 0.00000000000000000000e+00) (0, 0, 0.00000000000000000000e+00) (0, 0, 0.00000000000000000000e+00) (0, 0, 0.00000000000000000000e+00) (0, 0, 0.00000000000000000000e+00) (0, 0, 0.00000000000000000000e+00) (0, 0, 0.00000000000000000000e+00) (0, 0, 0.00000000000000000000e+00) (0, 0, 0.00000000000000000000e+00) (0, 0, 0.00000000000000000000e+00) (0, 0, 0.00000000000000000000e+00) (0, 0, 0.00000000000000000000e+00) (0, 0, 0.00000000000000000000e+00) (0, 0, 0.00000000000000000000e+00) (0, 0, 0.00000000000000000000e+00) (0, 0, 0.00000000000000000000e+00) (0, 0, 0.00000000000000000000e+00) (0, 0, 0.00000000000000000000e+00) (0, 0, 0.00000000000000000000e+00) (0, 0, 0.00000000000000000000e+00) (0, 0, 0.00000000000000000000e+00) (0, 0, 0.00000000000000000000e+00) (0, 0, 0.00000000000000000000e+00) (0, 0, 0.00000000000000000000e+00) (0, 0, 0.00000000000000000000e+00) (0, 0, 0.00000000000000000000e+00) (0, 0, 0.00000000000000000000e+00) (0, 0, 0.00000000000000000000e+00) (0, 0, 0.00000000000000000000e+00) (0, 0, 0.00000000000000000000e+00) (0, 0, 0.00000000000000000000e+00) (0, 0, 0.00000000000000000000e+00) (0, 0, 0.00000000000000000000e+00) (0, 0, 0.00000000000000000000e+00) (0, 0, 0.00000000000000000000e+00) (0, 0, 0.00000000000000000000e+00) (0, 0, 0.00000000000000000000e+00) (0, 0, 0.00000000000000000000e+00) (0, 0, 0.00000000000000000000e+00) (0, 0, 0.00000000000000000000e+00) (0, 0, 0.00000000000000000000e+00) (0, 0, 0.00000000000000000000e+00) (0, 0, 0.00000000000000000000e+00) (0, 0, 0.00000000000000000000e+00) (0, 0, 0.00000000000000000000e+00) (0, 0, 0.00000000000000000000e+00) (0, 0, 0.00000000000000000000e+00) (0, 0, 0.00000000000000000000e+00) (0, 0, 0.00000000000000000000e+00) (0, 0, 0.00000000000000000000e+00) (0, 0, 0.00000000000000000000e+00) (0, 0, 0.00000000000000000000e+00) (0, 0, 0.00000000000000000000e+00) (0, 0, 0.00000000000000000000e+00) (0, 0, 0.00000000000000000000e+00) (0, 0, 0.00000000000000000000e+00) (0, 0, 0.00000000000000000000e+00) (0, 0, 0.00000000000000000000e+00) (0, 0, 0.00000000000000000000e+00) (0, 0, 0.00000000000000000000e+00) (0, 0, 0.00000000000000000000e+00) (0, 0, 0.00000000000000000000e+00) (0, 0, 0.00000000000000000000e+00) (0, 0, 0.00000000000000000000e+00) (0, 0, 0.00000000000000000000e+00) (0, 0, 0.00000000000000000000e+00) (0, 0, 0.00000000000000000000e+00) (0, 0, 0.00000000000000000000e+00) (0, 0, 0.00000000000000000000e+00) (0, 0, 0.00000000000000000000e+00) (0, 0, 0.00000000000000000000e+00) (0, 0, 0.00000000000000000000e+00) (0, 0, 0.00000000000000000000e+00) (0, 0, 0.00000000000000000000e+00) (0, 0, 0.00000000000000000000e+00) (0, 0, 0.00000000000000000000e+00) (0, 0, 0.00000000000000000000e+00) (0, 0, 0.00000000000000000000e+00) (0, 0, 0.00000000000000000000e+00) (0, 0, 0.00000000000000000000e+00) (0, 0, 0.00000000000000000000e+00) (0, 0, 0.00000000000000000000e+00) (0, 0, 0.00000000000000000000e+00) (0, 0, 0.00000000000000000000e+00) (0, 0, 0.00000000000000000000e+00) (0, 0, 0.00000000000000000000e+00) (0, 0, 0.00000000000000000000e+00) (0, 0, 0.00000000000000000000e+00) (0, 0, 0.00000000000000000000e+00) (0, 0, 0.00000000000000000000e+00) (0, 0, 0.00000000000000000000e+00) (0, 0, 0.00000000000000000000e+00) (0, 0, 0.00000000000000000000e+00) (0, 0, 0.00000000000000000000e+00) (0, 0, 0.00000000000000000000e+00) (0, 0, 0.00000000000000000000e+00) (0, 0, 0.00000000000000000000e+00) (0, 0, 0.00000000000000000000e+00) (0, 0, 0.00000000000000000000e+00) (0, 0, 0.00000000000000000000e+00) (0, 0, 0.00000000000000000000e+00) (0, 0, 0.00000000000000000000e+00) (0, 0, 0.00000000000000000000e+00) (0, 0, 0.00000000000000000000e+00) (0, 0, 0.00000000000000000000e+00) (0, 0, 0.00000000000000000000e+00) (0, 0, 0.00000000000000000000e+00) (0, 0, 0.00000000000000000000e+00) (0, 0, 0.00000000000000000000e+00) (0, 0, 0.00000000000000000000e+00) (0, 0, 0.00000000000000000000e+00) (0, 0, 0.00000000000000000000e+00) (0, 0, 0.00000000000000000000e+00) (0, 0, 0.00000000000000000000e+00) (0, 0, 0.00000000000000000000e+00) (0, 0, 0.00000000000000000000e+00) (0, 0, 0.00000000000000000000e+00) (0, 0, 0.00000000000000000000e+00) (0, 0, 0.00000000000000000000e+00) (0, 0, 0.00000000000000000000e+00) (0, 0, 0.00000000000000000000e+00) (0, 0, 0.00000000000000000000e+00) (0, 0, 0.00000000000000000000e+00) (0, 0, 0.00000000000000000000e+00) (0, 0, 0.00000000000000000000e+00) (0, 0, 0.00000000000000000000e+00) (0, 0, 0.00000000000000000000e+00) (0, 0, 0.00000000000000000000e+00) (0, 0, 0.00000000000000000000e+00) (0, 0, 0.00000000000000000000e+00) (0, 0, 0.00000000000000000000e+00) (0, 0, 0.00000000000000000000e+00) (0, 0, 0.00000000000000000000e+00) (0, 0, 0.00000000000000000000e+00) (0, 0, 0.00000000000000000000e+00) (0, 0, 0.00000000000000000000e+00) (0, 0, 0.00000000000000000000e+00) (0, 0, 0.00000000000000000000e+00) (0, 0, 0.00000000000000000000e+00) (0, 0, 0.00000000000000000000e+00) (0, 0, 0.00000000000000000000e+00) (0, 0, 0.00000000000000000000e+00) (0, 0, 0.00000000000000000000e+00) (0, 0, 0.00000000000000000000e+00) (0, 0, 0.00000000000000000000e+00) (0, 0, 0.00000000000000000000e+00) (0, 0, 0.00000000000000000000e+00) (0, 0, 0.00000000000000000000e+00) (0, 0, 0.00000000000000000000e+00) (0, 0, 0.00000000000000000000e+00) (0, 0, 0.00000000000000000000e+00) (0, 0, 0.00000000000000000000e+00) (0, 0, 0.00000000000000000000e+00) (0, 0, 0.00000000000000000000e+00) (0, 0, 0.00000000000000000000e+00) (0, 0, 0.00000000000000000000e+00) (0, 0, 0.00000000000000000000e+00) (0, 0, 0.00000000000000000000e+00) (0, 0, 0.00000000000000000000e+00) (0, 0, 0.00000000000000000000e+00) (0, 0, 0.00000000000000000000e+00) (0, 0, 0.00000000000000000000e+00) (0, 0, 0.00000000000000000000e+00) (0, 0, 0.00000000000000000000e+00) (0, 0, 0.00000000000000000000e+00) (0, 0, 0.00000000000000000000e+00) (0, 0, 0.00000000000000000000e+00) (0, 0, 0.00000000000000000000e+00) (0, 0, 0.00000000000000000000e+00) (0, 0, 0.00000000000000000000e+00) (0, 0, 0.00000000000000000000e+00) (0, 0, 0.00000000000000000000e+00) (0, 0, 0.00000000000000000000e+00) (0, 0, 0.00000000000000000000e+00) (0, 0, 0.00000000000000000000e+00) (0, 0, 0.00000000000000000000e+00) (0, 0, 0.00000000000000000000e+00) (0, 0, 0.00000000000000000000e+00) (0, 0, 0.00000000000000000000e+00) (0, 0, 0.00000000000000000000e+00) (0, 0, 0.00000000000000000000e+00) (0, 0, 0.00000000000000000000e+00) (0, 0, 0.00000000000000000000e+00) (0, 0, 0.00000000000000000000e+00) (0, 0, 0.00000000000000000000e+00) (0, 0, 0.00000000000000000000e+00) (0, 0, 0.00000000000000000000e+00) (0, 0, 0.00000000000000000000e+00) (0, 0, 0.00000000000000000000e+00) (0, 0, 0.00000000000000000000e+00) (0, 0, 0.00000000000000000000e+00) (0, 0, 0.00000000000000000000e+00) (0, 0, 0.00000000000000000000e+00) (0, 0, 0.00000000000000000000e+00) (0, 0, 0.00000000000000000000e+00) (0, 0, 0.00000000000000000000e+00) (0, 0, 0.00000000000000000000e+00) (0, 0, 0.00000000000000000000e+00) (0, 0, 0.00000000000000000000e+00) (0, 0, 0.00000000000000000000e+00) (0, 0, 0.00000000000000000000e+00) (0, 0, 0.00000000000000000000e+00) (0, 0, 0.00000000000000000000e+00) (0, 0, 0.00000000000000000000e+00) (0, 0, 0.00000000000000000000e+00) (0, 0, 0.00000000000000000000e+00) (0, 0, 0.00000000000000000000e+00) (0, 0, 0.00000000000000000000e+00) (0, 0, 0.00000000000000000000e+00) (0, 0, 0.00000000000000000000e+00) (0, 0, 0.00000000000000000000e+00) (0, 0, 0.00000000000000000000e+00) (0, 0, 0.00000000000000000000e+00) (0, 0, 0.00000000000000000000e+00) (0, 0, 0.00000000000000000000e+00) (0, 0, 0.00000000000000000000e+00) (0, 0, 0.00000000000000000000e+00) (0, 0, 0.00000000000000000000e+00) (0, 0, 0.00000000000000000000e+00) (0, 0, 0.00000000000000000000e+00) (0, 0, 0.00000000000000000000e+00) (0, 0, 0.00000000000000000000e+00) (0, 0, 0.00000000000000000000e+00) (0, 0, 0.00000000000000000000e+00) (0, 0, 0.00000000000000000000e+00) (0, 0, 0.00000000000000000000e+00) (0, 0, 0.00000000000000000000e+00) (0, 0, 0.00000000000000000000e+00) (0, 0, 0.00000000000000000000e+00) (0, 0, 0.00000000000000000000e+00) (0, 0, 0.00000000000000000000e+00) (0, 0, 0.00000000000000000000e+00) (0, 0, 0.00000000000000000000e+00) (0, 0, 0.00000000000000000000e+00) (0, 0, 0.00000000000000000000e+00) (0, 0, 0.00000000000000000000e+00) (0, 0, 0.00000000000000000000e+00) (0, 0, 0.00000000000000000000e+00) (0, 0, 0.00000000000000000000e+00) (0, 0, 0.00000000000000000000e+00) (0, 0, 0.00000000000000000000e+00) (0, 0, 0.00000000000000000000e+00) (0, 0, 0.00000000000000000000e+00) (0, 0, 0.00000000000000000000e+00) (0, 0, 0.00000000000000000000e+00) (0, 0, 0.00000000000000000000e+00) (0, 0, 0.00000000000000000000e+00) (0, 0, 0.00000000000000000000e+00) (0, 0, 0.00000000000000000000e+00) (0, 0, 0.00000000000000000000e+00) (0, 0, 0.00000000000000000000e+00) (0, 0, 0.00000000000000000000e+00) (0, 0, 0.00000000000000000000e+00) (0, 0, 0.00000000000000000000e+00) (0, 0, 0.00000000000000000000e+00) (0, 0, 0.00000000000000000000e+00) (0, 0, 0.00000000000000000000e+00) (0, 0, 0.00000000000000000000e+00) (0, 0, 0.00000000000000000000e+00) (0, 0, 0.00000000000000000000e+00) (0, 0, 0.00000000000000000000e+00) (0, 0, 0.00000000000000000000e+00) (0, 0, 0.00000000000000000000e+00) (0, 0, 0.00000000000000000000e+00) (0, 0, 0.00000000000000000000e+00) (0, 0, 0.00000000000000000000e+00) (0, 0, 0.00000000000000000000e+00) (0, 0, 0.00000000000000000000e+00) (0, 0, 0.00000000000000000000e+00) (0, 0, 0.00000000000000000000e+00) (0, 0, 0.00000000000000000000e+00) (0, 0, 0.00000000000000000000e+00) (0, 0, 0.00000000000000000000e+00) (0, 0, 0.00000000000000000000e+00) (0, 0, 0.00000000000000000000e+00) (0, 0, 0.00000000000000000000e+00) (0, 0, 0.00000000000000000000e+00) (0, 0, 0.00000000000000000000e+00) (0, 0, 0.00000000000000000000e+00) (0, 0, 0.00000000000000000000e+00) (0, 0, 0.00000000000000000000e+00) (0, 0, 0.00000000000000000000e+00) (0, 0, 0.00000000000000000000e+00) (0, 0, 0.00000000000000000000e+00) (0, 0, 0.00000000000000000000e+00) (0, 0, 0.00000000000000000000e+00) (0, 0, 0.00000000000000000000e+00) (0, 0, 0.00000000000000000000e+00) (0, 0, 0.00000000000000000000e+00) (0, 0, 0.00000000000000000000e+00) (0, 0, 0.00000000000000000000e+00) (0, 0, 0.00000000000000000000e+00) (0, 0, 0.00000000000000000000e+00) (0, 0, 0.00000000000000000000e+00) (0, 0, 0.00000000000000000000e+00) (0, 0, 0.00000000000000000000e+00) (0, 0, 0.00000000000000000000e+00) (0, 0, 0.00000000000000000000e+00) (0, 0, 0.00000000000000000000e+00) (0, 0, 0.00000000000000000000e+00) (0, 0, 0.00000000000000000000e+00) (0, 0, 0.00000000000000000000e+00) (0, 0, 0.00000000000000000000e+00) (0, 0, 0.00000000000000000000e+00) (0, 0, 0.00000000000000000000e+00) (0, 0, 0.00000000000000000000e+00) (0, 0, 0.00000000000000000000e+00) (0, 0, 0.00000000000000000000e+00) (0, 0, 0.00000000000000000000e+00) (0, 0, 0.00000000000000000000e+00) (0, 0, 0.00000000000000000000e+00) (0, 0, 0.00000000000000000000e+00) (0, 0, 0.00000000000000000000e+00) (0, 0, 0.00000000000000000000e+00) (0, 0, 0.00000000000000000000e+00) (0, 0, 0.00000000000000000000e+00) (0, 0, 0.00000000000000000000e+00) (0, 0, 0.00000000000000000000e+00) (0, 0, 0.00000000000000000000e+00) (0, 0, 0.00000000000000000000e+00) (0, 0, 0.00000000000000000000e+00) (0, 0, 0.00000000000000000000e+00) (0, 0, 0.00000000000000000000e+00) (0, 0, 0.00000000000000000000e+00) (0, 0, 0.00000000000000000000e+00) (0, 0, 0.00000000000000000000e+00) (0, 0, 0.00000000000000000000e+00) (0, 0, 0.00000000000000000000e+00) (0, 0, 0.00000000000000000000e+00) (0, 0, 0.00000000000000000000e+00) (0, 0, 0.00000000000000000000e+00) (0, 0, 0.00000000000000000000e+00) (0, 0, 0.00000000000000000000e+00) (0, 0, 0.00000000000000000000e+00) (0, 0, 0.00000000000000000000e+00) (0, 0, 0.00000000000000000000e+00) (0, 0, 0.00000000000000000000e+00) (0, 0, 0.00000000000000000000e+00) (0, 0, 0.00000000000000000000e+00) (0, 0, 0.00000000000000000000e+00) (0, 0, 0.00000000000000000000e+00) (0, 0, 0.00000000000000000000e+00) (0, 0, 0.00000000000000000000e+00) (0, 0, 0.00000000000000000000e+00) (0, 0, 0.00000000000000000000e+00) (0, 0, 0.00000000000000000000e+00) (0, 0, 0.00000000000000000000e+00) (0, 0, 0.00000000000000000000e+00) (0, 0, 0.00000000000000000000e+00) (0, 0, 0.00000000000000000000e+00) (0, 0, 0.00000000000000000000e+00) (0, 0, 0.00000000000000000000e+00) (0, 0, 0.00000000000000000000e+00) (0, 0, 0.00000000000000000000e+00) (0, 0, 0.00000000000000000000e+00) (0, 0, 0.00000000000000000000e+00) (0, 0, 0.00000000000000000000e+00) (0, 0, 0.00000000000000000000e+00) (0, 0, 0.00000000000000000000e+00) (0, 0, 0.00000000000000000000e+00) (0, 0, 0.00000000000000000000e+00) (0, 0, 0.00000000000000000000e+00) (0, 0, 0.00000000000000000000e+00) (0, 0, 0.00000000000000000000e+00) (0, 0, 0.00000000000000000000e+00) (0, 0, 0.00000000000000000000e+00) (0, 0, 0.00000000000000000000e+00) (0, 0, 0.00000000000000000000e+00) (0, 0, 0.00000000000000000000e+00) (0, 0, 0.00000000000000000000e+00) (0, 0, 0.00000000000000000000e+00) (0, 0, 0.00000000000000000000e+00) (0, 0, 0.00000000000000000000e+00) (0, 0, 0.00000000000000000000e+00) (0, 0, 0.00000000000000000000e+00) (0, 0, 0.00000000000000000000e+00) (0, 0, 0.00000000000000000000e+00) (0, 0, 0.00000000000000000000e+00) (0, 0, 0.00000000000000000000e+00) (0, 0, 0.00000000000000000000e+00) (0, 0, 0.00000000000000000000e+00) (0, 0, 0.00000000000000000000e+00) (0, 0, 0.00000000000000000000e+00) (0, 0, 0.00000000000000000000e+00) (0, 0, 0.00000000000000000000e+00) (0, 0, 0.00000000000000000000e+00) (0, 0, 0.00000000000000000000e+00) (0, 0, 0.00000000000000000000e+00) (0, 0, 0.00000000000000000000e+00) (0, 0, 0.00000000000000000000e+00) (0, 0, 0.00000000000000000000e+00) (0, 0, 0.00000000000000000000e+00) (0, 0, 0.00000000000000000000e+00) (0, 0, 0.00000000000000000000e+00) (0, 0, 0.00000000000000000000e+00) (0, 0, 0.00000000000000000000e+00) (0, 0, 0.00000000000000000000e+00) (0, 0, 0.00000000000000000000e+00) (0, 0, 0.00000000000000000000e+00) (0, 0, 0.00000000000000000000e+00) (0, 0, 0.00000000000000000000e+00) (0, 0, 0.00000000000000000000e+00) (0, 0, 0.00000000000000000000e+00) (0, 0, 0.00000000000000000000e+00) (0, 0, 0.00000000000000000000e+00) (0, 0, 0.00000000000000000000e+00) (0, 0, 0.00000000000000000000e+00) (0, 0, 0.00000000000000000000e+00) (0, 0, 0.00000000000000000000e+00) (0, 0, 0.00000000000000000000e+00) (0, 0, 0.00000000000000000000e+00) (0, 0, 0.00000000000000000000e+00) (0, 0, 0.00000000000000000000e+00) (0, 0, 0.00000000000000000000e+00) (0, 0, 0.00000000000000000000e+00) (0, 0, 0.00000000000000000000e+00) (0, 0, 0.00000000000000000000e+00) (0, 0, 0.00000000000000000000e+00) (0, 0, 0.00000000000000000000e+00) (0, 0, 0.00000000000000000000e+00) (0, 0, 0.00000000000000000000e+00) (0, 0, 0.00000000000000000000e+00) (0, 0, 0.00000000000000000000e+00) (0, 0, 0.00000000000000000000e+00) (0, 0, 0.00000000000000000000e+00) (0, 0, 0.00000000000000000000e+00) (0, 0, 0.00000000000000000000e+00) (0, 0, 0.00000000000000000000e+00) (0, 0, 0.00000000000000000000e+00) (0, 0, 0.00000000000000000000e+00) (0, 0, 0.00000000000000000000e+00) (0, 0, 0.00000000000000000000e+00) (0, 0, 0.00000000000000000000e+00) (0, 0, 0.00000000000000000000e+00) (0, 0, 0.00000000000000000000e+00) (0, 0, 0.00000000000000000000e+00) (0, 0, 0.00000000000000000000e+00) (0, 0, 0.00000000000000000000e+00) (0, 0, 0.00000000000000000000e+00) (0, 0, 0.00000000000000000000e+00) (0, 0, 0.00000000000000000000e+00) (0, 0, 0.00000000000000000000e+00) (0, 0, 0.00000000000000000000e+00) (0, 0, 0.00000000000000000000e+00) (0, 0, 0.00000000000000000000e+00) (0, 0, 0.00000000000000000000e+00) (0, 0, 0.00000000000000000000e+00) (0, 0, 0.00000000000000000000e+00) (0, 0, 0.00000000000000000000e+00) (0, 0, 0.00000000000000000000e+00) (0, 0, 0.00000000000000000000e+00) (0, 0, 0.00000000000000000000e+00) (0, 0, 0.00000000000000000000e+00) (0, 0, 0.00000000000000000000e+00) (0, 0, 0.00000000000000000000e+00) (0, 0, 0.00000000000000000000e+00) (0, 0, 0.00000000000000000000e+00) (0, 0, 0.00000000000000000000e+00) (0, 0, 0.00000000000000000000e+00) (0, 0, 0.00000000000000000000e+00) (0, 0, 0.00000000000000000000e+00) (0, 0, 0.00000000000000000000e+00) (0, 0, 0.00000000000000000000e+00) (0, 0, 0.00000000000000000000e+00) (0, 0, 0.00000000000000000000e+00) (0, 0, 0.00000000000000000000e+00) (0, 0, 0.00000000000000000000e+00) (0, 0, 0.00000000000000000000e+00) (0, 0, 0.00000000000000000000e+00) (0, 0, 0.00000000000000000000e+00) (0, 0, 0.00000000000000000000e+00) (0, 0, 0.00000000000000000000e+00) (0, 0, 0.00000000000000000000e+00) (0, 0, 0.00000000000000000000e+00) (0, 0, 0.00000000000000000000e+00) (0, 0, 0.00000000000000000000e+00) (0, 0, 0.00000000000000000000e+00) (0, 0, 0.00000000000000000000e+00) (0, 0, 0.00000000000000000000e+00) (0, 0, 0.00000000000000000000e+00) (0, 0, 0.00000000000000000000e+00) (0, 0, 0.00000000000000000000e+00) (0, 0, 0.00000000000000000000e+00) (0, 0, 0.00000000000000000000e+00) (0, 0, 0.00000000000000000000e+00) (0, 0, 0.00000000000000000000e+00) (0, 0, 0.00000000000000000000e+00) (0, 0, 0.00000000000000000000e+00) (0, 0, 0.00000000000000000000e+00) (0, 0, 0.00000000000000000000e+00) (0, 0, 0.00000000000000000000e+00) (0, 0, 0.00000000000000000000e+00) (0, 0, 0.00000000000000000000e+00) (0, 0, 0.00000000000000000000e+00) (0, 0, 0.00000000000000000000e+00) (0, 0, 0.00000000000000000000e+00) (0, 0, 0.00000000000000000000e+00) (0, 0, 0.00000000000000000000e+00) (0, 0, 0.00000000000000000000e+00) (0, 0, 0.00000000000000000000e+00) (0, 0, 0.00000000000000000000e+00) (0, 0, 0.00000000000000000000e+00) (0, 0, 0.00000000000000000000e+00) (0, 0, 0.00000000000000000000e+00) (0, 0, 0.00000000000000000000e+00) (0, 0, 0.00000000000000000000e+00) (0, 0, 0.00000000000000000000e+00) (0, 0, 0.00000000000000000000e+00) (0, 0, 0.00000000000000000000e+00) (0, 0, 0.00000000000000000000e+00) (0, 0, 0.00000000000000000000e+00) (0, 0, 0.00000000000000000000e+00) (0, 0, 0.00000000000000000000e+00) (0, 0, 0.00000000000000000000e+00) (0, 0, 0.00000000000000000000e+00) (0, 0, 0.00000000000000000000e+00) (0, 0, 0.00000000000000000000e+00) (0, 0, 0.00000000000000000000e+00) (0, 0, 0.00000000000000000000e+00) (0, 0, 0.00000000000000000000e+00) (0, 0, 0.00000000000000000000e+00) (0, 0, 0.00000000000000000000e+00) (0, 0, 0.00000000000000000000e+00) (0, 0, 0.00000000000000000000e+00) (0, 0, 0.00000000000000000000e+00) (0, 0, 0.00000000000000000000e+00) (0, 0, 0.00000000000000000000e+00) (0, 0, 0.00000000000000000000e+00) (0, 0, 0.00000000000000000000e+00) (0, 0, 0.00000000000000000000e+00) (0, 0, 0.00000000000000000000e+00) (0, 0, 0.00000000000000000000e+00) (0, 0, 0.00000000000000000000e+00) (0, 0, 0.00000000000000000000e+00) (0, 0, 0.00000000000000000000e+00) (0, 0, 0.00000000000000000000e+00) (0, 0, 0.00000000000000000000e+00) (0, 0, 0.00000000000000000000e+00) (0, 0, 0.00000000000000000000e+00) (0, 0, 0.00000000000000000000e+00) (0, 0, 0.00000000000000000000e+00) (0, 0, 0.00000000000000000000e+00) (0, 0, 0.00000000000000000000e+00) (0, 0, 0.00000000000000000000e+00) (0, 0, 0.00000000000000000000e+00) (0, 0, 0.00000000000000000000e+00) (0, 0, 0.00000000000000000000e+00) (0, 0, 0.00000000000000000000e+00) (0, 0, 0.00000000000000000000e+00) (0, 0, 0.00000000000000000000e+00) (0, 0, 0.00000000000000000000e+00) (0, 0, 0.00000000000000000000e+00) (0, 0, 0.00000000000000000000e+00) (0, 0, 0.00000000000000000000e+00) (0, 0, 0.00000000000000000000e+00) (0, 0, 0.00000000000000000000e+00) (0, 0, 0.00000000000000000000e+00) (0, 0, 0.00000000000000000000e+00) (0, 0, 0.00000000000000000000e+00) (0, 0, 0.00000000000000000000e+00) (0, 0, 0.00000000000000000000e+00) (0, 0, 0.00000000000000000000e+00) (0, 0, 0.00000000000000000000e+00) (0, 0, 0.00000000000000000000e+00) (0, 0, 0.00000000000000000000e+00) (0, 0, 0.00000000000000000000e+00) (0, 0, 0.00000000000000000000e+00) (0, 0, 0.00000000000000000000e+00) (0, 0, 0.00000000000000000000e+00) (0, 0, 0.00000000000000000000e+00) (0, 0, 0.00000000000000000000e+00) (0, 0, 0.00000000000000000000e+00) (0, 0, 0.00000000000000000000e+00) (0, 0, 0.00000000000000000000e+00) (0, 0, 0.00000000000000000000e+00) (0, 0, 0.00000000000000000000e+00) (0, 0, 0.00000000000000000000e+00) (0, 0, 0.00000000000000000000e+00) (0, 0, 0.00000000000000000000e+00) (0, 0, 0.00000000000000000000e+00) (0, 0, 0.00000000000000000000e+00) (0, 0, 0.00000000000000000000e+00) (0, 0, 0.00000000000000000000e+00) (0, 0, 0.00000000000000000000e+00) (0, 0, 0.00000000000000000000e+00) (0, 0, 0.00000000000000000000e+00) (0, 0, 0.00000000000000000000e+00) (0, 0, 0.00000000000000000000e+00) (0, 0, 0.00000000000000000000e+00) (0, 0, 0.00000000000000000000e+00) (0, 0, 0.00000000000000000000e+00) (0, 0, 0.00000000000000000000e+00) (0, 0, 0.00000000000000000000e+00) (0, 0, 0.00000000000000000000e+00) (0, 0, 0.00000000000000000000e+00) (0, 0, 0.00000000000000000000e+00) (0, 0, 0.00000000000000000000e+00) (0, 0, 0.00000000000000000000e+00) (0, 0, 0.00000000000000000000e+00) (0, 0, 0.00000000000000000000e+00) (0, 0, 0.00000000000000000000e+00) (0, 0, 0.00000000000000000000e+00) (0, 0, 0.00000000000000000000e+00) (0, 0, 0.00000000000000000000e+00) (0, 0, 0.00000000000000000000e+00) (0, 0, 0.00000000000000000000e+00) (0, 0, 0.00000000000000000000e+00) (0, 0, 0.00000000000000000000e+00) (0, 0, 0.00000000000000000000e+00) (0, 0, 0.00000000000000000000e+00) (0, 0, 0.00000000000000000000e+00) (0, 0, 0.00000000000000000000e+00) (0, 0, 0.00000000000000000000e+00) (0, 0, 0.00000000000000000000e+00) (0, 0, 0.00000000000000000000e+00) (0, 0, 0.00000000000000000000e+00) (0, 0, 0.00000000000000000000e+00) (0, 0, 0.00000000000000000000e+00) (0, 0, 0.00000000000000000000e+00) (0, 0, 0.00000000000000000000e+00) (0, 0, 0.00000000000000000000e+00) (0, 0, 0.00000000000000000000e+00) (0, 0, 0.00000000000000000000e+00) (0, 0, 0.00000000000000000000e+00) (0, 0, 0.00000000000000000000e+00) (0, 0, 0.00000000000000000000e+00) (0, 0, 0.00000000000000000000e+00) (0, 0, 0.00000000000000000000e+00) (0, 0, 0.00000000000000000000e+00) (0, 0, 0.00000000000000000000e+00) (0, 0, 0.00000000000000000000e+00) (0, 0, 0.00000000000000000000e+00) (0, 0, 0.00000000000000000000e+00) (0, 0, 0.00000000000000000000e+00) (0, 0, 0.00000000000000000000e+00) (0, 0, 0.00000000000000000000e+00) (0, 0, 0.00000000000000000000e+00) (0, 0, 0.00000000000000000000e+00) (0, 0, 0.00000000000000000000e+00) (0, 0, 0.00000000000000000000e+00) (0, 0, 0.00000000000000000000e+00) (0, 0, 0.00000000000000000000e+00) (0, 0, 0.00000000000000000000e+00) (0, 0, 0.00000000000000000000e+00) (0, 0, 0.00000000000000000000e+00) (0, 0, 0.00000000000000000000e+00) (0, 0, 0.00000000000000000000e+00) (0, 0, 0.00000000000000000000e+00) (0, 0, 0.00000000000000000000e+00) (0, 0, 0.00000000000000000000e+00) (0, 0, 0.00000000000000000000e+00) (0, 0, 0.00000000000000000000e+00) (0, 0, 0.00000000000000000000e+00) (0, 0, 0.00000000000000000000e+00) (0, 0, 0.00000000000000000000e+00) (0, 0, 0.00000000000000000000e+00) (0, 0, 0.00000000000000000000e+00) (0, 0, 0.00000000000000000000e+00) (0, 0, 0.00000000000000000000e+00) (0, 0, 0.00000000000000000000e+00) (0, 0, 0.00000000000000000000e+00) (0, 0, 0.00000000000000000000e+00) (0, 0, 0.00000000000000000000e+00) (0, 0, 0.00000000000000000000e+00) (0, 0, 0.00000000000000000000e+00) (0, 0, 0.00000000000000000000e+00) (0, 0, 0.00000000000000000000e+00) (0, 0, 0.00000000000000000000e+00) (0, 0, 0.00000000000000000000e+00) (0, 0, 0.00000000000000000000e+00) (0, 0, 0.00000000000000000000e+00) (0, 0, 0.00000000000000000000e+00) (0, 0, 0.00000000000000000000e+00) (0, 0, 0.00000000000000000000e+00) (0, 0, 0.00000000000000000000e+00) (0, 0, 0.00000000000000000000e+00) (0, 0, 0.00000000000000000000e+00) (0, 0, 0.00000000000000000000e+00) (0, 0, 0.00000000000000000000e+00) (0, 0, 0.00000000000000000000e+00) (0, 0, 0.00000000000000000000e+00) (0, 0, 0.00000000000000000000e+00) (0, 0, 0.00000000000000000000e+00) (0, 0, 0.00000000000000000000e+00) (0, 0, 0.00000000000000000000e+00) (0, 0, 0.00000000000000000000e+00) (0, 0, 0.00000000000000000000e+00) (0, 0, 0.00000000000000000000e+00) (0, 0, 0.00000000000000000000e+00) (0, 0, 0.00000000000000000000e+00) (0, 0, 0.00000000000000000000e+00) (0, 0, 0.00000000000000000000e+00) (0, 0, 0.00000000000000000000e+00) (0, 0, 0.00000000000000000000e+00) (0, 0, 0.00000000000000000000e+00) (0, 0, 0.00000000000000000000e+00) (0, 0, 0.00000000000000000000e+00) (0, 0, 0.00000000000000000000e+00) (0, 0, 0.00000000000000000000e+00) (0, 0, 0.00000000000000000000e+00) (0, 0, 0.00000000000000000000e+00) (0, 0, 0.00000000000000000000e+00) (0, 0, 0.00000000000000000000e+00) (0, 0, 0.00000000000000000000e+00) (0, 0, 0.00000000000000000000e+00) (0, 0, 0.00000000000000000000e+00) (0, 0, 0.00000000000000000000e+00) (0, 0, 0.00000000000000000000e+00) (0, 0, 0.00000000000000000000e+00) (0, 0, 0.00000000000000000000e+00) (0, 0, 0.00000000000000000000e+00) (0, 0, 0.00000000000000000000e+00) (0, 0, 0.00000000000000000000e+00) (0, 0, 0.00000000000000000000e+00) (0, 0, 0.00000000000000000000e+00) (0, 0, 0.00000000000000000000e+00) (0, 0, 0.00000000000000000000e+00) (0, 0, 0.00000000000000000000e+00) (0, 0, 0.00000000000000000000e+00) (0, 0, 0.00000000000000000000e+00) (0, 0, 0.00000000000000000000e+00) (0, 0, 0.00000000000000000000e+00) (0, 0, 0.00000000000000000000e+00) (0, 0, 0.00000000000000000000e+00) (0, 0, 0.00000000000000000000e+00) (0, 0, 0.00000000000000000000e+00) (0, 0, 0.00000000000000000000e+00) (0, 0, 0.00000000000000000000e+00) (0, 0, 0.00000000000000000000e+00) (0, 0, 0.00000000000000000000e+00) (0, 0, 0.00000000000000000000e+00) (0, 0, 0.00000000000000000000e+00) (0, 0, 0.00000000000000000000e+00) (0, 0, 0.00000000000000000000e+00) (0, 0, 0.00000000000000000000e+00) (0, 0, 0.00000000000000000000e+00) (0, 0, 0.00000000000000000000e+00) (0, 0, 0.00000000000000000000e+00) (0, 0, 0.00000000000000000000e+00) (0, 0, 0.00000000000000000000e+00) (0, 0, 0.00000000000000000000e+00) (0, 0, 0.00000000000000000000e+00) (0, 0, 0.00000000000000000000e+00) (0, 0, 0.00000000000000000000e+00) (0, 0, 0.00000000000000000000e+00) (0, 0, 0.00000000000000000000e+00) (0, 0, 0.00000000000000000000e+00) (0, 0, 0.00000000000000000000e+00) (0, 0, 0.00000000000000000000e+00) (0, 0, 0.00000000000000000000e+00) (0, 0, 0.00000000000000000000e+00) (0, 0, 0.00000000000000000000e+00) (0, 0, 0.00000000000000000000e+00) (0, 0, 0.00000000000000000000e+00) (0, 0, 0.00000000000000000000e+00) (0, 0, 0.00000000000000000000e+00) (0, 0, 0.00000000000000000000e+00) (0, 0, 0.00000000000000000000e+00) (0, 0, 0.00000000000000000000e+00) (0, 0, 0.00000000000000000000e+00) (0, 0, 0.00000000000000000000e+00) (0, 0, 0.00000000000000000000e+00) (0, 0, 0.00000000000000000000e+00) (0, 0, 0.00000000000000000000e+00) (0, 0, 0.00000000000000000000e+00) (0, 0, 0.00000000000000000000e+00) (0, 0, 0.00000000000000000000e+00) (0, 0, 0.00000000000000000000e+00) (0, 0, 0.00000000000000000000e+00) (0, 0, 0.00000000000000000000e+00) (0, 0, 0.00000000000000000000e+00) (0, 0, 0.00000000000000000000e+00) (0, 0, 0.00000000000000000000e+00) (0, 0, 0.00000000000000000000e+00) (0, 0, 0.00000000000000000000e+00) (0, 0, 0.00000000000000000000e+00) (0, 0, 0.00000000000000000000e+00) (0, 0, 0.00000000000000000000e+00) (0, 0, 0.00000000000000000000e+00) (0, 0, 0.00000000000000000000e+00) (0, 0, 0.00000000000000000000e+00) (0, 0, 0.00000000000000000000e+00) (0, 0, 0.00000000000000000000e+00) (0, 0, 0.00000000000000000000e+00) (0, 0, 0.00000000000000000000e+00) (0, 0, 0.00000000000000000000e+00) (0, 0, 0.00000000000000000000e+00) (0, 0, 0.00000000000000000000e+00) (0, 0, 0.00000000000000000000e+00) (0, 0, 0.00000000000000000000e+00) (0, 0, 0.00000000000000000000e+00) (0, 0, 0.00000000000000000000e+00) (0, 0, 0.00000000000000000000e+00) (0, 0, 0.00000000000000000000e+00) (0, 0, 0.00000000000000000000e+00) (0, 0, 0.00000000000000000000e+00) (0, 0, 0.00000000000000000000e+00) (0, 0, 0.00000000000000000000e+00) (0, 0, 0.00000000000000000000e+00) (0, 0, 0.00000000000000000000e+00) (0, 0, 0.00000000000000000000e+00) (0, 0, 0.00000000000000000000e+00) (0, 0, 0.00000000000000000000e+00) (0, 0, 0.00000000000000000000e+00) (0, 0, 0.00000000000000000000e+00) (0, 0, 0.00000000000000000000e+00) (0, 0, 0.00000000000000000000e+00) (0, 0, 0.00000000000000000000e+00) (0, 0, 0.00000000000000000000e+00) (0, 0, 0.00000000000000000000e+00) (0, 0, 0.00000000000000000000e+00) (0, 0, 0.00000000000000000000e+00) (0, 0, 0.00000000000000000000e+00) (0, 0, 0.00000000000000000000e+00) (0, 0, 0.00000000000000000000e+00) (0, 0, 0.00000000000000000000e+00) (0, 0, 0.00000000000000000000e+00) (0, 0, 0.00000000000000000000e+00) (0, 0, 0.00000000000000000000e+00) (0, 0, 0.00000000000000000000e+00) (0, 0, 0.00000000000000000000e+00) (0, 0, 0.00000000000000000000e+00) (0, 0, 0.00000000000000000000e+00) (0, 0, 0.00000000000000000000e+00) (0, 0, 0.00000000000000000000e+00) (0, 0, 0.00000000000000000000e+00) (0, 0, 0.00000000000000000000e+00) (0, 0, 0.00000000000000000000e+00) (0, 0, 0.00000000000000000000e+00) (0, 0, 0.00000000000000000000e+00) (0, 0, 0.00000000000000000000e+00) (0, 0, 0.00000000000000000000e+00) (0, 0, 0.00000000000000000000e+00) (0, 0, 0.00000000000000000000e+00) (0, 0, 0.00000000000000000000e+00) (0, 0, 0.00000000000000000000e+00) (0, 0, 0.00000000000000000000e+00) (0, 0, 0.00000000000000000000e+00) (0, 0, 0.00000000000000000000e+00) (0, 0, 0.00000000000000000000e+00) (0, 0, 0.00000000000000000000e+00) (0, 0, 0.00000000000000000000e+00) (0, 0, 0.00000000000000000000e+00) (0, 0, 0.00000000000000000000e+00) (0, 0, 0.00000000000000000000e+00) (0, 0, 0.00000000000000000000e+00) (0, 0, 0.00000000000000000000e+00) (0, 0, 0.00000000000000000000e+00) (0, 0, 0.00000000000000000000e+00) (0, 0, 0.00000000000000000000e+00) (0, 0, 0.00000000000000000000e+00) (0, 0, 0.00000000000000000000e+00) (0, 0, 0.00000000000000000000e+00) (0, 0, 0.00000000000000000000e+00) (0, 0, 0.00000000000000000000e+00) (0, 0, 0.00000000000000000000e+00) (0, 0, 0.00000000000000000000e+00) (0, 0, 0.00000000000000000000e+00) (0, 0, 0.00000000000000000000e+00) (0, 0, 0.00000000000000000000e+00) (0, 0, 0.00000000000000000000e+00) (0, 0, 0.00000000000000000000e+00) (0, 0, 0.00000000000000000000e+00) (0, 0, 0.00000000000000000000e+00) (0, 0, 0.00000000000000000000e+00) (0, 0, 0.00000000000000000000e+00) (0, 0, 0.00000000000000000000e+00) (0, 0, 0.00000000000000000000e+00) (0, 0, 0.00000000000000000000e+00) (0, 0, 0.00000000000000000000e+00) (0, 0, 0.00000000000000000000e+00) (0, 0, 0.00000000000000000000e+00) (0, 0, 0.00000000000000000000e+00) (0, 0, 0.00000000000000000000e+00) (0, 0, 0.00000000000000000000e+00) (0, 0, 0.00000000000000000000e+00) (0, 0, 0.00000000000000000000e+00) (0, 0, 0.00000000000000000000e+00) (0, 0, 0.00000000000000000000e+00) (0, 0, 0.00000000000000000000e+00) (0, 0, 0.00000000000000000000e+00) (0, 0, 0.00000000000000000000e+00) (0, 0, 0.00000000000000000000e+00) (0, 0, 0.00000000000000000000e+00) (0, 0, 0.00000000000000000000e+00) (0, 0, 0.00000000000000000000e+00) (0, 0, 0.00000000000000000000e+00) (0, 0, 0.00000000000000000000e+00) (0, 0, 0.00000000000000000000e+00) (0, 0, 0.00000000000000000000e+00) (0, 0, 0.00000000000000000000e+00) (0, 0, 0.00000000000000000000e+00) (0, 0, 0.00000000000000000000e+00) (0, 0, 0.00000000000000000000e+00) (0, 0, 0.00000000000000000000e+00) (0, 0, 0.00000000000000000000e+00) (0, 0, 0.00000000000000000000e+00) (0, 0, 0.00000000000000000000e+00) (0, 0, 0.00000000000000000000e+00) (0, 0, 0.00000000000000000000e+00) (0, 0, 0.00000000000000000000e+00) (0, 0, 0.00000000000000000000e+00) (0, 0, 0.00000000000000000000e+00) (0, 0, 0.00000000000000000000e+00) (0, 0, 0.00000000000000000000e+00) (0, 0, 0.00000000000000000000e+00) (0, 0, 0.00000000000000000000e+00) (0, 0, 0.00000000000000000000e+00) (0, 0, 0.00000000000000000000e+00) (0, 0, 0.00000000000000000000e+00) (0, 0, 0.00000000000000000000e+00) (0, 0, 0.00000000000000000000e+00) (0, 0, 0.00000000000000000000e+00) (0, 0, 0.00000000000000000000e+00) (0, 0, 0.00000000000000000000e+00) (0, 0, 0.00000000000000000000e+00) (0, 0, 0.00000000000000000000e+00) (0, 0, 0.00000000000000000000e+00) (0, 0, 0.00000000000000000000e+00) (0, 0, 0.00000000000000000000e+00) (0, 0, 0.00000000000000000000e+00) (0, 0, 0.00000000000000000000e+00) (0, 0, 0.00000000000000000000e+00) (0, 0, 0.00000000000000000000e+00) (0, 0, 0.00000000000000000000e+00) (0, 0, 0.00000000000000000000e+00) (0, 0, 0.00000000000000000000e+00) (0, 0, 0.00000000000000000000e+00) (0, 0, 0.00000000000000000000e+00) (0, 0, 0.00000000000000000000e+00) (0, 0, 0.00000000000000000000e+00) (0, 0, 0.00000000000000000000e+00) (0, 0, 0.00000000000000000000e+00) (0, 0, 0.00000000000000000000e+00) (0, 0, 0.00000000000000000000e+00) (0, 0, 0.00000000000000000000e+00) (0, 0, 0.00000000000000000000e+00) (0, 0, 0.00000000000000000000e+00) (0, 0, 0.00000000000000000000e+00) (0, 0, 0.00000000000000000000e+00) (0, 0, 0.00000000000000000000e+00) (0, 0, 0.00000000000000000000e+00) (0, 0, 0.00000000000000000000e+00) (0, 0, 0.00000000000000000000e+00) (0, 0, 0.00000000000000000000e+00) (0, 0, 0.00000000000000000000e+00) (0, 0, 0.00000000000000000000e+00) (0, 0, 0.00000000000000000000e+00) (0, 0, 0.00000000000000000000e+00) (0, 0, 0.00000000000000000000e+00) (0, 0, 0.00000000000000000000e+00) (0, 0, 0.00000000000000000000e+00) (0, 0, 0.00000000000000000000e+00) (0, 0, 0.00000000000000000000e+00) (0, 0, 0.00000000000000000000e+00) (0, 0, 0.00000000000000000000e+00) (0, 0, 0.00000000000000000000e+00) (0, 0, 0.00000000000000000000e+00) (0, 0, 0.00000000000000000000e+00) (0, 0, 0.00000000000000000000e+00) (0, 0, 0.00000000000000000000e+00) (0, 0, 0.00000000000000000000e+00) (0, 0, 0.00000000000000000000e+00) (0, 0, 0.00000000000000000000e+00) (0, 0, 0.00000000000000000000e+00) (0, 0, 0.00000000000000000000e+00) (0, 0, 0.00000000000000000000e+00) (0, 0, 0.00000000000000000000e+00) (0, 0, 0.00000000000000000000e+00) (0, 0, 0.00000000000000000000e+00) (0, 0, 0.00000000000000000000e+00) (0, 0, 0.00000000000000000000e+00) (0, 0, 0.00000000000000000000e+00) (0, 0, 0.00000000000000000000e+00) (0, 0, 0.00000000000000000000e+00) (0, 0, 0.00000000000000000000e+00) (0, 0, 0.00000000000000000000e+00) (0, 0, 0.00000000000000000000e+00) (0, 0, 0.00000000000000000000e+00) (0, 0, 0.00000000000000000000e+00) (0, 0, 0.00000000000000000000e+00) (0, 0, 0.00000000000000000000e+00) (0, 0, 0.00000000000000000000e+00) (0, 0, 0.00000000000000000000e+00) (0, 0, 0.00000000000000000000e+00) (0, 0, 0.00000000000000000000e+00) (0, 0, 0.00000000000000000000e+00) (0, 0, 0.00000000000000000000e+00) (0, 0, 0.00000000000000000000e+00) (0, 0, 0.00000000000000000000e+00) (0, 0, 0.00000000000000000000e+00) (0, 0, 0.00000000000000000000e+00) (0, 0, 0.00000000000000000000e+00) (0, 0, 0.00000000000000000000e+00) (0, 0, 0.00000000000000000000e+00) (0, 0, 0.00000000000000000000e+00) (0, 0, 0.00000000000000000000e+00) (0, 0, 0.00000000000000000000e+00) (0, 0, 0.00000000000000000000e+00) (0, 0, 0.00000000000000000000e+00) (0, 0, 0.00000000000000000000e+00) (0, 0, 0.00000000000000000000e+00) (0, 0, 0.00000000000000000000e+00) (0, 0, 0.00000000000000000000e+00) (0, 0, 0.00000000000000000000e+00) (0, 0, 0.00000000000000000000e+00) (0, 0, 0.00000000000000000000e+00) (0, 0, 0.00000000000000000000e+00) (0, 0, 0.00000000000000000000e+00) (0, 0, 0.00000000000000000000e+00) (0, 0, 0.00000000000000000000e+00) (0, 0, 0.00000000000000000000e+00) (0, 0, 0.00000000000000000000e+00) (0, 0, 0.00000000000000000000e+00) (0, 0, 0.00000000000000000000e+00) (0, 0, 0.00000000000000000000e+00) (0, 0, 0.00000000000000000000e+00) (0, 0, 0.00000000000000000000e+00) (0, 0, 0.00000000000000000000e+00) (0, 0, 0.00000000000000000000e+00) (0, 0, 0.00000000000000000000e+00) (0, 0, 0.00000000000000000000e+00) (0, 0, 0.00000000000000000000e+00) (0, 0, 0.00000000000000000000e+00) (0, 0, 0.00000000000000000000e+00) (0, 0, 0.00000000000000000000e+00) (0, 0, 0.00000000000000000000e+00) (0, 0, 0.00000000000000000000e+00) (0, 0, 0.00000000000000000000e+00) (0, 0, 0.00000000000000000000e+00) (0, 0, 0.00000000000000000000e+00) (0, 0, 0.00000000000000000000e+00) (0, 0, 0.00000000000000000000e+00) (0, 0, 0.00000000000000000000e+00) (0, 0, 0.00000000000000000000e+00) (0, 0, 0.00000000000000000000e+00) (0, 0, 0.00000000000000000000e+00) (0, 0, 0.00000000000000000000e+00) (0, 0, 0.00000000000000000000e+00) (0, 0, 0.00000000000000000000e+00) (0, 0, 0.00000000000000000000e+00) (0, 0, 0.00000000000000000000e+00) (0, 0, 0.00000000000000000000e+00) (0, 0, 0.00000000000000000000e+00) (0, 0, 0.00000000000000000000e+00) (0, 0, 0.00000000000000000000e+00) (0, 0, 0.00000000000000000000e+00) (0, 0, 0.00000000000000000000e+00) (0, 0, 0.00000000000000000000e+00) (0, 0, 0.00000000000000000000e+00) (0, 0, 0.00000000000000000000e+00) (0, 0, 0.00000000000000000000e+00) (0, 0, 0.00000000000000000000e+00) (0, 0, 0.00000000000000000000e+00) (0, 0, 0.00000000000000000000e+00) (0, 0, 0.00000000000000000000e+00) (0, 0, 0.00000000000000000000e+00) (0, 0, 0.00000000000000000000e+00) (0, 0, 0.00000000000000000000e+00) (0, 0, 0.00000000000000000000e+00) (0, 0, 0.00000000000000000000e+00) (0, 0, 0.00000000000000000000e+00) (0, 0, 0.00000000000000000000e+00) (0, 0, 0.00000000000000000000e+00) (1159, 3, 5.00000000000000000000e-01) (1159, 3, 5.00000000000000000000e-01) (1159, 3, 5.00000000000000000000e-01) (1159, 3, 5.00000000000000000000e-01) (1159, 3, 5.00000000000000000000e-01) (1159, 3, 5.00000000000000000000e-01) (1159, 3, 5.00000000000000000000e-01) (1159, 3, 5.00000000000000000000e-01) (1159, 3, 5.00000000000000000000e-01) (1159, 3, 5.00000000000000000000e-01) (1159, 3, 5.00000000000000000000e-01) (1159, 3, 5.00000000000000000000e-01) (1159, 3, 5.00000000000000000000e-01) (1159, 3, 5.00000000000000000000e-01) (1159, 3, 5.00000000000000000000e-01) (1159, 3, 5.00000000000000000000e-01) (1159, 3, 5.00000000000000000000e-01) (1159, 3, 5.00000000000000000000e-01) (1159, 3, 5.00000000000000000000e-01) (1159, 3, 5.00000000000000000000e-01) (1159, 3, 5.00000000000000000000e-01) (1159, 3, 5.00000000000000000000e-01) (1159, 3, 5.00000000000000000000e-01) (1159, 3, 5.00000000000000000000e-01) (1159, 3, 5.00000000000000000000e-01) (0, 3, 0.00000000000000000000e+00) (26, 3, 5.00000000000000000000e-01) (26, 3, 5.00000000000000000000e-01) (0, 3, 0.00000000000000000000e+00) 
connections (connected_to_neuron, weight)=(0, 2.97364587204269961718e-02) (1, -4.38449123432013698753e-01) (2, -2.01682634326198380326e-02) (3, -1.10861140114842493531e-01) (4, 2.38873989202742137428e-01) (5, 7.10491297910044034003e-02) (6, -2.31087212981848699744e-01) (7, -1.87517828608996267592e-01) (8, -2.43666820336419648330e-03) (9, 4.40260351899027999045e-02) (10, -1.06600233159119886506e-02) (11, -2.72653074716657395360e-01) (12, 1.93791026655414200253e-01) (13, 1.46718135097154422919e-01) (14, 2.57024663698898536701e-01) (15, 2.10526663080348674928e-01) (16, 2.60082606109210856971e-04) (17, 7.41557964935775637549e-02) (18, 8.56946672331025671721e-02) (19, -1.68387266467024537819e-01) (20, 1.25598311424255371094e-02) (21, 1.50556110206645832328e-01) (22, 5.37097175069617183141e-01) (23, 7.30507824731453231371e-02) (24, 1.57131184420837177740e-01) (25, -2.67127780558572801295e-02) (26, -3.45090461091174666164e-02) (27, -1.26750443110511201716e-01) (28, 2.15341838067399982126e-01) (29, -3.88331122637704112543e-02) (30, -8.06559089809346374533e-02) (31, -6.59706097117340184433e-02) (32, -4.04635067995558872500e-01) (33, -1.79954415311561616297e-02) (34, -2.46490682014643996967e-01) (35, -3.31496839931103348675e-01) (36, -8.99633981247054542729e-02) (37, 8.59489496123939087681e-04) (38, -9.64737283804966566647e-02) (39, -1.60802553824381827541e-01) (40, 2.02155687384479559876e-01) (41, 1.80878270958964994068e-03) (42, -4.77091845420281435164e-01) (43, -1.44335569274499420089e-01) (44, -4.64781117935504028971e-01) (45, 1.24649694267784813539e-01) (46, 4.94280998238279881130e-02) (47, 2.90319395848918693215e-01) (48, 2.52943589592185436032e-01) (49, 1.27031856175224583394e-01) (50, -5.46512611001640571939e-02) (51, -1.11509363629995167377e-01) (52, 3.64725399210259204619e-02) (53, -1.63981670529461925206e-03) (54, -3.26501691345651323672e-01) (55, 1.86672336337324364097e-02) (56, 9.05686184470942678981e-02) (57, 4.25357587056724491953e-03) (58, 1.57779055430716297348e-01) (59, 9.52881497726650594782e-02) (60, 8.27063222458601123022e-03) (61, 2.32234872665860450289e-03) (62, -4.27900828123397081182e-01) (63, -2.14246940952086510623e-02) (64, -2.95792744231551107958e-01) (65, 5.23751625935066217332e-02) (66, 2.67843717970525398153e-02) (67, 8.26730482878394318247e-02) (68, 3.16541338114694648098e-01) (69, 1.61525776798271847312e-01) (70, -1.44379013914532283724e-01) (71, 1.88833599559501547072e-02) (72, -1.24857783868678309802e-01) (73, 1.12723834657012980665e-01) (74, -7.28351485069977794273e-02) (75, -2.78070306454133338303e-02) (76, 1.27144834330678718759e-01) (77, 1.74724328671761214293e-01) (78, 2.75335257966079549607e-01) (79, 2.03859706109922933503e-01) (80, -3.18072599120446178333e-02) (81, 3.65281223504790863998e-02) (82, -3.68404624116309475923e-01) (83, -3.02339630097047840085e-01) (84, -2.48049898874812241312e-01) (85, 2.29166778166183221499e-01) (86, -1.75276088303092048015e-01) (87, 8.98976682937457777234e-02) (88, 2.20344053099756881364e-01) (89, 1.68277076887362431190e-01) (90, -2.29643375240062397324e-01) (91, -2.20473774233009706114e-01) (92, -1.19100398025233991661e-01) (93, -2.13322040206334412327e-01) (94, 7.94182087629614896773e-02) (95, 5.84178077694282593679e-02) (96, 5.39535708151568857427e-02) (97, -1.76210859698632177350e-01) (98, 2.39719778678646744385e-01) (99, 1.82995920703602849011e-01) (100, 2.73828780319660958220e-01) (101, -5.45311868626596890630e-02) (102, -3.12568596644124396811e-01) (103, -2.50329942087795409567e-01) (104, -1.87336527867891983190e-01) (105, -1.83790459710534648252e-01) (106, -1.95728652096176625186e-01) (107, 5.34942511118547681104e-02) (108, 1.70687482411823909789e-01) (109, 2.27609414424499612029e-01) (110, -1.20025207060522595692e-01) (111, -1.18875351658905850649e-01) (112, -2.35140929980584667547e-01) (113, 1.23312696990374698336e-01) (114, -1.74458804497767211439e-01) (115, -7.40468671283736196154e-02) (116, 1.15984425965647616058e-02) (117, -2.49758134070149767636e-02) (118, 1.22161735729265447103e-01) (119, 2.30087985725862982644e-02) (120, -1.50726885875657246050e-01) (121, -8.84192776530041552041e-02) (122, -1.92129085595488274807e-01) (123, -1.89697855571259316187e-02) (124, -2.65970076495743612544e-01) (125, 2.23350380871318449083e-01) (126, -6.62342797812713740546e-02) (127, -1.73679967258937334451e-01) (128, 2.78989556036870200995e-02) (129, -5.22081578308266208710e-02) (130, -2.03270541822923506148e-01) (131, -1.47517634089510324413e-01) (132, -8.68818639043065776839e-02) (133, -1.14889904055945638039e-01) (134, -4.77408562356209320576e-01) (135, 9.39287794930075518873e-03) (136, 5.65997617339398240155e-02) (137, -2.12347062880022502407e-01) (138, 1.87323804203139793190e-01) (139, 1.62545994742406448019e-02) (140, -1.82549302486461922923e-01) (141, 7.64584401257337870073e-02) (142, -9.85074312562052717412e-02) (143, 4.51969824709544318320e-02) (144, -4.54958648098563234186e-01) (145, 2.84057338808078041481e-02) (146, 2.05978922374324607825e-01) (147, -1.16402680028096033871e-01) (148, -4.80909243365264804648e-02) (149, 5.79787559233924734703e-02) (150, -1.76766323343722192574e-01) (151, -2.18266722790611600313e-01) (152, -1.26045633072424473342e-01) (153, 2.17906853280897039316e-01) (154, -1.35129524204783468821e-01) (155, -6.34945148535243503174e-02) (156, 2.22090189693052525444e-01) (157, -2.29436807977808548964e-01) (158, 2.64106122255506503560e-01) (159, 6.68942120645321935957e-02) (160, 7.93138983680729951244e-04) (161, 7.71621022484525187490e-02) (162, -3.76838889075172878140e-01) (163, -1.20293967598322948387e-01) (164, -2.23119153501093292480e-01) (165, -1.87965775599697425269e-02) (166, 9.60700876556147137508e-02) (167, 7.78084819148969729363e-03) (168, 4.51254849821748488248e-02) (169, 4.47602581691274800657e-02) (170, 8.79457289550629878194e-02) (171, -1.41568214764793059990e-01) (172, -1.91906285967081619015e-01) (173, 1.07456256550573836517e-01) (174, -1.81341299542345180118e-01) (175, -3.76260219184520322555e-02) (176, 1.39941746100226749316e-01) (177, -4.02051653157630528579e-01) (178, 2.88400634073992245821e-01) (179, 2.08975532416585590978e-01) (180, -2.92779635650856684403e-01) (181, -1.66856840834273822960e-01) (182, -1.07931602935259135512e-01) (183, 2.07263821473182285882e-01) (184, -2.27505078707468472166e-01) (185, 2.27763514907258796116e-01) (186, 8.97098174421337157813e-02) (187, 5.52058556165391164927e-02) (188, -1.77586090675483469770e-02) (189, 1.51960988038390421018e-01) (190, 1.58274033884273801487e-01) (191, -2.40002654229148071341e-01) (192, 9.85878981909728453747e-03) (193, 7.23590856734424719976e-02) (194, -6.62406523840354255483e-01) (195, -1.65595978183459835442e-01) (196, 4.14376222039010477793e-01) (197, -2.94306768755894621048e-01) (198, 3.54862722875909919473e-01) (199, 2.22438750524995870750e-01) (200, -2.70221982860780529645e-01) (201, -2.97289227293797586604e-01) (202, -8.82172537449871230208e-02) (203, 2.61602709949756595531e-01) (204, -4.71524663831993873231e-01) (205, 3.66085161121905075521e-02) (206, 1.97556807432970132909e-01) (207, -3.41045718124541319405e-02) (208, -3.08860313907142157441e-02) (209, 9.46351417623504664878e-02) (210, 1.28743517641013924258e-02) (211, -1.21075811754445289425e-01) (212, 2.39458199936501220373e-01) (213, 1.56138353313117983490e-01) (214, -5.25381798642290176460e-01) (215, -2.85172421570496825716e-01) (216, 3.89333617206892024232e-01) (217, -2.13081793316627576829e-01) (218, 4.00855902712467127014e-01) (219, 6.21177237226896217237e-01) (220, -8.63318221160495197219e-02) (221, -1.58014924465125217168e-01) (222, -1.24305521487009185133e-01) (223, 2.84963370119175496420e-01) (224, -2.80045031273323752341e-01) (225, -1.18717410759579047874e-01) (226, 2.89796323827429203046e-01) (227, 1.59187328899639990443e-01) (228, 7.15229057580801536737e-03) (229, -1.79048945909987371194e-02) (230, 1.58589792266311535585e-01) (231, -1.39237810109371275974e-02) (232, -4.40175923656683579233e-02) (233, 1.56199221485225137052e-01) (234, -4.28575090531154556661e-01) (235, -2.17148983790587724041e-01) (236, 3.88416235093690387359e-01) (237, -2.09468627533997808765e-01) (238, 1.91285911520060691871e-01) (239, 6.24966525171299247532e-01) (240, -3.21393016193236513711e-01) (241, -1.13551555157792496281e-02) (242, 1.32332836283704735614e-01) (243, 3.86843871716106069147e-01) (244, -4.28138409883191739524e-01) (245, 1.47221799215200409988e-02) (246, 4.77567308434168558140e-01) (247, 1.05178178094617186256e-01) (248, -1.07097146096030354512e-01) (249, 4.19856719582745382957e-02) (250, 2.55004552211881840851e-01) (251, 1.08981971749910852565e-01) (252, 1.98604592952722119881e-01) (253, 1.74287585951563073206e-01) (254, -4.89639250201846731869e-01) (255, -1.77492125776623849154e-01) (256, 6.78730053475565031640e-01) (257, -1.74174584684557848258e-01) (258, 6.46897550821866285098e-01) (259, 7.51427964726213759583e-01) (260, -7.86240642358264768541e-02) (261, 3.60934525430122096767e-02) (262, -8.33549430092743320886e-02) (263, 2.48951575139318370677e-01) (264, -3.92628807814029923140e-01) (265, -1.29773992442319491269e-01) (266, 3.47251382159793203774e-02) (267, -3.13895213937961381490e-01) (268, -1.23864768306471972892e-01) (269, 7.95713106994039715003e-02) (270, 3.36734066157301156763e-02) (271, 1.56442732924918885551e-02) (272, -1.46358085110682434316e-02) (273, 4.52752232071401861102e-01) (274, -8.07820644319498737396e-01) (275, 1.32725962701721045267e-01) (276, 1.28682247309100872279e+00) (277, 1.76759661310768562137e-01) (278, 6.55985937145166397855e-01) (279, 1.67960120611458219031e+00) (280, 1.25712278261568728699e-02) (281, -2.16504606454794967796e-01) (282, 2.69936388266572457884e-01) (283, 8.62194425430370059438e-01) (284, -2.25647354854858539497e-01) (285, 1.98090857779461865240e-01) (286, 2.08349633194130245961e-01) (287, 3.28738801814645542620e-01) (288, -3.64716683106270034287e-01) (289, -2.47885094678001682844e-01) (290, 1.42015355478506185433e-02) (291, -2.85774395993313556907e-01) (292, 2.93770996682549856427e-01) (293, 5.26743176643940796966e-02) (294, -3.41418008925076899018e-01) (295, -1.08505372324297125718e-03) (296, 4.17928007910289611715e-01) (297, 6.75554724178514254262e-02) (298, 2.40600752337420398241e-01) (299, 8.42342624181842580811e-01) (300, -3.78408501532911445420e-01) (301, -2.87666447297145910778e-01) (302, -3.69942403276677170276e-02) (303, 5.09360935147629367847e-01) (304, -3.75813589138779824417e-01) (305, -4.96465753950335805800e-02) (306, 4.75606527565031023119e-01) (307, 3.05835041982962851925e-01) (308, 3.69173056075726563341e-02) (309, 1.44395905189840471211e-02) (310, 7.76066100452280638322e-02) (311, 7.48851248661403928741e-02) (312, 2.96168200535143810725e-01) (313, 2.04420217806559806339e-01) (314, -4.78655197698015621999e-01) (315, 3.07808351300216775925e-01) (316, 3.39740786531611049792e-01) (317, 2.90196345316139303616e-01) (318, 8.40841296051111214416e-02) (319, 4.93786418282621264453e-01) (320, -3.33011056248147085945e-01) (321, -2.13797290413697521627e-01) (322, 4.22534693984627854335e-02) (323, 1.84082068237799656441e-01) (324, -4.41340271642089665427e-01) (325, -1.77593350597180871242e-01) (326, 4.72290369501860360368e-02) (327, 2.13644669131750591928e-01) (328, -4.25380053227969595619e-02) (329, 1.88343044486256300241e-01) (330, -3.19005452282050849799e-01) (331, -2.00617630421258547058e-01) (332, 2.35896938133047046060e-01) (333, 4.80213270741843070710e-02) (334, -4.65787678749040090498e-01) (335, -8.96650961233889931545e-02) (336, 4.09103521188050101021e-01) (337, -1.69155179151010470751e-01) (338, 4.25871103276597939846e-01) (339, 8.28187755292089766712e-01) (340, -1.91948046310588815722e-01) (341, -1.74087753251391724740e-01) (342, 1.05700523011138081131e-01) (343, 3.76315664735466237634e-01) (344, -1.72329349799257708353e-01) (345, 1.18718415507059610325e-02) (346, 2.56809287766883331816e-01) (347, 1.92805841628332252924e-01) (348, -2.99469718472508104889e-02) (349, -4.29002396145018588536e-02) (350, 6.39170912748944775039e-02) (351, -1.97177482182510493969e-02) (352, -8.97523674861149395321e-02) (353, -1.00628049705178690409e-01) (354, -4.01453594571915206579e-01) (355, 9.87046544936791281355e-02) (356, 2.09547635120457431679e-01) (357, 2.84864639000077080055e-01) (358, 3.42132770730441404528e-01) (359, 4.10873333978659383003e-01) (360, -8.61007901654841228956e-02) (361, 1.56589453370317953362e-02) (362, 7.75216350787978625281e-02) (363, 3.97774652811633600002e-01) (364, -4.03200544647076275506e-01) (365, -6.15797197955842909312e-02) (366, 1.58306407192606357626e-01) (367, 4.23929256035119120249e-02) (368, -2.30593051781438240777e-01) (369, 3.45264596934161116515e-02) (370, 7.18609569033334671939e-02) (371, -1.03985412744342836655e-01) (372, 1.02691109898204360751e-01) (373, 3.01315287815395946303e-02) (374, -3.43985285881355074000e-01) (375, -3.79727360847614547890e-02) (376, -8.19437900620052367406e-02) (377, 6.96321372361715096311e-02) (378, 3.54776012994119038790e-01) (379, 2.45590517436809735452e-01) (380, -5.90519429766210857125e-02) (381, -8.34499383231029484564e-02) (382, -2.14912976455885668114e-01) (383, 1.37687025129334811302e-01) (384, -2.73110228332374582738e-01) (385, -1.78407310863316154181e-01) (386, 2.08240007786137049095e-01) (387, 2.89277156379167510458e-01) (388, 1.49589282291615915943e-01) (389, 2.46648481381987971783e-01) (390, 5.74181008336134644093e-03) (391, -6.90951750385367657881e-02) (392, 1.53276642551339239290e-02) (393, -5.21759453433691192115e-02) (394, -4.28984155803036504295e-01) (395, -2.28602345038897758478e-01) (396, 1.26074391660764922873e-01) (397, -2.38764053743063586754e-01) (398, 2.58037370254803943848e-01) (399, 1.53801700711894279161e-01) (400, -2.18278976790683809650e-01) (401, -2.43746007046853091493e-01) (402, -2.37585747770201992368e-02) (403, -9.83671644139338802182e-02) (404, -5.22510886830333975972e-01) (405, -4.73854144927406337184e-02) (406, 1.12349011868553158577e-01) (407, 3.33944186413013127668e-02) (408, 2.04529776845094241056e-01) (409, 8.08671530269088612020e-02) (410, 1.68269838547100897275e-01) (411, -1.55826506659727748172e-01) (412, -6.23444063225324432431e-02) (413, -4.01269581712510991361e-03) (414, -2.33177572956338695354e-02) (415, -3.29903211342797320071e-01) (416, 1.84632245412573503529e-01) (417, 2.50496602456733830078e-01) (418, 2.62282377457416060462e-01) (419, 1.76068740762454323256e-01) (420, -6.01765618261482435059e-02) (421, 6.57063820148202221150e-02) (422, -1.57692295192188358666e-01) (423, 2.02866638121822012719e-01) (424, 2.37376830504077603046e-02) (425, -1.00567374637023393413e-01) (426, 3.59598321894641304031e-01) (427, 2.00097684039829692981e-02) (428, 3.48563632699233516554e-01) (429, 1.66910111595980154009e-01) (430, 1.45066641951738739547e-01) (431, -1.15147621235815525442e-01) (432, -1.87464890284112284391e-01) (433, 1.37806959635591474989e-01) (434, 3.23399605535626896713e-02) (435, -2.26312142676083627446e-01) (436, 1.69780568130979331309e-01) (437, -2.56009029972502355488e-01) (438, 3.65999358163130450450e-01) (439, 3.47057165017080393454e-01) (440, -1.14706783880960047628e-01) (441, -6.95306103460857360954e-02) (442, -4.07045879594480020103e-01) (443, -1.17723340417316812284e-02) (444, -1.87425417923542836363e-01) (445, 6.50807408680189602990e-02) (446, 2.89918485722701346763e-01) (447, 3.63237970907078711047e-01) (448, 2.16967301838058734820e-01) (449, 5.81032354132234637317e-03) (450, -4.65140659540131604088e-02) (451, 1.25493159681506372127e-01) (452, -1.64303668091439564192e-01) (453, 2.18799749142628036092e-01) (454, -1.88767455776492870667e-01) (455, -2.13873580358497267229e-01) (456, 3.76716311710022233594e-02) (457, -2.29590249969498783056e-01) (458, 5.25639905821377428907e-01) (459, -7.86818780211869794883e-02) (460, -3.37149782711330503471e-01) (461, 1.16709867131289612985e-01) (462, -1.60418284901624907945e-01) (463, 2.67172638162348652369e-01) (464, -4.16972908486982540843e-01) (465, -2.89803150087326946704e-02) (466, 2.17577426709640142644e-01) (467, 2.73674701204391135345e-01) (468, 1.28269706428291857536e-01) (469, 2.16578219890932538449e-01) (470, -1.16131222087420674094e-01) (471, -5.51063272846279081363e-02) (472, -2.31553445879026029153e-02) (473, 1.69442318667681751654e-01) (474, -4.96345760547485387315e-02) (475, -2.89127850157222532346e-01) (476, 5.91922270009180295780e-02) (477, -7.78380102552134051086e-02) (478, 2.92928775622641190957e-01) (479, 8.67525511038543528652e-02) (480, -3.71848284082816823992e-02) (481, -2.01459970404743414496e-02) (482, -1.87759807372406967163e-01) (483, -5.12469316066431548884e-02) (484, -3.35550986226924419231e-01) (485, -1.24472869586748722398e-02) (486, 2.11056916469373259670e-02) (487, 1.79263276623221445849e-01) (488, 1.49604224686272768707e-01) (489, 5.11580140422468049310e-02) (490, 9.03465330612292748247e-03) (491, -1.98664083977946853699e-01) (492, -3.18757457387095988199e-01) (493, 1.18677368626483481506e-01) (494, -3.71097401852051589355e-01) (495, -1.82000795107673807305e-01) (496, 1.47287957958093379540e-01) (497, 2.62886060412640398809e-01) (498, 7.29704557877069726057e-02) (499, 1.55340321581403512097e-01) (500, -2.67981469348742146197e-02) (501, 1.04358296760986672680e-02) (502, -2.47645769677705629430e-01) (503, 1.11035412272762604169e-01) (504, -7.40121187352817122562e-02) (505, 2.27441092924478040216e-02) (506, 3.15537142925330360566e-01) (507, -2.52161551704004997798e-02) (508, 1.77939391655639045364e-01) (509, 1.91016888410652646568e-01) (510, -1.00150002453316719353e-01) (511, -6.59998707457632588502e-02) (512, -1.04285643691853086024e-01) (513, 3.31778744360267885405e-01) (514, -3.81255884155794477763e-01) (515, -1.71070498490412614689e-01) (516, -6.08765384409355736484e-02) (517, -5.19224634870304180279e-02) (518, 1.45889346349249160451e-01) (519, 1.43218917993377936604e-01) (520, -5.83356036777848765973e-02) (521, -1.95512948773997385921e-01) (522, -1.93215994652666506193e-01) (523, 1.88817408728173846688e-01) (524, -1.60004259503262191711e-01) (525, 2.93398142583445042941e-02) (526, 1.67453830810182335842e-01) (527, 2.39687988531536444459e-01) (528, 6.63290557330202812381e-02) (529, 2.78169781819745942641e-01) (530, 2.08250814433023789807e-01) (531, -2.73563013609827876405e-01) (532, 1.45380625430194670988e-01) (533, 5.46928644867927735151e-02) (534, -7.18256139663236009563e-02) (535, -1.06632051752183529270e-01) (536, -1.40171920698910101866e-01) (537, -1.40738221211682001943e-01) (538, -1.60173144486181973090e-01) (539, 2.32574162149138123808e-04) (540, -1.42615531831996045220e-02) (541, -1.34449669897306091360e-02) (542, 1.00475097420483411303e-01) (543, 1.24972859027249250108e-01) (544, -9.27135930533808105825e-02) (545, -1.43405013028392536167e-01) (546, -6.05875421063438168723e-02) (547, -8.99120942009715290455e-02) (548, -3.37820252344557259150e-02) (549, 8.58863820024859808688e-03) (550, 4.89394168420290501254e-02) (551, 1.49653761704265503285e-02) (552, -1.17589583813874128809e-02) (553, 9.44683112605121805272e-02) (554, 2.93624007161773364905e-02) (555, 9.25888255124633630100e-03) (556, -6.67704010315545853915e-02) (557, 6.23288441669808679357e-02) (558, -2.63990871791074332986e-01) (559, 1.98944039998480926013e-01) (560, -1.56938516814718292958e-01) (561, 2.80431136228853593317e-02) (562, -1.10358590505481621302e-01) (563, -1.01345057696217738519e-01) (564, -7.36607881817212123421e-02) (565, 2.43012222572389288699e-02) (566, -1.06346644171043350213e-01) (567, -1.57010033869631332459e-02) (568, -2.23699946194561627433e-01) (569, 7.15952651815720542139e-02) (570, -1.85422710757477349208e-01) (571, 9.61582376697604351845e-02) (572, -1.80277917845137025665e-01) (573, -2.39720078463538516234e-02) (574, -1.06128664979006880065e-02) (575, 6.83273851732984962432e-03) (576, -2.89553215789684313675e-02) (577, -9.55036664265467988288e-02) (578, 1.45086901487001290745e-01) (579, -1.46932154143690263393e-01) (580, 1.26326248300699939264e-01) (581, -1.91575019607046009851e-01) (582, 2.00276271743015765736e-01) (583, -1.76306727865601725602e-01) (584, 9.58114219122558896657e-02) (585, -2.48804552742039220004e-01) (586, -1.83454626247275716378e-02) (587, -1.35189465113920964656e-01) (588, 6.39451416420586671308e-02) (589, -1.50351467306905267618e-01) (590, 8.77077011842945369891e-02) (591, -1.06338445734246334062e-01) (592, 1.61283254314384311146e-01) (593, -6.16801840571716206152e-02) (594, 4.46554421897212214243e-02) (595, -7.98494829299752767460e-02) (596, -2.85161306282406268320e-02) (597, -4.52678181052856842825e-02) (598, -2.10058851196309286091e-02) (599, -1.07334232079151093570e-02) (600, -1.14208403907928746079e-01) (601, 9.60388605211193041589e-02) (602, -9.15764350649287545147e-02) (603, 1.15579554709884114311e-02) (604, 2.48071606951867050517e-02) (605, 1.01676138491532647157e-01) (606, 9.40483283380509904603e-02) (607, -6.48972307706224826873e-02) (608, 2.43391626371461805567e-01) (609, -2.09275983993535363847e-01) (610, -4.48296391242166136770e-02) (611, -7.07418502006918470393e-02) (612, -3.02662608738790868401e-02) (613, 5.93022707953351491117e-02) (614, -4.85533552893954237217e-02) (615, -1.31248460649587395110e-01) (616, -2.43795931284714856302e-01) (617, 4.80475291526596751113e-02) (618, 1.29535156220520281112e-01) (619, -1.89953333911258320787e-01) (620, -4.93414877334452939284e-02) (621, -1.07001751993913332694e-01) (622, -9.38750429626185461940e-02) (623, 6.54733718659230301551e-02) (624, 4.56029929425050689629e-02) (625, -2.04193405994326865338e-01) (626, 2.64931046234436612385e-02) (627, -8.81602988680417892775e-02) (628, 7.76419318539905145560e-02) (629, -6.21852240761621294363e-02) (630, 1.52773618044441200636e-01) (631, -9.77294797197577752579e-02) (632, -9.36700270620256375542e-02) (633, -1.27668338406968340237e-01) (634, 3.35839842275121383541e-02) (635, -9.51868989081871980096e-02) (636, 1.10985964603062120526e-01) (637, -1.35354444476139396114e-01) (638, -1.09777934636046306527e-01) (639, 1.83702431408640058652e-02) (640, -1.73688800558479718161e-02) (641, 8.83359024290065741880e-02) (642, -2.18909752334788230976e-02) (643, 2.96861439773651210328e-02) (644, -4.89947169201611874845e-03) (645, -6.75489735069710189874e-02) (646, 6.53306295495063166223e-02) (647, -5.85186358134624010074e-02) (648, 1.53796550250386659942e-01) (649, -7.85918119807868520432e-02) (650, 9.11073572139756981958e-02) (651, 8.49324034408129868723e-02) (652, -1.45180001034396377602e-01) (653, 1.17807989546632029682e-02) (654, 4.75796634823333480790e-02) (655, -4.55158565618748803261e-02) (656, -1.69496191000564427886e-01) (657, 2.63317059827626265278e-01) (658, 2.29246052252116777614e-01) (659, -6.12193731863822504513e-02) (660, -1.80707515965405407510e-01) (661, 2.41201136393627502130e-01) (662, -2.51554304637483072682e-01) (663, -6.83848857509469498783e-02) (664, 1.63039614615421435406e-01) (665, -8.48024456492181832878e-02) (666, -7.42617280731110718239e-02) (667, 7.88329855232375725782e-02) (668, -2.03151543502662429441e-01) (669, 8.34827327703355909216e-02) (670, -1.18374635498241259635e-01) (671, -1.07911440827108684459e-01) (672, -4.81548676128253499984e-02) (673, 2.19888760707942429451e-02) (674, -6.74921381835891648349e-02) (675, -1.48041243678575917125e-02) (676, -2.41093212956439324757e-02) (677, -1.56490155343455256132e-01) (678, 2.65884797910498904550e-02) (679, -6.47419262630973407768e-02) (680, -9.18114455116268435297e-02) (681, 4.66642383858965129062e-02) (682, 1.16904733112131883899e-01) (683, -7.01333042868601125308e-02) (684, 9.50892453134896398215e-02) (685, 2.96079686478213477407e-01) (686, -2.70631068082512860062e-01) (687, -9.56163765112997068862e-03) (688, 2.82288690653716867196e-01) (689, -1.44344934566595535508e-02) (690, -2.05093536633046219508e-01) (691, 1.56937151936243801664e-01) (692, 6.38976275278380634326e-02) (693, -2.03254677959462198844e-01) (694, -1.64983048108385987884e-01) (695, 9.60118934198029849725e-02) (696, 4.17017968314330744750e-02) (697, -3.19462044034079739596e-01) (698, 2.07148049937495998263e-01) (699, -6.15815298891473554381e-04) (700, -2.80143088959341257649e-01) (701, 1.04106727631120304922e-01) (702, 6.74217392938809972902e-02) (703, -3.84695923746233348073e-01) (704, 1.86586352790287013370e-01) (705, 1.65217581054748152702e-01) (706, -2.37702714366986506134e-01) (707, 1.78898591907101674192e-02) (708, 9.81672322677633740762e-02) (709, -1.99957194677836180841e-01) (710, -8.12847611184020456265e-03) (711, -2.49242185235236460294e-02) (712, -1.29026396686703015426e-01) (713, -5.78144952292903371860e-02) (714, -3.77701445360218088232e-02) (715, 4.32391780380588994226e-02) (716, 8.95826806159650962380e-02) (717, -8.06564490250636367819e-02) (718, -7.36955869608031666207e-03) (719, -4.65333435215438337429e-02) (720, -5.47981812956333941278e-02) (721, 4.13854482202181198081e-02) (722, -3.87258126572795477113e-03) (723, 3.25803610875331599306e-03) (724, 5.15849279959389103722e-02) (725, 1.61315131255814231404e-01) (726, 2.24090497161669559290e-02) (727, -1.65182295031263866314e-02) (728, -3.93896058603135715281e-02) (729, 1.60968022806170056593e-02) (730, -5.17566694684634398538e-02) (731, -2.05056039623059578603e-02) (732, 1.95075444018106114452e-01) (733, 1.93148076572401100615e-01) (734, 1.08156094334141958391e-01) (735, 1.02539860275211211493e-01) (736, -1.14030287913778227704e-01) (737, 1.05050223801178690963e-01) (738, 1.03229291377683440878e-01) (739, 1.55333950361856487632e-01) (740, 7.64846143568924524692e-02) (741, 4.25873897783244415027e-01) (742, 3.15515556837592026085e-01) (743, 2.30727822978071844817e-01) (744, 1.22589410146446184391e-01) (745, 5.09501090067449369236e-01) (746, 2.02329551200250867815e-01) (747, 2.48403893471443065755e-01) (748, 8.29508734378033435464e-02) (749, 1.28021293463490781761e-01) (750, 1.30829317195351818581e-01) (751, 3.12912650629106392497e-01) (752, 2.55155509325684815014e-01) (753, 3.13918171180289751199e-01) (754, 4.19821687490426975753e-01) (755, 9.94795689474628139215e-03) (756, 1.42110122825874263253e-01) (757, 1.94839916885202413255e-01) (758, 2.32318459261428356122e-01) (759, 5.39790761548938416436e-02) (760, 1.55038053616866983164e-01) (761, 2.09431811964087555289e-01) (762, 9.94843569278863887329e-02) (763, 3.45621406735930059018e-02) (764, 8.36607561607878302823e-02) (765, 3.05775458613583239753e-01) (766, -3.52487790796039493491e-02) (767, 1.79552481437227295924e-01) (768, 1.61035567310728267021e-01) (769, 1.83782305264079626195e-01) (770, 2.10328130508225324968e-01) (771, 5.62314297157500767033e-02) (772, 3.46583237386596243468e-01) (773, 1.47014854680127760034e-01) (774, 3.91748538468389750911e-01) (775, 2.71238557571111482680e-01) (776, 2.00181613890028281544e-01) (777, 3.44486452518100005893e-01) (778, 2.13036453549893783910e-01) (779, 2.22836651380788203225e-01) (780, 1.59381325611004431853e-01) (781, 1.46833880954141737796e-01) (782, 3.07149613265243370819e-01) (783, 1.93717918723546531079e-02) (784, -1.02359937719795381084e-02) (785, -1.20521961885377837387e-01) (786, 1.01697776157101821282e-02) (787, 9.10449151400688633240e-02) (788, -3.33920554055216209713e-03) (789, 2.72385789019270241340e-01) (790, 4.46421391346527203503e-03) (791, -9.19500821335285795088e-02) (792, -2.73036625772057450767e-01) (793, -1.47252025815764825412e-01) (794, -2.50112215219863431859e-01) (795, -1.06437646570069954777e+00) (796, -3.90158413487550592702e-01) (797, -2.18988654419790734762e-01) (798, -2.24586675920874723200e-01) (799, -2.05187807756566364947e-01) (800, -1.48392701265111642828e-02) (801, -2.04335946742874252635e-01) (802, 6.53042833994043336876e-02) (803, -2.23970626933017481763e-02) (804, 6.27744114584064399898e-02) (805, 8.24024493521075124258e-02) (806, 8.86848699559679709559e-02) (807, 3.13538108300637705095e-02) (808, -3.81421887447932969617e-02) (809, 1.76891921356108511310e-01) (810, -1.11634039185852899922e-02) (811, 1.40007276292099552828e-01) (812, 1.86557438340557241174e-01) (813, 2.16495216516586957978e-01) (814, 2.24334184065497987959e-01) (815, 3.36080923269451992130e-01) (816, 1.30804210267539855472e-01) (817, 1.00678407253991339387e-01) (818, 1.01066242597960376237e-01) (819, 3.14610038556508653240e-01) (820, -3.86533830954510437827e-01) (821, 3.18686795227127894758e-01) (822, 3.41874858404384307509e-02) (823, 3.68401824051438550600e-02) (824, 1.33299603039909064783e-01) (825, 2.96883987192582791959e-02) (826, -3.99614108004894275084e-02) (827, 2.52101468568464125164e-02) (828, -6.55074443383036608690e-02) (829, -2.50378381352510531732e-02) (830, 1.29600475051222796541e-01) (831, -1.22978751115322665344e-01) (832, 1.40930179698826613804e-02) (833, -9.46818668817135528082e-02) (834, 1.16880279001847345310e-01) (835, 8.61678536836608249816e-02) (836, 9.11224282566370363812e-02) (837, 7.51210377807839529973e-02) (838, 1.75823652601807683959e-01) (839, 2.64118090078317491187e-01) (840, 3.78687885878168095655e-01) (841, 2.14950673631261024443e-01) (842, -9.39802156387645887259e-03) (843, 6.45749426330064456303e-03) (844, 2.15311669275578487781e-01) (845, -2.56427238844345595226e-01) (846, 1.65645066048452194174e-01) (847, 3.87912765586463257825e-03) (848, 1.15426576596991833923e-01) (849, 2.82731703356807528849e-01) (850, -2.27767151502383732864e-02) (851, -1.26246400757767541362e-02) (852, 1.47193808799935821341e-01) (853, 4.06360461032565303818e-02) (854, 4.79489608216581778000e-02) (855, 6.95934013231698121379e-04) (856, -3.60359084000567639339e-02) (857, -6.26719102234876423996e-02) (858, -2.39963192639320622990e-02) (859, -1.22666311963791491157e-01) (860, -7.09740760145138871451e-02) (861, -6.84658183986546764466e-02) (862, -1.58022692964386007874e-01) (863, -9.08382358790988803099e-02) (864, 8.03609591361604813642e-02) (865, 3.10927311662204768072e-02) (866, -1.91049027216398138729e-02) (867, -6.82707855754962206207e-02) (868, -1.30345961024720347066e-01) (869, 1.66112934612519663746e-02) (870, -9.18641730045653137626e-02) (871, -1.33817543373644459725e-01) (872, 1.00241679695758367785e-01) (873, -8.61841595003598887059e-02) (874, -9.59536121915580686448e-02) (875, -2.15473555400733374210e-02) (876, -1.21140229958238976327e-01) (877, 1.03036630847438345771e-01) (878, -4.03196752187308937732e-01) (879, 6.03089971055897622332e-02) (880, 7.15244725413834159244e-02) (881, -9.97383290659792087762e-02) (882, 5.47373196969048389504e-02) (883, 2.78840828058527723243e-01) (884, 2.82700246186552872629e-01) (885, 1.64927901415598071599e-01) (886, 9.64973287020516184986e-02) (887, 1.45202294809560917416e-02) (888, 5.12539359903197710988e-02) (889, 2.01726257867321595585e-01) (890, 1.80527939939534809444e-01) (891, -1.99017230647529942689e-02) (892, 1.32591075168917466032e-01) (893, 1.33504806870189340895e-01) (894, -1.23483964056649561658e-01) (895, 5.95678970480250438713e-02) (896, 3.46588703270293580633e-03) (897, -1.65493891370088685999e-01) (898, -2.54939780576821983793e-01) (899, -8.03617699717063121989e-02) (900, 6.17437369387372064766e-02) (901, -2.70201675875601267374e-02) (902, 1.09761674375071643928e-02) (903, 1.83964815232900397168e-01) (904, -2.20631682167673828787e-02) (905, 2.48093829038814772669e-01) (906, 1.66375244283645334908e-01) (907, 5.03550092274027139005e-01) (908, 1.56512462358375875615e-01) (909, 6.81770722665389350414e-02) (910, 2.44850162487601441530e-01) (911, 1.37181386371247465705e-01) (912, 1.26767810166425548557e-01) (913, 1.95747967155261992644e-01) (914, 4.59249164923979866226e-02) (915, 6.89932442901920479211e-03) (916, 1.01202762311034658027e-01) (917, -2.16256319675076774667e-02) (918, 1.08695820892027963933e-01) (919, 5.66402571547052688383e-02) (920, -8.20669973356089460514e-02) (921, 1.93413143806868588481e-02) (922, 9.74330632575742261459e-02) (923, 1.00683171600925464029e-01) (924, -2.67732133200544817481e-03) (925, 9.88132698823690480694e-02) (926, -2.71580055321892551573e-03) (927, 1.01135910405055942651e-01) (928, -5.09629045857808507525e-02) (929, 6.05807443256953237487e-02) (930, 2.32490848963438460906e-02) (931, -1.33076674509237623256e-02) (932, -3.93599097848023449621e-05) (933, 3.81348620224731815753e-02) (934, 1.10897460046249549115e-01) (935, -1.11597500399342672295e-01) (936, 1.03403250256521948153e-02) (937, -3.79177409169181422327e-03) (938, 1.27623592491160786633e-01) (939, -3.86185439930944868214e-02) (940, -2.72986164562267000222e-03) (941, 5.45110488296728021296e-02) (942, 7.19504844882646321658e-02) (943, 7.00305541288120114718e-02) (944, 2.34318220793771098132e-01) (945, 2.01254211724626111413e-02) (946, -6.18592588731896805831e-02) (947, 7.19186851644711550025e-02) (948, 7.35917482962076124897e-02) (949, 2.35082785411916850293e-01) (950, 1.23249292130793802746e-01) (951, 1.01146768287040195178e-01) (952, 7.09481116160411706684e-02) (953, 2.09977064168015786771e-01) (954, 8.88035115296138405361e-02) (955, 7.65929357026107343609e-02) (956, 2.02952402400155385020e-01) (957, 1.55132428440488884247e-01) (958, -7.51475612502559425776e-02) (959, -6.19099047986053988013e-02) (960, 3.45972009580138017970e-02) (961, 2.66940933822010062482e-01) (962, -1.05110389871126835848e-01) (963, -1.31066185600008711098e-01) (964, 2.40110635202124347853e-02) (965, -1.98527586313131915174e-01) (966, 5.26146998224329282001e-02) (967, -2.27098958696122614487e-02) (968, -5.35683258500366868415e-02) (969, 8.59936244002501570804e-02) (970, 1.04207369439101291131e-01) (971, -1.43923188891975657039e-02) (972, -6.27964684278287110786e-02) (973, -1.63407128877579882476e-01) (974, 2.32696757174458909723e-02) (975, -1.82581616095525423038e-02) (976, -1.95406258120749028173e-02) (977, -2.85959546061986369381e-01) (978, 2.12880632414200752014e-03) (979, 1.50252669744747380243e-01) (980, -6.87185520684457512575e-02) (981, 1.19766794517872799536e-02) (982, 2.94974284809411124719e-01) (983, -3.30835309267685340195e-01) (984, 1.49052091251498444735e-02) (985, -6.76698127990635681095e-03) (986, 7.87337752665885973191e-03) (987, 4.18796450335428144252e-02) (988, 5.14128117117638658295e-02) (989, -5.22628129030360058516e-02) (990, -2.56034886167167650972e-02) (991, 1.08476191969247653946e-01) (992, -2.15054424154190820806e-01) (993, 1.48061158983236379472e-01) (994, 3.33564812546071620680e-01) (995, -3.83750509323247057658e-01) (996, 7.22127271223599181971e-02) (997, 2.51408459240751613883e-01) (998, -3.81037548988866769939e-02) (999, -1.81074656807581751972e-01) (1000, 2.97591693692336844990e-01) (1001, -3.25825774647506227755e-01) (1002, -1.70464279542914431964e-01) (1003, 2.04380151885864225214e-01) (1004, -2.76288809165060877948e-01) (1005, -6.70410474439312314976e-02) (1006, 4.99133143430954620556e-02) (1007, 2.12925730608544805378e-01) (1008, -2.78225339481598499258e-01) (1009, 1.16147642913548343468e-01) (1010, 1.25526721348070247064e-01) (1011, -2.51496804869610623978e-01) (1012, 5.43752853109100431350e-02) (1013, -2.48236373623364592333e-01) (1014, 3.18826519635658639507e-02) (1015, 2.18710261637545505531e-01) (1016, -2.33006375065838489125e-01) (1017, -1.18441903145725339203e-02) (1018, 6.14493036385887758666e-02) (1019, -1.96090400532693415192e-01) (1020, 1.33482592001074623633e-01) (1021, 2.19015684727883241933e-01) (1022, -1.54166816899028807919e-01) (1023, 6.72279597028237752010e-02) (1024, 3.08861111134300980741e-01) (1025, -2.93575689516988036498e-01) (1026, -8.40926869299646190248e-02) (1027, -9.19262831352933985733e-04) (1028, -1.70129658738403466423e-01) (1029, 2.15697952403407777755e-01) (1030, -1.07104995428629307108e-01) (1031, -9.62667717752403034881e-02) (1032, 8.66202666342748839323e-02) (1033, -1.07959833589171202983e-01) (1034, 7.29294146288103906084e-02) (1035, -5.06044864810494335328e-03) (1036, -1.33592215535954267347e-01) (1037, -1.95221390071212662354e-02) (1038, 2.30487608640926947001e-02) (1039, 6.97103390799404254441e-02) (1040, 4.69267799300484983460e-02) (1041, -2.46435316051373913548e-02) (1042, 8.39288544711643963447e-02) (1043, 8.84980089735659392058e-02) (1044, -6.98905116174465268486e-02) (1045, 4.22316399243211348935e-01) (1046, 1.13631046614023414887e-01) (1047, 9.56985736312630785871e-02) (1048, -1.48629425624336286571e-01) (1049, 1.29714824413405926951e-01) (1050, 1.45382771924162323973e-01) (1051, 1.48763275263382233060e-01) (1052, 1.17470746385599081330e-01) (1053, 1.74968996457766229335e-02) (1054, -1.70198010975338353754e-03) (1055, 2.15816747569030437104e-01) (1056, 5.92849465698133265557e-02) (1057, 3.79747156224160692384e-02) (1058, 1.44153844297217725856e-01) (1059, 7.55340253948685869112e-02) (1060, -7.88724297587719974656e-02) (1061, -8.31875601232679451336e-02) (1062, -3.83897824403338638888e-02) (1063, -5.01696167121940244521e-03) (1064, -1.10834299033389635514e-01) (1065, -5.94804447487982182463e-02) (1066, -2.74441542103991617529e-02) (1067, -4.51920867021483665948e-02) (1068, -1.44997355150430534861e-03) (1069, 2.86959871703489702299e-02) (1070, -3.23557124383506644616e-01) (1071, -8.71444712431218293514e-02) (1072, -8.65464062930219601988e-02) (1073, -1.82616859996424185653e-01) (1074, -6.52000166365162003856e-02) (1075, 1.58296608205959005167e-01) (1076, 1.75334604076780836701e-01) (1077, 7.42676286923740491819e-02) (1078, 7.56324897763290260322e-02) (1079, 1.32383937058013462229e-01) (1080, 8.71886912955847637186e-02) (1081, -6.25016629034196545545e-03) (1082, 9.06988046318952939595e-02) (1083, 2.77177908368645802006e-02) (1084, 3.01427335307791303964e-02) (1085, 5.81189316081035106665e-02) (1086, -4.71974488162942573677e-02) (1087, 7.28099782158985742164e-02) (1088, 3.00016294333058063104e-02) (1089, -3.02645407795450044341e-02) (1090, 6.15728759896612895530e-02) (1091, -7.19575696162573774650e-02) (1092, -5.97070025351626593180e-02) (1093, -8.12114811975965800173e-02) (1094, 4.71037799927962776148e-03) (1095, -4.71871071367578193145e-02) (1096, -6.07721200964848537462e-02) (1097, -1.64613361242858136091e-01) (1098, -1.09714810062637620203e-03) (1099, 1.77331279698279657697e-02) (1100, -5.13941054763781476900e-02) (1101, -7.06786240620102396148e-02) (1102, -1.05785778676620090266e-01) (1103, -1.40051780414175985889e-01) (1104, -5.24425935965441292197e-02) (1105, -3.18451425181986921831e-02) (1106, -1.07784927608411226774e-01) (1107, -7.87422810143851986675e-02) (1108, -3.79431201030599393742e-02) (1109, -1.66354334355769184484e-01) (1110, -1.29744835202224434445e-01) (1111, -6.79527598330455090414e-02) (1112, -1.46024024026924464925e-01) (1113, -1.47173663365002482806e-01) (1114, -3.44950166521219292459e-02) (1115, 1.10088689010356496900e-01) (1116, 2.58065582176809471537e-01) (1117, 1.26624862277585431558e-01) (1118, -3.57546491079313993877e-02) (1119, 9.60443359526869100407e-02) (1120, -6.90969243610306815828e-02) (1121, -1.54169235977745650024e-01) (1122, -7.10459867277602602487e-02) (1123, 3.78262831559489434707e-02) (1124, 8.72441370882870576020e-02) (1125, 1.12004364365109132518e-01) (1126, 8.53087886320778726601e-02) (1127, 9.71005000163102927058e-02) (1128, -2.05214064079196623069e-02) (1129, -1.74528487547462640705e-01) (1130, 6.83685997786455529335e-02) (1131, -1.66650643603555748129e-01) (1132, 3.30249993244562320416e-02) (1133, 2.84633813465353269212e-01) (1134, -1.57565398860971594974e-01) (1135, -3.68724916816943970588e-01) (1136, 7.60095724384880766511e-02) (1137, 1.44723650592001901183e-01) (1138, 9.60286602614335849104e-02) (1139, 7.96186739244055113884e-02) (1140, 6.20118191431768342459e-02) (1141, -1.56627141224948474019e-01) (1142, -6.02074990145395408381e-02) (1143, 8.81365183582971806198e-02) (1144, 1.45489682484438470622e-01) (1145, -1.16479943771952698661e-02) (1146, 1.93614949787541436310e-02) (1147, -6.97916705710261223161e-03) (1148, -4.69233538759565929621e-02) (1149, 3.15153496317670811511e-02) (1150, 2.83927924899991801500e-01) (1151, 1.55429223798440541149e-01) (1152, -1.05557840393914817434e-01) (1153, 1.08218056872254782264e-02) (1154, -2.80406204538460150644e-02) (1155, 1.52541495345259493777e-02) (1156, -1.58157031931990509077e-02) (1157, 2.47559640000164837836e-01) (1158, -1.41129724923381050239e-01) (0, -8.54330476047944070705e-02) (1, -1.80212057664145608449e-01) (2, 7.78781690465548126490e-02) (3, -2.13498484362077273202e-01) (4, 1.15346056082643380614e-01) (5, 1.55740674949214813472e-01) (6, -6.28582855778169469207e-02) (7, -9.56609929873553227475e-02) (8, -5.97694904670562215943e-02) (9, -9.39188555101705957462e-02) (10, -1.82279069867670347194e-02) (11, -1.55203985755614837228e-01) (12, 9.14797005731893403402e-02) (13, 2.31330460110204874646e-02) (14, 1.43854003074459224631e-01) (15, 5.27775314175158855035e-02) (16, -7.95874836828053960902e-02) (17, -8.69665198873058875595e-02) (18, -7.68739043344515010636e-02) (19, -6.48762351426990652170e-02) (20, 4.98316437005996704102e-03) (21, 3.18410953924255502034e-02) (22, 3.24912036398885828437e-01) (23, -1.26546792973850186215e-01) (24, 1.05801562565796480886e-01) (25, 1.39581032569527446752e-01) (26, 4.39103570497852480070e-01) (27, 3.40656124971617513264e-01) (28, 3.51450238248468049829e-01) (29, 5.26984008172862953417e-03) (30, -2.52375039207341222980e-02) (31, -4.74882836388627105340e-01) (32, -4.04084831803484922919e-01) (33, 1.65436077111718454757e-01) (34, 1.39974208794379467724e-01) (35, -2.21373824330294122209e-01) (36, -1.53218526837146484798e-01) (37, 1.69357990476503190991e-02) (38, 1.81995497894368418734e-01) (39, 1.07749954987065771350e-01) (40, 6.65464433699248514298e-02) (41, -1.13270769336614018225e-02) (42, -1.05869677677726634069e-01) (43, 3.55334186300293800032e-02) (44, -9.75217168268225353955e-02) (45, 2.58986518078466787518e-01) (46, -6.66373650078316837053e-02) (47, 8.63909685663536430766e-02) (48, 2.98424267909900342577e-01) (49, 7.41563428170055466415e-02) (50, -2.47927303444057806070e-01) (51, 8.85411901922919936103e-02) (52, 1.00112943052444433589e-01) (53, -2.49122565444619449571e-02) (54, -6.57748732371521011020e-02) (55, -1.06914652099781206512e-02) (56, 3.94700169402770681404e-02) (57, -6.94119778890405908500e-02) (58, 2.44410519293651873340e-01) (59, 1.97874961928539594425e-01) (60, 3.70633031599865991890e-02) (61, -1.54731133378647085774e-02) (62, -1.96930893168314635755e-01) (63, 1.19277202897327044839e-01) (64, -2.36344600187735370822e-01) (65, 3.92983036501896310089e-02) (66, 1.41663315095323545656e-02) (67, 1.42512588598625949965e-01) (68, 2.51199765000092611889e-01) (69, 2.41819070130828650544e-01) (70, -3.22764044375226655248e-02) (71, -9.69310932723842083591e-02) (72, 5.16985768980957743901e-02) (73, 1.57073853155894727074e-01) (74, 5.47659832241994964930e-02) (75, 5.66563345354118355623e-02) (76, 1.47180286289073005562e-02) (77, -2.61094372937507278321e-02) (78, 2.13719353909364112587e-01) (79, 1.95559312159763187822e-01) (80, 1.90525227405421881954e-01) (81, 1.09168263891155331580e-01) (82, -4.04683583374438382574e-01) (83, -1.52333766906436102184e-01) (84, -2.13134576302236811163e-01) (85, 8.94367606448005954267e-03) (86, -9.29526163857085675757e-03) (87, 1.07898042529386256616e-01) (88, 1.16260229453666416588e-01) (89, 3.24281661868115397840e-02) (90, 2.21997614590262841439e-02) (91, -2.10608416955642210877e-02) (92, -4.04611563834002749274e-02) (93, 1.89253219266308008936e-03) (94, -1.86646977183612505780e-01) (95, 1.75410212736466647465e-02) (96, -1.00687295146320937578e-01) (97, -8.58922143544767896506e-02) (98, 9.78757772935441722195e-02) (99, 1.29642191494242858818e-01) (100, -3.83346398446281775088e-03) (101, -2.36792255390574440943e-01) (102, -2.09997179377139076006e-02) (103, 8.68761187481771890440e-02) (104, -1.65007515987946329350e-01) (105, 1.53769849437391525893e-01) (106, 4.89403620566348854237e-02) (107, 9.83513755123399668889e-02) (108, 1.60440925914374171724e-01) (109, 1.30500676916038924752e-02) (110, 4.39619204478524927548e-02) (111, -1.98330369794429937913e-02) (112, 1.48640217651400341481e-01) (113, 1.55038489417510833013e-01) (114, 3.25482650662323735880e-02) (115, 8.14241348164767148043e-02) (116, 1.52142548835960927933e-01) (117, -1.53047936851634119870e-01) (118, 2.86542540434650161441e-01) (119, 1.34439350777281474425e-01) (120, -3.35569419221525624963e-02) (121, -1.09093578329696003215e-01) (122, -2.59310339195611971874e-01) (123, -1.57780663476313448568e-01) (124, -1.47561070954488442186e-02) (125, 7.75495963746666294725e-02) (126, -2.22265660196385189673e-01) (127, 1.81392638364832742282e-01) (128, 2.93489854203736744154e-01) (129, 2.87407737097243431990e-01) (130, -1.16288271489850145168e-01) (131, -1.72565626455186499344e-01) (132, -2.75444389465017980267e-01) (133, 1.18410504495539734005e-01) (134, -2.84286503979959026545e-01) (135, -8.68912614666438043454e-03) (136, 1.99190965577035167255e-01) (137, -1.26545566503280471071e-01) (138, 3.01158165419382672923e-01) (139, 2.05230935565682254262e-01) (140, 5.76658929262922961834e-02) (141, 3.87789060916133264401e-03) (142, -2.49515280998803649914e-02) (143, 6.08951918363558677982e-02) (144, -3.16170763880985417060e-01) (145, 7.04255639150230261514e-02) (146, 1.68020081050701763914e-01) (147, -3.75605074785093570600e-02) (148, 1.33772190256661926977e-01) (149, 1.75163967521749563971e-01) (150, -1.72075322608341851893e-01) (151, -1.14396143133158295635e-01) (152, -8.36143498077378394262e-02) (153, 2.75314331150139757209e-01) (154, -7.03986566116860668085e-02) (155, -4.89830123010140117135e-02) (156, 1.10925674677694638404e-01) (157, -5.04441916859095229597e-02) (158, 1.14514319192263860914e-01) (159, 1.38780134424316137221e-01) (160, 2.35575512169485690173e-01) (161, -1.24777771328330761014e-01) (162, -1.51058741796650602973e-01) (163, 1.33731996372716682719e-01) (164, -1.67440844686209011627e-01) (165, 1.60228045488148201914e-01) (166, 9.37073071063676404924e-02) (167, -3.33793326514525215409e-02) (168, 7.64805423918865634469e-02) (169, 1.46802778407013279072e-01) (170, -3.75668456152062485431e-02) (171, -4.89204002575337956737e-02) (172, -9.32377644093936169822e-02) (173, 1.44348063478002580640e-01) (174, -1.81394630208366131052e-01) (175, 6.83553282859062361076e-02) (176, 2.34571429857629659699e-01) (177, -4.04236162787859620860e-01) (178, 4.28823228299173742073e-01) (179, 2.06707212017677610660e-01) (180, -1.14809008531962256083e-01) (181, -1.84576815104409958090e-01) (182, -1.69144679465933686635e-02) (183, -1.28291243587801001569e-02) (184, -8.84115834373629255749e-02) (185, 2.22511045791752515299e-01) (186, 5.42776234604459631439e-02) (187, 1.42297825354400997444e-01) (188, 7.94181614562341209318e-02) (189, 2.65030437314995537257e-01) (190, 4.80910122599241263153e-02) (191, -1.33539641354038340904e-01) (192, 1.77526857620799838333e-01) (193, 2.94151165790227098196e-01) (194, -2.58136885752741629396e-01) (195, -1.32259189107940960950e-01) (196, 4.07459060590562693882e-01) (197, -8.93546115732315876512e-02) (198, 1.99791268276098943346e-01) (199, 3.76229845592089551243e-01) (200, -1.51830879622399411710e-01) (201, -2.06380851197159959076e-01) (202, 8.41851933691136616877e-03) (203, 2.11132244853588862954e-01) (204, -1.17428311147218494837e-01) (205, 2.16433306611785808427e-01) (206, 1.26093791199335281128e-01) (207, 1.41510129640765702774e-01) (208, 4.73496996155054264421e-02) (209, -1.03143065340398173979e-01) (210, 1.23614548275745778083e-01) (211, 6.77727221222353959362e-02) (212, 9.92289639057561817514e-02) (213, 2.57435404982242432848e-01) (214, -1.00708074484110621238e-01) (215, -1.44665675880870564507e-01) (216, 1.61083526197850407380e-01) (217, -5.08465329089555911901e-02) (218, 2.23324344973883981424e-01) (219, 4.43273394160695222155e-01) (220, 1.28819009294101095853e-02) (221, -2.24914392912537092206e-01) (222, -1.27680788609877693407e-01) (223, 2.18866437318753048746e-01) (224, -1.29223248669998486138e-01) (225, 1.44947435991127238780e-02) (226, -7.00722704054194912501e-04) (227, 1.51012469625197875978e-01) (228, -1.74786417135778082699e-01) (229, -4.74250887771033025064e-02) (230, -1.44972476293296625993e-01) (231, -1.05598699816097901794e-01) (232, 1.13735279441671638390e-01) (233, 2.25502139617130309412e-01) (234, -3.77076001337467603403e-01) (235, 1.86164616971011658009e-02) (236, 1.96973392360300925130e-01) (237, 1.62359158385072588349e-01) (238, 3.60353325590929973732e-01) (239, 3.88950448832185047277e-01) (240, -1.02583561985264103134e-02) (241, 2.42470006147283458076e-02) (242, -3.97638418720541800266e-02) (243, 1.72841327619075807442e-01) (244, -1.79026656112775822693e-01) (245, 1.69813790001102637994e-01) (246, -9.28571626608728876995e-03) (247, 1.83256478836799907572e-02) (248, 1.35884468409113057241e-01) (249, 7.67563611046173099872e-02) (250, -6.12362788533830290638e-02) (251, 1.15231954334114414240e-01) (252, 1.66694678123230133338e-01) (253, 2.97460929256307238244e-01) (254, -1.68790144697213984060e-01) (255, -2.37093513895082416698e-03) (256, 3.50714681728358290691e-01) (257, -1.71624376233068892672e-01) (258, 4.08360244071696132373e-01) (259, 5.51952503491183632534e-01) (260, -1.08450655121642577927e-01) (261, 2.84523348040777342149e-02) (262, -8.95800042653420447447e-03) (263, 2.15980980418239237872e-01) (264, -2.92163689882630639438e-01) (265, -5.45342052376033420424e-02) (266, -3.40941613061867612733e-02) (267, -2.94664075498776234854e-03) (268, 8.96694497362452158651e-02) (269, 1.12550716437280311222e-03) (270, 4.41240176707473428369e-03) (271, -1.28695474040075530375e-01) (272, 1.36950931096687766875e-01) (273, 3.16876977987830266148e-01) (274, -4.71874449962218556198e-01) (275, 8.29829031295850477745e-02) (276, 7.35071198124029545617e-01) (277, 2.02117403877646151233e-01) (278, 5.61704149109952255436e-01) (279, 1.24767673913338139613e+00) (280, -6.69196404724166499234e-02) (281, -1.07140590635570898820e-02) (282, 1.29315600720422696490e-01) (283, 5.42120726528068752614e-01) (284, -2.88387460760359204404e-01) (285, 1.89565412509361097548e-01) (286, 3.34957693263922162696e-01) (287, 3.31227771080726152153e-01) (288, -2.40374346582518078064e-01) (289, -2.47086025665865405276e-01) (290, 2.13558980755399231699e-02) (291, 4.96455954147584019309e-02) (292, 2.53373073628387956990e-01) (293, 1.27770644136276118052e-01) (294, -1.22053173093280301065e-01) (295, 1.90592625036727802978e-01) (296, 2.56768190544571395240e-01) (297, -2.59519027550152922568e-02) (298, 3.91888643765855748669e-01) (299, 5.73494709121120105344e-01) (300, -1.31843370137907867079e-01) (301, -1.64718019007864202585e-01) (302, -8.81524172361726754410e-02) (303, 2.67602908152502538819e-01) (304, -3.11318566679544328490e-01) (305, 2.35870434945627954759e-01) (306, 3.30603672350319288675e-01) (307, 2.08635408414008266531e-01) (308, 2.54530119400487531145e-01) (309, 1.14455679991756487102e-01) (310, -2.80380287453516896523e-01) (311, -1.44310369242773239851e-01) (312, 3.68147983082829340432e-03) (313, 1.86066847682680058806e-01) (314, -1.28769852953676045004e-01) (315, 1.85834920117712798504e-01) (316, 8.93451525590192030535e-02) (317, -8.37660209115030987559e-03) (318, 2.10988357683409677445e-01) (319, 3.45260925154055098307e-01) (320, -2.83811530922496724205e-02) (321, -1.77386864665391635887e-01) (322, -1.96421918566050651700e-01) (323, 4.29559616368270918985e-02) (324, -1.06568666778553824970e-01) (325, -1.14276339786084271677e-01) (326, 1.26968555244873465560e-01) (327, 1.63316978763586029277e-01) (328, -8.11693646807017943345e-02) (329, 7.72777405633531949691e-02) (330, -3.41501344815867746707e-01) (331, -1.85035013028913009059e-01) (332, 1.99208305252326807466e-02) (333, 5.19118983603483671874e-02) (334, -2.35875893143425552356e-01) (335, -1.78056058873529432507e-01) (336, 1.26613878473233409938e-01) (337, -2.99301650073868497071e-02) (338, 5.05827584299160082359e-01) (339, 6.07321075791299236357e-01) (340, -1.31827660163977872232e-01) (341, -1.60449161707121035203e-01) (342, -4.46904986134221901550e-02) (343, 1.45873955346891931439e-01) (344, -8.45925908126235470696e-02) (345, -7.73400828058516537356e-02) (346, 6.95424845220334042484e-02) (347, 1.64486687271595738435e-01) (348, -1.17281775455257263746e-02) (349, 6.65701547391964014444e-03) (350, -1.05099831809704002961e-01) (351, -1.44051146174499045127e-01) (352, -2.00377952741717935137e-01) (353, 1.69913735241754626504e-01) (354, -8.82154099076341569052e-02) (355, -5.83609762374150339848e-02) (356, 2.40049005251955688278e-01) (357, 1.45608180562612626874e-01) (358, 4.29996516126101624433e-01) (359, 6.94537883327369987008e-01) (360, -1.76005884645656675291e-02) (361, -2.21195799460507658285e-01) (362, 1.98408306999390354752e-01) (363, 4.49575427617160017224e-01) (364, -3.00861963300543377997e-01) (365, 1.78797998609690228511e-01) (366, 4.66947321558150371668e-02) (367, 2.33177047968532225042e-01) (368, 1.24590699581307737254e-01) (369, 1.13800284906937054785e-01) (370, -2.39042835165272582465e-01) (371, -2.66161236572669213096e-01) (372, 9.78535799904655112513e-02) (373, 1.53112537924344926932e-01) (374, -1.63969966599206373736e-01) (375, 5.81815964337351401725e-02) (376, 4.36515788101810436883e-02) (377, -1.00249609441642093498e-03) (378, 2.83091624546786824190e-01) (379, 9.42146961019816875371e-02) (380, 3.65246598232394914518e-02) (381, -2.21730421619715872827e-01) (382, -2.40752109741387054775e-01) (383, 2.13792257691340414905e-01) (384, -3.54626165870405074543e-01) (385, 3.91530907480392431630e-02) (386, 5.69592711522508426958e-02) (387, 2.59022916994082530451e-01) (388, 1.22762245311443460305e-01) (389, 3.10156452174100372154e-01) (390, -1.63529854968578525209e-01) (391, 6.16698582535751133049e-02) (392, -7.23158000048314542063e-02) (393, -1.66638520141261549379e-02) (394, -3.27663029403538544337e-02) (395, -4.49054099506281528820e-02) (396, -5.63619844955656340568e-02) (397, -3.27173860789395809512e-01) (398, 4.36368523423627585611e-01) (399, 1.89457116970889932750e-01) (400, -8.14390978464864662145e-02) (401, -3.38938142527412111793e-02) (402, -2.47540359249494579252e-01) (403, 1.04670931086489116257e-01) (404, -1.59073340281087716175e-01) (405, 4.41155425445549087549e-02) (406, -9.19707881470352150988e-02) (407, 2.17180566107621764171e-02) (408, 2.13978446777293412895e-01) (409, 2.56903670822660301631e-01) (410, -7.79741214516166819548e-02) (411, -6.81954514034248809873e-02) (412, -2.14060823680757905674e-01) (413, 4.54860335896623349528e-02) (414, -4.09675055441181545923e-02) (415, -4.39471237272893375247e-02) (416, 1.12540577216102874458e-01) (417, 1.02309218990027289697e-01) (418, 2.87107852949550823585e-01) (419, 2.80035818156634697118e-01) (420, 8.03793876570775001067e-02) (421, 2.82234918655883300354e-02) (422, -2.14320671870265655468e-01) (423, -7.72484725443326192273e-02) (424, 1.53545795589592141278e-02) (425, 2.52501621298802728099e-02) (426, 2.00144704709956412769e-02) (427, 1.45149390227083840976e-01) (428, 1.49874724777111972829e-01) (429, 4.22307430145427015189e-02) (430, -2.67308851675704117756e-01) (431, -1.94958590822332189507e-01) (432, -1.28689737640315715606e-01) (433, 7.11912899024720186025e-02) (434, -3.32195599683254919054e-02) (435, -5.32101110895374165843e-02) (436, -4.22787295424892836659e-02) (437, -3.12803119666230089457e-01) (438, 3.51069569890118893252e-01) (439, 2.23452269219824972701e-01) (440, 1.11334129260960951191e-01) (441, -1.57266860917755185723e-01) (442, -1.44242896479007509658e-01) (443, 5.82631858185230899067e-03) (444, -1.80756967652724254148e-01) (445, -7.36680453279084119372e-03) (446, 1.21965234937961075623e-01) (447, 2.07533039749074527114e-01) (448, 1.04768708818500672075e-01) (449, 1.07430768538523152555e-01) (450, -9.62146881456602508231e-03) (451, -9.98259486461217371289e-02) (452, 3.24906379306518153238e-02) (453, 4.06094962579532037239e-01) (454, 3.38432651855352234493e-02) (455, -9.42265234373139831670e-02) (456, 1.06591481735007920922e-02) (457, -2.75978211524728178627e-01) (458, 5.46830911561844268398e-01) (459, 1.16673718535793280449e-01) (460, -3.99876906739811202596e-02) (461, -3.08440673508716294623e-04) (462, -2.59776767079843984298e-01) (463, 8.27069330562516108474e-02) (464, -7.06516191281388455936e-02) (465, 3.04266725347577676741e-02) (466, -1.11801836259810105645e-01) (467, 2.07508316639617051980e-01) (468, 2.50958650567006114063e-01) (469, 1.39656029628318412161e-01) (470, -1.70935884089591261237e-01) (471, -1.98717959228867119270e-01) (472, -2.20384370339261836946e-01) (473, -4.03003367577596180449e-03) (474, 1.43522293527982930383e-01) (475, 5.12891652318864521565e-02) (476, 1.33933783088907576442e-01) (477, -2.85117112163999431029e-01) (478, 4.37087500057532607478e-01) (479, 6.97791835817958006061e-02) (480, 1.63528715169772402571e-02) (481, 9.10070650155222482525e-02) (482, -9.01245782335150930065e-02) (483, 4.88632800581515966409e-02) (484, -1.48599733313026119257e-03) (485, 7.12911472729519518632e-02) (486, -7.93011834812559490704e-02) (487, 8.48183113465977162049e-02) (488, 2.74970711139138179746e-01) (489, 2.58775768572077846663e-01) (490, -7.60060976969712809304e-02) (491, 3.17118639958212100716e-02) (492, -1.16449067606626655014e-01) (493, 3.06990713047432139948e-01) (494, 1.54608243080170560529e-02) (495, -1.67314579075738600888e-01) (496, 9.90283899804139944312e-02) (497, 2.33558885077308042710e-01) (498, 3.55155831754749962137e-01) (499, 1.33823636713731985992e-01) (500, 7.75408693997782921814e-02) (501, 