FANN_FLO_2.1
num_layers=3
learning_rate=0.100000
connection_rate=1.000000
network_type=0
learning_momentum=0.300000
training_algorithm=0
train_error_function=0
train_stop_function=0
cascade_output_change_fraction=0.010000
quickprop_decay=-0.000100
quickprop_mu=1.750000
rprop_increase_factor=1.200000
rprop_decrease_factor=0.500000
rprop_delta_min=0.000000
rprop_delta_max=50.000000
rprop_delta_zero=0.100000
cascade_output_stagnation_epochs=12
cascade_candidate_change_fraction=0.010000
cascade_candidate_stagnation_epochs=12
cascade_max_out_epochs=150
cascade_max_cand_epochs=150
cascade_num_candidate_groups=2
bit_fail_limit=3.49999999999999977796e-01
cascade_candidate_limit=1.00000000000000000000e+03
cascade_weight_multiplier=4.00000000000000022204e-01
cascade_activation_functions_count=10
cascade_activation_functions=3 5 7 8 10 11 14 15 16 17 
cascade_activation_steepnesses_count=4
cascade_activation_steepnesses=2.50000000000000000000e-01 5.00000000000000000000e-01 7.50000000000000000000e-01 1.00000000000000000000e+00 
layer_sizes=439 51 3 
scale_included=0
neurons (num_inputs, activation_function, activation_steepness)=(0, 0, 0.00000000000000000000e+00) (0, 0, 0.00000000000000000000e+00) (0, 0, 0.00000000000000000000e+00) (0, 0, 0.00000000000000000000e+00) (0, 0, 0.00000000000000000000e+00) (0, 0, 0.00000000000000000000e+00) (0, 0, 0.00000000000000000000e+00) (0, 0, 0.00000000000000000000e+00) (0, 0, 0.00000000000000000000e+00) (0, 0, 0.00000000000000000000e+00) (0, 0, 0.00000000000000000000e+00) (0, 0, 0.00000000000000000000e+00) (0, 0, 0.00000000000000000000e+00) (0, 0, 0.00000000000000000000e+00) (0, 0, 0.00000000000000000000e+00) (0, 0, 0.00000000000000000000e+00) (0, 0, 0.00000000000000000000e+00) (0, 0, 0.00000000000000000000e+00) (0, 0, 0.00000000000000000000e+00) (0, 0, 0.00000000000000000000e+00) (0, 0, 0.00000000000000000000e+00) (0, 0, 0.00000000000000000000e+00) (0, 0, 0.00000000000000000000e+00) (0, 0, 0.00000000000000000000e+00) (0, 0, 0.00000000000000000000e+00) (0, 0, 0.00000000000000000000e+00) (0, 0, 0.00000000000000000000e+00) (0, 0, 0.00000000000000000000e+00) (0, 0, 0.00000000000000000000e+00) (0, 0, 0.00000000000000000000e+00) (0, 0, 0.00000000000000000000e+00) (0, 0, 0.00000000000000000000e+00) (0, 0, 0.00000000000000000000e+00) (0, 0, 0.00000000000000000000e+00) (0, 0, 0.00000000000000000000e+00) (0, 0, 0.00000000000000000000e+00) (0, 0, 0.00000000000000000000e+00) (0, 0, 0.00000000000000000000e+00) (0, 0, 0.00000000000000000000e+00) (0, 0, 0.00000000000000000000e+00) (0, 0, 0.00000000000000000000e+00) (0, 0, 0.00000000000000000000e+00) (0, 0, 0.00000000000000000000e+00) (0, 0, 0.00000000000000000000e+00) (0, 0, 0.00000000000000000000e+00) (0, 0, 0.00000000000000000000e+00) (0, 0, 0.00000000000000000000e+00) (0, 0, 0.00000000000000000000e+00) (0, 0, 0.00000000000000000000e+00) (0, 0, 0.00000000000000000000e+00) (0, 0, 0.00000000000000000000e+00) (0, 0, 0.00000000000000000000e+00) (0, 0, 0.00000000000000000000e+00) (0, 0, 0.00000000000000000000e+00) (0, 0, 0.00000000000000000000e+00) (0, 0, 0.00000000000000000000e+00) (0, 0, 0.00000000000000000000e+00) (0, 0, 0.00000000000000000000e+00) (0, 0, 0.00000000000000000000e+00) (0, 0, 0.00000000000000000000e+00) (0, 0, 0.00000000000000000000e+00) (0, 0, 0.00000000000000000000e+00) (0, 0, 0.00000000000000000000e+00) (0, 0, 0.00000000000000000000e+00) (0, 0, 0.00000000000000000000e+00) (0, 0, 0.00000000000000000000e+00) (0, 0, 0.00000000000000000000e+00) (0, 0, 0.00000000000000000000e+00) (0, 0, 0.00000000000000000000e+00) (0, 0, 0.00000000000000000000e+00) (0, 0, 0.00000000000000000000e+00) (0, 0, 0.00000000000000000000e+00) (0, 0, 0.00000000000000000000e+00) (0, 0, 0.00000000000000000000e+00) (0, 0, 0.00000000000000000000e+00) (0, 0, 0.00000000000000000000e+00) (0, 0, 0.00000000000000000000e+00) (0, 0, 0.00000000000000000000e+00) (0, 0, 0.00000000000000000000e+00) (0, 0, 0.00000000000000000000e+00) (0, 0, 0.00000000000000000000e+00) (0, 0, 0.00000000000000000000e+00) (0, 0, 0.00000000000000000000e+00) (0, 0, 0.00000000000000000000e+00) (0, 0, 0.00000000000000000000e+00) (0, 0, 0.00000000000000000000e+00) (0, 0, 0.00000000000000000000e+00) (0, 0, 0.00000000000000000000e+00) (0, 0, 0.00000000000000000000e+00) (0, 0, 0.00000000000000000000e+00) (0, 0, 0.00000000000000000000e+00) (0, 0, 0.00000000000000000000e+00) (0, 0, 0.00000000000000000000e+00) (0, 0, 0.00000000000000000000e+00) (0, 0, 0.00000000000000000000e+00) (0, 0, 0.00000000000000000000e+00) (0, 0, 0.00000000000000000000e+00) (0, 0, 0.00000000000000000000e+00) (0, 0, 0.00000000000000000000e+00) (0, 0, 0.00000000000000000000e+00) (0, 0, 0.00000000000000000000e+00) (0, 0, 0.00000000000000000000e+00) (0, 0, 0.00000000000000000000e+00) (0, 0, 0.00000000000000000000e+00) (0, 0, 0.00000000000000000000e+00) (0, 0, 0.00000000000000000000e+00) (0, 0, 0.00000000000000000000e+00) (0, 0, 0.00000000000000000000e+00) (0, 0, 0.00000000000000000000e+00) (0, 0, 0.00000000000000000000e+00) (0, 0, 0.00000000000000000000e+00) (0, 0, 0.00000000000000000000e+00) (0, 0, 0.00000000000000000000e+00) (0, 0, 0.00000000000000000000e+00) (0, 0, 0.00000000000000000000e+00) (0, 0, 0.00000000000000000000e+00) (0, 0, 0.00000000000000000000e+00) (0, 0, 0.00000000000000000000e+00) (0, 0, 0.00000000000000000000e+00) (0, 0, 0.00000000000000000000e+00) (0, 0, 0.00000000000000000000e+00) (0, 0, 0.00000000000000000000e+00) (0, 0, 0.00000000000000000000e+00) (0, 0, 0.00000000000000000000e+00) (0, 0, 0.00000000000000000000e+00) (0, 0, 0.00000000000000000000e+00) (0, 0, 0.00000000000000000000e+00) (0, 0, 0.00000000000000000000e+00) (0, 0, 0.00000000000000000000e+00) (0, 0, 0.00000000000000000000e+00) (0, 0, 0.00000000000000000000e+00) (0, 0, 0.00000000000000000000e+00) (0, 0, 0.00000000000000000000e+00) (0, 0, 0.00000000000000000000e+00) (0, 0, 0.00000000000000000000e+00) (0, 0, 0.00000000000000000000e+00) (0, 0, 0.00000000000000000000e+00) (0, 0, 0.00000000000000000000e+00) (0, 0, 0.00000000000000000000e+00) (0, 0, 0.00000000000000000000e+00) (0, 0, 0.00000000000000000000e+00) (0, 0, 0.00000000000000000000e+00) (0, 0, 0.00000000000000000000e+00) (0, 0, 0.00000000000000000000e+00) (0, 0, 0.00000000000000000000e+00) (0, 0, 0.00000000000000000000e+00) (0, 0, 0.00000000000000000000e+00) (0, 0, 0.00000000000000000000e+00) (0, 0, 0.00000000000000000000e+00) (0, 0, 0.00000000000000000000e+00) (0, 0, 0.00000000000000000000e+00) (0, 0, 0.00000000000000000000e+00) (0, 0, 0.00000000000000000000e+00) (0, 0, 0.00000000000000000000e+00) (0, 0, 0.00000000000000000000e+00) (0, 0, 0.00000000000000000000e+00) (0, 0, 0.00000000000000000000e+00) (0, 0, 0.00000000000000000000e+00) (0, 0, 0.00000000000000000000e+00) (0, 0, 0.00000000000000000000e+00) (0, 0, 0.00000000000000000000e+00) (0, 0, 0.00000000000000000000e+00) (0, 0, 0.00000000000000000000e+00) (0, 0, 0.00000000000000000000e+00) (0, 0, 0.00000000000000000000e+00) (0, 0, 0.00000000000000000000e+00) (0, 0, 0.00000000000000000000e+00) (0, 0, 0.00000000000000000000e+00) (0, 0, 0.00000000000000000000e+00) (0, 0, 0.00000000000000000000e+00) (0, 0, 0.00000000000000000000e+00) (0, 0, 0.00000000000000000000e+00) (0, 0, 0.00000000000000000000e+00) (0, 0, 0.00000000000000000000e+00) (0, 0, 0.00000000000000000000e+00) (0, 0, 0.00000000000000000000e+00) (0, 0, 0.00000000000000000000e+00) (0, 0, 0.00000000000000000000e+00) (0, 0, 0.00000000000000000000e+00) (0, 0, 0.00000000000000000000e+00) (0, 0, 0.00000000000000000000e+00) (0, 0, 0.00000000000000000000e+00) (0, 0, 0.00000000000000000000e+00) (0, 0, 0.00000000000000000000e+00) (0, 0, 0.00000000000000000000e+00) (0, 0, 0.00000000000000000000e+00) (0, 0, 0.00000000000000000000e+00) (0, 0, 0.00000000000000000000e+00) (0, 0, 0.00000000000000000000e+00) (0, 0, 0.00000000000000000000e+00) (0, 0, 0.00000000000000000000e+00) (0, 0, 0.00000000000000000000e+00) (0, 0, 0.00000000000000000000e+00) (0, 0, 0.00000000000000000000e+00) (0, 0, 0.00000000000000000000e+00) (0, 0, 0.00000000000000000000e+00) (0, 0, 0.00000000000000000000e+00) (0, 0, 0.00000000000000000000e+00) (0, 0, 0.00000000000000000000e+00) (0, 0, 0.00000000000000000000e+00) (0, 0, 0.00000000000000000000e+00) (0, 0, 0.00000000000000000000e+00) (0, 0, 0.00000000000000000000e+00) (0, 0, 0.00000000000000000000e+00) (0, 0, 0.00000000000000000000e+00) (0, 0, 0.00000000000000000000e+00) (0, 0, 0.00000000000000000000e+00) (0, 0, 0.00000000000000000000e+00) (0, 0, 0.00000000000000000000e+00) (0, 0, 0.00000000000000000000e+00) (0, 0, 0.00000000000000000000e+00) (0, 0, 0.00000000000000000000e+00) (0, 0, 0.00000000000000000000e+00) (0, 0, 0.00000000000000000000e+00) (0, 0, 0.00000000000000000000e+00) (0, 0, 0.00000000000000000000e+00) (0, 0, 0.00000000000000000000e+00) (0, 0, 0.00000000000000000000e+00) (0, 0, 0.00000000000000000000e+00) (0, 0, 0.00000000000000000000e+00) (0, 0, 0.00000000000000000000e+00) (0, 0, 0.00000000000000000000e+00) (0, 0, 0.00000000000000000000e+00) (0, 0, 0.00000000000000000000e+00) (0, 0, 0.00000000000000000000e+00) (0, 0, 0.00000000000000000000e+00) (0, 0, 0.00000000000000000000e+00) (0, 0, 0.00000000000000000000e+00) (0, 0, 0.00000000000000000000e+00) (0, 0, 0.00000000000000000000e+00) (0, 0, 0.00000000000000000000e+00) (0, 0, 0.00000000000000000000e+00) (0, 0, 0.00000000000000000000e+00) (0, 0, 0.00000000000000000000e+00) (0, 0, 0.00000000000000000000e+00) (0, 0, 0.00000000000000000000e+00) (0, 0, 0.00000000000000000000e+00) (0, 0, 0.00000000000000000000e+00) (0, 0, 0.00000000000000000000e+00) (0, 0, 0.00000000000000000000e+00) (0, 0, 0.00000000000000000000e+00) (0, 0, 0.00000000000000000000e+00) (0, 0, 0.00000000000000000000e+00) (0, 0, 0.00000000000000000000e+00) (0, 0, 0.00000000000000000000e+00) (0, 0, 0.00000000000000000000e+00) (0, 0, 0.00000000000000000000e+00) (0, 0, 0.00000000000000000000e+00) (0, 0, 0.00000000000000000000e+00) (0, 0, 0.00000000000000000000e+00) (0, 0, 0.00000000000000000000e+00) (0, 0, 0.00000000000000000000e+00) (0, 0, 0.00000000000000000000e+00) (0, 0, 0.00000000000000000000e+00) (0, 0, 0.00000000000000000000e+00) (0, 0, 0.00000000000000000000e+00) (0, 0, 0.00000000000000000000e+00) (0, 0, 0.00000000000000000000e+00) (0, 0, 0.00000000000000000000e+00) (0, 0, 0.00000000000000000000e+00) (0, 0, 0.00000000000000000000e+00) (0, 0, 0.00000000000000000000e+00) (0, 0, 0.00000000000000000000e+00) (0, 0, 0.00000000000000000000e+00) (0, 0, 0.00000000000000000000e+00) (0, 0, 0.00000000000000000000e+00) (0, 0, 0.00000000000000000000e+00) (0, 0, 0.00000000000000000000e+00) (0, 0, 0.00000000000000000000e+00) (0, 0, 0.00000000000000000000e+00) (0, 0, 0.00000000000000000000e+00) (0, 0, 0.00000000000000000000e+00) (0, 0, 0.00000000000000000000e+00) (0, 0, 0.00000000000000000000e+00) (0, 0, 0.00000000000000000000e+00) (0, 0, 0.00000000000000000000e+00) (0, 0, 0.00000000000000000000e+00) (0, 0, 0.00000000000000000000e+00) (0, 0, 0.00000000000000000000e+00) (0, 0, 0.00000000000000000000e+00) (0, 0, 0.00000000000000000000e+00) (0, 0, 0.00000000000000000000e+00) (0, 0, 0.00000000000000000000e+00) (0, 0, 0.00000000000000000000e+00) (0, 0, 0.00000000000000000000e+00) (0, 0, 0.00000000000000000000e+00) (0, 0, 0.00000000000000000000e+00) (0, 0, 0.00000000000000000000e+00) (0, 0, 0.00000000000000000000e+00) (0, 0, 0.00000000000000000000e+00) (0, 0, 0.00000000000000000000e+00) (0, 0, 0.00000000000000000000e+00) (0, 0, 0.00000000000000000000e+00) (0, 0, 0.00000000000000000000e+00) (0, 0, 0.00000000000000000000e+00) (0, 0, 0.00000000000000000000e+00) (0, 0, 0.00000000000000000000e+00) (0, 0, 0.00000000000000000000e+00) (0, 0, 0.00000000000000000000e+00) (0, 0, 0.00000000000000000000e+00) (0, 0, 0.00000000000000000000e+00) (0, 0, 0.00000000000000000000e+00) (0, 0, 0.00000000000000000000e+00) (0, 0, 0.00000000000000000000e+00) (0, 0, 0.00000000000000000000e+00) (0, 0, 0.00000000000000000000e+00) (0, 0, 0.00000000000000000000e+00) (0, 0, 0.00000000000000000000e+00) (0, 0, 0.00000000000000000000e+00) (0, 0, 0.00000000000000000000e+00) (0, 0, 0.00000000000000000000e+00) (0, 0, 0.00000000000000000000e+00) (0, 0, 0.00000000000000000000e+00) (0, 0, 0.00000000000000000000e+00) (0, 0, 0.00000000000000000000e+00) (0, 0, 0.00000000000000000000e+00) (0, 0, 0.00000000000000000000e+00) (0, 0, 0.00000000000000000000e+00) (0, 0, 0.00000000000000000000e+00) (0, 0, 0.00000000000000000000e+00) (0, 0, 0.00000000000000000000e+00) (0, 0, 0.00000000000000000000e+00) (0, 0, 0.00000000000000000000e+00) (0, 0, 0.00000000000000000000e+00) (0, 0, 0.00000000000000000000e+00) (0, 0, 0.00000000000000000000e+00) (0, 0, 0.00000000000000000000e+00) (0, 0, 0.00000000000000000000e+00) (0, 0, 0.00000000000000000000e+00) (0, 0, 0.00000000000000000000e+00) (0, 0, 0.00000000000000000000e+00) (0, 0, 0.00000000000000000000e+00) (0, 0, 0.00000000000000000000e+00) (0, 0, 0.00000000000000000000e+00) (0, 0, 0.00000000000000000000e+00) (0, 0, 0.00000000000000000000e+00) (0, 0, 0.00000000000000000000e+00) (0, 0, 0.00000000000000000000e+00) (0, 0, 0.00000000000000000000e+00) (0, 0, 0.00000000000000000000e+00) (0, 0, 0.00000000000000000000e+00) (0, 0, 0.00000000000000000000e+00) (0, 0, 0.00000000000000000000e+00) (0, 0, 0.00000000000000000000e+00) (0, 0, 0.00000000000000000000e+00) (0, 0, 0.00000000000000000000e+00) (0, 0, 0.00000000000000000000e+00) (0, 0, 0.00000000000000000000e+00) (0, 0, 0.00000000000000000000e+00) (0, 0, 0.00000000000000000000e+00) (0, 0, 0.00000000000000000000e+00) (0, 0, 0.00000000000000000000e+00) (0, 0, 0.00000000000000000000e+00) (0, 0, 0.00000000000000000000e+00) (0, 0, 0.00000000000000000000e+00) (0, 0, 0.00000000000000000000e+00) (0, 0, 0.00000000000000000000e+00) (0, 0, 0.00000000000000000000e+00) (0, 0, 0.00000000000000000000e+00) (0, 0, 0.00000000000000000000e+00) (0, 0, 0.00000000000000000000e+00) (0, 0, 0.00000000000000000000e+00) (0, 0, 0.00000000000000000000e+00) (0, 0, 0.00000000000000000000e+00) (0, 0, 0.00000000000000000000e+00) (0, 0, 0.00000000000000000000e+00) (0, 0, 0.00000000000000000000e+00) (0, 0, 0.00000000000000000000e+00) (0, 0, 0.00000000000000000000e+00) (0, 0, 0.00000000000000000000e+00) (0, 0, 0.00000000000000000000e+00) (0, 0, 0.00000000000000000000e+00) (0, 0, 0.00000000000000000000e+00) (0, 0, 0.00000000000000000000e+00) (0, 0, 0.00000000000000000000e+00) (0, 0, 0.00000000000000000000e+00) (0, 0, 0.00000000000000000000e+00) (0, 0, 0.00000000000000000000e+00) (0, 0, 0.00000000000000000000e+00) (0, 0, 0.00000000000000000000e+00) (0, 0, 0.00000000000000000000e+00) (0, 0, 0.00000000000000000000e+00) (0, 0, 0.00000000000000000000e+00) (0, 0, 0.00000000000000000000e+00) (0, 0, 0.00000000000000000000e+00) (0, 0, 0.00000000000000000000e+00) (0, 0, 0.00000000000000000000e+00) (0, 0, 0.00000000000000000000e+00) (0, 0, 0.00000000000000000000e+00) (0, 0, 0.00000000000000000000e+00) (0, 0, 0.00000000000000000000e+00) (0, 0, 0.00000000000000000000e+00) (0, 0, 0.00000000000000000000e+00) (0, 0, 0.00000000000000000000e+00) (0, 0, 0.00000000000000000000e+00) (0, 0, 0.00000000000000000000e+00) (0, 0, 0.00000000000000000000e+00) (0, 0, 0.00000000000000000000e+00) (0, 0, 0.00000000000000000000e+00) (0, 0, 0.00000000000000000000e+00) (0, 0, 0.00000000000000000000e+00) (0, 0, 0.00000000000000000000e+00) (0, 0, 0.00000000000000000000e+00) (0, 0, 0.00000000000000000000e+00) (0, 0, 0.00000000000000000000e+00) (0, 0, 0.00000000000000000000e+00) (0, 0, 0.00000000000000000000e+00) (0, 0, 0.00000000000000000000e+00) (0, 0, 0.00000000000000000000e+00) (0, 0, 0.00000000000000000000e+00) (0, 0, 0.00000000000000000000e+00) (0, 0, 0.00000000000000000000e+00) (0, 0, 0.00000000000000000000e+00) (0, 0, 0.00000000000000000000e+00) (0, 0, 0.00000000000000000000e+00) (0, 0, 0.00000000000000000000e+00) (0, 0, 0.00000000000000000000e+00) (0, 0, 0.00000000000000000000e+00) (0, 0, 0.00000000000000000000e+00) (0, 0, 0.00000000000000000000e+00) (0, 0, 0.00000000000000000000e+00) (0, 0, 0.00000000000000000000e+00) (0, 0, 0.00000000000000000000e+00) (0, 0, 0.00000000000000000000e+00) (0, 0, 0.00000000000000000000e+00) (0, 0, 0.00000000000000000000e+00) (0, 0, 0.00000000000000000000e+00) (0, 0, 0.00000000000000000000e+00) (0, 0, 0.00000000000000000000e+00) (0, 0, 0.00000000000000000000e+00) (0, 0, 0.00000000000000000000e+00) (0, 0, 0.00000000000000000000e+00) (0, 0, 0.00000000000000000000e+00) (0, 0, 0.00000000000000000000e+00) (0, 0, 0.00000000000000000000e+00) (0, 0, 0.00000000000000000000e+00) (0, 0, 0.00000000000000000000e+00) (0, 0, 0.00000000000000000000e+00) (0, 0, 0.00000000000000000000e+00) (439, 3, 5.00000000000000000000e-01) (439, 3, 5.00000000000000000000e-01) (439, 3, 5.00000000000000000000e-01) (439, 3, 5.00000000000000000000e-01) (439, 3, 5.00000000000000000000e-01) (439, 3, 5.00000000000000000000e-01) (439, 3, 5.00000000000000000000e-01) (439, 3, 5.00000000000000000000e-01) (439, 3, 5.00000000000000000000e-01) (439, 3, 5.00000000000000000000e-01) (439, 3, 5.00000000000000000000e-01) (439, 3, 5.00000000000000000000e-01) (439, 3, 5.00000000000000000000e-01) (439, 3, 5.00000000000000000000e-01) (439, 3, 5.00000000000000000000e-01) (439, 3, 5.00000000000000000000e-01) (439, 3, 5.00000000000000000000e-01) (439, 3, 5.00000000000000000000e-01) (439, 3, 5.00000000000000000000e-01) (439, 3, 5.00000000000000000000e-01) (439, 3, 5.00000000000000000000e-01) (439, 3, 5.00000000000000000000e-01) (439, 3, 5.00000000000000000000e-01) (439, 3, 5.00000000000000000000e-01) (439, 3, 5.00000000000000000000e-01) (439, 3, 5.00000000000000000000e-01) (439, 3, 5.00000000000000000000e-01) (439, 3, 5.00000000000000000000e-01) (439, 3, 5.00000000000000000000e-01) (439, 3, 5.00000000000000000000e-01) (439, 3, 5.00000000000000000000e-01) (439, 3, 5.00000000000000000000e-01) (439, 3, 5.00000000000000000000e-01) (439, 3, 5.00000000000000000000e-01) (439, 3, 5.00000000000000000000e-01) (439, 3, 5.00000000000000000000e-01) (439, 3, 5.00000000000000000000e-01) (439, 3, 5.00000000000000000000e-01) (439, 3, 5.00000000000000000000e-01) (439, 3, 5.00000000000000000000e-01) (439, 3, 5.00000000000000000000e-01) (439, 3, 5.00000000000000000000e-01) (439, 3, 5.00000000000000000000e-01) (439, 3, 5.00000000000000000000e-01) (439, 3, 5.00000000000000000000e-01) (439, 3, 5.00000000000000000000e-01) (439, 3, 5.00000000000000000000e-01) (439, 3, 5.00000000000000000000e-01) (439, 3, 5.00000000000000000000e-01) (439, 3, 5.00000000000000000000e-01) (0, 3, 0.00000000000000000000e+00) (51, 3, 5.00000000000000000000e-01) (51, 3, 5.00000000000000000000e-01) (0, 3, 0.00000000000000000000e+00) 
connections (connected_to_neuron, weight)=(0, 6.89949744210066190364e-02) (1, -6.79554612120435164169e-02) (2, 1.14353055839067019317e-01) (3, -1.52027882827268284727e-01) (4, 2.10063716975801423326e-02) (5, -1.08472811532167364573e-02) (6, 1.55983517406118894072e-02) (7, -1.40108831396971358213e-02) (8, -1.57341599973804500967e-02) (9, -3.78634378478222982656e-02) (10, 8.35187526034151389576e-03) (11, -1.31567747932125778121e-01) (12, 1.05957873876452640660e-01) (13, 1.41164686639283248892e-01) (14, -6.97050557447087965057e-02) (15, 8.22372723893048107602e-02) (16, 1.46224618955431515804e-02) (17, -3.51983752233964580780e-02) (18, 9.08769606461785617313e-02) (19, 7.43706004023858835428e-02) (20, 4.31867167353630065918e-02) (21, -1.49033838128419277025e-01) (22, 1.23298819688773902969e-01) (23, 3.09456385157156510513e-01) (24, 3.20215034089570638187e-01) (25, -2.54392552057988330372e-01) (26, -3.96204595502011702735e-01) (27, -1.97871985124043303639e-01) (28, -1.34988986536630328761e-01) (29, -2.98369011809519468770e-02) (30, -2.70534848178431597265e-01) (31, -2.76507005216735324282e-01) (32, 6.20465035165194273015e-02) (33, 5.50476377935812874465e-02) (34, -7.40953227452971763256e-02) (35, -6.68290838266156206338e-02) (36, 1.65622786967963897542e-01) (37, 2.55596614852418357877e-01) (38, 3.40537217741755993128e-01) (39, 4.06309872882650191528e-01) (40, -2.44952064875475494787e-01) (41, -8.67343856926938022722e-02) (42, -1.18624700772719721131e-01) (43, 4.58059451854000501680e-02) (44, -2.28258930769194429145e-01) (45, -2.67023593542313648908e-02) (46, 8.26804715626748426560e-02) (47, -3.38641705114170465940e-02) (48, -2.41322741087060220477e-02) (49, 3.80058539889822216695e-02) (50, -1.80130036838561172208e-02) (51, -1.49728736708872479239e-02) (52, -3.05485252507671257993e-02) (53, -7.92061645990012608287e-02) (54, -2.94745099305220525920e-01) (55, -2.06343105260244602528e-01) (56, 2.36310609165656271280e-01) (57, 1.63608340033129268098e-01) (58, 2.61173406556976031578e-02) (59, 4.08651505053901686892e-01) (60, -1.50370212246600659656e-01) (61, -1.43398251218375849536e-01) (62, -1.42225190064225487374e-01) (63, 1.75982825326717468029e-01) (64, -3.54213275682776773667e-01) (65, -1.44675976896218944079e-01) (66, 3.37675643854360649221e-02) (67, 1.34810669974102986801e-01) (68, -2.34405832057620971964e-01) (69, 3.08594405945332404817e-02) (70, -2.48620279167562213685e-02) (71, 8.06768250084897164953e-02) (72, -1.37512540755019535554e-01) (73, 1.50973089149001760134e-01) (74, -2.04245112835341913193e-01) (75, -1.73471258051183727100e-02) (76, 2.12309056314944122335e-01) (77, -5.37846884643287254102e-03) (78, -3.41926694322901500445e-02) (79, 3.25468052534047480595e-01) (80, 1.89080563536830309479e-01) (81, 3.86141599728434953276e-02) (82, -1.63848759873567090262e-01) (83, -6.28268784074243191728e-02) (84, -4.50825966147370416071e-02) (85, 3.37263748265220555944e-02) (86, -8.34902131777106176758e-02) (87, 1.72172650703784957393e-01) (88, -1.01839656331430189473e-01) (89, -3.91422746203105020868e-02) (90, -2.81504771097705719374e-01) (91, -1.80210941802076279883e-01) (92, -5.28038770985541847103e-02) (93, 1.81065498008749381498e-01) (94, -4.50112426603308968254e-01) (95, -1.80843157519945840761e-01) (96, 1.32214880424680492066e-01) (97, 3.23239412043771767724e-02) (98, 5.62469346198105416001e-02) (99, 4.93701187010628594898e-01) (100, -1.69347408554808454006e-01) (101, -1.81683436919097385243e-01) (102, -1.34769886677609557202e-01) (103, 2.71441704744770417879e-01) (104, -1.87772078723328905703e-01) (105, -1.38319438811648348642e-01) (106, 1.80278401605081267656e-01) (107, -2.45598036730988067422e-01) (108, -5.06643229200722938765e-02) (109, 5.59038314336043895558e-02) (110, -2.11384812052186316089e-01) (111, 3.41105171521037947580e-02) (112, 2.58564070408238847257e-03) (113, 2.76276259538927093651e-01) (114, -2.34601837526521916910e-01) (115, -4.58052590892659372557e-01) (116, 3.92055185276932838256e-01) (117, 2.75493402642336293606e-01) (118, 3.32062561688638846480e-01) (119, 8.23249955986870229907e-01) (120, -2.81982481103735693750e-01) (121, -1.08041780329765288449e-01) (122, 1.84414171570180029924e-01) (123, 6.12172716932186000705e-01) (124, -2.29181479969876367164e-01) (125, 1.49325917296338400719e-01) (126, 2.61536215639446401049e-01) (127, 2.31185499657108745053e-01) (128, -1.70346600608091564011e-01) (129, 1.69565142559319537163e-01) (130, -8.23798473258482294446e-02) (131, -5.16873861813402710186e-02) (132, 1.40597081015628733169e-01) (133, -1.12131590777861431252e-01) (134, -3.03549592046076899265e-01) (135, -1.89003990661754023295e-01) (136, 1.83401589796602759730e-01) (137, -1.29927528780320409446e-02) (138, -1.92661512546317137407e-01) (139, 4.26025532055655631325e-01) (140, -2.35772351001860475117e-01) (141, -6.40170236586751206787e-02) (142, 1.82286516129942538500e-01) (143, 3.92757842677837309964e-01) (144, -3.06526194766770565536e-01) (145, -1.63625158003842641197e-01) (146, 2.26112085243421162550e-01) (147, -9.35103565882537401954e-02) (148, -1.65257546413272227159e-01) (149, -8.65758416275026819291e-04) (150, -1.95383348904703463278e-01) (151, -5.79192549453611676968e-02) (152, -1.67062045027548608522e-02) (153, -1.05647192107094500813e-01) (154, -1.04341553234087183744e-01) (155, 1.73072360418414561423e-01) (156, -4.12727154816866087517e-02) (157, 6.59392997465825109193e-02) (158, 1.50733640487160730492e-01) (159, 3.29779985811818443509e-01) (160, -7.46931110800350128720e-02) (161, 5.71082559803896133710e-02) (162, 2.91865005698805857204e-01) (163, 2.19879492806733439769e-01) (164, -2.50491460856347325503e-01) (165, -7.66203792942793671106e-02) (166, 1.19571127760585677047e-01) (167, -4.77357708958296086954e-02) (168, -1.38512649277588301144e-01) (169, 1.48148796669849425189e-01) (170, -1.91044338291892101811e-01) (171, -2.14106746118501167775e-02) (172, 1.27910262554824516457e-01) (173, 1.33409828777828670665e-01) (174, -4.62054955012149159987e-02) (175, 2.31173434064309984981e-01) (176, 4.55677915617240691937e-01) (177, 2.59340289861175354869e-01) (178, 4.29032053239913002685e-01) (179, 8.68894705743107675922e-01) (180, 6.71011000672840605963e-03) (181, 2.47430877299271434477e-01) (182, 1.48888872411193223799e-01) (183, 1.36290741093592182587e-01) (184, -8.81090488400043114758e-02) (185, 5.68505753143269260130e-02) (186, 1.29885664568832916166e-02) (187, 5.90081963099022693831e-02) (188, -6.85254599188381136043e-02) (189, 2.73934278803438069350e-01) (190, -4.26819819524693722101e-01) (191, -5.23979535817024957844e-02) (192, -7.42639380522600034418e-02) (193, 1.35206506117058374017e-02) (194, -1.87564772638035531793e-01) (195, 1.01856029658328323118e-01) (196, 5.93303876499851265414e-02) (197, 3.36800531529685420740e-01) (198, 8.90932637506329332122e-03) (199, 2.40816019194254216096e-01) (200, -5.43531155547482963675e-02) (201, 1.19007402119420346853e-01) (202, 5.45148007744483270587e-02) (203, 1.35182109684629542246e-01) (204, -3.16587330183372872572e-01) (205, 1.24502675288193989656e-01) (206, 9.07440248787746706061e-02) (207, -3.63137717072939888996e-02) (208, -5.98517479672519697731e-02) (209, 1.04455095576399967228e-01) (210, -2.77865986950460164273e-01) (211, -1.70399165841941617992e-03) (212, 1.94625046455965955428e-01) (213, -7.32513715023792727488e-02) (214, -7.02289158223358238320e-03) (215, -1.63586604872374780095e-01) (216, -3.56854356709749784282e-02) (217, -1.01255918103521400098e-01) (218, -7.43910838737569107826e-02) (219, 2.48702721729858857239e-03) (220, -1.87893446591904433873e-01) (221, -1.84923321539234228328e-02) (222, -2.99834852689910523471e-02) (223, -1.23724886422609925418e-01) (224, 1.18454842153759246082e-01) (225, -9.77509277064705917049e-02) (226, 8.99635780657896261259e-02) (227, -1.52630188292260049465e-01) (228, -1.81390644757284807964e-02) (229, -1.47651211064286098235e-02) (230, -2.44183471248962044586e-02) (231, -4.64981608220619707650e-02) (232, 2.93166744358424533057e-02) (233, -2.53586163309711372718e-03) (234, -4.63711115700046229426e-03) (235, -2.33465599788148271687e-02) (236, 1.17137992039694303209e-02) (237, -5.14927598160720353948e-02) (238, -5.41190136696567680730e-03) (239, 4.49184145599752782108e-03) (240, -4.90572586019987627592e-02) (241, -9.90421948169522003980e-02) (242, -1.15063851236205591522e-01) (243, 1.52025083876806636068e-02) (244, -1.45486489584563033484e-01) (245, 1.74028960239381136343e-01) (246, -1.31857031166559390822e-01) (247, 7.09152597602639156449e-02) (248, -4.23102925518850994657e-02) (249, -9.71632073602032159121e-02) (250, -2.27027417064640163469e-01) (251, 1.42251591020312012636e-01) (252, -1.87847029111393754031e-01) (253, 5.29045358409082691620e-02) (254, -1.45402322149409873875e-01) (255, -1.35013253858958792719e-01) (256, -7.57663930693419362949e-02) (257, 3.85327587232090901237e-02) (258, -6.77921317234985026934e-02) (259, -9.64572673169726002573e-02) (260, 8.04774274157171176647e-02) (261, 1.63477076718964192681e-01) (262, -1.74185761495566387991e-01) (263, -4.06848315566049059059e-04) (264, 6.50832217060537399078e-03) (265, -1.57886209521620884955e-01) (266, -4.47428197766453761286e-02) (267, 2.42920268086334323332e-02) (268, 5.12834455598642352525e-02) (269, -1.03385278961670379338e-01) (270, 1.72870876248049809565e-01) (271, -6.01789471898041550268e-02) (272, -2.56865076765944444492e-01) (273, 2.82707368269234204927e-01) (274, 6.56348217280378065652e-02) (275, -3.51161815077425332188e-01) (276, 1.40797312157333598392e-01) (277, 5.99065185460053578614e-03) (278, -1.49278591775068497638e-01) (279, -1.16347383716302057999e-01) (280, -1.25803970248373864216e-01) (281, 5.88387467630070229441e-02) (282, -1.50708336235489737120e-01) (283, -7.81538683206959294836e-02) (284, -2.43476811961785728766e-02) (285, -1.24816417090352585473e-01) (286, -6.30205957195625471323e-02) (287, 7.11995762699141887531e-02) (288, 1.15689498126720802240e-01) (289, 2.11772594886742854259e-01) (290, 7.03202217230249060353e-02) (291, 2.36649762130389851311e-01) (292, -1.19422951799025275910e-01) (293, 1.28808889202113113770e-01) (294, 1.95183722468307424558e-01) (295, 2.04250272253535647415e-01) (296, -2.20108987269787940988e-02) (297, 3.22558145432481763182e-02) (298, 3.84234666748244857448e-01) (299, 6.65975166365379289690e-02) (300, -5.84029470281420895472e-02) (301, 8.90531923847289602625e-03) (302, -1.46125385976527549792e-01) (303, -2.19673233707617543420e-01) (304, -1.05574079467700185364e-01) (305, 6.01352506526844285406e-02) (306, -1.62179124479451486351e-01) (307, -5.24587635346943970127e-01) (308, -1.69756250932282998223e-01) (309, -2.73062368981100422882e-01) (310, -1.55118425880785282267e-01) (311, -1.53761581830912819058e-01) (312, 7.76276916081493351118e-02) (313, 9.40988402855636729694e-02) (314, -2.25063126333193086470e-01) (315, -8.73749341131569434715e-02) (316, -3.35226880572447538675e-01) (317, 5.31036887634263252145e-02) (318, 5.43841861227702602632e-02) (319, -8.95204041337794159672e-02) (320, -4.48435899853183578267e-02) (321, 6.58033777656559931701e-02) (322, -5.29183716608467372144e-02) (323, -1.99466983608447556708e-01) (324, 4.60406501353171765389e-02) (325, -1.33271206640739825477e-01) (326, 1.44443683414694185041e-01) (327, 7.55388422448918933627e-02) (328, 4.90723948571863879259e-03) (329, -1.99317593649193408600e-01) (330, -6.81159699719296463094e-02) (331, -9.58383420231049276694e-02) (332, -1.39166128983791687057e-01) (333, -1.75319976422265821903e-01) (334, -4.21641118083980054321e-02) (335, 1.91276726491071052960e-01) (336, 3.79283863863119907744e-02) (337, -2.87978385055915539481e-02) (338, -1.66350284896829458958e-01) (339, -3.19078535165214449698e-01) (340, -1.14248751895741559870e-02) (341, 1.80858919478167623485e-01) (342, 6.00314326521091346173e-05) (343, 6.51321831336691275949e-02) (344, 4.75183394511731055365e-02) (345, -9.26331659005757146463e-02) (346, -1.35176544483700339372e-01) (347, 7.76793284520216481548e-02) (348, 6.09686834784699260847e-02) (349, 1.80473337445667347811e-01) (350, 1.40837034564524010705e-01) (351, 1.97573776703563880330e-02) (352, 1.02058962529578189926e-01) (353, 1.19867069994486472040e-01) (354, 2.41189729310039464860e-02) (355, 1.65169158980400798686e-02) (356, 5.26795234012467916695e-02) (357, 4.46127351091646293102e-02) (358, -4.71323931953281181212e-03) (359, 2.22646843723248583080e-02) (360, 6.07478913991526675575e-02) (361, -1.33551199174805540482e-01) (362, 1.44087199849686833919e-02) (363, 7.24427171911544570682e-02) (364, 9.28733591964381044459e-02) (365, 2.09136550727649257742e-02) (366, -1.92868536366886028643e-01) (367, -9.29298630409991499590e-02) (368, 5.26079772310682064473e-02) (369, -2.18186134485129461236e-02) (370, -2.88217558087466352301e-01) (371, 2.46262188920525232350e-01) (372, 1.32237470930178860340e-02) (373, -2.46967270202297445314e-01) (374, 1.81647138068369323749e-01) (375, 1.69148355334669542316e-01) (376, -2.00675450541009603445e-01) (377, -5.24945483313067479125e-02) (378, 2.30896351019784559083e-03) (379, -5.16985142999691477117e-02) (380, -1.01836141053326847961e-01) (381, 9.22013183871373681599e-03) (382, 1.28521820574949152682e-02) (383, 4.85822495933542226193e-03) (384, 1.30286502379071911228e-01) (385, -2.36207521402997770721e-02) (386, -2.72498559280356322798e-01) (387, -2.08007925777851432336e-01) (388, -9.69666707417611850595e-02) (389, 2.88511611036390336338e-01) (390, 1.88275618309992967547e-02) (391, 2.15179271411090021482e-02) (392, -5.52059462070937853606e-02) (393, -1.23892968539374647395e-03) (394, 4.22201739859828228951e-02) (395, 5.93380212781475444017e-02) (396, 1.11898327586092360963e-01) (397, 4.68605667857989016678e-01) (398, 1.28459015967054779317e-01) (399, -4.03504295950547139937e-02) (400, 5.15934584741447668788e-02) (401, 8.16180327827981666466e-02) (402, -1.23246449779324140916e-01) (403, 3.33957116042624332919e-02) (404, -1.13986791114129293323e-01) (405, -6.49518089475584203818e-03) (406, -2.13928679874397564831e-01) (407, -9.42523511850131869017e-03) (408, -2.76187735091450170533e-01) (409, -2.89036186220540614045e-01) (410, -1.34960840034832024736e-01) (411, -2.47613940653562368543e-02) (412, -1.65886687116910958029e-02) (413, 4.16830132784974036197e-02) (414, -3.63174818287877385070e-02) (415, -5.45435986616801468663e-02) (416, 9.01166295424600388708e-02) (417, 6.33966274244364691448e-02) (418, 4.83100191797375191904e-02) (419, 1.57168505111694334353e-01) (420, -7.34232653626537001834e-02) (421, 2.10273818036819076793e-01) (422, 1.00373479064627305068e-01) (423, 8.55182886779028844648e-02) (424, 1.76741998434922414907e-01) (425, 2.64232853676283574451e-01) (426, -3.95652265457726373676e-02) (427, -7.53103183612920390466e-02) (428, 6.38733710689335931754e-02) (429, -1.04666834500456024104e-01) (430, -1.32180596027678814997e-01) (431, -1.28171264408552559866e-01) (432, -3.34374525027640312480e-02) (433, -9.02615100755578721181e-03) (434, -2.37665278934146434464e-01) (435, -1.72033148436992244790e-01) (436, -4.64354219950890729357e-03) (437, -2.78602519775901467936e-02) (438, -1.69376431214874112463e-01) (0, 5.45997674662810350554e-02) (1, 1.38307290348564301818e-02) (2, 4.35888941107223648608e-02) (3, 1.32553065752693322032e-01) (4, -3.88055279231987945709e-02) (5, -4.29999512676135717260e-02) (6, -4.95094529033108035621e-02) (7, 5.00984504332281782579e-02) (8, -7.45341547854597441525e-02) (9, -3.77567004693345675478e-03) (10, 1.10074365995946610308e-02) (11, 5.02661626951649009865e-02) (12, 4.69044196130972562697e-02) (13, 7.58047678810451312781e-03) (14, -8.53362477713230233034e-02) (15, -1.14387568333292596878e-01) (16, -1.11374873921369230145e-01) (17, -1.02503321611325373675e-01) (18, -8.09691615598193137338e-02) (19, -1.00981374045199343015e-01) (20, 8.28499570488929748535e-02) (21, -1.19337087352639620308e-01) (22, -9.23667641010529200107e-02) (23, -3.04694124735968907558e-01) (24, -3.07339584918633279553e-01) (25, -4.24461528843983540438e-02) (26, 6.58683069360020134742e-02) (27, 7.97229915302412467382e-02) (28, 5.27528784086932836517e-02) (29, 2.84877172335766225275e-02) (30, 1.33721910126611415182e-01) (31, 1.70713465234661160297e-01) (32, 3.85447895684700794772e-02) (33, 3.03359186052179936877e-02) (34, 1.10315991491284168258e-01) (35, -6.77964537447003131460e-03) (36, -2.46325489263855917921e-01) (37, -9.27016673289181997175e-03) (38, 6.16488779615142167001e-03) (39, -1.89897078515634920581e-01) (40, 1.24368376219605569072e-02) (41, 8.77793306711244503138e-02) (42, 6.60093438935069054541e-02) (43, -1.19661137699411335156e-01) (44, 2.02226834803975151489e-02) (45, 6.36560661032429947470e-02) (46, -9.95372660116707330680e-02) (47, 8.35294055550171894720e-03) (48, 7.24351048851191031686e-02) (49, 2.60085610445077580755e-02) (50, -4.22729960986370154052e-02) (51, 4.64635331033929691036e-02) (52, -4.99378075636022766837e-03) (53, 4.66083682959880021834e-02) (54, -1.11740199839979431617e-01) (55, 3.92460426346826068977e-02) (56, -1.00067021155749710792e-01) (57, 6.52035316157857508523e-02) (58, -1.38941549426048915894e-01) (59, -2.05484841211249352755e-01) (60, 4.92591228045611770336e-02) (61, -8.74095177575151399685e-02) (62, -6.03801908772877565790e-02) (63, -1.30640405570388029588e-02) (64, 7.82158396303357927870e-02) (65, 1.70322425219202377988e-01) (66, 1.33649845045986093162e-01) (67, 4.85763068399380770757e-02) (68, 1.87648215395788797721e-01) (69, 1.48575601279163610480e-01) (70, 1.15329253094495876031e-01) (71, -9.31711935692657589048e-02) (72, 1.86069663745064457772e-02) (73, 1.39371971296213467695e-02) (74, -3.40954401562495040823e-02) (75, 5.30645716270289752314e-02) (76, -1.10428909417370282875e-01) (77, -6.13229426498116195199e-02) (78, -8.95464810343747086296e-02) (79, -1.86818478471469984203e-01) (80, 1.54936297513594029018e-01) (81, 5.47250858187773928099e-02) (82, -9.43483889404364700626e-02) (83, -4.21704201798505946136e-03) (84, 3.94876215647768993855e-02) (85, -7.78653649091075039657e-02) (86, -1.26294920756103601356e-01) (87, -9.92102367524796135978e-02) (88, -5.18151093776205856622e-02) (89, -7.93321652692480228097e-02) (90, 7.27307849784515209057e-02) (91, 5.26701201369455182522e-02) (92, -6.37649664736305299417e-02) (93, 5.53750943346518476051e-02) (94, 5.83621931043986283405e-02) (95, -4.01522818719120058728e-02) (96, -1.29211527140749016240e-01) (97, -9.09893009988916035002e-02) (98, -1.72422576671350108457e-01) (99, -2.04603886539023283042e-01) (100, -9.86090982956859263275e-02) (101, -7.97888840766943913119e-02) (102, 1.88475833250189052370e-02) (103, -1.25272427479268897571e-02) (104, 1.69390278979437397533e-01) (105, 1.00673352539392663152e-01) (106, -3.74003357358631272067e-02) (107, 4.96148069008531950042e-02) (108, -2.68127787296456344956e-02) (109, 4.78614556783303127241e-02) (110, 1.32686722020727648763e-01) (111, -7.69298073960233141921e-02) (112, 6.19453568055049891283e-02) (113, 2.24715932051472895570e-02) (114, 8.08389979251636636715e-02) (115, -2.42044481269592208494e-02) (116, -4.14280596691063651704e-01) (117, -1.12714495611472578784e-01) (118, -1.97136728105763714414e-01) (119, -5.17553266249050958336e-01) (120, 1.07233725022932199766e-01) (121, 9.95267774234279839485e-02) (122, 1.44598154357764799999e-02) (123, -2.57335583144914947784e-01) (124, 1.81471493146845797018e-01) (125, -1.04802721093197381830e-01) (126, -1.64273244594545508868e-01) (127, -4.47919983558380599420e-02) (128, 1.19780164041174863598e-01) (129, 1.04155765669591199307e-01) (130, -1.01806671638964788690e-04) (131, -7.83325593251609775258e-02) (132, -4.82478006869210276301e-04) (133, 3.72923545661199493106e-02) (134, 4.44623405378554298339e-02) (135, -1.30521067904077400779e-02) (136, -1.46161222746146124418e-01) (137, -5.36008785775507756721e-02) (138, -1.26228587427080318761e-01) (139, -2.06665133070035561547e-01) (140, -5.64615492743155492072e-02) (141, 7.15094463803402774493e-02) (142, 5.64657051611750851472e-02) (143, 2.77520740526726629460e-02) (144, 1.21502602637477863379e-01) (145, -1.94584627902671461475e-02) (146, -1.21606004217731707845e-02) (147, 5.66967412542661725050e-02) (148, -2.40356590043889935260e-02) (149, -1.05526242269674205843e-01) (150, -4.48729896085054216770e-02) (151, 4.07427033363219753825e-02) (152, 1.15850126254194822628e-02) (153, -5.53478210399179632040e-03) (154, 1.13427420963669617349e-01) (155, -1.35590944000963831151e-01) (156, -2.02250552930988258815e-01) (157, -5.71767374631249741812e-02) (158, 4.53555716170919304142e-02) (159, -1.85758557303744992195e-01) (160, 2.78976673368090850869e-02) (161, -6.40911197616574196401e-02) (162, -6.29465179907808120019e-02) (163, -1.69892753035051857768e-01) (164, -6.07474423798385135265e-02) (165, -8.13109390033378565121e-02) (166, -2.03674057757899512611e-02) (167, -3.50982197125794329051e-02) (168, 1.16044195480034417756e-01) (169, 4.03430811436813266391e-02) (170, 6.18269552150565518400e-02) (171, 4.25861750016995749268e-02) (172, -3.25761180405547273731e-02) (173, 3.97359220569246038290e-02) (174, 2.40575049270142157787e-02) (175, 1.68646803745032547450e-02) (176, -1.01280071617769293346e-01) (177, -9.66003279853165364166e-02) (178, -1.24870133566042332274e-01) (179, -1.82194192346798317095e-01) (180, 4.16992568051729739498e-02) (181, -1.36960951447453039946e-03) (182, -1.33759037466696484309e-01) (183, -5.17011117784477586268e-02) (184, 7.63809699462006941317e-02) (185, -7.69662031099836441150e-02) (186, -6.26864112449375138897e-03) (187, 5.45482476231795299082e-02) (188, 1.02455174569810292251e-01) (189, 2.42089462759674349523e-02) (190, 1.25177817532944324341e-01) (191, 3.68994194426622776350e-02) (192, -7.50454466206305903508e-02) (193, -7.92191297510536213133e-02) (194, 5.07053672406271027651e-02) (195, -1.29218390095045876365e-01) (196, -1.28855001841830268949e-01) (197, -1.94732739114300071326e-02) (198, -2.74708305914436144712e-02) (199, -1.26129745994613989835e-01) (200, 1.22090233387843888346e-02) (201, 4.28816091371194280102e-02) (202, -4.51540522258431706315e-02) (203, -1.44154874476495192814e-01) (204, 1.02146935375444100624e-01) (205, 6.11695967146684282945e-02) (206, -7.96269592956355826141e-02) (207, -4.43847297923677108766e-02) (208, -2.41994527183288015912e-03) (209, 4.68970558968944406519e-02) (210, -6.23033345316951134296e-02) (211, 4.47056873627884529543e-02) (212, -8.60347506667443473471e-02) (213, -9.05086038813933818625e-02) (214, -1.81694534420390983731e-02) (215, -1.77311917945779731753e-02) (216, -7.56315934274205819987e-02) (217, -4.08201366335099388727e-02) (218, -1.02247656127598937625e-01) (219, 5.89269390140643167797e-02) (220, -3.35588070498062940317e-02) (221, -9.07749896566551334187e-02) (222, 4.71122095759622105948e-02) (223, -2.77877931362891308908e-02) (224, -6.14377392364176475037e-02) (225, 5.43012206680127673675e-02) (226, -2.47829955516524549908e-02) (227, 3.63751660189430905956e-02) (228, -6.83952945364744713252e-02) (229, -4.87520147720455106211e-03) (230, -1.10644880312369409125e-01) (231, 1.49814449779904351745e-01) (232, -1.43305172202147140803e-01) (233, 6.75075035814589607952e-02) (234, -1.22350197687190187512e-01) (235, 9.01450985529823056730e-02) (236, -2.03452126895075045832e-02) (237, 2.34725111425919362451e-02) (238, -6.80633904678301371316e-02) (239, 7.54241782101818941664e-02) (240, -3.72113724023899992976e-03) (241, -8.40483836192761069039e-02) (242, -2.03781532411336093694e-04) (243, -4.40278549917314798723e-02) (244, 5.50614056642555957377e-02) (245, -1.18775699631445505466e-01) (246, -5.82117344919610354981e-02) (247, -1.54788802477707015948e-01) (248, 6.23363019277324570400e-02) (249, -7.15421871264376868504e-02) (250, 7.18795144024152177220e-02) (251, -1.19116978433782744196e-01) (252, 6.22946525485341198736e-02) (253, -1.66502360936372009736e-02) (254, 1.44848874013598222232e-01) (255, -2.32373465672717466335e-01) (256, 7.47114798028732790547e-02) (257, -1.54247864675521595412e-01) (258, 1.16062291677873269391e-01) (259, -1.18687918579560958143e-01) (260, -7.69457245024325886540e-02) (261, -7.94762913820015043376e-02) (262, 8.46691514040047027434e-02) (263, 3.18244231808271146877e-02) (264, 1.01429110133975042274e-01) (265, -1.26828252574975680611e-01) (266, -9.93113289517215218349e-03) (267, 2.94197697259243953760e-02) (268, -4.75756878787034695466e-02) (269, -1.00218314483839929241e-01) (270, 1.17177644313017168681e-02) (271, -4.92924334112584960899e-03) (272, -3.94902867610283855870e-02) (273, 1.46881616032958101092e-01) (274, -1.27110198586795203335e-01) (275, -1.24476612375621381590e-01) (276, 1.52594865180205631339e-02) (277, -1.15444133263270201639e-01) (278, -9.64228069086277284061e-02) (279, 2.23615755660408421779e-01) (280, -2.66734381550645105463e-02) (281, -1.43792111360293600741e-01) (282, 2.15224519806939712518e-01) (283, -1.04008146398178208392e-01) (284, -1.73184732062133972530e-01) (285, 8.65215510125454459467e-03) (286, -5.57700530003392841438e-02) (287, -4.16315570841151588732e-02) (288, -2.04967660313177292564e-02) (289, -2.91215386844660251153e-01) (290, 1.79305750859456228263e-02) (291, -6.89121125457803351821e-02) (292, -1.44115963533704982691e-01) (293, -4.85041354797862978021e-02) (294, -1.01960869688821426093e-01) (295, -1.25917414482112577367e-01) (296, -1.87834091132219292708e-02) (297, 8.08183733198395391761e-03) (298, -9.59454589042044864167e-02) (299, -1.01330979842470803032e-01) (300, 1.69419867317981073795e-02) (301, 5.90910729103417894925e-02) (302, -1.15475938981737580313e-01) (303, 8.99352529472229392238e-03) (304, 6.25050544945251057571e-02) (305, 8.12199007994578192106e-04) (306, 6.37392963672841622591e-02) (307, 2.61398887720229622378e-01) (308, 1.33195695338766510740e-02) (309, 7.28410180245591398762e-02) (310, 7.89924331223555570292e-02) (311, -2.06012050828257523710e-03) (312, -1.50327049380323735095e-01) (313, -9.05986496849808808918e-02) (314, -3.99078923090692427866e-02) (315, -9.75393422731456183339e-02) (316, 1.52595172984301002961e-01) (317, 1.08182006401111655003e-02) (318, -4.44660438937658705760e-02) (319, 2.60601455579495683290e-02) (320, -1.05313622593136257954e-01) (321, -1.27944816296943708611e-01) (322, -1.72522375659796251002e-01) (323, -1.23293966598790355471e-01) (324, 1.34176705150800251037e-02) (325, -6.60408305855749305779e-02) (326, -9.30694033563075201476e-02) (327, -1.06226288994555093104e-01) (328, 1.22642881430668404183e-03) (329, 7.75821152995284507581e-02) (330, 5.05174764762040817700e-02) (331, 1.76321698698318415910e-02) (332, 3.25533122303083913285e-02) (333, 4.84856636256312534261e-02) (334, 5.10220936992518275810e-02) (335, -2.46695379564853892185e-02) (336, 3.30693868798139223308e-02) (337, -3.42323928827067899827e-02) (338, 6.84011920027450259774e-02) (339, 2.86693008319130956951e-02) (340, 7.48233186997855209688e-02) (341, -6.63679901629922741613e-02) (342, -5.17830900452248815008e-03) (343, -1.79447382079397643739e-01) (344, 3.52359454680077066602e-02) (345, 4.08884051428591750732e-03) (346, -2.56435523980395596588e-02) (347, 6.75598131906283566606e-02) (348, -3.29892071128701849791e-02) (349, 2.10107000795113317559e-02) (350, -1.12908883659614597134e-02) (351, -2.64762796241790956953e-02) (352, 6.22458288910526513771e-02) (353, 9.36117126007162715651e-03) (354, 2.67929854974820226554e-02) (355, 7.56681177109528799174e-03) (356, 3.18420458682241031001e-02) (357, -7.32758637393826767203e-02) (358, 8.21872489615779328043e-02) (359, -2.83571536922753372756e-02) (360, -9.56336972131389684293e-02) (361, -1.87155683259319048639e-03) (362, 2.04813492941366970257e-02) (363, 3.23773075368127619122e-02) (364, -7.16932950659738693622e-02) (365, 1.94041106064949918364e-02) (366, -1.22573222157759745277e-01) (367, 1.31195863475254415054e-01) (368, 4.97352741330480199733e-02) (369, -1.48639551431193284170e-01) (370, 4.66832419508347307158e-02) (371, 3.62771187255263583005e-02) (372, -6.90729376733381777997e-02) (373, -6.46416661604312520195e-02) (374, 1.05458908152490982157e-01) (375, -1.02429146115687902396e-01) (376, 3.56306463959306929379e-02) (377, 1.33132247115270607729e-01) (378, -1.90645567706283575182e-01) (379, -4.57199900008293178000e-02) (380, 7.90775577522994932433e-02) (381, -2.08241903266214341273e-02) (382, 3.98820052673577243874e-02) (383, -1.88592353519948657814e-02) (384, -1.75916927287454866180e-01) (385, 3.54334118040191686783e-02) (386, -3.62715263508137999993e-02) (387, -1.86434515475849799104e-01) (388, 6.79370599095672177137e-03) (389, -2.92939583321821413187e-02) (390, -1.49622696316699110852e-02) (391, 5.32304475735398199832e-02) (392, -6.07444403245840092165e-02) (393, -5.05212666841709165388e-02) (394, -7.83419011268536719106e-02) (395, -1.03678351942645078504e-02) (396, -1.15318526163461013145e-01) (397, -1.69054762097902350204e-01) (398, -3.66115600504410623750e-02) (399, 3.87052373761139351105e-02) (400, -1.24115156978044198499e-02) (401, -1.49906266377629354691e-01) (402, 2.55500582758207347989e-02) (403, -1.03594151515225663118e-01) (404, -9.42747419135020331415e-02) (405, -1.41483994367797554642e-02) (406, 2.96387814383224090786e-02) (407, 5.04665840114557201490e-02) (408, 1.48487497067404349005e-02) (409, 7.13296936367810163748e-02) (410, -6.15780363867985194859e-02) (411, 8.11075722704908755323e-03) (412, 5.01401491761850962026e-02) (413, 8.29074068054825585872e-02) (414, 1.28106574740892459330e-01) (415, 1.12119263427819082501e-01) (416, 1.25315684558819528949e-01) (417, 1.11308903129279351818e-01) (418, 9.43720011659900659406e-02) (419, -2.20320271307357443136e-02) (420, 1.42213526588682477592e-02) (421, -1.20670833076322467359e-01) (422, 5.10911263698262049782e-02) (423, -5.93035094836195236789e-02) (424, -3.23425442107999894237e-02) (425, -1.23942858010883699693e-01) (426, -9.62625154848300440547e-02) (427, 1.11356526069150627012e-02) (428, -3.39713935724447538278e-02) (429, -5.45856159508830360294e-02) (430, 5.84508143180414371787e-02) (431, -1.17178163261837720022e-01) (432, -5.50132842275665237541e-02) (433, 6.85929173451103740833e-02) (434, -7.26792599725610000139e-02) (435, 5.32621585587723170296e-02) (436, -6.08769095763439377356e-02) (437, 5.63619830100599433775e-02) (438, 1.24238464242197729163e-04) (0, 3.96514036886123633074e-02) (1, 1.44895276251980925641e-01) (2, 9.46188092762812599235e-03) (3, 1.56055477844927709130e-01) (4, -1.61560892005637751767e-01) (5, -3.90892950528599139592e-02) (6, 6.95536169887142619039e-02) (7, 1.37497394439372200292e-01) (8, -1.54469091396495211005e-02) (9, -3.14186053202171499451e-04) (10, -2.09516570417304370810e-02) (11, 5.92675770033460128094e-02) (12, -1.58864297173672251728e-02) (13, 4.57268147741670127893e-02) (14, -1.99616362368341924982e-02) (15, 2.67971933584474353296e-02) (16, 3.75850456846517494425e-02) (17, -1.35088236146469354432e-02) (18, 6.47187077299273133546e-02) (19, 4.88100809275975669466e-02) (20, -7.73293524980545043945e-02) (21, -5.20247542464793710781e-02) (22, 1.78965321457209419753e-01) (23, -2.71292977091038944870e-01) (24, -4.87084772411203625886e-01) (25, -4.41787321656067974440e-02) (26, 5.39638211137619117075e-02) (27, 5.44065623725529870502e-02) (28, -1.14647163608650862199e-01) (29, 2.35904456852069552286e-02) (30, 2.35236615308563212778e-01) (31, 4.69126720596580615297e-01) (32, -1.21012085247583552755e-02) (33, -3.67458142274687815654e-02) (34, 2.24135055094605128989e-01) (35, 1.69433021864512298182e-02) (36, -1.02500685761979914296e-02) (37, -9.80493277440729477101e-02) (38, -1.17605282956989964926e-01) (39, -6.34404357974982235913e-02) (40, -7.08235466135862575671e-03) (41, 1.74114619346202176287e-01) (42, -2.14013528515975999522e-02) (43, -9.31319456571518683452e-02) (44, 9.44746811129171804033e-02) (45, -1.67490985460467228796e-01) (46, -6.58110936734673107606e-02) (47, 4.64615668604995632474e-02) (48, 5.92308186860510902522e-03) (49, 4.49353292689249061986e-02) (50, -1.24210015687539102047e-01) (51, -4.30765906131433881643e-02) (52, -2.31053965744443146058e-01) (53, 2.84872569154548394010e-01) (54, -1.82314944740494200293e-01) (55, -3.66909502843681817330e-02) (56, -7.67583055377669964958e-02) (57, 7.02954651373983302465e-02) (58, -1.65125854690802681413e-01) (59, -2.74290633292300634061e-01) (60, 3.61271104525514169525e-02) (61, 2.52647848915060792285e-02) (62, -3.16065298468515484820e-02) (63, 1.58194722912452490592e-03) (64, 6.34892891248619306577e-02) (65, 4.38699856757566869492e-02) (66, 6.61888191250214058536e-02) (67, 2.18090612446294237342e-03) (68, 1.93625026395861210560e-01) (69, -4.71038148883741597528e-02) (70, -1.63320115361487633310e-01) (71, -5.77562729239522315572e-02) (72, 1.01193361594534791958e-01) (73, 1.02048219122374758672e-01) (74, 1.80308133488129795907e-01) (75, -2.24818981002301750138e-02) (76, -9.48179940693601869262e-02) (77, -3.14016702361497382356e-02) (78, 4.21480866046439403561e-02) (79, -1.89240238301709273738e-01) (80, 5.13353741115572456688e-02) (81, -7.67547254098637915520e-02) (82, -1.30330607287806099492e-01) (83, 3.26093764070532914404e-05) (84, 2.89545780623964632561e-01) (85, -6.82580902266014533097e-02) (86, -1.58422361098510267041e-01) (87, -1.73847650668989030243e-02) (88, 2.09295375217024431924e-02) (89, -1.32909487642322382550e-01) (90, 9.16814825246254905267e-02) (91, -6.68470578491114769681e-02) (92, -5.83988898034515230284e-02) (93, -1.57865735754478903052e-01) (94, 1.44361896524858979163e-01) (95, -5.28304400050636571717e-02) (96, -4.13667089248884511932e-01) (97, -6.18947865446564035596e-02) (98, -9.73385770343319495224e-02) (99, -2.83191242192023295843e-01) (100, -1.08151009011199658594e-01) (101, -4.56606273735387854784e-02) (102, 1.05925422037616387416e-01) (103, 5.91270908475922674086e-02) (104, 2.34197221499455016103e-01) (105, 1.83710238227748734463e-01) (106, -7.48480284146194885242e-02) (107, 4.35697772050134476962e-02) (108, 2.34736222443952396999e-02) (109, 9.35367004395596529642e-02) (110, 2.09008938252991355311e-01) (111, -8.06754846103426986881e-02) (112, 7.35348514640923739405e-02) (113, -1.21426439232186725303e-01) (114, 1.79423984678461462261e-01) (115, 8.56954400073687660826e-04) (116, -5.02422108584019033728e-01) (117, -1.63938998583370743045e-01) (118, -2.10724113697938530976e-01) (119, -6.32542916963243495587e-01) (120, 1.08895454171884953354e-01) (121, -6.21251462716115865348e-03) (122, 4.46841641848223364297e-02) (123, -1.78401094339274979284e-01) (124, 1.02561222061360202140e-01) (125, 2.12163041476225965043e-02) (126, -3.13661427985219121162e-01) (127, -4.15922587000533694468e-02) (128, 2.31030016469256221923e-01) (129, 6.73396593939197996188e-04) (130, 5.17888498839459907042e-02) (131, 1.35804770397436963547e-01) (132, -1.57393772757399019735e-01) (133, 6.87608463229965605201e-02) (134, 4.04922333403478842961e-02) (135, -1.69548095092011297247e-01) (136, -2.65314742493012289959e-01) (137, -6.66597631585386235509e-02) (138, 9.08665694247334787548e-02) (139, -3.25436116605225700393e-01) (140, 8.70486536984442331455e-03) (141, -4.40558062509636069737e-02) (142, 6.64461019621634674248e-02) (143, -2.36713270548498083690e-01) (144, 3.54306241228117657638e-01) (145, 1.35825194433567691954e-01) (146, -2.13961133030530131771e-01) (147, -5.20563231060268069572e-02) (148, 5.94594626442773201147e-03) (149, -1.21697759972337116174e-01) (150, 7.43232323088324903226e-02) (151, 7.41161587640065937926e-03) (152, 1.59244814216217590863e-02) (153, 1.47114614529646720031e-01) (154, 1.08211151042680517320e-01) (155, -5.04751409423492350403e-02) (156, -1.23599586995969609737e-01) (157, -3.12546013741229686267e-02) (158, -6.99846523148171251183e-02) (159, -3.27302367600173060858e-01) (160, 1.34918840615618845780e-01) (161, 5.03112260384634343846e-02) (162, -1.73765275480829206600e-01) (163, -2.56766846997801445607e-01) (164, 1.48586056409532069056e-01) (165, -1.72656334341592332393e-01) (166, -5.82008529544544919720e-02) (167, -3.59449230395390562087e-02) (168, 3.52942983224985795676e-01) (169, 4.52830247703923383096e-02) (170, 1.57135997325891757503e-01) (171, -3.07937191694114473228e-02) (172, -2.16977359962056359777e-01) (173, -2.95473707666714761888e-02) (174, -2.02074715436835862861e-03) (175, 9.35857304470202044921e-02) (176, -1.46389645796318162985e-01) (177, -2.29903122001553994469e-01) (178, -4.18408381801666229283e-02) (179, -3.83299406685833454755e-01) (180, 5.38663188655361113710e-02) (181, 6.83602748211526410616e-03) (182, 5.68958617486032824928e-02) (183, -1.15762736454142492470e-01) (184, 3.08446657825854689272e-02) (185, 4.85629599407308015779e-02) (186, -1.81628876774696579321e-01) (187, 1.66642035853037911997e-01) (188, 8.19619011008846237720e-02) (189, -6.57481317541078746913e-02) (190, 1.18416901592751949712e-01) (191, -6.21898434312879652697e-02) (192, 1.80098807797583887469e-01) (193, 1.18489735545751984080e-01) (194, -2.92043689606102829792e-01) (195, -1.55550903224205533393e-01) (196, -1.50970240966134844340e-01) (197, 6.00263161470341102821e-02) (198, -6.45189776898034139663e-02) (199, -2.22851423003443155357e-01) (200, 1.53794829450345477140e-01) (201, 2.71417611631153375684e-02) (202, 7.62549376277081164544e-02) (203, -1.89316551237128982699e-01) (204, 3.74154794788030377675e-03) (205, -7.28236913895803916752e-02) (206, -4.63271368557576154745e-02) (207, 8.80653119944680845554e-02) (208, 1.60537851716664486945e-01) (209, 1.00328259195782504287e-01) (210, -1.58320265306171215069e-01) (211, -5.90491892525182582308e-02) (212, -8.84003947684683516473e-02) (213, 1.54619909454898948192e-02) (214, -1.77782457177583716468e-02) (215, -1.38290570766289339089e-01) (216, -1.11455041140115493348e-01) (217, 3.64201396957710143987e-02) (218, -1.25794833797435501310e-01) (219, -2.54841834274770369373e-03) (220, 1.17484706036995976974e-02) (221, -1.09245918557835164364e-01) (222, -4.99415072260262493664e-02) (223, -1.35641283949072072312e-01) (224, 4.21602133898840505943e-02) (225, -1.54274489616432058936e-01) (226, 2.86682501931727617972e-02) (227, -1.48487956867285719742e-01) (228, -1.41379182449635876218e-01) (229, -1.15562595913910839962e-01) (230, -1.27607653284304636832e-02) (231, 7.00294477022076061745e-02) (232, 6.61764182795765154577e-02) (233, -1.12065600995418877123e-02) (234, -5.06614688814384442339e-02) (235, -5.00065307825248023255e-02) (236, 1.50651099195190513180e-01) (237, 6.16584481839142981019e-02) (238, -7.38467900698509954749e-02) (239, -4.75339678660132991528e-02) (240, 4.65638797439185958549e-02) (241, -1.35995155953120755443e-01) (242, 3.31481037248147107979e-03) (243, -3.56976469234272925091e-02) (244, -5.39684058842246766607e-02) (245, -1.14699102122425941608e-01) (246, 1.25152481000351450957e-01) (247, -1.20826892922843626144e-01) (248, -1.02851899336018418052e-01) (249, 9.77223005352468448992e-02) (250, -9.68277718590740271720e-02) (251, -2.19305697098523544319e-02) (252, -7.67511244446256041263e-02) (253, -6.79678944912136540069e-02) (254, 1.26243240129503664360e-01) (255, 2.77475727078526912539e-02) (256, -5.05849648993685480081e-02) (257, -1.49333322223464768502e-02) (258, 1.48166310877723972350e-01) (259, -8.48552160246947850819e-02) (260, -6.61897073721960937931e-02) (261, -5.24279674839611756210e-02) (262, -1.05171950654333101749e-01) (263, 4.11209308989457095196e-02) (264, -9.56337835377180228713e-02) (265, -7.51290431823270765666e-02) (266, 5.68127501998288916840e-02) (267, -9.94832146215808288403e-02) (268, -1.02741351924518914407e-01) (269, -6.57622722955284871871e-02) (270, 4.65388098258658552964e-02) (271, -3.62267748953215146246e-02) (272, -2.79981270165930336280e-02) (273, 1.35202912564965610498e-01) (274, -9.51546409916320945488e-02) (275, 2.02602367535344718430e-02) (276, 9.72303313380598957516e-03) (277, -1.84628672067976923321e-01) (278, 1.91042205862810079986e-02) (279, 1.23204154536088489325e-01) (280, -1.90982346534633529167e-01) (281, 3.01895416096351343338e-02) (282, -3.62481812836635552966e-02) (283, -1.61158082432374533122e-01) (284, 6.92380551460314297429e-02) (285, -1.36991799248719712395e-02) (286, 3.29655180603200745337e-02) (287, -2.80367198161933728340e-01) (288, -1.32289968737354823869e-01) (289, -2.31339558771873898824e-01) (290, -1.56760500942768166155e-01) (291, 4.24035970415323568844e-03) (292, -1.91508108590490805367e-01) (293, 1.87953469272873104068e-02) (294, -2.63627506041769626988e-02) (295, 1.94201587215281461229e-02) (296, -2.00954362708200690024e-01) (297, -1.56492096505412459084e-01) (298, -1.36011497585354690365e-01) (299, -1.17772789205852615457e-01) (300, -1.18258412767078935346e-01) (301, -1.38471685898990171104e-01) (302, 4.09729442043138755714e-02) (303, 2.72086260712380290094e-02) (304, 1.08435669071561741061e-01) (305, 6.14348162776525499873e-02) (306, 1.54643071059223813357e-01) (307, 4.32939316753389646930e-01) (308, 7.11718332257485764014e-02) (309, 1.77316323836984625351e-02) (310, 1.41661653601338338726e-01) (311, -3.26755194714599059291e-02) (312, -4.05681268983621029500e-02) (313, -3.47602387701073725634e-02) (314, -1.34581241231810172509e-01) (315, -4.26179640504659104638e-02) (316, 2.22320660134278785813e-01) (317, -1.07781708920805019414e-01) (318, -9.00143436645529509965e-02) (319, -6.07287284527499304776e-02) (320, -1.22857633113211489606e-01) (321, -2.16648147564043741520e-01) (322, -1.75481869237780335746e-01) (323, -1.78217185556729995621e-01) (324, -1.70135299235261842378e-03) (325, 1.45538745598108115731e-01) (326, -2.04079991543306638047e-01) (327, -8.80156044031021878027e-02) (328, -2.15960336184208186172e-02) (329, -3.17603664640982025213e-02) (330, 1.05872092882022192373e-01) (331, -1.62679757872229102666e-01) (332, 1.89323969402673715490e-02) (333, 1.64672697791942129752e-01) (334, -1.91643322588620712565e-01) (335, -7.49169954175582936129e-02) (336, -2.04125730575497182917e-01) (337, 1.59233731086452362513e-01) (338, -5.50856600001025722979e-02) (339, 1.82617577615384503453e-02) (340, 7.24263463113687805395e-02) (341, 3.34634119813945821176e-02) (342, -2.37148121922238670767e-02) (343, -6.60360685178113249183e-02) (344, 7.43579040300481469705e-02) (345, 8.61762772071623800452e-02) (346, 2.46341470922074562422e-01) (347, 1.36406746380559329435e-02) (348, 8.23037256855195797911e-02) (349, -9.71085372179775370427e-03) (350, 3.90269821777958353382e-02) (351, -5.14044687085955590011e-02) (352, 1.84417635065614871070e-02) (353, 8.33145866468664592075e-02) (354, 7.26344535634309423910e-02) (355, -5.15760530525775848232e-02) (356, -2.36167769917378020383e-02) (357, 8.50790995514181941362e-02) (358, 7.47883607043286074978e-02) (359, -1.07542740086824212264e-01) (360, 7.16468763822585355538e-03) (361, 7.35824219564663595250e-02) (362, -1.09968445151574098495e-01) (363, -3.58000249396980829708e-02) (364, 7.55494636316998563474e-02) (365, -6.40709701267210413045e-02) (366, -2.42624214463161624877e-01) (367, 2.68699368106824043601e-01) (368, -1.37009159358164461784e-01) (369, -1.98929187868705087405e-01) (370, 6.09906261101149024806e-02) (371, -7.67519279214573385550e-02) (372, -3.14845056196698946938e-01) (373, 2.22447228558588887271e-02) (374, 1.26922173358325007797e-01) (375, -9.37774312441218560465e-02) (376, 6.46673663382661134680e-02) (377, 1.20454455745394511945e-01) (378, -3.23122323735014038704e-01) (379, 1.46433413266596534896e-01) (380, 9.99745766019538989466e-02) (381, -3.34415700075878508102e-01) (382, -1.70416858112429001060e-02) (383, 1.57802753419873403873e-01) (384, -3.89270246698708410893e-01) (385, 1.22251556244766398929e-01) (386, 3.00248243259674585381e-01) (387, -1.95986503370821629755e-01) (388, 8.58179541285254976479e-02) (389, 2.41259451272042929615e-01) (390, 4.31836067465024044110e-03) (391, -4.43912935969869443253e-03) (392, -1.39656117825570410401e-02) (393, -3.57724107996883243857e-03) (394, 4.33463256824923454102e-02) (395, -9.87726681097751690874e-02) (396, -1.44021642423404927502e-01) (397, -2.72693074820828440519e-01) (398, -1.35460592157583409323e-01) (399, -1.86304896627884575278e-01) (400, 2.72437531793058781981e-02) (401, -5.96542852943809237543e-02) (402, -1.09785653198327601276e-01) (403, -1.07449571832827824730e-02) (404, 2.81680094986327912363e-03) (405, -3.25518929847019716783e-02) (406, 8.92016644599792213333e-02) (407, 3.61792931441397361270e-02) (408, 1.71034561987366967584e-02) (409, 8.51582496460132759575e-03) (410, 9.62462903975242790866e-03) (411, 6.72538847430163128603e-04) (412, -2.74091041154583235639e-02) (413, -1.69274720210340692828e-02) (414, -6.52287300291285176979e-02) (415, -1.98166493011503255794e-02) (416, -5.41281279086933339584e-02) (417, 6.29311839962217178801e-02) (418, 2.46700693192660261421e-02) (419, -1.26657362993698063836e-01) (420, -8.81675628937360761350e-02) (421, -1.95796873970564500045e-01) (422, -6.53654629162982725443e-02) (423, -2.06343848045741684594e-01) (424, -2.07963367847053465232e-01) (425, -1.02206740233461004785e-01) (426, -2.47047288682214725986e-02) (427, -1.72747014511187263475e-01) (428, -8.14152488639735827380e-02) (429, 8.60518403536690845712e-02) (430, -1.52919586885351510563e-01) (431, 1.08440256040122626202e-01) (432, -8.10181469340152532466e-02) (433, 5.06469102816501995368e-02) (434, 2.91000657080068766969e-02) (435, 7.14467747346087950211e-02) (436, 8.50833204932308490021e-02) (437, -6.40489072596809178028e-02) (438, -1.40041795347564640428e-01) (0, -3.25653625959528569833e-02) (1, -1.29242668376149283382e-01) (2, 1.37107245016013200301e-02) (3, 4.12900723081223927635e-02) (4, 6.48924158423937330609e-02) (5, 8.51071159817401307057e-02) (6, -1.17151650902873438742e-01) (7, -1.36356302000998741430e-01) (8, -6.12716012861602571382e-02) (9, -8.69292142093043701534e-02) (10, 7.48081811009815855762e-02) (11, -7.31592715737990478830e-02) (12, 7.52320739210999428481e-02) (13, -3.96604123023032162365e-02) (14, 8.88551399880437436929e-02) (15, -2.83049995214313641900e-02) (16, -5.36204663093478514635e-02) (17, 7.07073592255519443178e-03) (18, 8.56113504580901241159e-02) (19, -7.17306010573540431263e-02) (20, -2.27789133787155151367e-02) (21, -2.03161046872735590041e-02) (22, -1.18276115311874915892e-01) (23, 1.88360031332414912253e-01) (24, 1.50778664642785081851e-01) (25, -1.05059477240054724434e-01) (26, -1.41008676927943693569e-01) (27, -1.13796170134998514412e-01) (28, -2.47172675137711274351e-02) (29, -6.44351608556846117137e-02) (30, -1.05957379548576161032e-01) (31, -3.47412674984693414793e-01) (32, 4.39318330064441681104e-02) (33, 2.56545444772224885688e-02) (34, -2.69967496071017963588e-02) (35, -1.81260266959899773997e-01) (36, -1.15880899206207726992e-01) (37, -2.74576512751426998760e-02) (38, 1.89323528973299633205e-02) (39, 1.22434662753310909838e-02) (40, -2.35762335803380129740e-01) (41, -1.24023875460714874674e-01) (42, 3.21785653565560131328e-02) (43, 3.02092019862209959502e-01) (44, -1.43557039902464295134e-01) (45, 1.43804146702045998474e-01) (46, 4.44506360889146481807e-02) (47, -4.32770707207494817470e-02) (48, -1.79990252696757363493e-01) (49, 9.46942098417763861162e-02) (50, 7.87408526480020687366e-02) (51, 5.17998275114799761054e-02) (52, 9.62863404384459165009e-02) (53, 1.23650157374734531723e-01) (54, -1.42973949309700004706e-01) (55, -4.38209395876403614428e-03) (56, 3.53522733375991465854e-02) (57, 1.07939720224461993547e-01) (58, -4.74978228806790733763e-02) (59, 9.63609063262570314512e-02) (60, -7.77847273441370501423e-02) (61, -3.07420316598462257940e-02) (62, -4.11052705835376272492e-02) (63, 1.20866979821458955802e-01) (64, -2.17668104259903127939e-01) (65, -8.14417047726960913190e-02) (66, 6.44017841293073600717e-02) (67, -7.79247947639712806867e-02) (68, -1.04397680165784836892e-01) (69, -4.88546026635164887253e-02) (70, -3.22158370601067847727e-02) (71, 1.08832003956040659909e-01) (72, -5.62618212296450564969e-02) (73, -5.52273611820576701414e-02) (74, -6.14030722778873966350e-02) (75, 8.61239472937289918253e-02) (76, 1.76097531063780454730e-01) (77, -3.57942473274843603326e-02) (78, 1.07286344662035043607e-01) (79, 2.09245441727087921890e-01) (80, -1.84129200353956939962e-01) (81, 2.63435760760926618307e-01) (82, -1.09538747515351045370e-01) (83, -1.30013481696427457557e-01) (84, 6.91514833088762992386e-02) (85, -2.95332847289312000472e-02) (86, 1.47696326076111217329e-01) (87, -5.75085465190433367533e-02) (88, -1.01918128494544145413e-02) (89, 3.03220769711352242104e-02) (90, 1.25300681788711541081e-02) (91, 9.60851513042090127348e-02) (92, 6.57081521108575025703e-04) (93, 9.17153753845012104096e-02) (94, -1.32508611310161616981e-01) (95, 4.72456334160382615539e-02) (96, 9.85732218739475973823e-02) (97, -3.03118650659664028157e-02) (98, -6.42770913697074675053e-02) (99, 2.52168592709621608439e-01) (100, -9.65677358616017916804e-02) (101, 1.35442155294841826141e-01) (102, 1.14184214796706776096e-01) (103, 2.24573664508328135758e-01) (104, 6.37013390757410358917e-03) (105, -1.37300573554706012436e-01) (106, 1.24094676952284571625e-01) (107, -1.64524578338601290550e-01) (108, -6.86955390903796758728e-02) (109, 9.22707096326383924279e-02) (110, -1.41386837310536334078e-01) (111, -1.09199869574099703295e-01) (112, 9.94083247610385023485e-02) (113, 5.12026950936728536545e-02) (114, -2.58946768804511839868e-01) (115, 5.12623664022789915506e-02) (116, 2.39676428308488620456e-01) (117, 2.96089817620160511424e-01) (118, 4.20250042578925314674e-02) (119, 2.76153965971487946884e-01) (120, -1.37479911251467898370e-02) (121, -7.86069434050240128942e-02) (122, -3.30259679683718582188e-02) (123, 7.18464790556504057095e-02) (124, -4.44987305557408702184e-02) (125, 1.79330434849092335003e-02) (126, 2.49352427942489657253e-01) (127, -3.91051610820435449623e-02) (128, -2.38723709017517909947e-01) (129, -5.59582763933733212669e-02) (130, -2.01762739237808449988e-02) (131, -3.63250568530924938804e-02) (132, 5.37002201039502580215e-02) (133, -1.91164204346301672133e-02) (134, -1.40583803679411506460e-01) (135, 2.49650776504693361346e-01) (136, 2.80381749334235708115e-01) (137, 2.74588582505946310341e-02) (138, 9.66101126572989354901e-02) (139, 2.03562380321415492546e-01) (140, 1.50763558992828033967e-01) (141, 1.13656051174486474875e-01) (142, -7.31489922397314806801e-02) (143, 7.19244489689911253860e-02) (144, -1.89574316933525943707e-01) (145, -1.63471451903714093401e-01) (146, -9.15806156143030708483e-03) (147, 1.67475019146717446494e-01) (148, -1.34688747862732379618e-02) (149, 1.59843145440791201128e-01) (150, -1.58544348687430558531e-01) (151, -5.54469103854907732765e-02) (152, 2.54310098906987032408e-02) (153, -1.79039363776634624648e-01) (154, -1.70028976570611722874e-02) (155, 2.40150209577993961618e-01) (156, 9.26883879830733836691e-03) (157, 1.58024676604454156204e-01) (158, 1.89209342788521139855e-01) (159, 1.39160812810268680328e-01) (160, -3.24482285685485788429e-02) (161, -9.91971379244328300973e-03) (162, 6.06910401295200629956e-02) (163, 1.02310042248608540350e-01) (164, -4.64424587719648035433e-03) (165, -1.46355835268617562317e-01) (166, 9.41701552292736610017e-02) (167, 1.33950359328307237045e-02) (168, -1.50037965255065047776e-01) (169, 3.94873137934719162234e-02) (170, -7.63778442971551896346e-02) (171, -6.39296700361848685423e-02) (172, -3.75215961506775094736e-02) (173, -8.45120261517805504425e-02) (174, -2.99474664851547833777e-01) (175, -1.33218323752898104573e-01) (176, 5.31535018221503952063e-02) (177, 3.05236202799945066655e-01) (178, -7.80219258210274324572e-02) (179, 4.65169262265492863828e-02) (180, -7.87506482683679176482e-02) (181, 1.12056096168121066547e-01) (182, 1.04734310403164568304e-01) (183, 1.01646073542686288249e-01) (184, -2.28065476510411507816e-01) (185, -2.62406737787980320897e-02) (186, -9.41715799996416746097e-06) (187, -1.29822174858186048518e-02) (188, -6.84857327847096936102e-02) (189, -1.04588499742966651446e-02) (190, -1.31047173002481420756e-01) (191, 5.49895719962915988099e-02) (192, -1.09195990911037973947e-01) (193, -1.37501628003415199419e-01) (194, -1.44442990526980175048e-01) (195, 1.18829772558984414488e-01) (196, -1.62062351606732310549e-02) (197, 1.12523536852371694450e-01) (198, -5.01909480333989563294e-02) (199, 1.01242426382060102252e-01) (200, -1.31171965070744911408e-01) (201, 4.27694123732292943996e-02) (202, 1.71222924995343084298e-01) (203, 2.25923369462237094707e-01) (204, -1.85402809438933918740e-01) (205, 1.40638830872177947318e-02) (206, 3.55883322178698283805e-03) (207, -1.31784377365412430638e-01) (208, -1.35414390159567216143e-01) (209, -6.28582430441480301264e-03) (210, -1.43802704312060714020e-01) (211, -2.20569131327822513799e-02) (212, 6.34847925403793644783e-02) (213, -1.01890239174650093501e-01) (214, -1.23503578368553440514e-01) (215, -2.40033729318867260216e-02) (216, -1.53212850363895231043e-01) (217, -7.10610954420001217358e-02) (218, 6.82416463894043156396e-03) (219, -5.07607123580681440789e-02) (220, -1.80644556774022302381e-01) (221, -1.01770274721265818751e-01) (222, -1.09669569628579183229e-01) (223, -5.00320751565248716952e-02) (224, 3.39655493616228820741e-02) (225, 2.79735937009901701467e-02) (226, -5.95256685295179124862e-02) (227, -6.63421643454511211768e-02) (228, -8.89863173407579449714e-02) (229, 1.46231026187099025573e-03) (230, -1.04853250777786913273e-01) (231, -3.42604524843464625095e-02) (232, -6.51668006411202649364e-02) (233, -1.43967239459335843987e-01) (234, -4.18886314487619051961e-02) (235, 2.28323283200555469941e-02) (236, -1.57751383662938393648e-01) (237, -2.87662643984910038064e-02) (238, -1.27007793702080401532e-01) (239, 4.54920240968101144419e-02) (240, 4.59739217292535334858e-02) (241, -2.79107930447787359884e-02) (242, -1.35384683532089128422e-01) (243, -1.63653944344930614430e-02) (244, 1.07941726060075422061e-02) (245, -2.77636833643376129688e-02) (246, -3.18089010962265064664e-02) (247, 5.70234563877122374587e-02) (248, 1.60305216334179850834e-01) (249, -1.75019008683697713247e-01) (250, 8.45215316514394687797e-02) (251, -2.51618452906606338004e-01) (252, 5.76460823980120481980e-02) (253, -3.62547240549595112258e-02) (254, -4.84781997843214615407e-02) (255, -9.10430301218844439948e-02) (256, -6.33107720189528683230e-02) (257, -3.54805072599218354612e-02) (258, 1.76840239954055011840e-01) (259, -7.39945896798316488097e-02) (260, -1.30839389490598173582e-01) (261, 2.69316581881355487926e-01) (262, -1.70613684066007131879e-01) (263, -1.17580956509076017813e-01) (264, 2.27436965402688207050e-01) (265, -4.87345921166204149033e-02) (266, -1.13822450337326422365e-01) (267, -2.26312414988127132143e-02) (268, -1.26793317540204064642e-01) (269, -7.17934163425152094273e-02) (270, 5.73022198931802742572e-02) (271, -1.66672923907544401345e-01) (272, 9.39437750509739960547e-02) (273, -1.17557439984415215695e-01) (274, -1.39397108720869328247e-01) (275, 1.02172675976436796996e-01) (276, -9.73982832895669281559e-02) (277, 2.79439678682235209672e-02) (278, 3.98923978049271696356e-02) (279, -1.38709845071005949402e-01) (280, -5.69672009908363426167e-03) (281, 4.27538336870404850343e-02) (282, -1.17673013384722066621e-01) (283, -3.30344874446611728655e-03) (284, -4.40538575751264829816e-02) (285, 1.00956065701334821161e-01) (286, 7.86820150764366843532e-02) (287, 7.16440043762611444844e-02) (288, -2.83268115150303624594e-02) (289, 1.43912480570868056562e-01) (290, -8.35438650222219830743e-02) (291, -9.63882866463427606663e-02) (292, 8.26750754651261188233e-02) (293, -9.13328293632716115003e-03) (294, 1.00312561341700356987e-01) (295, 9.83656155357234655845e-03) (296, -6.10825398109681311221e-02) (297, -5.30779350226484730735e-02) (298, 1.68268540549332296097e-01) (299, 6.39300771180012911143e-02) (300, 8.50807797444433494549e-02) (301, 1.64486110486195720448e-02) (302, -2.46215029956907208164e-02) (303, 6.27176205717439733123e-02) (304, -6.94983729837769514948e-02) (305, -4.04372268556074145052e-03) (306, -1.51936222976770840543e-01) (307, -3.65020959956393831192e-01) (308, -1.20706843941083413752e-01) (309, -1.06339128036684618661e-01) (310, -4.30529682230549673450e-02) (311, 6.15398604071413710126e-02) (312, 3.61272868618278467090e-02) (313, 6.08483486836797551889e-02) (314, 2.23071676461501465505e-02) (315, 9.74136921858250875994e-02) (316, -1.70319284692468347897e-01) (317, 8.24341656003793471497e-02) (318, 1.37404305893348843703e-01) (319, -4.32222824751436155311e-04) (320, 6.30907312852982959939e-02) (321, 3.48494342339216375826e-02) (322, 9.49088461058971155637e-02) (323, 4.05347302178927990091e-02) (324, 1.09489322709240652354e-01) (325, -6.34564361396314641217e-02) (326, 7.43290853703666102442e-03) (327, -8.65821777351111904197e-03) (328, 1.26792553603764651671e-01) (329, -1.60963810148365797648e-02) (330, 6.31423568610583324512e-03) (331, 2.14629179971600400623e-02) (332, 2.32539649165981535117e-02) (333, -1.08366455857581672761e-01) (334, -1.32829993722304667836e-01) (335, -8.79372297645952816225e-02) (336, 5.44288110113359813180e-02) (337, -5.36490391051773624076e-02) (338, -3.25866977493325174486e-02) (339, -7.25807117589973432858e-02) (340, 5.12099932067391350188e-02) (341, 4.49315898755068485193e-02) (342, -2.17335029996060455360e-02) (343, -3.80177608573130862424e-02) (344, -4.22712051494328541756e-02) (345, -1.14088282926068079054e-02) (346, -1.01609641315744361756e-01) (347, 7.75840276870886358385e-02) (348, 4.11161863780763053855e-02) (349, -5.88232608804903980837e-02) (350, 1.50138206377096734660e-03) (351, -4.57456423374244663949e-02) (352, -3.48849876561380042861e-02) (353, -2.55995962767808574179e-02) (354, -2.74147669321851902846e-02) (355, -8.11025961129919065185e-02) (356, -5.59388226011557493367e-02) (357, -1.19829066957329644083e-01) (358, -9.54377487871214541526e-02) (359, -5.24023907542914696434e-02) (360, -4.22996896009991060761e-02) (361, 4.50034917735353881540e-02) (362, 1.48939543509336469462e-01) (363, 1.58860782766946151412e-01) (364, 5.68681309293702988428e-02) (365, 6.00410878279170126537e-02) (366, 1.13450910390814861672e-02) (367, -3.94198772211031139845e-02) (368, -8.01642603573302914288e-02) (369, 1.50896195822569828549e-01) (370, -9.40351674882225901930e-02) (371, -2.04628398442845610417e-01) (372, -1.23682710374245011242e-01) (373, 4.21020155935107956435e-02) (374, 4.68217233037740918067e-02) (375, -6.09341681457922865889e-03) (376, 2.07591128578851549791e-02) (377, -6.14693819520987713712e-03) (378, 2.78898941227929825226e-02) (379, -1.76425396637880649298e-01) (380, 4.32122639976209796386e-02) (381, -2.75390539900885883418e-02) (382, -1.00182404399220006952e-01) (383, 5.06421762346931647603e-02) (384, -1.02141072799580789887e-01) (385, 5.11105902779899826105e-02) (386, -6.69175689039368665201e-02) (387, 1.92057620832366063301e-02) (388, 1.96590800269770583919e-02) (389, -8.83486926025769253590e-02) (390, 6.00257362668945859685e-02) (391, 8.92350476376683882096e-02) (392, -1.10055419401775586574e-01) (393, 4.98722296080457774825e-02) (394, 1.31028357296855579861e-01) (395, -3.10532477952780890107e-02) (396, -6.07619123577667480385e-02) (397, 5.75786033125726889881e-02) (398, -5.79185932186666585508e-02) (399, 1.70886198051707453860e-03) (400, 5.95772038236825618451e-02) (401, 6.60396575009465636175e-02) (402, -4.72502275471016058850e-02) (403, 2.83884931189446257371e-02) (404, -7.86672100407412727696e-02) (405, -1.45661505064268587128e-01) (406, -1.59098209407387169989e-01) (407, -2.51350542889344844011e-02) (408, -3.03860753129455915533e-03) (409, -5.47136632729261773722e-02) (410, -1.19753842518109179793e-02) (411, 9.87055687376124923915e-02) (412, 3.33859811050591578918e-02) (413, -4.04340716004552916396e-02) (414, -5.06438456589063251689e-02) (415, 8.49545399890428432066e-02) (416, 1.10791539663826016371e-01) (417, 9.41416404515981880552e-02) (418, 2.70394202771590125289e-02) (419, 8.89832204449957919756e-02) (420, -3.40808334608758839446e-02) (421, 1.05542881250996090081e-01) (422, -2.02331819068222555635e-02) (423, 1.05916672983750407427e-02) (424, 1.58310106654073849686e-02) (425, 6.22985351911155213478e-02) (426, -8.71988232302882276814e-02) (427, -4.52897379920352144422e-02) (428, 4.95604586117392373334e-02) (429, -2.02411525305703055011e-01) (430, -3.88464690865882589232e-02) (431, 1.28858593125880438457e-01) (432, 1.60986598074815911996e-01) (433, -1.05159908453196559996e-01) (434, -4.10404413756509586775e-02) (435, -1.15128889894879918310e-01) (436, -1.68499355170396214465e-01) (437, 5.93074068227598255598e-03) (438, 3.83316144781979412787e-03) (0, 4.11496144500758317952e-02) (1, 1.64725189666619142859e-01) (2, -2.64393510756526575745e-02) (3, 1.36134332090570991936e-01) (4, -8.96565885790041733339e-02) (5, 5.79009062077109754041e-02) (6, 1.22239644922080198386e-01) (7, 1.13125222915923875910e-01) (8, 9.06044958317452492347e-02) (9, -8.04886062355384540590e-02) (10, -6.50910601493468604639e-02) (11, 4.33257166161286691453e-02) (12, -2.54208552963301193106e-02) (13, -1.23225416384302163819e-01) (14, 5.11271993678667838190e-02) (15, -1.95882581994884119592e-01) (16, 1.35728845784373721231e-03) (17, -7.20084590241456962145e-02) (18, -8.12341465825412722968e-02) (19, -5.70852648298632511792e-02) (20, 7.50871822237968444824e-02) (21, -8.01946145269134269551e-02) (22, 2.46240951000217013489e-02) (23, -8.15989636810778851128e-01) (24, -7.22972342339487927809e-01) (25, 1.20068781660696802249e-01) (26, -3.68568060809419950630e-02) (27, -3.15215779519406325004e-02) (28, -1.23863552189398026804e-01) (29, 1.19529756882869216128e-02) (30, 4.27184239379217733923e-01) (31, 5.57162065135188622200e-01) (32, -2.26887516828892049636e-01) (33, -1.47151794272084746051e-01) (34, 3.16315178548119468882e-01) (35, 1.29288530499662730061e-02) (36, -1.83028969607845676260e-01) (37, -2.78050463257093705138e-01) (38, -2.28516615427250241455e-01) (39, -2.31838935779505345147e-01) (40, 2.45106077065588068287e-01) (41, 2.38007197478532883661e-01) (42, 6.72764765838747835769e-02) (43, -1.04549259361990443118e-01) (44, -7.72982690787219067774e-02) (45, 5.80363465147487045392e-02) (46, -1.08261807038531263081e-01) (47, 2.76360303771131965433e-01) (48, -1.15233395161056906275e-01) (49, -1.96497549106188024171e-01) (50, -1.64506331746805511962e-01) (51, -1.42128644294352041166e-01) (52, -1.30007111418608434228e-01) (53, 9.36169233778550574643e-02) (54, 1.79134190318553987442e-01) (55, 6.74533368230019469980e-02) (56, -2.87010436831106108269e-01) (57, 2.24053196553814296110e-03) (58, -1.19015572800124591613e-01) (59, -7.06340963296329449328e-01) (60, 9.06024604654095816469e-02) (61, 2.56852502739575438984e-01) (62, -1.06373144126128374443e-01) (63, -1.13453303095777627285e-01) (64, 3.64896327995954006251e-01) (65, 1.20380188704164184377e-01) (66, -6.11696607896713498431e-02) (67, 1.64642485386274739501e-01) (68, 3.55566014050555490034e-01) (69, 9.51679697252426209930e-02) (70, -5.96016970927879807807e-02) (71, -1.43460934525922761962e-01) (72, -4.37667366583717881712e-02) (73, -9.19162770110219656816e-02) (74, 3.50525086671425289975e-01) (75, -1.35100700324168515598e-01) (76, -4.11704169627887250904e-01) (77, 4.56183828528009122083e-02) (78, -1.78559914239134309710e-01) (79, -5.00618788539567649565e-01) (80, 1.85060827850792669613e-01) (81, 8.35724855104960639984e-02) (82, -1.23680750590408380929e-01) (83, -2.02748902041829850290e-03) (84, 1.98820378466403935303e-01) (85, 1.79524414882465017940e-02) (86, -2.28945761357541993641e-01) (87, 8.07565042587671672036e-02) (88, 1.73044635151612058444e-01) (89, -4.49557958779732078081e-02) (90, -2.38168946079637018631e-02) (91, 5.41803137044386609600e-02) (92, -1.18996591830055689631e-01) (93, -1.21651024442005050580e-02) (94, 5.26423642031775163019e-01) (95, 2.64993086319595227973e-01) (96, -5.64617354586843034348e-01) (97, 3.70992660826791609274e-02) (98, -2.99933076837882339749e-01) (99, -8.21237354423078103061e-01) (100, -1.53390423930200338332e-02) (101, -7.04571822666236052823e-02) (102, 2.13568449718403913229e-01) (103, -8.33872588758591964941e-02) (104, 3.39862264845521511170e-01) (105, 3.64927515521292211709e-01) (106, -1.64660001124719179710e-01) (107, 4.25477497988174468979e-01) (108, 2.45904589170462095638e-01) (109, 2.62410613285520621929e-01) (110, 2.29683362281128539140e-01) (111, -1.47526831899757931987e-01) (112, 2.23173896716422209829e-01) (113, -3.37620656025630239139e-01) (114, 4.06814524363409923957e-01) (115, -6.41252050726102973410e-02) (116, -1.17282531784851662415e+00) (117, -5.39960357958044201432e-01) (118, -4.87435743083863171066e-01) (119, -1.55969829129429937709e+00) (120, -2.87388521634111097913e-02) (121, 1.38707574171385242950e-02) (122, 1.39195026291297874188e-01) (123, -6.23674323222957016633e-01) (124, 5.24321911680937557954e-01) (125, 1.15547547014783022479e-01) (126, -4.71106152392123500583e-01) (127, -1.29459028209424120703e-01) (128, 4.41760232531230812025e-01) (129, 3.22257761289317379294e-01) (130, 2.54115906834697258265e-01) (131, 7.33193337958736642695e-03) (132, 3.54892357389279544666e-02) (133, 1.40980198126183786655e-01) (134, -5.67583980701102872035e-02) (135, -1.71705730730472350132e-01) (136, -3.93285006145403459588e-01) (137, -2.93764779035550240016e-02) (138, -9.36652297082050944166e-02) (139, -7.46913058053529366198e-01) (140, 1.82425538385465046964e-01) (141, -6.17549535686182163308e-02) (142, -6.43703718338399233367e-02) (143, -4.26389729574830789183e-01) (144, 4.62769764594497090560e-01) (145, 6.60874648107414586207e-02) (146, -4.81374158178694389054e-01) (147, 1.83120164589163740565e-02) (148, -6.22547876718206674718e-02) (149, 2.07225016424789160174e-01) (150, 2.25857817451754400162e-01) (151, -2.24457298701375915218e-02) (152, 3.25674475933276016959e-02) (153, 2.41947475736846911998e-01) (154, 2.02563371299873729026e-01) (155, -4.24620545651134773113e-01) (156, -2.59086474053747239932e-01) (157, -1.55477944172238591314e-01) (158, -2.02170163026871366196e-02) (159, -3.75481604986775630017e-01) (160, 1.51550052643767918514e-01) (161, 1.05157091424372295396e-01) (162, -4.76015475284069580764e-02) (163, -2.24918781689870700413e-01) (164, 2.33308422362390632809e-01) (165, 9.84580492022702202792e-02) (166, -2.27128055095667635843e-01) (167, -1.33585405230773418550e-01) (168, 2.29797820840291294742e-01) (169, -7.99701874573912827038e-03) (170, 4.05107113851848388286e-01) (171, 7.59286641526580041717e-02) (172, -1.42144638599923628375e-01) (173, -1.46181643864729343685e-01) (174, 2.89546313440489977431e-01) (175, 1.53519886476189970637e-01) (176, -3.13624856262185447431e-01) (177, -3.15824012158941125339e-01) (178, -1.60960172231028042500e-01) (179, -5.90040044812651154338e-01) (180, 2.35381594361913998315e-01) (181, 2.15859003467305937685e-01) (182, -1.31380216136569916152e-01) (183, -1.85461180042724799177e-01) (184, 4.01020508855842838791e-01) (185, 1.26502188517499197795e-01) (186, -2.20789747277540804316e-01) (187, 2.48381080080856853076e-01) (188, 2.97666741874661633371e-01) (189, -2.01066528728728738384e-01) (190, 3.04527624712539857210e-01) (191, -3.15922670653132509067e-01) (192, 5.77975606862972390854e-02) (193, 1.75871376991335107154e-02) (194, -9.28084294178475599502e-02) (195, -2.86657403375199293372e-01) (196, -4.15247906913530084871e-01) (197, -2.05111210636241381167e-01) (198, -1.70906163874122829505e-01) (199, -5.91234796434419895839e-01) (200, 3.68317162853515567278e-01) (201, -1.33747788497570990751e-01) (202, -1.03477996057192642154e-01) (203, -2.65204156245366751143e-01) (204, 2.37878667297285295579e-01) (205, -9.58307411086725333127e-03) (206, -3.55966984050527124328e-01) (207, -4.00058688031053183431e-02) (208, 2.61303457987145548724e-01) (209, 7.01316671153224824309e-02) (210, 4.81972755738024685734e-02) (211, -1.14279772038583846139e-01) (212, -1.21945909503762453530e-01) (213, -1.15875945416562750601e-01) (214, -7.24823730902879465043e-02) (215, -1.23479214306945264679e-01) (216, -2.47693919924914934816e-02) (217, -3.15521176562817279310e-02) (218, -3.82343366118469835113e-02) (219, 4.23509614536659584338e-02) (220, 1.02237635841960466943e-01) (221, -8.83349305408288008878e-03) (222, 8.25150530863917597291e-02) (223, -2.44942115795281634139e-01) (224, -3.54035393708479403929e-02) (225, -9.50809978191121535351e-02) (226, -7.25634795771310514567e-02) (227, -6.01305723314331658225e-02) (228, -2.06669689483809482233e-01) (229, 1.42629792988890145150e-02) (230, -1.20916101925388180804e-01) (231, 2.06715392358634258985e-01) (232, -1.78151486711115476791e-02) (233, 1.25548049775189823896e-01) (234, -2.22368027405224618839e-03) (235, 6.21454624365252936147e-02) (236, 8.42209730792536047372e-03) (237, 1.09562341546591401203e-02) (238, 6.38811678323979309502e-02) (239, 9.72078553951913754139e-02) (240, 1.89765070713110273193e-01) (241, -2.55304200712855811073e-01) (242, -4.22447327293208399479e-02) (243, 7.95136065085965820787e-02) (244, 2.30838932525608414581e-01) (245, -3.06831931002701119304e-01) (246, 1.31604538815111998806e-01) (247, -2.14530182714951334066e-01) (248, 4.21721588751258896766e-02) (249, -2.54251762438484241180e-01) (250, 1.85295546601202287818e-01) (251, -1.33218192048080386058e-01) (252, 1.67174512032346095358e-01) (253, -1.60762148794258541429e-01) (254, 3.22354332853468206199e-01) (255, -1.06333754716433193099e-01) (256, 1.50962054960146474514e-01) (257, -1.23741234831403382199e-01) (258, -9.85224238034834443045e-02) (259, -2.27616485852857389216e-02) (260, 7.16285387833005965375e-02) (261, -3.36091048811643255956e-01) (262, -6.85176693636307520413e-03) (263, 1.69851891382999109492e-01) (264, -1.26135648158933355578e-01) (265, -1.97964437388148978281e-01) (266, 1.32903211540333882068e-01) (267, 1.90499990002005285816e-02) (268, -2.46973251470021026854e-01) (269, 1.70366053468328004783e-01) (270, 3.56265961937125619219e-01) (271, -2.98851096074293665072e-01) (272, -1.34270001757220841521e-01) (273, 2.86954179715595392164e-01) (274, -2.68078979249257387529e-01) (275, 1.09714359637537416103e-02) (276, 3.15664737146651663835e-01) (277, -2.20569205481796898338e-01) (278, -8.10129535967647196326e-02) (279, 4.70473035851918908179e-01) (280, -1.91481782175103920629e-01) (281, -1.54423926814253015261e-01) (282, 2.05042331317636689070e-01) (283, -3.70108480575585818695e-01) (284, 1.04362586902509255071e-01) (285, -5.53534373000471105475e-02) (286, -6.24170679273801549958e-04) (287, -1.81103256010154506361e-01) (288, -1.15541725341694295759e-01) (289, -3.51973750988164191256e-01) (290, -5.43034178168263978459e-02) (291, -1.56484939928511729290e-01) (292, -3.23243972182055805398e-01) (293, -5.55807961202375785947e-02) (294, 5.01532928998763491424e-02) (295, -4.39804192486589820565e-02) (296, -5.35583453849521676227e-02) (297, -1.79554806205037609246e-01) (298, -2.28698874268449786618e-01) (299, -2.96400393133657680256e-01) (300, -2.58399486082713375490e-02) (301, 9.91445646183238410432e-02) (302, -1.73574336271719864566e-01) (303, -1.86362281557044262570e-01) (304, 1.01073168588604989093e-01) (305, 1.76831505025000751408e-01) (306, 3.00437295891388511659e-01) (307, 9.22469087377323471166e-01) (308, 2.17134035994856117169e-01) (309, 1.81350493871854756556e-01) (310, 3.15606307456260837263e-01) (311, -1.46153135304688663182e-02) (312, -1.42473803078357774687e-01) (313, -1.92698578827881411568e-01) (314, -1.91219716311558651789e-01) (315, -6.16122595076810664061e-02) (316, 2.15005114118124507350e-01) (317, -2.57993737423834856859e-01) (318, -4.06561981516922674174e-02) (319, -9.57001394331243177005e-02) (320, -1.73604585559808205497e-01) (321, -2.22660364491383683250e-01) (322, -2.78142882158314619367e-01) (323, -2.58954518889684459637e-01) (324, -1.30274344707507067076e-02) (325, 2.87077275962930811293e-01) (326, -1.27943054437936853951e-01) (327, -1.91912182227695765624e-01) (328, -5.28858945955497650182e-02) (329, -1.39954098842333202191e-01) (330, -6.39655418512323076241e-02) (331, 4.69094794498122191762e-02) (332, 3.27427888219976384598e-02) (333, 1.60916789857816322495e-01) (334, 3.98052144848765221408e-01) (335, -4.60852746954961076109e-02) (336, -2.25641891682772238736e-01) (337, 1.28046529400441005953e-01) (338, 7.04000510742351370830e-02) (339, 1.96465984726943182492e-01) (340, -6.08328465995986791826e-02) (341, -8.93647175275374960890e-02) (342, -1.67097622458056871420e-01) (343, -2.39973078623962332578e-01) (344, -4.42545536317655655023e-02) (345, -9.32497626585007677313e-03) (346, 3.27276982344473166275e-01) (347, 2.14270650051843376815e-02) (348, -1.14364483391922691635e-01) (349, 1.19330302776040897417e-02) (350, 1.81710519230050999984e-02) (351, 2.24434939316605630566e-02) (352, -4.04817609461075311739e-02) (353, -6.74250530615992244021e-02) (354, 7.84015047455524916042e-02) (355, -8.06453020815970506030e-02) (356, 5.09736836130616349783e-02) (357, 1.55157273462634498484e-01) (358, 1.30273868847581991703e-02) (359, 1.22382598520081695148e-01) (360, 3.51559218434623690919e-02) (361, 1.24085229753438650024e-01) (362, -6.16769021134647016380e-02) (363, -4.97730427302466166273e-02) (364, 6.55681149396634271875e-02) (365, 4.83063169469560987901e-02) (366, -1.87147569853139461582e-01) (367, 1.42865475691889398657e-01) (368, 1.82838435898938396484e-02) (369, -3.75086043726315931934e-01) (370, 2.57194534145756513455e-02) (371, 1.36438232321459129714e-01) (372, -4.15842027563327998330e-01) (373, 2.39692513786667671383e-01) (374, 3.28151280276861370688e-02) (375, -2.53853589679866431528e-01) (376, 1.33825521922642604045e-01) (377, 1.42641999076537018265e-01) (378, -5.43673405312467217243e-01) (379, 2.74295156755663016579e-01) (380, 1.05074349407091260922e-01) (381, -4.51940603161348819494e-01) (382, 7.93401735260276658179e-02) (383, 2.42928343458828688295e-01) (384, -3.00646210680878323007e-01) (385, -4.33401217627586918257e-02) (386, 3.89003916297593621554e-01) (387, -2.91154542892059997605e-01) (388, 9.29790150781108770683e-02) (389, 3.36823912614502618545e-01) (390, -8.54051009459046300831e-02) (391, -5.18956112814748168893e-02) (392, 2.11744914054263183578e-01) (393, 4.13634471952341251089e-02) (394, -7.14702311230713815959e-02) (395, -1.82876924949637337248e-01) (396, -4.69951446884783463620e-02) (397, -5.47351583951184439414e-01) (398, -1.49280596998211639859e-01) (399, -2.32403165639721610847e-02) (400, 5.37331836222227979261e-02) (401, -8.26443599862745070794e-02) (402, -3.27828382088045031106e-02) (403, -1.74787689145789056598e-03) (404, -2.65824010998681296847e-02) (405, -5.10090749971867027379e-02) (406, 1.77267942049366328261e-01) (407, 9.85708246389829512157e-02) (408, 6.95878318229301434661e-02) (409, 1.43904563038612876014e-01) (410, 2.82777004836425926992e-01) (411, -3.58748875867492336700e-02) (412, 6.91946361291731065757e-02) (413, 8.49815579321000907909e-02) (414, 9.55007053122387955524e-02) (415, 1.83243257038423167093e-02) (416, -1.28613113294252179308e-01) (417, -2.17973285346437679888e-02) (418, -8.49064158816591751933e-02) (419, 1.15594788295197304501e-02) (420, -1.98563613469425165325e-01) (421, -2.67065226215680628918e-01) (422, -2.27386117837825363353e-01) (423, -3.23708683189645962663e-01) (424, -3.41611141504472248798e-01) (425, -1.90086519474257392703e-01) (426, 9.16588361599477569053e-02) (427, 1.84680512632974490328e-02) (428, -3.49735659821520878179e-03) (429, -2.97139785897445503349e-02) (430, -1.18729301012266363902e-01) (431, -1.20776926613555511680e-02) (432, -3.71871631936907032223e-01) (433, -2.20016617866310937313e-01) (434, -8.38230845557222797870e-02) (435, 1.53879975738406005181e-01) (436, 1.55726094979084073167e-01) (437, -5.15828681425316085130e-02) (438, -1.28116894851737023187e-01) (0, -2.26169884412978673682e-02) (1, 8.97579132651309952173e-02) (2, -9.60647869263703269027e-02) (3, 8.73150065341242870298e-02) (4, -3.90509755511231695935e-02) (5, -8.37149835467079495022e-02) (6, 3.48908342418698599885e-02) (7, -1.49436192619801806042e-02) (8, -6.30907027781006102263e-02) (9, -6.54903438118637770682e-02) (10, -5.32092299515921421382e-02) (11, -7.91960173352431601179e-02) (12, 8.51695342349473166754e-02) (13, -1.26056049693274635493e-01) (14, -1.19564499707123829408e-02) (15, -3.27505102820626406435e-02) (16, 3.71016498051453171708e-03) (17, 2.36607831561224529748e-02) (18, -7.01221371774151114309e-02) (19, 2.55680855903211469438e-02) (20, -8.80771875381469726562e-03) (21, 1.55564246788511498926e-02) (22, 9.23993138969110699987e-02) (23, -7.82067600188018074991e-02) (24, -2.56087257768094711530e-01) (25, 8.76096546514692486873e-02) (26, 6.54659891112172043215e-02) (27, 9.54774639963549970334e-02) (28, 2.44568895186293971261e-03) (29, -7.19230679543919199093e-02) (30, 1.40020252832649405583e-01) (31, 1.38445749736828466192e-01) (32, 5.19557643909869526500e-02) (33, 3.03064589674511136730e-02) (34, -5.57177762699808953872e-02) (35, -6.31515496221286415368e-02) (36, -2.34279813358068030038e-02) (37, 6.29991273599695214558e-03) (38, -1.41997913425228161621e-01) (39, -1.96696564412854518755e-01) (40, -1.08426915621155084413e-01) (41, 6.13245817738759316229e-02) (42, -8.30337790121698018919e-03) (43, -1.22174227231212850775e-01) (44, 2.89323448122691152806e-02) (45, -1.74822807711694505617e-02) (46, -6.43113448988401059658e-02) (47, -3.42217790374987618218e-02) (48, -9.64936444667700010669e-02) (49, 5.37361383347341528549e-02) (50, 3.85688636582946706155e-02) (51, -7.79502162117453462065e-03) (52, 5.98029265757668848646e-02) (53, -7.58398557821018670655e-02) (54, 6.07564947710486358279e-02) (55, 7.92243823230120575163e-02) (56, -1.13658983794662743483e-01) (57, -4.65515481924730772922e-02) (58, -7.42712547884584739499e-02) (59, -1.82966622268089768033e-01) (60, 1.14739251513441831154e-02) (61, -4.42783197413464460479e-02) (62, -4.81379562232059216020e-02) (63, -1.77121286491478346914e-01) (64, 2.04772357428934126400e-01) (65, -2.39870367118392470440e-02) (66, -1.40528355651068942445e-01) (67, 4.57510197444059921179e-02) (68, -4.15855317243895433732e-03) (69, -7.83912042229932548576e-02) (70, -2.94563741508728077489e-02) (71, -8.26163756997131126791e-02) (72, -1.42234540357617456063e-01) (73, -9.11393169551409781937e-02) (74, 4.55080462684634493020e-02) (75, -8.53915454721653616188e-03) (76, -1.13743214679513801602e-01) (77, 1.10252558978780890175e-02) (78, -1.09775664596767436043e-01) (79, -1.05176416915448253664e-01) (80, 1.45004476413417737746e-01) (81, -1.38286132583465559698e-01) (82, -4.27711634641813123747e-02) (83, -1.23696435722497097287e-01) (84, 1.18768946334375916085e-01) (85, -6.91058898686763151131e-02) (86, -2.07168532088659596013e-01) (87, -6.63921150770143131403e-02) (88, 3.37347537176834327832e-02) (89, -1.00849482564788456296e-01) (90, 4.91933369406231391086e-02) (91, 4.59369856365636555773e-02) (92, -7.20686171332868830142e-02) (93, -4.10705438360319460833e-02) (94, -1.86315515200823449138e-02) (95, 8.19142964485695956878e-03) (96, -3.93541398105144851760e-02) (97, -1.17284907346377600956e-01) (98, 8.73227750145958402095e-03) (99, -1.64380938383012653592e-01) (100, 9.69404777062794070774e-02) (101, -1.19993188707492055151e-02) (102, -4.49919571683873448231e-02) (103, -4.07586288771333432601e-02) (104, 1.91732712525276211002e-01) (105, 1.22758298073982641263e-01) (106, -9.38191820188715858153e-02) (107, 1.48440073374944258439e-02) (108, 1.11852728360387593254e-01) (109, 7.38538252114246812630e-02) (110, -4.00481863501266979743e-02) (111, -8.72652625187623764980e-02) (112, -1.67218039147639802033e-01) (113, -1.69245365051278275938e-03) (114, 1.05545829564491072672e-01) (115, -3.93161195685466507976e-02) (116, -2.10776404005582423951e-01) (117, -2.77719749295254683674e-02) (118, -1.58611955820645494919e-01) (119, -3.48672679359115667008e-01) (120, -8.17696587577328992680e-02) (121, 2.49999325478048664562e-02) (122, -8.61740606675396036973e-02) (123, -1.39151332493377188904e-01) (124, 5.66169398176674925488e-03) (125, 3.82570593182323948067e-02) (126, -1.74569681007819610397e-01) (127, -1.65665655811743611769e-01) (128, 8.78603977712473227513e-02) (129, 1.50511019007408975573e-02) (130, 3.98951031926172774988e-02) (131, -2.77418515097788316581e-02) (132, -1.48714613654114369279e-01) (133, 8.54279466863818864875e-02) (134, -7.99284839172739042246e-02) (135, -5.38836796027755780131e-03) (136, -4.63018432189825288048e-02) (137, 2.39829762383266358039e-02) (138, -1.24205360217625335184e-01) (139, -1.52431753646988771278e-01) (140, 1.32082853485621681822e-01) (141, -5.22688041752258428230e-02) (142, -1.14619656653034279747e-01) (143, -5.60923433808550170321e-02) (144, 1.89394224465705938998e-02) (145, -6.20118450910375502289e-03) (146, -1.45685837440413579191e-01) (147, -9.59193352259971598883e-02) (148, -6.42882149856921214504e-02) (149, -5.00359084407051291077e-02) (150, 1.04045760236272225030e-01) (151, -2.60110485329748050698e-02) (152, -7.53907154259938622198e-02) (153, 4.63240803382677091005e-02) (154, 9.97677915870346931904e-02) (155, -5.09471532995350862016e-02) (156, -1.50744314764396536432e-01) (157, -1.62113147092255438508e-01) (158, 3.22597004017284791355e-02) (159, -1.18668843125962583662e-01) (160, 2.08180691194985056924e-01) (161, -7.46537145622881842533e-02) (162, -1.78267067519278343823e-01) (163, -2.17891741000334288048e-01) (164, -2.61904219357228795761e-02) (165, -7.31869047662008082034e-02) (166, -1.77976415095798201627e-01) (167, 2.40269745664951420161e-02) (168, -5.76540481742714230884e-02) (169, -1.03520555686723525479e-01) (170, 1.03885664587551843074e-01) (171, 4.13066297558331574358e-02) (172, -4.11691250412310888462e-02) (173, -1.21831791690006685513e-01) (174, 5.58684729572468188885e-02) (175, -3.06564686313382309124e-02) (176, -9.17867642556880608540e-02) (177, -1.93511738980434444546e-01) (178, -6.51295622516134264934e-02) (179, -1.65010835937259653372e-01) (180, 2.09483049642315344308e-01) (181, 