FANN_FLO_2.1
num_layers=3
learning_rate=0.100000
connection_rate=1.000000
network_type=0
learning_momentum=0.300000
training_algorithm=0
train_error_function=0
train_stop_function=0
cascade_output_change_fraction=0.010000
quickprop_decay=-0.000100
quickprop_mu=1.750000
rprop_increase_factor=1.200000
rprop_decrease_factor=0.500000
rprop_delta_min=0.000000
rprop_delta_max=50.000000
rprop_delta_zero=0.100000
cascade_output_stagnation_epochs=12
cascade_candidate_change_fraction=0.010000
cascade_candidate_stagnation_epochs=12
cascade_max_out_epochs=150
cascade_max_cand_epochs=150
cascade_num_candidate_groups=2
bit_fail_limit=3.49999999999999977796e-01
cascade_candidate_limit=1.00000000000000000000e+03
cascade_weight_multiplier=4.00000000000000022204e-01
cascade_activation_functions_count=10
cascade_activation_functions=3 5 7 8 10 11 14 15 16 17 
cascade_activation_steepnesses_count=4
cascade_activation_steepnesses=2.50000000000000000000e-01 5.00000000000000000000e-01 7.50000000000000000000e-01 1.00000000000000000000e+00 
layer_sizes=439 101 3 
scale_included=0
neurons (num_inputs, activation_function, activation_steepness)=(0, 0, 0.00000000000000000000e+00) (0, 0, 0.00000000000000000000e+00) (0, 0, 0.00000000000000000000e+00) (0, 0, 0.00000000000000000000e+00) (0, 0, 0.00000000000000000000e+00) (0, 0, 0.00000000000000000000e+00) (0, 0, 0.00000000000000000000e+00) (0, 0, 0.00000000000000000000e+00) (0, 0, 0.00000000000000000000e+00) (0, 0, 0.00000000000000000000e+00) (0, 0, 0.00000000000000000000e+00) (0, 0, 0.00000000000000000000e+00) (0, 0, 0.00000000000000000000e+00) (0, 0, 0.00000000000000000000e+00) (0, 0, 0.00000000000000000000e+00) (0, 0, 0.00000000000000000000e+00) (0, 0, 0.00000000000000000000e+00) (0, 0, 0.00000000000000000000e+00) (0, 0, 0.00000000000000000000e+00) (0, 0, 0.00000000000000000000e+00) (0, 0, 0.00000000000000000000e+00) (0, 0, 0.00000000000000000000e+00) (0, 0, 0.00000000000000000000e+00) (0, 0, 0.00000000000000000000e+00) (0, 0, 0.00000000000000000000e+00) (0, 0, 0.00000000000000000000e+00) (0, 0, 0.00000000000000000000e+00) (0, 0, 0.00000000000000000000e+00) (0, 0, 0.00000000000000000000e+00) (0, 0, 0.00000000000000000000e+00) (0, 0, 0.00000000000000000000e+00) (0, 0, 0.00000000000000000000e+00) (0, 0, 0.00000000000000000000e+00) (0, 0, 0.00000000000000000000e+00) (0, 0, 0.00000000000000000000e+00) (0, 0, 0.00000000000000000000e+00) (0, 0, 0.00000000000000000000e+00) (0, 0, 0.00000000000000000000e+00) (0, 0, 0.00000000000000000000e+00) (0, 0, 0.00000000000000000000e+00) (0, 0, 0.00000000000000000000e+00) (0, 0, 0.00000000000000000000e+00) (0, 0, 0.00000000000000000000e+00) (0, 0, 0.00000000000000000000e+00) (0, 0, 0.00000000000000000000e+00) (0, 0, 0.00000000000000000000e+00) (0, 0, 0.00000000000000000000e+00) (0, 0, 0.00000000000000000000e+00) (0, 0, 0.00000000000000000000e+00) (0, 0, 0.00000000000000000000e+00) (0, 0, 0.00000000000000000000e+00) (0, 0, 0.00000000000000000000e+00) (0, 0, 0.00000000000000000000e+00) (0, 0, 0.00000000000000000000e+00) (0, 0, 0.00000000000000000000e+00) (0, 0, 0.00000000000000000000e+00) (0, 0, 0.00000000000000000000e+00) (0, 0, 0.00000000000000000000e+00) (0, 0, 0.00000000000000000000e+00) (0, 0, 0.00000000000000000000e+00) (0, 0, 0.00000000000000000000e+00) (0, 0, 0.00000000000000000000e+00) (0, 0, 0.00000000000000000000e+00) (0, 0, 0.00000000000000000000e+00) (0, 0, 0.00000000000000000000e+00) (0, 0, 0.00000000000000000000e+00) (0, 0, 0.00000000000000000000e+00) (0, 0, 0.00000000000000000000e+00) (0, 0, 0.00000000000000000000e+00) (0, 0, 0.00000000000000000000e+00) (0, 0, 0.00000000000000000000e+00) (0, 0, 0.00000000000000000000e+00) (0, 0, 0.00000000000000000000e+00) (0, 0, 0.00000000000000000000e+00) (0, 0, 0.00000000000000000000e+00) (0, 0, 0.00000000000000000000e+00) (0, 0, 0.00000000000000000000e+00) (0, 0, 0.00000000000000000000e+00) (0, 0, 0.00000000000000000000e+00) (0, 0, 0.00000000000000000000e+00) (0, 0, 0.00000000000000000000e+00) (0, 0, 0.00000000000000000000e+00) (0, 0, 0.00000000000000000000e+00) (0, 0, 0.00000000000000000000e+00) (0, 0, 0.00000000000000000000e+00) (0, 0, 0.00000000000000000000e+00) (0, 0, 0.00000000000000000000e+00) (0, 0, 0.00000000000000000000e+00) (0, 0, 0.00000000000000000000e+00) (0, 0, 0.00000000000000000000e+00) (0, 0, 0.00000000000000000000e+00) (0, 0, 0.00000000000000000000e+00) (0, 0, 0.00000000000000000000e+00) (0, 0, 0.00000000000000000000e+00) (0, 0, 0.00000000000000000000e+00) (0, 0, 0.00000000000000000000e+00) (0, 0, 0.00000000000000000000e+00) (0, 0, 0.00000000000000000000e+00) (0, 0, 0.00000000000000000000e+00) (0, 0, 0.00000000000000000000e+00) (0, 0, 0.00000000000000000000e+00) (0, 0, 0.00000000000000000000e+00) (0, 0, 0.00000000000000000000e+00) (0, 0, 0.00000000000000000000e+00) (0, 0, 0.00000000000000000000e+00) (0, 0, 0.00000000000000000000e+00) (0, 0, 0.00000000000000000000e+00) (0, 0, 0.00000000000000000000e+00) (0, 0, 0.00000000000000000000e+00) (0, 0, 0.00000000000000000000e+00) (0, 0, 0.00000000000000000000e+00) (0, 0, 0.00000000000000000000e+00) (0, 0, 0.00000000000000000000e+00) (0, 0, 0.00000000000000000000e+00) (0, 0, 0.00000000000000000000e+00) (0, 0, 0.00000000000000000000e+00) (0, 0, 0.00000000000000000000e+00) (0, 0, 0.00000000000000000000e+00) (0, 0, 0.00000000000000000000e+00) (0, 0, 0.00000000000000000000e+00) (0, 0, 0.00000000000000000000e+00) (0, 0, 0.00000000000000000000e+00) (0, 0, 0.00000000000000000000e+00) (0, 0, 0.00000000000000000000e+00) (0, 0, 0.00000000000000000000e+00) (0, 0, 0.00000000000000000000e+00) (0, 0, 0.00000000000000000000e+00) (0, 0, 0.00000000000000000000e+00) (0, 0, 0.00000000000000000000e+00) (0, 0, 0.00000000000000000000e+00) (0, 0, 0.00000000000000000000e+00) (0, 0, 0.00000000000000000000e+00) (0, 0, 0.00000000000000000000e+00) (0, 0, 0.00000000000000000000e+00) (0, 0, 0.00000000000000000000e+00) (0, 0, 0.00000000000000000000e+00) (0, 0, 0.00000000000000000000e+00) (0, 0, 0.00000000000000000000e+00) (0, 0, 0.00000000000000000000e+00) (0, 0, 0.00000000000000000000e+00) (0, 0, 0.00000000000000000000e+00) (0, 0, 0.00000000000000000000e+00) (0, 0, 0.00000000000000000000e+00) (0, 0, 0.00000000000000000000e+00) (0, 0, 0.00000000000000000000e+00) (0, 0, 0.00000000000000000000e+00) (0, 0, 0.00000000000000000000e+00) (0, 0, 0.00000000000000000000e+00) (0, 0, 0.00000000000000000000e+00) (0, 0, 0.00000000000000000000e+00) (0, 0, 0.00000000000000000000e+00) (0, 0, 0.00000000000000000000e+00) (0, 0, 0.00000000000000000000e+00) (0, 0, 0.00000000000000000000e+00) (0, 0, 0.00000000000000000000e+00) (0, 0, 0.00000000000000000000e+00) (0, 0, 0.00000000000000000000e+00) (0, 0, 0.00000000000000000000e+00) (0, 0, 0.00000000000000000000e+00) (0, 0, 0.00000000000000000000e+00) (0, 0, 0.00000000000000000000e+00) (0, 0, 0.00000000000000000000e+00) (0, 0, 0.00000000000000000000e+00) (0, 0, 0.00000000000000000000e+00) (0, 0, 0.00000000000000000000e+00) (0, 0, 0.00000000000000000000e+00) (0, 0, 0.00000000000000000000e+00) (0, 0, 0.00000000000000000000e+00) (0, 0, 0.00000000000000000000e+00) (0, 0, 0.00000000000000000000e+00) (0, 0, 0.00000000000000000000e+00) (0, 0, 0.00000000000000000000e+00) (0, 0, 0.00000000000000000000e+00) (0, 0, 0.00000000000000000000e+00) (0, 0, 0.00000000000000000000e+00) (0, 0, 0.00000000000000000000e+00) (0, 0, 0.00000000000000000000e+00) (0, 0, 0.00000000000000000000e+00) (0, 0, 0.00000000000000000000e+00) (0, 0, 0.00000000000000000000e+00) (0, 0, 0.00000000000000000000e+00) (0, 0, 0.00000000000000000000e+00) (0, 0, 0.00000000000000000000e+00) (0, 0, 0.00000000000000000000e+00) (0, 0, 0.00000000000000000000e+00) (0, 0, 0.00000000000000000000e+00) (0, 0, 0.00000000000000000000e+00) (0, 0, 0.00000000000000000000e+00) (0, 0, 0.00000000000000000000e+00) (0, 0, 0.00000000000000000000e+00) (0, 0, 0.00000000000000000000e+00) (0, 0, 0.00000000000000000000e+00) (0, 0, 0.00000000000000000000e+00) (0, 0, 0.00000000000000000000e+00) (0, 0, 0.00000000000000000000e+00) (0, 0, 0.00000000000000000000e+00) (0, 0, 0.00000000000000000000e+00) (0, 0, 0.00000000000000000000e+00) (0, 0, 0.00000000000000000000e+00) (0, 0, 0.00000000000000000000e+00) (0, 0, 0.00000000000000000000e+00) (0, 0, 0.00000000000000000000e+00) (0, 0, 0.00000000000000000000e+00) (0, 0, 0.00000000000000000000e+00) (0, 0, 0.00000000000000000000e+00) (0, 0, 0.00000000000000000000e+00) (0, 0, 0.00000000000000000000e+00) (0, 0, 0.00000000000000000000e+00) (0, 0, 0.00000000000000000000e+00) (0, 0, 0.00000000000000000000e+00) (0, 0, 0.00000000000000000000e+00) (0, 0, 0.00000000000000000000e+00) (0, 0, 0.00000000000000000000e+00) (0, 0, 0.00000000000000000000e+00) (0, 0, 0.00000000000000000000e+00) (0, 0, 0.00000000000000000000e+00) (0, 0, 0.00000000000000000000e+00) (0, 0, 0.00000000000000000000e+00) (0, 0, 0.00000000000000000000e+00) (0, 0, 0.00000000000000000000e+00) (0, 0, 0.00000000000000000000e+00) (0, 0, 0.00000000000000000000e+00) (0, 0, 0.00000000000000000000e+00) (0, 0, 0.00000000000000000000e+00) (0, 0, 0.00000000000000000000e+00) (0, 0, 0.00000000000000000000e+00) (0, 0, 0.00000000000000000000e+00) (0, 0, 0.00000000000000000000e+00) (0, 0, 0.00000000000000000000e+00) (0, 0, 0.00000000000000000000e+00) (0, 0, 0.00000000000000000000e+00) (0, 0, 0.00000000000000000000e+00) (0, 0, 0.00000000000000000000e+00) (0, 0, 0.00000000000000000000e+00) (0, 0, 0.00000000000000000000e+00) (0, 0, 0.00000000000000000000e+00) (0, 0, 0.00000000000000000000e+00) (0, 0, 0.00000000000000000000e+00) (0, 0, 0.00000000000000000000e+00) (0, 0, 0.00000000000000000000e+00) (0, 0, 0.00000000000000000000e+00) (0, 0, 0.00000000000000000000e+00) (0, 0, 0.00000000000000000000e+00) (0, 0, 0.00000000000000000000e+00) (0, 0, 0.00000000000000000000e+00) (0, 0, 0.00000000000000000000e+00) (0, 0, 0.00000000000000000000e+00) (0, 0, 0.00000000000000000000e+00) (0, 0, 0.00000000000000000000e+00) (0, 0, 0.00000000000000000000e+00) (0, 0, 0.00000000000000000000e+00) (0, 0, 0.00000000000000000000e+00) (0, 0, 0.00000000000000000000e+00) (0, 0, 0.00000000000000000000e+00) (0, 0, 0.00000000000000000000e+00) (0, 0, 0.00000000000000000000e+00) (0, 0, 0.00000000000000000000e+00) (0, 0, 0.00000000000000000000e+00) (0, 0, 0.00000000000000000000e+00) (0, 0, 0.00000000000000000000e+00) (0, 0, 0.00000000000000000000e+00) (0, 0, 0.00000000000000000000e+00) (0, 0, 0.00000000000000000000e+00) (0, 0, 0.00000000000000000000e+00) (0, 0, 0.00000000000000000000e+00) (0, 0, 0.00000000000000000000e+00) (0, 0, 0.00000000000000000000e+00) (0, 0, 0.00000000000000000000e+00) (0, 0, 0.00000000000000000000e+00) (0, 0, 0.00000000000000000000e+00) (0, 0, 0.00000000000000000000e+00) (0, 0, 0.00000000000000000000e+00) (0, 0, 0.00000000000000000000e+00) (0, 0, 0.00000000000000000000e+00) (0, 0, 0.00000000000000000000e+00) (0, 0, 0.00000000000000000000e+00) (0, 0, 0.00000000000000000000e+00) (0, 0, 0.00000000000000000000e+00) (0, 0, 0.00000000000000000000e+00) (0, 0, 0.00000000000000000000e+00) (0, 0, 0.00000000000000000000e+00) (0, 0, 0.00000000000000000000e+00) (0, 0, 0.00000000000000000000e+00) (0, 0, 0.00000000000000000000e+00) (0, 0, 0.00000000000000000000e+00) (0, 0, 0.00000000000000000000e+00) (0, 0, 0.00000000000000000000e+00) (0, 0, 0.00000000000000000000e+00) (0, 0, 0.00000000000000000000e+00) (0, 0, 0.00000000000000000000e+00) (0, 0, 0.00000000000000000000e+00) (0, 0, 0.00000000000000000000e+00) (0, 0, 0.00000000000000000000e+00) (0, 0, 0.00000000000000000000e+00) (0, 0, 0.00000000000000000000e+00) (0, 0, 0.00000000000000000000e+00) (0, 0, 0.00000000000000000000e+00) (0, 0, 0.00000000000000000000e+00) (0, 0, 0.00000000000000000000e+00) (0, 0, 0.00000000000000000000e+00) (0, 0, 0.00000000000000000000e+00) (0, 0, 0.00000000000000000000e+00) (0, 0, 0.00000000000000000000e+00) (0, 0, 0.00000000000000000000e+00) (0, 0, 0.00000000000000000000e+00) (0, 0, 0.00000000000000000000e+00) (0, 0, 0.00000000000000000000e+00) (0, 0, 0.00000000000000000000e+00) (0, 0, 0.00000000000000000000e+00) (0, 0, 0.00000000000000000000e+00) (0, 0, 0.00000000000000000000e+00) (0, 0, 0.00000000000000000000e+00) (0, 0, 0.00000000000000000000e+00) (0, 0, 0.00000000000000000000e+00) (0, 0, 0.00000000000000000000e+00) (0, 0, 0.00000000000000000000e+00) (0, 0, 0.00000000000000000000e+00) (0, 0, 0.00000000000000000000e+00) (0, 0, 0.00000000000000000000e+00) (0, 0, 0.00000000000000000000e+00) (0, 0, 0.00000000000000000000e+00) (0, 0, 0.00000000000000000000e+00) (0, 0, 0.00000000000000000000e+00) (0, 0, 0.00000000000000000000e+00) (0, 0, 0.00000000000000000000e+00) (0, 0, 0.00000000000000000000e+00) (0, 0, 0.00000000000000000000e+00) (0, 0, 0.00000000000000000000e+00) (0, 0, 0.00000000000000000000e+00) (0, 0, 0.00000000000000000000e+00) (0, 0, 0.00000000000000000000e+00) (0, 0, 0.00000000000000000000e+00) (0, 0, 0.00000000000000000000e+00) (0, 0, 0.00000000000000000000e+00) (0, 0, 0.00000000000000000000e+00) (0, 0, 0.00000000000000000000e+00) (0, 0, 0.00000000000000000000e+00) (0, 0, 0.00000000000000000000e+00) (0, 0, 0.00000000000000000000e+00) (0, 0, 0.00000000000000000000e+00) (0, 0, 0.00000000000000000000e+00) (0, 0, 0.00000000000000000000e+00) (0, 0, 0.00000000000000000000e+00) (0, 0, 0.00000000000000000000e+00) (0, 0, 0.00000000000000000000e+00) (0, 0, 0.00000000000000000000e+00) (0, 0, 0.00000000000000000000e+00) (0, 0, 0.00000000000000000000e+00) (0, 0, 0.00000000000000000000e+00) (0, 0, 0.00000000000000000000e+00) (0, 0, 0.00000000000000000000e+00) (0, 0, 0.00000000000000000000e+00) (0, 0, 0.00000000000000000000e+00) (0, 0, 0.00000000000000000000e+00) (0, 0, 0.00000000000000000000e+00) (0, 0, 0.00000000000000000000e+00) (0, 0, 0.00000000000000000000e+00) (0, 0, 0.00000000000000000000e+00) (0, 0, 0.00000000000000000000e+00) (0, 0, 0.00000000000000000000e+00) (0, 0, 0.00000000000000000000e+00) (0, 0, 0.00000000000000000000e+00) (0, 0, 0.00000000000000000000e+00) (0, 0, 0.00000000000000000000e+00) (0, 0, 0.00000000000000000000e+00) (0, 0, 0.00000000000000000000e+00) (0, 0, 0.00000000000000000000e+00) (0, 0, 0.00000000000000000000e+00) (0, 0, 0.00000000000000000000e+00) (0, 0, 0.00000000000000000000e+00) (0, 0, 0.00000000000000000000e+00) (0, 0, 0.00000000000000000000e+00) (0, 0, 0.00000000000000000000e+00) (0, 0, 0.00000000000000000000e+00) (0, 0, 0.00000000000000000000e+00) (0, 0, 0.00000000000000000000e+00) (0, 0, 0.00000000000000000000e+00) (0, 0, 0.00000000000000000000e+00) (0, 0, 0.00000000000000000000e+00) (0, 0, 0.00000000000000000000e+00) (0, 0, 0.00000000000000000000e+00) (0, 0, 0.00000000000000000000e+00) (0, 0, 0.00000000000000000000e+00) (0, 0, 0.00000000000000000000e+00) (0, 0, 0.00000000000000000000e+00) (0, 0, 0.00000000000000000000e+00) (0, 0, 0.00000000000000000000e+00) (0, 0, 0.00000000000000000000e+00) (0, 0, 0.00000000000000000000e+00) (0, 0, 0.00000000000000000000e+00) (0, 0, 0.00000000000000000000e+00) (0, 0, 0.00000000000000000000e+00) (0, 0, 0.00000000000000000000e+00) (0, 0, 0.00000000000000000000e+00) (0, 0, 0.00000000000000000000e+00) (0, 0, 0.00000000000000000000e+00) (0, 0, 0.00000000000000000000e+00) (0, 0, 0.00000000000000000000e+00) (0, 0, 0.00000000000000000000e+00) (0, 0, 0.00000000000000000000e+00) (0, 0, 0.00000000000000000000e+00) (0, 0, 0.00000000000000000000e+00) (0, 0, 0.00000000000000000000e+00) (0, 0, 0.00000000000000000000e+00) (0, 0, 0.00000000000000000000e+00) (0, 0, 0.00000000000000000000e+00) (0, 0, 0.00000000000000000000e+00) (0, 0, 0.00000000000000000000e+00) (0, 0, 0.00000000000000000000e+00) (0, 0, 0.00000000000000000000e+00) (0, 0, 0.00000000000000000000e+00) (0, 0, 0.00000000000000000000e+00) (0, 0, 0.00000000000000000000e+00) (0, 0, 0.00000000000000000000e+00) (0, 0, 0.00000000000000000000e+00) (0, 0, 0.00000000000000000000e+00) (0, 0, 0.00000000000000000000e+00) (0, 0, 0.00000000000000000000e+00) (0, 0, 0.00000000000000000000e+00) (0, 0, 0.00000000000000000000e+00) (0, 0, 0.00000000000000000000e+00) (0, 0, 0.00000000000000000000e+00) (0, 0, 0.00000000000000000000e+00) (0, 0, 0.00000000000000000000e+00) (0, 0, 0.00000000000000000000e+00) (0, 0, 0.00000000000000000000e+00) (0, 0, 0.00000000000000000000e+00) (0, 0, 0.00000000000000000000e+00) (0, 0, 0.00000000000000000000e+00) (0, 0, 0.00000000000000000000e+00) (0, 0, 0.00000000000000000000e+00) (0, 0, 0.00000000000000000000e+00) (0, 0, 0.00000000000000000000e+00) (0, 0, 0.00000000000000000000e+00) (0, 0, 0.00000000000000000000e+00) (0, 0, 0.00000000000000000000e+00) (0, 0, 0.00000000000000000000e+00) (0, 0, 0.00000000000000000000e+00) (0, 0, 0.00000000000000000000e+00) (439, 3, 5.00000000000000000000e-01) (439, 3, 5.00000000000000000000e-01) (439, 3, 5.00000000000000000000e-01) (439, 3, 5.00000000000000000000e-01) (439, 3, 5.00000000000000000000e-01) (439, 3, 5.00000000000000000000e-01) (439, 3, 5.00000000000000000000e-01) (439, 3, 5.00000000000000000000e-01) (439, 3, 5.00000000000000000000e-01) (439, 3, 5.00000000000000000000e-01) (439, 3, 5.00000000000000000000e-01) (439, 3, 5.00000000000000000000e-01) (439, 3, 5.00000000000000000000e-01) (439, 3, 5.00000000000000000000e-01) (439, 3, 5.00000000000000000000e-01) (439, 3, 5.00000000000000000000e-01) (439, 3, 5.00000000000000000000e-01) (439, 3, 5.00000000000000000000e-01) (439, 3, 5.00000000000000000000e-01) (439, 3, 5.00000000000000000000e-01) (439, 3, 5.00000000000000000000e-01) (439, 3, 5.00000000000000000000e-01) (439, 3, 5.00000000000000000000e-01) (439, 3, 5.00000000000000000000e-01) (439, 3, 5.00000000000000000000e-01) (439, 3, 5.00000000000000000000e-01) (439, 3, 5.00000000000000000000e-01) (439, 3, 5.00000000000000000000e-01) (439, 3, 5.00000000000000000000e-01) (439, 3, 5.00000000000000000000e-01) (439, 3, 5.00000000000000000000e-01) (439, 3, 5.00000000000000000000e-01) (439, 3, 5.00000000000000000000e-01) (439, 3, 5.00000000000000000000e-01) (439, 3, 5.00000000000000000000e-01) (439, 3, 5.00000000000000000000e-01) (439, 3, 5.00000000000000000000e-01) (439, 3, 5.00000000000000000000e-01) (439, 3, 5.00000000000000000000e-01) (439, 3, 5.00000000000000000000e-01) (439, 3, 5.00000000000000000000e-01) (439, 3, 5.00000000000000000000e-01) (439, 3, 5.00000000000000000000e-01) (439, 3, 5.00000000000000000000e-01) (439, 3, 5.00000000000000000000e-01) (439, 3, 5.00000000000000000000e-01) (439, 3, 5.00000000000000000000e-01) (439, 3, 5.00000000000000000000e-01) (439, 3, 5.00000000000000000000e-01) (439, 3, 5.00000000000000000000e-01) (439, 3, 5.00000000000000000000e-01) (439, 3, 5.00000000000000000000e-01) (439, 3, 5.00000000000000000000e-01) (439, 3, 5.00000000000000000000e-01) (439, 3, 5.00000000000000000000e-01) (439, 3, 5.00000000000000000000e-01) (439, 3, 5.00000000000000000000e-01) (439, 3, 5.00000000000000000000e-01) (439, 3, 5.00000000000000000000e-01) (439, 3, 5.00000000000000000000e-01) (439, 3, 5.00000000000000000000e-01) (439, 3, 5.00000000000000000000e-01) (439, 3, 5.00000000000000000000e-01) (439, 3, 5.00000000000000000000e-01) (439, 3, 5.00000000000000000000e-01) (439, 3, 5.00000000000000000000e-01) (439, 3, 5.00000000000000000000e-01) (439, 3, 5.00000000000000000000e-01) (439, 3, 5.00000000000000000000e-01) (439, 3, 5.00000000000000000000e-01) (439, 3, 5.00000000000000000000e-01) (439, 3, 5.00000000000000000000e-01) (439, 3, 5.00000000000000000000e-01) (439, 3, 5.00000000000000000000e-01) (439, 3, 5.00000000000000000000e-01) (439, 3, 5.00000000000000000000e-01) (439, 3, 5.00000000000000000000e-01) (439, 3, 5.00000000000000000000e-01) (439, 3, 5.00000000000000000000e-01) (439, 3, 5.00000000000000000000e-01) (439, 3, 5.00000000000000000000e-01) (439, 3, 5.00000000000000000000e-01) (439, 3, 5.00000000000000000000e-01) (439, 3, 5.00000000000000000000e-01) (439, 3, 5.00000000000000000000e-01) (439, 3, 5.00000000000000000000e-01) (439, 3, 5.00000000000000000000e-01) (439, 3, 5.00000000000000000000e-01) (439, 3, 5.00000000000000000000e-01) (439, 3, 5.00000000000000000000e-01) (439, 3, 5.00000000000000000000e-01) (439, 3, 5.00000000000000000000e-01) (439, 3, 5.00000000000000000000e-01) (439, 3, 5.00000000000000000000e-01) (439, 3, 5.00000000000000000000e-01) (439, 3, 5.00000000000000000000e-01) (439, 3, 5.00000000000000000000e-01) (439, 3, 5.00000000000000000000e-01) (439, 3, 5.00000000000000000000e-01) (439, 3, 5.00000000000000000000e-01) (0, 3, 0.00000000000000000000e+00) (101, 3, 5.00000000000000000000e-01) (101, 3, 5.00000000000000000000e-01) (0, 3, 0.00000000000000000000e+00) 
connections (connected_to_neuron, weight)=(0, 7.76492337681260608173e-02) (1, 7.67529690399587904981e-02) (2, 1.29461083384818601699e-02) (3, 3.24640191036172920391e-02) (4, 5.86641575020296901499e-02) (5, 6.86173300159168136902e-02) (6, -2.44968870181559092436e-02) (7, 9.00836632436541467905e-02) (8, -8.42788704370286134715e-02) (9, 4.09447142195260363473e-02) (10, -1.06309262810254337439e-01) (11, -4.59555779113084428289e-02) (12, 7.42059813595451461116e-03) (13, 2.43676577476183049698e-02) (14, 2.76922309418483579557e-02) (15, -8.79858217736447928425e-02) (16, -9.60145107813091119864e-02) (17, 7.22886762946263038837e-03) (18, 1.09496701886799170655e-02) (19, 8.55264363101885943808e-02) (20, 5.14372214674949645996e-02) (21, -3.89806160275453505992e-02) (22, -4.65026614786471712004e-02) (23, -1.12628406798250924048e-01) (24, -8.98831164807739751987e-02) (25, -2.59494535471009209193e-02) (26, 6.30025051705890709597e-02) (27, 6.18708465861296449950e-02) (28, -6.84451610306344333801e-03) (29, -1.21921229993766824795e-01) (30, 1.98987448344771066661e-03) (31, -4.94969505292776161542e-03) (32, 3.24109622896497709399e-02) (33, -7.92627647204449947704e-02) (34, -6.48087057525983945006e-02) (35, 2.38440675104714706889e-02) (36, -1.20793049604310073764e-01) (37, -6.46528567768466563143e-03) (38, -1.03279554807649623371e-02) (39, -9.99506525172985382799e-02) (40, -2.77126329336687959870e-02) (41, 7.08130105785843063509e-03) (42, -3.10751349012234612257e-02) (43, 3.42078473350946876685e-02) (44, -3.67801632304447165267e-02) (45, -1.15027333823291527670e-01) (46, 6.10854747591700539266e-02) (47, -3.99351119717217678540e-02) (48, 6.87962038093170826967e-07) (49, -9.22551952618566595277e-03) (50, -7.42998177110829743919e-02) (51, -5.57480944457938998315e-02) (52, -1.10595560419066402114e-01) (53, 1.65842630049304294582e-02) (54, 2.48219391512746710704e-02) (55, -4.95213349263871269179e-02) (56, -1.01430007356777748817e-01) (57, -2.53609156612429054167e-03) (58, -8.65504268833804379923e-02) (59, 1.63124616571018316025e-02) (60, 2.72205955284001190064e-02) (61, 5.71644610567667924017e-02) (62, -1.57219586439623082441e-02) (63, -3.10563353619779623782e-02) (64, -8.33740962741404273428e-02) (65, 1.35216124628436233646e-02) (66, -7.71768661487449020298e-02) (67, -8.60496098759690186686e-02) (68, -7.74042515359504995631e-02) (69, 2.73639554947065384571e-02) (70, -4.96395510463282993441e-02) (71, -1.60194863693437147822e-02) (72, -3.64174270243514328071e-02) (73, 1.15940431886934619543e-02) (74, -3.21176616855428920250e-02) (75, 5.26404527794714378192e-03) (76, 7.51246855702542622873e-03) (77, -6.50242295276945853066e-02) (78, 5.90753129100998891632e-02) (79, -9.36105829648591902803e-02) (80, 5.93558908688582922974e-02) (81, -8.25396104922184320474e-02) (82, 2.83275428970000374418e-02) (83, 4.90186643321890158642e-02) (84, 9.03535432214865597000e-02) (85, -4.46544148192011478016e-02) (86, -8.89450430158354038435e-02) (87, -9.00362348155645947356e-02) (88, 7.24878980851754450843e-02) (89, -2.53219255334304199634e-02) (90, -9.11844746915504156259e-02) (91, -1.29876311539366094683e-02) (92, -5.18427922692773629487e-02) (93, -8.98087813400991793588e-05) (94, -7.84217527481467641115e-02) (95, -9.78754835121584121360e-03) (96, -1.15905726641422054946e-01) (97, -7.46179453916653717682e-02) (98, -3.71101303340046597204e-03) (99, -8.53930072031538617283e-02) (100, 1.05600319170659442958e-01) (101, 5.76162822199749319330e-02) (102, 6.01596589551124175110e-02) (103, -6.61161365610210410848e-02) (104, 3.86831263323094906581e-02) (105, -5.40283578778522621811e-02) (106, 5.93641641763831065526e-02) (107, -2.82019761997224539807e-02) (108, -5.47869778814728206756e-03) (109, 6.98130711343250276446e-02) (110, 4.80675208850659327342e-02) (111, -5.88678567730718110829e-02) (112, -1.04749251978231303073e-01) (113, -4.62824470362004358748e-02) (114, -5.05607468022262612761e-02) (115, -1.02081191030756204818e-01) (116, -2.28074210407629811292e-02) (117, -6.34631649307159928508e-02) (118, -1.04491238164073421690e-01) (119, -5.69559521432990573109e-02) (120, 7.20711680115218161768e-02) (121, -6.98224448979109513225e-02) (122, -7.57088530827436378967e-02) (123, -1.00663635826356887004e-01) (124, 5.95798090934056071011e-02) (125, -4.02480146048162304440e-02) (126, 2.04333866566871469317e-02) (127, 4.90563227590450415261e-02) (128, 2.83095472786787961950e-02) (129, -3.19859089445137453889e-02) (130, -3.48249325641803442188e-02) (131, 1.82733294848451389113e-03) (132, -7.71622829050057218447e-02) (133, -7.64867248043606118291e-02) (134, 8.66441570238610792032e-02) (135, 8.09583042479985054429e-02) (136, -6.22628683624951648201e-02) (137, 4.93656212846096537072e-02) (138, -8.00163274768438265161e-02) (139, 8.46185665503029066370e-03) (140, 6.77077664799809880725e-02) (141, -1.04911406886494681934e-01) (142, -7.98859772590976568996e-02) (143, 4.10293870319735146102e-02) (144, -8.78000974086954287523e-03) (145, -1.18166380393023556089e-02) (146, 4.99599025678589755972e-02) (147, -8.29011770794030738996e-02) (148, 6.64009437424958187668e-02) (149, -1.09583564948744938139e-01) (150, 7.44593341755428600459e-02) (151, 4.81290017405667513994e-02) (152, -6.27372173108573377709e-02) (153, -7.55044277361893584333e-02) (154, -7.89892932224084409754e-02) (155, -1.07639550852210441612e-01) (156, -3.21783180728988718600e-02) (157, 3.69706283892206402641e-02) (158, -1.10623710024436675003e-01) (159, -1.28987927476466646137e-01) (160, -4.37772541545461552071e-02) (161, -3.32938868803926285578e-02) (162, -9.71565162544794393151e-03) (163, -3.90352525794578006368e-02) (164, 1.68591028536471121413e-02) (165, -6.79247704680408393579e-03) (166, -2.78220269221106028534e-02) (167, 7.61945653230609448725e-02) (168, -1.91545594229780430373e-02) (169, 2.68204706195282090164e-02) (170, 6.96009423128348264642e-02) (171, -6.93701619958042164926e-02) (172, 1.09813105734078778064e-02) (173, -9.04270185007520349574e-02) (174, -7.87686613687042236354e-02) (175, -7.40257123357301732858e-02) (176, -1.90409431035447294922e-02) (177, 6.46770362485180744239e-02) (178, -4.76000183001008894679e-02) (179, -5.31413252621590337377e-02) (180, -7.63566158057812638393e-02) (181, -7.21532899121859472302e-02) (182, -5.91563968114287574984e-02) (183, -4.96642672628884174202e-02) (184, -1.27653084761026620192e-02) (185, -3.32569263498427372672e-02) (186, -2.20518824528716551880e-02) (187, 6.84860212466258944097e-02) (188, -5.69832931440604414930e-02) (189, -1.75087639991962397412e-02) (190, 1.00520065918576192998e-01) (191, -3.07909869876877261008e-02) (192, 4.65786744417512263428e-02) (193, 2.52342822934111324362e-02) (194, 9.28107840603957373604e-02) (195, -4.84597180632256527288e-02) (196, -9.50070218561732821039e-02) (197, -3.84346157563408979962e-02) (198, -4.57430004247889668290e-02) (199, -1.99948450209431333180e-02) (200, -6.40282699669651317320e-02) (201, -8.35546006818862485588e-02) (202, 4.23989514765286193421e-02) (203, 4.72913389144957521659e-02) (204, -2.33741771567396658393e-02) (205, 5.94129223241280160495e-02) (206, -1.03162568784417152390e-01) (207, 6.93096529483112483438e-02) (208, 6.62505889163596400904e-02) (209, -1.70449563175560821204e-02) (210, -2.64331319765594464910e-02) (211, 6.59294981251256906329e-02) (212, 1.75238616816992161251e-02) (213, -1.18199320966539322617e-03) (214, -8.37488138014393090902e-02) (215, -1.22264874229930209371e-01) (216, -1.23112149498628933864e-01) (217, 1.55302577640844506612e-02) (218, -1.37297078484908907647e-01) (219, -7.83196916347444760387e-02) (220, -8.72741434434900209549e-02) (221, -1.32475462327019399833e-01) (222, 3.35518015979930014914e-02) (223, -1.08622333040988061637e-01) (224, 1.15413530648844232102e-02) (225, 2.80184529120160764892e-02) (226, -3.29062710197759247799e-02) (227, 4.73669450382004433853e-02) (228, -8.66904989340227666306e-02) (229, 3.75025391779918032542e-02) (230, -3.87686213680869112830e-02) (231, -3.83931130533541747907e-02) (232, 6.75133045390273883735e-02) (233, -6.97720524949722309405e-02) (234, -6.20598171679016402669e-02) (235, -6.08426357977501150454e-02) (236, -9.47165563725229781022e-02) (237, -4.21780632562029841881e-02) (238, -6.88481407935780109764e-02) (239, 7.57183116405839434782e-02) (240, 5.84207720114837403269e-02) (241, 1.27785853669016213549e-03) (242, 6.83773666263069873628e-02) (243, -2.06327833706880653386e-02) (244, -4.40267750682251171601e-02) (245, -7.73381398061109559539e-02) (246, 2.02431958023254650325e-02) (247, -3.19127272289216473711e-02) (248, 8.09018520931347046021e-02) (249, 2.09479490922166167177e-02) (250, 4.15706405294425374031e-02) (251, -7.73740214008747234642e-02) (252, 4.61715396957298809810e-02) (253, -2.84512283287859137071e-02) (254, -3.42118162545526141582e-02) (255, -5.76465241439056003125e-02) (256, -3.58188176997046719974e-02) (257, 1.30785164387405301173e-02) (258, -8.23378151466503532818e-02) (259, 1.20089412659032789693e-02) (260, -1.48505141471699710770e-02) (261, -1.55806598261237837059e-03) (262, 8.19069907135020897071e-02) (263, -1.29578520897324234867e-02) (264, 5.45392444236834986193e-02) (265, -7.09165322782198265239e-02) (266, 4.87272041658886184701e-02) (267, -1.14413000636192002668e-01) (268, 1.46904243786452750687e-04) (269, -1.00077865595740833626e-01) (270, -1.09951420975885214015e-01) (271, -3.08735241098239653057e-02) (272, 2.96401098187054935773e-02) (273, 7.35595309828539906105e-02) (274, 7.20029292534628134748e-02) (275, -8.94637876836835710392e-02) (276, -7.47510322918166075779e-02) (277, 2.92038973722002180577e-03) (278, 5.85142461661635176345e-03) (279, -7.02745377544126553770e-02) (280, -5.58912063312386325764e-02) (281, -3.71372795799536359329e-02) (282, -2.40412854903907027837e-02) (283, -1.11893898931081037240e-01) (284, 7.91006864894387567988e-02) (285, 1.28403097114326032041e-02) (286, -3.84037266670136795410e-02) (287, -8.88776566194783845809e-02) (288, -2.80205559173466837997e-02) (289, -1.85646922203270593743e-02) (290, 2.04059200019053275932e-02) (291, -1.35208222872464117748e-01) (292, -5.75157941601649458363e-02) (293, 3.00195534496548342360e-03) (294, 5.56347019534269605912e-03) (295, -4.76364182091533541752e-02) (296, 4.37260108902536789866e-02) (297, -3.54495573267161814823e-02) (298, -6.07692474847877292521e-02) (299, -5.67037547215147944013e-02) (300, -2.35761073690489673937e-02) (301, -1.94899259132707940168e-02) (302, 3.31913546214261598322e-02) (303, -8.99036801133559493326e-02) (304, -4.65028711053096580064e-02) (305, 3.71717552690035068705e-03) (306, -6.26187470998740558503e-02) (307, 2.71611999130678752334e-02) (308, -7.15267355126237014407e-02) (309, 6.53449962080878132831e-02) (310, 3.34354154306385834006e-02) (311, -1.94512116753806016400e-02) (312, -8.61515315648350710198e-02) (313, -9.80645246405565246262e-02) (314, -3.13272751717416503281e-02) (315, -9.11553429259253089612e-02) (316, 8.12444251486429402931e-02) (317, 4.85763572189775449939e-02) (318, -2.77257932935043617528e-02) (319, -4.27239427380592257100e-02) (320, -2.85619364363869435164e-03) (321, -9.49337969309110435434e-02) (322, -3.82014010567560471920e-02) (323, -1.36443625646112814964e-01) (324, 3.55705497144534060761e-02) (325, -1.04564923531727430039e-01) (326, -7.87364463319292634536e-02) (327, -6.45787017853289343344e-03) (328, -5.30701496383960413805e-02) (329, 9.13176188661631201005e-03) (330, 6.77417032127613366610e-02) (331, 5.66124401526527237793e-02) (332, -7.89513624537353797539e-02) (333, 1.19606699212279708050e-02) (334, 8.16213604046271412606e-02) (335, -2.28111004174842008085e-02) (336, -7.63112330912489589263e-02) (337, -5.57521243423770782033e-02) (338, 9.50566368766521535560e-02) (339, -4.16628148015269761384e-02) (340, -9.55096327188005855824e-02) (341, 1.92353038717830056303e-02) (342, 4.57251689808418834704e-02) (343, -4.88864230413170244849e-02) (344, 4.74340382097853605070e-02) (345, -4.35102507419148423762e-02) (346, 3.44864842129120625219e-03) (347, 2.14693264937111175095e-02) (348, -5.72965469985534242570e-02) (349, -1.03572208902210555204e-01) (350, -9.01669257263920942425e-02) (351, 6.91304615066165445425e-02) (352, -5.04970805052907742438e-02) (353, 4.41512516935495258341e-03) (354, 7.38287133544331120039e-02) (355, -7.54999646422645220856e-02) (356, 6.28808437677078752026e-03) (357, -7.11106400342417233063e-02) (358, 2.88497532265454652289e-02) (359, 6.30770225344015611491e-02) (360, 5.64117733369378926422e-02) (361, 2.09069140175963813499e-02) (362, 2.03796154646365031138e-02) (363, -1.13232189166104293965e-01) (364, -5.98057402137427140953e-02) (365, 2.26168281797069110894e-02) (366, -4.12898721491700704256e-02) (367, -6.45232670033020743600e-03) (368, 5.46373949661211610884e-02) (369, -2.87810378601695247835e-02) (370, 5.31853678476799096586e-02) (371, 6.20374662026015530336e-02) (372, -1.07659627738983257328e-01) (373, 2.58083406310605639744e-02) (374, -6.04584205437126084859e-02) (375, 6.47926259192302400614e-02) (376, 7.03736253428171448787e-02) (377, 6.69457827391379822757e-02) (378, -1.01930267357198591632e-02) (379, -4.95314217761759073566e-02) (380, 6.38509593730393898436e-02) (381, 1.50189525366396878919e-02) (382, -8.61240446023137234954e-02) (383, -7.94875847473501817575e-02) (384, -8.82637357302513830826e-02) (385, 9.17186416601699083806e-02) (386, -3.69190737101708216228e-02) (387, 3.55686594616393958468e-02) (388, -7.48393895735313535722e-02) (389, -8.44120276988462314716e-02) (390, 2.00518798438682754881e-02) (391, -8.22251096117005558783e-02) (392, 3.85244866652663803253e-02) (393, -2.63913126538639318530e-02) (394, -8.66710983861848222043e-02) (395, -1.06607498316351231860e-01) (396, -7.58222248146626087717e-02) (397, -1.65166043025148645551e-02) (398, -2.30923777411234307233e-02) (399, -1.17962996257186800153e-01) (400, 8.49422096939977250285e-02) (401, -7.49850598980300597773e-02) (402, 6.99966962492083455416e-02) (403, -1.06721745425649272576e-01) (404, 3.59911666447748634923e-02) (405, -6.33669505739033744884e-02) (406, -1.06653282213497138664e-01) (407, 1.90268631088036897780e-02) (408, -8.44484527644398103030e-02) (409, 3.65886731186531319673e-03) (410, 5.44387714566811550809e-02) (411, -8.36469614032794850367e-02) (412, -3.30192237396518331605e-02) (413, 8.38456398626924587214e-02) (414, -4.73671112576517366888e-02) (415, 1.81529782662567598650e-02) (416, 6.94232393346818632551e-02) (417, 8.27315681998194892011e-03) (418, -2.91751296440500469676e-02) (419, -9.98252102579656602765e-02) (420, 1.73471404141268513432e-02) (421, -9.40265551000970811746e-02) (422, -9.33044444312371434869e-02) (423, -3.76657040116507024763e-02) (424, -2.29231231471781655984e-02) (425, -7.55839225984077101028e-02) (426, -2.78491094220669754833e-02) (427, 1.08609485859979971317e-02) (428, 2.76567479149140531269e-02) (429, 5.07019615897015829553e-02) (430, -7.26069205133582796369e-03) (431, 2.86554939942734385183e-02) (432, -1.06212300813843613101e-01) (433, 4.40244387252244420705e-02) (434, 5.51111657447869857096e-02) (435, 8.57709832763004498268e-02) (436, 8.74863100665862064576e-02) (437, 4.26889873109541836960e-02) (438, -2.70631692383454802719e-02) (0, -6.67133928082703359097e-02) (1, 3.25044887495880979733e-02) (2, -3.94760920316636412797e-02) (3, -3.04511888258065382962e-02) (4, 4.69697649125418933980e-02) (5, -3.21669577558826233488e-02) (6, 1.77124437433985280899e-02) (7, 1.16739005714118406626e-02) (8, -4.47777261251895014604e-02) (9, -9.54189237261982292626e-02) (10, 4.16486733336883102607e-02) (11, -3.19642474447711794072e-02) (12, 4.84377525008916967608e-02) (13, 6.78601349399690495501e-02) (14, -4.85890782197923205843e-03) (15, -7.63450795178921143291e-02) (16, -1.60790735862186869162e-04) (17, 3.93570911114950947041e-02) (18, 2.53313096602530915535e-02) (19, -4.43741222609812802080e-02) (20, -1.86496227979660034180e-03) (21, -9.25780488826183876883e-03) (22, 4.35076430197307018055e-02) (23, -2.36682571422317522547e-01) (24, -8.82476900792553975439e-02) (25, 2.76717855050084039770e-02) (26, -5.78268081471779715752e-02) (27, 1.86026353601561333928e-02) (28, -1.19125596815616123514e-02) (29, 6.04726766351478886574e-02) (30, -5.99772388441255355218e-02) (31, 6.92058737489128078524e-02) (32, -1.20758294427435977636e-01) (33, -3.48798420844009873787e-02) (34, 1.18336170650972877239e-01) (35, -6.41932468036205960971e-02) (36, 2.32578428181483207182e-02) (37, -1.62882135644571400535e-02) (38, -3.17749142646413379465e-02) (39, -1.33328749298929322142e-01) (40, 6.57610300574173189947e-02) (41, -2.09106435811328705832e-02) (42, -1.39956861820773083294e-02) (43, -9.12263652553808868095e-02) (44, 2.85157857451529446469e-02) (45, 7.04926052812030329298e-02) (46, 6.05376750742966235341e-03) (47, 9.83614545096970910310e-02) (48, 5.52874805311305648342e-03) (49, -6.44952792420820097963e-02) (50, -9.45080818926243154676e-02) (51, -8.28539479709516912820e-02) (52, 5.41022239923475353751e-02) (53, -1.03031866315358877628e-01) (54, 1.58011936085636663096e-02) (55, 3.10858979958676777400e-02) (56, -3.33935997273876530866e-02) (57, -2.35724504440454639192e-04) (58, -1.50227113819880048196e-01) (59, -1.50472796282422577319e-01) (60, 1.19687176910470635671e-02) (61, -6.16905009677511939614e-02) (62, -6.94908071060134635566e-02) (63, 6.58670867142869490701e-03) (64, 9.27576633308110493070e-02) (65, -9.57587470121339240370e-02) (66, 9.43284707516196391230e-02) (67, -1.98169516547970075981e-02) (68, 4.95883674048580649907e-02) (69, 2.39184978230157080370e-02) (70, 3.73523668227511915219e-02) (71, -7.72310103489913524211e-02) (72, -8.33770227854723766647e-02) (73, -9.98883626126079726681e-02) (74, 2.44700691510553770824e-02) (75, -3.48157327104207867108e-02) (76, 1.92177979951620135635e-02) (77, -8.07377795279684146168e-02) (78, -6.57796494244750201696e-02) (79, -1.05193651204879737304e-01) (80, 2.84998585461895374837e-02) (81, -2.15158250711701137803e-02) (82, 5.15732402109375584476e-02) (83, -6.80837245928373746562e-02) (84, 7.93924150582279303245e-02) (85, -7.49094727840238644445e-02) (86, 9.38063477682139594538e-03) (87, -8.53046432265932089156e-03) (88, 2.00428713187280789498e-02) (89, 6.30942968186605640524e-02) (90, 5.83540512036170508359e-02) (91, 5.01571861668238735965e-02) (92, -1.34426315465248247261e-01) (93, 8.12898917961151629141e-02) (94, 1.07939978228417096662e-01) (95, 8.14946073631832718087e-02) (96, -4.81651906304597157704e-02) (97, 9.34028949382472058194e-03) (98, -9.93769427506883129553e-02) (99, -1.54427063268539388474e-01) (100, -9.26257529075456137457e-03) (101, 5.98146938469093156221e-02) (102, -4.28749828215651343499e-02) (103, -1.36306741282102877877e-01) (104, 1.60492758684288638893e-01) (105, -6.89957521761840053554e-02) (106, -3.90639456005615268164e-02) (107, 9.24733300449490924766e-02) (108, -3.68721958152901096994e-02) (109, 9.88764110752821112627e-02) (110, 4.17208669611811924782e-02) (111, -1.34128553539382810306e-02) (112, -6.91280318680766170392e-02) (113, -1.29960303096576967885e-01) (114, 1.75725497600283608879e-01) (115, -7.40980437840842304231e-02) (116, -2.72407234975000411836e-01) (117, -6.36699828994054112252e-02) (118, -9.78503970521282379069e-02) (119, -2.74741357350057779918e-01) (120, 1.27129221651329608889e-02) (121, -7.97756307790711688410e-02) (122, -4.94407646311339835088e-02) (123, -1.41574283040910076092e-01) (124, 1.73960720485698022708e-01) (125, -7.31708067092949748789e-02) (126, -1.61160828855034993223e-01) (127, 6.81974871386055534611e-03) (128, 1.07352680725696689179e-01) (129, -2.50753275627336978670e-02) (130, -4.46338847663138721389e-02) (131, 4.99125014092953525613e-02) (132, -1.47315166865139707264e-01) (133, 2.86077738483065391328e-02) (134, -4.84642137597875027888e-02) (135, 1.21221118206338088208e-01) (136, -3.32505190062737446266e-02) (137, -1.46325357868171430226e-02) (138, 6.38695638364994758805e-04) (139, -8.19925578187281206555e-02) (140, 8.00728353354493715965e-02) (141, -4.88526307385048416676e-02) (142, -5.53525128274623343105e-02) (143, -1.42551254643024455371e-01) (144, 2.52550188372921112501e-02) (145, -4.23075596730870112649e-02) (146, -1.20054808261556275606e-01) (147, -2.71529794614710634493e-02) (148, 5.98475716658287137939e-02) (149, -1.59069116201704754444e-03) (150, -3.07802833315969741335e-02) (151, -9.91877372319163903847e-03) (152, 5.56638174111381625608e-02) (153, 5.80953117016353784430e-02) (154, 1.01795729354277594836e-01) (155, 1.40781385539511198074e-02) (156, -1.01291400871238203296e-02) (157, -1.59236416682426856761e-01) (158, 1.13771148376048594070e-02) (159, -8.04900365372974435640e-02) (160, 1.58485242715709841350e-03) (161, 7.77986237426054050292e-02) (162, -2.16172558231550078489e-02) (163, -7.09263628941125129357e-02) (164, 5.89110195738415873268e-02) (165, 5.20247743909422535880e-02) (166, -3.44841129658441380990e-02) (167, -7.33463881043743132215e-02) (168, -1.43734457633190922804e-02) (169, -7.77377610589451845113e-02) (170, -4.24719462670489975031e-02) (171, -9.03328446641913501702e-02) (172, -7.34496664215914946139e-02) (173, 1.86545430448463063489e-02) (174, -5.10848612551949993188e-02) (175, 6.47910478662383076953e-02) (176, -3.30704628787142212998e-02) (177, -7.92299144475218791728e-02) (178, -8.35837479189248805378e-02) (179, -1.18833320341216783222e-01) (180, -4.56532326248398831470e-02) (181, -1.57666911791267232157e-02) (182, -8.98978226074881175967e-02) (183, 5.57199670481029127322e-02) (184, -3.68637687103968297864e-02) (185, -7.62316904746940665616e-02) (186, 5.52233004202012656148e-02) (187, -9.23506066704641026543e-02) (188, -7.06590969301848226269e-02) (189, -2.72553197208280813257e-02) (190, 9.35158702817642378813e-02) (191, -2.91828268854762533369e-02) (192, -3.06851350576140304016e-02) (193, -2.90423330634256085525e-02) (194, 1.14707415962991735037e-01) (195, -1.06498685873049211970e-01) (196, -1.54797211328082606752e-01) (197, -7.17631910405458761648e-02) (198, -1.69752856277200214752e-02) (199, -1.09003585027636407112e-01) (200, 6.04021250674869822350e-02) (201, 3.33638456438249556349e-03) (202, -2.90417519346958079296e-02) (203, -1.41763249034948968230e-01) (204, 4.26641822288364169768e-02) (205, 2.36600410976860880963e-02) (206, -1.36504265617382547493e-01) (207, -8.01123980403621455126e-02) (208, 8.28022580669247609819e-02) (209, -5.87896703827170963308e-02) (210, 1.06954641600950611791e-01) (211, -1.15012030031572384803e-01) (212, 4.25296105076788388821e-02) (213, -1.08424281765780505804e-01) (214, 5.83852192201968489549e-02) (215, -9.19753983925660351106e-02) (216, -1.10380478456571992640e-01) (217, 1.85738397604394873952e-02) (218, -7.02956065775353355907e-02) (219, -1.04378456101985900295e-01) (220, -7.78066796685729089589e-02) (221, -9.74870759001422865220e-02) (222, 3.31559136546264662804e-02) (223, 2.14065903749739230855e-02) (224, -4.25259062263878481747e-03) (225, 1.40103313980333103045e-02) (226, 5.00648651599845811999e-02) (227, -1.30672719157356679448e-02) (228, -1.07264855975468323401e-01) (229, -3.17302175200817812573e-02) (230, 4.09329616729161432920e-02) (231, 8.57519475497518918194e-02) (232, -1.29963946509069144808e-01) (233, -1.43977999801285106579e-02) (234, -1.25719828539617856089e-01) (235, -1.76655986297627742854e-02) (236, -1.10202139913593913367e-01) (237, -1.06720490439971019137e-01) (238, 4.32473974088560808582e-02) (239, -1.14982686043788889796e-01) (240, -2.00415359720421196177e-02) (241, 2.40524833289001947756e-02) (242, -7.87384603828808621317e-02) (243, -6.82479908218601022396e-02) (244, 4.91038603364268577689e-02) (245, -1.08964443762073717736e-01) (246, 1.04138164055274148184e-02) (247, 6.55108629781526868863e-02) (248, 4.98498757726714564198e-02) (249, 7.32491352080699015259e-02) (250, -8.82720339427963962553e-02) (251, -1.16110621105714059698e-01) (252, -6.50209500298828679821e-02) (253, 2.09719237331767727195e-02) (254, 6.79089673177463576392e-02) (255, -2.21399644429948194713e-03) (256, 1.47705902789742240383e-02) (257, -2.31025286402062081381e-02) (258, -7.84469776404230767497e-02) (259, 4.78963980023620825022e-02) (260, 6.91951406975970656488e-02) (261, -1.18916170460292569544e-01) (262, 2.93017124736665284662e-03) (263, -7.52205763670719257385e-02) (264, 6.28342562394426542953e-04) (265, -2.46225307025096616653e-02) (266, 1.22515159218581030226e-02) (267, 3.71933939026481419354e-02) (268, -3.45451676601035706504e-02) (269, -3.76687895793575769354e-02) (270, 7.42108523748452458824e-02) (271, 4.48933822782805816431e-02) (272, -1.14740543897811270169e-01) (273, 9.45924056432708576514e-02) (274, -8.97136636744990112469e-02) (275, 4.23604065324040060525e-02) (276, 1.10781576411895080203e-01) (277, 3.46420319056150310955e-02) (278, 2.27623033894733123317e-02) (279, 8.20543932006052578743e-02) (280, 2.63572338931673220974e-02) (281, 5.64414359156413247831e-02) (282, 9.37426978823102663441e-02) (283, 4.57177840248158620651e-02) (284, 3.89202105390527436368e-02) (285, -2.78632283909234848562e-02) (286, -1.02773441420130097479e-02) (287, -9.97728083883827332468e-02) (288, -1.18840669201769125185e-01) (289, -4.96133767728455105095e-02) (290, 3.88194804382739691584e-02) (291, -1.38200585261481850852e-01) (292, -1.11579811536402992433e-01) (293, -4.83614072020099663995e-02) (294, -8.79435496110043402052e-02) (295, 1.46783749835958949453e-02) (296, 6.43499142341066171502e-02) (297, 1.01694971455174743707e-02) (298, -8.15232887358088437191e-02) (299, -6.73283880771465143011e-02) (300, -1.07392305733078979868e-01) (301, -5.11507179852980983781e-02) (302, -6.58268009476396798174e-02) (303, -9.65013080844638604372e-02) (304, -7.55509345776030905029e-02) (305, -3.36828714668091500073e-03) (306, 8.63449031425247981453e-02) (307, 2.70155346068680468630e-01) (308, -2.24750773846785281695e-02) (309, 7.83647586847543847766e-02) (310, 5.66627398116329589195e-02) (311, -9.56092983607964158610e-02) (312, 6.71714896124050390297e-03) (313, -4.17579912679869394432e-02) (314, 1.67293128678636625339e-02) (315, -2.50480465698403528818e-02) (316, -3.92392908433186402006e-02) (317, -4.04535550051953810002e-02) (318, 5.53037613260157559503e-02) (319, -8.17292354724821340506e-02) (320, -2.41960728893554320729e-02) (321, 2.11097492026040139956e-02) (322, -6.15154393281251501979e-02) (323, -7.43411295942039140883e-02) (324, -9.66620438959260031009e-02) (325, 5.01313763839481285611e-02) (326, -1.05486568077274717181e-01) (327, -1.01526099514272535873e-01) (328, -7.87078836180214042040e-02) (329, 3.00209210931151153356e-02) (330, 3.57102728704797051790e-03) (331, -4.05512971978002415008e-02) (332, -8.94571092312606147567e-02) (333, 6.62375644095646032294e-02) (334, 1.79422240293421707269e-04) (335, -9.33187719172791640965e-02) (336, -4.05259837653754173559e-02) (337, -2.61598816028813831169e-02) (338, -6.69043896994001435763e-02) (339, 6.51569874177076752836e-03) (340, -1.02023680383787854198e-01) (341, 2.36843929302954503413e-02) (342, -2.73547946667272515175e-02) (343, 2.89825693486708314828e-02) (344, -6.46613630465348032672e-02) (345, 1.49641984531727282454e-02) (346, 2.03822312918355355582e-02) (347, -3.83890654288395472005e-02) (348, -8.12994080907136901226e-02) (349, -3.29355504329329820679e-02) (350, -6.55317113251753079889e-03) (351, 3.24592645997127671187e-02) (352, -3.03248524214260670173e-02) (353, 9.11572760244650642791e-02) (354, -3.41411053887003754226e-02) (355, 4.60056010729129119530e-02) (356, 1.44562791219234963030e-02) (357, 5.24162400681496970511e-02) (358, 9.55164543581005914819e-02) (359, 7.41545142366217824303e-02) (360, -7.91295291317130680686e-03) (361, 1.36356957904333209869e-02) (362, -8.39999134242351980228e-02) (363, 3.82313774748090822245e-03) (364, -2.98965633998014949924e-02) (365, 8.77299694745885261238e-03) (366, 4.14892192965614914346e-02) (367, 3.92650762044565240783e-02) (368, 6.04495493544484133186e-02) (369, 1.34670318450221555145e-02) (370, -3.34589773339313278910e-02) (371, 1.12421288895143647868e-01) (372, 2.44806458497379593464e-02) (373, 4.79666616067676090940e-02) (374, 7.76371992329156074275e-02) (375, -1.65987489795447751284e-01) (376, -1.74538764508087966554e-02) (377, 2.12925848722060849505e-02) (378, -9.56836060617988481969e-02) (379, 1.00214008106771446105e-01) (380, 3.94595064482054017074e-02) (381, 1.51044274725885309396e-02) (382, 1.68907175433456457903e-02) (383, -5.61315586737395275096e-02) (384, 1.87603239758809929583e-02) (385, 7.23853884631788790927e-02) (386, -8.61726527710875572774e-02) (387, -2.79671660464421677206e-02) (388, 1.10633420261295554315e-03) (389, 1.03314679517813520770e-01) (390, -5.54307594349754406693e-02) (391, -7.32375862160165591597e-02) (392, 1.01221887924837963130e-02) (393, 8.39081182760126505216e-03) (394, 1.12059328632970155171e-02) (395, 7.45909724131441076445e-02) (396, -6.55754061217988237775e-02) (397, -7.81347754601042499001e-02) (398, -1.08203785554447564493e-02) (399, -1.04116208121483505566e-01) (400, -3.83358066053185175814e-02) (401, 4.01968062309181681235e-02) (402, -8.18542777974913121630e-02) (403, -9.46071588103571670114e-02) (404, 1.61560254031186401047e-02) (405, 7.82651663079871606765e-02) (406, -3.72581764115570840401e-02) (407, -9.31806506268971629359e-02) (408, -3.02634040907885266958e-02) (409, -2.02161155434958650628e-04) (410, 5.47869667374824356743e-02) (411, -5.79052027149760534241e-02) (412, -8.12317261124912044779e-03) (413, -7.40811123717699526736e-02) (414, -1.23112322081514631578e-02) (415, -2.33226656503920277974e-02) (416, 7.25564679609666668414e-02) (417, -3.07095323894542616971e-02) (418, 7.20474176126136289788e-02) (419, -2.65744078510055034559e-02) (420, -1.95815567395708142739e-02) (421, -2.97502241559682717442e-02) (422, 2.96210027399707032103e-03) (423, -1.22439537432518841253e-01) (424, -1.41264742973276680171e-01) (425, -4.45800157115018927390e-02) (426, 9.77560500107211016729e-02) (427, -5.35293505690891402438e-02) (428, 4.40016578857168466632e-02) (429, -4.96003651771735869919e-03) (430, -6.90393868078384709275e-02) (431, -9.63461549509060377616e-02) (432, -2.42038644906835860582e-02) (433, 1.05158574469508894755e-02) (434, -2.00963347082450394243e-02) (435, -8.54669509039721192467e-02) (436, -3.82680044460877930024e-02) (437, -1.79133888672624239091e-02) (438, -9.36963105732054046815e-02) (0, 1.00978078839574547665e-01) (1, -1.66347992749403955637e-02) (2, 4.91271663840983432991e-02) (3, -2.20638703136986531750e-02) (4, -1.62463994762795417570e-02) (5, -7.27996844795249092863e-02) (6, 5.59847297743672617232e-02) (7, -3.40211689669615707787e-02) (8, -6.36986972257946315601e-02) (9, -9.98693641919987662448e-02) (10, 6.01256323279097393275e-02) (11, 3.26932350918946942886e-02) (12, 2.73794835432736652359e-03) (13, -5.48821297554827128296e-02) (14, -4.29754464059598079162e-02) (15, -1.66935210721808856282e-02) (16, -1.06571610329895000852e-02) (17, 6.86641410665843505978e-03) (18, -1.73801618690057925465e-02) (19, 9.34225611636186059616e-02) (20, -3.19818779826164245605e-02) (21, -8.20926997683132653183e-02) (22, -4.92015675843938543599e-02) (23, -9.03904053745408497811e-02) (24, -1.46051505707188278294e-01) (25, 1.20010929603612093164e-01) (26, 1.16952159960414678319e-01) (27, 3.06823084678477346621e-02) (28, 3.93414341688190227764e-02) (29, 1.53475510507029965640e-02) (30, 1.49727759912003294263e-01) (31, 8.11197602379830906560e-02) (32, -7.20936456751619519912e-02) (33, 2.08956111398239247068e-02) (34, 3.45902812892530456268e-02) (35, -9.51060426856512736160e-02) (36, -2.40995516392345753010e-02) (37, -9.51481023309650730813e-02) (38, -1.93275419954353322449e-01) (39, -2.23732447255392208341e-01) (40, 8.71963923866151541242e-02) (41, -1.11124675826417135260e-01) (42, 1.43049037485772995160e-01) (43, 3.81334431057747808014e-02) (44, 9.27651247908596321423e-02) (45, 9.10047989944082480473e-02) (46, -3.74277881854428659536e-02) (47, -1.49975626799776273756e-01) (48, -3.80087503426956505037e-02) (49, -1.15157034191080712149e-01) (50, 5.18635791305391488648e-02) (51, 1.23476323170645385652e-02) (52, -3.80219813555557548113e-02) (53, -1.26178540420097323738e-01) (54, 3.11452763509511253159e-02) (55, 7.27244519072515194225e-02) (56, -1.99856626780473722871e-01) (57, 1.02263824437403573996e-03) (58, -1.38335480086352824447e-01) (59, -1.80930169766128939868e-01) (60, 8.90442313293944437413e-02) (61, -4.67562465567541510336e-02) (62, -9.18175501084156527043e-03) (63, -1.36280810116222284023e-01) (64, 1.79932068086987112521e-01) (65, 2.08730346366105892764e-02) (66, 3.50124764707097982375e-02) (67, -3.40521547756355152936e-02) (68, 8.29909280708628488421e-02) (69, -7.29047215899984724086e-02) (70, 1.72170238615350773559e-01) (71, 1.58663419861477389405e-02) (72, 6.11499138966378683047e-02) (73, -6.51266717362105340694e-02) (74, -1.54807413413346247472e-02) (75, -9.55091256026217028108e-02) (76, -5.65276615604097532053e-02) (77, 6.10575409331156962467e-02) (78, -1.53242966135555935825e-01) (79, -2.88525600625465616922e-01) (80, 1.14484526927247226569e-01) (81, -5.97223302955346632692e-02) (82, 8.19311991376891479710e-02) (83, -1.82339212434759700976e-01) (84, 8.19006370050294058016e-02) (85, -5.13950928073887564063e-02) (86, -5.79669834981259013418e-02) (87, -7.40417918042649836341e-02) (88, 5.90641924514310606709e-02) (89, -9.88962985943767081132e-02) (90, -2.66472737455168903753e-02) (91, -5.19451250337685521696e-02) (92, -1.65158317324275050186e-01) (93, 1.12279336933678135224e-02) (94, 9.07004630808455059032e-02) (95, -1.21643064976705728847e-02) (96, -2.43818341650356484873e-01) (97, 5.32672780883404542451e-02) (98, 4.62126535077685765551e-02) (99, -1.36331627978992758754e-01) (100, 1.58618411980900264613e-01) (101, 2.71483692512267289765e-02) (102, -1.58731692698521498208e-01) (103, -6.86399077247268202262e-02) (104, 8.39085218863142162649e-02) (105, 3.61558774520537723474e-02) (106, -1.55088205049013251602e-02) (107, -4.42666609637863278648e-02) (108, -5.90129133018381241138e-02) (109, -1.09165598576180883361e-01) (110, -1.91655645730463126096e-03) (111, -4.58225896062998579172e-03) (112, -2.33840952921785777407e-01) (113, -2.49547961625645159378e-01) (114, 2.26610478336529364007e-01) (115, 1.00552907888519893476e-01) (116, -3.35031453369915854790e-01) (117, -1.13479864925776136042e-01) (118, -2.05693519118255035982e-01) (119, -5.75240939556456165604e-01) (120, 7.29389051679875111134e-02) (121, -5.38827165800125698625e-02) (122, -2.08066064105072695556e-01) (123, -2.65297708139632826274e-01) (124, 1.74964957961852546342e-01) (125, -1.36226347480884885099e-01) (126, -2.99583813010673605248e-01) (127, -6.24037416035318620589e-02) (128, 2.08713739109493118251e-01) (129, -5.38669222666497485297e-02) (130, 2.44368425166897641765e-02) (131, -9.46464139013573901860e-02) (132, -1.22833532243336512879e-01) (133, -1.09023138986213560808e-01) (134, 6.76536479239363552907e-02) (135, -2.07448580449308035700e-02) (136, -2.07922015625841866138e-01) (137, -9.20584250655587382761e-02) (138, -9.06378871981980971384e-02) (139, -3.16387723908739482148e-01) (140, 4.90528812990720028409e-02) (141, -2.41680016282327173038e-02) (142, -2.72252088754673278459e-02) (143, -9.46526471553804371606e-02) (144, 1.73338466372259941695e-01) (145, 1.59777323041628595279e-02) (146, -1.90359024543783672545e-01) (147, -7.09718487119575108801e-02) (148, -1.12510820335198921671e-01) (149, -1.16741833442387976660e-01) (150, -2.27094564511279729119e-03) (151, 3.99397108238164003091e-02) (152, 2.66325587856746683058e-03) (153, -2.32476956768718559521e-02) (154, 1.21647196035308768902e-01) (155, -7.79479199887025825388e-02) (156, -1.38646554876825978120e-01) (157, -7.32798605263324798198e-02) (158, -1.06253189721407306778e-01) (159, -1.85507613315944203114e-01) (160, 1.97237488523063830836e-01) (161, -5.20463392360171750450e-02) (162, -1.66405413496022530628e-01) (163, -3.23608294878866137312e-02) (164, -1.03999514578773290946e-02) (165, 3.70591990414396374454e-02) (166, -5.57099543259232735104e-02) (167, -9.20651159650048567240e-02) (168, 4.57799547680760796076e-02) (169, -3.57053836918389266852e-02) (170, 1.76027468836201781734e-03) (171, -7.03938038531179335194e-03) (172, -8.15425260760292147655e-02) (173, 1.84809932932704298891e-02) (174, 1.99225765467235527151e-01) (175, 1.67713427623093630503e-02) (176, -6.83920476122387016593e-02) (177, -1.74956990713276444582e-01) (178, 5.61628721659222854279e-02) (179, -3.46203313762628750450e-01) (180, 4.10100620449437777704e-02) (181, -1.11020562279940893102e-01) (182, 3.66900803171106154599e-02) (183, -2.95809647446120243391e-03) (184, 1.35478274792895869716e-01) (185, 1.08958171870498291001e-01) (186, 2.03809515364661436587e-02) (187, -7.73229904592203920455e-02) (188, 7.00790439969685985400e-02) (189, 7.17077155734384685815e-02) (190, 5.44925699535765556414e-02) (191, 5.21532479439807197807e-02) (192, -1.25290556049171886155e-01) (193, -4.98561463990127642920e-02) (194, 1.34143886790053817881e-01) (195, -8.97903164843677254088e-04) (196, -3.39442012922074598524e-02) (197, -2.81425074970344211989e-02) (198, -4.20094977815830758483e-02) (199, -1.31641484311945555774e-01) (200, 1.44944546036383153931e-01) (201, -9.43729694554745479618e-02) (202, 2.19058817303929079245e-02) (203, -1.23752139447919726201e-01) (204, 2.39210941993662551397e-01) (205, 4.62138214917556452987e-02) (206, 3.05482932762452009945e-02) (207, 3.18424136810403698994e-02) (208, -2.59771867380244360357e-02) (209, 1.11557712143042914166e-02) (210, 6.34648893930709334654e-02) (211, 6.33448859586261264765e-02) (212, -6.46342458587172066092e-03) (213, 7.33785018685287858398e-03) (214, 2.08022526763313592157e-02) (215, -3.03861102525435633481e-02) (216, -6.52800171950012331212e-02) (217, -8.78546694943386496934e-02) (218, 4.47208357580198556658e-02) (219, 6.43750332840952177449e-02) (220, -1.02646003013012826477e-01) (221, -1.13032235310103687520e-01) (222, 1.74885266292429961479e-03) (223, -5.20035048466809049494e-02) (224, -1.00922276326704141169e-01) (225, -4.74285442206252988440e-02) (226, -2.29717073579572030051e-02) (227, 5.57165272763510133203e-02) (228, -1.43973830929837259829e-01) (229, 5.89306987707625892781e-02) (230, -1.60473035998191654317e-01) (231, 1.37731070346486988987e-01) (232, -1.74300893287851754732e-02) (233, 8.28132076733498617704e-02) (234, -6.48772688424818777531e-02) (235, 1.60413034947073825098e-02) (236, -7.89604534222021203771e-02) (237, -5.98740232523664109299e-02) (238, -2.53697032344780068480e-02) (239, -4.39605111740105219953e-03) (240, 3.53441919363132808773e-02) (241, -5.86001467645473200774e-02) (242, -5.15907933182881486833e-02) (243, 3.49582668870486723556e-02) (244, -1.03966051810029640884e-02) (245, -7.83459987830139870102e-02) (246, -1.48802819398353408653e-01) (247, 1.38864273189955034216e-01) (248, -1.32671915604630652474e-01) (249, -2.15521421422048727046e-02) (250, 6.86838279849033821883e-03) (251, 1.36158790778267676028e-03) (252, -1.31007121447086788413e-01) (253, 2.05795533937480172593e-02) (254, -2.42864866847926526294e-02) (255, -3.44409067090790527166e-02) (256, 6.46439143607545896320e-02) (257, -1.26567498807690526075e-01) (258, -1.43439291983946420883e-01) (259, 1.77196700942250207067e-01) (260, -4.91580166842080709677e-02) (261, -1.68809764710718540615e-01) (262, 1.52092863093580915601e-01) (263, -4.71066466356726554210e-02) (264, 1.29130599187570836023e-02) (265, 1.70130209033913876171e-01) (266, -1.34266226348095540910e-01) (267, -1.30452159506552423096e-01) (268, -4.16573856196297345744e-02) (269, -3.59093640945963507582e-02) (270, 1.64039622945190838310e-02) (271, -7.09861897369392785828e-02) (272, -4.25055599014556931281e-02) (273, -7.34425288184794439195e-02) (274, 3.96055817586375077943e-02) (275, -1.41813148774808467367e-01) (276, -5.98668519918294159132e-02) (277, 8.86112017746247676575e-02) (278, 3.87615669056179321106e-02) (279, -9.12459102088472064074e-03) (280, -9.65132679399787613006e-02) (281, 3.31428352240772938764e-02) (282, 3.95712018117753625002e-02) (283, -1.23770281168852816500e-01) (284, 3.90084030356540505460e-03) (285, -7.25661412299197228215e-02) (286, -1.13489252540878465814e-01) (287, 1.23951828615427202263e-02) (288, -1.26158128730661539540e-01) (289, -2.54758590050536970484e-01) (290, -3.15940464826261133147e-02) (291, -1.73032365724618164560e-01) (292, -5.26448574696737892076e-02) (293, -3.69846522219320281155e-02) (294, -6.46604692950926152051e-02) (295, -1.10453595764722842243e-01) (296, -7.67261171743973124926e-02) (297, -3.10859882104070270326e-02) (298, -1.76178042487976971309e-01) (299, 1.60855636547212604848e-02) (300, 6.45029364590246206967e-02) (301, -8.05774014831839857642e-02) (302, 6.00628822607771131747e-02) (303, -1.49755529032284222246e-02) (304, -7.46636788212800966980e-02) (305, -1.53096167067747757073e-02) (306, -6.51914799118928911525e-02) (307, 1.82643515892223579078e-01) (308, 5.06389320141913470974e-02) (309, 3.34858144119819789442e-02) (310, 3.07697796039890364428e-02) (311, 2.38982286346453879841e-03) (312, -1.63335517320724848966e-01) (313, -1.53119954451776101728e-02) (314, -9.97157719794594388230e-02) (315, -1.40054398047540967776e-01) (316, 1.14481187900491165887e-01) (317, -6.09444196741432964171e-02) (318, -8.23344715453690062512e-02) (319, -1.19509352183882158749e-01) (320, -1.09993355129498371348e-01) (321, -1.51219744917488685410e-01) (322, -9.25791031979369405391e-02) (323, -8.28254511958150807516e-02) (324, -1.33145105737135199808e-01) (325, 4.57086767872441554483e-02) (326, -2.14368943055216171212e-01) (327, 2.82599192288265979589e-02) (328, -1.12523478554916858685e-01) (329, -5.15924866474269799843e-02) (330, -2.86651188352097310852e-02) (331, -1.23438142834366618161e-01) (332, 8.58977722678320315675e-03) (333, -1.05492819512709515295e-01) (334, 4.45319442556257397148e-02) (335, 5.60525263486147465319e-02) (336, 8.28585411800895482726e-02) (337, 8.05801083666980166864e-02) (338, -1.11131999690477822895e-01) (339, -8.39795523742337540751e-02) (340, -1.27408580912085234171e-01) (341, -4.07589559019501945780e-02) (342, -8.27847872290427555519e-02) (343, -1.96300279409488243054e-01) (344, -1.52201978514116403884e-01) (345, -1.15657503794975413669e-01) (346, 2.45765574651832033326e-02) (347, 5.14695672228423495298e-02) (348, 3.74937385991656463302e-02) (349, 1.99878905161485244391e-02) (350, 4.30993460186009855195e-02) (351, -1.01524618744818093119e-01) (352, 7.20566626239486085481e-02) (353, -9.97881075519807536622e-02) (354, 6.82927676601881999963e-02) (355, -4.83243177165065124212e-03) (356, 3.85891758873358470261e-02) (357, -1.32306592838284192704e-01) (358, -5.11402440285339335291e-02) (359, 5.58470553724704638077e-02) (360, -8.17773055350364125315e-02) (361, 7.41659956713965756725e-02) (362, -1.58912867755132053427e-01) (363, -1.01968422568316785526e-01) (364, -5.69075855472460576112e-02) (365, 1.91179843682008354655e-02) (366, 1.69042090349667190052e-01) (367, -5.71002677379807768721e-02) (368, -1.49391662468284364129e-01) (369, 1.41472355144164285701e-01) (370, -3.01511904880562287001e-02) (371, -1.19242710672003690564e-01) (372, 3.94597389767006312411e-02) (373, 1.35380621035647935591e-01) (374, -1.24782655868035205482e-01) (375, 4.66639372075360742143e-02) (376, 1.13241519676742896650e-01) (377, -1.84522190760996768200e-01) (378, -3.53218618583262949917e-02) (379, 1.57140792859948308369e-01) (380, -4.32252457748930826731e-02) (381, -4.25542234752500636574e-02) (382, 1.52054487963201312439e-01) (383, -5.01771103238245752554e-02) (384, -1.28041511713109401605e-01) (385, 1.78395592424709897861e-01) (386, -1.00685336450665061103e-01) (387, -1.55122524760038377201e-01) (388, 1.13736794776334526613e-01) (389, 3.08691437344721340830e-02) (390, -2.39781247015013826429e-01) (391, -4.30047280890546723686e-02) (392, 1.71091294099755791835e-01) (393, -9.17380832995417366815e-02) (394, -5.75591532229584590397e-02) (395, 5.99570462439136947497e-02) (396, 4.04727560707582312283e-02) (397, -1.83037000806403116204e-01) (398, 6.42912134673514351624e-02) (399, -1.25611422657914362233e-01) (400, -1.02335728726447111603e-01) (401, -1.16734346716049736115e-01) (402, 5.64224582337440536128e-02) (403, 9.31458305731778651859e-02) (404, 8.26790834726661705290e-02) (405, -4.59729131827352824335e-02) (406, 1.26810559132548045236e-01) (407, 4.45038725845110366697e-02) (408, -1.41763228443222855796e-02) (409, -7.14350506942749152728e-02) (410, -4.65301755080680598531e-02) (411, -7.14577187300540483950e-02) (412, 1.42319819016719709137e-02) (413, -7.96684330435802751103e-02) (414, 7.56020400217182197977e-02) (415, 9.41949332349949208787e-02) (416, 4.30409916539147979764e-02) (417, -1.00206895849751717598e-01) (418, -9.66268151078665399334e-02) (419, -2.39062076183886515479e-02) (420, 1.02468344407659964213e-01) (421, -4.79281840796442898389e-02) (422, 5.89636292088060488814e-03) (423, -1.22528710079483627027e-01) (424, -1.96429535626606949217e-01) (425, -1.08665709008114882983e-01) (426, 1.93487665775969701343e-02) (427, -8.57858154480352907978e-02) (428, 3.49181546118091726272e-02) (429, -1.05247588779271594728e-01) (430, -4.34690114660778378908e-02) (431, 2.02642237701760041801e-02) (432, -7.80916339046196783524e-02) (433, 1.13325581539935882347e-02) (434, 9.28200414350995040014e-02) (435, -4.13394522069346209703e-02) (436, -2.30865231136045401250e-02) (437, -9.26167105387051825538e-02) (438, 6.48276646903077902184e-02) (0, 1.08019761290031237472e-02) (1, 5.48599176169829033656e-02) (2, -6.47029079725388867050e-02) (3, 4.58633505645529779282e-02) (4, -7.36621555230271007897e-02) (5, -2.91638019215718219401e-02) (6, 1.66799492941891100428e-02) (7, -4.38080638515982515035e-02) (8, -6.02544488810088443853e-02) (9, 2.05029542551347157553e-02) (10, -5.36925633911854716107e-02) (11, 4.07976998465331835986e-02) (12, -1.15546714223110982833e-02) (13, -7.18921153945078182657e-03) (14, -7.66775022692648983852e-03) (15, 7.61017091829200853503e-02) (16, 8.52936036771736322271e-02) (17, 3.07998270620143919929e-02) (18, -3.21123775548824708093e-02) (19, -6.06444520874638640096e-02) (20, -5.15872202813625335693e-02) (21, 1.11314897297665124642e-02) (22, -5.33829460670220481977e-02) (23, -2.02105438798037689851e-01) (24, -1.33706261798438641453e-01) (25, 5.49234425897747279141e-05) (26, -1.14279726349697033361e-01) (27, -1.57129813539381366083e-02) (28, 2.57465431547744955099e-02) (29, -1.86278559112711093737e-02) (30, 2.65107636574971397558e-02) (31, 1.53187835148055877948e-02) (32, -1.39044830914369144104e-01) (33, 2.88310884920248595986e-02) (34, -5.72705207782305616981e-02) (35, -3.65040694845112298483e-02) (36, -9.33018032082137266370e-02) (37, 9.66758415034715996861e-03) (38, -3.20516709983017025754e-02) (39, -4.92134495227379425986e-02) (40, -1.11067551207139989661e-02) (41, 5.61300492708191947622e-02) (42, -8.30326524654941416914e-02) (43, 1.64619236938427469796e-02) (44, 2.06201670981089914270e-02) (45, -2.73445808246783285053e-03) (46, 1.52358647848149196535e-02) (47, -2.92487103900758611819e-02) (48, -9.09787785478154698016e-02) (49, -9.15260772589531340637e-02) (50, -3.36554328920258549740e-02) (51, -3.47269938541186345971e-02) (52, 6.71917926012981503447e-02) (53, -9.84300305598815594710e-02) (54, 3.24815792281934745400e-02) (55, -4.94187329832651844885e-02) (56, -7.29956824321409907365e-05) (57, 1.04938565723051643874e-02) (58, 2.63258539430007709736e-02) (59, -6.05648539849555078707e-02) (60, -3.31824961352294445227e-02) (61, -1.03078075912858453667e-02) (62, -7.91343232163423948577e-02) (63, -9.30783492963734582215e-02) (64, -1.15190921161861890148e-03) (65, -6.01647291910170772811e-02) (66, 6.76826085255462402135e-03) (67, -1.63018551039064013564e-02) (68, -9.64362254093640985930e-02) (69, -9.16874172655021135725e-02) (70, -1.17521375799851446331e-01) (71, -6.14450565750371061058e-02) (72, -1.03475039840184565576e-01) (73, -1.07843124723376940222e-01) (74, -6.66061491748525524859e-02) (75, -2.54435552308154185053e-02) (76, -2.35669949214350193945e-02) (77, 7.49787297376798278492e-02) (78, -1.57623578976582938947e-03) (79, -2.82709086590756317192e-02) (80, -5.14439873977015488249e-02) (81, -7.96306754600942523492e-02) (82, -3.27695340078467192702e-02) (83, -1.34426502963319371986e-01) (84, 1.20218362783605509092e-02) (85, -1.03807376105584922565e-01) (86, -1.04519942744186189465e-01) (87, -7.39721019349543623678e-02) (88, 4.12347034774526027823e-02) (89, -7.94113674406718844656e-02) (90, 6.97688010796853330664e-02) (91, 2.77754895095146357720e-02) (92, -1.62877266275925740302e-02) (93, -9.05531118590739425578e-02) (94, -2.21643526255138369196e-02) (95, -7.97151675808663723322e-02) (96, -1.13094418254687259506e-01) (97, 4.51162112044608126782e-02) (98, -2.11449969187477637353e-03) (99, -1.27118640262558230125e-01) (100, -6.43940987947574927652e-02) (101, 1.79061662285831578803e-03) (102, 1.15206297872164561968e-02) (103, -1.51302415167304832311e-01) (104, 8.98039271913181891271e-02) (105, 9.43056362017009736087e-02) (106, -5.24749084608384999684e-02) (107, 1.13873205781403388087e-02) (108, 9.62038163399126095010e-02) (109, -3.05849548476195866320e-02) (110, -1.39999436323554374804e-03) (111, -1.29423125752734291538e-01) (112, -2.55540391257129059777e-02) (113, 2.07940327982892893266e-02) (114, -4.62121094322022613055e-02) (115, -6.79957206094852634193e-02) (116, -6.61993366669161031890e-02) (117, -9.42610410607518239834e-02) (118, -8.31494511763348487232e-02) (119, -1.67870455957953024217e-01) (120, 5.10088304229056217765e-03) (121, -6.92032127219920495387e-02) (122, -4.73690573792607122483e-02) (123, -1.38199234424705996727e-01) (124, -7.98227157339224946409e-03) (125, 5.18931873477662536365e-02) (126, -9.22237844140512824653e-02) (127, 1.99051549048164791098e-03) (128, 6.68742424132112156521e-02) (129, 9.12974945844002988560e-02) (130, -7.73938994666519969323e-02) (131, 2.39105195249723102846e-02) (132, -5.38524243752916617622e-02) (133, 5.01729667813259408438e-02) (134, 8.79136152071177262579e-02) (135, -4.94089610444508400833e-02) (136, -3.97485955499802257052e-02) (137, -6.48279729751326805332e-02) (138, 1.43463780626861860112e-03) (139, -1.08619281541146139869e-01) (140, 5.42906059394912265947e-02) (141, -8.98380479377574869826e-02) (142, -8.76942158300914043068e-03) (143, -7.42786269524138842435e-02) (144, 1.28711048615230888581e-01) (145, 5.06837438243675636462e-02) (146, -3.88945700199599397884e-02) (147, 3.35021699587077434468e-02) (148, -7.59966322925679366174e-02) (149, 5.68551872320068318878e-02) (150, -3.76888731266880865761e-03) (151, 3.93112815244417504457e-02) (152, -9.61240825512000435227e-02) (153, 8.45314318040563117407e-02) (154, 1.07499958853317742480e-01) (155, -3.77342161876672091414e-02) (156, -3.41006448268574222094e-02) (157, -9.01878288370481229208e-02) (158, -1.01199454431713756208e-01) (159, -1.39602431998544190828e-01) (160, -3.17799658014509892046e-02) (161, -3.90723542689375147319e-02) (162, 5.59232634567053618624e-02) (163, -2.04053038115512806738e-02) (164, -5.54084881073009793973e-02) (165, 4.79822529083593074528e-02) (166, -1.26270709665347397044e-01) (167, 5.82234335889676504761e-02) (168, -5.95515222135595267972e-02) (169, 3.16246443610182781381e-02) (170, 2.18838935866116808537e-02) (171, 6.36812477552191474883e-02) (172, 3.42999344356209809326e-02) (173, -5.15692130573088269863e-02) (174, -1.34724382047926600353e-02) (175, 6.10829546044598589716e-02) (176, -1.64244851632742466796e-01) (177, 2.20814998798138407976e-02) (178, 2.06416180877181942854e-02) (179, -1.74239940729023351507e-01) (180, 7.11782367448055702797e-02) (181, -7.98394168661509251450e-02) (182, 5.07058788232879059654e-02) (183, 5.79587618156384848378e-02) (184, -5.81082290539740448088e-02) (185, 7.20715195722218260332e-02) (186, -6.78200535884255443358e-03) (187, 4.61180348837709544463e-02) (188, -5.55099724092089630290e-02) (189, 2.80281152299700318797e-02) (190, -5.14623264161552310125e-02) (191, -2.93467789738277515244e-02) (192, -1.17667027360148002124e-01) (193, -5.86000872514045034745e-02) (194, -6.36366557561565543422e-02) (195, -9.42071078298168940179e-02) (196, 3.19658835635716689905e-02) (197, -9.75541857030527564953e-02) (198, -7.62902381332905693556e-02) (199, -1.41189130151861352847e-01) (200, 1.27838292020760024847e-01) (201, 2.17457294265793951715e-02) (202, 8.64339776471608062236e-02) (203, 2.26354972319526351332e-02) (204, -5.29721756325438816737e-02) (205, -4.74506492480048294724e-02) (206, 1.29008843901267586385e-02) (207, -1.09985394386119011978e-01) (208, -7.30338254653897928081e-02) (209, -1.50988019789695671058e-02) (210, -6.17149376796803789125e-02) (211, 5.93381561928908105030e-02) (212, 3.05508419805399942734e-03) (213, -1.28039406812097744659e-01) (214, 2.71050469107754106457e-02) (215, -1.10994936099905548016e-02) (216, 4.33358357537882224464e-02) (217, -6.44448368555969042237e-02) (218, -3.71210618125329822048e-02) (219, -1.17106747997736168609e-01) (220, -1.19449523567657769907e-01) (221, 8.61465847529314932007e-03) (222, -2.86030076296952791640e-03) (223, -1.19561070446947151358e-01) (224, 5.06287577402155034023e-02) (225, 1.24952285258442263860e-03) (226, -5.94147192751257741117e-02) (227, 1.98766311452735697229e-02) (228, 4.47579780368663610046e-02) (229, -1.12132760880175059298e-02) (230, 3.80147189335369381502e-02) (231, 7.25955332102970612995e-02) (232, -7.52584226976172748769e-02) (233, 6.70659731738117992350e-02) (234, 2.22215333928677781505e-02) (235, -2.16350710410887596413e-02) (236, -9.05990725663604751228e-02) (237, -4.73467020463213140308e-03) (238, -5.55134975665272454443e-03) (239, -4.11879722311897997211e-02) (240, 8.50381947725111775327e-02) (241, 2.53704073103118987742e-02) (242, -4.65828754498990443844e-02) (243, -2.83848828055699407835e-02) (244, 6.02974009627242693576e-02) (245, -7.72956086382672324930e-02) (246, -3.33708608112689500413e-02) (247, 3.93319989394206662170e-02) (248, 8.75186858181902643805e-03) (249, 6.37957341902318231242e-02) (250, -1.01696503895028753095e-01) (251, 1.37833738394693254559e-02) (252, 2.76137490036457988740e-02) (253, -1.64251573574264488065e-02) (254, 8.02226901964939176359e-02) (255, -4.86847525548538689888e-02) (256, -2.25578639941208837494e-02) (257, -1.11726417080508330648e-01) (258, -9.58650854386504103211e-02) (259, -3.41981857419062784675e-02) (260, 2.00709199853033974648e-02) (261, -1.48576712679188038813e-01) (262, -6.00519589344935336706e-02) (263, -8.31413377767188932488e-02) (264, -1.52912068756465374664e-01) (265, 7.43685102897129052257e-02) (266, 4.11220160344538763347e-03) (267, -1.01044884466600301542e-01) (268, -2.73211811110750484033e-02) (269, -8.06007940203170153426e-02) (270, -4.86624004813556321897e-03) (271, -3.09277634644558423183e-02) (272, 7.23932616507330789490e-02) (273, 6.85491135557890346464e-02) (274, 8.20210902215298964801e-02) (275, 5.37758078714791615260e-02) (276, -6.71471812862583367076e-02) (277, -5.37408621427219873601e-02) (278, 4.22269774656941487834e-02) (279, 7.88858758744240412542e-02) (280, -6.74905217600412499213e-02) (281, 5.61585379897823269713e-02) (282, 2.77546170496051694543e-02) (283, 5.28740917172369137567e-02) (284, -7.99102165447971614365e-03) (285, -7.05058210677195901228e-02) (286, -7.51557404363431269534e-02) (287, 1.77665028358350018944e-02) (288, -5.01506835839516870723e-02) (289, -4.92849514103335800685e-02) (290, -1.33258806601808027503e-01) (291, -9.91878320685642689281e-02) (292, 1.14741153544528681069e-02) (293, -5.55677777167095029998e-02) (294, -6.06937687503781159171e-02) (295, 3.59535820134922051716e-02) (296, -7.42564774545096950575e-02) (297, 3.52217713558480513547e-02) (298, -1.40665409329780666248e-01) (299, -1.18948477684029923357e-02) (300, 6.71416416069071098072e-02) (301, 2.80864908435922468188e-02) (302, 8.72743993040468596378e-02) (303, 3.84437828180297438974e-02) (304, -1.28009854242372173722e-03) (305, 7.27544232035242932621e-02) (306, 2.87956538738530012922e-02) (307, 1.13630991426436483982e-01) (308, -3.42926047492060903643e-02) (309, 2.13536973075041033865e-02) (310, 3.49442373380764092702e-03) (311, -1.11594218776322889886e-02) (312, -3.41686936120418477403e-02) (313, -1.36903127835232396592e-01) (314, -8.67401339619075922860e-02) (315, -1.16987516388496179398e-01) (316, -1.37685576081706274182e-03) (317, 1.84191924216493690958e-02) (318, -1.33200834644704613208e-01) (319, 7.96924019373378422770e-02) (320, -3.83997082981921977751e-02) (321, -1.05068643979807044286e-01) (322, -1.11104922609002301770e-01) (323, -1.18424949315508176717e-01) (324, -5.30197475720746366767e-02) (325, 3.69433036480581924316e-03) (326, -1.20836337051246744956e-01) (327, -1.70750385026047259152e-02) (328, -6.24151572114731087448e-02) (329, -8.66700474635964113190e-02) (330, -3.94436234505196742228e-02) (331, -7.21087613950635447635e-02) (332, 7.65668035588185219575e-02) (333, -7.39091580407573722766e-02) (334, -1.12248032380130535746e-01) (335, -5.08843347755777233865e-02) (336, -5.50885272966883526857e-02) (337, 4.54485790933641942146e-02) (338, -5.16453144440226427636e-02) (339, -9.75693809923447105681e-03) (340, -5.18347353959392950773e-02) (341, 3.85208619408258963468e-03) (342, -1.10046334085382085943e-01) (343, 5.79824784849593960478e-02) (344, 3.69539851465106039541e-02) (345, -1.12505988457236726259e-03) (346, -8.87103723774871621988e-02) (347, -9.11090420299908998469e-02) (348, -3.92326697466016949267e-02) (349, -8.90898910646977792993e-02) (350, -8.65749701555747624981e-02) (351, 6.92341346618228631327e-02) (352, -3.34617649007177483944e-02) (353, -3.53802197058356027171e-02) (354, -5.52205958597289728318e-02) (355, 7.52373519338501162146e-02) (356, 6.93007905391185841104e-02) (357, -1.87125900975811214344e-02) (358, -2.64825238165590113801e-03) (359, -8.82265930561516309449e-02) (360, 1.60991589942662376156e-02) (361, 7.02814571735653897955e-02) (362, -5.09465995484832470663e-02) (363, 1.41792552774179323599e-02) (364, -7.00511657770294393632e-02) (365, -2.30222152492072888730e-02) (366, -1.08082907801426375549e-01) (367, -3.08684424710694649621e-03) (368, -8.83412676640620841972e-02) (369, -6.88912314598244812647e-02) (370, 9.55353059998459291924e-02) (371, -1.47342930415783179149e-02) (372, -1.30865184272925122455e-01) (373, -7.67634698737997278606e-02) (374, -4.76414828524896125095e-02) (375, -1.67467476937420527150e-02) (376, 2.30249099246038098354e-02) (377, 9.55924946973440992082e-03) (378, 1.81836521949135139498e-02) (379, 1.25179844851770166736e-01) (380, 1.32994842840025179892e-02) (381, -1.40500715637070561215e-01) (382, 9.01836886387326064352e-02) (383, 7.19797645956701120928e-02) (384, -8.55786185067480692501e-02) (385, -6.54939881507314997089e-02) (386, 7.43501363611221571803e-02) (387, -1.01024150358723599497e-01) (388, 3.28240604672812436027e-02) (389, -1.85436088540284968462e-02) (390, -5.04202802075621875355e-02) (391, -5.62276621631518924715e-02) (392, -2.04399756422501063802e-02) (393, 3.88430962543452676372e-02) (394, 6.93238492050824439694e-02) (395, -1.34203274169548258249e-02) (396, -5.77589091690440467608e-02) (397, -1.27718652857525594158e-01) (398, 7.10039783841118071761e-02) (399, -4.33308773545832554008e-02) (400, -3.26961181414815657553e-02) (401, 6.82726318902392992349e-02) (402, 6.73049630643984680978e-02) (403, -4.70204707473435290499e-02) (404, 6.77233829367513001651e-02) (405, -3.97396480167884064150e-02) (406, -5.97972866739038197426e-02) (407, -9.39576900778542160875e-03) (408, 8.14037488642268269867e-02) (409, -9.60221646252400612420e-02) (410, -1.43138224647524799071e-02) (411, 1.56774447498320181060e-02) (412, -7.63297162557270425509e-02) (413, -4.40490543143143703508e-02) (414, 1.05565281035671192089e-02) (415, -2.86604203932199538135e-03) (416, -3.82430704236876237156e-02) (417, -2.98854974421462332712e-02) (418, 2.93401026704584143301e-02) (419, 6.65691441069764938687e-02) (420, 4.49165933959073671033e-02) (421, -9.44546468542717537753e-02) (422, -8.80686421855345902276e-02) (423, -6.92130822220873853645e-02) (424, 5.12418827539839333296e-02) (425, -8.25570465593110508484e-02) (426, 5.80443581968709612640e-02) (427, -9.35206535170454572592e-02) (428, -7.69948739535317450144e-02) (429, 1.56463875347162932605e-02) (430, -1.31155703535162440621e-02) (431, 9.21353665669515618786e-03) (432, 2.56928586382849828695e-02) (433, 3.29850416829371093086e-02) (434, -5.95591268118154312794e-02) (435, 2.67506409775160290676e-02) (436, -9.58076959266332128795e-02) (437, -7.24957089724564823774e-02) (438, -1.04618292928404341136e-01) (0, 1.05806177932104089612e-01) (1, 6.11693587370803273928e-02) (2, -1.77954576238359869766e-02) (3, 6.71964803415629752248e-02) (4, -1.84456623588390641877e-02) (5, -1.09354164979085136111e-01) (6, -2.70972887298151360325e-02) (7, -1.46476963562493737309e-02) (8, -6.45366534312543857488e-03) (9, -3.17394438203731556886e-03) (10, 3.46310729753311410950e-02) (11, -2.09561529139705368663e-02) (12, -7.03357244044854361051e-04) (13, -1.39505007586555485055e-01) (14, 2.81998300577777777365e-02) (15, 3.19012608644885439779e-02) (16, 8.41691045808466570266e-02) (17, 5.60757545538937418605e-02) (18, 1.44819844969502949800e-02) (19, -4.59115126323557318222e-02) (20, -8.73874351382255554199e-02) (21, -2.33286060612218557053e-02) (22, 7.47992825172801439892e-02) (23, -2.37012686916682591143e-01) (24, -3.10264665734956535115e-01) (25, -2.14506052306794141316e-02) (26, 1.18316626874859026630e-01) (27, 7.08860001092871810924e-02) (28, -6.12515373416135863738e-02) (29, -1.08066201517095339391e-01) (30, -4.28571031828371626360e-02) (31, 2.71784437100385418973e-02) (32, -6.93838774683725456605e-02) (33, -1.20314533994318895865e-02) (34, 1.58641156121820003921e-01) (35, -7.95823296830598381213e-02) (36, -9.16774040634713294207e-02) (37, -1.35602781917246034693e-01) (38, -1.47053097121207343445e-01) (39, -2.01343669308247597005e-01) (40, 1.21742732438414852369e-01) (41, -9.82873774210450412703e-02) (42, 1.31852394998897958639e-02) (43, -1.07858595487111755262e-01) (44, -6.78865400822989840252e-03) (45, -8.78898820760142668318e-02) (46, -9.22914369263356099138e-02) (47, -9.39775708505801166126e-02) (48, 4.67340255788653152758e-02) (49, 2.29133384760707124739e-02) (50, -9.04926286100832949488e-02) (51, 7.38695103443835904278e-02) (52, -6.02965483984084157920e-02) (53, -1.17877317396276881656e-01) (54, 1.11404644632413132865e-01) (55, 6.56642311560971109197e-02) (56, -1.49696532573585783243e-01) (57, -1.00147522032856990670e-02) (58, -1.43226080988443971176e-01) (59, -1.65549380884703195571e-01) (60, 1.13026960270260490304e-01) (61, 2.56384073756028042779e-02) (62, -2.31110111175627172542e-02) (63, -1.15487367671537097258e-01) (64, 2.49812540930470419059e-03) (65, -1.34638728527903012155e-01) (66, 6.77418046379859098427e-03) (67, -4.56031813293533427878e-02) (68, -4.69053086501245511397e-02) (69, 1.21371645031277848592e-02) (70, 1.27212565524320364574e-01) (71, 9.22909802710563942352e-02) (72, 1.08164304078064169023e-01) (73, -1.19455287492063622762e-02) (74, -7.95373062218484305763e-02) (75, 5.69324839077571601131e-02) (76, -1.61689788270309692253e-01) (77, -4.24602906274371312556e-03) (78, -1.67728635594050490276e-01) (79, -2.85770557048681761447e-01) (80, 4.97852854036316891384e-02) (81, -1.11633798318836172103e-01) (82, 1.95056242840880647571e-02) (83, 4.43955465486135097963e-02) (84, 1.30578894047199203787e-02) (85, 1.51504555441402066762e-01) (86, -1.15641599938578448770e-01) (87, 4.35387214111903897429e-02) (88, 5.55146718923503340593e-02) (89, 4.18193348206381196319e-02) (90, 8.01736328513106069615e-03) (91, -7.25205232970115576396e-02) (92, -9.11157866896052798245e-02) (93, 4.67980646276766956704e-02) (94, 1.52364139023806910433e-01) (95, 6.31031303629668166577e-02) (96, -9.44088705187079019199e-02) (97, -1.04796429320864067924e-01) (98, -4.35153573333840401616e-02) (99, -1.66547672132311086468e-01) (100, 2.63314337607664150642e-01) (101, 1.49557872884417582260e-02) (102, -4.29545265488601082232e-03) (103, -6.97223044727660612452e-02) (104, 3.92336279873062507284e-02) (105, -8.15445682537576342630e-03) (106, -1.01141980254832578034e-01) (107, 6.28725184024666455818e-02) (108, 9.10689864161552259381e-02) (109, 4.47407529045444896099e-02) (110, 1.35220425913155195552e-01) (111, -1.49362549209188955057e-01) (112, -2.26544798073326031362e-01) (113, -1.65180111833653581188e-01) (114, 2.57238701525468405062e-01) (115, 4.30321799550146544266e-02) (116, -4.92899002709755396090e-01) (117, -2.59273160157218518496e-01) (118, -2.05474688177748249229e-01) (119, -5.37505529628717004798e-01) (120, 8.66767382719846740669e-02) (121, -2.03751856497027365733e-02) (122, -6.62511104808325302501e-03) (123, -2.06330029775628975841e-01) (124, 1.53654054963140385137e-01) (125, 4.28722730634989029896e-02) (126, -1.39972058722598852176e-01) (127, -1.11844426579601363692e-01) (128, 2.25074347712514832853e-01) (129, 1.72201098795588619650e-01) (130, -4.58197057062250390214e-02) (131, -6.12869779949224563476e-02) (132, -9.64336603279859205795e-02) (133, -5.65383918252376632685e-02) (134, 6.30224565311866130601e-02) (135, 3.77227430435168389899e-02) (136, -2.13719415743607615843e-01) (137, -1.74038047048987259968e-01) (138, -2.37558097887330926801e-01) (139, -4.52883675093642301679e-01) (140, 1.73891252552230424211e-01) (141, 1.26978093430582701651e-02) (142, -1.54702494956543118443e-01) (143, -2.08350723271157944883e-01) (144, 1.70359663222564072793e-01) (145, 5.88757184198328148428e-02) (146, -1.46162719958763537287e-01) (147, -1.90642727829861163835e-01) (148, 1.29947464699388115505e-01) (149, 3.51893468833524847295e-02) (150, 5.86632318220868531622e-02) (151, 7.87226884400831217192e-02) (152, -5.58221663103963035985e-03) (153, 1.40525033694976573401e-02) (154, 9.29316192438211230442e-02) (155, -1.71690933594306566201e-01) (156, -2.07608506227271089051e-01) (157, -1.27001538198025482052e-01) (158, -1.22462905309042428305e-03) (159, -2.92544282152785994899e-01) (160, 4.89140354181497039043e-02) (161, -1.01094780969322201036e-01) (162, 4.69852061443489441017e-02) (163, -1.40659108405701005484e-01) (164, 3.36974933594232847756e-02) (165, -5.18563699735235129201e-03) (166, 4.95415894803209050368e-03) (167, -7.05784493513390565056e-02) (168, 9.05403518753228504778e-03) (169, -1.15564972192097221992e-02) (170, 4.46012801968181035739e-02) (171, 1.56278532296527453149e-02) (172, -2.86313982233252217746e-02) (173, 6.29493242943416908552e-02) (174, 5.13003657628087889053e-02) (175, 4.47646768700560304666e-02) (176, -1.11298464258107507319e-01) (177, -2.23902223083784129853e-01) (178, -2.70998038365773616376e-02) (179, -2.04961954142032692916e-01) (180, 1.98350479725007827758e-01) (181, -1.41771997729223997453e-01) (182, -7.19590180792503281149e-02) (183, -8.07832753957933857869e-02) (184, 1.19342316781479995669e-01) (185, -4.39172525796645008000e-02) (186, 1.09094799778154272901e-02) (187, -1.44780367901133494302e-01) (188, 1.52191015567318982393e-01) (189, -9.57595380257480477404e-02) (190, -3.87036765536504512308e-02) (191, -6.88580892788532711313e-02) (192, -8.42361297038284884131e-02) (193, 6.58098010341783279387e-02) (194, 8.05950848499112915135e-02) (195, 2.28489382216972777839e-02) (196, -1.91988147397531172533e-01) (197, -1.78150787393945714276e-01) (198, -6.05115918568445085302e-02) (199, -1.98849760425724331192e-01) (200, -5.39621501416743740154e-02) (201, -1.17197816061890391914e-01) (202, -1.44542176973763120129e-01) (203, -1.41143935138140663721e-01) (204, 2.56591553708162591063e-02) (205, -2.43218347175222261713e-02) (206, -9.83178388119875373841e-02) (207, 9.57209775673508594940e-04) (208, 2.69940848783103877484e-02) (209, 5.59981475732464484274e-02) (210, 1.09966928443052426589e-02) (211, -5.50298488897209212012e-02) (212, -1.85709300228983242853e-01) (213, -1.29891481627694954648e-01) (214, 3.17468125400474365794e-02) (215, 4.66392438939661271857e-02) (216, -7.33799187756177945241e-02) (217, -2.32690075671808625779e-02) (218, 4.77566807266400078502e-02) (219, -9.13973857469167066947e-02) (220, 4.72928090292747127510e-02) (221, -1.48114763955957573494e-01) (222, 2.72621450334922278691e-02) (223, -7.32521157535512557057e-02) (224, 3.52371064318503235402e-02) (225, -3.80470033188418862991e-02) (226, 4.73847837373941038752e-02) (227, 7.02422586041438895554e-02) (228, -2.89658300393004532192e-02) (229, -1.37887449048452910561e-02) (230, -6.84198598201091606752e-02) (231, 8.20445855547191071899e-02) (232, -6.37547222227278637119e-02) (233, 3.74354472433942528364e-02) (234, -3.63800455084843585296e-02) (235, -2.18088451610830499905e-02) (236, -6.58296066610885577397e-02) (237, 9.41596533308329368406e-03) (238, -6.05416490660537209845e-02) (239, 3.49092497108414584472e-02) (240, -3.99028615229444355572e-03) (241, 2.48942717224961904132e-02) (242, -4.85954169905597130330e-02) (243, -1.44649109985491245572e-02) (244, 7.21984349458468059602e-03) (245, -7.65167298858827615859e-02) (246, -1.06120584011054047008e-02) (247, -9.08047080851216437125e-02) (248, -3.36310175001825958918e-02) (249, 3.62320350909298774522e-02) (250, -7.03457116423848588527e-02) (251, -3.49894518022607348140e-02) (252, 4.00639117769201053010e-02) (253, 3.44648050249993162519e-02) (254, 1.45618402204258177296e-02) (255, -2.94501537921817539700e-02) (256, 2.50676195705838572581e-02) (257, -1.09484423298812749703e-01) (258, 5.56784324997891683084e-02) (259, 1.07884412328028575501e-01) (260, -8.75208697155598625006e-02) (261, 6.20554312133682894892e-02) (262, 2.22629610377743543392e-02) (263, -7.52757137859753205911e-02) (264, 4.98501272442466135393e-03) (265, 1.41737398608424349650e-02) (266, 7.78897053290030089157e-02) (267, 3.20148023064689216111e-02) (268, -9.46319419722060628519e-02) (269, 1.53081057137257258924e-03) (270, 3.69025335114017000171e-02) (271, -2.02399372503995367278e-01) (272, 1.23596406961483232245e-01) (273, 1.07284993689918450865e-01) (274, -8.54405252106283097380e-02) (275, 5.12702143522979492118e-02) (276, 1.86236454629348013867e-01) (277, -1.46643973348046463556e-01) (278, -1.53639692696951688650e-02) (279, 1.03966139158719952929e-01) (280, -2.75943489758306188808e-02) (281, 4.28329904703383598785e-02) (282, 1.80764834594515561017e-01) (283, -1.31581356914613867293e-01) (284, 3.94266806228481814234e-02) (285, -6.54553430036834693606e-02) (286, -3.88527144723671766235e-02) (287, -1.52427789637823191127e-01) (288, -1.58773064136112862510e-01) (289, -2.52584658884396295875e-01) (290, -1.49520962469740031908e-01) (291, -2.14663850194753043354e-02) (292, -4.32344114299207452068e-02) (293, -1.19002188643740937357e-02) (294, -1.05763512920587512967e-01) (295, -9.88979417344299782666e-02) (296, 1.52686284861288761039e-02) (297, 2.20579771573919426741e-02) (298, -7.15727065540346929495e-02) (299, -1.36327935273049150044e-01) (300, -1.37558160509049814957e-01) (301, 2.13922279672613784018e-02) (302, -3.52664003444851173463e-02) (303, 1.21686947779199278186e-01) (304, -1.52313494120962216599e-02) (305, 1.10677364688954241179e-01) (306, -1.59421356963265412054e-02) (307, 1.93814007886571909589e-01) (308, -4.86366461126482019228e-02) (309, 3.64438281256379836837e-02) (310, -1.36457984010799303343e-02) (311, 1.43014560425145681455e-01) (312, -8.52478708638728516211e-02) (313, -5.57206882188345034579e-02) (314, -1.53603587809823832755e-01) (315, -1.32135951835290366141e-01) (316, 1.07596051593738833985e-01) (317, -2.16643498007055679277e-01) (318, 9.08003690023930984387e-03) (319, 3.49379908744580289226e-02) (320, -1.24879537693556363909e-01) (321, -3.17268090989826674619e-03) (322, 1.56238502656929918039e-03) (323, -4.28770472539682784285e-02) (324, -1.22528462180892708244e-01) (325, 8.12105569356929152258e-02) (326, -1.99840894941844926525e-01) (327, -7.24810941462407098967e-02) (328, -1.28725665148875217242e-02) (329, -9.46138000772874521171e-02) (330, 2.04118939299809259991e-02) (331, 9.52273821295832600953e-02) (332, 7.85919246385544945088e-02) (333, 5.27657203191335064107e-02) (334, 1.92680694446356270966e-01) (335, -1.42447725003296499224e-01) (336, 9.35166090246393466590e-02) (337, -2.98384835241228656144e-02) (338, -8.35774867733948267912e-02) (339, -8.35534177106690978398e-02) (340, 9.96063591453185681601e-02) (341, -5.04229352646115916436e-02) (342, -1.51941588862705811991e-01) (343, -1.20875280579430394168e-01) (344, 2.14671695793785186068e-02) (345, -2.08733732760509431425e-02) (346, 6.88204558081285389104e-02) (347, 7.34105345675923649795e-03) (348, -6.21770178040914472950e-02) (349, -8.26211266799163346342e-02) (350, -6.03433605529876543327e-02) (351, -2.61747666536063551546e-02) (352, -7.88815832792319759914e-02) (353, -8.69083971539442584620e-02) (354, -7.00102763772970319162e-03) (355, 6.18906919655898210553e-02) (356, -1.08035181904232474581e-01) (357, 9.50302175317103009489e-02) (358, -4.58053178470474581241e-02) (359, 4.74201179954070670131e-02) (360, -1.03420790059416178863e-01) (361, 6.94717502959890376157e-02) (362, 7.85821652122379275818e-03) (363, 8.00054849119074124042e-02) (364, 4.25751879432423319116e-02) (365, 3.76551406247570344399e-02) (366, 4.72053651000862786735e-02) (367, 1.15558402400956328204e-01) (368, -1.42268103549874791458e-01) (369, -1.50968609418240862219e-01) (370, 8.94331845609661058027e-02) (371, -1.08815554781072479362e-01) (372, 2.44645551327848029266e-02) (373, 6.19866233347179801383e-02) (374, -8.42301205228626892474e-02) (375, -1.24622341158710250864e-01) (376, -1.09213877942821266376e-01) (377, 3.63874887900793447804e-02) (378, -5.43238859036389576396e-02) (379, 9.38561933072928622490e-02) (380, 5.51120056897563340148e-02) (381, -1.22973863055883148032e-01) (382, 1.77194309270043495741e-02) (383, 3.61648717986005480141e-02) (384, -1.08734364070363631605e-01) (385, 7.08028661380977197837e-02) (386, 1.03361379444708800790e-01) (387, -7.37171262339379879114e-02) (388, 1.54553053519575593622e-02) (389, 1.60581682671379205596e-01) (390, -1.03248790952605556948e-01) (391, 4.28823976614249105510e-02) (392, 1.00855008167564097477e-01) (393, -1.13331087990808071497e-01) (394, -6.69967038389612194044e-03) (395, -1.33486957385906390011e-02) (396, 4.81382487468545935960e-02) (397, -1.19519025865848879664e-01) (398, 3.28046105031010240549e-02) (399, -1.16823807837714038760e-01) (400, 6.55832662724605604948e-03) (401, -3.00423684686637708363e-02) (402, -2.98430838169335098387e-02) (403, -4.22021349652569530142e-02) (404, -6.23214277101698382877e-02) (405, 7.07746531109876703125e-02) (406, 1.06220398548237907055e-01) (407, -2.57412868959326496254e-02) (408, -4.97740994243062243041e-02) (409, 3.00522020789978777655e-02) (410, 6.10920912572937846452e-02) (411, 4.76802285321318436440e-02) (412, 8.21913219306972114842e-02) (413, 2.94964330224518275769e-02) (414, 1.43716323818705062065e-02) (415, -1.63160768766483707526e-02) (416, -6.46544007991799035695e-02) (417, -6.69768283245931461689e-02) (418, -1.26614339825288385599e-01) (419, -1.60710955458104237659e-01) (420, -4.15190314961306275454e-02) (421, -1.61234121559599612519e-03) (422, 4.25921185582996686403e-02) (423, -1.07282782126495390695e-01) (424, -4.29407755368552482289e-02) (425, -9.71428286558201521672e-03) (426, 4.35061035741821020006e-02) (427, -2.52810340326875236661e-02) (428, -1.10983991673885118434e-01) (429, -5.74235612441081830215e-02) (430, -1.17937298061064649302e-01) (431, -1.38947480175929199975e-01) (432, -1.60569502593112145572e-01) (433, -1.01066002479407057724e-01) (434, 3.86725812615612979384e-02) (435, 3.05240793408480086402e-02) (436, 1.42789307012604171909e-01) (437, -7.17728932017189236170e-02) (438, 6.93263613818701721764e-03) (0, -9.70044758093914216701e-02) (1, 3.19289018038439315061e-02) (2, -3.23837794174396467750e-02) (3, 7.27636190912844954548e-02) (4, 1.17887989899239636199e-02) (5, -6.41366930203066121230e-02) (6, 1.35358688059152194871e-02) (7, -5.62418067032830551466e-02) (8, 3.08855008786874211946e-02) (9, -1.03881903502209479995e-01) (10, -4.15327067302794644688e-02) (11, 3.33887043525491408746e-02) (12, -1.16341446686327280868e-02) (13, 7.98839128980487339637e-02) (14, -1.32344303533204355611e-02) (15, 2.47240392512577816797e-02) (16, 4.29204915915658777315e-02) (17, 9.14810412151898649791e-02) (18, -3.84804878267906089184e-02) (19, -2.40345178277929991117e-02) (20, -5.33977188169956207275e-02) (21, 6.48347776608978187962e-02) (22, -1.23849724070618491534e-01) (23, -1.31274677199857553456e-01) (24, -1.08711412561581857728e-01) (25, -1.05659271799868628716e-01) (26, 1.60023465060074587818e-02) (27, 6.35622744157106778912e-03) (28, 5.13523658491644649504e-02) (29, 8.50761962461149545689e-03) (30, -4.92249968764207207483e-02) (31, 8.62654467772115962632e-02) (32, -9.28061674558549598579e-02) (33, 5.46171497758872470651e-03) (34, 6.49408254713317451001e-02) (35, 5.85903027142436541586e-02) (36, 4.77293546113241734519e-02) (37, -4.21821815039297581817e-02) (38, -1.33564047204760227849e-01) (39, -3.23523031450911532914e-02) (40, -1.91097518713476272056e-02) (41, -4.02395018966809278615e-02) (42, -7.05262908026987045407e-02) (43, 3.23487740559635916782e-02) (44, -3.14269573596279716554e-02) (45, 1.15073718421571102866e-02) (46, -1.93619182121610826364e-02) (47, -9.74318742066064003016e-02) (48, -3.11180837515803981191e-04) (49, 5.86527163559816058780e-02) (50, -4.07006406477088480966e-02) (51, 5.38000344846813402522e-02) (52, 5.21068798305708014151e-02) (53, -2.95327172124122440400e-02) (54, -6.88235172324453553516e-02) (55, -1.03225599562051184588e-01) (56, -2.00051115947305728493e-02) (57, 4.06388728534660334524e-02) (58, 4.06461764532041122666e-03) (59, -4.16029768418149509257e-02) (60, -1.12481398640457055244e-02) (61, -1.09559222444356632598e-01) (62, 2.54872305421973864223e-03) (63, 4.09761574929391487326e-03) (64, 5.29603217059606140582e-02) (65, -4.04905420553189274169e-02) (66, -7.31997792715304105432e-03) (67, 1.04637428206709529044e-02) (68, 4.24424982515748602796e-02) (69, -4.06337447724934141408e-03) (70, -7.39811521866229199196e-02) (71, -8.86273721306555656296e-02) (72, 7.02912831903192703020e-02) (73, -4.53669103455814903825e-02) (74, 8.49506440429041859153e-02) (75, -7.93725701464258193152e-02) (76, -1.41820067180783188077e-01) (77, -1.86391492946478658232e-02) (78, -8.29153689356554174372e-02) (79, -4.08821898778527689777e-02) (80, -4.33068108228299927798e-02) (81, 1.77748912998669148476e-03) (82, -1.08937806023544359046e-02) (83, -8.86480728876438833774e-02) (84, -7.19446123770054457580e-02) (85, 8.84268258848240097658e-03) (86, -8.96047695967459589816e-02) (87, 3.67583715010096137576e-02) (88, -2.85541739601673089100e-02) (89, 6.53521530319194909886e-02) (90, -4.48097786119317290088e-02) (91, 4.14972355862922998027e-02) (92, 5.97645250118496867975e-02) (93, 5.55315319263479309497e-02) (94, 1.88178766911459190159e-02) (95, 2.50282164039783150411e-02) (96, -1.14566576009977480477e-01) (97, -1.12014659478711378626e-01) (98, -9.18607365414148696603e-02) (99, 2.10616373164247625005e-02) (100, 2.10252764118679831562e-02) (101, -4.37888260814124977149e-02) (102, -1.07288467217784330709e-01) (103, -4.98002071893937844904e-02) (104, 5.49320033071573621264e-02) (105, -1.02288158458588379629e-01) (106, -5.34211436771846182037e-03) (107, 4.42214490291507125730e-02) (108, -4.43983751436695210646e-03) (109, 5.76639084218192876641e-02) (110, -2.68009016194678470479e-02) (111, 4.02145871940717755666e-02) (112, -4.01994426561537165909e-02) (113, 1.90570781542838581235e-02) (114, 1.15157207464069474834e-01) (115, 1.04889713061799109972e-02) (116, -1.19253704938903346000e-01) (117, -1.16305921085863822606e-01) (118, -8.76206837364821994329e-02) (119, -8.36591717484076180522e-02) (120, -1.07259428449307386844e-01) (121, 5.47398647841756610943e-03) (122, -1.80923126377547822952e-02) (123, 1.66924935657545153722e-02) (124, -3.99035259919891961006e-03) (125, 