FANN_FLO_2.1
num_layers=3
learning_rate=0.100000
connection_rate=1.000000
network_type=0
learning_momentum=0.300000
training_algorithm=0
train_error_function=0
train_stop_function=0
cascade_output_change_fraction=0.010000
quickprop_decay=-0.000100
quickprop_mu=1.750000
rprop_increase_factor=1.200000
rprop_decrease_factor=0.500000
rprop_delta_min=0.000000
rprop_delta_max=50.000000
rprop_delta_zero=0.100000
cascade_output_stagnation_epochs=12
cascade_candidate_change_fraction=0.010000
cascade_candidate_stagnation_epochs=12
cascade_max_out_epochs=150
cascade_max_cand_epochs=150
cascade_num_candidate_groups=2
bit_fail_limit=3.49999999999999977796e-01
cascade_candidate_limit=1.00000000000000000000e+03
cascade_weight_multiplier=4.00000000000000022204e-01
cascade_activation_functions_count=10
cascade_activation_functions=3 5 7 8 10 11 14 15 16 17 
cascade_activation_steepnesses_count=4
cascade_activation_steepnesses=2.50000000000000000000e-01 5.00000000000000000000e-01 7.50000000000000000000e-01 1.00000000000000000000e+00 
layer_sizes=889 91 3 
scale_included=0
neurons (num_inputs, activation_function, activation_steepness)=(0, 0, 0.00000000000000000000e+00) (0, 0, 0.00000000000000000000e+00) (0, 0, 0.00000000000000000000e+00) (0, 0, 0.00000000000000000000e+00) (0, 0, 0.00000000000000000000e+00) (0, 0, 0.00000000000000000000e+00) (0, 0, 0.00000000000000000000e+00) (0, 0, 0.00000000000000000000e+00) (0, 0, 0.00000000000000000000e+00) (0, 0, 0.00000000000000000000e+00) (0, 0, 0.00000000000000000000e+00) (0, 0, 0.00000000000000000000e+00) (0, 0, 0.00000000000000000000e+00) (0, 0, 0.00000000000000000000e+00) (0, 0, 0.00000000000000000000e+00) (0, 0, 0.00000000000000000000e+00) (0, 0, 0.00000000000000000000e+00) (0, 0, 0.00000000000000000000e+00) (0, 0, 0.00000000000000000000e+00) (0, 0, 0.00000000000000000000e+00) (0, 0, 0.00000000000000000000e+00) (0, 0, 0.00000000000000000000e+00) (0, 0, 0.00000000000000000000e+00) (0, 0, 0.00000000000000000000e+00) (0, 0, 0.00000000000000000000e+00) (0, 0, 0.00000000000000000000e+00) (0, 0, 0.00000000000000000000e+00) (0, 0, 0.00000000000000000000e+00) (0, 0, 0.00000000000000000000e+00) (0, 0, 0.00000000000000000000e+00) (0, 0, 0.00000000000000000000e+00) (0, 0, 0.00000000000000000000e+00) (0, 0, 0.00000000000000000000e+00) (0, 0, 0.00000000000000000000e+00) (0, 0, 0.00000000000000000000e+00) (0, 0, 0.00000000000000000000e+00) (0, 0, 0.00000000000000000000e+00) (0, 0, 0.00000000000000000000e+00) (0, 0, 0.00000000000000000000e+00) (0, 0, 0.00000000000000000000e+00) (0, 0, 0.00000000000000000000e+00) (0, 0, 0.00000000000000000000e+00) (0, 0, 0.00000000000000000000e+00) (0, 0, 0.00000000000000000000e+00) (0, 0, 0.00000000000000000000e+00) (0, 0, 0.00000000000000000000e+00) (0, 0, 0.00000000000000000000e+00) (0, 0, 0.00000000000000000000e+00) (0, 0, 0.00000000000000000000e+00) (0, 0, 0.00000000000000000000e+00) (0, 0, 0.00000000000000000000e+00) (0, 0, 0.00000000000000000000e+00) (0, 0, 0.00000000000000000000e+00) (0, 0, 0.00000000000000000000e+00) (0, 0, 0.00000000000000000000e+00) (0, 0, 0.00000000000000000000e+00) (0, 0, 0.00000000000000000000e+00) (0, 0, 0.00000000000000000000e+00) (0, 0, 0.00000000000000000000e+00) (0, 0, 0.00000000000000000000e+00) (0, 0, 0.00000000000000000000e+00) (0, 0, 0.00000000000000000000e+00) (0, 0, 0.00000000000000000000e+00) (0, 0, 0.00000000000000000000e+00) (0, 0, 0.00000000000000000000e+00) (0, 0, 0.00000000000000000000e+00) (0, 0, 0.00000000000000000000e+00) (0, 0, 0.00000000000000000000e+00) (0, 0, 0.00000000000000000000e+00) (0, 0, 0.00000000000000000000e+00) (0, 0, 0.00000000000000000000e+00) (0, 0, 0.00000000000000000000e+00) (0, 0, 0.00000000000000000000e+00) (0, 0, 0.00000000000000000000e+00) (0, 0, 0.00000000000000000000e+00) (0, 0, 0.00000000000000000000e+00) (0, 0, 0.00000000000000000000e+00) (0, 0, 0.00000000000000000000e+00) (0, 0, 0.00000000000000000000e+00) (0, 0, 0.00000000000000000000e+00) (0, 0, 0.00000000000000000000e+00) (0, 0, 0.00000000000000000000e+00) (0, 0, 0.00000000000000000000e+00) (0, 0, 0.00000000000000000000e+00) (0, 0, 0.00000000000000000000e+00) (0, 0, 0.00000000000000000000e+00) (0, 0, 0.00000000000000000000e+00) (0, 0, 0.00000000000000000000e+00) (0, 0, 0.00000000000000000000e+00) (0, 0, 0.00000000000000000000e+00) (0, 0, 0.00000000000000000000e+00) (0, 0, 0.00000000000000000000e+00) (0, 0, 0.00000000000000000000e+00) (0, 0, 0.00000000000000000000e+00) (0, 0, 0.00000000000000000000e+00) (0, 0, 0.00000000000000000000e+00) (0, 0, 0.00000000000000000000e+00) (0, 0, 0.00000000000000000000e+00) (0, 0, 0.00000000000000000000e+00) (0, 0, 0.00000000000000000000e+00) (0, 0, 0.00000000000000000000e+00) (0, 0, 0.00000000000000000000e+00) (0, 0, 0.00000000000000000000e+00) (0, 0, 0.00000000000000000000e+00) (0, 0, 0.00000000000000000000e+00) (0, 0, 0.00000000000000000000e+00) (0, 0, 0.00000000000000000000e+00) (0, 0, 0.00000000000000000000e+00) (0, 0, 0.00000000000000000000e+00) (0, 0, 0.00000000000000000000e+00) (0, 0, 0.00000000000000000000e+00) (0, 0, 0.00000000000000000000e+00) (0, 0, 0.00000000000000000000e+00) (0, 0, 0.00000000000000000000e+00) (0, 0, 0.00000000000000000000e+00) (0, 0, 0.00000000000000000000e+00) (0, 0, 0.00000000000000000000e+00) (0, 0, 0.00000000000000000000e+00) (0, 0, 0.00000000000000000000e+00) (0, 0, 0.00000000000000000000e+00) (0, 0, 0.00000000000000000000e+00) (0, 0, 0.00000000000000000000e+00) (0, 0, 0.00000000000000000000e+00) (0, 0, 0.00000000000000000000e+00) (0, 0, 0.00000000000000000000e+00) (0, 0, 0.00000000000000000000e+00) (0, 0, 0.00000000000000000000e+00) (0, 0, 0.00000000000000000000e+00) (0, 0, 0.00000000000000000000e+00) (0, 0, 0.00000000000000000000e+00) (0, 0, 0.00000000000000000000e+00) (0, 0, 0.00000000000000000000e+00) (0, 0, 0.00000000000000000000e+00) (0, 0, 0.00000000000000000000e+00) (0, 0, 0.00000000000000000000e+00) (0, 0, 0.00000000000000000000e+00) (0, 0, 0.00000000000000000000e+00) (0, 0, 0.00000000000000000000e+00) (0, 0, 0.00000000000000000000e+00) (0, 0, 0.00000000000000000000e+00) (0, 0, 0.00000000000000000000e+00) (0, 0, 0.00000000000000000000e+00) (0, 0, 0.00000000000000000000e+00) (0, 0, 0.00000000000000000000e+00) (0, 0, 0.00000000000000000000e+00) (0, 0, 0.00000000000000000000e+00) (0, 0, 0.00000000000000000000e+00) (0, 0, 0.00000000000000000000e+00) (0, 0, 0.00000000000000000000e+00) (0, 0, 0.00000000000000000000e+00) (0, 0, 0.00000000000000000000e+00) (0, 0, 0.00000000000000000000e+00) (0, 0, 0.00000000000000000000e+00) (0, 0, 0.00000000000000000000e+00) (0, 0, 0.00000000000000000000e+00) (0, 0, 0.00000000000000000000e+00) (0, 0, 0.00000000000000000000e+00) (0, 0, 0.00000000000000000000e+00) (0, 0, 0.00000000000000000000e+00) (0, 0, 0.00000000000000000000e+00) (0, 0, 0.00000000000000000000e+00) (0, 0, 0.00000000000000000000e+00) (0, 0, 0.00000000000000000000e+00) (0, 0, 0.00000000000000000000e+00) (0, 0, 0.00000000000000000000e+00) (0, 0, 0.00000000000000000000e+00) (0, 0, 0.00000000000000000000e+00) (0, 0, 0.00000000000000000000e+00) (0, 0, 0.00000000000000000000e+00) (0, 0, 0.00000000000000000000e+00) (0, 0, 0.00000000000000000000e+00) (0, 0, 0.00000000000000000000e+00) (0, 0, 0.00000000000000000000e+00) (0, 0, 0.00000000000000000000e+00) (0, 0, 0.00000000000000000000e+00) (0, 0, 0.00000000000000000000e+00) (0, 0, 0.00000000000000000000e+00) (0, 0, 0.00000000000000000000e+00) (0, 0, 0.00000000000000000000e+00) (0, 0, 0.00000000000000000000e+00) (0, 0, 0.00000000000000000000e+00) (0, 0, 0.00000000000000000000e+00) (0, 0, 0.00000000000000000000e+00) (0, 0, 0.00000000000000000000e+00) (0, 0, 0.00000000000000000000e+00) (0, 0, 0.00000000000000000000e+00) (0, 0, 0.00000000000000000000e+00) (0, 0, 0.00000000000000000000e+00) (0, 0, 0.00000000000000000000e+00) (0, 0, 0.00000000000000000000e+00) (0, 0, 0.00000000000000000000e+00) (0, 0, 0.00000000000000000000e+00) (0, 0, 0.00000000000000000000e+00) (0, 0, 0.00000000000000000000e+00) (0, 0, 0.00000000000000000000e+00) (0, 0, 0.00000000000000000000e+00) (0, 0, 0.00000000000000000000e+00) (0, 0, 0.00000000000000000000e+00) (0, 0, 0.00000000000000000000e+00) (0, 0, 0.00000000000000000000e+00) (0, 0, 0.00000000000000000000e+00) (0, 0, 0.00000000000000000000e+00) (0, 0, 0.00000000000000000000e+00) (0, 0, 0.00000000000000000000e+00) (0, 0, 0.00000000000000000000e+00) (0, 0, 0.00000000000000000000e+00) (0, 0, 0.00000000000000000000e+00) (0, 0, 0.00000000000000000000e+00) (0, 0, 0.00000000000000000000e+00) (0, 0, 0.00000000000000000000e+00) (0, 0, 0.00000000000000000000e+00) (0, 0, 0.00000000000000000000e+00) (0, 0, 0.00000000000000000000e+00) (0, 0, 0.00000000000000000000e+00) (0, 0, 0.00000000000000000000e+00) (0, 0, 0.00000000000000000000e+00) (0, 0, 0.00000000000000000000e+00) (0, 0, 0.00000000000000000000e+00) (0, 0, 0.00000000000000000000e+00) (0, 0, 0.00000000000000000000e+00) (0, 0, 0.00000000000000000000e+00) (0, 0, 0.00000000000000000000e+00) (0, 0, 0.00000000000000000000e+00) (0, 0, 0.00000000000000000000e+00) (0, 0, 0.00000000000000000000e+00) (0, 0, 0.00000000000000000000e+00) (0, 0, 0.00000000000000000000e+00) (0, 0, 0.00000000000000000000e+00) (0, 0, 0.00000000000000000000e+00) (0, 0, 0.00000000000000000000e+00) (0, 0, 0.00000000000000000000e+00) (0, 0, 0.00000000000000000000e+00) (0, 0, 0.00000000000000000000e+00) (0, 0, 0.00000000000000000000e+00) (0, 0, 0.00000000000000000000e+00) (0, 0, 0.00000000000000000000e+00) (0, 0, 0.00000000000000000000e+00) (0, 0, 0.00000000000000000000e+00) (0, 0, 0.00000000000000000000e+00) (0, 0, 0.00000000000000000000e+00) (0, 0, 0.00000000000000000000e+00) (0, 0, 0.00000000000000000000e+00) (0, 0, 0.00000000000000000000e+00) (0, 0, 0.00000000000000000000e+00) (0, 0, 0.00000000000000000000e+00) (0, 0, 0.00000000000000000000e+00) (0, 0, 0.00000000000000000000e+00) (0, 0, 0.00000000000000000000e+00) (0, 0, 0.00000000000000000000e+00) (0, 0, 0.00000000000000000000e+00) (0, 0, 0.00000000000000000000e+00) (0, 0, 0.00000000000000000000e+00) (0, 0, 0.00000000000000000000e+00) (0, 0, 0.00000000000000000000e+00) (0, 0, 0.00000000000000000000e+00) (0, 0, 0.00000000000000000000e+00) (0, 0, 0.00000000000000000000e+00) (0, 0, 0.00000000000000000000e+00) (0, 0, 0.00000000000000000000e+00) (0, 0, 0.00000000000000000000e+00) (0, 0, 0.00000000000000000000e+00) (0, 0, 0.00000000000000000000e+00) (0, 0, 0.00000000000000000000e+00) (0, 0, 0.00000000000000000000e+00) (0, 0, 0.00000000000000000000e+00) (0, 0, 0.00000000000000000000e+00) (0, 0, 0.00000000000000000000e+00) (0, 0, 0.00000000000000000000e+00) (0, 0, 0.00000000000000000000e+00) (0, 0, 0.00000000000000000000e+00) (0, 0, 0.00000000000000000000e+00) (0, 0, 0.00000000000000000000e+00) (0, 0, 0.00000000000000000000e+00) (0, 0, 0.00000000000000000000e+00) (0, 0, 0.00000000000000000000e+00) (0, 0, 0.00000000000000000000e+00) (0, 0, 0.00000000000000000000e+00) (0, 0, 0.00000000000000000000e+00) (0, 0, 0.00000000000000000000e+00) (0, 0, 0.00000000000000000000e+00) (0, 0, 0.00000000000000000000e+00) (0, 0, 0.00000000000000000000e+00) (0, 0, 0.00000000000000000000e+00) (0, 0, 0.00000000000000000000e+00) (0, 0, 0.00000000000000000000e+00) (0, 0, 0.00000000000000000000e+00) (0, 0, 0.00000000000000000000e+00) (0, 0, 0.00000000000000000000e+00) (0, 0, 0.00000000000000000000e+00) (0, 0, 0.00000000000000000000e+00) (0, 0, 0.00000000000000000000e+00) (0, 0, 0.00000000000000000000e+00) (0, 0, 0.00000000000000000000e+00) (0, 0, 0.00000000000000000000e+00) (0, 0, 0.00000000000000000000e+00) (0, 0, 0.00000000000000000000e+00) (0, 0, 0.00000000000000000000e+00) (0, 0, 0.00000000000000000000e+00) (0, 0, 0.00000000000000000000e+00) (0, 0, 0.00000000000000000000e+00) (0, 0, 0.00000000000000000000e+00) (0, 0, 0.00000000000000000000e+00) (0, 0, 0.00000000000000000000e+00) (0, 0, 0.00000000000000000000e+00) (0, 0, 0.00000000000000000000e+00) (0, 0, 0.00000000000000000000e+00) (0, 0, 0.00000000000000000000e+00) (0, 0, 0.00000000000000000000e+00) (0, 0, 0.00000000000000000000e+00) (0, 0, 0.00000000000000000000e+00) (0, 0, 0.00000000000000000000e+00) (0, 0, 0.00000000000000000000e+00) (0, 0, 0.00000000000000000000e+00) (0, 0, 0.00000000000000000000e+00) (0, 0, 0.00000000000000000000e+00) (0, 0, 0.00000000000000000000e+00) (0, 0, 0.00000000000000000000e+00) (0, 0, 0.00000000000000000000e+00) (0, 0, 0.00000000000000000000e+00) (0, 0, 0.00000000000000000000e+00) (0, 0, 0.00000000000000000000e+00) (0, 0, 0.00000000000000000000e+00) (0, 0, 0.00000000000000000000e+00) (0, 0, 0.00000000000000000000e+00) (0, 0, 0.00000000000000000000e+00) (0, 0, 0.00000000000000000000e+00) (0, 0, 0.00000000000000000000e+00) (0, 0, 0.00000000000000000000e+00) (0, 0, 0.00000000000000000000e+00) (0, 0, 0.00000000000000000000e+00) (0, 0, 0.00000000000000000000e+00) (0, 0, 0.00000000000000000000e+00) (0, 0, 0.00000000000000000000e+00) (0, 0, 0.00000000000000000000e+00) (0, 0, 0.00000000000000000000e+00) (0, 0, 0.00000000000000000000e+00) (0, 0, 0.00000000000000000000e+00) (0, 0, 0.00000000000000000000e+00) (0, 0, 0.00000000000000000000e+00) (0, 0, 0.00000000000000000000e+00) (0, 0, 0.00000000000000000000e+00) (0, 0, 0.00000000000000000000e+00) (0, 0, 0.00000000000000000000e+00) (0, 0, 0.00000000000000000000e+00) (0, 0, 0.00000000000000000000e+00) (0, 0, 0.00000000000000000000e+00) (0, 0, 0.00000000000000000000e+00) (0, 0, 0.00000000000000000000e+00) (0, 0, 0.00000000000000000000e+00) (0, 0, 0.00000000000000000000e+00) (0, 0, 0.00000000000000000000e+00) (0, 0, 0.00000000000000000000e+00) (0, 0, 0.00000000000000000000e+00) (0, 0, 0.00000000000000000000e+00) (0, 0, 0.00000000000000000000e+00) (0, 0, 0.00000000000000000000e+00) (0, 0, 0.00000000000000000000e+00) (0, 0, 0.00000000000000000000e+00) (0, 0, 0.00000000000000000000e+00) (0, 0, 0.00000000000000000000e+00) (0, 0, 0.00000000000000000000e+00) (0, 0, 0.00000000000000000000e+00) (0, 0, 0.00000000000000000000e+00) (0, 0, 0.00000000000000000000e+00) (0, 0, 0.00000000000000000000e+00) (0, 0, 0.00000000000000000000e+00) (0, 0, 0.00000000000000000000e+00) (0, 0, 0.00000000000000000000e+00) (0, 0, 0.00000000000000000000e+00) (0, 0, 0.00000000000000000000e+00) (0, 0, 0.00000000000000000000e+00) (0, 0, 0.00000000000000000000e+00) (0, 0, 0.00000000000000000000e+00) (0, 0, 0.00000000000000000000e+00) (0, 0, 0.00000000000000000000e+00) (0, 0, 0.00000000000000000000e+00) (0, 0, 0.00000000000000000000e+00) (0, 0, 0.00000000000000000000e+00) (0, 0, 0.00000000000000000000e+00) (0, 0, 0.00000000000000000000e+00) (0, 0, 0.00000000000000000000e+00) (0, 0, 0.00000000000000000000e+00) (0, 0, 0.00000000000000000000e+00) (0, 0, 0.00000000000000000000e+00) (0, 0, 0.00000000000000000000e+00) (0, 0, 0.00000000000000000000e+00) (0, 0, 0.00000000000000000000e+00) (0, 0, 0.00000000000000000000e+00) (0, 0, 0.00000000000000000000e+00) (0, 0, 0.00000000000000000000e+00) (0, 0, 0.00000000000000000000e+00) (0, 0, 0.00000000000000000000e+00) (0, 0, 0.00000000000000000000e+00) (0, 0, 0.00000000000000000000e+00) (0, 0, 0.00000000000000000000e+00) (0, 0, 0.00000000000000000000e+00) (0, 0, 0.00000000000000000000e+00) (0, 0, 0.00000000000000000000e+00) (0, 0, 0.00000000000000000000e+00) (0, 0, 0.00000000000000000000e+00) (0, 0, 0.00000000000000000000e+00) (0, 0, 0.00000000000000000000e+00) (0, 0, 0.00000000000000000000e+00) (0, 0, 0.00000000000000000000e+00) (0, 0, 0.00000000000000000000e+00) (0, 0, 0.00000000000000000000e+00) (0, 0, 0.00000000000000000000e+00) (0, 0, 0.00000000000000000000e+00) (0, 0, 0.00000000000000000000e+00) (0, 0, 0.00000000000000000000e+00) (0, 0, 0.00000000000000000000e+00) (0, 0, 0.00000000000000000000e+00) (0, 0, 0.00000000000000000000e+00) (0, 0, 0.00000000000000000000e+00) (0, 0, 0.00000000000000000000e+00) (0, 0, 0.00000000000000000000e+00) (0, 0, 0.00000000000000000000e+00) (0, 0, 0.00000000000000000000e+00) (0, 0, 0.00000000000000000000e+00) (0, 0, 0.00000000000000000000e+00) (0, 0, 0.00000000000000000000e+00) (0, 0, 0.00000000000000000000e+00) (0, 0, 0.00000000000000000000e+00) (0, 0, 0.00000000000000000000e+00) (0, 0, 0.00000000000000000000e+00) (0, 0, 0.00000000000000000000e+00) (0, 0, 0.00000000000000000000e+00) (0, 0, 0.00000000000000000000e+00) (0, 0, 0.00000000000000000000e+00) (0, 0, 0.00000000000000000000e+00) (0, 0, 0.00000000000000000000e+00) (0, 0, 0.00000000000000000000e+00) (0, 0, 0.00000000000000000000e+00) (0, 0, 0.00000000000000000000e+00) (0, 0, 0.00000000000000000000e+00) (0, 0, 0.00000000000000000000e+00) (0, 0, 0.00000000000000000000e+00) (0, 0, 0.00000000000000000000e+00) (0, 0, 0.00000000000000000000e+00) (0, 0, 0.00000000000000000000e+00) (0, 0, 0.00000000000000000000e+00) (0, 0, 0.00000000000000000000e+00) (0, 0, 0.00000000000000000000e+00) (0, 0, 0.00000000000000000000e+00) (0, 0, 0.00000000000000000000e+00) (0, 0, 0.00000000000000000000e+00) (0, 0, 0.00000000000000000000e+00) (0, 0, 0.00000000000000000000e+00) (0, 0, 0.00000000000000000000e+00) (0, 0, 0.00000000000000000000e+00) (0, 0, 0.00000000000000000000e+00) (0, 0, 0.00000000000000000000e+00) (0, 0, 0.00000000000000000000e+00) (0, 0, 0.00000000000000000000e+00) (0, 0, 0.00000000000000000000e+00) (0, 0, 0.00000000000000000000e+00) (0, 0, 0.00000000000000000000e+00) (0, 0, 0.00000000000000000000e+00) (0, 0, 0.00000000000000000000e+00) (0, 0, 0.00000000000000000000e+00) (0, 0, 0.00000000000000000000e+00) (0, 0, 0.00000000000000000000e+00) (0, 0, 0.00000000000000000000e+00) (0, 0, 0.00000000000000000000e+00) (0, 0, 0.00000000000000000000e+00) (0, 0, 0.00000000000000000000e+00) (0, 0, 0.00000000000000000000e+00) (0, 0, 0.00000000000000000000e+00) (0, 0, 0.00000000000000000000e+00) (0, 0, 0.00000000000000000000e+00) (0, 0, 0.00000000000000000000e+00) (0, 0, 0.00000000000000000000e+00) (0, 0, 0.00000000000000000000e+00) (0, 0, 0.00000000000000000000e+00) (0, 0, 0.00000000000000000000e+00) (0, 0, 0.00000000000000000000e+00) (0, 0, 0.00000000000000000000e+00) (0, 0, 0.00000000000000000000e+00) (0, 0, 0.00000000000000000000e+00) (0, 0, 0.00000000000000000000e+00) (0, 0, 0.00000000000000000000e+00) (0, 0, 0.00000000000000000000e+00) (0, 0, 0.00000000000000000000e+00) (0, 0, 0.00000000000000000000e+00) (0, 0, 0.00000000000000000000e+00) (0, 0, 0.00000000000000000000e+00) (0, 0, 0.00000000000000000000e+00) (0, 0, 0.00000000000000000000e+00) (0, 0, 0.00000000000000000000e+00) (0, 0, 0.00000000000000000000e+00) (0, 0, 0.00000000000000000000e+00) (0, 0, 0.00000000000000000000e+00) (0, 0, 0.00000000000000000000e+00) (0, 0, 0.00000000000000000000e+00) (0, 0, 0.00000000000000000000e+00) (0, 0, 0.00000000000000000000e+00) (0, 0, 0.00000000000000000000e+00) (0, 0, 0.00000000000000000000e+00) (0, 0, 0.00000000000000000000e+00) (0, 0, 0.00000000000000000000e+00) (0, 0, 0.00000000000000000000e+00) (0, 0, 0.00000000000000000000e+00) (0, 0, 0.00000000000000000000e+00) (0, 0, 0.00000000000000000000e+00) (0, 0, 0.00000000000000000000e+00) (0, 0, 0.00000000000000000000e+00) (0, 0, 0.00000000000000000000e+00) (0, 0, 0.00000000000000000000e+00) (0, 0, 0.00000000000000000000e+00) (0, 0, 0.00000000000000000000e+00) (0, 0, 0.00000000000000000000e+00) (0, 0, 0.00000000000000000000e+00) (0, 0, 0.00000000000000000000e+00) (0, 0, 0.00000000000000000000e+00) (0, 0, 0.00000000000000000000e+00) (0, 0, 0.00000000000000000000e+00) (0, 0, 0.00000000000000000000e+00) (0, 0, 0.00000000000000000000e+00) (0, 0, 0.00000000000000000000e+00) (0, 0, 0.00000000000000000000e+00) (0, 0, 0.00000000000000000000e+00) (0, 0, 0.00000000000000000000e+00) (0, 0, 0.00000000000000000000e+00) (0, 0, 0.00000000000000000000e+00) (0, 0, 0.00000000000000000000e+00) (0, 0, 0.00000000000000000000e+00) (0, 0, 0.00000000000000000000e+00) (0, 0, 0.00000000000000000000e+00) (0, 0, 0.00000000000000000000e+00) (0, 0, 0.00000000000000000000e+00) (0, 0, 0.00000000000000000000e+00) (0, 0, 0.00000000000000000000e+00) (0, 0, 0.00000000000000000000e+00) (0, 0, 0.00000000000000000000e+00) (0, 0, 0.00000000000000000000e+00) (0, 0, 0.00000000000000000000e+00) (0, 0, 0.00000000000000000000e+00) (0, 0, 0.00000000000000000000e+00) (0, 0, 0.00000000000000000000e+00) (0, 0, 0.00000000000000000000e+00) (0, 0, 0.00000000000000000000e+00) (0, 0, 0.00000000000000000000e+00) (0, 0, 0.00000000000000000000e+00) (0, 0, 0.00000000000000000000e+00) (0, 0, 0.00000000000000000000e+00) (0, 0, 0.00000000000000000000e+00) (0, 0, 0.00000000000000000000e+00) (0, 0, 0.00000000000000000000e+00) (0, 0, 0.00000000000000000000e+00) (0, 0, 0.00000000000000000000e+00) (0, 0, 0.00000000000000000000e+00) (0, 0, 0.00000000000000000000e+00) (0, 0, 0.00000000000000000000e+00) (0, 0, 0.00000000000000000000e+00) (0, 0, 0.00000000000000000000e+00) (0, 0, 0.00000000000000000000e+00) (0, 0, 0.00000000000000000000e+00) (0, 0, 0.00000000000000000000e+00) (0, 0, 0.00000000000000000000e+00) (0, 0, 0.00000000000000000000e+00) (0, 0, 0.00000000000000000000e+00) (0, 0, 0.00000000000000000000e+00) (0, 0, 0.00000000000000000000e+00) (0, 0, 0.00000000000000000000e+00) (0, 0, 0.00000000000000000000e+00) (0, 0, 0.00000000000000000000e+00) (0, 0, 0.00000000000000000000e+00) (0, 0, 0.00000000000000000000e+00) (0, 0, 0.00000000000000000000e+00) (0, 0, 0.00000000000000000000e+00) (0, 0, 0.00000000000000000000e+00) (0, 0, 0.00000000000000000000e+00) (0, 0, 0.00000000000000000000e+00) (0, 0, 0.00000000000000000000e+00) (0, 0, 0.00000000000000000000e+00) (0, 0, 0.00000000000000000000e+00) (0, 0, 0.00000000000000000000e+00) (0, 0, 0.00000000000000000000e+00) (0, 0, 0.00000000000000000000e+00) (0, 0, 0.00000000000000000000e+00) (0, 0, 0.00000000000000000000e+00) (0, 0, 0.00000000000000000000e+00) (0, 0, 0.00000000000000000000e+00) (0, 0, 0.00000000000000000000e+00) (0, 0, 0.00000000000000000000e+00) (0, 0, 0.00000000000000000000e+00) (0, 0, 0.00000000000000000000e+00) (0, 0, 0.00000000000000000000e+00) (0, 0, 0.00000000000000000000e+00) (0, 0, 0.00000000000000000000e+00) (0, 0, 0.00000000000000000000e+00) (0, 0, 0.00000000000000000000e+00) (0, 0, 0.00000000000000000000e+00) (0, 0, 0.00000000000000000000e+00) (0, 0, 0.00000000000000000000e+00) (0, 0, 0.00000000000000000000e+00) (0, 0, 0.00000000000000000000e+00) (0, 0, 0.00000000000000000000e+00) (0, 0, 0.00000000000000000000e+00) (0, 0, 0.00000000000000000000e+00) (0, 0, 0.00000000000000000000e+00) (0, 0, 0.00000000000000000000e+00) (0, 0, 0.00000000000000000000e+00) (0, 0, 0.00000000000000000000e+00) (0, 0, 0.00000000000000000000e+00) (0, 0, 0.00000000000000000000e+00) (0, 0, 0.00000000000000000000e+00) (0, 0, 0.00000000000000000000e+00) (0, 0, 0.00000000000000000000e+00) (0, 0, 0.00000000000000000000e+00) (0, 0, 0.00000000000000000000e+00) (0, 0, 0.00000000000000000000e+00) (0, 0, 0.00000000000000000000e+00) (0, 0, 0.00000000000000000000e+00) (0, 0, 0.00000000000000000000e+00) (0, 0, 0.00000000000000000000e+00) (0, 0, 0.00000000000000000000e+00) (0, 0, 0.00000000000000000000e+00) (0, 0, 0.00000000000000000000e+00) (0, 0, 0.00000000000000000000e+00) (0, 0, 0.00000000000000000000e+00) (0, 0, 0.00000000000000000000e+00) (0, 0, 0.00000000000000000000e+00) (0, 0, 0.00000000000000000000e+00) (0, 0, 0.00000000000000000000e+00) (0, 0, 0.00000000000000000000e+00) (0, 0, 0.00000000000000000000e+00) (0, 0, 0.00000000000000000000e+00) (0, 0, 0.00000000000000000000e+00) (0, 0, 0.00000000000000000000e+00) (0, 0, 0.00000000000000000000e+00) (0, 0, 0.00000000000000000000e+00) (0, 0, 0.00000000000000000000e+00) (0, 0, 0.00000000000000000000e+00) (0, 0, 0.00000000000000000000e+00) (0, 0, 0.00000000000000000000e+00) (0, 0, 0.00000000000000000000e+00) (0, 0, 0.00000000000000000000e+00) (0, 0, 0.00000000000000000000e+00) (0, 0, 0.00000000000000000000e+00) (0, 0, 0.00000000000000000000e+00) (0, 0, 0.00000000000000000000e+00) (0, 0, 0.00000000000000000000e+00) (0, 0, 0.00000000000000000000e+00) (0, 0, 0.00000000000000000000e+00) (0, 0, 0.00000000000000000000e+00) (0, 0, 0.00000000000000000000e+00) (0, 0, 0.00000000000000000000e+00) (0, 0, 0.00000000000000000000e+00) (0, 0, 0.00000000000000000000e+00) (0, 0, 0.00000000000000000000e+00) (0, 0, 0.00000000000000000000e+00) (0, 0, 0.00000000000000000000e+00) (0, 0, 0.00000000000000000000e+00) (0, 0, 0.00000000000000000000e+00) (0, 0, 0.00000000000000000000e+00) (0, 0, 0.00000000000000000000e+00) (0, 0, 0.00000000000000000000e+00) (0, 0, 0.00000000000000000000e+00) (0, 0, 0.00000000000000000000e+00) (0, 0, 0.00000000000000000000e+00) (0, 0, 0.00000000000000000000e+00) (0, 0, 0.00000000000000000000e+00) (0, 0, 0.00000000000000000000e+00) (0, 0, 0.00000000000000000000e+00) (0, 0, 0.00000000000000000000e+00) (0, 0, 0.00000000000000000000e+00) (0, 0, 0.00000000000000000000e+00) (0, 0, 0.00000000000000000000e+00) (0, 0, 0.00000000000000000000e+00) (0, 0, 0.00000000000000000000e+00) (0, 0, 0.00000000000000000000e+00) (0, 0, 0.00000000000000000000e+00) (0, 0, 0.00000000000000000000e+00) (0, 0, 0.00000000000000000000e+00) (0, 0, 0.00000000000000000000e+00) (0, 0, 0.00000000000000000000e+00) (0, 0, 0.00000000000000000000e+00) (0, 0, 0.00000000000000000000e+00) (0, 0, 0.00000000000000000000e+00) (0, 0, 0.00000000000000000000e+00) (0, 0, 0.00000000000000000000e+00) (0, 0, 0.00000000000000000000e+00) (0, 0, 0.00000000000000000000e+00) (0, 0, 0.00000000000000000000e+00) (0, 0, 0.00000000000000000000e+00) (0, 0, 0.00000000000000000000e+00) (0, 0, 0.00000000000000000000e+00) (0, 0, 0.00000000000000000000e+00) (0, 0, 0.00000000000000000000e+00) (0, 0, 0.00000000000000000000e+00) (0, 0, 0.00000000000000000000e+00) (0, 0, 0.00000000000000000000e+00) (0, 0, 0.00000000000000000000e+00) (0, 0, 0.00000000000000000000e+00) (0, 0, 0.00000000000000000000e+00) (0, 0, 0.00000000000000000000e+00) (0, 0, 0.00000000000000000000e+00) (0, 0, 0.00000000000000000000e+00) (0, 0, 0.00000000000000000000e+00) (0, 0, 0.00000000000000000000e+00) (0, 0, 0.00000000000000000000e+00) (0, 0, 0.00000000000000000000e+00) (0, 0, 0.00000000000000000000e+00) (0, 0, 0.00000000000000000000e+00) (0, 0, 0.00000000000000000000e+00) (0, 0, 0.00000000000000000000e+00) (0, 0, 0.00000000000000000000e+00) (0, 0, 0.00000000000000000000e+00) (0, 0, 0.00000000000000000000e+00) (0, 0, 0.00000000000000000000e+00) (0, 0, 0.00000000000000000000e+00) (0, 0, 0.00000000000000000000e+00) (0, 0, 0.00000000000000000000e+00) (0, 0, 0.00000000000000000000e+00) (0, 0, 0.00000000000000000000e+00) (0, 0, 0.00000000000000000000e+00) (0, 0, 0.00000000000000000000e+00) (0, 0, 0.00000000000000000000e+00) (0, 0, 0.00000000000000000000e+00) (0, 0, 0.00000000000000000000e+00) (0, 0, 0.00000000000000000000e+00) (0, 0, 0.00000000000000000000e+00) (0, 0, 0.00000000000000000000e+00) (0, 0, 0.00000000000000000000e+00) (0, 0, 0.00000000000000000000e+00) (0, 0, 0.00000000000000000000e+00) (0, 0, 0.00000000000000000000e+00) (0, 0, 0.00000000000000000000e+00) (0, 0, 0.00000000000000000000e+00) (0, 0, 0.00000000000000000000e+00) (0, 0, 0.00000000000000000000e+00) (0, 0, 0.00000000000000000000e+00) (0, 0, 0.00000000000000000000e+00) (0, 0, 0.00000000000000000000e+00) (0, 0, 0.00000000000000000000e+00) (0, 0, 0.00000000000000000000e+00) (0, 0, 0.00000000000000000000e+00) (0, 0, 0.00000000000000000000e+00) (0, 0, 0.00000000000000000000e+00) (0, 0, 0.00000000000000000000e+00) (0, 0, 0.00000000000000000000e+00) (0, 0, 0.00000000000000000000e+00) (0, 0, 0.00000000000000000000e+00) (0, 0, 0.00000000000000000000e+00) (0, 0, 0.00000000000000000000e+00) (0, 0, 0.00000000000000000000e+00) (0, 0, 0.00000000000000000000e+00) (0, 0, 0.00000000000000000000e+00) (0, 0, 0.00000000000000000000e+00) (0, 0, 0.00000000000000000000e+00) (0, 0, 0.00000000000000000000e+00) (0, 0, 0.00000000000000000000e+00) (0, 0, 0.00000000000000000000e+00) (0, 0, 0.00000000000000000000e+00) (0, 0, 0.00000000000000000000e+00) (0, 0, 0.00000000000000000000e+00) (0, 0, 0.00000000000000000000e+00) (0, 0, 0.00000000000000000000e+00) (0, 0, 0.00000000000000000000e+00) (0, 0, 0.00000000000000000000e+00) (0, 0, 0.00000000000000000000e+00) (0, 0, 0.00000000000000000000e+00) (0, 0, 0.00000000000000000000e+00) (0, 0, 0.00000000000000000000e+00) (0, 0, 0.00000000000000000000e+00) (0, 0, 0.00000000000000000000e+00) (0, 0, 0.00000000000000000000e+00) (0, 0, 0.00000000000000000000e+00) (0, 0, 0.00000000000000000000e+00) (0, 0, 0.00000000000000000000e+00) (0, 0, 0.00000000000000000000e+00) (0, 0, 0.00000000000000000000e+00) (0, 0, 0.00000000000000000000e+00) (0, 0, 0.00000000000000000000e+00) (0, 0, 0.00000000000000000000e+00) (0, 0, 0.00000000000000000000e+00) (0, 0, 0.00000000000000000000e+00) (0, 0, 0.00000000000000000000e+00) (0, 0, 0.00000000000000000000e+00) (0, 0, 0.00000000000000000000e+00) (0, 0, 0.00000000000000000000e+00) (0, 0, 0.00000000000000000000e+00) (0, 0, 0.00000000000000000000e+00) (0, 0, 0.00000000000000000000e+00) (0, 0, 0.00000000000000000000e+00) (0, 0, 0.00000000000000000000e+00) (0, 0, 0.00000000000000000000e+00) (0, 0, 0.00000000000000000000e+00) (0, 0, 0.00000000000000000000e+00) (0, 0, 0.00000000000000000000e+00) (0, 0, 0.00000000000000000000e+00) (0, 0, 0.00000000000000000000e+00) (0, 0, 0.00000000000000000000e+00) (0, 0, 0.00000000000000000000e+00) (0, 0, 0.00000000000000000000e+00) (0, 0, 0.00000000000000000000e+00) (0, 0, 0.00000000000000000000e+00) (0, 0, 0.00000000000000000000e+00) (0, 0, 0.00000000000000000000e+00) (0, 0, 0.00000000000000000000e+00) (0, 0, 0.00000000000000000000e+00) (0, 0, 0.00000000000000000000e+00) (0, 0, 0.00000000000000000000e+00) (0, 0, 0.00000000000000000000e+00) (0, 0, 0.00000000000000000000e+00) (0, 0, 0.00000000000000000000e+00) (0, 0, 0.00000000000000000000e+00) (0, 0, 0.00000000000000000000e+00) (0, 0, 0.00000000000000000000e+00) (0, 0, 0.00000000000000000000e+00) (0, 0, 0.00000000000000000000e+00) (0, 0, 0.00000000000000000000e+00) (0, 0, 0.00000000000000000000e+00) (0, 0, 0.00000000000000000000e+00) (0, 0, 0.00000000000000000000e+00) (0, 0, 0.00000000000000000000e+00) (0, 0, 0.00000000000000000000e+00) (0, 0, 0.00000000000000000000e+00) (0, 0, 0.00000000000000000000e+00) (0, 0, 0.00000000000000000000e+00) (0, 0, 0.00000000000000000000e+00) (0, 0, 0.00000000000000000000e+00) (0, 0, 0.00000000000000000000e+00) (0, 0, 0.00000000000000000000e+00) (0, 0, 0.00000000000000000000e+00) (0, 0, 0.00000000000000000000e+00) (0, 0, 0.00000000000000000000e+00) (0, 0, 0.00000000000000000000e+00) (0, 0, 0.00000000000000000000e+00) (0, 0, 0.00000000000000000000e+00) (0, 0, 0.00000000000000000000e+00) (0, 0, 0.00000000000000000000e+00) (0, 0, 0.00000000000000000000e+00) (0, 0, 0.00000000000000000000e+00) (0, 0, 0.00000000000000000000e+00) (0, 0, 0.00000000000000000000e+00) (0, 0, 0.00000000000000000000e+00) (0, 0, 0.00000000000000000000e+00) (0, 0, 0.00000000000000000000e+00) (0, 0, 0.00000000000000000000e+00) (0, 0, 0.00000000000000000000e+00) (0, 0, 0.00000000000000000000e+00) (0, 0, 0.00000000000000000000e+00) (0, 0, 0.00000000000000000000e+00) (0, 0, 0.00000000000000000000e+00) (0, 0, 0.00000000000000000000e+00) (0, 0, 0.00000000000000000000e+00) (0, 0, 0.00000000000000000000e+00) (0, 0, 0.00000000000000000000e+00) (0, 0, 0.00000000000000000000e+00) (0, 0, 0.00000000000000000000e+00) (0, 0, 0.00000000000000000000e+00) (0, 0, 0.00000000000000000000e+00) (0, 0, 0.00000000000000000000e+00) (0, 0, 0.00000000000000000000e+00) (0, 0, 0.00000000000000000000e+00) (0, 0, 0.00000000000000000000e+00) (0, 0, 0.00000000000000000000e+00) (0, 0, 0.00000000000000000000e+00) (0, 0, 0.00000000000000000000e+00) (0, 0, 0.00000000000000000000e+00) (0, 0, 0.00000000000000000000e+00) (0, 0, 0.00000000000000000000e+00) (0, 0, 0.00000000000000000000e+00) (0, 0, 0.00000000000000000000e+00) (0, 0, 0.00000000000000000000e+00) (0, 0, 0.00000000000000000000e+00) (0, 0, 0.00000000000000000000e+00) (0, 0, 0.00000000000000000000e+00) (0, 0, 0.00000000000000000000e+00) (0, 0, 0.00000000000000000000e+00) (0, 0, 0.00000000000000000000e+00) (0, 0, 0.00000000000000000000e+00) (0, 0, 0.00000000000000000000e+00) (0, 0, 0.00000000000000000000e+00) (0, 0, 0.00000000000000000000e+00) (0, 0, 0.00000000000000000000e+00) (0, 0, 0.00000000000000000000e+00) (0, 0, 0.00000000000000000000e+00) (0, 0, 0.00000000000000000000e+00) (0, 0, 0.00000000000000000000e+00) (0, 0, 0.00000000000000000000e+00) (0, 0, 0.00000000000000000000e+00) (0, 0, 0.00000000000000000000e+00) (0, 0, 0.00000000000000000000e+00) (0, 0, 0.00000000000000000000e+00) (0, 0, 0.00000000000000000000e+00) (0, 0, 0.00000000000000000000e+00) (889, 3, 5.00000000000000000000e-01) (889, 3, 5.00000000000000000000e-01) (889, 3, 5.00000000000000000000e-01) (889, 3, 5.00000000000000000000e-01) (889, 3, 5.00000000000000000000e-01) (889, 3, 5.00000000000000000000e-01) (889, 3, 5.00000000000000000000e-01) (889, 3, 5.00000000000000000000e-01) (889, 3, 5.00000000000000000000e-01) (889, 3, 5.00000000000000000000e-01) (889, 3, 5.00000000000000000000e-01) (889, 3, 5.00000000000000000000e-01) (889, 3, 5.00000000000000000000e-01) (889, 3, 5.00000000000000000000e-01) (889, 3, 5.00000000000000000000e-01) (889, 3, 5.00000000000000000000e-01) (889, 3, 5.00000000000000000000e-01) (889, 3, 5.00000000000000000000e-01) (889, 3, 5.00000000000000000000e-01) (889, 3, 5.00000000000000000000e-01) (889, 3, 5.00000000000000000000e-01) (889, 3, 5.00000000000000000000e-01) (889, 3, 5.00000000000000000000e-01) (889, 3, 5.00000000000000000000e-01) (889, 3, 5.00000000000000000000e-01) (889, 3, 5.00000000000000000000e-01) (889, 3, 5.00000000000000000000e-01) (889, 3, 5.00000000000000000000e-01) (889, 3, 5.00000000000000000000e-01) (889, 3, 5.00000000000000000000e-01) (889, 3, 5.00000000000000000000e-01) (889, 3, 5.00000000000000000000e-01) (889, 3, 5.00000000000000000000e-01) (889, 3, 5.00000000000000000000e-01) (889, 3, 5.00000000000000000000e-01) (889, 3, 5.00000000000000000000e-01) (889, 3, 5.00000000000000000000e-01) (889, 3, 5.00000000000000000000e-01) (889, 3, 5.00000000000000000000e-01) (889, 3, 5.00000000000000000000e-01) (889, 3, 5.00000000000000000000e-01) (889, 3, 5.00000000000000000000e-01) (889, 3, 5.00000000000000000000e-01) (889, 3, 5.00000000000000000000e-01) (889, 3, 5.00000000000000000000e-01) (889, 3, 5.00000000000000000000e-01) (889, 3, 5.00000000000000000000e-01) (889, 3, 5.00000000000000000000e-01) (889, 3, 5.00000000000000000000e-01) (889, 3, 5.00000000000000000000e-01) (889, 3, 5.00000000000000000000e-01) (889, 3, 5.00000000000000000000e-01) (889, 3, 5.00000000000000000000e-01) (889, 3, 5.00000000000000000000e-01) (889, 3, 5.00000000000000000000e-01) (889, 3, 5.00000000000000000000e-01) (889, 3, 5.00000000000000000000e-01) (889, 3, 5.00000000000000000000e-01) (889, 3, 5.00000000000000000000e-01) (889, 3, 5.00000000000000000000e-01) (889, 3, 5.00000000000000000000e-01) (889, 3, 5.00000000000000000000e-01) (889, 3, 5.00000000000000000000e-01) (889, 3, 5.00000000000000000000e-01) (889, 3, 5.00000000000000000000e-01) (889, 3, 5.00000000000000000000e-01) (889, 3, 5.00000000000000000000e-01) (889, 3, 5.00000000000000000000e-01) (889, 3, 5.00000000000000000000e-01) (889, 3, 5.00000000000000000000e-01) (889, 3, 5.00000000000000000000e-01) (889, 3, 5.00000000000000000000e-01) (889, 3, 5.00000000000000000000e-01) (889, 3, 5.00000000000000000000e-01) (889, 3, 5.00000000000000000000e-01) (889, 3, 5.00000000000000000000e-01) (889, 3, 5.00000000000000000000e-01) (889, 3, 5.00000000000000000000e-01) (889, 3, 5.00000000000000000000e-01) (889, 3, 5.00000000000000000000e-01) (889, 3, 5.00000000000000000000e-01) (889, 3, 5.00000000000000000000e-01) (889, 3, 5.00000000000000000000e-01) (889, 3, 5.00000000000000000000e-01) (889, 3, 5.00000000000000000000e-01) (889, 3, 5.00000000000000000000e-01) (889, 3, 5.00000000000000000000e-01) (889, 3, 5.00000000000000000000e-01) (889, 3, 5.00000000000000000000e-01) (889, 3, 5.00000000000000000000e-01) (0, 3, 0.00000000000000000000e+00) (91, 3, 5.00000000000000000000e-01) (91, 3, 5.00000000000000000000e-01) (0, 3, 0.00000000000000000000e+00) 
connections (connected_to_neuron, weight)=(0, -6.39995270834285284733e-02) (1, 1.80933153154905712601e-01) (2, -9.97322787503589075486e-02) (3, 4.41170804098150158307e-04) (4, -7.28835740963920813984e-02) (5, 6.14066100390504594070e-03) (6, 1.24045455143478852711e-01) (7, 5.30196386979008074669e-02) (8, -4.75397776578719705176e-02) (9, 1.54920905062948723735e-02) (10, 5.22090209651674616587e-02) (11, -3.62388791964322193317e-02) (12, -9.67368686403917432681e-02) (13, -1.03373671183465132284e-01) (14, -3.88635437439741396326e-02) (15, -3.39947501725066589251e-02) (16, -5.46325591256891507363e-02) (17, 5.45657305398200287438e-02) (18, 5.26171982302508015050e-02) (19, -3.73768840908306268500e-02) (20, 5.60446819942897259126e-02) (21, 2.81429484064565638146e-02) (22, -1.43861334486103192853e-01) (23, 6.06742751559013679397e-02) (24, 5.58985703953933515953e-02) (25, 4.10643943554591731027e-02) (26, 2.12286830550541989748e-02) (27, 3.87701852654446302293e-02) (28, -1.97894778465210093021e-02) (29, 9.10999942865239886736e-02) (30, 1.14980588865404936838e-01) (31, 1.10442623051400096168e-01) (32, -4.62137652499076349161e-03) (33, -1.05364087715234686082e-01) (34, 1.20640533174255881743e-01) (35, -8.25815548384083997213e-02) (36, -4.79392271506329306630e-02) (37, 4.18374782109593931767e-02) (38, -1.13326696409009313599e-02) (39, 3.67394198434478833071e-02) (40, -1.28023615350644243138e-01) (41, 2.37137442093477424088e-02) (42, 1.67636705072105353376e-02) (43, -6.47318267709035555235e-02) (44, 9.83095680114186437626e-02) (45, -2.68204214848881961064e-02) (46, -1.33267580267293128671e-01) (47, -1.09368906406876714721e-01) (48, -2.33919579323365253720e-02) (49, 3.28097959009811743214e-02) (50, 1.68460405910164298660e-02) (51, -1.03234334724488369117e-01) (52, -3.71063845014600601768e-02) (53, -7.43278366403809925833e-02) (54, 4.95723501430532717538e-02) (55, -1.26968912760851510013e-01) (56, 7.05274380502633330137e-02) (57, -2.10348892700454558058e-02) (58, -3.36677502420133778482e-02) (59, -5.98892404678983830690e-02) (60, 6.28995310726281203761e-02) (61, -6.15575409431425996098e-02) (62, -1.40877514600005939588e-02) (63, -6.70998854870047678478e-02) (64, 9.98753705732545044027e-02) (65, -3.45220797536255619153e-02) (66, -4.45821097845379987756e-02) (67, -9.33785510067786095334e-02) (68, -9.13069683047663255282e-02) (69, -2.08305193845073677306e-01) (70, -1.75924602759051952605e-02) (71, -5.06107987104062895939e-03) (72, -5.17309165740284168655e-03) (73, -5.91912878502166076022e-02) (74, 1.87130709122102528719e-01) (75, -9.55653940781299726659e-02) (76, -1.27022743910090246677e-01) (77, 1.33889336480397858065e-01) (78, -9.60725212311539372712e-02) (79, -4.05267612409488248160e-02) (80, 1.50303480821969259740e-01) (81, -2.18286779205950597083e-02) (82, -5.74984537735862555330e-02) (83, -1.65913640996599665023e-01) (84, 1.21947301604150168397e-01) (85, -7.05499389523444875305e-02) (86, -1.52318635083912828909e-01) (87, -1.75110428279453937683e-02) (88, -1.22088546073407702708e-01) (89, 7.88867247338747613894e-03) (90, -6.10672345458816157038e-02) (91, -1.75997210077213604718e-02) (92, -6.22982387924098310328e-02) (93, -4.54412900252861087780e-02) (94, 6.94854096295932088800e-02) (95, 8.79063270499744059405e-02) (96, 2.54876890935195610233e-02) (97, 1.26883231484121061783e-01) (98, -1.22655299599057701632e-01) (99, 3.71285232211786692114e-02) (100, 4.24346559217246566131e-02) (101, -9.17825944139222249518e-02) (102, 1.39308887201432279879e-01) (103, -1.66118458417314068809e-02) (104, 1.68033379489333334345e-01) (105, 3.78902249649625544325e-02) (106, -2.49765169443775317260e-02) (107, -9.34437985610898080857e-02) (108, 8.11768982671385620764e-03) (109, -9.66841272395828205122e-02) (110, 1.07862120222502577693e-01) (111, 1.14465575193682892602e-02) (112, 8.55350935865035605365e-02) (113, 9.29830006244669188264e-02) (114, 1.00067147700133252108e-01) (115, -1.07299131604591063693e-01) (116, -1.03074217235128343106e-01) (117, 3.04240315531652504022e-02) (118, -1.53939987149286944268e-01) (119, -1.73391332839343374761e-02) (120, -1.86656051528845332022e-02) (121, -9.48954305540616327441e-02) (122, 4.00746446223136099096e-02) (123, -4.15145536940231540957e-02) (124, 2.33519930401853651608e-03) (125, -1.33012207137485682917e-01) (126, -1.52366565967426037531e-01) (127, -2.48834636938280312490e-02) (128, -5.94614334309640155118e-02) (129, -4.04181836098935695634e-02) (130, -6.53202716420730050695e-02) (131, -1.09199112636118783604e-01) (132, 4.02024155059843152360e-02) (133, -5.37159380656887092131e-02) (134, 1.12608412274498567718e-01) (135, -6.93513470488245215018e-02) (136, -6.55220657347029555861e-02) (137, -4.78107024377732101050e-02) (138, -1.28892396507215817314e-01) (139, -7.75238484801241967137e-02) (140, 5.84782133766489822108e-03) (141, -6.36901280532373575971e-02) (142, -1.33492162628613044578e-02) (143, 4.00733723595454172095e-02) (144, -5.80205275693015040672e-02) (145, -4.75668092621188212665e-02) (146, -1.28175342633813332816e-01) (147, -7.61794594294356447461e-02) (148, -7.30031369326140655573e-02) (149, -4.41820944685338140578e-02) (150, 7.76235954198217226185e-02) (151, -1.05592897716798694852e-01) (152, -2.04503187633769331621e-02) (153, 2.72592348527763601862e-02) (154, 2.08610443060143785354e-01) (155, 3.59061325292045763202e-02) (156, -8.02370170249995656730e-02) (157, 1.80924554882449691029e-02) (158, 3.06839278360700531967e-02) (159, -3.75528385184671353869e-02) (160, 8.35583640930083609843e-02) (161, 5.65980783986019288234e-03) (162, -6.99386975049858528042e-02) (163, -7.40662588279873274066e-02) (164, 1.17203173025702558907e-01) (165, 2.24778609603164189479e-02) (166, -1.28123262755201583474e-01) (167, -4.96526036908297579986e-02) (168, -4.37357372543811240284e-02) (169, 8.12333605144659361141e-03) (170, -4.77197019768547670004e-02) (171, 3.66796546958338218897e-03) (172, 1.15586603742676097273e-01) (173, -8.34928393053691875192e-02) (174, 6.61918054616943696278e-02) (175, -1.17260748333294834156e-01) (176, -8.28821785816106493261e-02) (177, 9.20490881773975283542e-02) (178, -4.71153038674045759882e-02) (179, -1.08225182080167028897e-01) (180, 6.49716724498721476255e-02) (181, -8.95299863078163338237e-02) (182, -9.02891958311191275555e-03) (183, -2.41673765007371192659e-02) (184, 7.82768006320975207046e-02) (185, 1.69821119434602867126e-02) (186, 3.47732008445781866704e-03) (187, -9.50403877252128104214e-02) (188, -4.18418062048316469204e-02) (189, 5.36349613260980670471e-02) (190, -2.73901715533932423041e-02) (191, -8.28636493835697568455e-02) (192, -4.28532407869178441628e-02) (193, -3.28757140805378891835e-02) (194, 1.95506176374586476685e-01) (195, 1.01278478247350700592e-01) (196, -9.68961671351385167572e-02) (197, 1.17182851817642721959e-01) (198, -1.20662778877433152225e-01) (199, -2.85838277446755439914e-01) (200, 1.72618666817197334573e-02) (201, -4.99334792397297250188e-02) (202, -4.17067793033367092970e-02) (203, -8.85970268014928258316e-02) (204, 1.03099561629728636580e-01) (205, 5.37301038832353264341e-02) (206, -1.00842351458642787154e-01) (207, -8.46461098505853215546e-02) (208, 9.26783971779111676037e-02) (209, 1.41381070691548760276e-01) (210, 8.55228717465393861730e-02) (211, -3.85311707009971179949e-02) (212, 3.52748457310104943097e-02) (213, -1.77004868524897329696e-01) (214, 1.37957833222013936947e-01) (215, -3.90949019101116679309e-02) (216, -3.88509953712624811484e-01) (217, -1.70283494450090638894e-01) (218, -1.67660197540039579422e-01) (219, -4.62759434846401862540e-01) (220, 7.95745183815030621144e-02) (221, 2.29629162362517784401e-02) (222, -1.26293332855631657008e-01) (223, -2.86725009905370586960e-01) (224, -1.55618984539072531537e-02) (225, -1.19146340922359247894e-01) (226, -1.14575151292463275898e-01) (227, -5.20169454283591833899e-02) (228, -5.23226901163926436111e-02) (229, -3.46897614057453881897e-02) (230, -8.24072072720313242300e-02) (231, -1.52818589378727609507e-02) (232, -1.66023095705152196055e-01) (233, 2.70945899866386410992e-02) (234, 1.34737340750949785573e-01) (235, -6.86682141386763533752e-02) (236, -1.30099541972588855776e-01) (237, -1.44443771686757316264e-01) (238, -1.29849461189200349187e-01) (239, -1.13121173817689199548e-01) (240, 1.87415017107601195034e-01) (241, -7.42161307571376216430e-02) (242, 4.92821133498473062939e-02) (243, 8.36443585547948578740e-03) (244, -2.82065213651679601303e-02) (245, 6.58460983857975523659e-02) (246, -1.25431517858620444894e-01) (247, -1.57615807095591475839e-01) (248, -7.21398240832155229763e-02) (249, -1.46522867437564541238e-01) (250, 1.45358300974448156895e-01) (251, -6.38551841081799603783e-02) (252, 5.22232708172693238513e-02) (253, -2.03935892095295518561e-03) (254, 5.43820199131579140595e-02) (255, -1.43085685688782660030e-01) (256, -2.41669329858225645502e-02) (257, -1.35860031286667182204e-01) (258, -5.69602075853542638706e-02) (259, -5.03273215201143486741e-02) (260, 1.95326703675677421090e-02) (261, -6.06867768572207713640e-02) (262, -5.87024671500690140014e-02) (263, -5.34205456883762863640e-03) (264, 2.17041340567771606773e-01) (265, 3.32338489551582336179e-02) (266, -3.59532516392293693963e-02) (267, -1.14647939427416231672e-01) (268, -9.93950619185764855379e-02) (269, -1.14701119738186918529e-01) (270, 5.20450943150118708336e-02) (271, -8.75746163517943237986e-02) (272, -1.19634899221464224839e-01) (273, -1.31688522121887092997e-02) (274, 9.56672347516136778456e-03) (275, 1.10713093082248734134e-01) (276, -5.55668105780345936151e-02) (277, -3.65809156176924166193e-02) (278, -1.65795932865570147703e-03) (279, -1.32895925583298046835e-01) (280, -7.73989299378441495542e-03) (281, 7.49941183878421180342e-02) (282, 1.35098545819606175034e-01) (283, -1.53086131664733476887e-01) (284, -7.41067841732679678801e-03) (285, 1.16217990986745303705e-01) (286, -1.11985392863627214455e-01) (287, -7.82037796355310177443e-02) (288, -6.87448611096957568067e-02) (289, 2.60378170387375474509e-03) (290, -1.19842560846779161432e-01) (291, 1.14793396125955071696e-02) (292, 1.26415309276300902308e-01) (293, -5.79892073224018353428e-02) (294, 3.07609122149687767844e-03) (295, 5.46489948426737842668e-02) (296, -1.26565915992483651875e-01) (297, -7.58920927793826777252e-02) (298, -1.73695906498758434466e-01) (299, -2.28849414377461785053e-01) (300, 5.89456310520853343782e-02) (301, 6.56096942404484628764e-02) (302, 4.38622754247047844101e-02) (303, 3.76854821126146755789e-03) (304, 7.42393531011681373499e-02) (305, 8.82473878129557028072e-03) (306, -5.75140768296892382350e-02) (307, 7.98546101933089585989e-02) (308, 3.98762790154097018780e-02) (309, -2.43248551496695573915e-02) (310, 6.22338198076821322302e-02) (311, -8.28150637701637742927e-02) (312, -6.08220894421336935598e-02) (313, -6.00696617060426721335e-02) (314, 8.42202245170942664920e-02) (315, 4.41254383584914477989e-02) (316, -2.78937193349413706245e-02) (317, 3.05343273438830123401e-02) (318, 4.33249901391031047582e-02) (319, -7.40919204573612655285e-02) (320, 8.21685709740313796612e-02) (321, 7.08064717816493105484e-02) (322, 6.84575820840878646045e-02) (323, -1.20889530732409725133e-01) (324, 1.59813168162942151329e-02) (325, -1.01690850947307731555e-01) (326, 2.35350152600841237838e-02) (327, -9.63073356010020337203e-02) (328, -2.36186951276689920121e-02) (329, -1.74334974034088430184e-01) (330, 2.92503689485113654856e-02) (331, -1.05671734315303550433e-01) (332, 2.31323471478223595399e-02) (333, -1.68723812233526337945e-01) (334, 1.63808886766656558454e-01) (335, -4.59907055192992769710e-02) (336, -3.62828734284886753048e-02) (337, 3.86624108373570113395e-02) (338, -1.36671425893074266478e-01) (339, -1.20777325453053419047e-01) (340, 9.35497602218989809941e-02) (341, 1.02285628147145715716e-01) (342, 4.02043643466985858859e-02) (343, -1.05161592663955194560e-01) (344, 2.45166725934188312053e-01) (345, 8.39267083333753438623e-02) (346, 4.30118339682477868191e-02) (347, -7.79529772466400205921e-02) (348, -3.20866535593076415700e-02) (349, 2.07002488698259032307e-02) (350, 2.02609546327370826369e-02) (351, 1.80421652795876491515e-01) (352, -2.32991636912605257215e-02) (353, -1.60319139765419838017e-01) (354, -7.88434971091187333792e-03) (355, 1.46744505927720158417e-02) (356, -1.00469212301475596671e-01) (357, -2.09137596867532138400e-02) (358, -1.05490572002137940333e-02) (359, -7.96009924991198519750e-02) (360, -1.24915126033187051657e-01) (361, -2.48658175980011678097e-02) (362, 2.04364026080730565305e-01) (363, 6.08440995858904112858e-02) (364, 3.76227142005585157847e-02) (365, 1.17907682005339201070e-01) (366, -8.08427324252020129691e-02) (367, 6.42125716557140902019e-02) (368, -1.04821647912412704851e-01) (369, -6.92617004764340023215e-03) (370, -7.32015102655679539279e-02) (371, -4.27150759320273146202e-02) (372, 5.26333020035707407902e-02) (373, 2.00768136083400092207e-02) (374, -6.83320537989702981446e-03) (375, -8.60572560957609949961e-02) (376, 3.31797379952491252458e-03) (377, -2.12926897019147069734e-03) (378, -9.86753905038256912130e-02) (379, -1.19006488958942086009e-01) (380, 1.22690584964640650445e-01) (381, 1.30585157646934402198e-01) (382, 1.16476680394501541649e-01) (383, -5.79862509270318779442e-02) (384, 1.64333807025923039902e-01) (385, 1.00085088498743715602e-02) (386, 7.56122069042693967234e-02) (387, -8.59944352712095627655e-02) (388, -2.37337360795928757617e-02) (389, -4.96303197893135303320e-02) (390, -1.77944334202260384670e-01) (391, 4.36755612188921837902e-02) (392, -3.96656119735067161369e-02) (393, -1.53482524188280927691e-01) (394, 1.58220727812782097077e-01) (395, 1.55229460825939639262e-02) (396, -1.52727848657035203406e-01) (397, -1.33199082477313598266e-02) (398, -4.67340087510150006822e-02) (399, -9.82794045780611968954e-03) (400, 6.07550789150243034098e-02) (401, 5.45629792853605591341e-02) (402, 2.29485742138178482052e-02) (403, -7.45199885911267817518e-02) (404, 1.52294426550563577472e-01) (405, 4.86703778436132147855e-02) (406, -1.69713631567490086383e-01) (407, -8.37239189995790389354e-02) (408, -1.30018309676683624376e-01) (409, -4.90721909915410869907e-02) (410, 1.02018107140637664942e-01) (411, 2.98114658754752718042e-04) (412, -6.33082694046469551807e-02) (413, -2.77131311718500361607e-02) (414, -6.49226321010085427599e-02) (415, 8.58113323051666321284e-02) (416, -7.52295268989293663964e-02) (417, 1.13538592416127487317e-01) (418, -7.44972213105375979936e-02) (419, 4.99876030058383213905e-02) (420, 2.82914048472278634172e-02) (421, -6.24158605801241536670e-02) (422, -2.90707387392059347919e-02) (423, 5.24813069337171367312e-02) (424, -3.90428680053784768478e-02) (425, -7.22077847681864004592e-02) (426, -4.94582895397906729951e-02) (427, -2.51770978898020920955e-02) (428, -6.14013305352189425745e-02) (429, 4.81760146158564453445e-02) (430, 6.12293251429997381630e-02) (431, 3.23184474717698524970e-02) (432, 1.88831270515395777121e-02) (433, -5.04948443494849311119e-02) (434, 1.96172211293020141987e-02) (435, -1.00554219560313684578e-01) (436, -3.30651932286073618750e-02) (437, 1.45952423056530996431e-02) (438, -1.58903746685296748398e-02) (439, -2.25851391316944927201e-02) (440, 8.10559936794193469645e-02) (441, -5.07868851677707733305e-02) (442, -5.68998752736466079094e-02) (443, 6.90411732019495516521e-02) (444, 3.15443721019683584461e-02) (445, -3.32023090880002869074e-02) (446, 2.50055382449951291157e-02) (447, 4.46191681286156258124e-02) (448, -7.71653144918867245350e-02) (449, 8.84261208600756187792e-02) (450, -7.60666213816497682743e-02) (451, 1.32204068317230777341e-01) (452, -1.31135313182426438416e-01) (453, 9.93384217848930356487e-02) (454, 3.88257315712250347661e-02) (455, -1.98167852406575042967e-02) (456, 6.89859547257159338995e-02) (457, -6.14905097982885381902e-02) (458, 2.02134353351518976372e-02) (459, -6.88745051680970249430e-02) (460, 7.55810454692017741340e-02) (461, -1.72156308955344859724e-03) (462, 7.30872166641201165271e-02) (463, -4.09222098823215224561e-02) (464, 7.78398816196758103203e-02) (465, -4.45738652923889158708e-02) (466, -1.68315153432137334932e-02) (467, -6.31774963767162966999e-02) (468, 7.15401715279772726364e-02) (469, 1.84809028567553788880e-02) (470, 5.85182934979784977192e-02) (471, -2.40024246378785152678e-02) (472, 1.00692712242547000034e-01) (473, 5.24288398047666470703e-02) (474, 1.20622807963462509717e-02) (475, -5.94833392151695224820e-03) (476, -4.32038302670137916439e-02) (477, -9.14215463366535030509e-02) (478, 1.13944201087894502605e-02) (479, -7.66227600311343709505e-02) (480, 4.18591614757821278703e-02) (481, 6.94554125079692580291e-02) (482, 1.67934265909050160770e-02) (483, 5.26373083982171682815e-02) (484, 4.11890281731676355381e-02) (485, -1.52268057312128723968e-01) (486, -5.03387248053753719179e-02) (487, -1.92663835319425123804e-02) (488, -1.63832696766819774226e-01) (489, -8.82657000944923365859e-03) (490, -2.30757154721238219239e-03) (491, 8.08870627684776244415e-02) (492, 4.08022856532966847476e-03) (493, -4.82911470982785237527e-02) (494, -3.08076207972769050558e-02) (495, -8.19409226628181781849e-03) (496, 1.71572011354272323247e-02) (497, -6.00920474553432674286e-03) (498, 4.01123204290408583161e-02) (499, -3.80514740138980164796e-02) (500, -4.26263052425368549336e-02) (501, -2.07831802809680075972e-02) (502, 4.77572960785969530262e-02) (503, -3.18284187410525151729e-02) (504, -9.74301636569726153825e-02) (505, -3.11148827988280219162e-03) (506, 9.10766660236146108343e-02) (507, -1.05322171713077547550e-01) (508, -8.06916301311158823406e-02) (509, 1.01813935170600985969e-01) (510, 7.47740291469026485682e-02) (511, -5.75873999007183307031e-02) (512, 1.99713217504491787058e-02) (513, 1.28894745733553528488e-01) (514, -5.24327276154384139262e-02) (515, 1.11409324284043528830e-01) (516, -7.89109072956699492130e-02) (517, 7.00382480938312457219e-02) (518, -3.02578903830424301991e-02) (519, -8.65296566442756986959e-02) (520, 1.19031760470392322659e-01) (521, 5.93839384178817333848e-02) (522, -1.25164864974748990534e-01) (523, 5.11796931715555250553e-02) (524, 1.22119796851113154856e-01) (525, -1.11497005562051096361e-01) (526, 6.86034328255843151023e-02) (527, 4.01849935230836688427e-02) (528, -1.21869439033453402788e-01) (529, -3.81983920083205078151e-06) (530, 4.78989603131076413511e-02) (531, -1.15570056367318863694e-02) (532, 7.35901220509439096817e-02) (533, -1.31042768944084810773e-02) (534, 5.99278244206555149587e-02) (535, -7.01021216142952569017e-02) (536, 3.72602709498222675610e-02) (537, -1.26939424854079843663e-02) (538, -3.03878505291057116056e-02) (539, -1.04913395588533533975e-01) (540, 3.27628641556786115441e-02) (541, 9.16878839088073188668e-02) (542, -9.74819037614532354907e-03) (543, 1.26780559036819173713e-01) (544, 4.54404519788913011102e-02) (545, -9.55531439970565971143e-02) (546, 1.20323817721436507333e-01) (547, 1.37466391786852226015e-02) (548, -1.28329315512818453726e-01) (549, 1.78744929062653268304e-01) (550, 3.63187659128541354137e-02) (551, 4.25659723592490824018e-02) (552, 1.38841076766205689941e-01) (553, -1.46098198587135130744e-01) (554, -3.21565527153930136306e-02) (555, 1.04428374969572940190e-01) (556, -4.92286245130966609862e-02) (557, -3.07794137876179242641e-02) (558, -5.39999937853998732140e-02) (559, -8.88610128523755066210e-02) (560, 1.30299250417980932992e-01) (561, 1.19842762787007409142e-01) (562, -3.85495710856873924355e-02) (563, 1.34689071347299932357e-01) (564, 4.48705457448591721326e-02) (565, -8.02212042617712062231e-02) (566, 4.24016854341459498157e-02) (567, -1.06122653815789308451e-01) (568, -7.42664527770247745453e-02) (569, -1.74107741053088543870e-01) (570, 4.01162912629363446748e-02) (571, -2.19698455692996841293e-01) (572, -1.38395215358527168270e-01) (573, -4.80234443808357641670e-02) (574, -2.06997320015634672652e-01) (575, -3.92220630039465251171e-02) (576, -2.36176375231808594046e-01) (577, -8.04254193640745185245e-02) (578, -2.14398037378577335788e-02) (579, -1.25167464319821036822e-01) (580, -8.36115620071477272379e-02) (581, -6.58390204530379941072e-02) (582, -8.27094974032206026182e-02) (583, -2.19207461781602441775e-01) (584, 6.75694218263035023542e-02) (585, -1.42608045846360619729e-02) (586, 9.26974046728791384320e-02) (587, -3.35248679375531807856e-02) (588, 5.79491178340467913421e-02) (589, -1.25374740961499170355e-01) (590, 1.20449673369262377776e-01) (591, -1.17614686500469144831e-02) (592, 8.62814715777392715612e-02) (593, 9.17049889676001123151e-02) (594, -9.16356053152826005581e-02) (595, -5.65231230647275512124e-02) (596, -1.23148081505065256497e-02) (597, -3.88712021798724230437e-02) (598, 3.44099752903744976473e-02) (599, -1.44238978059934973980e-02) (600, -1.01698035702177374401e-02) (601, 5.95722068092255849225e-02) (602, -3.58362148382124004464e-02) (603, -1.76539512769626066868e-02) (604, -7.16342959187417638312e-02) (605, -1.24614993173877197652e-01) (606, -1.18490180894862517924e-01) (607, 1.80924169589450332431e-03) (608, -4.12199048605884008079e-02) (609, -3.58495576623749853673e-02) (610, 7.84511985764405894717e-02) (611, -8.10163256159458916583e-02) (612, 2.99663794690367912832e-01) (613, 8.66915613173874638475e-02) (614, 2.33795067875182567552e-02) (615, 4.33497544371218221371e-02) (616, -8.09376197982740984427e-03) (617, -7.49163701041198754060e-02) (618, -1.54361952822301612409e-01) (619, -1.30931522541158640305e-01) (620, -7.99023494827603431023e-02) (621, -1.27067058388075831976e-01) (622, 3.51354123393810072185e-02) (623, -1.67384089497841226368e-01) (624, 3.94578105060225045597e-03) (625, -1.39787239846928007525e-01) (626, -8.14720220903088071518e-02) (627, -1.74049414495120319257e-01) (628, -6.48988728634025818787e-02) (629, -1.34575105721260190883e-01) (630, -9.56108928524025264428e-02) (631, 1.06953219950254738158e-01) (632, -2.14679530343251309676e-02) (633, -2.33829477546821616618e-02) (634, -2.13839321552534260273e-02) (635, -1.35206524043491593812e-01) (636, -2.52061687522604667422e-02) (637, -7.00268971664788214548e-02) (638, 6.98229519502350515214e-02) (639, -1.00686718773887490253e-01) (640, -7.97036942294421651978e-02) (641, -6.09720401307241310906e-03) (642, -9.48740948190496535819e-02) (643, -1.33881200408290546022e-01) (644, -9.31429719261927246965e-02) (645, -9.88715132929699272446e-03) (646, -2.19601329230108277546e-01) (647, 4.07699777203507640611e-02) (648, -1.33985144953323642714e-01) (649, -1.60318673686969587200e-01) (650, -8.49187013458051753734e-02) (651, -1.33956628226031299045e-01) (652, -1.44144450668328150122e-01) (653, 1.82614648183186192854e-02) (654, -1.01637777772704260282e-01) (655, -1.44653853605147153516e-01) (656, 8.37128560878693389613e-02) (657, 4.06789002789894604817e-02) (658, -5.93458881462361129144e-02) (659, -1.28085046077124842245e-01) (660, 1.14882239631469360019e-01) (661, 1.29613680781530349329e-01) (662, -6.61622772504449341291e-02) (663, 8.35315353333540427938e-02) (664, 1.53349999800126340910e-01) (665, 5.13689309465578322622e-02) (666, -1.24715390695168872742e-02) (667, 6.00142773079800767588e-02) (668, 2.90187673263827064507e-02) (669, -1.16740289883618619804e-01) (670, 6.28083219105207840594e-02) (671, 5.58472214749784548471e-02) (672, 1.16246397426528202956e-01) (673, -3.50522588030994924901e-02) (674, -7.17010700022176622470e-02) (675, 2.91047300511125747735e-02) (676, -3.07462496124906933814e-02) (677, -1.19443534405038256918e-02) (678, -1.18143760843456083198e-02) (679, -1.05528348193835608271e-01) (680, 2.39344170492839514175e-02) (681, -1.87087715112592661675e-03) (682, -4.86478199605805752825e-02) (683, 6.22602518214916342276e-02) (684, -3.86535937129738466078e-02) (685, -1.79583868080427787491e-03) (686, 3.87805310846381159906e-02) (687, -1.19813737967129338435e-01) (688, -1.14632021595428901239e-01) (689, -3.73537554727459905624e-02) (690, 3.58848183660907052439e-02) (691, -4.26233721098757400991e-02) (692, 2.85689206466324110631e-03) (693, 6.35057295702908114476e-02) (694, -2.73763458591415598242e-02) (695, -1.18202439058227026791e-01) (696, -1.03453784975574974991e-01) (697, -1.43400198736761241847e-01) (698, -1.90892806405125008140e-02) (699, -1.29111009572376617127e-01) (700, -3.61390428209831110484e-02) (701, -4.39908956659218197682e-02) (702, 6.38981114856502496746e-02) (703, -3.97800519681930780935e-02) (704, 9.36756698306993006165e-03) (705, -8.72930103979760729782e-02) (706, 6.53832624611088430999e-02) (707, 3.89361324628118010693e-02) (708, -1.05269352602400424745e-02) (709, -2.39083475273152781804e-02) (710, 5.57325671677470699250e-02) (711, -1.02243343372005621172e-01) (712, -9.03663334518589739242e-02) (713, -7.18003610674049497220e-02) (714, 6.02512242869115630106e-02) (715, 5.24221444857396749913e-04) (716, 8.42577975077583030128e-02) (717, 6.37848914713971398838e-02) (718, 7.12233467252101487555e-02) (719, -8.05857612891081737105e-02) (720, -4.42142017678161247662e-02) (721, -4.45972060526676136738e-02) (722, -4.90964696740614076065e-02) (723, 6.48534930507854434634e-02) (724, -1.00911074326447997018e-01) (725, 8.54191094706482217935e-02) (726, 9.28557596007987678943e-02) (727, -3.43966231576001077452e-02) (728, -9.10342833158103437174e-02) (729, 5.05639881606562147098e-03) (730, -1.87892820135147423088e-02) (731, 1.17117939022313086173e-02) (732, 1.03997092033513038878e-01) (733, 2.29461356731585630619e-02) (734, -8.86802796924105185550e-02) (735, 5.13357173174277189864e-02) (736, -1.70868248941408659713e-02) (737, 1.07579975375097516843e-01) (738, -2.67976938759831436951e-03) (739, -6.38487271212114099184e-02) (740, 1.38549863498924619165e-02) (741, -7.88802532541003492694e-02) (742, -7.77619260037543252873e-02) (743, 5.90260512386696911680e-02) (744, -5.71912109724110814812e-02) (745, 6.46116357219867210038e-02) (746, 1.10610465808570979096e-01) (747, -1.09329263993036603780e-02) (748, 1.24631037894540469546e-01) (749, 1.04230113430553258946e-01) (750, -9.85103461437459998473e-02) (751, -7.00405135904331871410e-02) (752, -3.03113058611411793908e-02) (753, 1.29684837225339261862e-02) (754, 2.75674705128382789565e-02) (755, -3.53518112802391898386e-02) (756, 6.58919962897040328853e-02) (757, 4.78022629571783833069e-02) (758, 3.81046167213461087209e-02) (759, 3.12429805882440889131e-02) (760, -1.16786802505922757134e-01) (761, -1.03542751321012913013e-01) (762, 3.94869717037364398315e-02) (763, -2.55368980868850514732e-01) (764, 9.44897828103170162040e-02) (765, 4.50085546152452081747e-02) (766, -4.13208641966638021148e-02) (767, -5.72262212078438470275e-02) (768, 3.72008359665404811367e-02) (769, -1.78929450213760776744e-01) (770, -1.64499023777956018474e-03) (771, 1.06178194984727483630e-01) (772, -3.35506772301756225896e-02) (773, -5.21645329756697806456e-02) (774, -9.49368660619668083833e-03) (775, 5.87795088358568779130e-02) (776, -5.17415856034165871913e-02) (777, -4.78499741769796704816e-02) (778, -1.63224207331327447745e-01) (779, -5.14901800802942885560e-02) (780, 1.49080510220659323561e-01) (781, 3.23344907017303409558e-02) (782, -9.97555708304476151937e-02) (783, 1.48784556340943618924e-01) (784, -2.24387541525363359840e-02) (785, 1.83089994645780490545e-01) (786, -1.29008578312007238242e-01) (787, -8.67018784145428822452e-02) (788, 1.48530352750678912299e-01) (789, -6.81773903545515678332e-03) (790, -1.05032291795507951027e-01) (791, 1.67821828540958617459e-01) (792, -3.80014160274105275081e-03) (793, 6.44576565243459159715e-02) (794, 6.22576859902769855215e-02) (795, -9.42788373223766990039e-02) (796, 1.66219988704839600037e-04) (797, 3.01529893828488340657e-02) (798, -8.68455368621747492153e-02) (799, 7.67528587611640694677e-02) (800, 7.08781964068444774590e-03) (801, -2.39103974370855239251e-02) (802, -7.84978626458593536919e-02) (803, 6.53245129805030411152e-02) (804, 1.68719591943968100223e-02) (805, -9.03251029139712502403e-02) (806, 2.75860868191517456804e-03) (807, -8.44835541832428260633e-02) (808, -6.00491218210713953440e-02) (809, 7.57084328150682203673e-03) (810, -7.61600920262869296451e-02) (811, -7.76287362486396681494e-02) (812, -3.92631799376588590256e-03) (813, -2.78592166973102477526e-03) (814, -4.45248150848574289484e-02) (815, -8.72354778299013616794e-02) (816, -7.11626322352346737249e-03) (817, -2.41205964005717678200e-02) (818, 2.53532401776523086401e-02) (819, 6.21146243153248567292e-02) (820, 6.46058547630862789468e-02) (821, -2.51419186589765331422e-03) (822, 3.33144736644889472021e-02) (823, 4.23133855473914813339e-02) (824, -9.47125226859806129687e-02) (825, -2.23000650617333380510e-02) (826, 3.63522438652622292832e-02) (827, -2.93615672077682200378e-03) (828, 5.16481804818302372984e-02) (829, 8.20566294518093458654e-02) (830, -2.83434989372153625653e-02) (831, -9.18619223195333706178e-02) (832, -9.37251813360464314240e-02) (833, -1.29901820661373956778e-01) (834, -1.04456383428650628753e-01) (835, -1.21377880813825944628e-01) (836, -1.06475357903492953704e-01) (837, 3.46350402105441296241e-02) (838, -8.73373097728223218850e-02) (839, -4.62879190406345272790e-02) (840, -4.23193734873684480891e-03) (841, -2.54003424544254757800e-02) (842, 1.42814258665656425296e-02) (843, -1.02472109469215116873e-01) (844, 6.44026447441681942907e-02) (845, 6.79120876447183580149e-02) (846, -7.26769461923717358109e-02) (847, -6.95545897623463527104e-02) (848, -7.64414665427092659966e-02) (849, 5.09224140631067759277e-02) (850, -2.40055249483207590322e-02) (851, -2.25790361002788479705e-02) (852, 1.96854170709346826262e-01) (853, 1.78802039918723926215e-01) (854, 1.69768002951764862551e-01) (855, -3.22330243540000366265e-02) (856, -2.14422796596525667978e-02) (857, -5.92939541445420322668e-03) (858, -4.43130190497895079527e-02) (859, -1.40383457849783094273e-01) (860, -2.30943670772167999883e-02) (861, 1.26713498761864912234e-01) (862, -3.48704856826352466159e-02) (863, 7.79611488473338082317e-02) (864, -6.66812158471344618160e-02) (865, 1.21354236023522611687e-02) (866, 8.62867240086249431830e-02) (867, 1.34014629363005885465e-02) (868, 3.66561721207794496968e-02) (869, -1.35807756468661333660e-01) (870, 2.47199237653639401768e-02) (871, -1.22417294034493154276e-01) (872, 1.96730624092887412813e-01) (873, -7.96887601186096160288e-04) (874, -4.36921731320664627485e-02) (875, -5.50850405644846760622e-02) (876, -7.09333970780725714400e-02) (877, 3.12120294004174063385e-02) (878, 9.98868625969091677996e-02) (879, 1.13470616514639008332e-01) (880, -9.83091572620499176693e-02) (881, -7.37684140325160914164e-02) (882, 1.03247923970188393294e-01) (883, -1.27725928320635645496e-01) (884, 3.80181443428805193596e-02) (885, 6.83003750214021404519e-02) (886, -1.79301303611441448238e-01) (887, -1.48846833054967125909e-01) (888, -9.81102846924811061724e-02) (0, 3.03964116279559076750e-02) (1, -3.28660048858682440898e-01) (2, 1.11147069218571883931e-01) (3, -7.61185034487789624613e-02) (4, 9.77972968179513513221e-02) (5, -2.43272230438205082359e-02) (6, -7.32549928647416581651e-02) (7, 1.91077810381095787584e-02) (8, -4.91834005359583631423e-02) (9, 7.03439133695737545127e-02) (10, 1.59101163008689978733e-03) (11, -4.32496348165727698132e-02) (12, 9.54196871280309222296e-02) (13, 8.87720509365358262377e-02) (14, -3.91564433738421022180e-02) (15, 2.32351894252428942123e-01) (16, 7.54028958802274718032e-02) (17, 9.40607018172139736079e-02) (18, -5.87812014323058421028e-02) (19, -1.47969396661640384405e-01) (20, 6.48353988368825934208e-02) (21, -3.41233791064863845044e-02) (22, 1.13674220271604814458e-01) (23, 1.35005479047870080578e-01) (24, 7.53099441470039820956e-02) (25, -1.17947576253713701244e-01) (26, -5.61406347163538876899e-02) (27, 1.12863911052585919048e-01) (28, 3.04038233479619723898e-01) (29, 3.41027310637593214504e-02) (30, -2.67412551535343212539e-01) (31, -1.02661882809965826491e-01) (32, -1.22592372346646480419e-02) (33, -5.93342253845101641474e-02) (34, -1.77856592596416701602e-01) (35, -4.73520694066473860073e-02) (36, -1.37998645089462135260e-01) (37, -3.30749468499471205307e-02) (38, 3.31566599382483173653e-02) (39, -1.30322252895225643154e-01) (40, 1.30409947916688057079e-01) (41, 5.89085617492398766482e-02) (42, 3.04767241790542681157e-02) (43, -3.77220224187742730892e-02) (44, -2.74852394229365137868e-01) (45, -2.09549119224599622591e-02) (46, 5.36966755085896210731e-02) (47, 5.18202571441688103482e-02) (48, -1.19746185030854032649e-01) (49, -2.26645535239198003818e-02) (50, 1.03800924455878101904e-02) (51, 1.44554547181719034166e-01) (52, -1.48602628817937870709e-01) (53, -9.51410049062998419700e-02) (54, -1.38995443192099473254e-03) (55, -1.07156353023040093464e-02) (56, 1.00670101020546749748e-02) (57, -6.01211207146844853200e-02) (58, 2.88233151260631134671e-02) (59, -1.13585237639068317717e-01) (60, -8.12725077905844806025e-02) (61, 4.09134208833773337782e-03) (62, 3.58692819627478634570e-02) (63, -1.45850688001935620969e-02) (64, -1.65128891690644097334e-01) (65, 8.16306696170869192097e-03) (66, 4.99952923508608232384e-02) (67, -7.23650236733770768627e-02) (68, 6.61789428447082522800e-02) (69, 8.72404892935352144212e-02) (70, 1.58009638288433840181e-02) (71, -2.92003674655655787867e-03) (72, -4.29291585222984356518e-02) (73, 5.19621251314368159252e-03) (74, 3.82918963388480596000e-02) (75, -6.81534603499543145677e-02) (76, -2.46839107712794629187e-03) (77, -2.60384599977100339441e-01) (78, 3.79330550775128644281e-02) (79, 2.92798481932145179818e-02) (80, -4.62748750765628880099e-02) (81, 2.66063440303367336470e-02) (82, -1.92223131559088808440e-02) (83, 9.74125782609313178861e-02) (84, -1.02146691913691967102e-01) (85, 2.83145542855680297512e-02) (86, 2.71065104731414638350e-02) (87, 5.16046373223725124424e-02) (88, -1.92553172022436380750e-01) (89, 3.37718198424657861656e-02) (90, 1.15396858255819897976e-01) (91, -4.37698031419330169101e-02) (92, -5.68190776079365925111e-02) (93, 6.92428748966408547094e-02) (94, 4.25976158707366391737e-03) (95, -1.42304028808652848620e-02) (96, 9.91833792077865677994e-02) (97, -2.52822988176255036841e-01) (98, -3.74964598917155696525e-03) (99, -4.30315274099860520240e-02) (100, 8.52972256898237440881e-02) (101, 1.01286774323074132975e-01) (102, -1.98012631825558518828e-02) (103, -1.21800344991304689002e-02) (104, -1.21950595526625807374e-01) (105, -2.84804211434176168805e-02) (106, 1.58577449750371773929e-01) (107, -1.34049916918970057900e-01) (108, 3.82288792348189519418e-03) (109, 2.14358188274182195898e-02) (110, -1.56910106886303858144e-03) (111, 4.89230117695602650940e-02) (112, 6.61766957934163124744e-02) (113, -1.04622152652377689575e-01) (114, 2.97423431042837353722e-02) (115, 1.26201141208450665770e-02) (116, 7.24861678481314442024e-02) (117, -7.93029460841024325113e-02) (118, 2.05441490943060245389e-01) (119, -1.42133472044883805291e-02) (120, -2.31100399557568163267e-02) (121, 5.97898031142784502912e-02) (122, -1.29851406840925109876e-01) (123, -1.38291876957134483861e-02) (124, 5.13305015860178546344e-03) (125, 1.49300237953950365455e-01) (126, -2.05511057431953803043e-02) (127, -6.12238051906725047613e-02) (128, -8.83528524199314428678e-03) (129, -3.95495788175434792588e-02) (130, 3.48626621544430512212e-02) (131, -6.83440799673828008887e-02) (132, -6.24113863506746899268e-02) (133, 7.76390826621955500164e-03) (134, 5.45867324993690866686e-02) (135, 1.69858337870154058047e-01) (136, 1.75775719141396863376e-01) (137, -6.23927278099236579112e-02) (138, 1.37731619526516968488e-01) (139, -1.77081565975718800698e-02) (140, -1.20514216741896371121e-01) (141, 1.92144464903342762629e-02) (142, -1.95639006145392396752e-01) (143, 9.44677030925522853710e-02) (144, -4.73140008080881399599e-02) (145, 5.57808123291334626015e-02) (146, 1.25898563247996506803e-02) (147, -1.03433790866495511906e-01) (148, 6.23287603932050141009e-02) (149, -3.99047084270452365184e-02) (150, 6.02130593236801930912e-02) (151, -9.76424505126436415026e-02) (152, 4.97672434439644026383e-02) (153, 1.76803652283556989033e-01) (154, -2.75054520338217228792e-02) (155, -8.96993457063016280673e-02) (156, 1.61208312653616542276e-01) (157, -1.14947906242369071728e-01) (158, 2.95738394304674190316e-01) (159, 2.04732352735888134543e-01) (160, -1.19689759663878202145e-02) (161, 1.31293809628283356800e-02) (162, 7.87361721105116624253e-02) (163, 9.34176958599686885210e-02) (164, -4.45819804759177845677e-02) (165, 1.07746418054216988591e-01) (166, 2.01649118620155332060e-01) (167, 8.75910929795137155329e-02) (168, -1.21378615494602354330e-01) (169, -1.01103741884872019852e-01) (170, 1.53091430763143881988e-01) (171, -7.98740854440211228704e-02) (172, 1.02500548290134413376e-01) (173, 1.91577184984295711967e-01) (174, -2.29222982088824051017e-02) (175, -1.04914576984899317325e-02) (176, 4.76719940618552592837e-02) (177, -8.63845324429609040529e-02) (178, 1.06017991837211777995e-01) (179, 9.45237724466486683994e-02) (180, -5.05338465784424817340e-02) (181, 1.19288422809909842176e-02) (182, -3.11762270198339755400e-02) (183, 1.52569528840607454567e-01) (184, 8.82935385036354714039e-02) (185, 1.14654018485307582220e-01) (186, 1.06375029133071452581e-01) (187, -2.26055212410372838305e-02) (188, -2.32395433573919542314e-02) (189, -1.95068260950756883210e-02) (190, 1.01299359716212442062e-01) (191, -5.94328694222239772849e-02) (192, 1.11472543510459487504e-01) (193, -9.60192515271566376933e-03) (194, -6.38727798431334703455e-02) (195, 3.27023090027390023193e-02) (196, 1.18585281387127886021e-01) (197, -1.96483579643778993873e-01) (198, 2.72262394286214348682e-01) (199, 1.75225162586692073674e-01) (200, -1.51952519360126381276e-01) (201, 1.85132470310712310413e-01) (202, 6.08058110368879106700e-02) (203, 1.14477984045745721092e-02) (204, -5.03372368017728222256e-02) (205, 1.12158497321019276494e-01) (206, 2.12674690325355936205e-01) (207, -1.57520195959290135179e-02) (208, -1.12701169822448682423e-01) (209, -8.27585399385293990493e-02) (210, -1.55677747736214650010e-02) (211, -1.60549577510495200539e-01) (212, -2.19690419787546449559e-02) (213, 1.89436691005261143017e-01) (214, -1.58139451788327972670e-01) (215, -1.40130879319326606680e-01) (216, 5.26310107142851979489e-01) (217, 1.40585655306513179763e-01) (218, 3.26372276298208474632e-01) (219, 8.13781269016815245188e-01) (220, 7.08926021831550179364e-02) (221, 5.15504540062695151836e-02) (222, 1.99482737917031138775e-01) (223, 2.50353828582690174365e-01) (224, -6.51901690129232935789e-02) (225, -7.46784283983519502070e-03) (226, 2.25592183619316516419e-01) (227, 2.16810343924815268624e-01) (228, -2.60322196591671273236e-01) (229, -1.66393259453213288035e-01) (230, 7.44427286800867504812e-02) (231, 7.74565366446993280869e-02) (232, 7.28278785772838305190e-02) (233, -1.79060788089395080125e-02) (234, -4.16550625498069218566e-02) (235, 1.08746589123122974763e-01) (236, 1.48008279219941391025e-01) (237, 2.47613961481274215404e-02) (238, 8.83767282287501038107e-02) (239, 2.80655586216456143234e-01) (240, 1.93142935676689428415e-02) (241, 6.50035338188456324193e-02) (242, 8.29477969033607376304e-02) (243, 2.80458498315612980711e-01) (244, -6.56075923856584142246e-02) (245, 1.28979802012712148340e-02) (246, 1.60581524965542593586e-01) (247, -2.12727486392195463960e-02) (248, -8.06272682797550127587e-02) (249, 7.46822605453011101329e-02) (250, -1.01796836446379657115e-01) (251, 5.27995849141163972607e-02) (252, 1.61572248326250722528e-01) (253, 6.35470117562203090644e-02) (254, -1.65635892736151674187e-01) (255, 1.70580520802877666497e-01) (256, 2.05192771352779690375e-01) (257, -2.33620680572995120805e-02) (258, 6.29645720764047348711e-03) (259, 3.65683167241374895706e-02) (260, 4.22589114650036171226e-04) (261, -2.65399810653690892970e-02) (262, -4.67752392816963846744e-02) (263, 1.11753559646904504499e-01) (264, -1.29584247092638688015e-01) (265, -1.53799189345224778663e-03) (266, 1.41232017203036630537e-01) (267, 3.54594555981661077593e-02) (268, -6.40056590249968443418e-02) (269, 1.48336063210157825809e-01) (270, -2.46044153242125050729e-02) (271, -7.42908274592711109774e-02) (272, 1.33673875754832000018e-01) (273, -8.60114259105826534091e-02) (274, -1.86578802361273443644e-01) (275, -4.71384632655629312592e-02) (276, 1.57008682588177711503e-01) (277, 3.37412789318720777489e-04) (278, 1.86936702528309101057e-01) (279, 2.23689077678388109627e-01) (280, -6.13028592437853958597e-02) (281, 1.35755664503191264547e-01) (282, 2.98612071354784312793e-02) (283, 1.10698324907191295030e-01) (284, -4.77304638607059378286e-02) (285, -2.86731537706038652757e-02) (286, 1.78123351290011888715e-01) (287, 1.42433434008960968509e-01) (288, -1.45145930156239198056e-02) (289, 5.89510091826865104125e-02) (290, 9.52475553599664709337e-02) (291, -9.40692697428872903753e-02) (292, 5.38034501907894771588e-02) (293, -3.36890740957735621008e-02) (294, 2.20389768758411794193e-05) (295, -5.94559587072086056375e-03) (296, 2.49838781409573735398e-03) (297, -7.07197104424382577692e-02) (298, 2.52227213029410257672e-01) (299, 2.09046561122412294376e-01) (300, -1.03833317846309045041e-01) (301, 1.00892727271721424631e-01) (302, -6.73913119027126084060e-02) (303, 8.22219346829838049207e-02) (304, -4.66544152422837463123e-02) (305, -3.79455707946170714417e-02) (306, 1.81490062575391325472e-01) (307, 1.08818845960593824085e-01) (308, 3.91349425714984100466e-02) (309, 3.13850535408932498904e-02) (310, -9.29312189774170877010e-03) (311, 1.15899360965269676571e-01) (312, -9.08254149762888346453e-02) (313, 4.52191418267571809686e-02) (314, -2.01197947103402441371e-01) (315, 1.73813364582837137640e-01) (316, 1.32037570899554923542e-01) (317, -1.20508477374161579454e-01) (318, 1.27573022925655699122e-01) (319, -4.09819747433346880799e-03) (320, 3.46980765572046110159e-03) (321, -2.26555982668361684945e-03) (322, -3.84097021496045826217e-02) (323, 1.19709610650639619589e-01) (324, -2.12345077866876091877e-01) (325, -1.02807051065058663308e-01) (326, 2.70253190444624258326e-01) (327, 7.23405877049793505362e-02) (328, 1.18377107291677483025e-01) (329, 1.33870996116606105764e-01) (330, 5.34410742256766144176e-02) (331, 7.21533693842403844876e-02) (332, 1.71889229716968711115e-02) (333, -6.73972046437992799994e-02) (334, -5.99670168280190749033e-02) (335, -1.57716290837493777754e-01) (336, -1.45671614871256283746e-02) (337, -1.77789672167533330249e-01) (338, 9.63894683993747197759e-02) (339, -5.15596686774119142282e-02) (340, 3.53064163450483858853e-02) (341, -5.91877515026737952009e-02) (342, -1.79847485265813983313e-01) (343, 6.63377369242102721270e-02) (344, -2.22891665609820627258e-01) (345, -1.62691033618070607369e-01) (346, 1.59322022760687742604e-01) (347, 5.84248236935349784388e-03) (348, 3.71350519405002910123e-02) (349, 8.76302341250354555058e-02) (350, 1.58549898797852695242e-01) (351, 4.43197925863393488166e-02) (352, -9.56102860614986838073e-02) (353, -5.27820844221765991811e-02) (354, -3.99497986387198633640e-02) (355, -8.96568055628238769206e-02) (356, 6.57347653350248833926e-02) (357, -1.52511391524292633237e-01) (358, 1.96069663108803360352e-01) (359, 2.78737031504004584281e-01) (360, 9.07077344880103386693e-02) (361, 1.24451460357208387730e-01) (362, -3.45019852773128937740e-02) (363, 1.05481721979097664565e-02) (364, -1.51648904741916046995e-02) (365, -1.57357494084385263200e-01) (366, 2.77317659789441950391e-02) (367, 3.71873189711713694749e-02) (368, 7.66740475325336096057e-02) (369, 1.62114431391223529078e-01) (370, 4.43429973402528279647e-02) (371, -1.69970678506608102731e-01) (372, -7.52985855210529381187e-02) (373, 5.32322583133396781685e-02) (374, 1.65857064125986579037e-03) (375, 4.10868086801451648515e-02) (376, 6.40705025206387834835e-02) (377, 3.07089388337056720668e-02) (378, 1.45127032399835736998e-01) (379, 1.35888537151369892531e-01) (380, -9.60734217529599435204e-03) (381, -6.16153372378570318713e-02) (382, -1.33682394716569785675e-01) (383, -7.05827374521605516167e-02) (384, -2.01953480450583977568e-01) (385, -2.56512921385039886768e-02) (386, 4.00764358338651267843e-03) (387, 5.79363638968043853650e-02) (388, 1.41942190527166889336e-01) (389, 1.02451722045436871555e-01) (390, 1.56925190007367543199e-01) (391, -9.73339244109440865360e-02) (392, 7.20278077424714863186e-02) (393, 7.92003239897910715772e-02) (394, -8.68132238982947772310e-03) (395, 5.54227255971770291221e-02) (396, 5.38656766215701854339e-02) (397, -2.38001510280812178522e-01) (398, 3.32321431468277153631e-02) (399, -6.44561214541202603945e-02) (400, 8.60894111478646001379e-02) (401, -7.99204964984789462124e-02) (402, -7.64120938280521827535e-02) (403, -4.58042818963948702993e-02) (404, -5.72396339677745807917e-02) (405, -9.85558838626846150932e-02) (406, 1.45219340829858850617e-01) (407, 2.62116027687095652643e-02) (408, 2.87460429748935715477e-02) (409, 1.15167428281499159559e-01) (410, 1.16106064561262767310e-01) (411, 7.48054560856513117706e-02) (412, -1.04586178269669205498e-01) (413, -1.18774965923546804714e-01) (414, -7.27390434449784600845e-02) (415, -7.05758732549865708261e-02) (416, -1.49942256748492680485e-01) (417, -1.17399793563043544631e-01) (418, 1.43076431847267097203e-02) (419, -8.71581513308102538706e-03) (420, -5.33133945853602186915e-02) (421, 2.11856328341180656649e-02) (422, -1.48315242433878391459e-01) (423, -1.21293056090428452709e-01) (424, -9.57851402145185604198e-02) (425, -1.33396248565724843960e-02) (426, -1.33325888431894745700e-01) (427, -1.19991155645429406484e-01) (428, 1.02291305305813352844e-02) (429, -1.07997118814997433711e-01) (430, -3.27666965536574025797e-02) (431, 9.92158540798437557640e-03) (432, -1.59648864700424775176e-01) (433, 8.22320253192763833683e-02) (434, -7.22638143191896148432e-02) (435, 3.24046979718606020793e-02) (436, -1.31753819820797118956e-01) (437, -8.47193667997657856583e-02) (438, -6.12881584407531151276e-03) (439, -7.18094551039743650422e-02) (440, 7.04639641109954389941e-02) (441, -3.77747681289410108807e-02) (442, 9.87799800194872346104e-02) (443, -1.67896893951808373613e-01) (444, -3.78976750373466383937e-02) (445, -3.09327718622313084518e-02) (446, 1.43042886895299536931e-01) (447, -6.67430185192372238401e-02) (448, 1.79362610244757671174e-02) (449, -3.91772089760838160277e-02) (450, 7.78696738920863495981e-02) (451, -1.30033374652183342235e-01) (452, 1.24666023400298586754e-01) (453, -1.32889523142120408172e-01) (454, -5.64931916214781587593e-02) (455, -1.78627768178095946983e-01) (456, 4.89800094530746868426e-02) (457, -2.39228688584082777036e-01) (458, 5.48748849356077567085e-02) (459, -2.02377132289650735197e-01) (460, -2.64057407583228147263e-02) (461, -4.69744577501396698427e-02) (462, 6.23637559789065598626e-02) (463, -5.67594209603076646498e-02) (464, 4.01008291574281791614e-02) (465, -3.34106496591206197921e-02) (466, -3.58349392248622014567e-02) (467, 5.12518615131363763915e-02) (468, 5.52942175011522235595e-02) (469, -5.13323253543328458792e-02) (470, -1.60956500960893061913e-01) (471, 9.85350146611335270252e-02) (472, 6.97830904216281949076e-03) (473, -1.20764772839843534391e-01) (474, -2.50854481899620784802e-01) (475, -5.83387966507500355107e-02) (476, -1.41399956929024517294e-01) (477, -1.76425986540796914115e-01) (478, -4.70538762179950539877e-02) (479, -4.46561366329234141204e-02) (480, 1.80912883621820924640e-01) (481, -2.22226782473635364745e-01) (482, -1.13316190896903506991e-01) (483, 9.72564356748580396972e-03) (484, -8.63642103699787805349e-02) (485, 8.90213274640322903795e-04) (486, 6.49713165096466125498e-03) (487, -4.37973793109672146495e-02) (488, -1.28558737046249343949e-01) (489, -6.87718448515792779574e-02) (490, -1.72433100158313923345e-01) (491, 7.53804314591759345998e-03) (492, -1.45105577148089803785e-01) (493, -8.80628378004520567801e-02) (494, 1.01173686528900852455e-01) (495, -1.02779153584803203958e-01) (496, -8.31382565204237533596e-03) (497, -7.88822176970909311189e-02) (498, 5.07261780024192976413e-03) (499, -1.55998135133441871714e-02) (500, -2.19224989740080394851e-02) (501, -3.07958784430957220601e-02) (502, 9.30590792648497283635e-02) (503, -1.60227843423153715197e-01) (504, -2.68671168342598243317e-02) (505, -4.70161749876503581858e-02) (506, 4.12025840631380577128e-02) (507, -1.87532648958753239699e-01) (508, 3.02990199302711482598e-01) (509, -2.24098607364103641348e-01) (510, -2.54779966654904044265e-01) (511, 2.62603934022632268253e-01) (512, -1.67917094173737430074e-01) (513, -2.65955266235224696558e-01) (514, 2.18537569079402860250e-01) (515, -2.13773864474592761864e-01) (516, -2.54071829575725272043e-01) (517, 1.97794455747053732342e-01) (518, -1.87771954001116209154e-01) (519, -2.11261031340904598119e-01) (520, 2.46878112332315130528e-01) (521, -1.32669547806330223594e-01) (522, -1.16947026524369210310e-01) (523, 2.61783428532778306153e-01) (524, -1.21024642727128386999e-01) (525, -1.29938263662173425494e-01) (526, 3.32660431516785315420e-01) (527, -1.64908002800969372137e-01) (528, -2.66120922440493901107e-01) (529, 3.73214835847343440189e-01) (530, -1.53918406927002121565e-01) (531, -2.17234069496498871654e-01) (532, 2.06938608210820412792e-01) (533, 1.20583386215373285916e-02) (534, -3.07894797733977321208e-01) (535, 1.50486970168145633986e-01) (536, -1.97420246786363419444e-02) (537, -2.41211139382097150552e-01) (538, 3.75796329451647953546e-02) (539, -1.93176915636202872761e-02) (540, -1.64367588901357164488e-01) (541, -1.71159398572821197515e-01) (542, 1.46569898149910893270e-01) (543, -4.25052431614256140402e-02) (544, -1.19206031033217058068e-01) (545, -3.20563981876997947801e-03) (546, 3.54269877540672670224e-02) (547, -2.07941782619171650071e-01) (548, 6.09111604264243669538e-02) (549, 9.25119100691892126687e-02) (550, -6.06073750107840800161e-02) (551, 3.07636071865662009614e-03) (552, -4.66382526924519966172e-02) (553, -5.46401157621898558858e-02) (554, -4.87786646211954139085e-02) (555, 2.28882549177657525219e-02) (556, -1.22888226662104596554e-01) (557, 3.26690634767331095079e-02) (558, -1.03030726273214412458e-01) (559, 6.52891222343311011800e-02) (560, -6.83585524124646209954e-02) (561, -8.46241046984862743674e-02) (562, 1.11372080557260083600e-01) (563, 3.04057304490016923337e-02) (564, -5.67535431944069467501e-04) (565, 6.51820722386451528729e-02) (566, 7.99776988998807530917e-02) (567, -8.99195490814063413954e-02) (568, 9.46325819602164691746e-02) (569, -2.94910438820322959308e-02) (570, -7.08711312358481226870e-02) (571, 7.36849967450664417035e-02) (572, 1.53895353054407740823e-01) (573, 1.43418145768549692987e-01) (574, 3.46032927006554913429e-01) (575, 1.36711212000366177932e-01) (576, 1.13570384509677144158e-01) (577, 1.00436689633021214441e-01) (578, 6.17953990689775172623e-03) (579, 1.72228224408522312405e-01) (580, -3.34981410608293367348e-02) (581, 1.64171531003995868625e-01) (582, -1.08470230620052246473e-02) (583, -7.46584639991717830682e-03) (584, -2.98618295434455068016e-02) (585, -7.08090916572768902526e-02) (586, -4.14007637467090627847e-02) (587, -1.03606158649956300866e-01) (588, 4.76854576503422250555e-03) (589, -6.79841699398962828749e-04) (590, -6.55512815950804045295e-02) (591, -9.72958315117087163548e-02) (592, -3.77160932649751590162e-02) (593, 1.71610423790945515465e-01) (594, 1.48913824019975216117e-01) (595, -3.92847465393620330631e-03) (596, -3.61689450369310772082e-02) (597, 9.17018002627606049204e-02) (598, 5.58227498291335934473e-04) (599, -4.23820265558824682550e-02) (600, 1.25466418819255187689e-01) (601, 2.22764240399428888051e-02) (602, -1.58000060848306513039e-02) (603, -1.38273764350340926804e-02) (604, -1.70420909554485147663e-02) (605, -7.14851718465729472907e-03) (606, -3.16726290955231803981e-02) (607, 1.10710872001694965450e-01) (608, 7.03386148874625138916e-02) (609, -5.52848593990615672089e-02) (610, 3.11949702143063528625e-02) (611, 1.05514170645841787177e-01) (612, -4.12299733618390507051e-01) (613, -7.36824650030248884391e-02) (614, -8.64804619289662040993e-02) (615, 4.23576106324844835899e-03) (616, 6.55159036285762191865e-02) (617, -5.46087840867363061292e-02) (618, 1.60923429331003869924e-01) (619, 5.28576110614908598051e-02) (620, 7.66449606726591348149e-02) (621, 1.53808262014434454779e-02) (622, 1.48311700528085427253e-01) (623, 2.21370769947301399005e-01) (624, 1.78006658601591150060e-01) (625, 1.44695341056158083282e-01) (626, 3.43709541465523418791e-02) (627, 5.27790487543747938171e-02) (628, 4.35271999308665946682e-03) (629, 1.12722582428671322385e-01) (630, 1.64002021972637634928e-01) (631, -2.26106772751932638688e-01) (632, 1.23450172469440191958e-01) (633, 8.48469082249794365191e-02) (634, -1.34712107609443127246e-03) (635, 4.38513063408854375513e-02) (636, 3.80959298062781004379e-02) (637, 9.26674194688323349389e-02) (638, -1.24902188214050496873e-01) (639, -1.39613953048740267737e-02) (640, 8.76673825064975230370e-03) (641, 1.00235452570082692048e-01) (642, 6.85190959543581640245e-02) (643, 9.66200161250304750959e-02) (644, 3.34765796592451647662e-02) (645, 9.57814870874080792618e-02) (646, 8.08582938314323512730e-03) (647, 1.98318662632922873557e-02) (648, 2.49141890810719912608e-01) (649, 8.74719537304285144064e-02) (650, 1.00108335559782688634e-02) (651, 9.16799590126848862326e-02) (652, -3.55100157535991681201e-02) (653, 1.11196996305946690931e-01) (654, 1.00460000360011542098e-01) (655, -2.90324355440379419657e-02) (656, 8.03788120153022672687e-02) (657, -1.10047701005155078996e-02) (658, -2.77727550193103585319e-02) (659, 1.20525050596438712547e-01) (660, -8.86310108501175697437e-02) (661, -1.15550814778159080531e-01) (662, -5.79530097088709200692e-02) (663, -4.88324329651573241229e-02) (664, -6.53272554985889347678e-02) (665, -2.62478745303933391764e-01) (666, -1.50506153901278000307e-01) (667, 2.45608718018391902760e-02) (668, -3.50563737977615114128e-02) (669, -1.28211870735310762282e-01) (670, -1.02800323065118423549e-01) (671, -3.22500124592793799283e-02) (672, 8.78730355163224730042e-02) (673, -2.18856033525416354690e-01) (674, -1.29873661202726087271e-01) (675, -1.47063566797977857137e-01) (676, 5.59882757467457525813e-02) (677, 3.97150935124964271639e-02) (678, -9.31868973866470384770e-02) (679, 2.00026356127862237066e-01) (680, 6.18088339471889666732e-02) (681, 7.12772163499098138084e-02) (682, -2.93966472295635640466e-02) (683, 6.54073734968743242257e-02) (684, 1.39367040178330181543e-01) (685, 6.43946080204773341205e-02) (686, 7.49565852915412417223e-02) (687, 5.67684534728141523829e-02) (688, -8.68969377174298208966e-03) (689, 7.67793823745902409561e-02) (690, -9.49202176389792734446e-02) (691, -1.54809456665458283764e-01) (692, -7.53906795577951177600e-02) (693, 3.27027070919706300267e-02) (694, 1.33941327851977598495e-01) (695, -2.74964806010779549972e-02) (696, 4.09962405294096166042e-02) (697, 8.36733189786185160841e-02) (698, 1.87724077291979235538e-01) (699, 1.41892526268057206362e-01) (700, 9.03168200456238023932e-02) (701, 1.72030269587086226402e-01) (702, 1.24658103876810005817e-01) (703, 5.07081817226742379012e-02) (704, 1.86809848034555844865e-02) (705, -2.82442112090872665675e-02) (706, 3.17029844997891926961e-02) (707, 1.11669790499254226179e-01) (708, 1.30533205971622261188e-02) (709, 4.60925873072219050020e-02) (710, 1.92835769287322406074e-02) (711, 9.73046363530350177928e-02) (712, 5.76067640253344823154e-02) (713, 3.03961586101230349377e-02) (714, 1.99082026084038340996e-02) (715, 4.67845225773279999038e-02) (716, -9.06853904847174374648e-02) (717, -1.28384229085201445608e-01) (718, -1.20339421347634700776e-01) (719, -7.01029702277027044754e-02) (720, -7.45227968156197267957e-02) (721, 3.17626427990554864936e-03) (722, -1.80893856978882050512e-02) (723, 4.30037912640355169530e-03) (724, -2.22367838603645812112e-02) (725, -3.34518178866901258472e-02) (726, -2.30952908650967729531e-02) (727, -1.99323215022946635677e-02) (728, -1.66030028003715073026e-02) (729, -4.21715962548285111522e-03) (730, -2.82172887608443528906e-02) (731, -7.23238871663017951485e-02) (732, -6.12638757550976707777e-03) (733, 6.75981738263242981635e-02) (734, 3.94499028164482026804e-02) (735, 1.05265597014824227595e-01) (736, 1.30597808699867923288e-01) (737, -2.73098790841211393199e-02) (738, -1.86867902520187284532e-01) (739, 5.43734283428377110359e-02) (740, -5.84982733731937293298e-02) (741, -1.85125785468163134295e-01) (742, 2.75505027603420125926e-02) (743, -3.20903938418665851673e-02) (744, -9.75666157422292318335e-02) (745, 5.40508190841182262210e-02) (746, -1.34815342468890736471e-01) (747, -2.94281841816523503930e-01) (748, 2.06680297061894654997e-02) (749, -9.10200584587029098982e-02) (750, -1.09663639965266040965e-01) (751, -2.40740296377476396816e-02) (752, 4.60373278714887746582e-03) (753, 6.24472824339681181760e-02) (754, -4.59491671830241713015e-02) (755, -4.34839944650702303619e-02) (756, 9.38006758267672519080e-03) (757, 7.82385994720069533059e-02) (758, 3.64248914633390347140e-02) (759, -4.18450231187457097337e-02) (760, 1.05028136426317097313e-02) (761, -1.27472350999252997950e-01) (762, -3.10854609723847374880e-02) (763, 1.44193150457878865867e-01) (764, -1.78372575860140852866e-01) (765, -1.29782632331610775500e-01) (766, 7.29007962948416271542e-02) (767, -1.87166369196571313882e-01) (768, 9.01954373184858243517e-02) (769, 3.26432569284187748537e-02) (770, 3.35612443984532327068e-02) (771, -1.25282143408209256652e-01) (772, 9.54262826748362297247e-02) (773, -9.99195853511829490401e-02) (774, -3.82897128476706732902e-02) (775, -6.44948353886352770958e-02) (776, -4.82340783952182466932e-02) (777, 1.21579295836881956516e-01) (778, -6.86100121920276834198e-02) (779, 8.93177882730353950302e-02) (780, -4.19468801345652883561e-02) (781, 1.43446021102593079810e-01) (782, -1.20576081410142352257e-01) (783, -1.10211388660880107992e-01) (784, 6.80366548113968960809e-02) (785, -9.32830675523145524952e-02) (786, -3.60984176143443018236e-03) (787, 2.94189355283453295165e-02) (788, -1.48961664357723011509e-01) (789, 5.85023609475078011644e-03) (790, 3.55678112565280743484e-02) (791, 7.98886983827757635179e-02) (792, -4.25882917268612173900e-02) (793, 8.14422879218205386653e-02) (794, 5.36546277274457666939e-02) (795, 4.53101450054123056077e-02) (796, 1.03042648402362616022e-01) (797, 1.50923052288833795670e-03) (798, 1.06857962500695680141e-01) (799, 1.05791258818727043622e-01) (800, 8.91509626887667661066e-02) (801, -5.98520529102728460202e-02) (802, 8.66718669193525387273e-02) (803, 2.36959309709683166312e-02) (804, 3.02664060495417622243e-02) (805, 9.69332794873679487457e-02) (806, 9.30011475739112997152e-02) (807, 3.93409640661166112863e-02) (808, 1.16724277419437055814e-01) (809, 5.52330901932315196379e-02) (810, 2.86941827887592162960e-02) (811, -4.16917477201233580009e-02) (812, -1.29871893686778983046e-01) (813, -6.49680885012397651979e-02) (814, -1.06054178197230314362e-01) (815, -5.27176699059673861680e-02) (816, -1.64735578363640555732e-01) (817, -2.01449121782405846798e-03) (818, -1.68075093965952326869e-01) (819, -1.05363828249298782658e-01) (820, -1.06429245447895670651e-01) (821, -2.75321413679382454021e-01) (822, -1.88168987792950909155e-01) (823, -6.35312079906324850276e-02) (824, -5.31253844887391649121e-02) (825, -3.78901731650592293876e-02) (826, 2.47163500812905938264e-02) (827, -6.27103012031841045015e-02) (828, -1.03708117482030681700e-01) (829, -2.74338475199093594081e-02) (830, 4.59677893496340181367e-02) (831, 1.15684410943568641295e-01) (832, 4.93241605266552043951e-02) (833, 1.11405881583277938107e-01) (834, -1.53626187675584974235e-02) (835, 1.05244486837938910906e-01) (836, 7.23835080450910689498e-02) (837, -3.84662527133067602692e-02) (838, 2.95409647905047513528e-02) (839, 3.14695427857461934584e-02) (840, 4.38154219743672468379e-02) (841, 8.77256914226041961680e-02) (842, 5.13610604272619619692e-02) (843, 7.28238173062311228145e-02) (844, 8.03063092369109450541e-03) (845, -8.17218502232350263448e-02) (846, 8.07667807914988836182e-03) (847, 4.94738313957315614666e-02) (848, -6.75447931450564448275e-02) (849, 5.84368311330785636382e-02) (850, -9.19447376211479788788e-02) (851, -9.33163302997738197675e-02) (852, -4.42097583177597924786e-02) (853, -5.57014372606714283642e-02) (854, 1.07326461166866032881e-01) (855, 5.43412891542803741518e-02) (856, -1.27201938331625019618e-01) (857, 1.09343493965554344749e-01) (858, 1.39598025524079266679e-01) (859, -6.03271566119020774543e-02) (860, -7.11404263140511528007e-02) (861, -1.21917996933398799925e-02) (862, -4.11615084585173277021e-02) (863, 1.10013127323775161681e-01) (864, 2.92332592624161870243e-02) (865, -3.91416496485827783425e-02) (866, 1.35900041083489186988e-01) (867, 2.94919756501521752867e-03) (868, -4.24106848840405479401e-03) (869, -3.54237097675076800796e-02) (870, -1.72715934452388170106e-01) (871, -4.74161837970345709237e-02) (872, -3.05956777111827289695e-02) (873, 1.95338577939357764535e-02) (874, -5.17084893476087784081e-02) (875, 1.45759239814925806167e-01) (876, 9.39934439371265806340e-02) (877, 5.36889826371376860381e-02) (878, 1.06878906761204456322e-01) (879, -3.71386780502233393442e-01) (880, 4.00789334899342430951e-02) (881, 9.77740204826675063376e-02) (882, -1.00956872224259048415e-02) (883, -5.17469866820520069117e-02) (884, 1.04967931770554318699e-02) (885, 4.13942986881347188555e-02) (886, -5.82574775507640543748e-02) (887, 1.79830921241892378870e-02) (888, -9.59791978243323684605e-02) (0, 8.35364403330577515172e-02) (1, 8.44313124820997434883e-02) (2, 1.69073959793695593849e-03) (3, 1.09084924815049458258e-01) (4, -7.96897446073753928930e-02) (5, 3.73438282434910562291e-02) (6, 4.85320317398070522064e-02) (7, 9.39384654533175073032e-02) (8, 6.27867095826484494618e-04) (9, 9.24987837909894972110e-02) (10, -5.01978477190350852455e-02) (11, 7.47471293854038848492e-02) (12, -1.33509668120056490537e-01) (13, -1.54926408493072931272e-02) (14, -5.97197077947210844262e-02) (15, 6.67599141817848320407e-03) (16, 3.73173534390200886679e-02) (17, -8.07737587177128901761e-02) (18, 6.01042132306613130499e-02) (19, 4.61512077883485388741e-02) (20, 5.93746506488650946376e-02) (21, 1.28485923506000271344e-01) (22, -8.66550786584567994675e-02) (23, 1.52005765950889992766e-01) (24, -6.88211813437306085817e-03) (25, -1.13849724414543749390e-02) (26, 1.87860880910340408145e-02) (27, 8.78082802570310377854e-02) (28, 3.29473332391219675408e-02) (29, -9.63019403002499663202e-02) (30, 3.80328030001646699362e-03) (31, 8.60241547345130808111e-02) (32, 6.99938479686536829671e-02) (33, -5.37158763148266604759e-02) (34, 7.56663159400294271784e-02) (35, 3.88797829484809828737e-02) (36, -4.76478223960384150021e-03) (37, 8.06120893800697374543e-02) (38, 4.04242827092735554362e-02) (39, -5.45408105852083283094e-02) (40, -2.35354578499573103417e-03) (41, -9.88850784287396838979e-02) (42, -2.81953745343733672146e-02) (43, 5.70847105159754467096e-02) (44, 1.41773632402114185824e-01) (45, -2.08268784152391764342e-02) (46, -1.38259079401618929089e-02) (47, -6.82320074155640249325e-02) (48, -2.22300892499549852810e-02) (49, -4.55266362974173569023e-02) (50, 1.06792388861603970707e-01) (51, -7.49324998727694674416e-02) (52, 3.18150341848200818307e-02) (53, -9.60192107271367889521e-02) (54, 1.97302690388883351924e-02) (55, 1.08611236117888212971e-01) (56, 1.54002499747236242661e-02) (57, 5.54478038574291107188e-02) (58, 8.41565065422908986648e-02) (59, -2.97186904160425362231e-02) (60, -5.76289868401846927526e-02) (61, -5.65844004573927972235e-02) (62, 1.22309479415459151919e-01) (63, 2.38592183687839631823e-02) (64, 9.61677695348975153378e-02) (65, -7.66490017908205284458e-02) (66, 2.63724125287311365884e-02) (67, -1.25201999480713255242e-01) (68, -1.21969251203887935064e-01) (69, -1.16488410225467325931e-01) (70, 7.67126201939820947379e-03) (71, -1.24465551076670358221e-01) (72, -4.67164281318885252214e-02) (73, 6.44280919736286428190e-02) (74, 1.81795858472462434907e-01) (75, -9.46721162714646707892e-02) (76, -1.00647989315422098366e-01) (77, 6.54398879885469131334e-02) (78, 1.62673757122008613707e-02) (79, 6.95402751496123766595e-02) (80, -4.77723187983259064970e-02) (81, -1.80206318259079146041e-03) (82, -2.03702062728235329392e-02) (83, 3.18173925336893217986e-02) (84, 9.75803819223738516664e-02) (85, -2.93866669979850406169e-02) (86, -2.32452686119938752018e-02) (87, -6.24636940553766617512e-02) (88, -9.73886137671638695001e-03) (89, 2.27984792561827936952e-02) (90, 1.70798981757553230976e-02) (91, 