FANN_FLO_2.1
num_layers=3
learning_rate=0.100000
connection_rate=1.000000
network_type=0
learning_momentum=0.300000
training_algorithm=0
train_error_function=0
train_stop_function=0
cascade_output_change_fraction=0.010000
quickprop_decay=-0.000100
quickprop_mu=1.750000
rprop_increase_factor=1.200000
rprop_decrease_factor=0.500000
rprop_delta_min=0.000000
rprop_delta_max=50.000000
rprop_delta_zero=0.100000
cascade_output_stagnation_epochs=12
cascade_candidate_change_fraction=0.010000
cascade_candidate_stagnation_epochs=12
cascade_max_out_epochs=150
cascade_max_cand_epochs=150
cascade_num_candidate_groups=2
bit_fail_limit=3.49999999999999977796e-01
cascade_candidate_limit=1.00000000000000000000e+03
cascade_weight_multiplier=4.00000000000000022204e-01
cascade_activation_functions_count=10
cascade_activation_functions=3 5 7 8 10 11 14 15 16 17 
cascade_activation_steepnesses_count=4
cascade_activation_steepnesses=2.50000000000000000000e-01 5.00000000000000000000e-01 7.50000000000000000000e-01 1.00000000000000000000e+00 
layer_sizes=889 81 3 
scale_included=0
neurons (num_inputs, activation_function, activation_steepness)=(0, 0, 0.00000000000000000000e+00) (0, 0, 0.00000000000000000000e+00) (0, 0, 0.00000000000000000000e+00) (0, 0, 0.00000000000000000000e+00) (0, 0, 0.00000000000000000000e+00) (0, 0, 0.00000000000000000000e+00) (0, 0, 0.00000000000000000000e+00) (0, 0, 0.00000000000000000000e+00) (0, 0, 0.00000000000000000000e+00) (0, 0, 0.00000000000000000000e+00) (0, 0, 0.00000000000000000000e+00) (0, 0, 0.00000000000000000000e+00) (0, 0, 0.00000000000000000000e+00) (0, 0, 0.00000000000000000000e+00) (0, 0, 0.00000000000000000000e+00) (0, 0, 0.00000000000000000000e+00) (0, 0, 0.00000000000000000000e+00) (0, 0, 0.00000000000000000000e+00) (0, 0, 0.00000000000000000000e+00) (0, 0, 0.00000000000000000000e+00) (0, 0, 0.00000000000000000000e+00) (0, 0, 0.00000000000000000000e+00) (0, 0, 0.00000000000000000000e+00) (0, 0, 0.00000000000000000000e+00) (0, 0, 0.00000000000000000000e+00) (0, 0, 0.00000000000000000000e+00) (0, 0, 0.00000000000000000000e+00) (0, 0, 0.00000000000000000000e+00) (0, 0, 0.00000000000000000000e+00) (0, 0, 0.00000000000000000000e+00) (0, 0, 0.00000000000000000000e+00) (0, 0, 0.00000000000000000000e+00) (0, 0, 0.00000000000000000000e+00) (0, 0, 0.00000000000000000000e+00) (0, 0, 0.00000000000000000000e+00) (0, 0, 0.00000000000000000000e+00) (0, 0, 0.00000000000000000000e+00) (0, 0, 0.00000000000000000000e+00) (0, 0, 0.00000000000000000000e+00) (0, 0, 0.00000000000000000000e+00) (0, 0, 0.00000000000000000000e+00) (0, 0, 0.00000000000000000000e+00) (0, 0, 0.00000000000000000000e+00) (0, 0, 0.00000000000000000000e+00) (0, 0, 0.00000000000000000000e+00) (0, 0, 0.00000000000000000000e+00) (0, 0, 0.00000000000000000000e+00) (0, 0, 0.00000000000000000000e+00) (0, 0, 0.00000000000000000000e+00) (0, 0, 0.00000000000000000000e+00) (0, 0, 0.00000000000000000000e+00) (0, 0, 0.00000000000000000000e+00) (0, 0, 0.00000000000000000000e+00) (0, 0, 0.00000000000000000000e+00) (0, 0, 0.00000000000000000000e+00) (0, 0, 0.00000000000000000000e+00) (0, 0, 0.00000000000000000000e+00) (0, 0, 0.00000000000000000000e+00) (0, 0, 0.00000000000000000000e+00) (0, 0, 0.00000000000000000000e+00) (0, 0, 0.00000000000000000000e+00) (0, 0, 0.00000000000000000000e+00) (0, 0, 0.00000000000000000000e+00) (0, 0, 0.00000000000000000000e+00) (0, 0, 0.00000000000000000000e+00) (0, 0, 0.00000000000000000000e+00) (0, 0, 0.00000000000000000000e+00) (0, 0, 0.00000000000000000000e+00) (0, 0, 0.00000000000000000000e+00) (0, 0, 0.00000000000000000000e+00) (0, 0, 0.00000000000000000000e+00) (0, 0, 0.00000000000000000000e+00) (0, 0, 0.00000000000000000000e+00) (0, 0, 0.00000000000000000000e+00) (0, 0, 0.00000000000000000000e+00) (0, 0, 0.00000000000000000000e+00) (0, 0, 0.00000000000000000000e+00) (0, 0, 0.00000000000000000000e+00) (0, 0, 0.00000000000000000000e+00) (0, 0, 0.00000000000000000000e+00) (0, 0, 0.00000000000000000000e+00) (0, 0, 0.00000000000000000000e+00) (0, 0, 0.00000000000000000000e+00) (0, 0, 0.00000000000000000000e+00) (0, 0, 0.00000000000000000000e+00) (0, 0, 0.00000000000000000000e+00) (0, 0, 0.00000000000000000000e+00) (0, 0, 0.00000000000000000000e+00) (0, 0, 0.00000000000000000000e+00) (0, 0, 0.00000000000000000000e+00) (0, 0, 0.00000000000000000000e+00) (0, 0, 0.00000000000000000000e+00) (0, 0, 0.00000000000000000000e+00) (0, 0, 0.00000000000000000000e+00) (0, 0, 0.00000000000000000000e+00) (0, 0, 0.00000000000000000000e+00) (0, 0, 0.00000000000000000000e+00) (0, 0, 0.00000000000000000000e+00) (0, 0, 0.00000000000000000000e+00) (0, 0, 0.00000000000000000000e+00) (0, 0, 0.00000000000000000000e+00) (0, 0, 0.00000000000000000000e+00) (0, 0, 0.00000000000000000000e+00) (0, 0, 0.00000000000000000000e+00) (0, 0, 0.00000000000000000000e+00) (0, 0, 0.00000000000000000000e+00) (0, 0, 0.00000000000000000000e+00) (0, 0, 0.00000000000000000000e+00) (0, 0, 0.00000000000000000000e+00) (0, 0, 0.00000000000000000000e+00) (0, 0, 0.00000000000000000000e+00) (0, 0, 0.00000000000000000000e+00) (0, 0, 0.00000000000000000000e+00) (0, 0, 0.00000000000000000000e+00) (0, 0, 0.00000000000000000000e+00) (0, 0, 0.00000000000000000000e+00) (0, 0, 0.00000000000000000000e+00) (0, 0, 0.00000000000000000000e+00) (0, 0, 0.00000000000000000000e+00) (0, 0, 0.00000000000000000000e+00) (0, 0, 0.00000000000000000000e+00) (0, 0, 0.00000000000000000000e+00) (0, 0, 0.00000000000000000000e+00) (0, 0, 0.00000000000000000000e+00) (0, 0, 0.00000000000000000000e+00) (0, 0, 0.00000000000000000000e+00) (0, 0, 0.00000000000000000000e+00) (0, 0, 0.00000000000000000000e+00) (0, 0, 0.00000000000000000000e+00) (0, 0, 0.00000000000000000000e+00) (0, 0, 0.00000000000000000000e+00) (0, 0, 0.00000000000000000000e+00) (0, 0, 0.00000000000000000000e+00) (0, 0, 0.00000000000000000000e+00) (0, 0, 0.00000000000000000000e+00) (0, 0, 0.00000000000000000000e+00) (0, 0, 0.00000000000000000000e+00) (0, 0, 0.00000000000000000000e+00) (0, 0, 0.00000000000000000000e+00) (0, 0, 0.00000000000000000000e+00) (0, 0, 0.00000000000000000000e+00) (0, 0, 0.00000000000000000000e+00) (0, 0, 0.00000000000000000000e+00) (0, 0, 0.00000000000000000000e+00) (0, 0, 0.00000000000000000000e+00) (0, 0, 0.00000000000000000000e+00) (0, 0, 0.00000000000000000000e+00) (0, 0, 0.00000000000000000000e+00) (0, 0, 0.00000000000000000000e+00) (0, 0, 0.00000000000000000000e+00) (0, 0, 0.00000000000000000000e+00) (0, 0, 0.00000000000000000000e+00) (0, 0, 0.00000000000000000000e+00) (0, 0, 0.00000000000000000000e+00) (0, 0, 0.00000000000000000000e+00) (0, 0, 0.00000000000000000000e+00) (0, 0, 0.00000000000000000000e+00) (0, 0, 0.00000000000000000000e+00) (0, 0, 0.00000000000000000000e+00) (0, 0, 0.00000000000000000000e+00) (0, 0, 0.00000000000000000000e+00) (0, 0, 0.00000000000000000000e+00) (0, 0, 0.00000000000000000000e+00) (0, 0, 0.00000000000000000000e+00) (0, 0, 0.00000000000000000000e+00) (0, 0, 0.00000000000000000000e+00) (0, 0, 0.00000000000000000000e+00) (0, 0, 0.00000000000000000000e+00) (0, 0, 0.00000000000000000000e+00) (0, 0, 0.00000000000000000000e+00) (0, 0, 0.00000000000000000000e+00) (0, 0, 0.00000000000000000000e+00) (0, 0, 0.00000000000000000000e+00) (0, 0, 0.00000000000000000000e+00) (0, 0, 0.00000000000000000000e+00) (0, 0, 0.00000000000000000000e+00) (0, 0, 0.00000000000000000000e+00) (0, 0, 0.00000000000000000000e+00) (0, 0, 0.00000000000000000000e+00) (0, 0, 0.00000000000000000000e+00) (0, 0, 0.00000000000000000000e+00) (0, 0, 0.00000000000000000000e+00) (0, 0, 0.00000000000000000000e+00) (0, 0, 0.00000000000000000000e+00) (0, 0, 0.00000000000000000000e+00) (0, 0, 0.00000000000000000000e+00) (0, 0, 0.00000000000000000000e+00) (0, 0, 0.00000000000000000000e+00) (0, 0, 0.00000000000000000000e+00) (0, 0, 0.00000000000000000000e+00) (0, 0, 0.00000000000000000000e+00) (0, 0, 0.00000000000000000000e+00) (0, 0, 0.00000000000000000000e+00) (0, 0, 0.00000000000000000000e+00) (0, 0, 0.00000000000000000000e+00) (0, 0, 0.00000000000000000000e+00) (0, 0, 0.00000000000000000000e+00) (0, 0, 0.00000000000000000000e+00) (0, 0, 0.00000000000000000000e+00) (0, 0, 0.00000000000000000000e+00) (0, 0, 0.00000000000000000000e+00) (0, 0, 0.00000000000000000000e+00) (0, 0, 0.00000000000000000000e+00) (0, 0, 0.00000000000000000000e+00) (0, 0, 0.00000000000000000000e+00) (0, 0, 0.00000000000000000000e+00) (0, 0, 0.00000000000000000000e+00) (0, 0, 0.00000000000000000000e+00) (0, 0, 0.00000000000000000000e+00) (0, 0, 0.00000000000000000000e+00) (0, 0, 0.00000000000000000000e+00) (0, 0, 0.00000000000000000000e+00) (0, 0, 0.00000000000000000000e+00) (0, 0, 0.00000000000000000000e+00) (0, 0, 0.00000000000000000000e+00) (0, 0, 0.00000000000000000000e+00) (0, 0, 0.00000000000000000000e+00) (0, 0, 0.00000000000000000000e+00) (0, 0, 0.00000000000000000000e+00) (0, 0, 0.00000000000000000000e+00) (0, 0, 0.00000000000000000000e+00) (0, 0, 0.00000000000000000000e+00) (0, 0, 0.00000000000000000000e+00) (0, 0, 0.00000000000000000000e+00) (0, 0, 0.00000000000000000000e+00) (0, 0, 0.00000000000000000000e+00) (0, 0, 0.00000000000000000000e+00) (0, 0, 0.00000000000000000000e+00) (0, 0, 0.00000000000000000000e+00) (0, 0, 0.00000000000000000000e+00) (0, 0, 0.00000000000000000000e+00) (0, 0, 0.00000000000000000000e+00) (0, 0, 0.00000000000000000000e+00) (0, 0, 0.00000000000000000000e+00) (0, 0, 0.00000000000000000000e+00) (0, 0, 0.00000000000000000000e+00) (0, 0, 0.00000000000000000000e+00) (0, 0, 0.00000000000000000000e+00) (0, 0, 0.00000000000000000000e+00) (0, 0, 0.00000000000000000000e+00) (0, 0, 0.00000000000000000000e+00) (0, 0, 0.00000000000000000000e+00) (0, 0, 0.00000000000000000000e+00) (0, 0, 0.00000000000000000000e+00) (0, 0, 0.00000000000000000000e+00) (0, 0, 0.00000000000000000000e+00) (0, 0, 0.00000000000000000000e+00) (0, 0, 0.00000000000000000000e+00) (0, 0, 0.00000000000000000000e+00) (0, 0, 0.00000000000000000000e+00) (0, 0, 0.00000000000000000000e+00) (0, 0, 0.00000000000000000000e+00) (0, 0, 0.00000000000000000000e+00) (0, 0, 0.00000000000000000000e+00) (0, 0, 0.00000000000000000000e+00) (0, 0, 0.00000000000000000000e+00) (0, 0, 0.00000000000000000000e+00) (0, 0, 0.00000000000000000000e+00) (0, 0, 0.00000000000000000000e+00) (0, 0, 0.00000000000000000000e+00) (0, 0, 0.00000000000000000000e+00) (0, 0, 0.00000000000000000000e+00) (0, 0, 0.00000000000000000000e+00) (0, 0, 0.00000000000000000000e+00) (0, 0, 0.00000000000000000000e+00) (0, 0, 0.00000000000000000000e+00) (0, 0, 0.00000000000000000000e+00) (0, 0, 0.00000000000000000000e+00) (0, 0, 0.00000000000000000000e+00) (0, 0, 0.00000000000000000000e+00) (0, 0, 0.00000000000000000000e+00) (0, 0, 0.00000000000000000000e+00) (0, 0, 0.00000000000000000000e+00) (0, 0, 0.00000000000000000000e+00) (0, 0, 0.00000000000000000000e+00) (0, 0, 0.00000000000000000000e+00) (0, 0, 0.00000000000000000000e+00) (0, 0, 0.00000000000000000000e+00) (0, 0, 0.00000000000000000000e+00) (0, 0, 0.00000000000000000000e+00) (0, 0, 0.00000000000000000000e+00) (0, 0, 0.00000000000000000000e+00) (0, 0, 0.00000000000000000000e+00) (0, 0, 0.00000000000000000000e+00) (0, 0, 0.00000000000000000000e+00) (0, 0, 0.00000000000000000000e+00) (0, 0, 0.00000000000000000000e+00) (0, 0, 0.00000000000000000000e+00) (0, 0, 0.00000000000000000000e+00) (0, 0, 0.00000000000000000000e+00) (0, 0, 0.00000000000000000000e+00) (0, 0, 0.00000000000000000000e+00) (0, 0, 0.00000000000000000000e+00) (0, 0, 0.00000000000000000000e+00) (0, 0, 0.00000000000000000000e+00) (0, 0, 0.00000000000000000000e+00) (0, 0, 0.00000000000000000000e+00) (0, 0, 0.00000000000000000000e+00) (0, 0, 0.00000000000000000000e+00) (0, 0, 0.00000000000000000000e+00) (0, 0, 0.00000000000000000000e+00) (0, 0, 0.00000000000000000000e+00) (0, 0, 0.00000000000000000000e+00) (0, 0, 0.00000000000000000000e+00) (0, 0, 0.00000000000000000000e+00) (0, 0, 0.00000000000000000000e+00) (0, 0, 0.00000000000000000000e+00) (0, 0, 0.00000000000000000000e+00) (0, 0, 0.00000000000000000000e+00) (0, 0, 0.00000000000000000000e+00) (0, 0, 0.00000000000000000000e+00) (0, 0, 0.00000000000000000000e+00) (0, 0, 0.00000000000000000000e+00) (0, 0, 0.00000000000000000000e+00) (0, 0, 0.00000000000000000000e+00) (0, 0, 0.00000000000000000000e+00) (0, 0, 0.00000000000000000000e+00) (0, 0, 0.00000000000000000000e+00) (0, 0, 0.00000000000000000000e+00) (0, 0, 0.00000000000000000000e+00) (0, 0, 0.00000000000000000000e+00) (0, 0, 0.00000000000000000000e+00) (0, 0, 0.00000000000000000000e+00) (0, 0, 0.00000000000000000000e+00) (0, 0, 0.00000000000000000000e+00) (0, 0, 0.00000000000000000000e+00) (0, 0, 0.00000000000000000000e+00) (0, 0, 0.00000000000000000000e+00) (0, 0, 0.00000000000000000000e+00) (0, 0, 0.00000000000000000000e+00) (0, 0, 0.00000000000000000000e+00) (0, 0, 0.00000000000000000000e+00) (0, 0, 0.00000000000000000000e+00) (0, 0, 0.00000000000000000000e+00) (0, 0, 0.00000000000000000000e+00) (0, 0, 0.00000000000000000000e+00) (0, 0, 0.00000000000000000000e+00) (0, 0, 0.00000000000000000000e+00) (0, 0, 0.00000000000000000000e+00) (0, 0, 0.00000000000000000000e+00) (0, 0, 0.00000000000000000000e+00) (0, 0, 0.00000000000000000000e+00) (0, 0, 0.00000000000000000000e+00) (0, 0, 0.00000000000000000000e+00) (0, 0, 0.00000000000000000000e+00) (0, 0, 0.00000000000000000000e+00) (0, 0, 0.00000000000000000000e+00) (0, 0, 0.00000000000000000000e+00) (0, 0, 0.00000000000000000000e+00) (0, 0, 0.00000000000000000000e+00) (0, 0, 0.00000000000000000000e+00) (0, 0, 0.00000000000000000000e+00) (0, 0, 0.00000000000000000000e+00) (0, 0, 0.00000000000000000000e+00) (0, 0, 0.00000000000000000000e+00) (0, 0, 0.00000000000000000000e+00) (0, 0, 0.00000000000000000000e+00) (0, 0, 0.00000000000000000000e+00) (0, 0, 0.00000000000000000000e+00) (0, 0, 0.00000000000000000000e+00) (0, 0, 0.00000000000000000000e+00) (0, 0, 0.00000000000000000000e+00) (0, 0, 0.00000000000000000000e+00) (0, 0, 0.00000000000000000000e+00) (0, 0, 0.00000000000000000000e+00) (0, 0, 0.00000000000000000000e+00) (0, 0, 0.00000000000000000000e+00) (0, 0, 0.00000000000000000000e+00) (0, 0, 0.00000000000000000000e+00) (0, 0, 0.00000000000000000000e+00) (0, 0, 0.00000000000000000000e+00) (0, 0, 0.00000000000000000000e+00) (0, 0, 0.00000000000000000000e+00) (0, 0, 0.00000000000000000000e+00) (0, 0, 0.00000000000000000000e+00) (0, 0, 0.00000000000000000000e+00) (0, 0, 0.00000000000000000000e+00) (0, 0, 0.00000000000000000000e+00) (0, 0, 0.00000000000000000000e+00) (0, 0, 0.00000000000000000000e+00) (0, 0, 0.00000000000000000000e+00) (0, 0, 0.00000000000000000000e+00) (0, 0, 0.00000000000000000000e+00) (0, 0, 0.00000000000000000000e+00) (0, 0, 0.00000000000000000000e+00) (0, 0, 0.00000000000000000000e+00) (0, 0, 0.00000000000000000000e+00) (0, 0, 0.00000000000000000000e+00) (0, 0, 0.00000000000000000000e+00) (0, 0, 0.00000000000000000000e+00) (0, 0, 0.00000000000000000000e+00) (0, 0, 0.00000000000000000000e+00) (0, 0, 0.00000000000000000000e+00) (0, 0, 0.00000000000000000000e+00) (0, 0, 0.00000000000000000000e+00) (0, 0, 0.00000000000000000000e+00) (0, 0, 0.00000000000000000000e+00) (0, 0, 0.00000000000000000000e+00) (0, 0, 0.00000000000000000000e+00) (0, 0, 0.00000000000000000000e+00) (0, 0, 0.00000000000000000000e+00) (0, 0, 0.00000000000000000000e+00) (0, 0, 0.00000000000000000000e+00) (0, 0, 0.00000000000000000000e+00) (0, 0, 0.00000000000000000000e+00) (0, 0, 0.00000000000000000000e+00) (0, 0, 0.00000000000000000000e+00) (0, 0, 0.00000000000000000000e+00) (0, 0, 0.00000000000000000000e+00) (0, 0, 0.00000000000000000000e+00) (0, 0, 0.00000000000000000000e+00) (0, 0, 0.00000000000000000000e+00) (0, 0, 0.00000000000000000000e+00) (0, 0, 0.00000000000000000000e+00) (0, 0, 0.00000000000000000000e+00) (0, 0, 0.00000000000000000000e+00) (0, 0, 0.00000000000000000000e+00) (0, 0, 0.00000000000000000000e+00) (0, 0, 0.00000000000000000000e+00) (0, 0, 0.00000000000000000000e+00) (0, 0, 0.00000000000000000000e+00) (0, 0, 0.00000000000000000000e+00) (0, 0, 0.00000000000000000000e+00) (0, 0, 0.00000000000000000000e+00) (0, 0, 0.00000000000000000000e+00) (0, 0, 0.00000000000000000000e+00) (0, 0, 0.00000000000000000000e+00) (0, 0, 0.00000000000000000000e+00) (0, 0, 0.00000000000000000000e+00) (0, 0, 0.00000000000000000000e+00) (0, 0, 0.00000000000000000000e+00) (0, 0, 0.00000000000000000000e+00) (0, 0, 0.00000000000000000000e+00) (0, 0, 0.00000000000000000000e+00) (0, 0, 0.00000000000000000000e+00) (0, 0, 0.00000000000000000000e+00) (0, 0, 0.00000000000000000000e+00) (0, 0, 0.00000000000000000000e+00) (0, 0, 0.00000000000000000000e+00) (0, 0, 0.00000000000000000000e+00) (0, 0, 0.00000000000000000000e+00) (0, 0, 0.00000000000000000000e+00) (0, 0, 0.00000000000000000000e+00) (0, 0, 0.00000000000000000000e+00) (0, 0, 0.00000000000000000000e+00) (0, 0, 0.00000000000000000000e+00) (0, 0, 0.00000000000000000000e+00) (0, 0, 0.00000000000000000000e+00) (0, 0, 0.00000000000000000000e+00) (0, 0, 0.00000000000000000000e+00) (0, 0, 0.00000000000000000000e+00) (0, 0, 0.00000000000000000000e+00) (0, 0, 0.00000000000000000000e+00) (0, 0, 0.00000000000000000000e+00) (0, 0, 0.00000000000000000000e+00) (0, 0, 0.00000000000000000000e+00) (0, 0, 0.00000000000000000000e+00) (0, 0, 0.00000000000000000000e+00) (0, 0, 0.00000000000000000000e+00) (0, 0, 0.00000000000000000000e+00) (0, 0, 0.00000000000000000000e+00) (0, 0, 0.00000000000000000000e+00) (0, 0, 0.00000000000000000000e+00) (0, 0, 0.00000000000000000000e+00) (0, 0, 0.00000000000000000000e+00) (0, 0, 0.00000000000000000000e+00) (0, 0, 0.00000000000000000000e+00) (0, 0, 0.00000000000000000000e+00) (0, 0, 0.00000000000000000000e+00) (0, 0, 0.00000000000000000000e+00) (0, 0, 0.00000000000000000000e+00) (0, 0, 0.00000000000000000000e+00) (0, 0, 0.00000000000000000000e+00) (0, 0, 0.00000000000000000000e+00) (0, 0, 0.00000000000000000000e+00) (0, 0, 0.00000000000000000000e+00) (0, 0, 0.00000000000000000000e+00) (0, 0, 0.00000000000000000000e+00) (0, 0, 0.00000000000000000000e+00) (0, 0, 0.00000000000000000000e+00) (0, 0, 0.00000000000000000000e+00) (0, 0, 0.00000000000000000000e+00) (0, 0, 0.00000000000000000000e+00) (0, 0, 0.00000000000000000000e+00) (0, 0, 0.00000000000000000000e+00) (0, 0, 0.00000000000000000000e+00) (0, 0, 0.00000000000000000000e+00) (0, 0, 0.00000000000000000000e+00) (0, 0, 0.00000000000000000000e+00) (0, 0, 0.00000000000000000000e+00) (0, 0, 0.00000000000000000000e+00) (0, 0, 0.00000000000000000000e+00) (0, 0, 0.00000000000000000000e+00) (0, 0, 0.00000000000000000000e+00) (0, 0, 0.00000000000000000000e+00) (0, 0, 0.00000000000000000000e+00) (0, 0, 0.00000000000000000000e+00) (0, 0, 0.00000000000000000000e+00) (0, 0, 0.00000000000000000000e+00) (0, 0, 0.00000000000000000000e+00) (0, 0, 0.00000000000000000000e+00) (0, 0, 0.00000000000000000000e+00) (0, 0, 0.00000000000000000000e+00) (0, 0, 0.00000000000000000000e+00) (0, 0, 0.00000000000000000000e+00) (0, 0, 0.00000000000000000000e+00) (0, 0, 0.00000000000000000000e+00) (0, 0, 0.00000000000000000000e+00) (0, 0, 0.00000000000000000000e+00) (0, 0, 0.00000000000000000000e+00) (0, 0, 0.00000000000000000000e+00) (0, 0, 0.00000000000000000000e+00) (0, 0, 0.00000000000000000000e+00) (0, 0, 0.00000000000000000000e+00) (0, 0, 0.00000000000000000000e+00) (0, 0, 0.00000000000000000000e+00) (0, 0, 0.00000000000000000000e+00) (0, 0, 0.00000000000000000000e+00) (0, 0, 0.00000000000000000000e+00) (0, 0, 0.00000000000000000000e+00) (0, 0, 0.00000000000000000000e+00) (0, 0, 0.00000000000000000000e+00) (0, 0, 0.00000000000000000000e+00) (0, 0, 0.00000000000000000000e+00) (0, 0, 0.00000000000000000000e+00) (0, 0, 0.00000000000000000000e+00) (0, 0, 0.00000000000000000000e+00) (0, 0, 0.00000000000000000000e+00) (0, 0, 0.00000000000000000000e+00) (0, 0, 0.00000000000000000000e+00) (0, 0, 0.00000000000000000000e+00) (0, 0, 0.00000000000000000000e+00) (0, 0, 0.00000000000000000000e+00) (0, 0, 0.00000000000000000000e+00) (0, 0, 0.00000000000000000000e+00) (0, 0, 0.00000000000000000000e+00) (0, 0, 0.00000000000000000000e+00) (0, 0, 0.00000000000000000000e+00) (0, 0, 0.00000000000000000000e+00) (0, 0, 0.00000000000000000000e+00) (0, 0, 0.00000000000000000000e+00) (0, 0, 0.00000000000000000000e+00) (0, 0, 0.00000000000000000000e+00) (0, 0, 0.00000000000000000000e+00) (0, 0, 0.00000000000000000000e+00) (0, 0, 0.00000000000000000000e+00) (0, 0, 0.00000000000000000000e+00) (0, 0, 0.00000000000000000000e+00) (0, 0, 0.00000000000000000000e+00) (0, 0, 0.00000000000000000000e+00) (0, 0, 0.00000000000000000000e+00) (0, 0, 0.00000000000000000000e+00) (0, 0, 0.00000000000000000000e+00) (0, 0, 0.00000000000000000000e+00) (0, 0, 0.00000000000000000000e+00) (0, 0, 0.00000000000000000000e+00) (0, 0, 0.00000000000000000000e+00) (0, 0, 0.00000000000000000000e+00) (0, 0, 0.00000000000000000000e+00) (0, 0, 0.00000000000000000000e+00) (0, 0, 0.00000000000000000000e+00) (0, 0, 0.00000000000000000000e+00) (0, 0, 0.00000000000000000000e+00) (0, 0, 0.00000000000000000000e+00) (0, 0, 0.00000000000000000000e+00) (0, 0, 0.00000000000000000000e+00) (0, 0, 0.00000000000000000000e+00) (0, 0, 0.00000000000000000000e+00) (0, 0, 0.00000000000000000000e+00) (0, 0, 0.00000000000000000000e+00) (0, 0, 0.00000000000000000000e+00) (0, 0, 0.00000000000000000000e+00) (0, 0, 0.00000000000000000000e+00) (0, 0, 0.00000000000000000000e+00) (0, 0, 0.00000000000000000000e+00) (0, 0, 0.00000000000000000000e+00) (0, 0, 0.00000000000000000000e+00) (0, 0, 0.00000000000000000000e+00) (0, 0, 0.00000000000000000000e+00) (0, 0, 0.00000000000000000000e+00) (0, 0, 0.00000000000000000000e+00) (0, 0, 0.00000000000000000000e+00) (0, 0, 0.00000000000000000000e+00) (0, 0, 0.00000000000000000000e+00) (0, 0, 0.00000000000000000000e+00) (0, 0, 0.00000000000000000000e+00) (0, 0, 0.00000000000000000000e+00) (0, 0, 0.00000000000000000000e+00) (0, 0, 0.00000000000000000000e+00) (0, 0, 0.00000000000000000000e+00) (0, 0, 0.00000000000000000000e+00) (0, 0, 0.00000000000000000000e+00) (0, 0, 0.00000000000000000000e+00) (0, 0, 0.00000000000000000000e+00) (0, 0, 0.00000000000000000000e+00) (0, 0, 0.00000000000000000000e+00) (0, 0, 0.00000000000000000000e+00) (0, 0, 0.00000000000000000000e+00) (0, 0, 0.00000000000000000000e+00) (0, 0, 0.00000000000000000000e+00) (0, 0, 0.00000000000000000000e+00) (0, 0, 0.00000000000000000000e+00) (0, 0, 0.00000000000000000000e+00) (0, 0, 0.00000000000000000000e+00) (0, 0, 0.00000000000000000000e+00) (0, 0, 0.00000000000000000000e+00) (0, 0, 0.00000000000000000000e+00) (0, 0, 0.00000000000000000000e+00) (0, 0, 0.00000000000000000000e+00) (0, 0, 0.00000000000000000000e+00) (0, 0, 0.00000000000000000000e+00) (0, 0, 0.00000000000000000000e+00) (0, 0, 0.00000000000000000000e+00) (0, 0, 0.00000000000000000000e+00) (0, 0, 0.00000000000000000000e+00) (0, 0, 0.00000000000000000000e+00) (0, 0, 0.00000000000000000000e+00) (0, 0, 0.00000000000000000000e+00) (0, 0, 0.00000000000000000000e+00) (0, 0, 0.00000000000000000000e+00) (0, 0, 0.00000000000000000000e+00) (0, 0, 0.00000000000000000000e+00) (0, 0, 0.00000000000000000000e+00) (0, 0, 0.00000000000000000000e+00) (0, 0, 0.00000000000000000000e+00) (0, 0, 0.00000000000000000000e+00) (0, 0, 0.00000000000000000000e+00) (0, 0, 0.00000000000000000000e+00) (0, 0, 0.00000000000000000000e+00) (0, 0, 0.00000000000000000000e+00) (0, 0, 0.00000000000000000000e+00) (0, 0, 0.00000000000000000000e+00) (0, 0, 0.00000000000000000000e+00) (0, 0, 0.00000000000000000000e+00) (0, 0, 0.00000000000000000000e+00) (0, 0, 0.00000000000000000000e+00) (0, 0, 0.00000000000000000000e+00) (0, 0, 0.00000000000000000000e+00) (0, 0, 0.00000000000000000000e+00) (0, 0, 0.00000000000000000000e+00) (0, 0, 0.00000000000000000000e+00) (0, 0, 0.00000000000000000000e+00) (0, 0, 0.00000000000000000000e+00) (0, 0, 0.00000000000000000000e+00) (0, 0, 0.00000000000000000000e+00) (0, 0, 0.00000000000000000000e+00) (0, 0, 0.00000000000000000000e+00) (0, 0, 0.00000000000000000000e+00) (0, 0, 0.00000000000000000000e+00) (0, 0, 0.00000000000000000000e+00) (0, 0, 0.00000000000000000000e+00) (0, 0, 0.00000000000000000000e+00) (0, 0, 0.00000000000000000000e+00) (0, 0, 0.00000000000000000000e+00) (0, 0, 0.00000000000000000000e+00) (0, 0, 0.00000000000000000000e+00) (0, 0, 0.00000000000000000000e+00) (0, 0, 0.00000000000000000000e+00) (0, 0, 0.00000000000000000000e+00) (0, 0, 0.00000000000000000000e+00) (0, 0, 0.00000000000000000000e+00) (0, 0, 0.00000000000000000000e+00) (0, 0, 0.00000000000000000000e+00) (0, 0, 0.00000000000000000000e+00) (0, 0, 0.00000000000000000000e+00) (0, 0, 0.00000000000000000000e+00) (0, 0, 0.00000000000000000000e+00) (0, 0, 0.00000000000000000000e+00) (0, 0, 0.00000000000000000000e+00) (0, 0, 0.00000000000000000000e+00) (0, 0, 0.00000000000000000000e+00) (0, 0, 0.00000000000000000000e+00) (0, 0, 0.00000000000000000000e+00) (0, 0, 0.00000000000000000000e+00) (0, 0, 0.00000000000000000000e+00) (0, 0, 0.00000000000000000000e+00) (0, 0, 0.00000000000000000000e+00) (0, 0, 0.00000000000000000000e+00) (0, 0, 0.00000000000000000000e+00) (0, 0, 0.00000000000000000000e+00) (0, 0, 0.00000000000000000000e+00) (0, 0, 0.00000000000000000000e+00) (0, 0, 0.00000000000000000000e+00) (0, 0, 0.00000000000000000000e+00) (0, 0, 0.00000000000000000000e+00) (0, 0, 0.00000000000000000000e+00) (0, 0, 0.00000000000000000000e+00) (0, 0, 0.00000000000000000000e+00) (0, 0, 0.00000000000000000000e+00) (0, 0, 0.00000000000000000000e+00) (0, 0, 0.00000000000000000000e+00) (0, 0, 0.00000000000000000000e+00) (0, 0, 0.00000000000000000000e+00) (0, 0, 0.00000000000000000000e+00) (0, 0, 0.00000000000000000000e+00) (0, 0, 0.00000000000000000000e+00) (0, 0, 0.00000000000000000000e+00) (0, 0, 0.00000000000000000000e+00) (0, 0, 0.00000000000000000000e+00) (0, 0, 0.00000000000000000000e+00) (0, 0, 0.00000000000000000000e+00) (0, 0, 0.00000000000000000000e+00) (0, 0, 0.00000000000000000000e+00) (0, 0, 0.00000000000000000000e+00) (0, 0, 0.00000000000000000000e+00) (0, 0, 0.00000000000000000000e+00) (0, 0, 0.00000000000000000000e+00) (0, 0, 0.00000000000000000000e+00) (0, 0, 0.00000000000000000000e+00) (0, 0, 0.00000000000000000000e+00) (0, 0, 0.00000000000000000000e+00) (0, 0, 0.00000000000000000000e+00) (0, 0, 0.00000000000000000000e+00) (0, 0, 0.00000000000000000000e+00) (0, 0, 0.00000000000000000000e+00) (0, 0, 0.00000000000000000000e+00) (0, 0, 0.00000000000000000000e+00) (0, 0, 0.00000000000000000000e+00) (0, 0, 0.00000000000000000000e+00) (0, 0, 0.00000000000000000000e+00) (0, 0, 0.00000000000000000000e+00) (0, 0, 0.00000000000000000000e+00) (0, 0, 0.00000000000000000000e+00) (0, 0, 0.00000000000000000000e+00) (0, 0, 0.00000000000000000000e+00) (0, 0, 0.00000000000000000000e+00) (0, 0, 0.00000000000000000000e+00) (0, 0, 0.00000000000000000000e+00) (0, 0, 0.00000000000000000000e+00) (0, 0, 0.00000000000000000000e+00) (0, 0, 0.00000000000000000000e+00) (0, 0, 0.00000000000000000000e+00) (0, 0, 0.00000000000000000000e+00) (0, 0, 0.00000000000000000000e+00) (0, 0, 0.00000000000000000000e+00) (0, 0, 0.00000000000000000000e+00) (0, 0, 0.00000000000000000000e+00) (0, 0, 0.00000000000000000000e+00) (0, 0, 0.00000000000000000000e+00) (0, 0, 0.00000000000000000000e+00) (0, 0, 0.00000000000000000000e+00) (0, 0, 0.00000000000000000000e+00) (0, 0, 0.00000000000000000000e+00) (0, 0, 0.00000000000000000000e+00) (0, 0, 0.00000000000000000000e+00) (0, 0, 0.00000000000000000000e+00) (0, 0, 0.00000000000000000000e+00) (0, 0, 0.00000000000000000000e+00) (0, 0, 0.00000000000000000000e+00) (0, 0, 0.00000000000000000000e+00) (0, 0, 0.00000000000000000000e+00) (0, 0, 0.00000000000000000000e+00) (0, 0, 0.00000000000000000000e+00) (0, 0, 0.00000000000000000000e+00) (0, 0, 0.00000000000000000000e+00) (0, 0, 0.00000000000000000000e+00) (0, 0, 0.00000000000000000000e+00) (0, 0, 0.00000000000000000000e+00) (0, 0, 0.00000000000000000000e+00) (0, 0, 0.00000000000000000000e+00) (0, 0, 0.00000000000000000000e+00) (0, 0, 0.00000000000000000000e+00) (0, 0, 0.00000000000000000000e+00) (0, 0, 0.00000000000000000000e+00) (0, 0, 0.00000000000000000000e+00) (0, 0, 0.00000000000000000000e+00) (0, 0, 0.00000000000000000000e+00) (0, 0, 0.00000000000000000000e+00) (0, 0, 0.00000000000000000000e+00) (0, 0, 0.00000000000000000000e+00) (0, 0, 0.00000000000000000000e+00) (0, 0, 0.00000000000000000000e+00) (0, 0, 0.00000000000000000000e+00) (0, 0, 0.00000000000000000000e+00) (0, 0, 0.00000000000000000000e+00) (0, 0, 0.00000000000000000000e+00) (0, 0, 0.00000000000000000000e+00) (0, 0, 0.00000000000000000000e+00) (0, 0, 0.00000000000000000000e+00) (0, 0, 0.00000000000000000000e+00) (0, 0, 0.00000000000000000000e+00) (0, 0, 0.00000000000000000000e+00) (0, 0, 0.00000000000000000000e+00) (0, 0, 0.00000000000000000000e+00) (0, 0, 0.00000000000000000000e+00) (0, 0, 0.00000000000000000000e+00) (0, 0, 0.00000000000000000000e+00) (0, 0, 0.00000000000000000000e+00) (0, 0, 0.00000000000000000000e+00) (0, 0, 0.00000000000000000000e+00) (0, 0, 0.00000000000000000000e+00) (0, 0, 0.00000000000000000000e+00) (0, 0, 0.00000000000000000000e+00) (0, 0, 0.00000000000000000000e+00) (0, 0, 0.00000000000000000000e+00) (0, 0, 0.00000000000000000000e+00) (0, 0, 0.00000000000000000000e+00) (0, 0, 0.00000000000000000000e+00) (0, 0, 0.00000000000000000000e+00) (0, 0, 0.00000000000000000000e+00) (0, 0, 0.00000000000000000000e+00) (0, 0, 0.00000000000000000000e+00) (0, 0, 0.00000000000000000000e+00) (0, 0, 0.00000000000000000000e+00) (0, 0, 0.00000000000000000000e+00) (0, 0, 0.00000000000000000000e+00) (0, 0, 0.00000000000000000000e+00) (0, 0, 0.00000000000000000000e+00) (0, 0, 0.00000000000000000000e+00) (0, 0, 0.00000000000000000000e+00) (0, 0, 0.00000000000000000000e+00) (0, 0, 0.00000000000000000000e+00) (0, 0, 0.00000000000000000000e+00) (0, 0, 0.00000000000000000000e+00) (0, 0, 0.00000000000000000000e+00) (0, 0, 0.00000000000000000000e+00) (0, 0, 0.00000000000000000000e+00) (0, 0, 0.00000000000000000000e+00) (0, 0, 0.00000000000000000000e+00) (0, 0, 0.00000000000000000000e+00) (0, 0, 0.00000000000000000000e+00) (0, 0, 0.00000000000000000000e+00) (0, 0, 0.00000000000000000000e+00) (0, 0, 0.00000000000000000000e+00) (0, 0, 0.00000000000000000000e+00) (0, 0, 0.00000000000000000000e+00) (0, 0, 0.00000000000000000000e+00) (0, 0, 0.00000000000000000000e+00) (0, 0, 0.00000000000000000000e+00) (0, 0, 0.00000000000000000000e+00) (0, 0, 0.00000000000000000000e+00) (0, 0, 0.00000000000000000000e+00) (0, 0, 0.00000000000000000000e+00) (0, 0, 0.00000000000000000000e+00) (0, 0, 0.00000000000000000000e+00) (0, 0, 0.00000000000000000000e+00) (0, 0, 0.00000000000000000000e+00) (0, 0, 0.00000000000000000000e+00) (0, 0, 0.00000000000000000000e+00) (0, 0, 0.00000000000000000000e+00) (0, 0, 0.00000000000000000000e+00) (0, 0, 0.00000000000000000000e+00) (0, 0, 0.00000000000000000000e+00) (0, 0, 0.00000000000000000000e+00) (0, 0, 0.00000000000000000000e+00) (0, 0, 0.00000000000000000000e+00) (0, 0, 0.00000000000000000000e+00) (0, 0, 0.00000000000000000000e+00) (0, 0, 0.00000000000000000000e+00) (0, 0, 0.00000000000000000000e+00) (0, 0, 0.00000000000000000000e+00) (0, 0, 0.00000000000000000000e+00) (0, 0, 0.00000000000000000000e+00) (0, 0, 0.00000000000000000000e+00) (0, 0, 0.00000000000000000000e+00) (0, 0, 0.00000000000000000000e+00) (0, 0, 0.00000000000000000000e+00) (0, 0, 0.00000000000000000000e+00) (0, 0, 0.00000000000000000000e+00) (0, 0, 0.00000000000000000000e+00) (0, 0, 0.00000000000000000000e+00) (0, 0, 0.00000000000000000000e+00) (0, 0, 0.00000000000000000000e+00) (0, 0, 0.00000000000000000000e+00) (0, 0, 0.00000000000000000000e+00) (0, 0, 0.00000000000000000000e+00) (0, 0, 0.00000000000000000000e+00) (0, 0, 0.00000000000000000000e+00) (0, 0, 0.00000000000000000000e+00) (0, 0, 0.00000000000000000000e+00) (0, 0, 0.00000000000000000000e+00) (0, 0, 0.00000000000000000000e+00) (0, 0, 0.00000000000000000000e+00) (0, 0, 0.00000000000000000000e+00) (0, 0, 0.00000000000000000000e+00) (0, 0, 0.00000000000000000000e+00) (0, 0, 0.00000000000000000000e+00) (0, 0, 0.00000000000000000000e+00) (0, 0, 0.00000000000000000000e+00) (0, 0, 0.00000000000000000000e+00) (0, 0, 0.00000000000000000000e+00) (0, 0, 0.00000000000000000000e+00) (0, 0, 0.00000000000000000000e+00) (0, 0, 0.00000000000000000000e+00) (0, 0, 0.00000000000000000000e+00) (0, 0, 0.00000000000000000000e+00) (0, 0, 0.00000000000000000000e+00) (0, 0, 0.00000000000000000000e+00) (0, 0, 0.00000000000000000000e+00) (889, 3, 5.00000000000000000000e-01) (889, 3, 5.00000000000000000000e-01) (889, 3, 5.00000000000000000000e-01) (889, 3, 5.00000000000000000000e-01) (889, 3, 5.00000000000000000000e-01) (889, 3, 5.00000000000000000000e-01) (889, 3, 5.00000000000000000000e-01) (889, 3, 5.00000000000000000000e-01) (889, 3, 5.00000000000000000000e-01) (889, 3, 5.00000000000000000000e-01) (889, 3, 5.00000000000000000000e-01) (889, 3, 5.00000000000000000000e-01) (889, 3, 5.00000000000000000000e-01) (889, 3, 5.00000000000000000000e-01) (889, 3, 5.00000000000000000000e-01) (889, 3, 5.00000000000000000000e-01) (889, 3, 5.00000000000000000000e-01) (889, 3, 5.00000000000000000000e-01) (889, 3, 5.00000000000000000000e-01) (889, 3, 5.00000000000000000000e-01) (889, 3, 5.00000000000000000000e-01) (889, 3, 5.00000000000000000000e-01) (889, 3, 5.00000000000000000000e-01) (889, 3, 5.00000000000000000000e-01) (889, 3, 5.00000000000000000000e-01) (889, 3, 5.00000000000000000000e-01) (889, 3, 5.00000000000000000000e-01) (889, 3, 5.00000000000000000000e-01) (889, 3, 5.00000000000000000000e-01) (889, 3, 5.00000000000000000000e-01) (889, 3, 5.00000000000000000000e-01) (889, 3, 5.00000000000000000000e-01) (889, 3, 5.00000000000000000000e-01) (889, 3, 5.00000000000000000000e-01) (889, 3, 5.00000000000000000000e-01) (889, 3, 5.00000000000000000000e-01) (889, 3, 5.00000000000000000000e-01) (889, 3, 5.00000000000000000000e-01) (889, 3, 5.00000000000000000000e-01) (889, 3, 5.00000000000000000000e-01) (889, 3, 5.00000000000000000000e-01) (889, 3, 5.00000000000000000000e-01) (889, 3, 5.00000000000000000000e-01) (889, 3, 5.00000000000000000000e-01) (889, 3, 5.00000000000000000000e-01) (889, 3, 5.00000000000000000000e-01) (889, 3, 5.00000000000000000000e-01) (889, 3, 5.00000000000000000000e-01) (889, 3, 5.00000000000000000000e-01) (889, 3, 5.00000000000000000000e-01) (889, 3, 5.00000000000000000000e-01) (889, 3, 5.00000000000000000000e-01) (889, 3, 5.00000000000000000000e-01) (889, 3, 5.00000000000000000000e-01) (889, 3, 5.00000000000000000000e-01) (889, 3, 5.00000000000000000000e-01) (889, 3, 5.00000000000000000000e-01) (889, 3, 5.00000000000000000000e-01) (889, 3, 5.00000000000000000000e-01) (889, 3, 5.00000000000000000000e-01) (889, 3, 5.00000000000000000000e-01) (889, 3, 5.00000000000000000000e-01) (889, 3, 5.00000000000000000000e-01) (889, 3, 5.00000000000000000000e-01) (889, 3, 5.00000000000000000000e-01) (889, 3, 5.00000000000000000000e-01) (889, 3, 5.00000000000000000000e-01) (889, 3, 5.00000000000000000000e-01) (889, 3, 5.00000000000000000000e-01) (889, 3, 5.00000000000000000000e-01) (889, 3, 5.00000000000000000000e-01) (889, 3, 5.00000000000000000000e-01) (889, 3, 5.00000000000000000000e-01) (889, 3, 5.00000000000000000000e-01) (889, 3, 5.00000000000000000000e-01) (889, 3, 5.00000000000000000000e-01) (889, 3, 5.00000000000000000000e-01) (889, 3, 5.00000000000000000000e-01) (889, 3, 5.00000000000000000000e-01) (889, 3, 5.00000000000000000000e-01) (0, 3, 0.00000000000000000000e+00) (81, 3, 5.00000000000000000000e-01) (81, 3, 5.00000000000000000000e-01) (0, 3, 0.00000000000000000000e+00) 
connections (connected_to_neuron, weight)=(0, 5.64456437487495382710e-02) (1, -2.39651620559815592415e-01) (2, 7.12718190802490245833e-03) (3, -1.18988924721821043295e-01) (4, 1.80269261915788514550e-01) (5, -1.13386042116426499771e-02) (6, 7.07417115687825406867e-03) (7, 1.05517570116438502703e-01) (8, -8.88993861052994466254e-02) (9, -7.17291896136055540101e-02) (10, -9.13252193508673065780e-02) (11, -7.45632766601364987968e-02) (12, -1.84407894663086435738e-02) (13, -4.15101521945617571441e-02) (14, 5.66579163545676764424e-02) (15, 3.22981614315045573171e-01) (16, -6.67242936833198872770e-03) (17, 2.50278100829375814429e-02) (18, 4.85962152841259015235e-02) (19, -4.81227367157179147794e-02) (20, -2.93448861092727303346e-02) (21, 6.63835352829254543572e-02) (22, -3.07203340504953702206e-02) (23, 2.17060720698281153784e-02) (24, -8.44236014837458359494e-02) (25, -3.07091567752358837740e-02) (26, -1.28534094239698554185e-01) (27, -1.54090360226837752577e-01) (28, -5.90491088227877089500e-02) (29, -2.58853401446989790993e-03) (30, -7.30198380669546398547e-02) (31, -2.69398459699799752709e-01) (32, 1.57904487205384330695e-01) (33, 1.14677330037194866175e-01) (34, -1.45420052934121885047e-01) (35, -6.11982514308255648450e-02) (36, -7.21285017133854317040e-02) (37, -9.13581034429171712219e-02) (38, 3.03940682902521970565e-02) (39, -8.05434160641658736246e-02) (40, 1.68004795354371294636e-01) (41, -7.16212688098574329354e-02) (42, -4.92302868921494773957e-02) (43, 4.26897756145241946690e-02) (44, -1.63263401239333694193e-01) (45, -2.61669091463816172460e-02) (46, 8.19550933458139813093e-02) (47, 1.46929741264625601804e-01) (48, 2.83227857535037624848e-02) (49, 1.42921539550978693445e-01) (50, -1.53290586535638151400e-01) (51, -3.88137624352775170711e-02) (52, -9.58463145474724720341e-02) (53, 1.35371881505655489164e-01) (54, -7.59658518901251272881e-02) (55, -1.67082061741094273222e-01) (56, -9.03538293588182356286e-02) (57, -2.73003863015042064211e-02) (58, 3.54967188570448829998e-02) (59, -4.54862617359700488473e-02) (60, -3.62095201027066576627e-02) (61, -1.00954692023808897949e-01) (62, -1.41705025064653877820e-01) (63, 1.46469793205604631448e-01) (64, -1.68265076823018944197e-01) (65, 8.48413618766889893186e-02) (66, -1.07072046384723271184e-01) (67, 8.12781316887278976191e-02) (68, 3.40214388675194739919e-02) (69, 8.91632943389754212271e-02) (70, -3.25536878292093864729e-02) (71, -1.00487426970978163676e-01) (72, -1.64008846506923322561e-01) (73, 1.47463777318742245148e-01) (74, -1.58568633647539369846e-01) (75, 4.29805268443433641234e-02) (76, -4.28797580809227446563e-02) (77, -6.41063729337457057639e-03) (78, 7.53422169785284041865e-03) (79, -4.44404395373404342839e-02) (80, 6.39992777945511681637e-02) (81, -2.22896588150724543620e-02) (82, -1.44103655846757799930e-01) (83, 1.10342423281127019474e-01) (84, -1.04133070325696991398e-01) (85, 1.86054979805754389099e-02) (86, 1.99515144446300342340e-02) (87, 1.06603779753250471618e-01) (88, 1.14318754090408522539e-01) (89, 1.43726601741675286128e-01) (90, -9.33993094703570725379e-02) (91, -7.64304301621629017527e-02) (92, -4.58219973754772844088e-02) (93, 1.56628758256848910069e-01) (94, -3.03550096885764134069e-02) (95, -4.13762673131601397408e-03) (96, -4.34943825643737541631e-02) (97, 6.20339985167777437786e-03) (98, -9.12317289746421844487e-02) (99, -4.24433399775108778640e-03) (100, 9.73467894103258318816e-02) (101, 2.62246558179517613718e-02) (102, -1.46846446854302870033e-01) (103, 6.67047641562577009466e-02) (104, -1.19125984058025630175e-01) (105, -6.17122732914806224058e-02) (106, 2.65311077647327267504e-02) (107, -7.94164774839053039246e-02) (108, 6.10615984777551010221e-02) (109, 1.98214682040903117377e-01) (110, 8.93719731044953641375e-02) (111, 7.07784400821924175595e-02) (112, 1.21588433834996737654e-02) (113, 1.43135256318223186289e-01) (114, -9.42265061406625109575e-02) (115, 8.13168648673166238883e-02) (116, -3.20631548515861314330e-02) (117, -5.32008076036625324190e-02) (118, 7.79090167808628719648e-02) (119, 2.47123283566759791019e-02) (120, -1.12199671943576315125e-01) (121, 1.83574807388492515503e-02) (122, 1.06067031105679370623e-02) (123, -7.59301364220702715985e-03) (124, -1.31773242960834507942e-01) (125, 8.65468478922495482175e-02) (126, 1.11766499036460770222e-01) (127, 2.56180523845653609905e-02) (128, 1.03619588436037232682e-01) (129, 1.03613843512211853404e-01) (130, -5.26451981045529676662e-02) (131, -8.21383443903777460404e-02) (132, -4.45747961305063833404e-02) (133, 6.79430627704845774284e-02) (134, -5.19645900365602042559e-02) (135, -5.12555121259195348160e-02) (136, -8.41632819252398772791e-02) (137, -1.55632852621142500626e-02) (138, 2.70089319957404205841e-02) (139, -5.22123386681144080468e-03) (140, 6.32432641771143166931e-02) (141, -1.61238881893889768326e-01) (142, -1.42575778611310436533e-02) (143, 2.48993976147427647019e-03) (144, -1.66568041341795147758e-01) (145, -3.41424563929726490596e-02) (146, 5.57637310294949433559e-03) (147, 1.23361654214727667345e-01) (148, 1.61654294404632969950e-01) (149, 1.58664739574782581721e-01) (150, -3.84280464696832163574e-02) (151, 5.96625306882955855348e-02) (152, 1.07456979186623724498e-01) (153, 7.95031609096210345466e-02) (154, -1.82791713430689256592e-01) (155, -1.00171079806323351513e-01) (156, 8.31395655706481939706e-02) (157, -5.85513040745359245043e-02) (158, 2.47011120149694569925e-02) (159, 1.36386772139339390586e-01) (160, 3.99001404014604904580e-02) (161, -4.70022199102940324567e-02) (162, -3.28791372764642708670e-02) (163, 9.04403549094964648303e-02) (164, -7.54911924323715954888e-02) (165, 4.64216003505985783106e-02) (166, 6.91043207845388751664e-02) (167, 2.03587952235322298955e-02) (168, 1.07777005948926682399e-01) (169, 6.55899670688419728082e-02) (170, 1.09056631530947256009e-02) (171, 2.90021669368773701847e-02) (172, -6.93969084020799615448e-03) (173, 1.87903479359618708067e-01) (174, -1.50642531776505078644e-01) (175, -1.82833277262484344798e-03) (176, 1.06268770979606977378e-01) (177, 7.72725320001089732713e-02) (178, 6.03507945393800745992e-02) (179, 1.53275089618628790333e-01) (180, 7.93766340675058738874e-03) (181, 8.37984576999229874295e-02) (182, -5.82919516971970239072e-03) (183, 5.96695809214166719703e-03) (184, -2.42599044217164078185e-01) (185, 9.80088678174046851188e-02) (186, 7.80825633673480068442e-02) (187, -2.90957448576792225559e-02) (188, 1.88748542155372234230e-01) (189, 7.03796273988509246688e-02) (190, -1.23910376513122182790e-02) (191, 5.04341404331405743222e-02) (192, 2.03959622211524332913e-01) (193, 2.65658431557282588564e-02) (194, -1.83248300293787108606e-01) (195, 4.16644340309388142018e-02) (196, 2.25195338500906339085e-01) (197, 2.26903404992783407079e-02) (198, -3.76916991046843188884e-02) (199, 2.18710386843195492279e-01) (200, 8.39113573773872384320e-02) (201, -3.45353381228344566423e-02) (202, -5.46862567291826265348e-02) (203, -2.95880862289155527334e-02) (204, -2.20111603735813121663e-01) (205, -1.23022223758168181007e-01) (206, -7.17199366221017882428e-03) (207, 9.12651123766584221331e-03) (208, 4.18601971550888393714e-02) (209, 2.42022960019389402064e-02) (210, -2.89004578225183217377e-02) (211, -1.61676473697671928276e-02) (212, -2.98666938547745321186e-02) (213, 1.03125639722103437657e-01) (214, -6.85692025914210884219e-02) (215, -2.53906965784776658679e-02) (216, 1.18223935939967994546e-01) (217, 6.33890475677152120948e-02) (218, 7.05204714561232792747e-02) (219, 1.45949026977567841712e-01) (220, 8.80349716957942313167e-02) (221, 1.17936727463188506526e-01) (222, -9.01399278277637827639e-02) (223, 1.23704592004485650070e-01) (224, -2.09003820828293079837e-01) (225, -7.46059569968241659277e-02) (226, -1.08622652827402785269e-02) (227, 9.30172051472470118316e-02) (228, 8.80511209044644860278e-02) (229, 1.42515158299350352955e-01) (230, 4.98976500513114568092e-02) (231, 1.26795882071321624335e-02) (232, 1.85762942048049543853e-02) (233, 1.41669017375089356658e-01) (234, -7.15171064081787100086e-02) (235, 1.48216327007658476428e-02) (236, 4.25421719599172812321e-02) (237, 8.31159579846456192387e-02) (238, 1.06234092048593978252e-01) (239, 1.91775938804219864275e-01) (240, 1.33115776424881065987e-01) (241, -9.17730685215562697055e-02) (242, -1.47280639687496855972e-01) (243, 2.08258025727374104785e-02) (244, -2.68375193860195870865e-01) (245, -2.01206672397778951744e-01) (246, 1.26649027500719713046e-01) (247, 1.20716007259010965624e-01) (248, 1.21897694261072553346e-01) (249, 6.77473396580454828575e-02) (250, 1.42804608294167190152e-01) (251, -1.10677650597906157559e-01) (252, 6.16328751669912786038e-02) (253, -4.48658939142039039916e-02) (254, -3.34009864052348531827e-02) (255, 6.72145517578356249677e-02) (256, 1.87849072622531532151e-01) (257, 4.72179297200946354596e-02) (258, 1.37648892252726945395e-01) (259, 1.80525657854619325793e-01) (260, 1.17060276198430401884e-01) (261, -7.77402142770659970727e-02) (262, 1.23306929526398427466e-02) (263, -6.42824184122054304025e-02) (264, -7.65983792355680870312e-02) (265, -1.49745587715260225492e-01) (266, -3.27860870385980815445e-02) (267, 3.18354866670395031392e-01) (268, 1.55243394603353263017e-01) (269, 1.96016498195882224453e-02) (270, -1.03460702096665468908e-02) (271, -3.57343704051423308177e-02) (272, 1.07752141944762833137e-01) (273, 9.38561828458972791100e-02) (274, -1.90668509881030817654e-01) (275, 7.64630162774796451330e-02) (276, 3.99243984722132058685e-02) (277, 5.87788788408355206833e-03) (278, -1.01636207809264172280e-02) (279, 7.42674757315704009430e-02) (280, -2.78601917724750416938e-02) (281, 2.24162039665204877725e-02) (282, 1.09183708458600661761e-02) (283, 7.10534276118927471400e-02) (284, -1.73082137361973975587e-01) (285, 1.64463596927938403292e-02) (286, 2.31853953437764492840e-02) (287, 2.71389831002264936277e-01) (288, 8.56521243438854995578e-02) (289, 7.23381077242697956287e-02) (290, -3.90199595420325159867e-02) (291, 1.36658295479528046554e-03) (292, 1.04783010739093088159e-01) (293, 3.64354810984852742206e-02) (294, -1.73037035525249266454e-01) (295, 6.62863927214351889017e-02) (296, -6.24250358986048158039e-03) (297, 6.78073830090507728707e-02) (298, -9.38722249801355262218e-05) (299, -5.46117772265026849010e-02) (300, 1.01738780729980798911e-01) (301, 5.66670493437619882116e-02) (302, -1.22334666360347510405e-02) (303, 1.48348379976093125432e-01) (304, -2.12195151808983795139e-01) (305, 8.01000936344661157440e-02) (306, 4.11713574746825558548e-02) (307, 4.58380020883741648441e-02) (308, -5.15553385823493762197e-02) (309, -1.23503159052128722722e-02) (310, 1.23559232282300472672e-02) (311, 6.74631475182817796910e-02) (312, 7.67774382174412628466e-02) (313, 1.61049417092568342147e-01) (314, -1.75143185603635259673e-01) (315, -1.45536322050411032203e-01) (316, -3.51910700849989363515e-02) (317, 1.33580999062883953865e-01) (318, -7.04893555846258512698e-02) (319, -7.06675365637246116757e-02) (320, -9.41167125323337933063e-02) (321, -4.44068833757786038396e-02) (322, 1.12600409506606699561e-01) (323, 5.81726500508787866539e-02) (324, -2.07183785028011629992e-01) (325, 1.90454583908024943639e-01) (326, 1.23416296113535037260e-01) (327, -2.00038308920715626749e-02) (328, 2.01899364255011232183e-01) (329, 1.97901050571648584597e-01) (330, 6.98884224382795155028e-02) (331, 1.31550387876114921459e-01) (332, 1.60536018407945735298e-01) (333, -3.93790020127673945360e-02) (334, -1.51793571304600555250e-01) (335, -1.20035434410904875979e-01) (336, -1.34216679020461804317e-01) (337, -5.40576626165036825539e-03) (338, 4.97087393273040190067e-02) (339, -2.92333350160793453698e-02) (340, -1.78506674504722642749e-02) (341, 6.89013110078707108341e-02) (342, -7.52530871284443486635e-02) (343, 1.09637875977163234964e-01) (344, -1.67122990266529408698e-01) (345, -5.92249403120136339029e-02) (346, -8.86070207224830264092e-02) (347, 1.40625363517016321868e-01) (348, 1.78487057086635009240e-01) (349, -4.07416847347264188262e-02) (350, 1.22780034252365707892e-01) (351, -1.51560146949999002830e-01) (352, 9.57690292363180956103e-02) (353, -6.28114259594042961821e-02) (354, -1.73110485117865198212e-01) (355, -4.26970658474389586079e-02) (356, -8.59835781053614606195e-02) (357, 5.67324945716661047102e-02) (358, 1.42092892768629408540e-01) (359, 1.98650770665849546459e-02) (360, 9.09485005688092096321e-02) (361, 3.22918080681352040462e-02) (362, -1.28277221982125072541e-01) (363, 1.14694134140886482703e-02) (364, -9.04825758352348075153e-02) (365, -8.95043622450998610507e-02) (366, 4.37399211338056134735e-02) (367, 1.78485076696895783588e-01) (368, 1.54522353981773830078e-01) (369, -6.26949734946356529441e-02) (370, -5.15370219490764933101e-02) (371, 1.93157967624848735111e-02) (372, -1.30033958460459231343e-01) (373, 6.80377283177301950268e-02) (374, 3.55337254682370276559e-02) (375, 6.97250272119533665016e-02) (376, 1.87221454670187525959e-01) (377, -1.74214385739483335058e-01) (378, -2.23782803396666398268e-03) (379, 1.62150924382285011038e-01) (380, 1.05444795096712423677e-01) (381, 1.36228260546990276314e-01) (382, -6.02394721802116603349e-02) (383, -9.53698739514620696944e-02) (384, -1.09445373479375857029e-01) (385, -9.68751834982265053187e-02) (386, -5.21691140353885800252e-03) (387, 6.27845435527296380496e-02) (388, -4.19457234182616378604e-02) (389, 6.79323018276048462560e-02) (390, -4.93757024359907509270e-02) (391, -4.14226389849079584815e-02) (392, -1.23922124662795105077e-01) (393, -3.10506666103280357105e-02) (394, -1.42767954907773803042e-01) (395, 1.81031144348121966758e-02) (396, 9.01675303685324086578e-02) (397, -9.88250220959664867071e-03) (398, 1.19858386509527028996e-01) (399, 4.31402118732450504113e-02) (400, 2.23149627749231471707e-01) (401, -7.99438603898553618032e-02) (402, -1.62167144608021313035e-01) (403, -2.08072090050543057060e-01) (404, -3.49757239483329263052e-02) (405, -1.16700327390183267173e-01) (406, 1.24428831332066017201e-01) (407, 9.07172698112790332203e-02) (408, 4.19072908396081744709e-02) (409, 9.62464485569732713932e-02) (410, -3.63076472590428481202e-02) (411, 6.39439049372317047659e-02) (412, -7.05582991205332271667e-02) (413, -1.11630150969914146430e-01) (414, -1.05922193768561642702e-01) (415, -9.71390600002983439776e-02) (416, -6.46168143206988093707e-02) (417, 7.66826364000287169498e-02) (418, -4.20377854364403294452e-02) (419, -7.75847975858454368819e-03) (420, 2.07468747151310708987e-02) (421, 6.04131551983643835801e-02) (422, -7.76571991075205025901e-02) (423, 2.42654166857846215200e-02) (424, -8.36633929463216075018e-02) (425, -6.96851102117655857304e-02) (426, -4.48625648352873260261e-02) (427, 1.12206639294144989993e-02) (428, -1.31820336513519320576e-01) (429, -8.05317458313120765334e-02) (430, -1.13500803070095648839e-01) (431, -1.10921786474041508819e-01) (432, 1.46632653443695380735e-02) (433, -7.01494170996257437878e-02) (434, -1.15098585476423875829e-01) (435, -7.71553673026750680419e-02) (436, 1.66762269772310310623e-02) (437, -6.50668924098142184564e-03) (438, 4.73173637438344604766e-02) (439, 9.08096499255028888342e-02) (440, -4.65160041120814271576e-02) (441, -6.44117471981552752736e-02) (442, 7.42353539286421393317e-02) (443, -1.06000883113214441900e-01) (444, -1.42273878613249169650e-02) (445, -1.06319200260843002570e-01) (446, 1.39873740183397575650e-03) (447, 1.28965077057299135066e-02) (448, 1.68448210405428566716e-01) (449, -3.72628837946608268417e-02) (450, -6.73519977941136951949e-03) (451, -1.04131360216452348300e-01) (452, 3.22507328845462043487e-02) (453, -1.38447394892951713974e-01) (454, 1.53655640944106997026e-01) (455, -1.05494558021897999467e-01) (456, 1.52482659012995493131e-02) (457, -9.82177006140719233152e-02) (458, 1.32708610545528737923e-01) (459, -9.52371676947770529065e-02) (460, 2.72894888110221250921e-02) (461, -1.38034805480901467956e-01) (462, -3.78178088451213770260e-02) (463, -1.17567979370278172246e-01) (464, -1.27451423327627679644e-02) (465, -4.97056628232125929934e-02) (466, -3.11200536785939604889e-02) (467, -1.05994010630999155320e-01) (468, 1.19644906304429032851e-01) (469, -8.61269592163817071517e-02) (470, 1.40999682198374321623e-02) (471, -1.68119921824468748772e-01) (472, 5.77912629391417256852e-02) (473, -4.70638588244792765991e-02) (474, -4.16433365200730848388e-02) (475, 4.70222220396977839268e-03) (476, 2.39302511375005522165e-01) (477, -1.49222622738551302657e-01) (478, 7.46941144662719436198e-02) (479, -2.34927244780448081507e-02) (480, -2.86351853323422098074e-02) (481, -5.77872882430613896143e-02) (482, 9.86590728234035679867e-02) (483, -1.17778965285977949007e-01) (484, 7.75085809445852230715e-02) (485, -8.78915581667475825922e-02) (486, 6.65852014872427844239e-02) (487, 7.33151955157214096914e-02) (488, 1.06002859858898526579e-01) (489, -4.77083983929388263934e-02) (490, 5.99103548649920986460e-04) (491, -1.10613679294268324460e-01) (492, 6.99326285418002957517e-02) (493, -1.17085504082947624432e-02) (494, -1.01135034844355136546e-02) (495, -1.37563680918898784133e-01) (496, 1.35214860984304185987e-01) (497, -5.84404167353678796748e-02) (498, -3.71804578180886663441e-02) (499, 5.14147959172829085994e-02) (500, 2.93272557221848917397e-02) (501, -3.44983019124462386706e-02) (502, -7.89415489859895264102e-02) (503, -6.08415946934474233254e-02) (504, 2.45458049387150992020e-04) (505, -5.03386276658756709468e-02) (506, 8.84904816019117246295e-02) (507, -7.13172782695387502683e-02) (508, -1.45920253932933757790e-01) (509, -1.10063646170575527017e-01) (510, 5.03618951930021804819e-02) (511, -1.10975293251525303218e-01) (512, 1.99401723916750872601e-02) (513, 6.44942727143163196946e-02) (514, 3.49210377287197636098e-03) (515, -5.47681098559703594120e-02) (516, 8.34302205203342056583e-02) (517, -8.74420785053073648663e-03) (518, 8.08160536206936203074e-02) (519, 2.23809924871525836240e-03) (520, -4.60939351621570056472e-02) (521, -8.66248900997133586266e-02) (522, 3.68140980450577387506e-02) (523, -1.12879274571158358387e-01) (524, 1.48460670694329065905e-02) (525, 9.29501379624315393624e-02) (526, -5.69696286287875372500e-02) (527, 8.74896532944206134497e-03) (528, -1.91490267914736986277e-02) (529, -8.06060986401592738382e-02) (530, 3.19165207532791719847e-02) (531, -4.91215706806281352664e-03) (532, -4.55554765846847842248e-02) (533, 5.09730321042394379782e-02) (534, 9.63145080582246404521e-02) (535, -1.91837338741205454262e-01) (536, -7.53271526824502157815e-02) (537, 9.90655760827482134712e-02) (538, -1.39015785902908084459e-01) (539, -5.97913844374518624325e-02) (540, 1.87465801057953185271e-01) (541, -9.47720433721560145957e-02) (542, -1.19237726018126932725e-01) (543, 2.44794129441679775283e-01) (544, -1.83410690952376553842e-01) (545, 1.08733540477868789731e-01) (546, 3.10418231976099809680e-04) (547, -1.97381805190123216232e-01) (548, 9.02823430819865713204e-02) (549, 1.11975162100686684297e-01) (550, -1.10606110543825672532e-01) (551, 1.66108613294891682699e-01) (552, 1.32030743614954315657e-01) (553, -1.69595795685969913391e-01) (554, 1.65779910721276735330e-01) (555, 3.52605981445707136746e-02) (556, -2.19984931963417063017e-01) (557, -4.23040735030251607851e-02) (558, 1.23500804861770337867e-02) (559, -1.77089926327712171572e-01) (560, 4.94077327315674205699e-02) (561, 1.31528142702789674345e-01) (562, -1.66462916802025628904e-01) (563, -2.06866643139111752725e-02) (564, 1.48066196613796913217e-01) (565, -4.70867412040948812857e-02) (566, -1.62316974309201136201e-03) (567, 9.60978060122935628939e-02) (568, 1.05195355887745645163e-01) (569, 3.05184245918942581577e-02) (570, 6.90329959026909217856e-02) (571, 1.64687754624466387021e-01) (572, 8.90753391343341027753e-02) (573, 5.68936108447880839467e-02) (574, 2.01204289086193255365e-01) (575, 5.24355154738533543735e-02) (576, 1.51331289901977718987e-02) (577, 2.11864122752406014438e-01) (578, -4.15299782093949063078e-02) (579, 2.98125177371171279361e-01) (580, 8.21439595652313364615e-02) (581, -1.38708076806626744160e-02) (582, 3.96624785703413793025e-02) (583, 9.33905384436213431565e-02) (584, -3.04320001246986410193e-02) (585, 1.11536461201653877562e-01) (586, -2.26422887110867034066e-02) (587, -2.09938868817899360053e-03) (588, -3.19993215516546636312e-02) (589, 1.71039641979562513641e-02) (590, -4.63748708402857146016e-02) (591, 3.45140887534272564063e-02) (592, 1.65810029024379856910e-01) (593, 2.43081746382924512861e-01) (594, 1.48563838237143669430e-01) (595, 4.44388217497021370539e-02) (596, -6.02422858761336235678e-02) (597, -2.98642317252286737528e-02) (598, -2.07464623734547777556e-02) (599, 1.02090992168242262333e-02) (600, 6.89636565923951450063e-02) (601, -1.69065056308825234499e-01) (602, -1.70307066577073847047e-02) (603, 5.22969112808942260262e-02) (604, -4.93763966619827285309e-02) (605, 8.12397701229844622361e-03) (606, -5.08984475217260576296e-02) (607, 1.14438276317862894227e-01) (608, -4.72620767930659758244e-03) (609, 8.95196473695343830634e-02) (610, -1.48072516720527333489e-02) (611, -1.11380227187692887325e-01) (612, -1.01183638801492697956e-01) (613, -9.27435281869017080769e-02) (614, 3.31262708406984199283e-02) (615, -1.45160825528407311236e-01) (616, -7.68830677300606432634e-03) (617, -1.52182758997398304146e-01) (618, -6.02843841181822104325e-02) (619, -3.39174650131404617492e-02) (620, -6.34394271664125986021e-02) (621, -1.58835364860291095024e-02) (622, -1.04358562406377280984e-01) (623, -3.06748712004599466407e-02) (624, -1.07153403074688527430e-01) (625, 7.64678683951317689216e-02) (626, 4.26853831368316991024e-02) (627, -5.10145528346718740535e-04) (628, -1.02823536608895496625e-01) (629, 1.39016642711046189973e-02) (630, -1.09307474326278825094e-01) (631, -2.20252261571340576807e-02) (632, 3.22011582635694376675e-02) (633, 1.01183664153806866098e-03) (634, 3.09602511628264583099e-02) (635, 1.06806004692955786028e-01) (636, 8.56820553512033511456e-02) (637, 5.95107304991531818605e-02) (638, 4.83293594971817702666e-02) (639, -4.10971424484904077068e-03) (640, -7.49641262890077958447e-02) (641, -1.10854777592846370782e-01) (642, -5.16715653121715620677e-02) (643, -1.60353898581889087183e-01) (644, 6.12304382553315387772e-02) (645, -6.19832845541843993620e-02) (646, -9.16634410409466471314e-02) (647, -3.29768794824109728880e-02) (648, -2.51602056327844096628e-02) (649, -1.73954861547144339073e-02) (650, -2.13949578622199369782e-02) (651, 4.93769042800331903198e-02) (652, -7.54987950330539142607e-02) (653, 8.71693062461666307028e-02) (654, -7.32104133933795392375e-02) (655, 6.36996168625931780127e-02) (656, 8.81914502316362425294e-03) (657, 5.76894915106471936617e-02) (658, -3.40419333952117278419e-02) (659, -5.02515989073732752268e-02) (660, -1.66091222627770290776e-01) (661, -1.36375235405773953534e-01) (662, 5.08494547485103046136e-02) (663, 7.58248226028150063005e-02) (664, -1.92460096125963708857e-02) (665, -4.85044333644472844269e-02) (666, 2.37668899383547405080e-02) (667, 1.08395935997610978752e-01) (668, 7.57435093834709499694e-02) (669, -1.75965650251849944907e-02) (670, -8.47001810273670108220e-02) (671, 7.12694658075663147606e-03) (672, 3.17869780789047234881e-02) (673, -4.31268558434195620199e-02) (674, 1.26171871064347435043e-01) (675, -6.06655740007750951537e-03) (676, 3.58251388134668211083e-02) (677, -3.87477354229662784846e-02) (678, -1.02213314587575959669e-01) (679, 1.41406069504367654099e-01) (680, -3.29871532470548496294e-03) (681, -1.24499860767798998379e-02) (682, 3.11088689462661570351e-02) (683, 2.37226146102050249043e-02) (684, -8.00817365558975646778e-02) (685, 6.20253127251697081168e-02) (686, -2.52649962155063918801e-02) (687, 5.80014463972319885277e-02) (688, -1.04795253031208200623e-02) (689, -7.32683520056069265136e-02) (690, -8.18864219748976357449e-02) (691, -4.43036566052310634700e-02) (692, 3.04767727484411962355e-03) (693, 3.67336960543748550223e-02) (694, -3.95050178193265613680e-03) (695, 2.07203033485616507081e-02) (696, 7.42838533718000182393e-02) (697, 2.83796139886154340226e-02) (698, 1.03787264417188468402e-01) (699, 1.02612357099998968701e-01) (700, 1.25255662646708926244e-01) (701, 1.10078522562165465049e-01) (702, 1.55812110521720725842e-01) (703, 3.46068616708815404714e-02) (704, -2.42227963833204947008e-02) (705, 2.45021823821868177384e-02) (706, 9.35402594492102529289e-02) (707, 6.90263761450783108753e-02) (708, -7.15597851475236051977e-02) (709, 1.12253513667161918671e-02) (710, 3.60064781806744976800e-02) (711, -5.30293664225520416239e-03) (712, 7.77689833795412316375e-02) (713, -5.38636930711718087128e-02) (714, 9.99389482289388814129e-02) (715, 1.04316451287474867837e-01) (716, 9.42546335050983702386e-02) (717, 2.63406927689742373366e-02) (718, 9.84547674773479514210e-02) (719, 7.01624130438982009095e-03) (720, 4.10489482376669850838e-02) (721, -3.70578553085140968704e-02) (722, 1.24617966033370664025e-01) (723, 4.48382882399224469427e-02) (724, 1.44181130121675160627e-01) (725, 1.34578199190406672114e-01) (726, 2.51807636179924576592e-02) (727, 1.44960580239184011475e-01) (728, 1.83119405986103184203e-01) (729, 1.39501925981146773781e-01) (730, 3.56195775631781633153e-02) (731, 7.80408036423182183139e-02) (732, 4.49955448958812564975e-02) (733, -4.31804177748891376831e-02) (734, -1.85171154329047647769e-02) (735, 1.03529136512096983647e-01) (736, -3.14214407208196766508e-02) (737, 9.20871307221046535296e-03) (738, 8.21909800037744775469e-02) (739, -5.84967568522375969131e-02) (740, -2.86010544660126111993e-02) (741, -4.67594999334493971466e-02) (742, -1.77340344156161733302e-01) (743, -6.49745384285347199471e-02) (744, -2.67076524510288376701e-02) (745, 1.06809464148707330966e-01) (746, 2.60364627413254869082e-02) (747, 1.26935619935717114437e-01) (748, -1.52680294204227656740e-01) (749, -3.74839641056097213137e-03) (750, 5.61763844117050895055e-02) (751, 8.05911051172457648661e-02) (752, -1.51695164590164507934e-02) (753, -3.32283120102325399414e-02) (754, -6.50850118454489590114e-02) (755, -7.15358038946506819000e-02) (756, 1.49949490727570994286e-01) (757, -7.56658261610432397726e-02) (758, -5.97090563005719318634e-02) (759, 1.11699723002540607375e-01) (760, -2.85513595353026963797e-02) (761, -2.86782053587365526326e-02) (762, -1.80343754102102390990e-02) (763, -1.69097732698161723475e-02) (764, 1.69026524867666345930e-02) (765, 7.16874033828618778541e-02) (766, -3.31307250533579150664e-02) (767, -4.19999089856031709855e-02) (768, 1.77730403873929791725e-02) (769, -3.25184191728823471235e-02) (770, -6.13098553278444285963e-02) (771, 1.28192769792837724108e-01) (772, 5.53806726075107419449e-02) (773, -3.27465840738357660822e-02) (774, 3.65064359725003062529e-02) (775, -4.09578269058745100817e-02) (776, -1.11568749600629735230e-01) (777, 3.42961030742269940008e-02) (778, -9.81412346843691663079e-02) (779, 3.05405294851285868951e-02) (780, -1.01168631894158755902e-01) (781, 6.52941976107888292363e-03) (782, -1.08733139996335367861e-01) (783, 5.76027635640178128917e-02) (784, 1.48324353882246899594e-02) (785, -5.44373500194564943766e-02) (786, 1.47486256127028498436e-03) (787, -1.51546058158522373160e-01) (788, 8.04927005097085847274e-03) (789, 1.76411919004092532237e-01) (790, 7.93552288061677435493e-02) (791, -8.79362039577556153791e-02) (792, -6.63638351662137609965e-02) (793, -5.67983298310450746005e-02) (794, 5.43938755465002421463e-02) (795, 1.50269539824942593986e-01) (796, 1.20996641997930583917e-02) (797, 8.00069681159197750031e-03) (798, 4.01572798019370850314e-03) (799, 5.10168858746057538034e-02) (800, -2.68091299087721973704e-02) (801, 2.18251978481487623335e-03) (802, -3.42758207754764315789e-02) (803, -8.59082175001827791361e-02) (804, -8.52546449132417644146e-02) (805, 1.43299588670470776433e-03) (806, -2.41299814994387074041e-02) (807, -3.19871206295653590090e-02) (808, -8.55619462918701390031e-02) (809, -1.76480848552268386464e-02) (810, 5.72144501979991379481e-02) (811, -8.55076630202808440906e-02) (812, 1.58441225565484830606e-02) (813, 3.70406692379011068250e-02) (814, -1.49492067294433206293e-01) (815, -7.98961095950297267576e-02) (816, -7.09989884415100219739e-02) (817, 7.37601309464307858775e-04) (818, 6.00468859228864004773e-02) (819, -1.08236286540937726164e-01) (820, -4.78948770524929567927e-02) (821, -1.92753761988576684944e-03) (822, -8.80892960703139327183e-02) (823, -7.20842597596496326151e-02) (824, -1.57387475459668524369e-01) (825, -1.35343467036158265904e-01) (826, -9.62632820661977056664e-02) (827, -5.05625733946827651821e-02) (828, -5.78142942010198210290e-02) (829, -7.71545532782206590350e-04) (830, -1.19501483305396810630e-01) (831, 5.25147220991285974823e-03) (832, -1.98392773256996536591e-02) (833, -9.24111052432969731774e-02) (834, 6.31459073388562358575e-02) (835, -1.23630110856548444676e-02) (836, 3.55316647241887759168e-02) (837, -4.90366900987718457028e-02) (838, 7.04290843238508657009e-02) (839, 6.65468950859277874610e-02) (840, 4.64644857641806560689e-02) (841, 5.87423585226776942547e-02) (842, -2.57866537144441042295e-02) (843, 6.32685818844463676580e-02) (844, 6.35879373126278096828e-02) (845, 2.55212058550492171261e-02) (846, -2.33866103682788852025e-02) (847, -3.96600170961185286012e-02) (848, 1.51113580144026066199e-01) (849, 1.50291407085009265376e-01) (850, -1.45348901638226307709e-01) (851, -2.03841035041845725084e-01) (852, 2.52533347577559678931e-02) (853, -8.25782385085510745037e-02) (854, -1.25344353539535015123e-03) (855, 4.61035126209299664368e-02) (856, -1.14777512284266580700e-01) (857, -1.26384136073149966339e-01) (858, -7.30661009412367362659e-02) (859, 1.16905035399716430988e-01) (860, 6.74011664707023089305e-02) (861, -6.08520214758821453849e-02) (862, 3.55267348825526532718e-03) (863, -2.50859695958786828307e-02) (864, -1.77173446661133236757e-02) (865, -7.95187471896089403955e-02) (866, 8.89640995566037678932e-02) (867, -9.61375273631045190736e-02) (868, -4.15867784698133961113e-03) (869, 1.00855225775646345499e-01) (870, -1.34268533067181894403e-01) (871, -1.12461419319779945547e-01) (872, -4.12526854151404540061e-02) (873, -3.25118893887478832561e-02) (874, -1.13234584924879214118e-01) (875, 1.43187968840199492115e-01) (876, -9.48714358612150372718e-03) (877, -1.42796207077266840146e-01) (878, 6.24098641338519458110e-02) (879, -1.00775090379823281661e-01) (880, -8.20332089933945157734e-02) (881, -8.20961211563372567079e-02) (882, 1.15126501746111623015e-01) (883, 4.44430226604279124403e-02) (884, -5.67609017298343551672e-02) (885, -1.34280986082611717564e-02) (886, 1.89993316625379909945e-01) (887, 1.68308262349743720243e-01) (888, 1.81578336130444883967e-02) (0, -4.92973680659985341590e-02) (1, 3.57817027994335512542e-01) (2, -7.31353038794436138836e-02) (3, 1.52809051029156706125e-01) (4, -2.25272721903738343263e-01) (5, 4.90408734138531553215e-03) (6, 2.40011081008490445576e-01) (7, 1.03139936951793076414e-01) (8, 1.15342641590066491419e-01) (9, -7.82341370453508606897e-03) (10, -3.05710440513894572689e-02) (11, 1.35309097492091356951e-01) (12, -1.70417615358946700210e-01) (13, -2.30273210811851557211e-02) (14, 4.96401932184508190571e-02) (15, -3.63536519381893574732e-01) (16, 3.25924628719394260390e-02) (17, 9.37384102674090474716e-02) (18, 8.99650702030015680943e-02) (19, 1.45981710671836656390e-01) (20, 7.92919718363130771044e-02) (21, -8.29167388388576259706e-02) (22, -2.66484760384240237929e-01) (23, -9.36524411055186661867e-02) (24, 2.50745815131256828689e-02) (25, 1.56929150079132301299e-01) (26, 1.55909722895316404934e-01) (27, 7.00094182080007176872e-02) (28, -1.39979441167482704378e-01) (29, 1.56481712426807167970e-01) (30, 2.14656102303240614582e-01) (31, 2.85190327155836309547e-01) (32, -2.28259694851590283493e-01) (33, 6.59501065043545248168e-02) (34, 2.33084950769875093313e-01) (35, -8.68737105412637905522e-02) (36, -2.78412681827737394646e-02) (37, 1.09425738780719303267e-01) (38, -1.54860364697425284541e-01) (39, 7.20264271711767711803e-02) (40, -2.23099794348365548791e-01) (41, 1.96474720132961883090e-01) (42, 3.01365690636407022873e-02) (43, 7.39787058232742739117e-02) (44, 3.88799475089707413655e-01) (45, 9.59581636977955010348e-02) (46, -4.05766461014794993512e-02) (47, -1.59899505072965159025e-01) (48, 5.62215502765972020838e-03) (49, -1.73875080774830020891e-01) (50, 8.45785070405972033702e-02) (51, 9.49156691881211933559e-02) (52, -7.39334353521260267267e-03) (53, -5.66245287207590014544e-02) (54, 2.75556275293307284535e-01) (55, 1.70312591078620283180e-02) (56, 5.31080406498618887157e-02) (57, 1.77947053189532550244e-01) (58, 2.16556245015094329942e-02) (59, 1.04574912769491892850e-01) (60, 8.43582829908246512041e-02) (61, -3.17612517933269153381e-02) (62, 2.35373879786846124107e-01) (63, -2.23714449395179398872e-02) (64, 4.83015150226972611591e-01) (65, 1.20507713513948261363e-01) (66, 1.27126293446298381518e-02) (67, -1.34400860973957925193e-01) (68, -2.05284602103226354597e-01) (69, -7.53459764993490571650e-02) (70, 2.69214222222747878721e-01) (71, 1.86809342347715075239e-02) (72, 1.30231228248000124870e-01) (73, 5.13430115208032278318e-02) (74, 2.73133661945230532542e-01) (75, -3.08397119968162498893e-02) (76, 1.19786096098033326141e-01) (77, 1.31375760815837044904e-01) (78, -4.72736742064593304380e-02) (79, 6.40503004073973286614e-02) (80, 5.88396226333894739602e-02) (81, 2.08978930254464845273e-01) (82, 1.07645730106962947414e-01) (83, -2.64784849293111558544e-02) (84, 1.75785053722642664598e-01) (85, -6.66450914830992308113e-02) (86, -2.25565102673283196522e-01) (87, 1.63187886303292582768e-02) (88, 1.56178811536575729013e-01) (89, -1.28129475525224967303e-01) (90, -7.03955736607701082486e-02) (91, -2.33718717186364277616e-01) (92, -9.25321981703601387226e-02) (93, -2.06554220993169723730e-01) (94, 1.24210407524804195001e-01) (95, 1.46357642349931316161e-01) (96, -3.96292129855621635959e-02) (97, 2.36210989112169367221e-01) (98, -2.64330173944880841841e-01) (99, -1.21378054152326206316e-01) (100, 9.22005835953829538942e-02) (101, 1.43580023329318406944e-01) (102, 1.94459911843638671991e-01) (103, 6.26022207845573358531e-02) (104, 3.12059647321111077733e-01) (105, 4.71216477344961887086e-02) (106, -6.59984033658472107886e-02) (107, -6.17105828461077046687e-02) (108, -8.23813893408544550834e-02) (109, -2.50851196886266114561e-01) (110, -5.86715930814825648021e-02) (111, -1.01986728662316811223e-01) (112, -1.77179926414960768610e-02) (113, -4.16037059575919340726e-02) (114, 2.83491797616794549697e-01) (115, -2.68659264841276460012e-02) (116, -2.64239407347824195593e-01) (117, 2.78542008174658350939e-01) (118, -3.46303289546575701618e-02) (119, -1.53638340604593998107e-01) (120, 3.22462485935214149269e-01) (121, -2.89164736600811336786e-03) (122, 1.61441946204470249127e-01) (123, -8.17056752643321448915e-02) (124, 2.96875869640915945880e-01) (125, -1.61206346196245686730e-01) (126, -1.86595723586627348922e-01) (127, 5.15634583330530082979e-02) (128, -6.09132423093447644691e-02) (129, -1.30635724460022500937e-01) (130, 6.17755881412446333778e-02) (131, 1.12097792300627871476e-01) (132, 1.82356276655085441929e-01) (133, -3.07096778795784675076e-01) (134, 4.84494079845365688275e-01) (135, -1.70541219110925332259e-02) (136, -1.41960288578564741702e-01) (137, 1.41110957298505423907e-01) (138, -1.85929085373524288771e-01) (139, -3.02013997240703047087e-01) (140, 1.01351756465307640820e-01) (141, 1.49037953718860222141e-01) (142, 2.19893764636557520475e-01) (143, -2.03859568546201519457e-01) (144, 3.49393257254640432485e-01) (145, -4.64191591310777751378e-02) (146, -8.87198922570870684989e-02) (147, 6.64048672458001504326e-02) (148, -7.38063715056596209019e-02) (149, -1.01411993914232029246e-01) (150, 4.94300996149655905154e-02) (151, -7.12229954863119810171e-03) (152, 4.12203209568922854245e-02) (153, -9.50420760819681853526e-02) (154, 4.13606739814400492516e-01) (155, 1.43195354605631958167e-01) (156, -3.98448998402007703579e-01) (157, 3.94139109373755573001e-03) (158, -3.27077630365137761448e-01) (159, -4.00420875791991315307e-01) (160, 1.89065003907314344023e-01) (161, 1.85140681583611299565e-01) (162, 9.38247841675440980014e-02) (163, -2.70359208244763116191e-01) (164, 3.20086297528854701877e-01) (165, 2.74415328462835721168e-02) (166, 9.88734100248335745498e-02) (167, -6.28786146929633058683e-03) (168, 1.03640939553926850203e-01) (169, -9.95062102744322246606e-02) (170, 6.15797851184764974408e-02) (171, 2.46210728182067947745e-02) (172, 1.51796221346414163256e-02) (173, -2.23664422091749304222e-01) (174, 2.28037324144400838088e-01) (175, 2.14081921451842516202e-01) (176, -1.80117631663699678812e-01) (177, 3.73460509747058008734e-02) (178, -2.82111533445835060974e-01) (179, -4.90951436186335909984e-01) (180, 1.02838328648575377117e-02) (181, -1.40665588153003669886e-02) (182, 2.94561530760223788672e-01) (183, 3.74767916116343982602e-02) (184, 3.62309588134007487525e-01) (185, -2.10702629169183270480e-03) (186, -1.08018704002361326522e-01) (187, -5.28559462924134623729e-02) (188, 1.04525951316135318203e-01) (189, 1.22677545363325229966e-01) (190, 1.04448956122002903357e-01) (191, -3.13807399510575221746e-02) (192, -3.84734082852678724307e-02) (193, -1.97551898610196563499e-01) (194, 4.93532986828918440736e-01) (195, 2.95712678847323107156e-01) (196, -5.59011060614667876223e-01) (197, -5.39988265908756190359e-02) (198, -9.78790319825741522708e-02) (199, -5.32262206003336291182e-01) (200, 2.05386786570588203427e-01) (201, -5.05878347139185891024e-02) (202, -2.84005440828139221754e-01) (203, -4.05270726162757721767e-01) (204, 5.03228242616123644382e-01) (205, 2.90351281063443260322e-02) (206, -1.24311690142165129358e-01) (207, 2.27041355953888468466e-01) (208, 9.84143826362586654488e-02) (209, 9.23123866997751889307e-03) (210, 5.60850750663465860701e-02) (211, -9.08449409187022799417e-02) (212, -3.49587166216937084151e-01) (213, -2.94433470704046629240e-01) (214, 6.57045035501878316175e-01) (215, 2.84134310146079427373e-01) (216, -6.51492103070113515173e-01) (217, -7.41903039505700245826e-02) (218, -2.87189390290854273946e-01) (219, -1.13355651433091630942e+00) (220, 2.08360541219055256379e-01) (221, -5.32218723877632485242e-02) (222, -2.31669233370913218995e-01) (223, -5.17354204407501017116e-01) (224, 5.90323347551391486299e-01) (225, -8.39588827319381753034e-02) (226, -4.04853075347381463622e-01) (227, -2.07861286854976817784e-01) (228, 2.33631468906802419738e-01) (229, -2.53760023700930099910e-02) (230, 2.11600431119579990291e-01) (231, -9.90275299013631538081e-02) (232, -3.79901484815776124826e-01) (233, 6.24213883950147999102e-02) (234, 2.33757807361943875657e-01) (235, 1.48532663601996600677e-01) (236, -3.48610336047224189659e-01) (237, -6.46349097583521076116e-02) (238, -2.19063265846645954804e-01) (239, -6.10040655593415026559e-01) (240, 1.20932732021680797163e-01) (241, 4.55972359689799031091e-02) (242, -1.30214911533893834550e-01) (243, -3.26179725318315294480e-01) (244, 2.65579789361821361204e-01) (245, -2.80001880843455466796e-02) (246, -1.56983656139154409415e-01) (247, -1.99214188621243182276e-01) (248, -1.03280770039404501404e-02) (249, 3.06812114214327288919e-02) (250, -2.40028528930525397733e-02) (251, 1.22159243780319698436e-01) (252, -1.40176512361921495886e-01) (253, 2.64102121627852848285e-01) (254, 4.44776340428829519702e-01) (255, -1.90767467813189484094e-01) (256, -4.78863948130435812534e-01) (257, -2.21356068432961405890e-01) (258, -3.85874031939587719409e-02) (259, -3.68335306155184394328e-01) (260, 4.36661686894139894344e-02) (261, 6.47385918835499500623e-03) (262, 1.13164827631865444468e-01) (263, -2.17761271122427685354e-01) (264, 2.85044376165003443546e-01) (265, 1.42986555941251869406e-01) (266, -7.96206384063029293241e-02) (267, -2.07211293404638285942e-01) (268, 8.52940759057530251130e-02) (269, -6.96313182249140988356e-02) (270, 1.02341510817898093122e-01) (271, 1.73509356599820363520e-01) (272, -5.24730774069594799180e-02) (273, -1.00219803705599685983e-01) (274, 2.31171331832425913655e-01) (275, -2.05853822519412449354e-01) (276, -3.34426850976486444988e-01) (277, -1.10852495687958768622e-02) (278, -2.43799031453511255707e-01) (279, -6.25165207258803423684e-01) (280, 1.51959132027730509096e-01) (281, -7.74413501020515676609e-02) (282, 1.78004639183522439527e-01) (283, -6.14412021664828902900e-03) (284, 1.96250863252748763976e-01) (285, -2.82875920005006623037e-02) (286, -9.20929160274447655699e-02) (287, -2.26751395946038658558e-01) (288, -3.52829089078249835687e-02) (289, -8.85062885038100793933e-02) (290, 2.15488582214559298844e-01) (291, 1.95575306018428013433e-02) (292, -1.21743401192792102816e-01) (293, 1.98046045089468353284e-01) (294, 3.74161446171823064422e-01) (295, -1.19858229759292861383e-01) (296, -3.63504302256227707080e-01) (297, 1.11629712010052631332e-01) (298, -9.66442683315097555985e-02) (299, -2.45343943151971971561e-01) (300, 2.38857783392672114176e-02) (301, -4.01819742756345590906e-02) (302, 2.15660561693744562417e-01) (303, -2.14147012479635440174e-01) (304, 2.76375188019424400387e-01) (305, 2.39644558254345323156e-02) (306, -5.53027154343497251432e-02) (307, -1.28814782088559676154e-01) (308, -7.46846590833987883373e-02) (309, -1.13727381059821330833e-01) (310, -2.47352705390398407148e-02) (311, 1.04831716805544344906e-01) (312, -1.06236597234341187401e-01) (313, 2.08029376965871426464e-01) (314, 1.89029387080122929232e-01) (315, -1.07996714919452330844e-02) (316, -8.40066679255018766703e-02) (317, 1.19334100258163586239e-01) (318, -1.24643218127834978781e-01) (319, -1.01776954642709083210e-01) (320, 2.43552086503022985342e-01) (321, 8.06915042154197487134e-02) (322, -7.36473717343564399096e-02) (323, -9.61175288165437430310e-02) (324, 2.34545420728678982725e-01) (325, -6.48031226571080080923e-03) (326, -2.86924561286057311360e-01) (327, -2.83506158391667872909e-01) (328, -1.80987800828825096122e-01) (329, -1.98230535749595065953e-01) (330, 1.37130773815118567338e-01) (331, 4.99911914914291516387e-02) (332, -8.37704324575113262741e-02) (333, 2.73913650042910072901e-01) (334, 2.48513414029789242443e-01) (335, 1.32125464170485835275e-02) (336, 1.38739136126556750206e-01) (337, 1.22679604655328094998e-01) (338, -1.83340414894740594276e-01) (339, -7.99491009624584136883e-02) (340, 1.51315680929595075543e-01) (341, 9.47655368974072015442e-02) (342, 5.98409419928318392357e-02) (343, -1.05082706513606703724e-02) (344, 2.34204126062525330720e-01) (345, 2.79751512447315789367e-02) (346, -1.87984899833540108904e-01) (347, -5.32445092771158395850e-02) (348, 2.34732245833755561945e-03) (349, 2.15052100779603641567e-02) (350, 8.68583925700621393984e-03) (351, 5.05130149964689648123e-02) (352, -4.66466496890999490765e-02) (353, 1.86514384181130400686e-02) (354, 2.80631417501987112662e-01) (355, 7.09073465564069409239e-03) (356, -2.52922364862489951198e-02) (357, 2.49338737210071187400e-01) (358, -5.05161771028989278753e-02) (359, -1.81872365798950857974e-01) (360, 8.47589835945485453594e-02) (361, -2.60452217575280926820e-02) (362, 2.31769769240056516812e-01) (363, 4.97582789788515028606e-02) (364, 1.96975181856762937560e-01) (365, 1.38520268832279164206e-01) (366, -1.40208966261946454956e-01) (367, -1.40482438813293891711e-01) (368, -4.11685510556756562028e-01) (369, -2.90221269965308892314e-01) (370, -1.65347091053721605147e-02) (371, 2.43313134017616745225e-03) (372, 5.03284871634801650453e-02) (373, -3.23412484197733163249e-02) (374, 2.32871804621747641173e-01) (375, 2.07089342323015290770e-01) (376, -1.31070083559352734692e-01) (377, 1.75931285761226380293e-01) (378, -2.23958429020633092987e-01) (379, -2.11570832618618392962e-01) (380, 6.82251323625197164668e-02) (381, 1.95865506538189459995e-01) (382, 1.78444337494406995992e-01) (383, 2.20232154094373022701e-02) (384, 2.63535695971318872921e-01) (385, -4.16508728262948504928e-02) (386, -2.61395395440794431341e-01) (387, -1.69341708643547916857e-01) (388, -1.26863564350626983890e-01) (389, -1.16937116013481126608e-01) (390, 2.60034333797836483826e-02) (391, 1.69292691336310030525e-01) (392, -6.86289565082590924394e-02) (393, -3.17573416709480069176e-02) (394, 2.79988761724049128876e-01) (395, 3.85578891794506953272e-02) (396, 3.50924388627532821139e-02) (397, 4.18162166097215848293e-01) (398, -1.01528028569031578132e-01) (399, 2.46479348672516904162e-02) (400, 1.14765940705990637793e-01) (401, 2.34760696657021344924e-01) (402, -1.05045929818256431054e-01) (403, -1.18249836448265834704e-02) (404, 6.21154432143405446642e-02) (405, -1.14915043090766874623e-01) (406, -3.05821536428904083849e-01) (407, -7.63936149747485304662e-02) (408, -7.40075166613329976650e-02) (409, -2.67825993308676124638e-01) (410, 1.10965615441355885951e-01) (411, -4.40420034806296087360e-03) (412, -2.26040624605227224997e-01) (413, -2.86684358113928026979e-02) (414, 7.54429604329101295007e-03) (415, 5.81415578074683386811e-02) (416, 1.17711557213545647826e-01) (417, 1.67915158707902467672e-01) (418, 1.23494749548138077477e-01) (419, 8.10645817021323489282e-02) (420, 1.77692702438673355569e-01) (421, 3.31458882292035503236e-02) (422, 7.60239665203965575557e-02) (423, 5.93431643620974808018e-02) (424, 1.18911875795805074829e-01) (425, 5.77355906257234555157e-02) (426, 7.36130456222248430453e-02) (427, 7.95889956351338440088e-02) (428, 2.27701997219478639856e-02) (429, 7.05111228822473401490e-02) (430, 1.56201779558031106365e-01) (431, 2.40046448861390669671e-02) (432, -2.01889867340296971787e-02) (433, -7.92473305813289896626e-02) (434, 2.03066652655294298258e-02) (435, -2.80162844734754938603e-02) (436, 4.58920873847679967883e-03) (437, 5.07883178733384288428e-03) (438, 1.33423254579820488308e-01) (439, -5.15592521935562819735e-02) (440, 1.28111145432422107726e-01) (441, -3.61428261694073313381e-02) (442, -6.72408914854745118350e-03) (443, 1.06673701979604407253e-01) (444, 2.13613177469559739619e-02) (445, 4.97960439298171589351e-02) (446, 1.12697911718172130713e-01) (447, 1.38581662506609304408e-01) (448, -1.27672620703517369911e-01) (449, 1.60426712834232682026e-01) (450, -1.02545779994054328532e-01) (451, 9.46508218551289220999e-02) (452, -3.01335116390687683674e-02) (453, 2.29036464798418853972e-01) (454, -7.60627351514610167138e-02) (455, 2.63951367107959578018e-01) (456, -2.05690092758944537144e-01) (457, 1.78702036220215271234e-01) (458, -1.50146768806403596574e-01) (459, 1.96288013913948233835e-01) (460, -7.57600167351225456391e-02) (461, 9.15167325263663983259e-02) (462, -4.18840928319734809304e-03) (463, 1.07791983595163648468e-01) (464, 4.35932223136031998800e-02) (465, 6.35856832757449030868e-02) (466, 1.76348113279172130641e-01) (467, -4.53356884440780580348e-03) (468, 2.27439814006615455277e-02) (469, 3.20337864668607807950e-02) (470, 1.60634186621135710560e-01) (471, -1.06151512915911891421e-01) (472, 2.19887634432524986527e-01) (473, -2.01887408982077271036e-02) (474, 1.25579429441695034075e-01) (475, -8.85232941202973300232e-02) (476, 3.55051769937774833186e-02) (477, 2.23179593832237852316e-03) (478, 1.14636042126239588723e-02) (479, 3.47900553526336586696e-02) (480, 3.06175975223942298253e-01) (481, -1.26091048557029156152e-01) (482, 2.25792721130117529649e-01) (483, -3.84930972135875057449e-02) (484, 8.06880946007603461201e-02) (485, -2.93923760240124114229e-02) (486, 1.28531943648573565575e-01) (487, -1.97400423978991886031e-02) (488, 2.89624670343443579856e-01) (489, -2.25761273252432670411e-01) (490, 4.28375845183366840696e-02) (491, -6.47279302811780248017e-03) (492, -2.22040950216817953300e-02) (493, -9.29635772378790276038e-03) (494, -3.36321520199643758664e-02) (495, 2.67365566122473530264e-01) (496, 9.88284998258571051322e-02) (497, 1.29400737779588742571e-01) (498, -5.85648163203255356368e-02) (499, 1.16524575316920300794e-01) (500, 2.09915556041734563397e-02) (501, 1.00342836770475549169e-01) (502, -6.66302896239122643962e-02) (503, 1.52246745685394785363e-01) (504, -1.25288737997692523063e-01) (505, 2.41630753277791016087e-01) (506, 4.81108817408293296114e-02) (507, 1.44156788727146573104e-01) (508, -6.22326730535409378131e-02) (509, 1.61454950718361467388e-01) (510, -1.53758969601026529439e-01) (511, 1.97474894500670322683e-01) (512, -3.57904854700443059157e-02) (513, 2.15764875466182941277e-02) (514, 1.56131151576244436852e-01) (515, -1.93113870185121598577e-02) (516, 1.89731226698974624056e-02) (517, 7.29184249134811474091e-02) (518, -7.93125115125224294799e-02) (519, 1.88845729323579375469e-01) (520, 2.58007563599619051120e-02) (521, -2.78176640232134265995e-02) (522, 1.82910325589370620358e-02) (523, -1.31856367559372023024e-01) (524, 1.92142340254329024862e-02) (525, 1.90050742074291435790e-02) (526, -2.49208069624619582560e-01) (527, -9.67175096730832351000e-02) (528, 3.32527980238157772064e-01) (529, -2.32051370237181697753e-01) (530, -4.60026520035873229264e-02) (531, 3.69056312377860351592e-01) (532, 3.03578203289232018136e-02) (533, -2.81176083143144961429e-01) (534, 3.98696838468239000974e-01) (535, 2.00752591362733726066e-02) (536, -3.65121467263239074530e-01) (537, 2.88140428674647786078e-01) (538, 2.97567042866553999048e-01) (539, -2.82589722828440470526e-01) (540, -1.43913120625690084224e-03) (541, 3.71554696305332998740e-01) (542, -3.64806229328957717928e-02) (543, -2.26711011152575692140e-01) (544, 3.54157426583065926273e-01) (545, -2.53962696455422506925e-02) (546, -1.13389802647847690031e-01) (547, 3.59887120532830895314e-01) (548, -1.57393560712762198284e-01) (549, -1.75537873392185739263e-01) (550, 3.23235353920658607940e-01) (551, -2.28216044384782518195e-01) (552, -1.44621382723077396282e-01) (553, 3.06422760771055124884e-01) (554, -2.19473237465172693605e-01) (555, 2.49212174258382802849e-02) (556, 2.78190421983802949057e-01) (557, -2.58341279765431863780e-01) (558, 1.36723512019065462919e-01) (559, 2.04207230983956405934e-01) (560, -2.04026402516586463642e-01) (561, 1.33802123838258207877e-01) (562, 7.51386759822150196442e-02) (563, -2.34242769835325242989e-01) (564, 2.29123267442903066904e-01) (565, -6.94332179336333982222e-02) (566, -8.71285912305506393682e-02) (567, -1.34862969136800795594e-02) (568, -6.23693086702194806475e-03) (569, 9.92394035013078046337e-02) (570, -2.68046692873096570331e-01) (571, -2.39309143476066965572e-01) (572, -2.46995202237559996483e-01) (573, -2.51632183027780176321e-01) (574, -6.03140373415861685835e-01) (575, -9.56119944697582657689e-02) (576, -8.06658678698854714195e-02) (577, 1.13931035430139979137e-01) (578, -8.10493702043170727300e-02) (579, -3.19133015696737243339e-01) (580, -2.16029524892918656231e-01) (581, -8.78820272715742506486e-02) (582, -5.46547883203768042337e-02) (583, -2.29521988127909359889e-01) (584, -6.53164046309132467760e-02) (585, -9.14481115443050024405e-02) (586, -1.17811355056322092372e-01) (587, -6.02338529160316646371e-02) (588, -4.24107029136973553984e-02) (589, -5.84962261421255805272e-02) (590, -1.92707449579573482368e-02) (591, -1.14221032006025291494e-01) (592, 1.25005440411628115926e-01) (593, -1.43736059118212883279e-01) (594, -8.26131614627536869921e-02) (595, -1.94736602206207448651e-01) (596, -3.47182004085665948945e-02) (597, -1.06044148618263833761e-01) (598, -2.77861285807956825966e-02) (599, 8.04799513746212724641e-02) (600, 7.85466436053610696233e-03) (601, -3.02118080131051520987e-02) (602, 3.25607738430927912132e-02) (603, 4.70469451029331756087e-02) (604, 2.59833437961727829746e-02) (605, 2.15167301466132401822e-02) (606, -8.84234133528609550501e-02) (607, 9.71378156069635095848e-02) (608, 3.28609521485479616487e-01) (609, 1.84382153524002639911e-01) (610, 8.68048266833187504021e-02) (611, 7.72947329207813310648e-02) (612, 8.39269213683530801440e-01) (613, 1.73319956388716944762e-01) (614, 2.00686101281501133586e-01) (615, 3.99354217165677413681e-02) (616, 2.46300502880189647881e-01) (617, 6.21802362068627142988e-02) (618, 5.36825337144609532336e-02) (619, 1.58064243960389455568e-01) (620, -5.00533480461507751524e-02) (621, 2.40678804341421970214e-01) (622, -1.86497769101406085657e-02) (623, -8.33596805995023282243e-02) (624, -1.13680693184255079270e-02) (625, 1.51419431140192260743e-02) (626, -5.46784745137795721859e-02) (627, -1.51100712873435932826e-01) (628, 2.12360138723301644648e-02) (629, -3.52981277132965454157e-02) (630, -2.09382730727627280887e-01) (631, 1.78290917766937284661e-01) (632, -1.28619028371875970818e-01) (633, -9.49562802823696733290e-02) (634, 1.03333315196185993035e-02) (635, -1.05988531497357540978e-01) (636, 1.53704440852080372742e-02) (637, -1.30117067373349631909e-01) (638, -6.24253392260112199841e-02) (639, -1.35452097882723360156e-01) (640, 1.38687257740449904064e-01) (641, -1.77596523862112859460e-01) (642, -4.53220728901609706818e-02) (643, -6.65302442463705512310e-02) (644, 1.11460123960316036251e-02) (645, 4.76008466029992916013e-02) (646, -1.29782838995392585391e-01) (647, -1.19907199353632601402e-01) (648, -1.46128905805594483391e-01) (649, -1.99459930044582650632e-01) (650, 1.91412400972313739844e-01) (651, -3.05233589131328753030e-01) (652, -9.89306235902708691610e-02) (653, -6.77559553242039896981e-02) (654, 5.76124365620598807847e-02) (655, -7.41800849200566075892e-02) (656, -1.79438349440403821511e-01) (657, 6.07137146167149779202e-03) (658, -9.75729063080012642972e-02) (659, 1.02637247367056039238e-01) (660, -1.73692383596078074592e-02) (661, 2.34286251309681614607e-01) (662, -5.90244331790533011128e-02) (663, 1.18591424025002320497e-01) (664, 2.15364790950162643401e-01) (665, 1.63567205690241190830e-01) (666, 1.86363141623478278941e-01) (667, 1.96139155686355981523e-01) (668, -5.33383063908020246813e-02) (669, 1.91810469941999708204e-03) (670, 1.40986265493294682383e-01) (671, 1.00496626249950912757e-01) (672, 6.57773371879926543881e-02) (673, 2.65766865535458196579e-01) (674, 1.17892352567752725645e-01) (675, 4.59789759162095301726e-02) (676, 1.01458834131141095725e-01) (677, 1.85260660790046473301e-02) (678, -2.09213788418366464228e-01) (679, -1.71100727063895813318e-01) (680, -4.44728198557099302368e-02) (681, -5.75036972841040591731e-02) (682, -1.01720716605321975790e-01) (683, -4.87881148421990679109e-02) (684, 2.46234795570104518514e-02) (685, -1.06419721560213703659e-01) (686, -3.27274796168846304756e-02) (687, -1.62888246117086438192e-01) (688, -9.51879049265422216841e-02) (689, -1.14608403302757802522e-01) (690, 2.90204599813680304277e-02) (691, 9.59738836627912900168e-02) (692, -1.17588078913446435203e-02) (693, -9.96669210524493282000e-02) (694, 4.01747727135220167316e-02) (695, -2.51231888482167375898e-03) (696, -1.14672961197590961291e-01) (697, -1.07222239548688758060e-01) (698, -2.15726022285457896821e-01) (699, -1.45210771818834849523e-01) (700, -9.92493504762189809876e-02) (701, -1.37823352193822662448e-01) (702, -1.00818957630509409285e-01) (703, -1.67721705891418021439e-01) (704, -1.45994151430247826040e-01) (705, -1.18943648328074927378e-01) (706, -1.30143665708003175574e-01) (707, -1.61050129016295034967e-01) (708, -4.84224975497874812747e-02) (709, -1.06548001667400554782e-01) (710, -1.46769153646083977405e-01) (711, -7.83187509600001829924e-02) (712, -1.67835871461706476193e-01) (713, -6.97402262847762327569e-02) (714, 9.10473004083410183962e-03) (715, -1.45298212288803102465e-01) (716, -4.79887627183973805578e-02) (717, -6.94769434199483809644e-02) (718, -6.21521125658091658228e-02) (719, -3.14942737223134483493e-02) (720, 8.68721437551395608834e-02) (721, 7.74372520174417379793e-04) (722, 1.58872273534336083678e-01) (723, 1.15048897231412802777e-01) (724, 1.80951291261497518303e-02) (725, 4.70888493746058692246e-02) (726, 7.53233858142902529265e-02) (727, -5.21388957418416551515e-02) (728, -9.14317859176454611481e-02) (729, -9.38097003053127570515e-02) (730, -1.28694565141812045095e-01) (731, -1.34109191311155395709e-01) (732, -5.68565669811752147367e-02) (733, -6.03608196425341816949e-02) (734, -1.08489484662175166008e-02) (735, 1.19161730522858218956e-02) (736, 1.30176592328847141183e-02) (737, 2.54189356096833185550e-01) (738, -1.04639007323495250579e-01) (739, 7.88613058670387251370e-02) (740, -1.48315360662161555005e-01) (741, 9.72179003751144632517e-02) (742, 1.10176481864146996736e-01) (743, -1.35594635005995556298e-01) (744, 8.76605365868939750973e-02) (745, 1.66904844893042553222e-01) (746, -1.39130851258772975099e-01) (747, 1.91766663979486801095e-01) (748, -7.70009680878104285640e-02) (749, 4.66955546852330580232e-02) (750, 3.52188038194812189086e-02) (751, -5.82294672399477700186e-02) (752, 4.41614268596816697543e-02) (753, -5.76759784272457085713e-03) (754, -6.93645707018928636689e-02) (755, 8.55630840005455750585e-02) (756, 1.86559917967076049905e-01) (757, -1.03477164776783675526e-01) (758, 1.81911559100776942799e-01) (759, -4.15353544035879512775e-02) (760, -4.03721201996115885979e-02) (761, 2.16746337876915384779e-01) (762, -1.40226257127496114346e-02) (763, -1.15748083244706742589e-01) (764, 1.79103871859132096622e-01) (765, 2.47772157612727916831e-01) (766, 1.95923602121957397826e-02) (767, 1.03495048000541225997e-01) (768, -6.77969275616913114035e-02) (769, -8.31540373201227756006e-02) (770, 1.62298875888433030701e-01) (771, 3.00377114561673520809e-02) (772, 2.32939571246983750941e-01) (773, 1.32999648352496668835e-01) (774, -2.47722445742880631459e-01) (775, 7.43622965947616232363e-02) (776, 7.61983312394280548618e-02) (777, -1.71681520786757274566e-01) (778, 1.02548182659212838708e-01) (779, 3.80843057322902550643e-02) (780, -4.44075048487229673277e-02) (781, -1.56367943704344869449e-01) (782, 2.06718640019558197451e-01) (783, 7.18779370944236384311e-02) (784, -1.74170306426522703003e-01) (785, 2.82196609218577920686e-01) (786, 7.14555702134510445367e-02) (787, -3.49643557918624184322e-02) (788, -8.08557174626353819535e-02) (789, 7.08443153712805945288e-02) (790, 9.87680428099746016146e-02) (791, -8.58682212533670857768e-02) (792, -3.11453777765371940534e-02) (793, -3.27380041970275134644e-02) (794, -8.12809886688450194958e-02) (795, -1.77423066412186386520e-01) (796, -5.34000149017935868412e-02) (797, -5.54941913155337918084e-02) (798, -2.72195005310452431413e-02) (799, -1.86183609262025484554e-01) (800, 1.62598016975796164085e-02) (801, -6.47594196472602023906e-02) (802, -2.55563903341391840396e-01) (803, 5.44304726044344128200e-02) (804, -1.12913320048456000677e-01) (805, 5.35634554491602223047e-03) (806, -1.59434935663271201700e-02) (807, 7.25911170265820110403e-02) (808, -2.62867190726416045943e-02) (809, -2.01268439953233395368e-02) (810, 1.43437537826055921952e-02) (811, -8.53859335925043899662e-02) (812, 1.51221091641794480598e-01) (813, 7.10381475128748357539e-02) (814, 1.28161868690829044981e-01) (815, 1.24896252918815051092e-01) (816, 1.44132738298754281558e-01) (817, 2.21588853458378254313e-01) (818, 1.26126681263270007394e-01) (819, 1.92304872500981743899e-01) (820, 7.61017129904563022214e-02) (821, 1.99310597684046963973e-01) (822, 1.88283455731381443865e-01) (823, 7.64144970001565254636e-02) (824, 1.09471448979204424856e-01) (825, 1.93445407540684621850e-01) (826, 1.11762488969939052796e-01) (827, 1.38224590256050328119e-01) (828, 1.15618643529361464495e-01) (829, 6.97137900672274990477e-02) (830, 2.25430407678056332621e-01) (831, 9.88727471368687355069e-02) (832, 2.26964081658666633201e-01) (833, 1.52154608307298405689e-01) (834, 9.91504579005118430457e-02) (835, 1.06551508749043247204e-01) (836, 2.41867933369098508933e-01) (837, 1.40073590269448017276e-01) (838, 5.40772623281050440758e-02) (839, 1.42529421675406414716e-01) (840, 5.88269556608459753821e-02) (841, 1.53317651819357775311e-01) (842, 1.03459492748981307653e-01) (843, 2.37337749363583780035e-03) (844, 5.77335004988037067686e-02) (845, -2.36632393696973863939e-02) (846, 4.71313608573441858440e-02) (847, 1.51257260169293666907e-01) (848, -5.73431552333296314788e-03) (849, 2.59257150112249569462e-02) (850, 6.04830499340945834663e-02) (851, 1.38278789819746367185e-01) (852, 1.50481612583038354414e-01) (853, 1.17926245003484045371e-01) (854, 2.23172361253376638768e-01) (855, -6.24474383790469406152e-03) (856, -9.33190782433695048548e-02) (857, -1.16066332740113617450e-01) (858, -2.47533757182070379699e-01) (859, -7.77599558071217222821e-02) (860, 7.57410034856353803212e-02) (861, 9.23204158534299823557e-02) (862, 7.45824388007470251427e-02) (863, 8.69636169385568924550e-02) (864, 1.35383436915226612607e-01) (865, -7.22351308291769855785e-02) (866, 1.07605387026852045151e-01) (867, 1.51623569701124089049e-01) (868, 2.60033766392273824053e-01) (869, 4.56753034670864394018e-02) (870, -1.02739292358084530199e-01) (871, 1.25413085303842125606e-01) (872, -3.08890777219591149139e-02) (873, -2.25651230795898827264e-02) (874, -1.56052799503410052212e-02) (875, -1.59755299117289528699e-01) (876, 2.31452574468862144752e-02) (877, 2.45124225789501298811e-02) (878, -8.10334435207525349831e-02) (879, 7.49937268332015877226e-02) (880, -2.56583982238247493290e-02) (881, -1.02145976491211182280e-01) (882, 3.75190650517750676207e-02) (883, 1.59005274339248131588e-01) (884, -1.59980516951488127564e-01) (885, -1.60107680545397812466e-01) (886, 6.64450770689901243360e-02) (887, -3.55950193567894923596e-02) (888, 9.62380920344262646982e-02) (0, -3.57973856112150795594e-02) (1, 1.55001847856254537650e-01) (2, -1.24447469339358837703e-01) (3, 1.31948243188377334345e-01) (4, -2.56013636880109085592e-01) (5, -3.94426255943534989634e-02) (6, 2.20131109434453901830e-02) (7, -8.28746837603089869795e-02) (8, 7.92266595409425906926e-03) (9, 1.37350836627836786485e-01) (10, 2.21086569737422716786e-02) (11, -9.97634724099547183507e-03) (12, -1.43293495952934946125e-01) (13, -8.56756165747844244951e-02) (14, 6.36010634991831108609e-02) (15, -4.07257213913852278431e-01) (16, -1.12615234877009973147e-01) (17, 9.66573289001553259681e-02) (18, -5.24107718266982880451e-02) (19, 4.38826702514389377363e-02) (20, 9.64557406144668505465e-02) (21, -7.42172573131092833121e-02) (22, -2.16435985842960663950e-02) (23, 1.79165002186339933354e-01) (24, 5.00048653732746539724e-01) (25, 1.02925719596975384640e-01) (26, 3.02525956139307120041e-02) (27, 1.47487518597524180919e-01) (28, 1.04684208671146153358e-01) (29, -2.62986126803616167280e-02) (30, 1.64891865553062136329e-02) (31, 2.65244227670250812268e-02) (32, 8.97380008161657166665e-02) (33, -1.30140379710188026918e-02) (34, 1.63241517660324936267e-01) (35, 1.60945856120947861090e-01) (36, 1.87911586574757080714e-02) (37, 1.80406488427112682293e-02) (38, -4.57158815223008413442e-02) (39, 4.48204907892254672541e-02) (40, 6.48573345993994632153e-02) (41, 1.11518294102076961916e-01) (42, -1.87694887779031122088e-01) (43, -2.68343122494862862393e-01) (44, 3.96893158102049059544e-01) (45, -5.32703794793433077492e-02) (46, -3.63208881795073879051e-01) (47, -1.55167704465553307758e-01) (48, 1.95492394564626054132e-01) (49, -5.86582613936593028070e-02) (50, -9.86028325161674851218e-02) (51, -5.58457560988286291770e-02) (52, 2.38494614538136643495e-03) (53, -4.12236027864103307672e-02) (54, 5.37050198983823057208e-02) (55, 6.42377848883543683955e-02) (56, -9.24618640791721735361e-02) (57, 1.67708887810695095322e-01) (58, -1.40073045936947443435e-01) (59, -1.10066596331199161030e-02) (60, -1.88531370501436479348e-01) (61, 9.69700130270608091909e-03) (62, 3.40232791091314656917e-01) (63, -1.42116520382376543274e-01) (64, 3.11653621628156352052e-01) (65, -6.34874983715862789557e-03) (66, -4.07085969524639216394e-03) (67, 2.95864574590634556855e-03) (68, 5.80641462517216822015e-02) (69, 3.00947302076672862370e-01) (70, 7.46413591259225267516e-02) (71, 4.66752087758266331202e-03) (72, 2.32473636790621301929e-01) (73, -3.41326706745531185949e-02) (74, 1.78761480003147260609e-01) (75, 4.38342050638496974480e-02) (76, -1.88115628833056929003e-02) (77, 9.27419104213021150418e-02) (78, -1.19430726924975499914e-01) (79, 1.60532634536063589792e-02) (80, -8.85326920704999770217e-02) (81, -7.37098491181697595964e-02) (82, 1.26729514608441423684e-01) (83, 1.12662959023029377037e-01) (84, 2.55202628400686415411e-01) (85, 5.13000078598832912058e-03) (86, -5.87257872405339206856e-02) (87, -2.06320452254033614992e-01) (88, 1.39403207943328916185e-01) (89, 1.39568642545554844059e-01) (90, -6.10841199738218418314e-02) (91, 9.74109717913192729721e-02) (92, 2.39220031337122412962e-01) (93, 1.44203791430885547298e-01) (94, -1.72303112631581219205e-02) (95, 1.91708003117377970281e-02) (96, 1.61343247956387964015e-01) (97, -2.10899020726669023107e-01) (98, -9.85756664987580549786e-02) (99, -6.35539336108398161818e-02) (100, -6.05299724050748551990e-03) (101, -1.35477517384148649082e-01) (102, -8.71806611749748328055e-02) (103, 2.89961534436866327780e-02) (104, 