FANN_FLO_2.1
num_layers=3
learning_rate=0.100000
connection_rate=1.000000
network_type=0
learning_momentum=0.300000
training_algorithm=0
train_error_function=0
train_stop_function=0
cascade_output_change_fraction=0.010000
quickprop_decay=-0.000100
quickprop_mu=1.750000
rprop_increase_factor=1.200000
rprop_decrease_factor=0.500000
rprop_delta_min=0.000000
rprop_delta_max=50.000000
rprop_delta_zero=0.100000
cascade_output_stagnation_epochs=12
cascade_candidate_change_fraction=0.010000
cascade_candidate_stagnation_epochs=12
cascade_max_out_epochs=150
cascade_max_cand_epochs=150
cascade_num_candidate_groups=2
bit_fail_limit=3.49999999999999977796e-01
cascade_candidate_limit=1.00000000000000000000e+03
cascade_weight_multiplier=4.00000000000000022204e-01
cascade_activation_functions_count=10
cascade_activation_functions=3 5 7 8 10 11 14 15 16 17 
cascade_activation_steepnesses_count=4
cascade_activation_steepnesses=2.50000000000000000000e-01 5.00000000000000000000e-01 7.50000000000000000000e-01 1.00000000000000000000e+00 
layer_sizes=979 71 3 
scale_included=0
neurons (num_inputs, activation_function, activation_steepness)=(0, 0, 0.00000000000000000000e+00) (0, 0, 0.00000000000000000000e+00) (0, 0, 0.00000000000000000000e+00) (0, 0, 0.00000000000000000000e+00) (0, 0, 0.00000000000000000000e+00) (0, 0, 0.00000000000000000000e+00) (0, 0, 0.00000000000000000000e+00) (0, 0, 0.00000000000000000000e+00) (0, 0, 0.00000000000000000000e+00) (0, 0, 0.00000000000000000000e+00) (0, 0, 0.00000000000000000000e+00) (0, 0, 0.00000000000000000000e+00) (0, 0, 0.00000000000000000000e+00) (0, 0, 0.00000000000000000000e+00) (0, 0, 0.00000000000000000000e+00) (0, 0, 0.00000000000000000000e+00) (0, 0, 0.00000000000000000000e+00) (0, 0, 0.00000000000000000000e+00) (0, 0, 0.00000000000000000000e+00) (0, 0, 0.00000000000000000000e+00) (0, 0, 0.00000000000000000000e+00) (0, 0, 0.00000000000000000000e+00) (0, 0, 0.00000000000000000000e+00) (0, 0, 0.00000000000000000000e+00) (0, 0, 0.00000000000000000000e+00) (0, 0, 0.00000000000000000000e+00) (0, 0, 0.00000000000000000000e+00) (0, 0, 0.00000000000000000000e+00) (0, 0, 0.00000000000000000000e+00) (0, 0, 0.00000000000000000000e+00) (0, 0, 0.00000000000000000000e+00) (0, 0, 0.00000000000000000000e+00) (0, 0, 0.00000000000000000000e+00) (0, 0, 0.00000000000000000000e+00) (0, 0, 0.00000000000000000000e+00) (0, 0, 0.00000000000000000000e+00) (0, 0, 0.00000000000000000000e+00) (0, 0, 0.00000000000000000000e+00) (0, 0, 0.00000000000000000000e+00) (0, 0, 0.00000000000000000000e+00) (0, 0, 0.00000000000000000000e+00) (0, 0, 0.00000000000000000000e+00) (0, 0, 0.00000000000000000000e+00) (0, 0, 0.00000000000000000000e+00) (0, 0, 0.00000000000000000000e+00) (0, 0, 0.00000000000000000000e+00) (0, 0, 0.00000000000000000000e+00) (0, 0, 0.00000000000000000000e+00) (0, 0, 0.00000000000000000000e+00) (0, 0, 0.00000000000000000000e+00) (0, 0, 0.00000000000000000000e+00) (0, 0, 0.00000000000000000000e+00) (0, 0, 0.00000000000000000000e+00) (0, 0, 0.00000000000000000000e+00) (0, 0, 0.00000000000000000000e+00) (0, 0, 0.00000000000000000000e+00) (0, 0, 0.00000000000000000000e+00) (0, 0, 0.00000000000000000000e+00) (0, 0, 0.00000000000000000000e+00) (0, 0, 0.00000000000000000000e+00) (0, 0, 0.00000000000000000000e+00) (0, 0, 0.00000000000000000000e+00) (0, 0, 0.00000000000000000000e+00) (0, 0, 0.00000000000000000000e+00) (0, 0, 0.00000000000000000000e+00) (0, 0, 0.00000000000000000000e+00) (0, 0, 0.00000000000000000000e+00) (0, 0, 0.00000000000000000000e+00) (0, 0, 0.00000000000000000000e+00) (0, 0, 0.00000000000000000000e+00) (0, 0, 0.00000000000000000000e+00) (0, 0, 0.00000000000000000000e+00) (0, 0, 0.00000000000000000000e+00) (0, 0, 0.00000000000000000000e+00) (0, 0, 0.00000000000000000000e+00) (0, 0, 0.00000000000000000000e+00) (0, 0, 0.00000000000000000000e+00) (0, 0, 0.00000000000000000000e+00) (0, 0, 0.00000000000000000000e+00) (0, 0, 0.00000000000000000000e+00) (0, 0, 0.00000000000000000000e+00) (0, 0, 0.00000000000000000000e+00) (0, 0, 0.00000000000000000000e+00) (0, 0, 0.00000000000000000000e+00) (0, 0, 0.00000000000000000000e+00) (0, 0, 0.00000000000000000000e+00) (0, 0, 0.00000000000000000000e+00) (0, 0, 0.00000000000000000000e+00) (0, 0, 0.00000000000000000000e+00) (0, 0, 0.00000000000000000000e+00) (0, 0, 0.00000000000000000000e+00) (0, 0, 0.00000000000000000000e+00) (0, 0, 0.00000000000000000000e+00) (0, 0, 0.00000000000000000000e+00) (0, 0, 0.00000000000000000000e+00) (0, 0, 0.00000000000000000000e+00) (0, 0, 0.00000000000000000000e+00) (0, 0, 0.00000000000000000000e+00) (0, 0, 0.00000000000000000000e+00) (0, 0, 0.00000000000000000000e+00) (0, 0, 0.00000000000000000000e+00) (0, 0, 0.00000000000000000000e+00) (0, 0, 0.00000000000000000000e+00) (0, 0, 0.00000000000000000000e+00) (0, 0, 0.00000000000000000000e+00) (0, 0, 0.00000000000000000000e+00) (0, 0, 0.00000000000000000000e+00) (0, 0, 0.00000000000000000000e+00) (0, 0, 0.00000000000000000000e+00) (0, 0, 0.00000000000000000000e+00) (0, 0, 0.00000000000000000000e+00) (0, 0, 0.00000000000000000000e+00) (0, 0, 0.00000000000000000000e+00) (0, 0, 0.00000000000000000000e+00) (0, 0, 0.00000000000000000000e+00) (0, 0, 0.00000000000000000000e+00) (0, 0, 0.00000000000000000000e+00) (0, 0, 0.00000000000000000000e+00) (0, 0, 0.00000000000000000000e+00) (0, 0, 0.00000000000000000000e+00) (0, 0, 0.00000000000000000000e+00) (0, 0, 0.00000000000000000000e+00) (0, 0, 0.00000000000000000000e+00) (0, 0, 0.00000000000000000000e+00) (0, 0, 0.00000000000000000000e+00) (0, 0, 0.00000000000000000000e+00) (0, 0, 0.00000000000000000000e+00) (0, 0, 0.00000000000000000000e+00) (0, 0, 0.00000000000000000000e+00) (0, 0, 0.00000000000000000000e+00) (0, 0, 0.00000000000000000000e+00) (0, 0, 0.00000000000000000000e+00) (0, 0, 0.00000000000000000000e+00) (0, 0, 0.00000000000000000000e+00) (0, 0, 0.00000000000000000000e+00) (0, 0, 0.00000000000000000000e+00) (0, 0, 0.00000000000000000000e+00) (0, 0, 0.00000000000000000000e+00) (0, 0, 0.00000000000000000000e+00) (0, 0, 0.00000000000000000000e+00) (0, 0, 0.00000000000000000000e+00) (0, 0, 0.00000000000000000000e+00) (0, 0, 0.00000000000000000000e+00) (0, 0, 0.00000000000000000000e+00) (0, 0, 0.00000000000000000000e+00) (0, 0, 0.00000000000000000000e+00) (0, 0, 0.00000000000000000000e+00) (0, 0, 0.00000000000000000000e+00) (0, 0, 0.00000000000000000000e+00) (0, 0, 0.00000000000000000000e+00) (0, 0, 0.00000000000000000000e+00) (0, 0, 0.00000000000000000000e+00) (0, 0, 0.00000000000000000000e+00) (0, 0, 0.00000000000000000000e+00) (0, 0, 0.00000000000000000000e+00) (0, 0, 0.00000000000000000000e+00) (0, 0, 0.00000000000000000000e+00) (0, 0, 0.00000000000000000000e+00) (0, 0, 0.00000000000000000000e+00) (0, 0, 0.00000000000000000000e+00) (0, 0, 0.00000000000000000000e+00) (0, 0, 0.00000000000000000000e+00) (0, 0, 0.00000000000000000000e+00) (0, 0, 0.00000000000000000000e+00) (0, 0, 0.00000000000000000000e+00) (0, 0, 0.00000000000000000000e+00) (0, 0, 0.00000000000000000000e+00) (0, 0, 0.00000000000000000000e+00) (0, 0, 0.00000000000000000000e+00) (0, 0, 0.00000000000000000000e+00) (0, 0, 0.00000000000000000000e+00) (0, 0, 0.00000000000000000000e+00) (0, 0, 0.00000000000000000000e+00) (0, 0, 0.00000000000000000000e+00) (0, 0, 0.00000000000000000000e+00) (0, 0, 0.00000000000000000000e+00) (0, 0, 0.00000000000000000000e+00) (0, 0, 0.00000000000000000000e+00) (0, 0, 0.00000000000000000000e+00) (0, 0, 0.00000000000000000000e+00) (0, 0, 0.00000000000000000000e+00) (0, 0, 0.00000000000000000000e+00) (0, 0, 0.00000000000000000000e+00) (0, 0, 0.00000000000000000000e+00) (0, 0, 0.00000000000000000000e+00) (0, 0, 0.00000000000000000000e+00) (0, 0, 0.00000000000000000000e+00) (0, 0, 0.00000000000000000000e+00) (0, 0, 0.00000000000000000000e+00) (0, 0, 0.00000000000000000000e+00) (0, 0, 0.00000000000000000000e+00) (0, 0, 0.00000000000000000000e+00) (0, 0, 0.00000000000000000000e+00) (0, 0, 0.00000000000000000000e+00) (0, 0, 0.00000000000000000000e+00) (0, 0, 0.00000000000000000000e+00) (0, 0, 0.00000000000000000000e+00) (0, 0, 0.00000000000000000000e+00) (0, 0, 0.00000000000000000000e+00) (0, 0, 0.00000000000000000000e+00) (0, 0, 0.00000000000000000000e+00) (0, 0, 0.00000000000000000000e+00) (0, 0, 0.00000000000000000000e+00) (0, 0, 0.00000000000000000000e+00) (0, 0, 0.00000000000000000000e+00) (0, 0, 0.00000000000000000000e+00) (0, 0, 0.00000000000000000000e+00) (0, 0, 0.00000000000000000000e+00) (0, 0, 0.00000000000000000000e+00) (0, 0, 0.00000000000000000000e+00) (0, 0, 0.00000000000000000000e+00) (0, 0, 0.00000000000000000000e+00) (0, 0, 0.00000000000000000000e+00) (0, 0, 0.00000000000000000000e+00) (0, 0, 0.00000000000000000000e+00) (0, 0, 0.00000000000000000000e+00) (0, 0, 0.00000000000000000000e+00) (0, 0, 0.00000000000000000000e+00) (0, 0, 0.00000000000000000000e+00) (0, 0, 0.00000000000000000000e+00) (0, 0, 0.00000000000000000000e+00) (0, 0, 0.00000000000000000000e+00) (0, 0, 0.00000000000000000000e+00) (0, 0, 0.00000000000000000000e+00) (0, 0, 0.00000000000000000000e+00) (0, 0, 0.00000000000000000000e+00) (0, 0, 0.00000000000000000000e+00) (0, 0, 0.00000000000000000000e+00) (0, 0, 0.00000000000000000000e+00) (0, 0, 0.00000000000000000000e+00) (0, 0, 0.00000000000000000000e+00) (0, 0, 0.00000000000000000000e+00) (0, 0, 0.00000000000000000000e+00) (0, 0, 0.00000000000000000000e+00) (0, 0, 0.00000000000000000000e+00) (0, 0, 0.00000000000000000000e+00) (0, 0, 0.00000000000000000000e+00) (0, 0, 0.00000000000000000000e+00) (0, 0, 0.00000000000000000000e+00) (0, 0, 0.00000000000000000000e+00) (0, 0, 0.00000000000000000000e+00) (0, 0, 0.00000000000000000000e+00) (0, 0, 0.00000000000000000000e+00) (0, 0, 0.00000000000000000000e+00) (0, 0, 0.00000000000000000000e+00) (0, 0, 0.00000000000000000000e+00) (0, 0, 0.00000000000000000000e+00) (0, 0, 0.00000000000000000000e+00) (0, 0, 0.00000000000000000000e+00) (0, 0, 0.00000000000000000000e+00) (0, 0, 0.00000000000000000000e+00) (0, 0, 0.00000000000000000000e+00) (0, 0, 0.00000000000000000000e+00) (0, 0, 0.00000000000000000000e+00) (0, 0, 0.00000000000000000000e+00) (0, 0, 0.00000000000000000000e+00) (0, 0, 0.00000000000000000000e+00) (0, 0, 0.00000000000000000000e+00) (0, 0, 0.00000000000000000000e+00) (0, 0, 0.00000000000000000000e+00) (0, 0, 0.00000000000000000000e+00) (0, 0, 0.00000000000000000000e+00) (0, 0, 0.00000000000000000000e+00) (0, 0, 0.00000000000000000000e+00) (0, 0, 0.00000000000000000000e+00) (0, 0, 0.00000000000000000000e+00) (0, 0, 0.00000000000000000000e+00) (0, 0, 0.00000000000000000000e+00) (0, 0, 0.00000000000000000000e+00) (0, 0, 0.00000000000000000000e+00) (0, 0, 0.00000000000000000000e+00) (0, 0, 0.00000000000000000000e+00) (0, 0, 0.00000000000000000000e+00) (0, 0, 0.00000000000000000000e+00) (0, 0, 0.00000000000000000000e+00) (0, 0, 0.00000000000000000000e+00) (0, 0, 0.00000000000000000000e+00) (0, 0, 0.00000000000000000000e+00) (0, 0, 0.00000000000000000000e+00) (0, 0, 0.00000000000000000000e+00) (0, 0, 0.00000000000000000000e+00) (0, 0, 0.00000000000000000000e+00) (0, 0, 0.00000000000000000000e+00) (0, 0, 0.00000000000000000000e+00) (0, 0, 0.00000000000000000000e+00) (0, 0, 0.00000000000000000000e+00) (0, 0, 0.00000000000000000000e+00) (0, 0, 0.00000000000000000000e+00) (0, 0, 0.00000000000000000000e+00) (0, 0, 0.00000000000000000000e+00) (0, 0, 0.00000000000000000000e+00) (0, 0, 0.00000000000000000000e+00) (0, 0, 0.00000000000000000000e+00) (0, 0, 0.00000000000000000000e+00) (0, 0, 0.00000000000000000000e+00) (0, 0, 0.00000000000000000000e+00) (0, 0, 0.00000000000000000000e+00) (0, 0, 0.00000000000000000000e+00) (0, 0, 0.00000000000000000000e+00) (0, 0, 0.00000000000000000000e+00) (0, 0, 0.00000000000000000000e+00) (0, 0, 0.00000000000000000000e+00) (0, 0, 0.00000000000000000000e+00) (0, 0, 0.00000000000000000000e+00) (0, 0, 0.00000000000000000000e+00) (0, 0, 0.00000000000000000000e+00) (0, 0, 0.00000000000000000000e+00) (0, 0, 0.00000000000000000000e+00) (0, 0, 0.00000000000000000000e+00) (0, 0, 0.00000000000000000000e+00) (0, 0, 0.00000000000000000000e+00) (0, 0, 0.00000000000000000000e+00) (0, 0, 0.00000000000000000000e+00) (0, 0, 0.00000000000000000000e+00) (0, 0, 0.00000000000000000000e+00) (0, 0, 0.00000000000000000000e+00) (0, 0, 0.00000000000000000000e+00) (0, 0, 0.00000000000000000000e+00) (0, 0, 0.00000000000000000000e+00) (0, 0, 0.00000000000000000000e+00) (0, 0, 0.00000000000000000000e+00) (0, 0, 0.00000000000000000000e+00) (0, 0, 0.00000000000000000000e+00) (0, 0, 0.00000000000000000000e+00) (0, 0, 0.00000000000000000000e+00) (0, 0, 0.00000000000000000000e+00) (0, 0, 0.00000000000000000000e+00) (0, 0, 0.00000000000000000000e+00) (0, 0, 0.00000000000000000000e+00) (0, 0, 0.00000000000000000000e+00) (0, 0, 0.00000000000000000000e+00) (0, 0, 0.00000000000000000000e+00) (0, 0, 0.00000000000000000000e+00) (0, 0, 0.00000000000000000000e+00) (0, 0, 0.00000000000000000000e+00) (0, 0, 0.00000000000000000000e+00) (0, 0, 0.00000000000000000000e+00) (0, 0, 0.00000000000000000000e+00) (0, 0, 0.00000000000000000000e+00) (0, 0, 0.00000000000000000000e+00) (0, 0, 0.00000000000000000000e+00) (0, 0, 0.00000000000000000000e+00) (0, 0, 0.00000000000000000000e+00) (0, 0, 0.00000000000000000000e+00) (0, 0, 0.00000000000000000000e+00) (0, 0, 0.00000000000000000000e+00) (0, 0, 0.00000000000000000000e+00) (0, 0, 0.00000000000000000000e+00) (0, 0, 0.00000000000000000000e+00) (0, 0, 0.00000000000000000000e+00) (0, 0, 0.00000000000000000000e+00) (0, 0, 0.00000000000000000000e+00) (0, 0, 0.00000000000000000000e+00) (0, 0, 0.00000000000000000000e+00) (0, 0, 0.00000000000000000000e+00) (0, 0, 0.00000000000000000000e+00) (0, 0, 0.00000000000000000000e+00) (0, 0, 0.00000000000000000000e+00) (0, 0, 0.00000000000000000000e+00) (0, 0, 0.00000000000000000000e+00) (0, 0, 0.00000000000000000000e+00) (0, 0, 0.00000000000000000000e+00) (0, 0, 0.00000000000000000000e+00) (0, 0, 0.00000000000000000000e+00) (0, 0, 0.00000000000000000000e+00) (0, 0, 0.00000000000000000000e+00) (0, 0, 0.00000000000000000000e+00) (0, 0, 0.00000000000000000000e+00) (0, 0, 0.00000000000000000000e+00) (0, 0, 0.00000000000000000000e+00) (0, 0, 0.00000000000000000000e+00) (0, 0, 0.00000000000000000000e+00) (0, 0, 0.00000000000000000000e+00) (0, 0, 0.00000000000000000000e+00) (0, 0, 0.00000000000000000000e+00) (0, 0, 0.00000000000000000000e+00) (0, 0, 0.00000000000000000000e+00) (0, 0, 0.00000000000000000000e+00) (0, 0, 0.00000000000000000000e+00) (0, 0, 0.00000000000000000000e+00) (0, 0, 0.00000000000000000000e+00) (0, 0, 0.00000000000000000000e+00) (0, 0, 0.00000000000000000000e+00) (0, 0, 0.00000000000000000000e+00) (0, 0, 0.00000000000000000000e+00) (0, 0, 0.00000000000000000000e+00) (0, 0, 0.00000000000000000000e+00) (0, 0, 0.00000000000000000000e+00) (0, 0, 0.00000000000000000000e+00) (0, 0, 0.00000000000000000000e+00) (0, 0, 0.00000000000000000000e+00) (0, 0, 0.00000000000000000000e+00) (0, 0, 0.00000000000000000000e+00) (0, 0, 0.00000000000000000000e+00) (0, 0, 0.00000000000000000000e+00) (0, 0, 0.00000000000000000000e+00) (0, 0, 0.00000000000000000000e+00) (0, 0, 0.00000000000000000000e+00) (0, 0, 0.00000000000000000000e+00) (0, 0, 0.00000000000000000000e+00) (0, 0, 0.00000000000000000000e+00) (0, 0, 0.00000000000000000000e+00) (0, 0, 0.00000000000000000000e+00) (0, 0, 0.00000000000000000000e+00) (0, 0, 0.00000000000000000000e+00) (0, 0, 0.00000000000000000000e+00) (0, 0, 0.00000000000000000000e+00) (0, 0, 0.00000000000000000000e+00) (0, 0, 0.00000000000000000000e+00) (0, 0, 0.00000000000000000000e+00) (0, 0, 0.00000000000000000000e+00) (0, 0, 0.00000000000000000000e+00) (0, 0, 0.00000000000000000000e+00) (0, 0, 0.00000000000000000000e+00) (0, 0, 0.00000000000000000000e+00) (0, 0, 0.00000000000000000000e+00) (0, 0, 0.00000000000000000000e+00) (0, 0, 0.00000000000000000000e+00) (0, 0, 0.00000000000000000000e+00) (0, 0, 0.00000000000000000000e+00) (0, 0, 0.00000000000000000000e+00) (0, 0, 0.00000000000000000000e+00) (0, 0, 0.00000000000000000000e+00) (0, 0, 0.00000000000000000000e+00) (0, 0, 0.00000000000000000000e+00) (0, 0, 0.00000000000000000000e+00) (0, 0, 0.00000000000000000000e+00) (0, 0, 0.00000000000000000000e+00) (0, 0, 0.00000000000000000000e+00) (0, 0, 0.00000000000000000000e+00) (0, 0, 0.00000000000000000000e+00) (0, 0, 0.00000000000000000000e+00) (0, 0, 0.00000000000000000000e+00) (0, 0, 0.00000000000000000000e+00) (0, 0, 0.00000000000000000000e+00) (0, 0, 0.00000000000000000000e+00) (0, 0, 0.00000000000000000000e+00) (0, 0, 0.00000000000000000000e+00) (0, 0, 0.00000000000000000000e+00) (0, 0, 0.00000000000000000000e+00) (0, 0, 0.00000000000000000000e+00) (0, 0, 0.00000000000000000000e+00) (0, 0, 0.00000000000000000000e+00) (0, 0, 0.00000000000000000000e+00) (0, 0, 0.00000000000000000000e+00) (0, 0, 0.00000000000000000000e+00) (0, 0, 0.00000000000000000000e+00) (0, 0, 0.00000000000000000000e+00) (0, 0, 0.00000000000000000000e+00) (0, 0, 0.00000000000000000000e+00) (0, 0, 0.00000000000000000000e+00) (0, 0, 0.00000000000000000000e+00) (0, 0, 0.00000000000000000000e+00) (0, 0, 0.00000000000000000000e+00) (0, 0, 0.00000000000000000000e+00) (0, 0, 0.00000000000000000000e+00) (0, 0, 0.00000000000000000000e+00) (0, 0, 0.00000000000000000000e+00) (0, 0, 0.00000000000000000000e+00) (0, 0, 0.00000000000000000000e+00) (0, 0, 0.00000000000000000000e+00) (0, 0, 0.00000000000000000000e+00) (0, 0, 0.00000000000000000000e+00) (0, 0, 0.00000000000000000000e+00) (0, 0, 0.00000000000000000000e+00) (0, 0, 0.00000000000000000000e+00) (0, 0, 0.00000000000000000000e+00) (0, 0, 0.00000000000000000000e+00) (0, 0, 0.00000000000000000000e+00) (0, 0, 0.00000000000000000000e+00) (0, 0, 0.00000000000000000000e+00) (0, 0, 0.00000000000000000000e+00) (0, 0, 0.00000000000000000000e+00) (0, 0, 0.00000000000000000000e+00) (0, 0, 0.00000000000000000000e+00) (0, 0, 0.00000000000000000000e+00) (0, 0, 0.00000000000000000000e+00) (0, 0, 0.00000000000000000000e+00) (0, 0, 0.00000000000000000000e+00) (0, 0, 0.00000000000000000000e+00) (0, 0, 0.00000000000000000000e+00) (0, 0, 0.00000000000000000000e+00) (0, 0, 0.00000000000000000000e+00) (0, 0, 0.00000000000000000000e+00) (0, 0, 0.00000000000000000000e+00) (0, 0, 0.00000000000000000000e+00) (0, 0, 0.00000000000000000000e+00) (0, 0, 0.00000000000000000000e+00) (0, 0, 0.00000000000000000000e+00) (0, 0, 0.00000000000000000000e+00) (0, 0, 0.00000000000000000000e+00) (0, 0, 0.00000000000000000000e+00) (0, 0, 0.00000000000000000000e+00) (0, 0, 0.00000000000000000000e+00) (0, 0, 0.00000000000000000000e+00) (0, 0, 0.00000000000000000000e+00) (0, 0, 0.00000000000000000000e+00) (0, 0, 0.00000000000000000000e+00) (0, 0, 0.00000000000000000000e+00) (0, 0, 0.00000000000000000000e+00) (0, 0, 0.00000000000000000000e+00) (0, 0, 0.00000000000000000000e+00) (0, 0, 0.00000000000000000000e+00) (0, 0, 0.00000000000000000000e+00) (0, 0, 0.00000000000000000000e+00) (0, 0, 0.00000000000000000000e+00) (0, 0, 0.00000000000000000000e+00) (0, 0, 0.00000000000000000000e+00) (0, 0, 0.00000000000000000000e+00) (0, 0, 0.00000000000000000000e+00) (0, 0, 0.00000000000000000000e+00) (0, 0, 0.00000000000000000000e+00) (0, 0, 0.00000000000000000000e+00) (0, 0, 0.00000000000000000000e+00) (0, 0, 0.00000000000000000000e+00) (0, 0, 0.00000000000000000000e+00) (0, 0, 0.00000000000000000000e+00) (0, 0, 0.00000000000000000000e+00) (0, 0, 0.00000000000000000000e+00) (0, 0, 0.00000000000000000000e+00) (0, 0, 0.00000000000000000000e+00) (0, 0, 0.00000000000000000000e+00) (0, 0, 0.00000000000000000000e+00) (0, 0, 0.00000000000000000000e+00) (0, 0, 0.00000000000000000000e+00) (0, 0, 0.00000000000000000000e+00) (0, 0, 0.00000000000000000000e+00) (0, 0, 0.00000000000000000000e+00) (0, 0, 0.00000000000000000000e+00) (0, 0, 0.00000000000000000000e+00) (0, 0, 0.00000000000000000000e+00) (0, 0, 0.00000000000000000000e+00) (0, 0, 0.00000000000000000000e+00) (0, 0, 0.00000000000000000000e+00) (0, 0, 0.00000000000000000000e+00) (0, 0, 0.00000000000000000000e+00) (0, 0, 0.00000000000000000000e+00) (0, 0, 0.00000000000000000000e+00) (0, 0, 0.00000000000000000000e+00) (0, 0, 0.00000000000000000000e+00) (0, 0, 0.00000000000000000000e+00) (0, 0, 0.00000000000000000000e+00) (0, 0, 0.00000000000000000000e+00) (0, 0, 0.00000000000000000000e+00) (0, 0, 0.00000000000000000000e+00) (0, 0, 0.00000000000000000000e+00) (0, 0, 0.00000000000000000000e+00) (0, 0, 0.00000000000000000000e+00) (0, 0, 0.00000000000000000000e+00) (0, 0, 0.00000000000000000000e+00) (0, 0, 0.00000000000000000000e+00) (0, 0, 0.00000000000000000000e+00) (0, 0, 0.00000000000000000000e+00) (0, 0, 0.00000000000000000000e+00) (0, 0, 0.00000000000000000000e+00) (0, 0, 0.00000000000000000000e+00) (0, 0, 0.00000000000000000000e+00) (0, 0, 0.00000000000000000000e+00) (0, 0, 0.00000000000000000000e+00) (0, 0, 0.00000000000000000000e+00) (0, 0, 0.00000000000000000000e+00) (0, 0, 0.00000000000000000000e+00) (0, 0, 0.00000000000000000000e+00) (0, 0, 0.00000000000000000000e+00) (0, 0, 0.00000000000000000000e+00) (0, 0, 0.00000000000000000000e+00) (0, 0, 0.00000000000000000000e+00) (0, 0, 0.00000000000000000000e+00) (0, 0, 0.00000000000000000000e+00) (0, 0, 0.00000000000000000000e+00) (0, 0, 0.00000000000000000000e+00) (0, 0, 0.00000000000000000000e+00) (0, 0, 0.00000000000000000000e+00) (0, 0, 0.00000000000000000000e+00) (0, 0, 0.00000000000000000000e+00) (0, 0, 0.00000000000000000000e+00) (0, 0, 0.00000000000000000000e+00) (0, 0, 0.00000000000000000000e+00) (0, 0, 0.00000000000000000000e+00) (0, 0, 0.00000000000000000000e+00) (0, 0, 0.00000000000000000000e+00) (0, 0, 0.00000000000000000000e+00) (0, 0, 0.00000000000000000000e+00) (0, 0, 0.00000000000000000000e+00) (0, 0, 0.00000000000000000000e+00) (0, 0, 0.00000000000000000000e+00) (0, 0, 0.00000000000000000000e+00) (0, 0, 0.00000000000000000000e+00) (0, 0, 0.00000000000000000000e+00) (0, 0, 0.00000000000000000000e+00) (0, 0, 0.00000000000000000000e+00) (0, 0, 0.00000000000000000000e+00) (0, 0, 0.00000000000000000000e+00) (0, 0, 0.00000000000000000000e+00) (0, 0, 0.00000000000000000000e+00) (0, 0, 0.00000000000000000000e+00) (0, 0, 0.00000000000000000000e+00) (0, 0, 0.00000000000000000000e+00) (0, 0, 0.00000000000000000000e+00) (0, 0, 0.00000000000000000000e+00) (0, 0, 0.00000000000000000000e+00) (0, 0, 0.00000000000000000000e+00) (0, 0, 0.00000000000000000000e+00) (0, 0, 0.00000000000000000000e+00) (0, 0, 0.00000000000000000000e+00) (0, 0, 0.00000000000000000000e+00) (0, 0, 0.00000000000000000000e+00) (0, 0, 0.00000000000000000000e+00) (0, 0, 0.00000000000000000000e+00) (0, 0, 0.00000000000000000000e+00) (0, 0, 0.00000000000000000000e+00) (0, 0, 0.00000000000000000000e+00) (0, 0, 0.00000000000000000000e+00) (0, 0, 0.00000000000000000000e+00) (0, 0, 0.00000000000000000000e+00) (0, 0, 0.00000000000000000000e+00) (0, 0, 0.00000000000000000000e+00) (0, 0, 0.00000000000000000000e+00) (0, 0, 0.00000000000000000000e+00) (0, 0, 0.00000000000000000000e+00) (0, 0, 0.00000000000000000000e+00) (0, 0, 0.00000000000000000000e+00) (0, 0, 0.00000000000000000000e+00) (0, 0, 0.00000000000000000000e+00) (0, 0, 0.00000000000000000000e+00) (0, 0, 0.00000000000000000000e+00) (0, 0, 0.00000000000000000000e+00) (0, 0, 0.00000000000000000000e+00) (0, 0, 0.00000000000000000000e+00) (0, 0, 0.00000000000000000000e+00) (0, 0, 0.00000000000000000000e+00) (0, 0, 0.00000000000000000000e+00) (0, 0, 0.00000000000000000000e+00) (0, 0, 0.00000000000000000000e+00) (0, 0, 0.00000000000000000000e+00) (0, 0, 0.00000000000000000000e+00) (0, 0, 0.00000000000000000000e+00) (0, 0, 0.00000000000000000000e+00) (0, 0, 0.00000000000000000000e+00) (0, 0, 0.00000000000000000000e+00) (0, 0, 0.00000000000000000000e+00) (0, 0, 0.00000000000000000000e+00) (0, 0, 0.00000000000000000000e+00) (0, 0, 0.00000000000000000000e+00) (0, 0, 0.00000000000000000000e+00) (0, 0, 0.00000000000000000000e+00) (0, 0, 0.00000000000000000000e+00) (0, 0, 0.00000000000000000000e+00) (0, 0, 0.00000000000000000000e+00) (0, 0, 0.00000000000000000000e+00) (0, 0, 0.00000000000000000000e+00) (0, 0, 0.00000000000000000000e+00) (0, 0, 0.00000000000000000000e+00) (0, 0, 0.00000000000000000000e+00) (0, 0, 0.00000000000000000000e+00) (0, 0, 0.00000000000000000000e+00) (0, 0, 0.00000000000000000000e+00) (0, 0, 0.00000000000000000000e+00) (0, 0, 0.00000000000000000000e+00) (0, 0, 0.00000000000000000000e+00) (0, 0, 0.00000000000000000000e+00) (0, 0, 0.00000000000000000000e+00) (0, 0, 0.00000000000000000000e+00) (0, 0, 0.00000000000000000000e+00) (0, 0, 0.00000000000000000000e+00) (0, 0, 0.00000000000000000000e+00) (0, 0, 0.00000000000000000000e+00) (0, 0, 0.00000000000000000000e+00) (0, 0, 0.00000000000000000000e+00) (0, 0, 0.00000000000000000000e+00) (0, 0, 0.00000000000000000000e+00) (0, 0, 0.00000000000000000000e+00) (0, 0, 0.00000000000000000000e+00) (0, 0, 0.00000000000000000000e+00) (0, 0, 0.00000000000000000000e+00) (0, 0, 0.00000000000000000000e+00) (0, 0, 0.00000000000000000000e+00) (0, 0, 0.00000000000000000000e+00) (0, 0, 0.00000000000000000000e+00) (0, 0, 0.00000000000000000000e+00) (0, 0, 0.00000000000000000000e+00) (0, 0, 0.00000000000000000000e+00) (0, 0, 0.00000000000000000000e+00) (0, 0, 0.00000000000000000000e+00) (0, 0, 0.00000000000000000000e+00) (0, 0, 0.00000000000000000000e+00) (0, 0, 0.00000000000000000000e+00) (0, 0, 0.00000000000000000000e+00) (0, 0, 0.00000000000000000000e+00) (0, 0, 0.00000000000000000000e+00) (0, 0, 0.00000000000000000000e+00) (0, 0, 0.00000000000000000000e+00) (0, 0, 0.00000000000000000000e+00) (0, 0, 0.00000000000000000000e+00) (0, 0, 0.00000000000000000000e+00) (0, 0, 0.00000000000000000000e+00) (0, 0, 0.00000000000000000000e+00) (0, 0, 0.00000000000000000000e+00) (0, 0, 0.00000000000000000000e+00) (0, 0, 0.00000000000000000000e+00) (0, 0, 0.00000000000000000000e+00) (0, 0, 0.00000000000000000000e+00) (0, 0, 0.00000000000000000000e+00) (0, 0, 0.00000000000000000000e+00) (0, 0, 0.00000000000000000000e+00) (0, 0, 0.00000000000000000000e+00) (0, 0, 0.00000000000000000000e+00) (0, 0, 0.00000000000000000000e+00) (0, 0, 0.00000000000000000000e+00) (0, 0, 0.00000000000000000000e+00) (0, 0, 0.00000000000000000000e+00) (0, 0, 0.00000000000000000000e+00) (0, 0, 0.00000000000000000000e+00) (0, 0, 0.00000000000000000000e+00) (0, 0, 0.00000000000000000000e+00) (0, 0, 0.00000000000000000000e+00) (0, 0, 0.00000000000000000000e+00) (0, 0, 0.00000000000000000000e+00) (0, 0, 0.00000000000000000000e+00) (0, 0, 0.00000000000000000000e+00) (0, 0, 0.00000000000000000000e+00) (0, 0, 0.00000000000000000000e+00) (0, 0, 0.00000000000000000000e+00) (0, 0, 0.00000000000000000000e+00) (0, 0, 0.00000000000000000000e+00) (0, 0, 0.00000000000000000000e+00) (0, 0, 0.00000000000000000000e+00) (0, 0, 0.00000000000000000000e+00) (0, 0, 0.00000000000000000000e+00) (0, 0, 0.00000000000000000000e+00) (0, 0, 0.00000000000000000000e+00) (0, 0, 0.00000000000000000000e+00) (0, 0, 0.00000000000000000000e+00) (0, 0, 0.00000000000000000000e+00) (0, 0, 0.00000000000000000000e+00) (0, 0, 0.00000000000000000000e+00) (0, 0, 0.00000000000000000000e+00) (0, 0, 0.00000000000000000000e+00) (0, 0, 0.00000000000000000000e+00) (0, 0, 0.00000000000000000000e+00) (0, 0, 0.00000000000000000000e+00) (0, 0, 0.00000000000000000000e+00) (0, 0, 0.00000000000000000000e+00) (0, 0, 0.00000000000000000000e+00) (0, 0, 0.00000000000000000000e+00) (0, 0, 0.00000000000000000000e+00) (0, 0, 0.00000000000000000000e+00) (0, 0, 0.00000000000000000000e+00) (0, 0, 0.00000000000000000000e+00) (0, 0, 0.00000000000000000000e+00) (0, 0, 0.00000000000000000000e+00) (0, 0, 0.00000000000000000000e+00) (0, 0, 0.00000000000000000000e+00) (0, 0, 0.00000000000000000000e+00) (0, 0, 0.00000000000000000000e+00) (0, 0, 0.00000000000000000000e+00) (0, 0, 0.00000000000000000000e+00) (0, 0, 0.00000000000000000000e+00) (0, 0, 0.00000000000000000000e+00) (0, 0, 0.00000000000000000000e+00) (0, 0, 0.00000000000000000000e+00) (0, 0, 0.00000000000000000000e+00) (0, 0, 0.00000000000000000000e+00) (0, 0, 0.00000000000000000000e+00) (0, 0, 0.00000000000000000000e+00) (0, 0, 0.00000000000000000000e+00) (0, 0, 0.00000000000000000000e+00) (0, 0, 0.00000000000000000000e+00) (0, 0, 0.00000000000000000000e+00) (0, 0, 0.00000000000000000000e+00) (0, 0, 0.00000000000000000000e+00) (0, 0, 0.00000000000000000000e+00) (0, 0, 0.00000000000000000000e+00) (0, 0, 0.00000000000000000000e+00) (0, 0, 0.00000000000000000000e+00) (0, 0, 0.00000000000000000000e+00) (0, 0, 0.00000000000000000000e+00) (0, 0, 0.00000000000000000000e+00) (0, 0, 0.00000000000000000000e+00) (0, 0, 0.00000000000000000000e+00) (0, 0, 0.00000000000000000000e+00) (0, 0, 0.00000000000000000000e+00) (0, 0, 0.00000000000000000000e+00) (0, 0, 0.00000000000000000000e+00) (0, 0, 0.00000000000000000000e+00) (0, 0, 0.00000000000000000000e+00) (0, 0, 0.00000000000000000000e+00) (0, 0, 0.00000000000000000000e+00) (0, 0, 0.00000000000000000000e+00) (0, 0, 0.00000000000000000000e+00) (0, 0, 0.00000000000000000000e+00) (0, 0, 0.00000000000000000000e+00) (0, 0, 0.00000000000000000000e+00) (0, 0, 0.00000000000000000000e+00) (0, 0, 0.00000000000000000000e+00) (0, 0, 0.00000000000000000000e+00) (0, 0, 0.00000000000000000000e+00) (0, 0, 0.00000000000000000000e+00) (0, 0, 0.00000000000000000000e+00) (0, 0, 0.00000000000000000000e+00) (0, 0, 0.00000000000000000000e+00) (0, 0, 0.00000000000000000000e+00) (0, 0, 0.00000000000000000000e+00) (0, 0, 0.00000000000000000000e+00) (0, 0, 0.00000000000000000000e+00) (0, 0, 0.00000000000000000000e+00) (0, 0, 0.00000000000000000000e+00) (0, 0, 0.00000000000000000000e+00) (0, 0, 0.00000000000000000000e+00) (0, 0, 0.00000000000000000000e+00) (0, 0, 0.00000000000000000000e+00) (0, 0, 0.00000000000000000000e+00) (0, 0, 0.00000000000000000000e+00) (0, 0, 0.00000000000000000000e+00) (0, 0, 0.00000000000000000000e+00) (0, 0, 0.00000000000000000000e+00) (0, 0, 0.00000000000000000000e+00) (0, 0, 0.00000000000000000000e+00) (0, 0, 0.00000000000000000000e+00) (0, 0, 0.00000000000000000000e+00) (0, 0, 0.00000000000000000000e+00) (0, 0, 0.00000000000000000000e+00) (0, 0, 0.00000000000000000000e+00) (0, 0, 0.00000000000000000000e+00) (0, 0, 0.00000000000000000000e+00) (0, 0, 0.00000000000000000000e+00) (0, 0, 0.00000000000000000000e+00) (0, 0, 0.00000000000000000000e+00) (0, 0, 0.00000000000000000000e+00) (0, 0, 0.00000000000000000000e+00) (0, 0, 0.00000000000000000000e+00) (0, 0, 0.00000000000000000000e+00) (0, 0, 0.00000000000000000000e+00) (0, 0, 0.00000000000000000000e+00) (0, 0, 0.00000000000000000000e+00) (0, 0, 0.00000000000000000000e+00) (0, 0, 0.00000000000000000000e+00) (0, 0, 0.00000000000000000000e+00) (0, 0, 0.00000000000000000000e+00) (0, 0, 0.00000000000000000000e+00) (0, 0, 0.00000000000000000000e+00) (0, 0, 0.00000000000000000000e+00) (0, 0, 0.00000000000000000000e+00) (0, 0, 0.00000000000000000000e+00) (0, 0, 0.00000000000000000000e+00) (0, 0, 0.00000000000000000000e+00) (0, 0, 0.00000000000000000000e+00) (0, 0, 0.00000000000000000000e+00) (0, 0, 0.00000000000000000000e+00) (0, 0, 0.00000000000000000000e+00) (0, 0, 0.00000000000000000000e+00) (0, 0, 0.00000000000000000000e+00) (0, 0, 0.00000000000000000000e+00) (0, 0, 0.00000000000000000000e+00) (0, 0, 0.00000000000000000000e+00) (0, 0, 0.00000000000000000000e+00) (0, 0, 0.00000000000000000000e+00) (0, 0, 0.00000000000000000000e+00) (0, 0, 0.00000000000000000000e+00) (0, 0, 0.00000000000000000000e+00) (0, 0, 0.00000000000000000000e+00) (0, 0, 0.00000000000000000000e+00) (0, 0, 0.00000000000000000000e+00) (0, 0, 0.00000000000000000000e+00) (0, 0, 0.00000000000000000000e+00) (0, 0, 0.00000000000000000000e+00) (0, 0, 0.00000000000000000000e+00) (0, 0, 0.00000000000000000000e+00) (0, 0, 0.00000000000000000000e+00) (0, 0, 0.00000000000000000000e+00) (0, 0, 0.00000000000000000000e+00) (0, 0, 0.00000000000000000000e+00) (0, 0, 0.00000000000000000000e+00) (0, 0, 0.00000000000000000000e+00) (0, 0, 0.00000000000000000000e+00) (0, 0, 0.00000000000000000000e+00) (0, 0, 0.00000000000000000000e+00) (0, 0, 0.00000000000000000000e+00) (0, 0, 0.00000000000000000000e+00) (0, 0, 0.00000000000000000000e+00) (0, 0, 0.00000000000000000000e+00) (0, 0, 0.00000000000000000000e+00) (0, 0, 0.00000000000000000000e+00) (0, 0, 0.00000000000000000000e+00) (0, 0, 0.00000000000000000000e+00) (0, 0, 0.00000000000000000000e+00) (0, 0, 0.00000000000000000000e+00) (0, 0, 0.00000000000000000000e+00) (0, 0, 0.00000000000000000000e+00) (0, 0, 0.00000000000000000000e+00) (0, 0, 0.00000000000000000000e+00) (0, 0, 0.00000000000000000000e+00) (0, 0, 0.00000000000000000000e+00) (0, 0, 0.00000000000000000000e+00) (0, 0, 0.00000000000000000000e+00) (0, 0, 0.00000000000000000000e+00) (0, 0, 0.00000000000000000000e+00) (0, 0, 0.00000000000000000000e+00) (0, 0, 0.00000000000000000000e+00) (0, 0, 0.00000000000000000000e+00) (0, 0, 0.00000000000000000000e+00) (0, 0, 0.00000000000000000000e+00) (0, 0, 0.00000000000000000000e+00) (0, 0, 0.00000000000000000000e+00) (0, 0, 0.00000000000000000000e+00) (0, 0, 0.00000000000000000000e+00) (0, 0, 0.00000000000000000000e+00) (0, 0, 0.00000000000000000000e+00) (0, 0, 0.00000000000000000000e+00) (0, 0, 0.00000000000000000000e+00) (0, 0, 0.00000000000000000000e+00) (0, 0, 0.00000000000000000000e+00) (0, 0, 0.00000000000000000000e+00) (0, 0, 0.00000000000000000000e+00) (0, 0, 0.00000000000000000000e+00) (0, 0, 0.00000000000000000000e+00) (0, 0, 0.00000000000000000000e+00) (0, 0, 0.00000000000000000000e+00) (0, 0, 0.00000000000000000000e+00) (0, 0, 0.00000000000000000000e+00) (0, 0, 0.00000000000000000000e+00) (0, 0, 0.00000000000000000000e+00) (0, 0, 0.00000000000000000000e+00) (0, 0, 0.00000000000000000000e+00) (0, 0, 0.00000000000000000000e+00) (0, 0, 0.00000000000000000000e+00) (0, 0, 0.00000000000000000000e+00) (0, 0, 0.00000000000000000000e+00) (0, 0, 0.00000000000000000000e+00) (0, 0, 0.00000000000000000000e+00) (0, 0, 0.00000000000000000000e+00) (0, 0, 0.00000000000000000000e+00) (0, 0, 0.00000000000000000000e+00) (0, 0, 0.00000000000000000000e+00) (0, 0, 0.00000000000000000000e+00) (0, 0, 0.00000000000000000000e+00) (0, 0, 0.00000000000000000000e+00) (0, 0, 0.00000000000000000000e+00) (0, 0, 0.00000000000000000000e+00) (0, 0, 0.00000000000000000000e+00) (0, 0, 0.00000000000000000000e+00) (0, 0, 0.00000000000000000000e+00) (0, 0, 0.00000000000000000000e+00) (0, 0, 0.00000000000000000000e+00) (0, 0, 0.00000000000000000000e+00) (0, 0, 0.00000000000000000000e+00) (0, 0, 0.00000000000000000000e+00) (0, 0, 0.00000000000000000000e+00) (0, 0, 0.00000000000000000000e+00) (0, 0, 0.00000000000000000000e+00) (0, 0, 0.00000000000000000000e+00) (0, 0, 0.00000000000000000000e+00) (0, 0, 0.00000000000000000000e+00) (0, 0, 0.00000000000000000000e+00) (0, 0, 0.00000000000000000000e+00) (0, 0, 0.00000000000000000000e+00) (0, 0, 0.00000000000000000000e+00) (0, 0, 0.00000000000000000000e+00) (0, 0, 0.00000000000000000000e+00) (0, 0, 0.00000000000000000000e+00) (0, 0, 0.00000000000000000000e+00) (0, 0, 0.00000000000000000000e+00) (0, 0, 0.00000000000000000000e+00) (0, 0, 0.00000000000000000000e+00) (0, 0, 0.00000000000000000000e+00) (0, 0, 0.00000000000000000000e+00) (0, 0, 0.00000000000000000000e+00) (0, 0, 0.00000000000000000000e+00) (0, 0, 0.00000000000000000000e+00) (0, 0, 0.00000000000000000000e+00) (0, 0, 0.00000000000000000000e+00) (0, 0, 0.00000000000000000000e+00) (0, 0, 0.00000000000000000000e+00) (0, 0, 0.00000000000000000000e+00) (0, 0, 0.00000000000000000000e+00) (0, 0, 0.00000000000000000000e+00) (0, 0, 0.00000000000000000000e+00) (0, 0, 0.00000000000000000000e+00) (0, 0, 0.00000000000000000000e+00) (979, 3, 5.00000000000000000000e-01) (979, 3, 5.00000000000000000000e-01) (979, 3, 5.00000000000000000000e-01) (979, 3, 5.00000000000000000000e-01) (979, 3, 5.00000000000000000000e-01) (979, 3, 5.00000000000000000000e-01) (979, 3, 5.00000000000000000000e-01) (979, 3, 5.00000000000000000000e-01) (979, 3, 5.00000000000000000000e-01) (979, 3, 5.00000000000000000000e-01) (979, 3, 5.00000000000000000000e-01) (979, 3, 5.00000000000000000000e-01) (979, 3, 5.00000000000000000000e-01) (979, 3, 5.00000000000000000000e-01) (979, 3, 5.00000000000000000000e-01) (979, 3, 5.00000000000000000000e-01) (979, 3, 5.00000000000000000000e-01) (979, 3, 5.00000000000000000000e-01) (979, 3, 5.00000000000000000000e-01) (979, 3, 5.00000000000000000000e-01) (979, 3, 5.00000000000000000000e-01) (979, 3, 5.00000000000000000000e-01) (979, 3, 5.00000000000000000000e-01) (979, 3, 5.00000000000000000000e-01) (979, 3, 5.00000000000000000000e-01) (979, 3, 5.00000000000000000000e-01) (979, 3, 5.00000000000000000000e-01) (979, 3, 5.00000000000000000000e-01) (979, 3, 5.00000000000000000000e-01) (979, 3, 5.00000000000000000000e-01) (979, 3, 5.00000000000000000000e-01) (979, 3, 5.00000000000000000000e-01) (979, 3, 5.00000000000000000000e-01) (979, 3, 5.00000000000000000000e-01) (979, 3, 5.00000000000000000000e-01) (979, 3, 5.00000000000000000000e-01) (979, 3, 5.00000000000000000000e-01) (979, 3, 5.00000000000000000000e-01) (979, 3, 5.00000000000000000000e-01) (979, 3, 5.00000000000000000000e-01) (979, 3, 5.00000000000000000000e-01) (979, 3, 5.00000000000000000000e-01) (979, 3, 5.00000000000000000000e-01) (979, 3, 5.00000000000000000000e-01) (979, 3, 5.00000000000000000000e-01) (979, 3, 5.00000000000000000000e-01) (979, 3, 5.00000000000000000000e-01) (979, 3, 5.00000000000000000000e-01) (979, 3, 5.00000000000000000000e-01) (979, 3, 5.00000000000000000000e-01) (979, 3, 5.00000000000000000000e-01) (979, 3, 5.00000000000000000000e-01) (979, 3, 5.00000000000000000000e-01) (979, 3, 5.00000000000000000000e-01) (979, 3, 5.00000000000000000000e-01) (979, 3, 5.00000000000000000000e-01) (979, 3, 5.00000000000000000000e-01) (979, 3, 5.00000000000000000000e-01) (979, 3, 5.00000000000000000000e-01) (979, 3, 5.00000000000000000000e-01) (979, 3, 5.00000000000000000000e-01) (979, 3, 5.00000000000000000000e-01) (979, 3, 5.00000000000000000000e-01) (979, 3, 5.00000000000000000000e-01) (979, 3, 5.00000000000000000000e-01) (979, 3, 5.00000000000000000000e-01) (979, 3, 5.00000000000000000000e-01) (979, 3, 5.00000000000000000000e-01) (979, 3, 5.00000000000000000000e-01) (979, 3, 5.00000000000000000000e-01) (0, 3, 0.00000000000000000000e+00) (71, 3, 5.00000000000000000000e-01) (71, 3, 5.00000000000000000000e-01) (0, 3, 0.00000000000000000000e+00) 
connections (connected_to_neuron, weight)=(0, -1.37041129981467085797e-02) (1, -3.32924950455066107069e-02) (2, -1.19041457955671961533e-01) (3, 8.42093664367076499833e-02) (4, 4.42009778681600323802e-02) (5, -1.11064314189600318872e-01) (6, -5.60074635721997185489e-02) (7, 6.92212438415276548609e-02) (8, -5.23110952991104397047e-02) (9, -7.23354063138464814520e-02) (10, -1.60912619761985703493e-01) (11, -2.01820638397750329318e-01) (12, 8.35390683831178371133e-02) (13, -8.20190844351120079692e-02) (14, 4.11954221920274518687e-02) (15, -8.22101417418019848882e-03) (16, 7.54613483413297814195e-02) (17, -2.48776917713917564146e-03) (18, -2.03691721936913906765e-02) (19, 1.31507123853263491187e-01) (20, -9.33383852243423461914e-02) (21, 1.97504775342429800267e-01) (22, 2.81104023063877050959e-01) (23, -3.24468855181240967145e-01) (24, 8.17049610079034899224e-02) (25, -1.37913286297069975772e-01) (26, -5.40900596986242584996e-02) (27, -1.14169525226857013211e-01) (28, 1.38580178226772626759e-01) (29, 1.17713062164891441030e-01) (30, 1.10238476454433381724e-01) (31, -3.36082179941578351734e-02) (32, 4.11053983310318143962e-02) (33, 1.91720909915258946876e-01) (34, 3.15474790778130301239e-02) (35, 8.62864313627506318571e-02) (36, 4.32091192220665221146e-02) (37, 1.30865176762543861111e-01) (38, 1.00241210752932893846e-02) (39, -5.09137740426232540680e-02) (40, 1.11172644535367792784e-01) (41, 5.72379000297054338353e-02) (42, -1.41719327810474277074e-01) (43, -2.45223765764776169274e-01) (44, 4.11721233690179461151e-02) (45, 1.10781073509646471598e-01) (46, 1.15996675543264728819e-02) (47, 2.97951096948036071865e-02) (48, 1.08317245410132823036e-01) (49, 1.26951555371866392496e-01) (50, 4.45465359180913234027e-02) (51, -1.10615419917378318693e-01) (52, 1.18540010240174228939e-01) (53, -4.51420942519387483061e-02) (54, -1.74488932333296903332e-01) (55, -5.02121642124089620496e-02) (56, -1.22852971007025024708e-01) (57, 1.45545707886250041962e-01) (58, 7.90540380042105556013e-02) (59, -1.47618662009164264282e-01) (60, 1.51000343361025440858e-01) (61, -8.42877642347062971950e-02) (62, 7.65112942012003121456e-03) (63, -6.45705173195388615337e-02) (64, 4.60372795172329322272e-03) (65, 1.94107078639754765392e-01) (66, 3.88364823157967137268e-02) (67, 7.90475441886151763971e-02) (68, 1.24146897222077071121e-01) (69, 2.47353059411610620710e-01) (70, 3.37723503714746353666e-02) (71, -1.17980637440539617988e-01) (72, 1.61457803033350555388e-01) (73, 8.27026803430941370721e-02) (74, -2.33951700109819443751e-01) (75, -6.36628901863089680102e-02) (76, -2.56336206827432015742e-02) (77, 2.62817732792925140561e-01) (78, -6.03969267573579299269e-03) (79, 9.19581875389286623745e-03) (80, 8.43760340852581086635e-02) (81, -1.11057989505196824664e-01) (82, -4.70229772136953455813e-04) (83, 4.84753250206751626350e-02) (84, -3.82690148734427595945e-02) (85, 2.00004955516639187918e-01) (86, 1.95245753978586872313e-01) (87, 1.27634628618765122443e-01) (88, 1.28979850288308717232e-01) (89, 2.98711605468305052558e-01) (90, 1.15169910866350685974e-01) (91, -2.02691496236634960404e-01) (92, 1.52252631100824487032e-01) (93, -3.93582783219818821419e-02) (94, 8.70116385414887727467e-02) (95, 4.73913291081705170815e-02) (96, -2.90345726451988438155e-02) (97, -6.50289717907512193618e-02) (98, 1.45815874535995732009e-01) (99, 8.84334870027806557724e-03) (100, -5.76019689366857740032e-02) (101, 9.00232607082692565248e-02) (102, 4.30739571657171790853e-02) (103, -1.13783595106158874621e-01) (104, 4.26297924899971744650e-02) (105, 1.82802313139502542461e-01) (106, 7.09345914330013066484e-02) (107, 2.07267207262178038141e-01) (108, -2.09555385829181678448e-02) (109, 3.23771659617500040529e-01) (110, 1.49474239240107841659e-02) (111, -5.43765063676457244268e-02) (112, -2.57125194056237946216e-02) (113, 2.11050518662900921107e-01) (114, -9.96206249840614482816e-02) (115, -4.17515619854300912284e-02) (116, -1.02355765750921732377e-02) (117, -1.81317229139862146070e-01) (118, 2.25649820245844262567e-01) (119, 6.63650472001620778117e-02) (120, -7.86137646188148769832e-02) (121, 1.63486927188313285741e-01) (122, -1.15251644955535914594e-01) (123, 1.61501523582899438047e-02) (124, -1.67883202817251081518e-01) (125, -1.20073743389241260893e-02) (126, -4.82591896533762498844e-02) (127, 3.76327706071695120005e-02) (128, 1.36024262080686381138e-01) (129, 1.71536122544715896598e-01) (130, 3.31677287684234642362e-02) (131, -1.70754027438127314875e-01) (132, 1.00860866915237532004e-01) (133, 1.28716591972518251685e-01) (134, -1.73160440658025494010e-01) (135, -3.93992161578980842895e-02) (136, 1.05879461361710780487e-01) (137, -7.65591624317769371688e-03) (138, -5.78632073141879532674e-02) (139, -4.43492571202437693700e-02) (140, -2.18311166210913482066e-01) (141, -1.57139072510636607083e-01) (142, 1.39654930967827828336e-01) (143, 2.68520776764807289627e-01) (144, -7.76212122470810589325e-02) (145, 2.65345876467500185747e-01) (146, -6.84069689318648893606e-02) (147, 4.65625462691091757117e-02) (148, 4.77031416601840022040e-02) (149, 2.40658871285804376594e-01) (150, 9.37349783501793265561e-02) (151, 1.52498630631223083820e-02) (152, 1.75565142389782102850e-01) (153, 1.27338360926165045095e-01) (154, -3.11818631553170255016e-03) (155, 1.62449855277476795656e-01) (156, 1.57085472220617111683e-01) (157, 1.67758762866558219784e-01) (158, -6.38121136415047834900e-02) (159, 8.14909079347991144315e-02) (160, -2.81999018219766155527e-03) (161, -1.86871655803284547614e-01) (162, 5.34815111306940135782e-02) (163, -5.56854606378312244619e-02) (164, 1.19164521094697398174e-02) (165, 8.88170414985902795246e-02) (166, 1.35120916559701015336e-02) (167, 1.01618004416956994596e-01) (168, 7.98338525899444095835e-02) (169, 8.46549864930853102063e-02) (170, 2.87292238429655844012e-02) (171, -1.95077616111977769631e-01) (172, 5.63334320189768089637e-02) (173, 3.17624948344185253912e-01) (174, -4.63305410830785399656e-02) (175, -4.97910659523147780536e-02) (176, 1.77769859557560305774e-01) (177, 5.43994631915844031878e-02) (178, 2.26271437767657374041e-01) (179, 2.67378602726788927590e-01) (180, -1.56932845678490223706e-01) (181, -1.35704399846519302431e-01) (182, -4.15869151907708595184e-03) (183, 1.19851318537764400807e-01) (184, 7.32824911209412482860e-02) (185, 6.17292897535985929380e-02) (186, 6.18984178949310084872e-02) (187, 1.86042952959318413919e-01) (188, 9.01769720581123979120e-02) (189, 1.77966638364343954226e-01) (190, 3.60186326560236634228e-03) (191, -2.06662015373789642592e-01) (192, 2.07935976521961995989e-01) (193, 7.02850602230155191430e-02) (194, -3.51784790908163391698e-01) (195, -1.16815784011070677995e-01) (196, 6.26534288573858816340e-02) (197, -4.54456327662941042544e-02) (198, -9.72611968929374959281e-02) (199, 2.43813848702391783307e-01) (200, -1.43112074657188476090e-01) (201, -1.36837539150812065314e-01) (202, 2.36272795009302816194e-01) (203, 4.94590822022143994374e-02) (204, -1.98268977987670153018e-01) (205, -1.38780842508856389061e-01) (206, 1.69162485033574783166e-01) (207, 1.56425445310823529876e-01) (208, -9.15598612704800196571e-02) (209, 4.92883998926848133221e-03) (210, -7.85072761850008349338e-02) (211, -1.47269223542198485211e-01) (212, 1.39257003339900348182e-01) (213, 1.95667955846795832420e-01) (214, -4.40924742923351487001e-01) (215, -1.32607580871215491314e-01) (216, 4.36584360052725203860e-02) (217, 1.08819509065493785771e-01) (218, 6.53000457455026467324e-02) (219, 1.26476159184035763516e-01) (220, -1.65366047091674767122e-01) (221, -3.59430755348860361820e-02) (222, 2.85837375453283804028e-01) (223, 2.39389068122487502777e-01) (224, -2.70630593273693043077e-01) (225, 1.29810174214630175138e-01) (226, 1.41968254031664770087e-01) (227, -8.17800084999430465516e-02) (228, -6.00353695930902278577e-02) (229, 1.76511175789721415190e-03) (230, -1.14481653685497883344e-01) (231, -1.02971430784439973993e-01) (232, 4.28713722245472550476e-01) (233, 6.41349155188133349809e-03) (234, -3.71394656729903238634e-01) (235, -2.56320798253031501002e-01) (236, 2.35077614055717309949e-01) (237, 1.49478871103029098411e-01) (238, 6.21022252306109023845e-02) (239, 3.42600302387558897088e-01) (240, -9.26927632571337006828e-02) (241, -8.79888736139870369923e-02) (242, 3.58905317945711954675e-01) (243, 3.31867218783482242905e-01) (244, -8.75895962526590105002e-02) (245, 1.03448647944294508383e-01) (246, 3.01510224495953660373e-01) (247, 3.35842721042624997585e-02) (248, -2.43705661441580540005e-01) (249, 3.61696370866945240974e-02) (250, 2.88886599196254367783e-01) (251, -3.24624350549019766166e-02) (252, 3.18224111581507485003e-01) (253, -2.09523750535236634451e-02) (254, -2.50409484698123796509e-01) (255, 8.27043045804925769371e-02) (256, 2.52705457017668222441e-01) (257, 2.97726026216684536152e-01) (258, 1.48846551314923969400e-01) (259, 8.38961935915625289795e-02) (260, -1.39692165629568237906e-01) (261, 1.94877099682700272859e-03) (262, 7.39741030709399616239e-02) (263, 6.16377458463876412575e-02) (264, -2.61382784917048249795e-01) (265, -2.03734812804132608965e-01) (266, 6.55436062105353434148e-02) (267, -3.10092477955125345179e-02) (268, 1.01367588304935888287e-04) (269, -6.43693624055917401616e-02) (270, 7.61410073625355260374e-02) (271, -1.09833008057400843827e-01) (272, 8.89974028545171824689e-02) (273, 1.41609508997923572160e-01) (274, -2.02137962698772211123e-01) (275, 9.14116843784372884452e-02) (276, 3.03185244143547617812e-02) (277, 1.05788729214491547537e-01) (278, 1.93715358302934098633e-01) (279, 2.21814042325399973787e-01) (280, -8.39541586741807677186e-02) (281, 6.74646010303268373054e-02) (282, 1.78146614177727563577e-01) (283, -4.44926577972558981444e-02) (284, -1.26626275918674757737e-01) (285, -4.90659638530385466826e-02) (286, 1.29774240962962389423e-01) (287, -5.88179348662452652907e-02) (288, 3.91737671916340263190e-03) (289, 6.44743376418562275099e-02) (290, 4.26863833372257035770e-03) (291, 2.08901308499660175177e-02) (292, 1.61903909363216247375e-01) (293, 1.29998497995999190424e-01) (294, -2.29683497608848929961e-01) (295, -1.22990414229402961199e-01) (296, 1.50490466860768667967e-01) (297, 3.86681049990440714459e-02) (298, 9.70218475420250858754e-02) (299, 7.59732666718634652714e-02) (300, -2.37674382192320614304e-02) (301, 3.85678410676769459209e-02) (302, 5.94175450598482327025e-02) (303, -1.63674195786266685193e-02) (304, -8.23348522502532903511e-02) (305, 5.72869714539475053533e-03) (306, 1.18478627934478414341e-01) (307, 1.42571702508641928731e-01) (308, -8.23286300052006730921e-02) (309, 2.87749908714988490710e-03) (310, 4.50385356692305713344e-02) (311, 7.89684317666942275915e-03) (312, 6.73784271222550718017e-02) (313, -5.23955862553246790037e-02) (314, -2.98219229367494176319e-01) (315, 6.38076360199605913809e-03) (316, 1.42865218215671718749e-01) (317, 1.12254152947691195757e-02) (318, 8.06361762266444154212e-02) (319, -1.02209716279648532566e-01) (320, -2.58599075982573645138e-01) (321, -8.50990959880513347935e-02) (322, 3.25193806638112772878e-02) (323, 8.22793647990225779365e-02) (324, -3.34822341803248713088e-01) (325, -8.55226670651856590855e-02) (326, 1.75106012304192981688e-01) (327, 3.19450482844473721000e-02) (328, -2.66461307887153719953e-01) (329, 9.31372166430747411292e-02) (330, 6.94498356123887938818e-02) (331, -2.08270485676732036717e-01) (332, 3.02309566468862631061e-02) (333, -4.00071053020525230215e-03) (334, -8.12186533747800837313e-02) (335, 1.50851932488289153245e-01) (336, -1.38970623652444863483e-01) (337, 1.12548940622079519935e-02) (338, 1.34432378793191836808e-01) (339, -1.41612701271614377374e-01) (340, 4.33304896436998362996e-02) (341, 1.36013029014219660739e-01) (342, -1.12171038615168958130e-01) (343, -1.06131999699099505152e-01) (344, -1.70017353795667014449e-01) (345, -9.81697232827623139650e-02) (346, 1.18649311888468611542e-01) (347, -1.05551229284523193086e-01) (348, 1.57171397776522774048e-02) (349, 1.19037155712024389498e-01) (350, -5.01664773871431102226e-03) (351, -2.98197252332951627529e-02) (352, 1.43149020046374142456e-01) (353, 7.63980207356183913664e-03) (354, -1.90876506016591090953e-01) (355, 4.97994821482359573128e-02) (356, -1.22096921135828831440e-01) (357, 1.80043492776901903341e-01) (358, 6.87822131553018634165e-02) (359, -1.06820330275709585166e-01) (360, -8.25568543889892286769e-02) (361, -1.21428227232309962624e-01) (362, -1.07291719576271787906e-01) (363, -1.55886435303298320765e-01) (364, -2.04576647428650532090e-01) (365, -1.08158761835349878644e-01) (366, -5.68825256434548273687e-02) (367, -1.47241574306400252459e-01) (368, -5.75474562040536041785e-02) (369, 1.38224913922241565700e-01) (370, -6.36561644947616911416e-02) (371, -1.24715118252609030725e-01) (372, 4.78756743982250224101e-02) (373, -1.30492731083694052385e-01) (374, -2.73188925006452365540e-01) (375, -1.76057157446971368486e-01) (376, -4.91687680709545354985e-02) (377, 3.24510849937502121598e-02) (378, -8.88180929149522818689e-03) (379, -1.28180678840350420478e-01) (380, -1.92718080515933670727e-01) (381, 1.68200576337188073550e-01) (382, -1.78214642391436757507e-02) (383, 4.81236785771699173558e-03) (384, -1.04624266640503574277e-01) (385, -4.15344192207940405420e-03) (386, 1.20294001333686659261e-01) (387, -5.44784490609997659738e-02) (388, 9.21501874779580287811e-02) (389, 3.47243631312504838493e-02) (390, 2.62647830955223919591e-02) (391, 1.18472612869261976348e-02) (392, -1.08819819048047890242e-02) (393, -2.50080912713091310651e-02) (394, -1.89306576174874119367e-02) (395, -1.27826321939524395477e-01) (396, -2.26777994680274902484e-02) (397, -1.74740978266486407522e-01) (398, 2.51000845063501128174e-02) (399, -1.57586280420629248900e-01) (400, -2.51071319953048363582e-02) (401, 3.35930834590394550299e-02) (402, -1.48278806714011696100e-01) (403, -1.21526426091681030717e-01) (404, -2.06517472336419954937e-01) (405, -9.50940377917535439867e-02) (406, 1.35000057499272851924e-01) (407, 6.77725827581864004312e-02) (408, 1.76680091349414702950e-01) (409, 1.59321042029459486455e-01) (410, 2.31668583400227667823e-01) (411, -1.92506407488244796200e-01) (412, 4.95094643217002874924e-02) (413, 4.64059468714786774179e-02) (414, -2.55685207379122370064e-01) (415, -1.71699595271739113844e-01) (416, -8.81516768534028327675e-02) (417, -4.22196132065714921366e-02) (418, 2.86986490116216963475e-02) (419, -2.22730082011824148669e-01) (420, -1.06704063706860710625e-01) (421, 1.35075211203117384606e-01) (422, -2.21988120323574927850e-01) (423, -3.10129954278169327198e-02) (424, -2.40118756798824162235e-01) (425, -1.05097890448635392091e-01) (426, 6.71004790235033982126e-02) (427, -1.73630172678685343324e-02) (428, 6.68347141065721017661e-02) (429, 1.43532701239392386505e-02) (430, -1.72672695444286983246e-01) (431, -1.71935951866616976158e-01) (432, 7.45501551071272861027e-02) (433, -5.29342652941335728434e-02) (434, -1.67655715052168141632e-01) (435, -2.15315456579056978270e-02) (436, -6.38898082178990939228e-02) (437, 1.73657682864862272787e-02) (438, 2.67996723433040866247e-02) (439, -1.31246782377089199478e-01) (440, 1.19334483717874875741e-01) (441, -8.15555088572983422068e-02) (442, 4.89177959890136279664e-02) (443, -6.59416400845040055062e-03) (444, -1.74281512860003789944e-01) (445, 5.31473230544968824884e-02) (446, 1.26193525967678826794e-01) (447, 1.19505343076684894532e-01) (448, 1.19421494609603801029e-01) (449, 8.52387053080508154401e-03) (450, -2.61150135586261135379e-02) (451, -1.94944812255465366180e-01) (452, -1.00975370881868656281e-01) (453, -1.27629534762510547102e-02) (454, -3.41754574001534791594e-02) (455, 2.85333385491977481463e-02) (456, 1.14684013009674207195e-02) (457, -1.23178397583085491584e-01) (458, -1.35805387218386253156e-01) (459, -1.27617488862353883894e-01) (460, -2.37841213340340001947e-02) (461, 2.34797837414724916427e-02) (462, -1.78809831537531591095e-02) (463, -2.84631878713055841423e-02) (464, 9.40071903047391549402e-02) (465, 3.79452146102959922414e-02) (466, -2.48631473210221033698e-02) (467, 1.02010286406325860475e-02) (468, 4.25722522086265167673e-02) (469, 9.53263836979704459740e-02) (470, 5.47829200809697713925e-02) (471, -4.26760214883622202020e-02) (472, -1.86520572566141705495e-02) (473, 6.29431906886795955458e-02) (474, 9.13025358103976697466e-02) (475, -7.41285442325803900498e-02) (476, 3.40331947652665750548e-02) (477, -9.81095891401451147829e-02) (478, 6.42522903121719168862e-02) (479, -1.43030108223212770735e-01) (480, 9.12937746824856455330e-02) (481, -1.97222771913575262159e-01) (482, -1.25452770100380715801e-03) (483, -1.82843150521436598188e-01) (484, 4.83499257787525921204e-02) (485, 3.55366533646220977838e-02) (486, 6.92675074036090132612e-02) (487, -4.07514067066536977979e-02) (488, -1.37343603941610242769e-02) (489, 8.41047774648755012972e-04) (490, 9.75316358192697685503e-02) (491, -2.27413112406567967383e-02) (492, 8.51683429704374120317e-03) (493, 5.54575902900228401293e-02) (494, 1.55745923874083286309e-01) (495, -1.89750162577663916696e-01) (496, 5.14471776276897233005e-02) (497, 6.93890795015012912250e-02) (498, 4.13765130316099405405e-02) (499, 4.05990572597505205987e-02) (500, 1.16278611786208158074e-01) (501, -9.44112990407802721293e-02) (502, 2.09135898889798790834e-02) (503, -9.48001168692211848565e-02) (504, 7.26685914037625696471e-02) (505, -5.41917232874171150847e-02) (506, 2.74580473343921556417e-02) (507, -1.32145771428257546160e-02) (508, -6.43149457051076234304e-02) (509, 6.60038370328666461340e-03) (510, -7.77521954481526222924e-02) (511, 2.38333420705744980506e-02) (512, -1.09068492593930407852e-01) (513, 1.41937390704177240908e-01) (514, -2.36027261050085514216e-02) (515, 1.43439798560911796477e-01) (516, 1.06152465918616586982e-01) (517, -1.83177973444370312261e-01) (518, 9.46438086627090224834e-02) (519, -2.84156591712404482664e-02) (520, 7.04322181082220610815e-02) (521, -3.52888511133282317678e-02) (522, 2.33379014548338349633e-02) (523, -1.71305200779050065263e-01) (524, 4.26160456165553119812e-02) (525, -2.29287899891154528520e-01) (526, -4.04026600448923675635e-02) (527, -1.56944229173054256021e-02) (528, -7.07815110042059186801e-02) (529, -4.14704592286129561374e-02) (530, -7.68603063041735541649e-03) (531, 1.29238231782776991086e-01) (532, 3.39045204232747560136e-02) (533, 1.44545700606466737126e-01) (534, -1.54322291402135658434e-01) (535, 9.69431206468053668912e-02) (536, -1.43421773144169178993e-01) (537, 1.29463081281011777035e-01) (538, 1.43109812088520055307e-02) (539, 7.16594391693364252127e-02) (540, -2.68261245980273323186e-02) (541, -1.21189206927587431184e-01) (542, 1.67660290782710275082e-01) (543, -1.02822582789025993022e-01) (544, -2.53082815074160555335e-02) (545, 1.21796477071325529029e-01) (546, -8.20021600474952760962e-02) (547, 1.32747512906426917700e-01) (548, -4.73912876272032101976e-02) (549, 1.28581535747014391591e-01) (550, 7.39403831450267112757e-02) (551, -7.53819060825027531525e-02) (552, -6.73241172083799827019e-02) (553, -9.93919863770424960592e-02) (554, 6.94915567835649589101e-02) (555, -5.71341560347614491056e-02) (556, -3.20758926255575935182e-02) (557, 7.50778949192121847211e-02) (558, -9.77971820250692625009e-02) (559, -2.31384738902746245337e-02) (560, -8.57876447797485119917e-02) (561, 5.84421240913903516923e-02) (562, -5.10026117849846152841e-02) (563, -1.25270144207162370531e-01) (564, 5.10065977078624013807e-02) (565, -6.35711540811480929625e-02) (566, 4.89007204635688846189e-03) (567, 8.05375877263515005389e-02) (568, -1.42096282910191634707e-01) (569, -8.61286958484443060380e-02) (570, 3.26277000257362836955e-02) (571, -1.39676992489384504958e-01) (572, -9.55061780290276940431e-02) (573, -5.14074686341915859655e-02) (574, -1.08090237150252177489e-01) (575, -6.60748697888912956550e-04) (576, -5.88737830369078507520e-02) (577, -9.76646656876569291272e-02) (578, 5.07417076716945233961e-02) (579, -7.57862514670198106348e-02) (580, -8.50727822963964069869e-02) (581, 8.88863728522787527320e-02) (582, 1.81567254194443319926e-02) (583, -1.09197708191314840805e-03) (584, 7.07232314655459742836e-02) (585, -9.15551408181014131360e-02) (586, 1.57395236996855231171e-01) (587, 5.47237243536096637508e-02) (588, -3.87910760253724678712e-03) (589, 4.42253265170739554013e-02) (590, -9.62661278830116429184e-02) (591, -1.08771290114974578112e-01) (592, 1.94705626122782610166e-01) (593, -5.38394887028404017792e-02) (594, -1.53454849785336328027e-01) (595, 9.00825388903813417674e-02) (596, 1.08411260266838102573e-01) (597, -7.70958557889546425290e-02) (598, 5.77032685049618382367e-02) (599, 1.49556703985223138353e-01) (600, 6.34598272906700990037e-03) (601, 1.30960976875054591062e-01) (602, 1.37376469298733872026e-01) (603, -1.79781873695232241595e-01) (604, 5.15162361948911171061e-02) (605, 2.05142891393796822364e-01) (606, -1.53069647226675542573e-01) (607, 1.57567101259602243557e-01) (608, 1.36199652813815269559e-01) (609, -1.03191493064825112747e-01) (610, 1.59580716873262640210e-01) (611, 1.44216391633654045235e-01) (612, -1.81319339393035849906e-01) (613, 5.29281635441577191781e-02) (614, 6.81603231763495409634e-02) (615, -2.43380946865951131031e-01) (616, 9.49930153713044872488e-02) (617, 5.82280173526848882082e-02) (618, -3.31533586007072722524e-01) (619, 7.94836994105661553967e-02) (620, 1.68575547493180516456e-01) (621, -3.38869147527999584057e-02) (622, 5.29167941825212026496e-02) (623, 1.70828659306275859597e-01) (624, -6.00977508525554239560e-03) (625, -1.27477556912705355420e-03) (626, -4.26704243216717293841e-02) (627, -5.23573654256460838119e-02) (628, -6.61143212309888289591e-02) (629, 3.25200171354522338252e-01) (630, 3.03128280217567769306e-01) (631, 2.87991982913432198465e-01) (632, 1.52779970972069217838e-01) (633, 1.67096107295862356112e-01) (634, 1.29819127008981405336e-01) (635, -1.35781300607066029995e-01) (636, -3.77990398088149650788e-03) (637, -1.57693009391996541435e-01) (638, 9.21633850452242830986e-02) (639, -3.32907208383071903657e-02) (640, 9.59272688150541730234e-02) (641, 6.16640509498049688153e-02) (642, -1.55680603565143654832e-01) (643, 9.04922550882035769959e-02) (644, -1.59313881193654943713e-02) (645, 3.17090006687291469170e-03) (646, 4.84285981831035078349e-02) (647, 2.35114826098939355692e-01) (648, 3.98701536493793820548e-02) (649, 1.59021071843789357780e-01) (650, 2.62619687560640691082e-01) (651, -1.59966740974615724558e-02) (652, 2.67502542661415321223e-01) (653, 6.48077314923565794835e-02) (654, 2.55613953963552187343e-01) (655, 1.52786888406477583402e-01) (656, 1.87515289187371619883e-01) (657, -6.94238876713206831681e-02) (658, -9.74755742197067481802e-02) (659, -5.95965892544368727735e-02) (660, 7.33614773452860163827e-02) (661, 1.23640127574625821594e-01) (662, 5.05089622281521891112e-02) (663, -8.77336000559089390638e-02) (664, -8.57358587459709220457e-02) (665, -3.17050925633104774271e-01) (666, -1.93170796391608196041e-01) (667, -9.55093637951454077495e-02) (668, -2.12675141325575661755e-01) (669, -1.37395498989862863137e-01) (670, 2.99660435426498360234e-02) (671, -1.25564519979202204869e-01) (672, -1.12748030256603973265e-01) (673, -2.59743668667815896800e-01) (674, -1.37731108192030604620e-01) (675, -7.08965422448922522047e-02) (676, 1.46933664807361030746e-03) (677, -2.03412154371887449189e-01) (678, -4.02178454496902176851e-02) (679, 2.44510021875718394635e-02) (680, 4.17728973528572362917e-03) (681, -1.39046926580928154049e-01) (682, -7.83223483837636319516e-02) (683, 1.07292985702493931521e-01) (684, -1.41545404136439151310e-01) (685, -3.54743959128845029460e-02) (686, -4.16927609629840420502e-02) (687, -1.10287295861802886465e-01) (688, -2.00103800253385394337e-01) (689, 3.64768701528844219162e-02) (690, -6.89376105909454417464e-02) (691, -1.47893204570285180521e-01) (692, -4.86091839394559299681e-02) (693, 6.77247765449370542346e-02) (694, -4.43524936620865867232e-02) (695, -5.75733052307166107142e-02) (696, 4.93826080659917759919e-02) (697, -9.57616698693653650709e-02) (698, 1.20726649048305240131e-01) (699, 1.14865565635017624624e-01) (700, 1.29651207504100557388e-01) (701, -1.26726755427663789755e-01) (702, -4.33723762623878933420e-02) (703, -5.29991835633476238154e-02) (704, 1.62102318716133737830e-02) (705, -2.55470491978554925527e-01) (706, -6.82134033134065564941e-02) (707, -1.05787995821731192758e-01) (708, -1.50098819693865903613e-01) (709, -1.70688851815949588220e-01) (710, -7.56954454128629661280e-02) (711, -1.22390283025864757271e-01) (712, -6.13597447164368134387e-02) (713, -2.83496447097260489967e-02) (714, 1.78139644294277831038e-02) (715, -7.28110253242501559434e-02) (716, 2.91801608068017808914e-03) (717, -1.03623052470109958123e-01) (718, -6.41199078800940014400e-02) (719, -1.87555831302102654634e-02) (720, 1.62425755843165868508e-02) (721, 6.32908068504065002280e-02) (722, -1.22604376122188940545e-01) (723, -6.49885775082451877527e-02) (724, -7.81448063756451510864e-02) (725, 2.89196515379322657835e-02) (726, 7.99775830490620162627e-03) (727, -1.39769663353054157673e-01) (728, 7.61777553288672665266e-02) (729, -5.30733466498247638543e-02) (730, -4.24499384699784307329e-02) (731, -1.95490900430602743132e-01) (732, 4.75069470024138407194e-02) (733, -4.62676323267178501997e-02) (734, 1.01193804954242030925e-01) (735, 3.12731324920605069373e-01) (736, 7.84840325830692547848e-02) (737, -6.24106958215126794709e-02) (738, -9.16202119321818386766e-02) (739, 1.04797956584359017174e-01) (740, -2.33126784395973146724e-01) (741, -2.11673831765323873511e-02) (742, -1.20703930459207894876e-01) (743, -1.52924607607109741547e-01) (744, 1.84329457995949831661e-02) (745, -1.15747034486260530484e-01) (746, -1.09550802590828694205e-01) (747, 3.78545606434415315977e-02) (748, 1.02784463160671746262e-01) (749, -2.53576837744055871848e-02) (750, 3.35561203161983956367e-02) (751, -3.32667287454792640067e-02) (752, -9.95163550789797679563e-02) (753, 6.08694288024956425831e-02) (754, 7.01758132981145921203e-02) (755, 5.66660959538025851834e-02) (756, 1.29273382101009609579e-01) (757, 2.15068248389789218322e-02) (758, 1.09606971929474328320e-01) (759, -1.58156465372500637523e-01) (760, -1.15998690912593890867e-01) (761, -2.56230099051217463657e-01) (762, -1.96483827713758885114e-01) (763, -1.75619061225983835728e-01) (764, -7.47516087965383463354e-02) (765, 1.74268837993297419364e-02) (766, -9.57721891426694810212e-02) (767, 1.12415397473074937101e-02) (768, 5.12016630817496154471e-02) (769, 9.57641311636283770747e-02) (770, 1.53154935832461591705e-02) (771, 4.99707579413731992068e-02) (772, 4.42947638702759702301e-02) (773, 3.52062646446831134517e-02) (774, 4.58761882241930582516e-02) (775, -4.46259610946604240445e-02) (776, -5.54334701885325353832e-02) (777, -7.47744043414797776581e-02) (778, 3.72384775653836208598e-02) (779, 7.17903131713781700318e-02) (780, -5.36001582429484965675e-02) (781, -3.70140472545807605598e-02) (782, -7.82935781841469641273e-02) (783, -7.50720598328207672223e-02) (784, -8.56940075877016121941e-02) (785, 5.75241631988598969838e-02) (786, 2.65692183186568287034e-02) (787, -1.34986479842728657186e-01) (788, -7.24929608015930787568e-02) (789, 1.01432921228165273675e-01) (790, 5.08244654277543572024e-03) (791, -8.45736652454421450331e-02) (792, 1.33525886695112672164e-01) (793, 6.43145935904875232225e-02) (794, 5.74073973643634480335e-02) (795, 5.29861837512863934063e-02) (796, 6.59147975567442659384e-03) (797, 2.03661988442461021342e-02) (798, 9.35404239957751126866e-02) (799, 6.78844608369622449368e-03) (800, 1.60331783181845849429e-01) (801, 2.03239523335147997951e-01) (802, 1.09302043628072942383e-01) (803, 3.34950997027443006515e-02) (804, 6.56974511945136729896e-02) (805, 2.18222096323073232182e-02) (806, -3.03014293152635526274e-02) (807, -9.78314336500722692147e-03) (808, -3.69178132644889939185e-02) (809, -7.47791679563254291230e-02) (810, -2.88638234324137987752e-01) (811, 3.03932114989459191412e-02) (812, 7.82339842077530156494e-02) (813, 4.47976648047363132377e-02) (814, -1.02834545921671710600e-01) (815, -2.16767819366496319877e-02) (816, -9.06620784612004598779e-02) (817, -2.01732360508330960114e-01) (818, 1.48565241326777369713e-01) (819, -2.63486528525835095316e-01) (820, -4.20628162915829585666e-03) (821, 8.88857584248906873459e-02) (822, -9.05200375771845200390e-02) (823, -1.27941144313275995126e-01) (824, 2.74222316795950993296e-01) (825, 2.88739981109080272315e-02) (826, -5.40316809681953003075e-02) (827, 3.78969722407737005798e-02) (828, 6.57115540361206534881e-02) (829, -1.01719136060281420408e-01) (830, 1.20596408410998029437e-01) (831, -8.54486717460968686622e-02) (832, 1.71255706344318386902e-01) (833, -3.77596092084273859957e-02) (834, 1.24675735989955120686e-02) (835, -1.72863371225044498702e-01) (836, 5.54645789103641456697e-02) (837, 2.17619024209015438087e-01) (838, 2.84441569264630850222e-02) (839, -1.12055786324741182836e-01) (840, 2.21100529799950346055e-01) (841, -4.46732100735157469651e-02) (842, -1.30164209146322873423e-01) (843, 2.34055223789226579667e-01) (844, 1.40054215568490514343e-01) (845, -8.57422312764949678954e-02) (846, 1.54988022500997107977e-01) (847, -1.92177726126059378320e-01) (848, 9.27894861922808344978e-02) (849, 1.42185444083517159575e-01) (850, -1.05574547109124131095e-01) (851, -1.45111646972790383353e-02) (852, 2.63435734620202477441e-01) (853, -4.26386374787679073295e-02) (854, -2.33747991471825039556e-01) (855, -5.74567477220662495285e-02) (856, -4.96072652888445153607e-02) (857, 5.15507313919848011996e-02) (858, 6.44032566431325392831e-02) (859, -7.33214072113892306737e-02) (860, -1.12938448446763844979e-01) (861, 1.10970855383807215366e-01) (862, -2.60574527426203558789e-02) (863, -6.23830177841812813511e-02) (864, 2.41210367489573890287e-01) (865, -2.03191661048183397353e-01) (866, -1.32529620411325405049e-01) (867, -1.61581975911176713157e-02) (868, 5.51127588923977437818e-02) (869, 1.36720354810128345152e-02) (870, 1.92339598828604046998e-01) (871, 4.82323324559255500743e-02) (872, -1.20270237254171685759e-01) (873, -1.22676810383884796196e-01) (874, -8.19309428284888952021e-02) (875, -2.42290262995698175985e-02) (876, -1.62025897698865578578e-01) (877, -3.18006361156396369361e-02) (878, -1.30319105790089206920e-01) (879, 4.36910513068755404498e-02) (880, 5.64552410527095691051e-02) (881, 7.78580077161234174188e-02) (882, 1.06394211438833985461e-01) (883, 2.32946450583401409862e-01) (884, -3.56853684724268219175e-02) (885, -4.32446831818379187617e-02) (886, -5.11451528098604280004e-02) (887, -2.37575110808601989987e-03) (888, -2.93441578605919892175e-02) (889, 4.36691530323072424347e-02) (890, -6.00745759073060495853e-03) (891, 7.57023033890829727399e-02) (892, -6.60945755490455338910e-02) (893, 6.18267468734446309919e-02) (894, -1.88743745833344522822e-01) (895, -5.44198547611257979484e-03) (896, -6.71127376682100762473e-02) (897, -1.47333323130130144918e-01) (898, -2.44962854598114454507e-02) (899, -1.04566533504502540142e-01) (900, -1.41546291504343196843e-01) (901, 1.65786866722523844320e-02) (902, 4.94785217154591616673e-02) (903, 1.88746677613075806990e-02) (904, -1.11601552090186587063e-01) (905, 1.16720327657052549974e-01) (906, -1.22386970844175102524e-01) (907, 2.45169345095287670444e-02) (908, 1.20390182008738660935e-01) (909, 1.39101086688907821937e-02) (910, 1.68436253457014212254e-01) (911, 2.02499594952957606697e-02) (912, 8.27572874995468055204e-02) (913, 1.44689083864065370921e-01) (914, 2.01253883695942832610e-02) (915, 7.19400446835297829873e-02) (916, -7.42464687163929965008e-02) (917, 2.83355076335350952732e-02) (918, -3.55312095094015983898e-02) (919, 6.59298047586006491505e-02) (920, -5.16178657776563895587e-02) (921, 5.27053653892048667995e-02) (922, 4.77707596377751828043e-02) (923, -4.65309747939125495364e-02) (924, -1.01566131832065656426e-01) (925, 4.60590207887588698465e-02) (926, 9.49891107977260118478e-02) (927, -3.21973499865799150932e-03) (928, -8.06074201861118472268e-02) (929, 5.69250596789961788025e-02) (930, 3.58394471116530374810e-02) (931, -6.36357073719633070663e-02) (932, 2.11647962130712095907e-02) (933, -6.82714161904681982040e-02) (934, -1.32814706617227662466e-01) (935, 4.78263030380235987238e-02) (936, -7.26774290402000255895e-02) (937, -1.09082979983349454001e-01) (938, -1.81993910550504248147e-02) (939, -1.57967263442859162659e-01) (940, -1.13250106342381431923e-01) (941, -9.28879841292604840897e-02) (942, 1.50061933718952628114e-01) (943, 7.24592535451455410644e-02) (944, 1.36557532817283971971e-01) (945, 1.89101448975892261206e-01) (946, -9.87770020778703933262e-02) (947, -1.67921750208820767802e-02) (948, 5.75726758567578142389e-02) (949, 7.79891926871125185095e-02) (950, -3.20988655118412333223e-02) (951, -1.02737028958003795420e-01) (952, 1.67688127366645324534e-02) (953, -1.42807782398459912065e-02) (954, -1.45050038053849250641e-01) (955, -6.94197330155868624901e-02) (956, -7.23861763466245207443e-03) (957, -8.51252278110557619728e-02) (958, -1.50412825420340123816e-01) (959, -3.74126476304899382996e-02) (960, 5.46804984817549494247e-02) (961, 3.93621443032105070015e-02) (962, -2.23610284281991839039e-01) (963, -8.84123365032490199367e-02) (964, 2.85475364415627118342e-02) (965, -2.27452867594519769767e-01) (966, -8.74645821844242526977e-02) (967, -3.14432104227803266294e-01) (968, -5.83092874431208746389e-02) (969, -6.12150299184875817948e-02) (970, -7.91866032816692377860e-02) (971, 2.02515799474477425912e-01) (972, 1.89814069677984448292e-01) (973, 2.62767200804965350702e-01) (974, 1.54929013813310118008e-01) (975, 1.15570788037871463594e-01) (976, -3.51940999564688897228e-02) (977, -2.54857126986338167196e-01) (978, -4.14581999758192737415e-02) (0, 1.02090346947928595212e-01) (1, -1.62009114396522262147e-02) (2, -8.81384227945634646240e-02) (3, 7.67751309973940671005e-02) (4, 3.44543966205187388030e-02) (5, 4.32410141505179951293e-02) (6, -2.04288749575561902339e-02) (7, 5.36189727616644060126e-02) (8, 2.45246480687642993967e-02) (9, -8.56876384296575421828e-02) (10, -3.25519632256095550749e-02) (11, -1.48971120960160463564e-01) (12, -7.78865163939709698182e-02) (13, -7.05532924669157457398e-02) (14, -3.40445614481623901049e-02) (15, -8.47836334771977923053e-02) (16, 1.06716395836272945341e-01) (17, -7.87604062334678750590e-02) (18, -9.21852696522118680855e-02) (19, 4.03297478907716014374e-02) (20, -3.64055484533309936523e-03) (21, -3.11809731161174566449e-02) (22, -1.42106733758784797850e-01) (23, -5.06281976764235697175e-01) (24, -8.08579055385199862993e-02) (25, -6.63680460504838254376e-02) (26, -6.88653446200323260395e-02) (27, -1.90659579801783496400e-01) (28, -2.21044818952349730878e-01) (29, 4.17696055955408887539e-02) (30, -1.01844877934416960796e-01) (31, -2.59014281843017002416e-01) (32, -2.09745295577824036881e-01) (33, 6.04345421211821068330e-02) (34, 5.03727776713434674538e-02) (35, -3.25986180986077012101e-02) (36, -1.39550312624746930545e-01) (37, -3.81328794262874859466e-02) (38, -9.17139957910650671646e-02) (39, -4.46243072276837834944e-02) (40, -1.12074859157527378928e-01) (41, -1.13464451417452399928e-01) (42, -1.18984683075903985294e-01) (43, 1.67934198645216040124e-02) (44, -5.87220667793070597029e-02) (45, 3.78431034062620061387e-02) (46, 1.10599839557898857456e-01) (47, -5.65023902152161222601e-02) (48, -2.13171752570400080407e-02) (49, -4.52376668798158687590e-02) (50, -4.74678645534687901342e-02) (51, -1.69399801977865832603e-01) (52, 7.99744315980457365356e-02) (53, 4.46100614776699516684e-02) (54, -1.19968114681889698181e-01) (55, 2.31845789036683076756e-02) (56, -2.38697143636570519032e-01) (57, -1.19308752832215467232e-01) (58, -1.30218129264742910056e-01) (59, -9.67893778017546585479e-02) (60, -1.10859770116480488289e-01) (61, 2.67918575869080972940e-02) (62, 1.37145023996778886444e-01) (63, -1.08598190393262641895e-01) (64, -6.54227727977022555095e-02) (65, 1.80117978289614871779e-01) (66, -1.10080439828042581096e-01) (67, -6.19981360692737695772e-02) (68, 2.69712711363928499264e-02) (69, 6.38888096970970376098e-02) (70, 1.10620446152353297392e-02) (71, -6.65144148789684891421e-02) (72, 9.13318056961648500058e-02) (73, 1.56477165498919608411e-02) (74, -5.15652598340890500062e-02) (75, 1.50609110108988392129e-01) (76, -1.05283049051522678563e-02) (77, 5.07959553674566868797e-02) (78, -1.30297407591195735233e-01) (79, -1.52935217141055512791e-01) (80, -7.22624007138012863782e-02) (81, 6.90838769367720928471e-02) (82, -1.40103750913941494521e-02) (83, -1.84117130614235874342e-01) (84, 4.72210938072000485644e-02) (85, 1.62257508925468668659e-01) (86, -1.11848795730022376738e-01) (87, 3.06187937336962479051e-02) (88, -8.80483828343015945128e-02) (89, -3.97993256524076660652e-02) (90, -8.60441659554416382778e-04) (91, -1.08757258282961510876e-01) (92, 1.15904250903686913826e-02) (93, -3.74050495409576633232e-02) (94, 1.21603103362187461162e-02) (95, 3.96807184060926632085e-02) (96, -2.53116342454472620371e-01) (97, -2.56396743254123891942e-02) (98, -6.49600088710250572754e-02) (99, -9.74135640375520944767e-02) (100, 1.06827279693854401699e-01) (101, 4.51737501018188540580e-03) (102, -2.80655203466524116873e-02) (103, -1.67598639743264193891e-01) (104, -2.73806834048728499342e-02) (105, 1.23212015933656618416e-01) (106, -6.76329464586642725710e-02) (107, -9.37313168590905160249e-02) (108, -1.73943692879738147361e-02) (109, 3.08518106862285361458e-02) (110, 1.07511111989422744606e-01) (111, -1.23580352179379834854e-01) (112, -7.73732112936065946629e-02) (113, 8.05708869763948204445e-02) (114, -2.95720620408459729592e-03) (115, 7.59586449325971579949e-02) (116, -2.11275263688656705918e-01) (117, -1.19559417988920030362e-01) (118, 7.90803902879250869562e-02) (119, -2.23435002146418149049e-01) (120, -8.14555576334595743404e-02) (121, -1.59090506919265378682e-02) (122, 1.89659908515794309487e-03) (123, -1.99415125558834588348e-01) (124, 6.09257566817815662819e-02) (125, 3.96263728101280687799e-02) (126, 3.25690919937450112931e-02) (127, -3.72355429739330209826e-02) (128, 6.84031907488147350449e-02) (129, 2.66495928543684423850e-01) (130, 1.31677109878842561741e-02) (131, -7.02161496348142621926e-02) (132, 1.26265882189169786898e-01) (133, 9.52781030983297638759e-02) (134, 1.35216216315668536635e-02) (135, -1.98930827191323468528e-02) (136, -1.37351668082717065511e-01) (137, -9.94174337777762803792e-03) (138, -7.02765014411225741320e-02) (139, -2.51983365536118830708e-01) (140, -1.27816884019881199519e-01) (141, -1.03987390125519288397e-01) (142, 3.42274983984080030663e-02) (143, 1.75746074701119310568e-02) (144, -2.77418035378652269585e-02) (145, 8.04010944933151588954e-02) (146, -3.32910889711710456396e-04) (147, -3.41190913586361535895e-03) (148, -1.02906912672911590723e-01) (149, 3.01245462422722043438e-02) (150, 1.69671522006605179911e-01) (151, 4.05283038111225318856e-02) (152, -4.72121599135284300552e-02) (153, -8.77687390833219727160e-02) (154, 7.35739683848838088576e-02) (155, -1.44903383717605749315e-01) (156, -2.08621508515043602161e-01) (157, -5.73504309286682334434e-02) (158, -1.54092783721062442925e-01) (159, -2.60851206422990755662e-01) (160, -7.87901856589591914615e-02) (161, -3.39350038941195406017e-02) (162, 1.14974046943680366373e-01) (163, -1.82487999056337828196e-02) (164, 3.54106801340575774728e-02) (165, 2.92981388185872965169e-02) (166, -6.67087610597937637896e-03) (167, -1.28485839899365711370e-01) (168, -7.34074838259522466366e-02) (169, -1.49143878370465894634e-02) (170, 1.07103062944853777427e-01) (171, -6.38362317324427941401e-02) (172, 1.11950506257072701644e-01) (173, -4.83978912797246654809e-02) (174, -2.31218898022032492978e-01) (175, -1.71350465410778834974e-01) (176, -2.82290343830836343297e-01) (177, 5.77145667889978827847e-02) (178, -1.33755571440993814569e-01) (179, -2.39507157099336426276e-01) (180, -7.10023996135236840077e-02) (181, -7.96955560650921684962e-02) (182, 3.36904137436320860743e-01) (183, 5.06792117273567321867e-02) (184, -2.30227123374672021372e-01) (185, 1.28831776607511386962e-02) (186, 2.16502654498291619012e-01) (187, 2.68303438778155767253e-03) (188, -1.47619906332517342173e-01) (189, -5.71009841863314368537e-02) (190, -5.19660837781054166240e-02) (191, 7.55594564644805760656e-02) (192, 3.48057757585103599851e-01) (193, 1.00176236886487440847e-01) (194, -2.98316326666821507452e-01) (195, 2.57413659514531918335e-03) (196, -7.47087955004308440499e-02) (197, -1.04782134528669593210e-01) (198, -3.41988834453462800522e-02) (199, -1.63095589487462944156e-01) (200, -6.69286288449952582180e-02) (201, -4.27192009440212350224e-02) (202, 2.06395291585324769379e-01) (203, 5.51125762321591355919e-02) (204, -7.74419531414784617640e-02) (205, 9.14982717364323490730e-04) (206, 1.93651037152968191757e-01) (207, -1.07262204268504163229e-01) (208, -2.08953582996064318386e-03) (209, 9.35745918392733300184e-02) (210, -1.32071664505337181897e-03) (211, 4.43260017016765955900e-03) (212, 1.60128383603030860494e-01) (213, -3.52709815542720239723e-02) (214, -1.62333938037874186966e-01) (215, -1.94439571014184103825e-01) (216, -1.93218885507812937474e-01) (217, 9.45047041603286758216e-02) (218, -2.39543874852461632918e-02) (219, -7.10387827163547758147e-02) (220, 1.88963532705590901706e-02) (221, 7.14062585559556428638e-02) (222, 7.29877788258001258814e-02) (223, 6.66647689566079917206e-03) (224, -1.53584173209658197967e-01) (225, -1.10081847893613721245e-01) (226, 5.71317885229457103624e-03) (227, -1.55470300183902621072e-01) (228, -4.46423051331068174163e-02) (229, 4.60234998723277680122e-02) (230, -1.18960551661071764484e-01) (231, -2.90121943015589633941e-02) (232, 1.63871911268481162960e-01) (233, 2.03563776198918966465e-02) (234, -2.71104514468686885742e-01) (235, 4.14930526800716889535e-02) (236, 2.48040800307669562219e-01) (237, -3.44180936017289412776e-02) (238, 4.72561728513678277336e-03) (239, 1.16860952540962570456e-01) (240, -4.04672915207294481288e-02) (241, -2.79424854023101222611e-02) (242, 1.31448161942202018659e-01) (243, 1.43404976312378029668e-01) (244, -1.09275056344280518776e-03) (245, -6.46378930691946795850e-02) (246, 1.56837150586823209641e-01) (247, -8.91450313416503742348e-03) (248, -9.72266251038363671366e-02) (249, -2.60823120617963907786e-02) (250, 1.13650441031401455705e-01) (251, -1.27826717764848857284e-01) (252, 7.67448501934854115936e-02) (253, -1.12250056582244517323e-01) (254, 1.35989837527864698696e-01) (255, 6.79364998612152493074e-02) (256, -2.44974586571147789904e-03) (257, 1.13149880958451728996e-01) (258, -5.36099991673101659156e-03) (259, -7.21707242586182712296e-02) (260, -1.69129208841339057079e-01) (261, -1.46405078054384324426e-01) (262, 7.50990784303210145989e-02) (263, -3.38329299860393728494e-02) (264, 1.66224871310203081709e-01) (265, -2.74710489843418732836e-02) (266, 5.95758735288929100471e-02) (267, 3.28350999250882555347e-02) (268, 7.13746897206276598169e-02) (269, -5.15507092890865811774e-02) (270, -1.55336526689522858025e-01) (271, 2.47358663588424310467e-03) (272, 8.86676746032459967006e-02) (273, -7.27614018478279639401e-02) (274, -1.75493197961826379039e-02) (275, 1.06005292136318304830e-01) (276, -1.70437517294619922392e-01) (277, -2.31515886526593356320e-01) (278, 1.64655305741972429745e-01) (279, 2.92315857911465241947e-03) (280, -3.88405658927186356322e-02) (281, 2.13214698377974555543e-02) (282, 1.06031983377596353280e-01) (283, -1.89303067822432891099e-01) (284, -5.85693340584075572419e-02) (285, -2.04324853586159496666e-02) (286, 1.67200079820722102841e-01) (287, -2.10336342021805622338e-01) (288, -7.17221037390247950771e-02) (289, 1.02297651620346895240e-02) (290, -3.20196957766046980121e-02) (291, -3.59704415733267737765e-02) (292, 8.65191984832144045381e-02) (293, 9.37991232964127535920e-02) (294, -9.87391597670587940414e-04) (295, 5.62473399049016886675e-02) (296, -1.04873548275791012019e-01) (297, -1.40904642024165388525e-01) (298, 5.07817708762091438168e-02) (299, -1.75103950840300559566e-01) (300, -3.35581994546439388305e-01) (301, 2.71100635148744384395e-02) (302, 6.24823846785167447138e-02) (303, 7.89514509400178893239e-02) (304, 9.70483621070953629550e-03) (305, -1.27363186641800296695e-01) (306, 1.11818510485173092106e-01) (307, -4.75470587624488918999e-02) (308, -1.01647743709373392096e-01) (309, -4.22150430225050818378e-02) (310, -1.87587288519998306169e-02) (311, -2.07683191490161372927e-01) (312, -6.50117180175222575400e-02) (313, 1.29051163905976540303e-01) (314, -9.57914442877914884544e-02) (315, -1.70054863470956690863e-01) (316, -1.96958835491556155661e-01) (317, -8.48648312821158046226e-02) (318, -1.25441988584344854551e-01) (319, -2.31487939038692108751e-01) (320, -1.81327632412496636549e-01) (321, -1.18591439606229837045e-01) (322, -2.30602758937380435122e-02) (323, -1.83068618730734267164e-01) (324, -1.11693243033733749514e-01) (325, -8.02109810753963703434e-02) (326, 4.37197558706731090328e-02) (327, -1.90118768368686963388e-01) (328, -1.69735116558687171295e-02) (329, -1.44316733702461296590e-02) (330, -1.38708678506818783305e-01) (331, -1.22310247419574275041e-01) (332, -1.11377661730165666842e-02) (333, 3.10700538283875844769e-02) (334, 7.66026244367528415941e-03) (335, -3.38543180720075279760e-03) (336, -3.81347783851918142872e-01) (337, -3.52571201186777649639e-02) (338, 4.49500639385255838093e-03) (339, -1.92270622272294799959e-01) (340, -4.79846442574822715232e-02) (341, -8.45747255038003797889e-02) (342, 6.08887561841644914251e-02) (343, -1.16010226018007922555e-01) (344, -5.87185104541964250635e-02) (345, 6.45800289274740257905e-02) (346, -6.57843693330280865350e-02) (347, -2.54247778973029969762e-01) (348, -1.96159795828568322973e-01) (349, -7.63973968201418773827e-02) (350, -1.89362385686992276690e-02) (351, -9.44298914402107586463e-02) (352, 2.06536034491791031797e-02) (353, -7.70301706025492416430e-02) (354, 6.54687336111269280181e-02) (355, 8.86763784813831244802e-03) (356, -3.41258342730010877375e-01) (357, -2.83606279925344484383e-01) (358, -3.87539611947095366529e-02) (359, -1.26603849111415145412e-01) (360, -7.30252715014490794143e-02) (361, -2.89590446649433085058e-02) (362, -4.09904526881121611392e-02) (363, -1.71644803692516334515e-01) (364, 8.60517749195217618308e-02) (365, -5.49033903090119512758e-02) (366, 6.13520560858886038202e-02) (367, -1.04548348848871180961e-01) (368, -7.81483717596751503720e-02) (369, -2.13010083099601732481e-01) (370, -1.32347724878775385715e-01) (371, -1.03724069163630180923e-01) (372, 4.08374354427123824329e-03) (373, 1.52034923691737933193e-01) (374, -1.03503543571887346442e-01) (375, -1.61511886203116572513e-01) (376, -1.81309915541932986649e-01) (377, -1.73510474209912668453e-01) (378, -5.76937341899764338793e-02) (379, -2.66177974106157233525e-01) (380, -7.51254366665194822650e-02) (381, 1.49900720252827079904e-01) (382, -7.51615018586238442522e-02) (383, -1.82751628626391410259e-01) (384, 1.04085597446037153579e-01) (385, -8.34092753925792101954e-02) (386, 1.09410516127560787647e-02) (387, -1.51661145036520367269e-01) (388, -9.54149421719920065588e-02) (389, -8.38493164952925223998e-02) (390, -1.00215500349898345434e-02) (391, -1.34039752838754522291e-01) (392, -2.65964039810920524487e-02) (393, -1.20565349956029507772e-01) (394, -1.91328937321623482326e-01) (395, 7.83226935180875299958e-02) (396, -1.91879467016197069462e-01) (397, -3.05669174438419621875e-01) (398, -2.37998995486633155294e-02) (399, -2.15422933158947116361e-01) (400, -7.41441380561434909557e-02) (401, -2.07859981427142501142e-02) (402, 8.41437336087829945708e-02) (403, -1.69555771531264935781e-02) (404, -1.14021572206203722355e-01) (405, -1.58993351695538742696e-01) (406, -4.51656199364142401514e-03) (407, -3.62958022376297304024e-02) (408, -3.95862130553524746435e-02) (409, -2.33873455321956774666e-01) (410, 8.79287854771429178147e-02) (411, -1.53279303741102657099e-01) (412, 1.19846650718067826435e-01) (413, 5.70630661571910752228e-02) (414, -6.45230181883444248170e-02) (415, -1.77927352661713666926e-01) (416, -2.61834397538532659411e-01) (417, -2.44748419833944685919e-01) (418, 7.20761104010077084669e-03) (419, -2.45783095656106898019e-01) (420, -1.60060446648851717466e-01) (421, 3.57722860973724420680e-03) (422, -2.01947900262852420017e-01) (423, -9.19645416806646326391e-02) (424, -1.86547508961144081763e-01) (425, 6.97924110720922752371e-02) (426, -8.87670846142371017251e-02) (427, -4.33369952563586596783e-02) (428, 8.30610743037110826892e-02) (429, 7.17882880446050596762e-03) (430, -9.87822857011814159378e-02) (431, -8.24747371577470161919e-02) (432, -1.31562179596215661492e-01) (433, 5.12031539616915887247e-02) (434, 8.05831748925130569861e-02) (435, -2.14834675911484501709e-01) (436, -9.43641648460935428266e-02) (437, -1.64847593105191370100e-01) (438, -9.32246290774615821162e-02) (439, -1.67446918854496501483e-01) (440, 6.65037899404661708713e-02) (441, -1.46841951511751084292e-01) (442, -1.26454682952615748981e-01) (443, -1.05314483333119213171e-01) (444, 7.98842645497539749488e-03) (445, -6.19520010162799769637e-02) (446, -8.64745929611901303913e-02) (447, 4.00049968764433772073e-02) (448, 6.92334368949364814538e-02) (449, -1.70977550431895997107e-01) (450, -5.15994978027670830878e-02) (451, -2.34735903826644887182e-01) (452, -1.54587245335331940899e-01) (453, -5.68721558486754014128e-02) (454, -2.63590578365124790505e-02) (455, -1.82074221985597324742e-03) (456, -1.18396102693924268334e-01) (457, -1.68882430600398904252e-02) (458, 9.12084130883034777115e-02) (459, 9.87521056108495304260e-02) (460, -1.52499083719336101655e-02) (461, 2.09041701650927690126e-02) (462, -5.40499232081176339548e-02) (463, -3.79677785201792267200e-02) (464, 1.40670708254022253092e-01) (465, 1.11754479059397171525e-01) (466, 1.04177929517155903882e-02) (467, 7.56957174403849464284e-02) (468, 7.87722417463307261754e-02) (469, 5.47370220297995827008e-02) (470, 5.36252648726309524840e-02) (471, -4.31013379841445540275e-02) (472, 6.28216674124350976660e-02) (473, 2.39369805734223367599e-01) (474, -9.02701385502567427155e-02) (475, 1.15502240215757445707e-01) (476, 7.07107954827256857122e-02) (477, 4.20214627969513684902e-02) (478, 4.60108062126392894364e-02) (479, 1.49658353109407300102e-02) (480, 7.62210747594042753450e-02) (481, -6.63852930917153971624e-02) (482, 1.19986847599656956675e-01) (483, -1.08027749446886450757e-01) (484, 3.38574711177672404983e-02) (485, -4.40026194764800357428e-02) (486, 2.25561605204301768302e-03) (487, 3.60950424679109885262e-02) (488, 5.71247629042315879788e-02) (489, -1.17444945966326819153e-02) (490, 1.45386343322831904784e-02) (491, 8.62562865523652105848e-02) (492, 1.02344560074016807660e-01) (493, -8.44877859444839902914e-03) (494, -1.62616297966526913987e-02) (495, -1.17523279337730535837e-02) (496, 4.25072912516244877379e-02) (497, -3.22032427285553340957e-02) (498, -1.17376086450545463052e-02) (499, 7.96729545018527995914e-02) (500, 1.14073638716072262023e-01) (501, 5.47563007166170997997e-02) (502, 1.59221371970122121953e-01) (503, -3.58810431365298582174e-02) (504, 1.07079336254612675350e-01) (505, -2.70266219349900782207e-03) (506, -5.71729808257781038638e-02) (507, 9.85062480076340091228e-02) (508, -1.25122658673530867679e-01) (509, 9.62647925462501025118e-02) (510, -1.58487921609072532347e-02) (511, 1.28520645994311816240e-01) (512, 1.05400483678017006794e-01) (513, 1.34043981146866313797e-02) (514, 3.81489105014788179582e-02) (515, 1.41364659210351101271e-02) (516, 1.04617295621744751943e-01) (517, -7.57752639973772734727e-02) (518, 7.12606244746584877037e-02) (519, -1.99355300276635505341e-01) (520, 1.41002939870640969788e-01) (521, -1.49284237234583467419e-02) (522, 5.07488697508077443721e-02) (523, -1.14044702829092278740e-01) (524, 5.11558078350271630552e-02) (525, -1.87317460142476771567e-01) (526, 3.78415722274672234118e-03) (527, 2.53789200959022680226e-02) (528, -5.02406758329573214367e-03) (529, 6.32328703005066994347e-02) (530, 6.33180450336986999638e-02) (531, -4.64865580179922924242e-02) (532, 1.69556637409187083154e-01) (533, -1.38289953880750965398e-01) (534, 1.41455956747764233228e-01) (535, -1.21473189579853119158e-01) (536, 9.60587480169682456088e-02) (537, 4.44074989590836771702e-02) (538, 2.68586256037589954371e-01) (539, -7.37814545585891851109e-02) (540, 1.68037124423435796361e-01) (541, -1.62966532905343741700e-01) (542, 1.46675963386789343090e-01) (543, -9.14352242442588447613e-02) (544, 1.46703857615361477063e-01) (545, 1.44206937864926540427e-02) (546, 1.77721657169060548442e-01) (547, -4.50029576195040345588e-02) (548, -2.24091968087558601752e-02) (549, 1.45084188999986790636e-01) (550, 3.28983513669146368508e-02) (551, -2.11294126571094052769e-02) (552, 2.21028386547529431816e-01) (553, -1.17727670996708208562e-01) (554, 1.46848985254129649203e-01) (555, 3.89933385651571526309e-02) (556, 2.81913918342032776554e-01) (557, -9.46392352432125910644e-02) (558, -1.33415379705619757678e-01) (559, 4.86700452048447959608e-02) (560, -8.57213982111453554058e-02) (561, 1.46600157703965314898e-02) (562, 4.80082701908411749181e-02) (563, 4.53185226543887653694e-02) (564, -1.09675055427857257029e-01) (565, -5.61915298828129378128e-02) (566, 1.81865824164557265963e-01) (567, -1.97088429631756018034e-01) (568, -1.09973146601031315783e-01) (569, 1.84132175790428370687e-01) (570, -9.29388365315881870288e-02) (571, 2.36983724866874183312e-02) (572, 1.03523396222859692672e-01) (573, -2.00044024463262054558e-01) (574, -1.19766049770007126929e-01) (575, 3.30563400623123004873e-01) (576, -3.05346935864455881759e-01) (577, 7.55928611025646068899e-02) (578, 2.21120995096792949397e-01) (579, -2.12570049723309589806e-01) (580, 1.30319018245952489288e-01) (581, 2.86809923539750766253e-01) (582, -1.73377676037750561022e-01) (583, 8.02447425834692251723e-02) (584, 1.89516804326947591042e-01) (585, -2.19042112561577045904e-01) (586, 2.65955157724089112647e-02) (587, 1.83931614320784808658e-01) (588, -2.89141741323042378298e-01) (589, 8.36274566052888912449e-02) (590, 1.96382742492229922515e-01) (591, -1.77609700625202954205e-01) (592, 3.74048212642864863486e-02) (593, 6.15994558649558821006e-02) (594, 4.28028289228352901846e-03) (595, 5.41724149377626057467e-02) (596, 8.09589202502741384082e-02) (597, -5.18807817001303503424e-02) (598, 3.01272026065565017017e-02) (599, -1.94402649720425597935e-02) (600, -8.92311093540152366899e-02) (601, -2.11188026240730006289e-02) (602, 1.42069941673558547413e-01) (603, -1.02168520154360786822e-01) (604, 1.21212385336229758193e-01) (605, 1.69686215849705002157e-01) (606, -1.25601055336639233495e-01) (607, 1.69963417823009776964e-01) (608, 1.34418675485541760928e-01) (609, -9.00850898855623388739e-02) (610, 2.27152915281785029722e-02) (611, 1.51995576800709908394e-01) (612, -1.28610788828686872787e-01) (613, -4.43499571574015802322e-02) (614, 7.82391167883495219915e-02) (615, -2.00566165301061583026e-01) (616, 1.17125896467287909930e-01) (617, 8.90649707672431650840e-02) (618, -2.11462898266998100549e-01) (619, 1.61538928990018648690e-01) (620, 3.17526288545658119666e-01) (621, 8.98704306536572267161e-02) (622, 1.26331769550851263917e-01) (623, 1.13104200014321823464e-01) (624, -1.70320182852348095404e-01) (625, 1.14630899961426328815e-03) (626, 1.63442058353115739211e-02) (627, -1.24466552547679382146e-01) (628, 2.74102187796136986808e-01) (629, -4.72543922892640425037e-02) (630, -1.03979341841014510939e-01) (631, 1.85687594512242509781e-01) (632, -6.22982134415505303671e-02) (633, -1.15741785270710023648e-01) (634, -1.48522764767339884168e-03) (635, -1.02890593851305917061e-01) (636, 1.15026440745397293131e-01) (637, -1.05017966385781910676e-01) (638, -2.70652541810305180547e-01) (639, 1.00487558269407181721e-01) (640, -6.26864808939918971564e-02) (641, -8.20745038973469120958e-02) (642, 3.70576949070938327369e-02) (643, 1.60109648888852790227e-01) (644, 9.07647738340771059740e-02) (645, -3.75988538722459150407e-03) (646, 7.58849118034364278351e-02) (647, 1.77483661855024621445e-01) (648, 1.84693958542967606729e-01) (649, 5.13102986225551296884e-02) (650, 3.51268586966459392396e-02) (651, 1.06054625684387435203e-01) (652, 1.18519894761270824790e-01) (653, -2.53119824193871398310e-02) (654, 7.52002843438584339664e-02) (655, 1.15283194444365785780e-01) (656, 1.30579056947084742868e-01) (657, -2.50980108176138590192e-02) (658, 7.78863722840067579378e-02) (659, -4.92439126154002940194e-02) (660, 6.81181977503197630397e-03) (661, 1.22061833925764917641e-01) (662, 1.86546522157267878617e-02) (663, -6.67973811054440175239e-02) (664, 6.33833391953288888265e-02) (665, -9.06090691991821711726e-02) (666, 3.30566690163833082350e-02) (667, 8.12817282649473810130e-02) (668, -6.38687231518396958396e-02) (669, 4.13002585746206768436e-02) (670, 9.18290897314804344109e-02) (671, -6.26371490844865319580e-02) (672, -7.79380127844354897437e-02) (673, -1.13543709542496068510e-01) (674, 1.01180185091156990551e-01) (675, 7.20136610058675925156e-03) (676, 1.44926185010940594688e-01) (677, -5.73711595785451958229e-02) (678, 1.53578106019035820484e-01) (679, 1.52997695471804334710e-01) (680, 2.21960986588272846110e-01) (681, -7.53822802464857166793e-02) (682, 4.52120987974617138949e-02) (683, -8.32260347068653344449e-02) (684, -1.17602695514043370517e-01) (685, -2.56046705150430042863e-02) (686, 6.15701537938493775881e-02) (687, 6.93765932841992286756e-03) (688, -4.91913985247713347881e-02) (689, -1.36472731385676379623e-02) (690, 3.35371585100842292682e-02) (691, 3.82021050989252916597e-02) (692, -3.96779052964464206549e-03) (693, 6.44270553564880998909e-02) (694, -1.60690105209588235402e-01) (695, 1.21239831196625666432e-01) (696, 1.85120794817642715657e-02) (697, 1.00301828460294631395e-01) (698, 1.07191123713067017892e-02) (699, -5.80360718507600195637e-02) (700, 5.94494507202193624845e-03) (701, -9.73533261532140160302e-05) (702, -1.21736370570535962221e-01) (703, -2.24189704694710036093e-02) (704, -3.05297487605979168956e-02) (705, -1.36101140510524354355e-01) (706, -1.03196481516303631421e-01) (707, -1.60364847662924137062e-01) (708, -4.17377063948506307756e-02) (709, 2.45016638086848238809e-02) (710, -6.27387707251279014287e-02) (711, -1.36363719332379951243e-01) (712, -5.57406533875218351826e-02) (713, -8.66198822058116407741e-02) (714, -7.28568981600292153722e-02) (715, -1.69066960523346632161e-01) (716, 7.46285320786733985532e-02) (717, 4.00556822598651871004e-03) (718, 9.67270662352276711093e-02) (719, -1.23365326689420698458e-01) (720, -9.03532130440585778963e-02) (721, -2.61671657959475535693e-02) (722, 9.81417599129762452392e-02) (723, -4.59211336425020544283e-02) (724, -1.12780007282069869023e-01) (725, -1.59026765859330454500e-01) (726, -4.24140191993054860298e-02) (727, -7.14887518732601062732e-02) (728, -1.03423295420040098347e-01) (729, -7.15572891858279186428e-02) (730, -3.49173014069466963738e-03) (731, -2.18095164559116774794e-02) (732, -3.99409894940122509044e-02) (733, 1.43430653027561305635e-01) (734, 3.98718000172370995449e-02) (735, 5.66263593713064242174e-02) (736, 1.93412679965661200854e-02) (737, -2.75430875318700349452e-02) (738, -1.09229988488806953328e-01) (739, -1.18672338009355421429e-01) (740, -5.28534678594273343161e-03) (741, -1.06500401270825773015e-01) (742, -3.45758219456563306582e-02) (743, -7.29167387580040293749e-02) (744, -1.20003218853563797808e-01) (745, -1.46176433812948064483e-01) (746, -2.04858902792565855666e-01) (747, -1.00857335125415892296e-01) (748, 2.32747029190267136489e-02) (749, 3.95586049015848595367e-02) (750, -7.48801268712873113742e-02) (751, 3.12698297937216637687e-02) (752, -9.64143167284368524106e-02) (753, -1.68419969031005783977e-01) (754, -5.56513702557693487605e-02) (755, -1.21928674094325506516e-01) (756, -1.87103927442089201794e-01) (757, -2.12037779531911524389e-01) (758, -7.51691662179398978338e-02) (759, -2.62740010383366140445e-01) (760, -3.07742028924851418470e-01) (761, -2.61097720527497745291e-01) (762, -1.18957765171485416178e-01) (763, -1.60869946583761941339e-01) (764, -1.97966278931890921067e-01) (765, -1.20966925161255678400e-01) (766, -5.67665694619747147887e-03) (767, 4.36057016129147434480e-02) (768, 1.05650912073024211280e-01) (769, -1.19108508711855583251e-02) (770, 1.45008796652124211102e-01) (771, 4.25118872953301821238e-02) (772, 4.05052604859857459663e-02) (773, -2.77371763475302152147e-02) (774, 4.43663475835128255035e-04) (775, -2.80244984074779143746e-02) (776, 9.44865413038863399819e-02) (777, 3.84397723448912514987e-02) (778, 5.61111767550913492775e-02) (779, 1.04666171952212144758e-01) (780, 6.35875940718134413654e-02) (781, 1.79476385990492093292e-01) (782, 1.02488049180213938727e-01) (783, 1.11476269096900143518e-01) (784, 8.02768279330827276563e-03) (785, 4.51164343317056598659e-02) (786, 5.85001981193018858601e-03) (787, 4.24570928644887046755e-02) (788, 4.89896559619018151510e-02) (789, -4.50250781147425518935e-02) (790, 8.62277127093669382152e-02) (791, 9.58420827417856002750e-02) (792, 5.46655608251845337442e-02) (793, 2.17101819184573913146e-01) (794, 2.10838706657412860990e-01) (795, 4.33585071572301569698e-02) (796, -5.38399869942906283971e-02) (797, 9.76595776566742818092e-02) (798, 3.14797135717615819694e-02) (799, 1.67680816436862306640e-01) (800, 1.69637321789836148511e-01) (801, 1.23289218848208093071e-01) (802, 9.63492212181542989624e-02) (803, 9.71850980405482983704e-02) (804, 5.54051992065137041688e-02) (805, 1.58542509490070981926e-01) (806, 4.66817527617605851353e-02) (807, -3.32460956105778287790e-04) (808, 2.79896823732195335066e-02) (809, 5.28442386602178681976e-02) (810, -1.17305756072169989346e-02) (811, 4.16729570123442472074e-02) (812, -8.16990023536598962417e-03) (813, -1.50070185382609216918e-01) (814, -2.29302844787700292606e-02) (815, 1.23683822547562147220e-01) (816, -7.13462978294853861216e-02) (817, 1.37237392147600903436e-02) (818,