FANN_FLO_2.1
num_layers=3
learning_rate=0.100000
connection_rate=1.000000
network_type=0
learning_momentum=0.300000
training_algorithm=0
train_error_function=0
train_stop_function=0
cascade_output_change_fraction=0.010000
quickprop_decay=-0.000100
quickprop_mu=1.750000
rprop_increase_factor=1.200000
rprop_decrease_factor=0.500000
rprop_delta_min=0.000000
rprop_delta_max=50.000000
rprop_delta_zero=0.100000
cascade_output_stagnation_epochs=12
cascade_candidate_change_fraction=0.010000
cascade_candidate_stagnation_epochs=12
cascade_max_out_epochs=150
cascade_max_cand_epochs=150
cascade_num_candidate_groups=2
bit_fail_limit=3.49999999999999977796e-01
cascade_candidate_limit=1.00000000000000000000e+03
cascade_weight_multiplier=4.00000000000000022204e-01
cascade_activation_functions_count=10
cascade_activation_functions=3 5 7 8 10 11 14 15 16 17 
cascade_activation_steepnesses_count=4
cascade_activation_steepnesses=2.50000000000000000000e-01 5.00000000000000000000e-01 7.50000000000000000000e-01 1.00000000000000000000e+00 
layer_sizes=1069 51 3 
scale_included=0
neurons (num_inputs, activation_function, activation_steepness)=(0, 0, 0.00000000000000000000e+00) (0, 0, 0.00000000000000000000e+00) (0, 0, 0.00000000000000000000e+00) (0, 0, 0.00000000000000000000e+00) (0, 0, 0.00000000000000000000e+00) (0, 0, 0.00000000000000000000e+00) (0, 0, 0.00000000000000000000e+00) (0, 0, 0.00000000000000000000e+00) (0, 0, 0.00000000000000000000e+00) (0, 0, 0.00000000000000000000e+00) (0, 0, 0.00000000000000000000e+00) (0, 0, 0.00000000000000000000e+00) (0, 0, 0.00000000000000000000e+00) (0, 0, 0.00000000000000000000e+00) (0, 0, 0.00000000000000000000e+00) (0, 0, 0.00000000000000000000e+00) (0, 0, 0.00000000000000000000e+00) (0, 0, 0.00000000000000000000e+00) (0, 0, 0.00000000000000000000e+00) (0, 0, 0.00000000000000000000e+00) (0, 0, 0.00000000000000000000e+00) (0, 0, 0.00000000000000000000e+00) (0, 0, 0.00000000000000000000e+00) (0, 0, 0.00000000000000000000e+00) (0, 0, 0.00000000000000000000e+00) (0, 0, 0.00000000000000000000e+00) (0, 0, 0.00000000000000000000e+00) (0, 0, 0.00000000000000000000e+00) (0, 0, 0.00000000000000000000e+00) (0, 0, 0.00000000000000000000e+00) (0, 0, 0.00000000000000000000e+00) (0, 0, 0.00000000000000000000e+00) (0, 0, 0.00000000000000000000e+00) (0, 0, 0.00000000000000000000e+00) (0, 0, 0.00000000000000000000e+00) (0, 0, 0.00000000000000000000e+00) (0, 0, 0.00000000000000000000e+00) (0, 0, 0.00000000000000000000e+00) (0, 0, 0.00000000000000000000e+00) (0, 0, 0.00000000000000000000e+00) (0, 0, 0.00000000000000000000e+00) (0, 0, 0.00000000000000000000e+00) (0, 0, 0.00000000000000000000e+00) (0, 0, 0.00000000000000000000e+00) (0, 0, 0.00000000000000000000e+00) (0, 0, 0.00000000000000000000e+00) (0, 0, 0.00000000000000000000e+00) (0, 0, 0.00000000000000000000e+00) (0, 0, 0.00000000000000000000e+00) (0, 0, 0.00000000000000000000e+00) (0, 0, 0.00000000000000000000e+00) (0, 0, 0.00000000000000000000e+00) (0, 0, 0.00000000000000000000e+00) (0, 0, 0.00000000000000000000e+00) (0, 0, 0.00000000000000000000e+00) (0, 0, 0.00000000000000000000e+00) (0, 0, 0.00000000000000000000e+00) (0, 0, 0.00000000000000000000e+00) (0, 0, 0.00000000000000000000e+00) (0, 0, 0.00000000000000000000e+00) (0, 0, 0.00000000000000000000e+00) (0, 0, 0.00000000000000000000e+00) (0, 0, 0.00000000000000000000e+00) (0, 0, 0.00000000000000000000e+00) (0, 0, 0.00000000000000000000e+00) (0, 0, 0.00000000000000000000e+00) (0, 0, 0.00000000000000000000e+00) (0, 0, 0.00000000000000000000e+00) (0, 0, 0.00000000000000000000e+00) (0, 0, 0.00000000000000000000e+00) (0, 0, 0.00000000000000000000e+00) (0, 0, 0.00000000000000000000e+00) (0, 0, 0.00000000000000000000e+00) (0, 0, 0.00000000000000000000e+00) (0, 0, 0.00000000000000000000e+00) (0, 0, 0.00000000000000000000e+00) (0, 0, 0.00000000000000000000e+00) (0, 0, 0.00000000000000000000e+00) (0, 0, 0.00000000000000000000e+00) (0, 0, 0.00000000000000000000e+00) (0, 0, 0.00000000000000000000e+00) (0, 0, 0.00000000000000000000e+00) (0, 0, 0.00000000000000000000e+00) (0, 0, 0.00000000000000000000e+00) (0, 0, 0.00000000000000000000e+00) (0, 0, 0.00000000000000000000e+00) (0, 0, 0.00000000000000000000e+00) (0, 0, 0.00000000000000000000e+00) (0, 0, 0.00000000000000000000e+00) (0, 0, 0.00000000000000000000e+00) (0, 0, 0.00000000000000000000e+00) (0, 0, 0.00000000000000000000e+00) (0, 0, 0.00000000000000000000e+00) (0, 0, 0.00000000000000000000e+00) (0, 0, 0.00000000000000000000e+00) (0, 0, 0.00000000000000000000e+00) (0, 0, 0.00000000000000000000e+00) (0, 0, 0.00000000000000000000e+00) (0, 0, 0.00000000000000000000e+00) (0, 0, 0.00000000000000000000e+00) (0, 0, 0.00000000000000000000e+00) (0, 0, 0.00000000000000000000e+00) (0, 0, 0.00000000000000000000e+00) (0, 0, 0.00000000000000000000e+00) (0, 0, 0.00000000000000000000e+00) (0, 0, 0.00000000000000000000e+00) (0, 0, 0.00000000000000000000e+00) (0, 0, 0.00000000000000000000e+00) (0, 0, 0.00000000000000000000e+00) (0, 0, 0.00000000000000000000e+00) (0, 0, 0.00000000000000000000e+00) (0, 0, 0.00000000000000000000e+00) (0, 0, 0.00000000000000000000e+00) (0, 0, 0.00000000000000000000e+00) (0, 0, 0.00000000000000000000e+00) (0, 0, 0.00000000000000000000e+00) (0, 0, 0.00000000000000000000e+00) (0, 0, 0.00000000000000000000e+00) (0, 0, 0.00000000000000000000e+00) (0, 0, 0.00000000000000000000e+00) (0, 0, 0.00000000000000000000e+00) (0, 0, 0.00000000000000000000e+00) (0, 0, 0.00000000000000000000e+00) (0, 0, 0.00000000000000000000e+00) (0, 0, 0.00000000000000000000e+00) (0, 0, 0.00000000000000000000e+00) (0, 0, 0.00000000000000000000e+00) (0, 0, 0.00000000000000000000e+00) (0, 0, 0.00000000000000000000e+00) (0, 0, 0.00000000000000000000e+00) (0, 0, 0.00000000000000000000e+00) (0, 0, 0.00000000000000000000e+00) (0, 0, 0.00000000000000000000e+00) (0, 0, 0.00000000000000000000e+00) (0, 0, 0.00000000000000000000e+00) (0, 0, 0.00000000000000000000e+00) (0, 0, 0.00000000000000000000e+00) (0, 0, 0.00000000000000000000e+00) (0, 0, 0.00000000000000000000e+00) (0, 0, 0.00000000000000000000e+00) (0, 0, 0.00000000000000000000e+00) (0, 0, 0.00000000000000000000e+00) (0, 0, 0.00000000000000000000e+00) (0, 0, 0.00000000000000000000e+00) (0, 0, 0.00000000000000000000e+00) (0, 0, 0.00000000000000000000e+00) (0, 0, 0.00000000000000000000e+00) (0, 0, 0.00000000000000000000e+00) (0, 0, 0.00000000000000000000e+00) (0, 0, 0.00000000000000000000e+00) (0, 0, 0.00000000000000000000e+00) (0, 0, 0.00000000000000000000e+00) (0, 0, 0.00000000000000000000e+00) (0, 0, 0.00000000000000000000e+00) (0, 0, 0.00000000000000000000e+00) (0, 0, 0.00000000000000000000e+00) (0, 0, 0.00000000000000000000e+00) (0, 0, 0.00000000000000000000e+00) (0, 0, 0.00000000000000000000e+00) (0, 0, 0.00000000000000000000e+00) (0, 0, 0.00000000000000000000e+00) (0, 0, 0.00000000000000000000e+00) (0, 0, 0.00000000000000000000e+00) (0, 0, 0.00000000000000000000e+00) (0, 0, 0.00000000000000000000e+00) (0, 0, 0.00000000000000000000e+00) (0, 0, 0.00000000000000000000e+00) (0, 0, 0.00000000000000000000e+00) (0, 0, 0.00000000000000000000e+00) (0, 0, 0.00000000000000000000e+00) (0, 0, 0.00000000000000000000e+00) (0, 0, 0.00000000000000000000e+00) (0, 0, 0.00000000000000000000e+00) (0, 0, 0.00000000000000000000e+00) (0, 0, 0.00000000000000000000e+00) (0, 0, 0.00000000000000000000e+00) (0, 0, 0.00000000000000000000e+00) (0, 0, 0.00000000000000000000e+00) (0, 0, 0.00000000000000000000e+00) (0, 0, 0.00000000000000000000e+00) (0, 0, 0.00000000000000000000e+00) (0, 0, 0.00000000000000000000e+00) (0, 0, 0.00000000000000000000e+00) (0, 0, 0.00000000000000000000e+00) (0, 0, 0.00000000000000000000e+00) (0, 0, 0.00000000000000000000e+00) (0, 0, 0.00000000000000000000e+00) (0, 0, 0.00000000000000000000e+00) (0, 0, 0.00000000000000000000e+00) (0, 0, 0.00000000000000000000e+00) (0, 0, 0.00000000000000000000e+00) (0, 0, 0.00000000000000000000e+00) (0, 0, 0.00000000000000000000e+00) (0, 0, 0.00000000000000000000e+00) (0, 0, 0.00000000000000000000e+00) (0, 0, 0.00000000000000000000e+00) (0, 0, 0.00000000000000000000e+00) (0, 0, 0.00000000000000000000e+00) (0, 0, 0.00000000000000000000e+00) (0, 0, 0.00000000000000000000e+00) (0, 0, 0.00000000000000000000e+00) (0, 0, 0.00000000000000000000e+00) (0, 0, 0.00000000000000000000e+00) (0, 0, 0.00000000000000000000e+00) (0, 0, 0.00000000000000000000e+00) (0, 0, 0.00000000000000000000e+00) (0, 0, 0.00000000000000000000e+00) (0, 0, 0.00000000000000000000e+00) (0, 0, 0.00000000000000000000e+00) (0, 0, 0.00000000000000000000e+00) (0, 0, 0.00000000000000000000e+00) (0, 0, 0.00000000000000000000e+00) (0, 0, 0.00000000000000000000e+00) (0, 0, 0.00000000000000000000e+00) (0, 0, 0.00000000000000000000e+00) (0, 0, 0.00000000000000000000e+00) (0, 0, 0.00000000000000000000e+00) (0, 0, 0.00000000000000000000e+00) (0, 0, 0.00000000000000000000e+00) (0, 0, 0.00000000000000000000e+00) (0, 0, 0.00000000000000000000e+00) (0, 0, 0.00000000000000000000e+00) (0, 0, 0.00000000000000000000e+00) (0, 0, 0.00000000000000000000e+00) (0, 0, 0.00000000000000000000e+00) (0, 0, 0.00000000000000000000e+00) (0, 0, 0.00000000000000000000e+00) (0, 0, 0.00000000000000000000e+00) (0, 0, 0.00000000000000000000e+00) (0, 0, 0.00000000000000000000e+00) (0, 0, 0.00000000000000000000e+00) (0, 0, 0.00000000000000000000e+00) (0, 0, 0.00000000000000000000e+00) (0, 0, 0.00000000000000000000e+00) (0, 0, 0.00000000000000000000e+00) (0, 0, 0.00000000000000000000e+00) (0, 0, 0.00000000000000000000e+00) (0, 0, 0.00000000000000000000e+00) (0, 0, 0.00000000000000000000e+00) (0, 0, 0.00000000000000000000e+00) (0, 0, 0.00000000000000000000e+00) (0, 0, 0.00000000000000000000e+00) (0, 0, 0.00000000000000000000e+00) (0, 0, 0.00000000000000000000e+00) (0, 0, 0.00000000000000000000e+00) (0, 0, 0.00000000000000000000e+00) (0, 0, 0.00000000000000000000e+00) (0, 0, 0.00000000000000000000e+00) (0, 0, 0.00000000000000000000e+00) (0, 0, 0.00000000000000000000e+00) (0, 0, 0.00000000000000000000e+00) (0, 0, 0.00000000000000000000e+00) (0, 0, 0.00000000000000000000e+00) (0, 0, 0.00000000000000000000e+00) (0, 0, 0.00000000000000000000e+00) (0, 0, 0.00000000000000000000e+00) (0, 0, 0.00000000000000000000e+00) (0, 0, 0.00000000000000000000e+00) (0, 0, 0.00000000000000000000e+00) (0, 0, 0.00000000000000000000e+00) (0, 0, 0.00000000000000000000e+00) (0, 0, 0.00000000000000000000e+00) (0, 0, 0.00000000000000000000e+00) (0, 0, 0.00000000000000000000e+00) (0, 0, 0.00000000000000000000e+00) (0, 0, 0.00000000000000000000e+00) (0, 0, 0.00000000000000000000e+00) (0, 0, 0.00000000000000000000e+00) (0, 0, 0.00000000000000000000e+00) (0, 0, 0.00000000000000000000e+00) (0, 0, 0.00000000000000000000e+00) (0, 0, 0.00000000000000000000e+00) (0, 0, 0.00000000000000000000e+00) (0, 0, 0.00000000000000000000e+00) (0, 0, 0.00000000000000000000e+00) (0, 0, 0.00000000000000000000e+00) (0, 0, 0.00000000000000000000e+00) (0, 0, 0.00000000000000000000e+00) (0, 0, 0.00000000000000000000e+00) (0, 0, 0.00000000000000000000e+00) (0, 0, 0.00000000000000000000e+00) (0, 0, 0.00000000000000000000e+00) (0, 0, 0.00000000000000000000e+00) (0, 0, 0.00000000000000000000e+00) (0, 0, 0.00000000000000000000e+00) (0, 0, 0.00000000000000000000e+00) (0, 0, 0.00000000000000000000e+00) (0, 0, 0.00000000000000000000e+00) (0, 0, 0.00000000000000000000e+00) (0, 0, 0.00000000000000000000e+00) (0, 0, 0.00000000000000000000e+00) (0, 0, 0.00000000000000000000e+00) (0, 0, 0.00000000000000000000e+00) (0, 0, 0.00000000000000000000e+00) (0, 0, 0.00000000000000000000e+00) (0, 0, 0.00000000000000000000e+00) (0, 0, 0.00000000000000000000e+00) (0, 0, 0.00000000000000000000e+00) (0, 0, 0.00000000000000000000e+00) (0, 0, 0.00000000000000000000e+00) (0, 0, 0.00000000000000000000e+00) (0, 0, 0.00000000000000000000e+00) (0, 0, 0.00000000000000000000e+00) (0, 0, 0.00000000000000000000e+00) (0, 0, 0.00000000000000000000e+00) (0, 0, 0.00000000000000000000e+00) (0, 0, 0.00000000000000000000e+00) (0, 0, 0.00000000000000000000e+00) (0, 0, 0.00000000000000000000e+00) (0, 0, 0.00000000000000000000e+00) (0, 0, 0.00000000000000000000e+00) (0, 0, 0.00000000000000000000e+00) (0, 0, 0.00000000000000000000e+00) (0, 0, 0.00000000000000000000e+00) (0, 0, 0.00000000000000000000e+00) (0, 0, 0.00000000000000000000e+00) (0, 0, 0.00000000000000000000e+00) (0, 0, 0.00000000000000000000e+00) (0, 0, 0.00000000000000000000e+00) (0, 0, 0.00000000000000000000e+00) (0, 0, 0.00000000000000000000e+00) (0, 0, 0.00000000000000000000e+00) (0, 0, 0.00000000000000000000e+00) (0, 0, 0.00000000000000000000e+00) (0, 0, 0.00000000000000000000e+00) (0, 0, 0.00000000000000000000e+00) (0, 0, 0.00000000000000000000e+00) (0, 0, 0.00000000000000000000e+00) (0, 0, 0.00000000000000000000e+00) (0, 0, 0.00000000000000000000e+00) (0, 0, 0.00000000000000000000e+00) (0, 0, 0.00000000000000000000e+00) (0, 0, 0.00000000000000000000e+00) (0, 0, 0.00000000000000000000e+00) (0, 0, 0.00000000000000000000e+00) (0, 0, 0.00000000000000000000e+00) (0, 0, 0.00000000000000000000e+00) (0, 0, 0.00000000000000000000e+00) (0, 0, 0.00000000000000000000e+00) (0, 0, 0.00000000000000000000e+00) (0, 0, 0.00000000000000000000e+00) (0, 0, 0.00000000000000000000e+00) (0, 0, 0.00000000000000000000e+00) (0, 0, 0.00000000000000000000e+00) (0, 0, 0.00000000000000000000e+00) (0, 0, 0.00000000000000000000e+00) (0, 0, 0.00000000000000000000e+00) (0, 0, 0.00000000000000000000e+00) (0, 0, 0.00000000000000000000e+00) (0, 0, 0.00000000000000000000e+00) (0, 0, 0.00000000000000000000e+00) (0, 0, 0.00000000000000000000e+00) (0, 0, 0.00000000000000000000e+00) (0, 0, 0.00000000000000000000e+00) (0, 0, 0.00000000000000000000e+00) (0, 0, 0.00000000000000000000e+00) (0, 0, 0.00000000000000000000e+00) (0, 0, 0.00000000000000000000e+00) (0, 0, 0.00000000000000000000e+00) (0, 0, 0.00000000000000000000e+00) (0, 0, 0.00000000000000000000e+00) (0, 0, 0.00000000000000000000e+00) (0, 0, 0.00000000000000000000e+00) (0, 0, 0.00000000000000000000e+00) (0, 0, 0.00000000000000000000e+00) (0, 0, 0.00000000000000000000e+00) (0, 0, 0.00000000000000000000e+00) (0, 0, 0.00000000000000000000e+00) (0, 0, 0.00000000000000000000e+00) (0, 0, 0.00000000000000000000e+00) (0, 0, 0.00000000000000000000e+00) (0, 0, 0.00000000000000000000e+00) (0, 0, 0.00000000000000000000e+00) (0, 0, 0.00000000000000000000e+00) (0, 0, 0.00000000000000000000e+00) (0, 0, 0.00000000000000000000e+00) (0, 0, 0.00000000000000000000e+00) (0, 0, 0.00000000000000000000e+00) (0, 0, 0.00000000000000000000e+00) (0, 0, 0.00000000000000000000e+00) (0, 0, 0.00000000000000000000e+00) (0, 0, 0.00000000000000000000e+00) (0, 0, 0.00000000000000000000e+00) (0, 0, 0.00000000000000000000e+00) (0, 0, 0.00000000000000000000e+00) (0, 0, 0.00000000000000000000e+00) (0, 0, 0.00000000000000000000e+00) (0, 0, 0.00000000000000000000e+00) (0, 0, 0.00000000000000000000e+00) (0, 0, 0.00000000000000000000e+00) (0, 0, 0.00000000000000000000e+00) (0, 0, 0.00000000000000000000e+00) (0, 0, 0.00000000000000000000e+00) (0, 0, 0.00000000000000000000e+00) (0, 0, 0.00000000000000000000e+00) (0, 0, 0.00000000000000000000e+00) (0, 0, 0.00000000000000000000e+00) (0, 0, 0.00000000000000000000e+00) (0, 0, 0.00000000000000000000e+00) (0, 0, 0.00000000000000000000e+00) (0, 0, 0.00000000000000000000e+00) (0, 0, 0.00000000000000000000e+00) (0, 0, 0.00000000000000000000e+00) (0, 0, 0.00000000000000000000e+00) (0, 0, 0.00000000000000000000e+00) (0, 0, 0.00000000000000000000e+00) (0, 0, 0.00000000000000000000e+00) (0, 0, 0.00000000000000000000e+00) (0, 0, 0.00000000000000000000e+00) (0, 0, 0.00000000000000000000e+00) (0, 0, 0.00000000000000000000e+00) (0, 0, 0.00000000000000000000e+00) (0, 0, 0.00000000000000000000e+00) (0, 0, 0.00000000000000000000e+00) (0, 0, 0.00000000000000000000e+00) (0, 0, 0.00000000000000000000e+00) (0, 0, 0.00000000000000000000e+00) (0, 0, 0.00000000000000000000e+00) (0, 0, 0.00000000000000000000e+00) (0, 0, 0.00000000000000000000e+00) (0, 0, 0.00000000000000000000e+00) (0, 0, 0.00000000000000000000e+00) (0, 0, 0.00000000000000000000e+00) (0, 0, 0.00000000000000000000e+00) (0, 0, 0.00000000000000000000e+00) (0, 0, 0.00000000000000000000e+00) (0, 0, 0.00000000000000000000e+00) (0, 0, 0.00000000000000000000e+00) (0, 0, 0.00000000000000000000e+00) (0, 0, 0.00000000000000000000e+00) (0, 0, 0.00000000000000000000e+00) (0, 0, 0.00000000000000000000e+00) (0, 0, 0.00000000000000000000e+00) (0, 0, 0.00000000000000000000e+00) (0, 0, 0.00000000000000000000e+00) (0, 0, 0.00000000000000000000e+00) (0, 0, 0.00000000000000000000e+00) (0, 0, 0.00000000000000000000e+00) (0, 0, 0.00000000000000000000e+00) (0, 0, 0.00000000000000000000e+00) (0, 0, 0.00000000000000000000e+00) (0, 0, 0.00000000000000000000e+00) (0, 0, 0.00000000000000000000e+00) (0, 0, 0.00000000000000000000e+00) (0, 0, 0.00000000000000000000e+00) (0, 0, 0.00000000000000000000e+00) (0, 0, 0.00000000000000000000e+00) (0, 0, 0.00000000000000000000e+00) (0, 0, 0.00000000000000000000e+00) (0, 0, 0.00000000000000000000e+00) (0, 0, 0.00000000000000000000e+00) (0, 0, 0.00000000000000000000e+00) (0, 0, 0.00000000000000000000e+00) (0, 0, 0.00000000000000000000e+00) (0, 0, 0.00000000000000000000e+00) (0, 0, 0.00000000000000000000e+00) (0, 0, 0.00000000000000000000e+00) (0, 0, 0.00000000000000000000e+00) (0, 0, 0.00000000000000000000e+00) (0, 0, 0.00000000000000000000e+00) (0, 0, 0.00000000000000000000e+00) (0, 0, 0.00000000000000000000e+00) (0, 0, 0.00000000000000000000e+00) (0, 0, 0.00000000000000000000e+00) (0, 0, 0.00000000000000000000e+00) (0, 0, 0.00000000000000000000e+00) (0, 0, 0.00000000000000000000e+00) (0, 0, 0.00000000000000000000e+00) (0, 0, 0.00000000000000000000e+00) (0, 0, 0.00000000000000000000e+00) (0, 0, 0.00000000000000000000e+00) (0, 0, 0.00000000000000000000e+00) (0, 0, 0.00000000000000000000e+00) (0, 0, 0.00000000000000000000e+00) (0, 0, 0.00000000000000000000e+00) (0, 0, 0.00000000000000000000e+00) (0, 0, 0.00000000000000000000e+00) (0, 0, 0.00000000000000000000e+00) (0, 0, 0.00000000000000000000e+00) (0, 0, 0.00000000000000000000e+00) (0, 0, 0.00000000000000000000e+00) (0, 0, 0.00000000000000000000e+00) (0, 0, 0.00000000000000000000e+00) (0, 0, 0.00000000000000000000e+00) (0, 0, 0.00000000000000000000e+00) (0, 0, 0.00000000000000000000e+00) (0, 0, 0.00000000000000000000e+00) (0, 0, 0.00000000000000000000e+00) (0, 0, 0.00000000000000000000e+00) (0, 0, 0.00000000000000000000e+00) (0, 0, 0.00000000000000000000e+00) (0, 0, 0.00000000000000000000e+00) (0, 0, 0.00000000000000000000e+00) (0, 0, 0.00000000000000000000e+00) (0, 0, 0.00000000000000000000e+00) (0, 0, 0.00000000000000000000e+00) (0, 0, 0.00000000000000000000e+00) (0, 0, 0.00000000000000000000e+00) (0, 0, 0.00000000000000000000e+00) (0, 0, 0.00000000000000000000e+00) (0, 0, 0.00000000000000000000e+00) (0, 0, 0.00000000000000000000e+00) (0, 0, 0.00000000000000000000e+00) (0, 0, 0.00000000000000000000e+00) (0, 0, 0.00000000000000000000e+00) (0, 0, 0.00000000000000000000e+00) (0, 0, 0.00000000000000000000e+00) (0, 0, 0.00000000000000000000e+00) (0, 0, 0.00000000000000000000e+00) (0, 0, 0.00000000000000000000e+00) (0, 0, 0.00000000000000000000e+00) (0, 0, 0.00000000000000000000e+00) (0, 0, 0.00000000000000000000e+00) (0, 0, 0.00000000000000000000e+00) (0, 0, 0.00000000000000000000e+00) (0, 0, 0.00000000000000000000e+00) (0, 0, 0.00000000000000000000e+00) (0, 0, 0.00000000000000000000e+00) (0, 0, 0.00000000000000000000e+00) (0, 0, 0.00000000000000000000e+00) (0, 0, 0.00000000000000000000e+00) (0, 0, 0.00000000000000000000e+00) (0, 0, 0.00000000000000000000e+00) (0, 0, 0.00000000000000000000e+00) (0, 0, 0.00000000000000000000e+00) (0, 0, 0.00000000000000000000e+00) (0, 0, 0.00000000000000000000e+00) (0, 0, 0.00000000000000000000e+00) (0, 0, 0.00000000000000000000e+00) (0, 0, 0.00000000000000000000e+00) (0, 0, 0.00000000000000000000e+00) (0, 0, 0.00000000000000000000e+00) (0, 0, 0.00000000000000000000e+00) (0, 0, 0.00000000000000000000e+00) (0, 0, 0.00000000000000000000e+00) (0, 0, 0.00000000000000000000e+00) (0, 0, 0.00000000000000000000e+00) (0, 0, 0.00000000000000000000e+00) (0, 0, 0.00000000000000000000e+00) (0, 0, 0.00000000000000000000e+00) (0, 0, 0.00000000000000000000e+00) (0, 0, 0.00000000000000000000e+00) (0, 0, 0.00000000000000000000e+00) (0, 0, 0.00000000000000000000e+00) (0, 0, 0.00000000000000000000e+00) (0, 0, 0.00000000000000000000e+00) (0, 0, 0.00000000000000000000e+00) (0, 0, 0.00000000000000000000e+00) (0, 0, 0.00000000000000000000e+00) (0, 0, 0.00000000000000000000e+00) (0, 0, 0.00000000000000000000e+00) (0, 0, 0.00000000000000000000e+00) (0, 0, 0.00000000000000000000e+00) (0, 0, 0.00000000000000000000e+00) (0, 0, 0.00000000000000000000e+00) (0, 0, 0.00000000000000000000e+00) (0, 0, 0.00000000000000000000e+00) (0, 0, 0.00000000000000000000e+00) (0, 0, 0.00000000000000000000e+00) (0, 0, 0.00000000000000000000e+00) (0, 0, 0.00000000000000000000e+00) (0, 0, 0.00000000000000000000e+00) (0, 0, 0.00000000000000000000e+00) (0, 0, 0.00000000000000000000e+00) (0, 0, 0.00000000000000000000e+00) (0, 0, 0.00000000000000000000e+00) (0, 0, 0.00000000000000000000e+00) (0, 0, 0.00000000000000000000e+00) (0, 0, 0.00000000000000000000e+00) (0, 0, 0.00000000000000000000e+00) (0, 0, 0.00000000000000000000e+00) (0, 0, 0.00000000000000000000e+00) (0, 0, 0.00000000000000000000e+00) (0, 0, 0.00000000000000000000e+00) (0, 0, 0.00000000000000000000e+00) (0, 0, 0.00000000000000000000e+00) (0, 0, 0.00000000000000000000e+00) (0, 0, 0.00000000000000000000e+00) (0, 0, 0.00000000000000000000e+00) (0, 0, 0.00000000000000000000e+00) (0, 0, 0.00000000000000000000e+00) (0, 0, 0.00000000000000000000e+00) (0, 0, 0.00000000000000000000e+00) (0, 0, 0.00000000000000000000e+00) (0, 0, 0.00000000000000000000e+00) (0, 0, 0.00000000000000000000e+00) (0, 0, 0.00000000000000000000e+00) (0, 0, 0.00000000000000000000e+00) (0, 0, 0.00000000000000000000e+00) (0, 0, 0.00000000000000000000e+00) (0, 0, 0.00000000000000000000e+00) (0, 0, 0.00000000000000000000e+00) (0, 0, 0.00000000000000000000e+00) (0, 0, 0.00000000000000000000e+00) (0, 0, 0.00000000000000000000e+00) (0, 0, 0.00000000000000000000e+00) (0, 0, 0.00000000000000000000e+00) (0, 0, 0.00000000000000000000e+00) (0, 0, 0.00000000000000000000e+00) (0, 0, 0.00000000000000000000e+00) (0, 0, 0.00000000000000000000e+00) (0, 0, 0.00000000000000000000e+00) (0, 0, 0.00000000000000000000e+00) (0, 0, 0.00000000000000000000e+00) (0, 0, 0.00000000000000000000e+00) (0, 0, 0.00000000000000000000e+00) (0, 0, 0.00000000000000000000e+00) (0, 0, 0.00000000000000000000e+00) (0, 0, 0.00000000000000000000e+00) (0, 0, 0.00000000000000000000e+00) (0, 0, 0.00000000000000000000e+00) (0, 0, 0.00000000000000000000e+00) (0, 0, 0.00000000000000000000e+00) (0, 0, 0.00000000000000000000e+00) (0, 0, 0.00000000000000000000e+00) (0, 0, 0.00000000000000000000e+00) (0, 0, 0.00000000000000000000e+00) (0, 0, 0.00000000000000000000e+00) (0, 0, 0.00000000000000000000e+00) (0, 0, 0.00000000000000000000e+00) (0, 0, 0.00000000000000000000e+00) (0, 0, 0.00000000000000000000e+00) (0, 0, 0.00000000000000000000e+00) (0, 0, 0.00000000000000000000e+00) (0, 0, 0.00000000000000000000e+00) (0, 0, 0.00000000000000000000e+00) (0, 0, 0.00000000000000000000e+00) (0, 0, 0.00000000000000000000e+00) (0, 0, 0.00000000000000000000e+00) (0, 0, 0.00000000000000000000e+00) (0, 0, 0.00000000000000000000e+00) (0, 0, 0.00000000000000000000e+00) (0, 0, 0.00000000000000000000e+00) (0, 0, 0.00000000000000000000e+00) (0, 0, 0.00000000000000000000e+00) (0, 0, 0.00000000000000000000e+00) (0, 0, 0.00000000000000000000e+00) (0, 0, 0.00000000000000000000e+00) (0, 0, 0.00000000000000000000e+00) (0, 0, 0.00000000000000000000e+00) (0, 0, 0.00000000000000000000e+00) (0, 0, 0.00000000000000000000e+00) (0, 0, 0.00000000000000000000e+00) (0, 0, 0.00000000000000000000e+00) (0, 0, 0.00000000000000000000e+00) (0, 0, 0.00000000000000000000e+00) (0, 0, 0.00000000000000000000e+00) (0, 0, 0.00000000000000000000e+00) (0, 0, 0.00000000000000000000e+00) (0, 0, 0.00000000000000000000e+00) (0, 0, 0.00000000000000000000e+00) (0, 0, 0.00000000000000000000e+00) (0, 0, 0.00000000000000000000e+00) (0, 0, 0.00000000000000000000e+00) (0, 0, 0.00000000000000000000e+00) (0, 0, 0.00000000000000000000e+00) (0, 0, 0.00000000000000000000e+00) (0, 0, 0.00000000000000000000e+00) (0, 0, 0.00000000000000000000e+00) (0, 0, 0.00000000000000000000e+00) (0, 0, 0.00000000000000000000e+00) (0, 0, 0.00000000000000000000e+00) (0, 0, 0.00000000000000000000e+00) (0, 0, 0.00000000000000000000e+00) (0, 0, 0.00000000000000000000e+00) (0, 0, 0.00000000000000000000e+00) (0, 0, 0.00000000000000000000e+00) (0, 0, 0.00000000000000000000e+00) (0, 0, 0.00000000000000000000e+00) (0, 0, 0.00000000000000000000e+00) (0, 0, 0.00000000000000000000e+00) (0, 0, 0.00000000000000000000e+00) (0, 0, 0.00000000000000000000e+00) (0, 0, 0.00000000000000000000e+00) (0, 0, 0.00000000000000000000e+00) (0, 0, 0.00000000000000000000e+00) (0, 0, 0.00000000000000000000e+00) (0, 0, 0.00000000000000000000e+00) (0, 0, 0.00000000000000000000e+00) (0, 0, 0.00000000000000000000e+00) (0, 0, 0.00000000000000000000e+00) (0, 0, 0.00000000000000000000e+00) (0, 0, 0.00000000000000000000e+00) (0, 0, 0.00000000000000000000e+00) (0, 0, 0.00000000000000000000e+00) (0, 0, 0.00000000000000000000e+00) (0, 0, 0.00000000000000000000e+00) (0, 0, 0.00000000000000000000e+00) (0, 0, 0.00000000000000000000e+00) (0, 0, 0.00000000000000000000e+00) (0, 0, 0.00000000000000000000e+00) (0, 0, 0.00000000000000000000e+00) (0, 0, 0.00000000000000000000e+00) (0, 0, 0.00000000000000000000e+00) (0, 0, 0.00000000000000000000e+00) (0, 0, 0.00000000000000000000e+00) (0, 0, 0.00000000000000000000e+00) (0, 0, 0.00000000000000000000e+00) (0, 0, 0.00000000000000000000e+00) (0, 0, 0.00000000000000000000e+00) (0, 0, 0.00000000000000000000e+00) (0, 0, 0.00000000000000000000e+00) (0, 0, 0.00000000000000000000e+00) (0, 0, 0.00000000000000000000e+00) (0, 0, 0.00000000000000000000e+00) (0, 0, 0.00000000000000000000e+00) (0, 0, 0.00000000000000000000e+00) (0, 0, 0.00000000000000000000e+00) (0, 0, 0.00000000000000000000e+00) (0, 0, 0.00000000000000000000e+00) (0, 0, 0.00000000000000000000e+00) (0, 0, 0.00000000000000000000e+00) (0, 0, 0.00000000000000000000e+00) (0, 0, 0.00000000000000000000e+00) (0, 0, 0.00000000000000000000e+00) (0, 0, 0.00000000000000000000e+00) (0, 0, 0.00000000000000000000e+00) (0, 0, 0.00000000000000000000e+00) (0, 0, 0.00000000000000000000e+00) (0, 0, 0.00000000000000000000e+00) (0, 0, 0.00000000000000000000e+00) (0, 0, 0.00000000000000000000e+00) (0, 0, 0.00000000000000000000e+00) (0, 0, 0.00000000000000000000e+00) (0, 0, 0.00000000000000000000e+00) (0, 0, 0.00000000000000000000e+00) (0, 0, 0.00000000000000000000e+00) (0, 0, 0.00000000000000000000e+00) (0, 0, 0.00000000000000000000e+00) (0, 0, 0.00000000000000000000e+00) (0, 0, 0.00000000000000000000e+00) (0, 0, 0.00000000000000000000e+00) (0, 0, 0.00000000000000000000e+00) (0, 0, 0.00000000000000000000e+00) (0, 0, 0.00000000000000000000e+00) (0, 0, 0.00000000000000000000e+00) (0, 0, 0.00000000000000000000e+00) (0, 0, 0.00000000000000000000e+00) (0, 0, 0.00000000000000000000e+00) (0, 0, 0.00000000000000000000e+00) (0, 0, 0.00000000000000000000e+00) (0, 0, 0.00000000000000000000e+00) (0, 0, 0.00000000000000000000e+00) (0, 0, 0.00000000000000000000e+00) (0, 0, 0.00000000000000000000e+00) (0, 0, 0.00000000000000000000e+00) (0, 0, 0.00000000000000000000e+00) (0, 0, 0.00000000000000000000e+00) (0, 0, 0.00000000000000000000e+00) (0, 0, 0.00000000000000000000e+00) (0, 0, 0.00000000000000000000e+00) (0, 0, 0.00000000000000000000e+00) (0, 0, 0.00000000000000000000e+00) (0, 0, 0.00000000000000000000e+00) (0, 0, 0.00000000000000000000e+00) (0, 0, 0.00000000000000000000e+00) (0, 0, 0.00000000000000000000e+00) (0, 0, 0.00000000000000000000e+00) (0, 0, 0.00000000000000000000e+00) (0, 0, 0.00000000000000000000e+00) (0, 0, 0.00000000000000000000e+00) (0, 0, 0.00000000000000000000e+00) (0, 0, 0.00000000000000000000e+00) (0, 0, 0.00000000000000000000e+00) (0, 0, 0.00000000000000000000e+00) (0, 0, 0.00000000000000000000e+00) (0, 0, 0.00000000000000000000e+00) (0, 0, 0.00000000000000000000e+00) (0, 0, 0.00000000000000000000e+00) (0, 0, 0.00000000000000000000e+00) (0, 0, 0.00000000000000000000e+00) (0, 0, 0.00000000000000000000e+00) (0, 0, 0.00000000000000000000e+00) (0, 0, 0.00000000000000000000e+00) (0, 0, 0.00000000000000000000e+00) (0, 0, 0.00000000000000000000e+00) (0, 0, 0.00000000000000000000e+00) (0, 0, 0.00000000000000000000e+00) (0, 0, 0.00000000000000000000e+00) (0, 0, 0.00000000000000000000e+00) (0, 0, 0.00000000000000000000e+00) (0, 0, 0.00000000000000000000e+00) (0, 0, 0.00000000000000000000e+00) (0, 0, 0.00000000000000000000e+00) (0, 0, 0.00000000000000000000e+00) (0, 0, 0.00000000000000000000e+00) (0, 0, 0.00000000000000000000e+00) (0, 0, 0.00000000000000000000e+00) (0, 0, 0.00000000000000000000e+00) (0, 0, 0.00000000000000000000e+00) (0, 0, 0.00000000000000000000e+00) (0, 0, 0.00000000000000000000e+00) (0, 0, 0.00000000000000000000e+00) (0, 0, 0.00000000000000000000e+00) (0, 0, 0.00000000000000000000e+00) (0, 0, 0.00000000000000000000e+00) (0, 0, 0.00000000000000000000e+00) (0, 0, 0.00000000000000000000e+00) (0, 0, 0.00000000000000000000e+00) (0, 0, 0.00000000000000000000e+00) (0, 0, 0.00000000000000000000e+00) (0, 0, 0.00000000000000000000e+00) (0, 0, 0.00000000000000000000e+00) (0, 0, 0.00000000000000000000e+00) (0, 0, 0.00000000000000000000e+00) (0, 0, 0.00000000000000000000e+00) (0, 0, 0.00000000000000000000e+00) (0, 0, 0.00000000000000000000e+00) (0, 0, 0.00000000000000000000e+00) (0, 0, 0.00000000000000000000e+00) (0, 0, 0.00000000000000000000e+00) (0, 0, 0.00000000000000000000e+00) (0, 0, 0.00000000000000000000e+00) (0, 0, 0.00000000000000000000e+00) (0, 0, 0.00000000000000000000e+00) (0, 0, 0.00000000000000000000e+00) (0, 0, 0.00000000000000000000e+00) (0, 0, 0.00000000000000000000e+00) (0, 0, 0.00000000000000000000e+00) (0, 0, 0.00000000000000000000e+00) (0, 0, 0.00000000000000000000e+00) (0, 0, 0.00000000000000000000e+00) (0, 0, 0.00000000000000000000e+00) (0, 0, 0.00000000000000000000e+00) (0, 0, 0.00000000000000000000e+00) (0, 0, 0.00000000000000000000e+00) (0, 0, 0.00000000000000000000e+00) (0, 0, 0.00000000000000000000e+00) (0, 0, 0.00000000000000000000e+00) (0, 0, 0.00000000000000000000e+00) (0, 0, 0.00000000000000000000e+00) (0, 0, 0.00000000000000000000e+00) (0, 0, 0.00000000000000000000e+00) (0, 0, 0.00000000000000000000e+00) (0, 0, 0.00000000000000000000e+00) (0, 0, 0.00000000000000000000e+00) (0, 0, 0.00000000000000000000e+00) (0, 0, 0.00000000000000000000e+00) (0, 0, 0.00000000000000000000e+00) (0, 0, 0.00000000000000000000e+00) (0, 0, 0.00000000000000000000e+00) (0, 0, 0.00000000000000000000e+00) (0, 0, 0.00000000000000000000e+00) (0, 0, 0.00000000000000000000e+00) (0, 0, 0.00000000000000000000e+00) (0, 0, 0.00000000000000000000e+00) (0, 0, 0.00000000000000000000e+00) (0, 0, 0.00000000000000000000e+00) (0, 0, 0.00000000000000000000e+00) (0, 0, 0.00000000000000000000e+00) (0, 0, 0.00000000000000000000e+00) (0, 0, 0.00000000000000000000e+00) (0, 0, 0.00000000000000000000e+00) (0, 0, 0.00000000000000000000e+00) (0, 0, 0.00000000000000000000e+00) (0, 0, 0.00000000000000000000e+00) (0, 0, 0.00000000000000000000e+00) (0, 0, 0.00000000000000000000e+00) (0, 0, 0.00000000000000000000e+00) (0, 0, 0.00000000000000000000e+00) (0, 0, 0.00000000000000000000e+00) (0, 0, 0.00000000000000000000e+00) (0, 0, 0.00000000000000000000e+00) (0, 0, 0.00000000000000000000e+00) (0, 0, 0.00000000000000000000e+00) (0, 0, 0.00000000000000000000e+00) (0, 0, 0.00000000000000000000e+00) (0, 0, 0.00000000000000000000e+00) (0, 0, 0.00000000000000000000e+00) (0, 0, 0.00000000000000000000e+00) (0, 0, 0.00000000000000000000e+00) (0, 0, 0.00000000000000000000e+00) (0, 0, 0.00000000000000000000e+00) (0, 0, 0.00000000000000000000e+00) (0, 0, 0.00000000000000000000e+00) (0, 0, 0.00000000000000000000e+00) (0, 0, 0.00000000000000000000e+00) (0, 0, 0.00000000000000000000e+00) (0, 0, 0.00000000000000000000e+00) (0, 0, 0.00000000000000000000e+00) (0, 0, 0.00000000000000000000e+00) (0, 0, 0.00000000000000000000e+00) (0, 0, 0.00000000000000000000e+00) (0, 0, 0.00000000000000000000e+00) (0, 0, 0.00000000000000000000e+00) (0, 0, 0.00000000000000000000e+00) (0, 0, 0.00000000000000000000e+00) (0, 0, 0.00000000000000000000e+00) (0, 0, 0.00000000000000000000e+00) (0, 0, 0.00000000000000000000e+00) (0, 0, 0.00000000000000000000e+00) (0, 0, 0.00000000000000000000e+00) (0, 0, 0.00000000000000000000e+00) (0, 0, 0.00000000000000000000e+00) (0, 0, 0.00000000000000000000e+00) (0, 0, 0.00000000000000000000e+00) (0, 0, 0.00000000000000000000e+00) (0, 0, 0.00000000000000000000e+00) (0, 0, 0.00000000000000000000e+00) (0, 0, 0.00000000000000000000e+00) (0, 0, 0.00000000000000000000e+00) (0, 0, 0.00000000000000000000e+00) (0, 0, 0.00000000000000000000e+00) (0, 0, 0.00000000000000000000e+00) (0, 0, 0.00000000000000000000e+00) (0, 0, 0.00000000000000000000e+00) (0, 0, 0.00000000000000000000e+00) (0, 0, 0.00000000000000000000e+00) (0, 0, 0.00000000000000000000e+00) (0, 0, 0.00000000000000000000e+00) (0, 0, 0.00000000000000000000e+00) (0, 0, 0.00000000000000000000e+00) (0, 0, 0.00000000000000000000e+00) (0, 0, 0.00000000000000000000e+00) (0, 0, 0.00000000000000000000e+00) (0, 0, 0.00000000000000000000e+00) (0, 0, 0.00000000000000000000e+00) (0, 0, 0.00000000000000000000e+00) (0, 0, 0.00000000000000000000e+00) (0, 0, 0.00000000000000000000e+00) (0, 0, 0.00000000000000000000e+00) (0, 0, 0.00000000000000000000e+00) (0, 0, 0.00000000000000000000e+00) (0, 0, 0.00000000000000000000e+00) (0, 0, 0.00000000000000000000e+00) (0, 0, 0.00000000000000000000e+00) (0, 0, 0.00000000000000000000e+00) (0, 0, 0.00000000000000000000e+00) (0, 0, 0.00000000000000000000e+00) (0, 0, 0.00000000000000000000e+00) (0, 0, 0.00000000000000000000e+00) (0, 0, 0.00000000000000000000e+00) (0, 0, 0.00000000000000000000e+00) (0, 0, 0.00000000000000000000e+00) (0, 0, 0.00000000000000000000e+00) (0, 0, 0.00000000000000000000e+00) (0, 0, 0.00000000000000000000e+00) (0, 0, 0.00000000000000000000e+00) (0, 0, 0.00000000000000000000e+00) (0, 0, 0.00000000000000000000e+00) (0, 0, 0.00000000000000000000e+00) (0, 0, 0.00000000000000000000e+00) (0, 0, 0.00000000000000000000e+00) (0, 0, 0.00000000000000000000e+00) (0, 0, 0.00000000000000000000e+00) (0, 0, 0.00000000000000000000e+00) (0, 0, 0.00000000000000000000e+00) (0, 0, 0.00000000000000000000e+00) (0, 0, 0.00000000000000000000e+00) (0, 0, 0.00000000000000000000e+00) (0, 0, 0.00000000000000000000e+00) (0, 0, 0.00000000000000000000e+00) (0, 0, 0.00000000000000000000e+00) (0, 0, 0.00000000000000000000e+00) (0, 0, 0.00000000000000000000e+00) (0, 0, 0.00000000000000000000e+00) (0, 0, 0.00000000000000000000e+00) (0, 0, 0.00000000000000000000e+00) (0, 0, 0.00000000000000000000e+00) (0, 0, 0.00000000000000000000e+00) (0, 0, 0.00000000000000000000e+00) (0, 0, 0.00000000000000000000e+00) (0, 0, 0.00000000000000000000e+00) (0, 0, 0.00000000000000000000e+00) (0, 0, 0.00000000000000000000e+00) (0, 0, 0.00000000000000000000e+00) (0, 0, 0.00000000000000000000e+00) (0, 0, 0.00000000000000000000e+00) (0, 0, 0.00000000000000000000e+00) (0, 0, 0.00000000000000000000e+00) (0, 0, 0.00000000000000000000e+00) (0, 0, 0.00000000000000000000e+00) (0, 0, 0.00000000000000000000e+00) (0, 0, 0.00000000000000000000e+00) (0, 0, 0.00000000000000000000e+00) (0, 0, 0.00000000000000000000e+00) (0, 0, 0.00000000000000000000e+00) (0, 0, 0.00000000000000000000e+00) (0, 0, 0.00000000000000000000e+00) (0, 0, 0.00000000000000000000e+00) (0, 0, 0.00000000000000000000e+00) (0, 0, 0.00000000000000000000e+00) (0, 0, 0.00000000000000000000e+00) (0, 0, 0.00000000000000000000e+00) (0, 0, 0.00000000000000000000e+00) (0, 0, 0.00000000000000000000e+00) (0, 0, 0.00000000000000000000e+00) (0, 0, 0.00000000000000000000e+00) (0, 0, 0.00000000000000000000e+00) (0, 0, 0.00000000000000000000e+00) (0, 0, 0.00000000000000000000e+00) (0, 0, 0.00000000000000000000e+00) (0, 0, 0.00000000000000000000e+00) (0, 0, 0.00000000000000000000e+00) (0, 0, 0.00000000000000000000e+00) (0, 0, 0.00000000000000000000e+00) (0, 0, 0.00000000000000000000e+00) (0, 0, 0.00000000000000000000e+00) (0, 0, 0.00000000000000000000e+00) (0, 0, 0.00000000000000000000e+00) (0, 0, 0.00000000000000000000e+00) (0, 0, 0.00000000000000000000e+00) (0, 0, 0.00000000000000000000e+00) (0, 0, 0.00000000000000000000e+00) (0, 0, 0.00000000000000000000e+00) (0, 0, 0.00000000000000000000e+00) (0, 0, 0.00000000000000000000e+00) (0, 0, 0.00000000000000000000e+00) (0, 0, 0.00000000000000000000e+00) (0, 0, 0.00000000000000000000e+00) (0, 0, 0.00000000000000000000e+00) (0, 0, 0.00000000000000000000e+00) (0, 0, 0.00000000000000000000e+00) (0, 0, 0.00000000000000000000e+00) (0, 0, 0.00000000000000000000e+00) (0, 0, 0.00000000000000000000e+00) (0, 0, 0.00000000000000000000e+00) (0, 0, 0.00000000000000000000e+00) (0, 0, 0.00000000000000000000e+00) (0, 0, 0.00000000000000000000e+00) (0, 0, 0.00000000000000000000e+00) (0, 0, 0.00000000000000000000e+00) (0, 0, 0.00000000000000000000e+00) (0, 0, 0.00000000000000000000e+00) (0, 0, 0.00000000000000000000e+00) (0, 0, 0.00000000000000000000e+00) (0, 0, 0.00000000000000000000e+00) (0, 0, 0.00000000000000000000e+00) (0, 0, 0.00000000000000000000e+00) (0, 0, 0.00000000000000000000e+00) (0, 0, 0.00000000000000000000e+00) (0, 0, 0.00000000000000000000e+00) (0, 0, 0.00000000000000000000e+00) (0, 0, 0.00000000000000000000e+00) (0, 0, 0.00000000000000000000e+00) (0, 0, 0.00000000000000000000e+00) (0, 0, 0.00000000000000000000e+00) (0, 0, 0.00000000000000000000e+00) (0, 0, 0.00000000000000000000e+00) (0, 0, 0.00000000000000000000e+00) (0, 0, 0.00000000000000000000e+00) (0, 0, 0.00000000000000000000e+00) (0, 0, 0.00000000000000000000e+00) (0, 0, 0.00000000000000000000e+00) (0, 0, 0.00000000000000000000e+00) (0, 0, 0.00000000000000000000e+00) (0, 0, 0.00000000000000000000e+00) (0, 0, 0.00000000000000000000e+00) (0, 0, 0.00000000000000000000e+00) (0, 0, 0.00000000000000000000e+00) (0, 0, 0.00000000000000000000e+00) (0, 0, 0.00000000000000000000e+00) (0, 0, 0.00000000000000000000e+00) (0, 0, 0.00000000000000000000e+00) (0, 0, 0.00000000000000000000e+00) (0, 0, 0.00000000000000000000e+00) (0, 0, 0.00000000000000000000e+00) (0, 0, 0.00000000000000000000e+00) (0, 0, 0.00000000000000000000e+00) (0, 0, 0.00000000000000000000e+00) (0, 0, 0.00000000000000000000e+00) (0, 0, 0.00000000000000000000e+00) (0, 0, 0.00000000000000000000e+00) (0, 0, 0.00000000000000000000e+00) (0, 0, 0.00000000000000000000e+00) (0, 0, 0.00000000000000000000e+00) (0, 0, 0.00000000000000000000e+00) (0, 0, 0.00000000000000000000e+00) (0, 0, 0.00000000000000000000e+00) (1069, 3, 5.00000000000000000000e-01) (1069, 3, 5.00000000000000000000e-01) (1069, 3, 5.00000000000000000000e-01) (1069, 3, 5.00000000000000000000e-01) (1069, 3, 5.00000000000000000000e-01) (1069, 3, 5.00000000000000000000e-01) (1069, 3, 5.00000000000000000000e-01) (1069, 3, 5.00000000000000000000e-01) (1069, 3, 5.00000000000000000000e-01) (1069, 3, 5.00000000000000000000e-01) (1069, 3, 5.00000000000000000000e-01) (1069, 3, 5.00000000000000000000e-01) (1069, 3, 5.00000000000000000000e-01) (1069, 3, 5.00000000000000000000e-01) (1069, 3, 5.00000000000000000000e-01) (1069, 3, 5.00000000000000000000e-01) (1069, 3, 5.00000000000000000000e-01) (1069, 3, 5.00000000000000000000e-01) (1069, 3, 5.00000000000000000000e-01) (1069, 3, 5.00000000000000000000e-01) (1069, 3, 5.00000000000000000000e-01) (1069, 3, 5.00000000000000000000e-01) (1069, 3, 5.00000000000000000000e-01) (1069, 3, 5.00000000000000000000e-01) (1069, 3, 5.00000000000000000000e-01) (1069, 3, 5.00000000000000000000e-01) (1069, 3, 5.00000000000000000000e-01) (1069, 3, 5.00000000000000000000e-01) (1069, 3, 5.00000000000000000000e-01) (1069, 3, 5.00000000000000000000e-01) (1069, 3, 5.00000000000000000000e-01) (1069, 3, 5.00000000000000000000e-01) (1069, 3, 5.00000000000000000000e-01) (1069, 3, 5.00000000000000000000e-01) (1069, 3, 5.00000000000000000000e-01) (1069, 3, 5.00000000000000000000e-01) (1069, 3, 5.00000000000000000000e-01) (1069, 3, 5.00000000000000000000e-01) (1069, 3, 5.00000000000000000000e-01) (1069, 3, 5.00000000000000000000e-01) (1069, 3, 5.00000000000000000000e-01) (1069, 3, 5.00000000000000000000e-01) (1069, 3, 5.00000000000000000000e-01) (1069, 3, 5.00000000000000000000e-01) (1069, 3, 5.00000000000000000000e-01) (1069, 3, 5.00000000000000000000e-01) (1069, 3, 5.00000000000000000000e-01) (1069, 3, 5.00000000000000000000e-01) (1069, 3, 5.00000000000000000000e-01) (1069, 3, 5.00000000000000000000e-01) (0, 3, 0.00000000000000000000e+00) (51, 3, 5.00000000000000000000e-01) (51, 3, 5.00000000000000000000e-01) (0, 3, 0.00000000000000000000e+00) 
connections (connected_to_neuron, weight)=(0, 9.02279583436027265986e-02) (1, -1.80425705085323906385e-01) (2, 5.12151747657385511547e-02) (3, 1.85676022696177694948e-01) (4, 7.22654104233328847817e-02) (5, -9.37114302127427523104e-02) (6, 2.80611244377283117202e-02) (7, 1.41804957852995655587e-01) (8, -8.99131229830445743989e-02) (9, -6.38156446442800506791e-02) (10, -1.53982665786510097838e-01) (11, 2.16066110211937979779e-02) (12, 1.29330332915705448205e-01) (13, 4.06076466936853633372e-02) (14, 1.56657677872270861830e-01) (15, -3.06683440647459309991e-02) (16, -6.16469223353723668607e-03) (17, -2.60146075890010063103e-02) (18, -8.19294885985444136522e-03) (19, 1.91116923776380648325e-01) (20, 5.58810310317311292883e-02) (21, 8.13343230161959890312e-02) (22, 1.02729614719816231272e+00) (23, 2.71621930343412865128e-01) (24, 2.89171312606301911252e-01) (25, 5.07138063608649561353e-02) (26, 1.03907312843858345985e-01) (27, 1.68430431854598050556e-01) (28, 3.10458872991276224607e-01) (29, 3.00476488018662918345e-02) (30, 1.84134801647319518159e-01) (31, 4.23979644243544562254e-01) (32, 4.91613772407579974200e-01) (33, -6.38571135424433056205e-02) (34, -1.41591219585203098585e-01) (35, 1.16274531146352139155e-01) (36, 1.25468022892639863297e-01) (37, -2.02605731913049452730e-01) (38, 4.98883809497887367734e-02) (39, -1.72599634914381960815e-01) (40, 1.03389776994649101871e-01) (41, -1.61335040752980690693e-01) (42, -2.85594137827378351246e-02) (43, -1.19727989966870812522e-01) (44, -4.53893710065903926987e-02) (45, 1.02744872516121785178e-01) (46, -2.37531436599608541949e-02) (47, 5.45341812106603165966e-02) (48, 1.10401515429675828317e-01) (49, 2.63059986180566751646e-01) (50, -1.52948292544620376154e-02) (51, -3.07896038780118785905e-01) (52, 5.98112408315512739110e-02) (53, 1.46797286976160484828e-01) (54, -1.15753381700303054069e-01) (55, 4.24520579209973492052e-02) (56, -2.68443632338319117248e-02) (57, -2.41921497502982807415e-01) (58, -4.86128150383906068588e-02) (59, -3.05698752365575476819e-01) (60, 3.00003557137388174314e-02) (61, -1.01498192838266498850e-01) (62, -2.58306789562427308038e-01) (63, 1.68594767879908999375e-02) (64, 4.28304025725940937241e-02) (65, 6.61833282865257888083e-02) (66, 1.83911203867211492380e-01) (67, -1.64749615438141011614e-01) (68, -1.86735388457110296212e-01) (69, 1.42078499458953531887e-02) (70, -1.59819203886259447733e-01) (71, 1.12162002435378896359e-01) (72, 4.76987827168097594521e-02) (73, -1.53001897640827222435e-01) (74, 2.82438860279923376062e-01) (75, 2.07999804620019768109e-01) (76, 6.36246220772282520400e-03) (77, -3.18791274835082516503e-01) (78, 1.30567935312665167613e-01) (79, 5.23139471040168745064e-03) (80, 1.55476443680237969014e-01) (81, -2.29539287285158766228e-01) (82, 2.86554818344287587362e-02) (83, -9.81382168662928294767e-02) (84, 2.95105758307273258190e-01) (85, -9.64128257677840947229e-04) (86, 1.21534204340892224017e-01) (87, 1.47478828734459249672e-01) (88, 1.34855773517558508168e-01) (89, 1.83688820422106102725e-01) (90, -3.74490635778189084881e-01) (91, -1.74496333128938002632e-01) (92, 7.28724244463427733853e-02) (93, -2.61192220087259452388e-01) (94, 5.37187646863495557592e-02) (95, -9.48557767095054016337e-02) (96, -1.41387681969274731086e-01) (97, -1.85523872126673816663e-01) (98, -1.82517680670019714906e-02) (99, -2.24816418545204455004e-01) (100, -7.00999154010540637127e-02) (101, -3.16525864782070953662e-02) (102, -1.76121115225512631097e-01) (103, -5.62969448502670475470e-03) (104, -2.04619378939612933666e-02) (105, 1.18541680226671913845e-01) (106, 6.59620717673261164338e-02) (107, -3.23417288673783220876e-02) (108, 5.00024588358401397836e-02) (109, 1.09822078907034617612e-01) (110, -2.39883186530069035525e-02) (111, -4.97254165053578056632e-02) (112, 9.37414256931004274964e-02) (113, -1.48036150486643314217e-01) (114, -8.20893345275786612270e-02) (115, -2.47438483688179056141e-01) (116, -1.88758205479474333588e-01) (117, -1.18534255733475979433e-01) (118, -1.14607341994435674160e-01) (119, -2.88259823720202978947e-01) (120, -1.56918851714870938308e-01) (121, -1.22701432430524795536e-01) (122, 1.17579250779934751936e-01) (123, 6.55724786528949221687e-02) (124, -2.48567079702016413556e-01) (125, 1.74408817058130716227e-01) (126, 4.08701567900322970672e-01) (127, 1.28585197473512612837e-02) (128, -2.37703086528839896419e-01) (129, 3.62659239699809343715e-02) (130, 1.96547902739247132287e-01) (131, 1.12952429677735000091e-01) (132, 1.07975794699773211538e-01) (133, 6.92926504413409610761e-02) (134, -1.08239438687765671121e-02) (135, 7.48624649729435626133e-02) (136, 9.16865576470487914085e-02) (137, -3.05440633812727624363e-01) (138, 9.94061981855674653419e-02) (139, -3.23926529788232608897e-01) (140, -2.60505597844712666333e-02) (141, 1.15058545349321209028e-01) (142, -8.39243502029442811629e-02) (143, 8.56089789769933773300e-02) (144, -7.70900709986960530617e-02) (145, -2.08823372343419078057e-02) (146, 1.26517813096950287877e-01) (147, -7.57497838614141910663e-02) (148, 2.63413509874265740207e-02) (149, 4.05632959721832289657e-02) (150, 6.06764860821942392244e-02) (151, -1.27443808503994102099e-02) (152, 1.59717954157183351926e-02) (153, -4.23587145548053184418e-02) (154, -2.12602658330610051404e-03) (155, -4.45722568284710306957e-03) (156, -1.18420236429374360621e-02) (157, -1.21901687359623811524e-01) (158, 1.44638825486713251678e-01) (159, -1.70247054651535723035e-01) (160, -3.44316845967844065157e-01) (161, 2.29102141358194649756e-02) (162, 1.70110234009553079604e-01) (163, 2.09244579762118604327e-01) (164, 9.07709234857165397914e-02) (165, 1.40150554663685950052e-01) (166, 9.02494903282354682394e-02) (167, -2.43157639372781869680e-01) (168, -9.65044325435156363779e-02) (169, 1.68115006300247699089e-01) (170, -4.85685745018017214769e-02) (171, -1.69825219654028747307e-01) (172, 1.93051418539284258546e-01) (173, 4.81865355790610308540e-02) (174, -1.26452869132291853549e-02) (175, -1.64917182506970100286e-01) (176, 1.29215647609432854326e-01) (177, -4.29137487777326437355e-02) (178, 1.96706466193802553821e-01) (179, -2.68919810233963219037e-02) (180, -2.76558940314842682806e-01) (181, -1.20084312364427320263e-01) (182, 3.91543886542829733255e-02) (183, 1.52747450420632896462e-01) (184, -1.40522004175485087235e-02) (185, 2.38400999347806244466e-02) (186, 1.60817869843896454896e-01) (187, -5.86673939160325466635e-02) (188, 5.75895882511433809814e-02) (189, 8.99563155888859489195e-02) (190, 9.64538248974686901471e-02) (191, -2.49297494111258132604e-03) (192, 6.81510579359684287581e-02) (193, 1.85634739678859697620e-02) (194, -3.32430536685256808327e-02) (195, -4.63214168238057888427e-01) (196, 1.81062672735676943869e-01) (197, -1.91109888010529971325e-01) (198, 9.12357828739887716241e-02) (199, 2.69525442156467842647e-01) (200, -1.92336356893185421446e-02) (201, -3.87835891164767659900e-02) (202, 1.01184435536670253031e-01) (203, -5.42147971329785729327e-03) (204, 3.54643270777705785224e-02) (205, 2.58500303005962314695e-02) (206, 1.28551606520638961317e-01) (207, 1.07868115422451102403e-01) (208, -1.51463707023931554163e-01) (209, -2.00680449129687549226e-01) (210, 4.63774936786442923409e-02) (211, -1.69948914240485665639e-01) (212, 1.12855333732626086918e-01) (213, 8.60034900011519137797e-02) (214, -4.50280396723635623069e-01) (215, 1.58197954515713140600e-01) (216, 1.72601335445272119351e-01) (217, -1.23833735016627435876e-01) (218, 1.16918967466805509559e-01) (219, 7.54072666973640975963e-02) (220, -2.49391584578960712193e-02) (221, 6.27707335580562353350e-02) (222, 4.86479115962764815939e-02) (223, 1.18152530573152420024e-01) (224, 7.71645123308866975886e-02) (225, 1.67986448645176617012e-01) (226, 7.45509391984440494827e-02) (227, -9.45379152908073921990e-02) (228, -5.45576560821444539462e-02) (229, -4.19912642835754967852e-02) (230, -1.73224344089966314497e-01) (231, -2.00526775681735491830e-01) (232, 1.75173921189728548642e-01) (233, 4.11791504803445205379e-03) (234, -3.95438984734909293461e-01) (235, 7.15161996268871835714e-02) (236, 3.18814398712473634490e-01) (237, -5.25097564082523463047e-02) (238, 7.41706677327248903309e-02) (239, 2.49563265192409927673e-01) (240, 5.36897454645208355162e-02) (241, 2.81555168187792359547e-01) (242, -1.47735491513626943094e-01) (243, -3.33305553492121223180e-02) (244, -1.56356667744655036811e-01) (245, -1.42035622514335713173e-01) (246, 1.82785543852598070247e-01) (247, -3.13040680019402661749e-01) (248, -6.42199366603113941387e-02) (249, 9.92435631331122641852e-03) (250, -8.14376142631449001508e-02) (251, -2.31670466216859660680e-01) (252, -1.70174499681764734849e-01) (253, 8.10641958086938813066e-02) (254, -4.39045567239674916493e-01) (255, -1.43409990495141359546e-01) (256, 6.90062604329581996687e-01) (257, -5.61801462790204320097e-02) (258, 3.56385576365086775841e-01) (259, 7.86037533863307880111e-01) (260, 3.26078545712970346848e-01) (261, 7.80240433589317605723e-02) (262, 1.76615157579933262921e-01) (263, 2.68504833441999379851e-01) (264, 1.92198443089245746274e-01) (265, 1.45587789813623941226e-01) (266, 1.27752611437335489297e-01) (267, 1.62800874113444210556e-01) (268, -3.59441483307233911049e-01) (269, -3.81851674170523014418e-01) (270, -1.34705154172985730465e-01) (271, -3.75823320247372083536e-01) (272, 1.34075540090093758838e-01) (273, 2.93333196041381874530e-02) (274, -9.27584945117522069458e-02) (275, -1.49634409272732638030e-01) (276, -1.01275684491569359369e-01) (277, 7.76649512808377656681e-02) (278, -3.66381329375067635312e-02) (279, 1.70885646129541685090e-01) (280, 1.23855650449435084060e-01) (281, -1.68171190764053631039e-02) (282, -4.87528639694563975526e-02) (283, 4.44151187707481909239e-02) (284, 1.71006864646368411664e-01) (285, -7.52429856945440594940e-02) (286, 1.54162075863348457805e-01) (287, 3.13071434788513708325e-02) (288, -2.36221981097368728675e-02) (289, 9.25600184508690165819e-02) (290, -1.68093438244101028856e-01) (291, -2.49455724798048394941e-01) (292, 8.89332361116190739381e-02) (293, -5.84563770925271078416e-02) (294, -3.47885834567849883125e-01) (295, 8.99288281685043794367e-02) (296, 8.02685131419599295910e-02) (297, -6.55590455716343750714e-02) (298, -3.10345407034204184837e-02) (299, -2.12372997318008849277e-02) (300, 5.95478387240511337908e-03) (301, 1.25636202562216442447e-01) (302, -1.14225347592441572875e-01) (303, -8.01668045909056242726e-02) (304, -3.31223748682309623859e-02) (305, 1.27994299500871155928e-01) (306, -5.90877537556124942525e-03) (307, 2.66079149897603811636e-02) (308, -2.74222260641230758393e-02) (309, -2.86784937205797826887e-02) (310, -2.21229989261791853972e-01) (311, -2.82799961671886368464e-01) (312, 7.46069395153586417679e-02) (313, 1.49667081961357306685e-01) (314, -1.75805739511814107523e-01) (315, -1.15638787624790073671e-01) (316, -2.24681887065847135307e-03) (317, 1.06994699369959297974e-01) (318, 1.32735634349294917556e-01) (319, 7.92327995370420978816e-02) (320, -2.25534925238075924236e-02) (321, 1.72757173764178068032e-01) (322, 1.22557140602168587740e-01) (323, 8.76211860071126891203e-02) (324, 2.89421601569440634094e-02) (325, 2.69858683315111341772e-02) (326, 2.03259892986577844765e-01) (327, -1.47251851898326652224e-01) (328, -2.07452456329767997989e-01) (329, -1.43039087157710714804e-01) (330, -1.47945681014399633285e-02) (331, -5.85235264130029783636e-02) (332, 2.06534243608384820989e-01) (333, 6.20401209711978415817e-02) (334, -2.27311723582429014989e-02) (335, 6.12930980061552471705e-02) (336, 1.40314402000804833159e-01) (337, 1.20035294498587130629e-01) (338, 1.46683337317794454391e-01) (339, 3.46680802597603865411e-01) (340, 2.89605524248919103669e-02) (341, 2.69568712491260520370e-01) (342, -1.64422485258115758100e-01) (343, 3.08003691819230596138e-01) (344, 4.48130970596369651582e-02) (345, -9.61282365591368676006e-02) (346, 1.06806515778861688126e-01) (347, -4.17791122454899896410e-02) (348, -3.87026150498586893334e-02) (349, -2.16373004444315661376e-02) (350, 4.78941234843113239350e-02) (351, -2.91243538285332892457e-01) (352, 5.60949403324611378663e-02) (353, 1.42292544050882957540e-01) (354, -3.55871608706577302605e-01) (355, 1.38229007982365398322e-01) (356, -1.16958167663312476159e-01) (357, -6.28136160186092001867e-02) (358, 1.40797436940894055146e-01) (359, -2.19987601661474907466e-02) (360, 2.55277928218143268513e-01) (361, -2.18303067173377871035e-02) (362, -8.37229801302408899177e-02) (363, -9.78630754306885480842e-02) (364, 9.70566180110354545518e-03) (365, -2.61228621486391643369e-01) (366, 8.72519756452268813174e-02) (367, -7.21126021940945854949e-02) (368, -8.15084463132864228685e-02) (369, -1.20896794136379881479e-01) (370, 5.56768166602228734008e-03) (371, 8.96529059835852494553e-03) (372, -9.19361823152566176587e-02) (373, 1.33833301039867791360e-01) (374, -3.38875973593053325672e-01) (375, 3.01306741915402485910e-02) (376, -5.78992791131409459404e-02) (377, -2.77317024583555393757e-01) (378, 9.38707138698467308258e-02) (379, -7.25565474148643918539e-02) (380, 2.02157129563076964907e-01) (381, 5.76810084853381227488e-02) (382, -1.23720826400561187408e-01) (383, -9.95720656205267284911e-02) (384, 1.84255146311762020572e-02) (385, -1.70754918080110590362e-01) (386, 5.63024670885414399435e-02) (387, -1.10355870110472084611e-01) (388, 1.69790942548166678971e-02) (389, 9.52942045394401804348e-02) (390, 2.79180597490367027325e-02) (391, -1.82995542458801258023e-01) (392, 1.05582355550235068575e-01) (393, -6.21125288868773078876e-02) (394, -4.64115683162368231063e-01) (395, -1.09023733666645597506e-02) (396, 1.11179019774384227337e-01) (397, -4.94291879773497422335e-01) (398, -1.57023756658743944385e-03) (399, -1.31091647854746085056e-02) (400, -6.88672296680807316527e-02) (401, 4.28138758856098644578e-02) (402, 7.61909053138083297574e-02) (403, 4.33308273376839803159e-02) (404, -1.94225277825959565491e-03) (405, -2.89598028933141571351e-01) (406, 6.96912048865498123806e-02) (407, 1.97050714150708468353e-02) (408, 1.02784879068031645422e-01) (409, -2.27023615696038655321e-01) (410, -2.10288485188799084691e-01) (411, -6.78190130618443048904e-02) (412, -4.54430687020027437861e-03) (413, 5.73965288080920191249e-02) (414, -1.83242921111396589451e-01) (415, 2.11415328037538485795e-01) (416, -7.62998112732773264844e-02) (417, -1.10565051210913339874e-01) (418, 1.14625719385981206244e-01) (419, 1.66130450152984748824e-01) (420, -3.85205108072709176414e-02) (421, 6.26567706418886538611e-02) (422, -2.87824187262593789161e-01) (423, -1.76078475264602268835e-01) (424, 8.54567891128031088821e-03) (425, -1.42813796163937190009e-01) (426, -3.53299638266732366279e-03) (427, 1.09657013252161830708e-01) (428, 2.56235244455469302061e-01) (429, 5.41797803052553386682e-02) (430, 1.63353115664911147098e-01) (431, -1.69051885717751787519e-01) (432, -9.72871031296283633738e-02) (433, 3.27849015810098509682e-01) (434, -2.04274131910683970359e-01) (435, -1.26362351139547371415e-02) (436, -9.12163298444964715239e-02) (437, -3.90162315373038248723e-01) (438, 1.23484605445389541978e-01) (439, -2.15596876296400563611e-01) (440, 1.31610897716080171849e-01) (441, -1.64526693172847626734e-01) (442, -7.79036001402554217909e-02) (443, 6.91114035449942182288e-02) (444, 1.20914273120203818318e-02) (445, -8.36666314249449594165e-02) (446, -1.95100112252272507585e-02) (447, -9.23412080470651860931e-03) (448, 7.03637226826471090524e-02) (449, 1.76099162777249906853e-01) (450, -1.96864705237631443246e-01) (451, -7.17524821414412400378e-02) (452, 2.19102682859266234550e-01) (453, 7.55836274690288856259e-02) (454, -1.95514055462086028259e-01) (455, -4.39825929045495750414e-02) (456, -1.50258436430459413335e-01) (457, -2.43818724131731029425e-01) (458, 6.46829825799060814662e-02) (459, -1.41540813304410373341e-01) (460, -4.13688073503472447667e-02) (461, -4.52198670732797194938e-02) (462, -2.24771396521357358367e-01) (463, -8.89114932131469526411e-02) (464, -1.64881022065363341822e-02) (465, -8.59802444553645905945e-02) (466, 2.16988557427786610265e-02) (467, -9.25414582753376624424e-02) (468, 5.83267111584757080855e-02) (469, 1.11862872303029298182e-01) (470, 2.55773442439648814040e-02) (471, -1.90384776208992662072e-01) (472, -1.53618765351685605119e-02) (473, 9.41939624194733371443e-02) (474, -3.22661644455934315534e-01) (475, 9.34357250564121777359e-02) (476, 6.24816524817606369635e-02) (477, -1.51656808230087786216e-01) (478, 1.28258607502672976330e-02) (479, -2.08599152577644442186e-01) (480, 1.04033898162411694854e-01) (481, -2.36187948193317925893e-01) (482, -8.16288413213495621379e-03) (483, -4.85633353133874470786e-02) (484, -6.26099195926329947504e-03) (485, -3.53087505872535026286e-02) (486, 8.49071453112368035310e-02) (487, -7.25317473604356749428e-02) (488, -4.56974152882201542503e-02) (489, 9.60526231152101367394e-02) (490, -2.91316418250264844159e-02) (491, -2.11824529020727597706e-01) (492, 2.02434083049018755107e-02) (493, 1.77199175072941583764e-01) (494, 1.09270794121994418990e-01) (495, 1.46976394203218729828e-01) (496, 5.43578209749404420159e-03) (497, 1.30547459688002881473e-01) (498, 1.01749903551527437484e-01) (499, 1.14299920552004982688e-01) (500, 5.84843735356462141040e-02) (501, 1.03809871036890835616e-01) (502, 2.75524256744466601587e-02) (503, 9.34625245403439414149e-02) (504, 1.52229845507858951859e-01) (505, 8.19880135354136146963e-02) (506, 1.00109011231422045940e-01) (507, 9.75258319007232254982e-02) (508, 1.82110331051021645532e-01) (509, 1.87870329505847970253e-02) (510, 1.63704289213004505754e-01) (511, 2.56547384792139218646e-02) (512, 9.16855357599130338375e-02) (513, 1.87558951990911465524e-01) (514, 8.36483908987364771503e-02) (515, 1.25313051494866489755e-01) (516, -3.79605379321278704752e-02) (517, 1.07749243272517378212e-02) (518, 1.24894694995822758132e-01) (519, 1.52793927132402768826e-02) (520, 1.44883408671475505392e-01) (521, 2.40340709323703417832e-02) (522, 2.06511591362446983444e-02) (523, 8.70459611686313500245e-02) (524, -1.91027313635296833172e-02) (525, 1.04770252012445774792e-01) (526, -1.77592136024551823514e-02) (527, 1.30031067633646392478e-02) (528, 1.07649593393183660994e-02) (529, -1.34029756162538076641e-02) (530, -2.51398391185010811055e-02) (531, -2.99242892596187394505e-02) (532, -1.84298742287427388953e-02) (533, 2.17405535993636586656e-02) (534, 3.06911276241054430114e-02) (535, -1.42451419988567334896e-01) (536, 1.11932924413064432967e-01) (537, -1.18008544714340843362e-01) (538, 3.16328136468440990203e-01) (539, -2.93179465645495629378e-01) (540, 2.12502960152529174476e-01) (541, -1.14709586663444815247e-01) (542, 1.14805043803608328168e-01) (543, -1.51090718730438805517e-01) (544, 1.26543253596724775134e-01) (545, -9.50066881363512416581e-02) (546, 2.35341201399266092276e-01) (547, -1.19231364645173920636e-01) (548, 1.92282210063797254218e-01) (549, -1.07588121038745994362e-02) (550, 1.06004013622918155657e-01) (551, -3.52733024392344746145e-02) (552, 2.07980771046218856912e-03) (553, 9.17891891703971063432e-02) (554, 3.42105908851941201837e-03) (555, 2.49815490826856383133e-02) (556, 7.95767673799821356750e-02) (557, 1.03969847133129858485e-01) (558, 1.27158155966372032886e-01) (559, 4.01072089424652361567e-02) (560, 1.20206289038548838621e-01) (561, 3.50066278515479278877e-02) (562, 1.05764506680446304654e-01) (563, -1.37933202678450234774e-02) (564, -4.62496653464145035528e-02) (565, 8.33248848271661568532e-02) (566, 1.51223515604845520216e-02) (567, 2.63311418229521775058e-02) (568, 1.64618058129204977713e-02) (569, -9.98065758642474459839e-02) (570, -3.00501495870204894667e-02) (571, 9.55963264340465024294e-02) (572, 7.77275369379757247179e-02) (573, -6.02646733220542490939e-02) (574, 1.00157603065839040379e-01) (575, 3.66575473669569287805e-02) (576, 1.40275983986410529569e-01) (577, -2.71656820488531229596e-02) (578, 2.92758413165233322140e-02) (579, -9.72644006628509000256e-02) (580, -8.08452195445838045496e-02) (581, 9.97538168865933078111e-02) (582, 1.42006672931189736886e-01) (583, -2.43760127364413400550e-03) (584, 7.57647583309887240333e-02) (585, -9.85697264060286099108e-02) (586, -1.64014094602782482812e-02) (587, 1.18774867159957914220e-01) (588, 1.13593049044362764954e-01) (589, 1.18272543553099768188e-01) (590, -9.19371344018026087630e-02) (591, 1.48230633715259879635e-01) (592, -1.24678594859626096225e-01) (593, 2.37307333285249333343e-01) (594, 1.20550933098474533089e-01) (595, 3.49663684496863760853e-02) (596, 1.42679091499569171697e-01) (597, -1.14017980040277855380e-01) (598, 1.18643095391053901566e-01) (599, -3.37880067166890438179e-02) (600, -3.76938239710838118857e-02) (601, 1.24322434613003920956e-01) (602, 1.23122829649222526038e-01) (603, 1.53826321797741402686e-02) (604, 3.65818168326514092659e-02) (605, -4.97993183441989006877e-02) (606, -6.19690689498118979506e-02) (607, 9.19732578181164106557e-02) (608, -1.00293688673066816452e-01) (609, 2.00727027314229894417e-01) (610, 1.19746501445480602044e-01) (611, -2.85747522801675472859e-02) (612, 1.38340963923753695886e-01) (613, 3.22649371200042084373e-02) (614, -2.09949409510364393139e-01) (615, 2.41077863994064361952e-01) (616, 1.22348434223691723832e-01) (617, -2.29189460361161778668e-01) (618, 2.69628846075426031881e-01) (619, 4.15663008384574341608e-03) (620, -2.09650924441397268350e-01) (621, 3.23976419965013362479e-01) (622, -1.09153457497538269871e-01) (623, -2.08065480687333631549e-01) (624, 2.17207348986085180265e-01) (625, 1.38561020910866999900e-01) (626, -2.74615026973127340781e-01) (627, 1.98072329975840122351e-01) (628, 2.71089007038490979393e-03) (629, -1.05882907291724989718e-01) (630, -2.52507453738567248791e-02) (631, 9.92276010845592748577e-02) (632, 1.66654717998253654176e-01) (633, -2.31556641703008006528e-02) (634, -2.27557577208292310944e-01) (635, 1.09892352742372551022e-01) (636, 5.57091586622995849076e-03) (637, 4.76483765572549219924e-03) (638, 3.78870414420599908173e-03) (639, -3.75656616416893823773e-02) (640, 2.22342041492232106448e-02) (641, -9.56876724677951234765e-02) (642, -4.42215941190209835265e-02) (643, 1.11702390897121917046e-01) (644, 3.92195252979858494102e-02) (645, 4.72752608108851571367e-02) (646, 1.92372082707254254963e-01) (647, -9.38805165399427682393e-02) (648, 1.00121165679585861358e-02) (649, 9.27884939305278905186e-02) (650, -3.24907033388324328893e-01) (651, 1.43663185272122712055e-01) (652, 2.93451589696132386642e-01) (653, -3.03102226721367773443e-01) (654, 9.05478581899177570325e-02) (655, 1.73825178656422940637e-01) (656, -4.16382988189604785756e-01) (657, 1.77627438069904053375e-01) (658, 3.59428684126810671362e-01) (659, -2.83025568743764610602e-01) (660, 4.25413594117098683989e-02) (661, 1.56916870221000759322e-01) (662, -1.01706824382751248592e-01) (663, 6.40032900803770427034e-02) (664, 1.80796536985819683574e-01) (665, -1.59427728669399138006e-01) (666, 1.29176400731040030845e-01) (667, 4.23657054567166124759e-02) (668, 5.86054406223136536980e-02) (669, 3.38239107078655218408e-02) (670, 9.55138035059576173680e-02) (671, -9.79420133878644155745e-02) (672, 9.73397733887321064961e-02) (673, 1.50928818198375697124e-01) (674, -4.17980220050808010113e-02) (675, 9.40141747381670195294e-02) (676, 7.18557918524394129145e-02) (677, -9.19463883346458982215e-02) (678, 6.44692369323559971717e-02) (679, -3.09423165529903801407e-02) (680, -2.01879922906540235084e-02) (681, 1.03207132649405217140e-01) (682, 1.54481548516653931225e-02) (683, -4.33819197639685599777e-02) (684, 9.01507893216842021156e-02) (685, 1.10261557388672895574e-01) (686, 2.79120830966288258068e-01) (687, 2.73526123901443214692e-02) (688, 2.85092306678382034768e-01) (689, 2.12455162746785983230e-02) (690, 1.02455685801033868909e-01) (691, -3.78064666171414806572e-02) (692, 1.40915077673110455958e-01) (693, 9.45212362216079626798e-02) (694, 1.33377511638951173900e-01) (695, 3.01054600949055894965e-01) (696, 1.64020671211411506185e-01) (697, 1.71225050343100454464e-01) (698, 1.36058692829091082421e-01) (699, 8.92090235732777847577e-02) (700, 7.53332191979344811816e-02) (701, -2.18331163020691082499e-01) (702, 5.83180832650891517455e-02) (703, 1.14665142828215514681e-02) (704, -3.13948106900775866443e-03) (705, 1.00583666493097481642e-01) (706, 6.34337815938131460713e-02) (707, 2.21473372961191156127e-01) (708, 1.53450264237753514207e-01) (709, 1.84697864469723388448e-01) (710, -4.83871490541690346676e-02) (711, 1.71387232744502043813e-01) (712, 4.80870134255756212505e-02) (713, 1.05126625172340296133e-01) (714, 1.03524610225578947431e-01) (715, 1.25945881967307826699e-01) (716, -2.93682717370496206011e-02) (717, 2.65479746003542960153e-02) (718, -6.72782885642822930938e-02) (719, -1.21851120203959606414e-01) (720, 1.05763213711267442529e-01) (721, 1.26193172473553716362e-01) (722, 7.10228055215578885084e-02) (723, -7.13792261195886519609e-03) (724, 6.15708289904691036254e-02) (725, 5.92155230462471787733e-02) (726, -2.20718612954767245959e-01) (727, -8.68120365198760679526e-02) (728, 1.24150586205658094996e-01) (729, 1.70881215117771212419e-01) (730, -1.00366405683145087924e-01) (731, -1.04454759730084445479e-01) (732, -2.55283734430095832213e-01) (733, -1.71289848667710187247e-01) (734, -4.06587172492639870036e-01) (735, -5.32496781450700409910e-02) (736, -1.56504324226724389479e-01) (737, -6.52943322185450987505e-03) (738, -1.37294681010232622054e-01) (739, -6.34867390101523515478e-02) (740, 2.09349742537777161466e-01) (741, -1.50891125806218939776e-01) (742, -1.03616470575758096162e-01) (743, -7.63034862562524118790e-02) (744, 1.68969673590119440210e-01) (745, -9.32506632587483258456e-02) (746, 1.30848336050662719665e-02) (747, 2.14576036003157388787e-01) (748, 1.78628146418878613888e-01) (749, 2.87542945482310297045e-01) (750, 1.87722304566725478603e-01) (751, 3.03494053524690290957e-02) (752, 1.80941166532128189237e-01) (753, 1.10942661278404158809e-01) (754, 6.88835116176865908111e-02) (755, -1.51071476216105837764e-01) (756, 1.11306567621060517603e-01) (757, -1.97985280328576596087e-01) (758, -1.77515162669751556945e-02) (759, 5.11193874094021394328e-02) (760, 5.52161882913351706459e-02) (761, 3.69893641191323743755e-02) (762, -1.02427191025881384606e-02) (763, -1.01332886067955745685e-02) (764, 1.64481099264248038783e-02) (765, 2.61986177518921496687e-02) (766, -5.17242251416997079333e-03) (767, 2.85649404643576387483e-03) (768, -1.45095292816004695080e-01) (769, -7.31219248257353703069e-03) (770, 5.49173752911084542272e-02) (771, 2.38320999880619971423e-01) (772, 1.13712434583776333952e-01) (773, 2.32737648599392443760e-01) (774, 1.99054891604555861395e-01) (775, 2.38170369442000595672e-01) (776, 2.01377540277378030975e-01) (777, 4.34159982431058747571e-03) (778, 2.17578574355852399913e-02) (779, 7.93571890607535322670e-03) (780, -6.02614824588529815474e-02) (781, 1.33882248782297236245e-01) (782, 1.16488653269369329957e-01) (783, -2.78647783179627184236e-02) (784, 2.24132249050301105703e-03) (785, -1.22009881999399466546e-01) (786, 9.09002158498064261050e-02) (787, -5.87996474518934289510e-02) (788, 7.00540762967113012083e-02) (789, 5.27873745088097093975e-03) (790, -8.36178551270527620209e-02) (791, -5.19959855910145860025e-02) (792, -2.60337962622704914561e-02) (793, -1.99458005725054426938e-01) (794, -1.53684057168567089757e-01) (795, -1.34973827191968875905e-01) (796, 6.18565788471626201717e-02) (797, -1.13286806277535217341e-02) (798, -1.07319320355358183150e-01) (799, -9.32898226148573955774e-02) (800, -1.71461506119525430858e-01) (801, -2.13483972957970780104e-01) (802, -4.80642703976510293762e-02) (803, -2.04450327637559020610e-01) (804, -2.73843652488677036239e-01) (805, -2.70687865948157302398e-01) (806, -1.85320026231443751863e-01) (807, -4.30871210535277382458e-01) (808, -1.79574153185437485059e-01) (809, 1.30358023198536981946e-01) (810, 4.57707250875504512155e-02) (811, 1.24796200948891641835e-01) (812, -2.28544786822499401691e-01) (813, -1.89234733715237746221e-01) (814, 3.40498269655198707029e-02) (815, 2.23259930094482611507e-01) (816, 7.08216638792793229396e-02) (817, 1.53978183429689080564e-01) (818, 9.31540818601118980613e-02) (819, 1.12383099924839677253e-01) (820, -3.83952370344557009085e-02) (821, -7.01481061517823523133e-02) (822, -1.56755532780614215138e-01) (823, -8.64486874858235165853e-02) (824, -1.54949619616593283616e-02) (825, 2.70373935513458230062e-02) (826, 2.26735489844192061870e-01) (827, 5.50054020855376343824e-02) (828, 1.09111250492014671964e-01) (829, 7.20198802700501711227e-02) (830, -4.59078246554285099301e-02) (831, -2.49907093849104672278e-01) (832, -1.09887176707685524368e-01) (833, -1.65120356911291316093e-01) (834, -6.34007457682785879882e-02) (835, 1.76024312431439483584e-01) (836, 1.53487653094646681051e-01) (837, 2.24895313100249377714e-01) (838, 1.53675219275659746820e-01) (839, 8.37876320188955803214e-02) (840, 1.89183268049282482526e-01) (841, 1.00683600040561330169e-01) (842, 2.22713587698461612518e-01) (843, 1.94400027911936446046e-01) (844, 1.38741865178173467976e-01) (845, 4.07467631399624843902e-02) (846, 1.32283382118188602705e-01) (847, 1.68293395471756333792e-02) (848, 1.68033933003731761335e-01) (849, 7.12448397288157897478e-02) (850, 8.10307188109043174951e-02) (851, -6.04385955487289627808e-03) (852, 9.69406363473211962756e-02) (853, 1.02191670727611011449e-01) (854, 1.03808871620365505972e-01) (855, -6.25073830188059981205e-02) (856, 4.74702324864536215343e-02) (857, 1.25949397222657240997e-02) (858, -1.22507850746254157159e-01) (859, -7.67227228095055113766e-02) (860, -5.71897161852506150104e-02) (861, 1.83130949398802173045e-01) (862, -6.75964182003768211671e-03) (863, 2.16338168519689955094e-01) (864, 9.92279140353925608042e-03) (865, -8.31222264474089193864e-03) (866, 2.23025938953181790403e-01) (867, 1.78960165284993033552e-01) (868, 6.88456008414471860857e-03) (869, 2.90587500929716281706e-02) (870, 7.57658571717085838060e-02) (871, -1.10701450868327475746e-02) (872, 6.01750616368226659558e-02) (873, 1.75255056592436231355e-01) (874, -5.93462044859190910456e-03) (875, -8.77155414080253020837e-03) (876, 1.74057578363470744076e-01) (877, 1.93971204323095010313e-02) (878, 2.93087685309626547192e-02) (879, -1.96760767082011060747e-02) (880, 1.48097258807307965989e-02) (881, -2.90568281736299748041e-02) (882, -1.16114983922332576372e-01) (883, -1.81091538708322757900e-01) (884, 1.53477912596834825676e-01) (885, 7.57167859190711611816e-02) (886, -1.64730169048054819747e-01) (887, 3.92237263047541306893e-01) (888, -9.49941327980553806842e-03) (889, -2.16138652649676521467e-01) (890, 1.95746716695284456167e-01) (891, -1.56328051227016623370e-01) (892, -5.76724933114477894547e-02) (893, 2.87965586188761002440e-01) (894, -2.08297129840039924042e-01) (895, 1.13750481503719479831e-02) (896, 3.56853959948865540053e-01) (897, -1.08265781415543438371e-01) (898, -2.35983990839919111071e-01) (899, 1.66693983308312976277e-01) (900, 5.01558664500865829250e-03) (901, -9.74753199226252170506e-02) (902, 1.48672727813848215561e-01) (903, -1.58569261784991699660e-01) (904, -2.59264967031897115846e-03) (905, -3.38331666911343559301e-02) (906, 1.33406922507408542966e-01) (907, -2.58027056949620935133e-02) (908, 2.32817328598701675513e-02) (909, 2.85533864795222639549e-03) (910, -9.28046205625755321611e-02) (911, 3.88188115603752964544e-02) (912, 1.52648531237471133531e-02) (913, 6.98251976005406504999e-02) (914, 2.60849548456387712869e-02) (915, -1.12841860086531090013e-01) (916, 3.09720963738115452613e-02) (917, 7.89257002406802271599e-02) (918, -2.40004828147262844196e-01) (919, 7.68002612419051433612e-02) (920, 1.81311056016985328032e-01) (921, -1.83904732711194118799e-01) (922, 9.77544545607161863288e-02) (923, 1.44198500430194082034e-01) (924, 1.03516902481245717804e-01) (925, -1.29621785354405855140e-01) (926, 1.91572567589945619293e-01) (927, 6.35337506003263718934e-02) (928, -2.27119019977152669654e-01) (929, -1.29089554844239479126e-01) (930, 2.54562611642609015750e-01) (931, 1.14018378930553027084e-01) (932, -1.70102496616992615586e-01) (933, -8.08562226570364583900e-02) (934, 2.14407578119916869541e-01) (935, 6.60695658757806114636e-02) (936, 4.87753517581041642903e-02) (937, 8.00524536413767771881e-03) (938, 3.80729705151324315793e-01) (939, -1.55849666212074855487e-01) (940, -7.87513046552520135091e-02) (941, 2.16645776426402397741e-01) (942, -8.34555157927030777376e-02) (943, 1.63001702175830154307e-01) (944, 1.71447161889962201853e-01) (945, -6.16210063179918957066e-02) (946, 3.05058607938458944964e-02) (947, 6.68539551294092398992e-02) (948, 1.83223238361757620463e-02) (949, 4.30693725871229560198e-02) (950, 2.18148500824363184014e-01) (951, -5.09478180445448354530e-04) (952, -2.98327018194062210110e-01) (953, 8.12549759090318707289e-02) (954, 3.74397629148000496424e-02) (955, -5.12910787813344801189e-02) (956, -1.44178672586529332822e-01) (957, 6.10882104976277762187e-02) (958, -1.42756348185898135350e-01) (959, -6.88934602490128278340e-02) (960, 1.40330215762166005122e-01) (961, -5.80850332350943407487e-05) (962, 7.83490723079613149427e-02) (963, 3.58886659005853148052e-02) (964, 2.28071507693027697439e-01) (965, 1.55910608843267711743e-01) (966, 2.01677768673308555059e-01) (967, 1.68363073575644672797e-01) (968, -1.10084599104335031927e-01) (969, 1.21191604028507995960e-01) (970, 8.23816850467774114408e-02) (971, 2.58068387196307758025e-01) (972, 3.04220013218135902633e-02) (973, 8.77094301359652474270e-03) (974, 1.04823136967325744595e-01) (975, 2.05995485168887458582e-02) (976, 8.01555114535179580315e-02) (977, 1.93471648315123395667e-01) (978, 3.68874955191354006456e-02) (979, 1.84127364187107067650e-01) (980, 1.41299412446467820281e-01) (981, 4.40370581758517190551e-02) (982, 1.05903988089193906719e-01) (983, 8.74301760472819683434e-02) (984, -2.45102916251523257618e-02) (985, 2.88494694838241916290e-02) (986, 7.75144649191025162521e-03) (987, -4.58712326448888346730e-02) (988, -9.00387864106328393576e-03) (989, 5.83681849770297453417e-02) (990, 1.46474967341058692760e-01) (991, -1.11564725224213748267e-01) (992, 4.12106977145042102650e-02) (993, 7.66579483294323876796e-02) (994, 1.23702841060688260855e-02) (995, 9.14513534433613189956e-02) (996, 1.22856832300893229620e-02) (997, 1.96762648892731734085e-01) (998, 8.48129133089490366837e-02) (999, -1.01126743767379081995e-01) (1000, 2.19247809600461446289e-02) (1001, 6.53729839390519151809e-02) (1002, -9.99539001504740898252e-02) (1003, -3.67520682500947701299e-02) (1004, -1.10737422241543773116e-01) (1005, 3.07161525321832766522e-02) (1006, -7.14212183460106401350e-03) (1007, -3.74490026877424969642e-02) (1008, -8.44885356991843111674e-03) (1009, 5.51722615453114351158e-02) (1010, -5.17077583633512721795e-02) (1011, -5.70914130710954356718e-02) (1012, -2.99147023779971245327e-02) (1013, -7.64078644782521521073e-02) (1014, -6.87549895454515197502e-02) (1015, -1.23395392181971014223e-01) (1016, 1.96102659101544674058e-02) (1017, -1.20349559936100969360e-02) (1018, 7.26408392981691981155e-03) (1019, -1.15595517592816124375e-01) (1020, 5.38645408085123358899e-02) (1021, 3.64105265355209317679e-02) (1022, -9.29010302904791640533e-02) (1023, 3.78182362939419244863e-02) (1024, -4.02119495069252277930e-02) (1025, -1.60750683490051393676e-01) (1026, -5.49290408871936919333e-02) (1027, -1.26846986789845905808e-01) (1028, -2.29875183568479602228e-03) (1029, -1.27089627364867147064e-01) (1030, -9.40338141916614439486e-02) (1031, 1.89708286970082448675e-02) (1032, 1.18814305830408431519e-01) (1033, -1.35331993214602069875e-01) (1034, 4.07660769211761128683e-02) (1035, 5.62055020344222056039e-02) (1036, 1.59514109436707102185e-01) (1037, 2.12653799608607002591e-01) (1038, 6.13559327352288519375e-02) (1039, 5.89592565167491033939e-02) (1040, 2.07797187514974918132e-03) (1041, -1.72244106351164522062e-01) (1042, -1.67115464320036405388e-01) (1043, -4.98758396062164988116e-02) (1044, -3.87966997039654037938e-02) (1045, 1.53136992830702145518e-01) (1046, 6.11363890154003053468e-02) (1047, 7.98803972394270811463e-02) (1048, -4.15038442660045359123e-02) (1049, -2.08194146981788758000e-01) (1050, -1.25869698673575031167e-01) (1051, -1.12326498694221996177e-01) (1052, 5.23809059653806696755e-02) (1053, -4.23294607317766247156e-02) (1054, 8.55644377544993867124e-02) (1055, 2.08927190868964274273e-01) (1056, -9.78558594486788685873e-05) (1057, 2.15592434664151372248e-01) (1058, 2.32585985094544700491e-01) (1059, 8.51849105092006009254e-02) (1060, -9.25102088806062511361e-02) (1061, -6.70293503506767373440e-03) (1062, 3.03972680127436833963e-01) (1063, -3.11107993879850497354e-01) (1064, -2.96728417235545584296e-02) (1065, 1.04209241788392359407e-01) (1066, -9.88495363117723319091e-02) (1067, 2.35379977882184295013e-02) (1068, 9.40823703844608366653e-02) (0, 1.37619153513317798998e-01) (1, -1.50608916136603404601e-01) (2, -8.10776046953330803424e-02) (3, 9.81382051985224962420e-02) (4, 1.06055303273228582195e-02) (5, -1.00125611290358490502e-01) (6, -4.99167532126148227878e-02) (7, 1.27930458733025997908e-01) (8, -1.09764256219265013415e-02) (9, -1.02266846535215977232e-01) (10, -5.53870793255621402668e-03) (11, -5.66591908616005807131e-02) (12, 1.01398652259684654564e-01) (13, -9.17172997750181351329e-02) (14, 4.53410742783409079215e-02) (15, 1.45989103763005233921e-02) (16, -1.33611927456883331639e-02) (17, -6.54226831919582363373e-02) (18, 2.91775487070818281832e-02) (19, 4.33816850182673213743e-02) (20, -4.70114203793614293669e-02) (21, -3.04287426489780084282e-02) (22, 1.36390910434259660100e-01) (23, -5.17253012252519739356e-01) (24, 2.69365153502700016563e-02) (25, -5.31580042530412702484e-02) (26, -1.28484400818811884959e-02) (27, -1.25407308277591361678e-01) (28, -2.60337063177243865919e-01) (29, 1.64589545481824417461e-01) (30, 4.46999123897005509742e-02) (31, -2.01133369259790389938e-01) (32, -1.71068070302282215778e-01) (33, 9.45869374390908290717e-02) (34, 5.58096133519940806877e-02) (35, -1.04647086186521215412e-01) (36, -2.71708257447773493531e-01) (37, -4.70073476546673460486e-02) (38, -5.69721096243791039204e-02) (39, -1.95128920202370381709e-01) (40, -5.70822611093827966822e-02) (41, -8.66410684387190072053e-02) (42, -8.69990306871134795944e-04) (43, 2.58550538396582520184e-02) (44, -1.27029038058660448396e-01) (45, 1.74411260600406958776e-01) (46, 6.73101207345073587751e-02) (47, -2.29507429273679321169e-02) (48, 2.44506883397913781300e-03) (49, 2.20294428181920659560e-01) (50, 1.15250270031367965662e-01) (51, -1.87477673301152253371e-02) (52, 1.25489125576662280404e-01) (53, 4.62010228346956264289e-02) (54, 1.27573729218748849190e-01) (55, -2.98827336657791556296e-02) (56, -3.01697656087064891572e-01) (57, -3.25510763511918793656e-02) (58, -5.87343705143691455217e-02) (59, -2.17910895144611982399e-01) (60, -1.33547426140123021154e-01) (61, 1.13505260496478410648e-01) (62, 1.46848769036607932487e-02) (63, -8.09780894797796774176e-02) (64, 1.34861957608820998145e-01) (65, 2.32100534997408208815e-01) (66, 8.79024751955842786888e-02) (67, -1.49020176370065121629e-01) (68, -1.92753046653069443073e-01) (69, 6.21127424277099979277e-02) (70, 7.53017424943258628645e-02) (71, 1.03493794449219883580e-01) (72, 6.63554447684911313798e-02) (73, -1.31726200389524761292e-01) (74, 8.02837808954558890262e-02) (75, 6.81657911449010250893e-02) (76, -2.94962402525567046752e-01) (77, -1.41980450830935162054e-01) (78, 5.08243135491361682637e-03) (79, -2.82343155341736817832e-01) (80, -1.10180907254654250615e-01) (81, 7.07445529933119071631e-02) (82, 8.60372289536190382186e-02) (83, -9.93063078016671735293e-02) (84, 1.25275438976513414646e-01) (85, 1.15064408580723795406e-01) (86, -1.11821024974789781647e-01) (87, -1.31753768865908199581e-01) (88, 1.81487234024632794601e-04) (89, -2.40032484711407631539e-02) (90, 6.38093220649335601813e-02) (91, 5.01118713597348275357e-02) (92, -1.92901342242744328059e-02) (93, 6.26885850493482943424e-02) (94, -2.00115625587530751583e-02) (95, -1.38996270681328415453e-01) (96, -2.19965516126517907081e-01) (97, -1.21155001045378490909e-01) (98, -1.07696685128552682720e-01) (99, -2.29221692802057258609e-01) (100, 4.19246003729998022863e-03) (101, -2.60097009607403416298e-02) (102, 1.95963097140040565236e-02) (103, -2.00628964679217744460e-02) (104, 7.56618769864729132091e-03) (105, 2.46501906625809195928e-02) (106, -1.27641007365201009094e-01) (107, -1.15729287844466774415e-01) (108, -5.91109362265232751721e-02) (109, 8.82657286200447532831e-02) (110, -1.36567668753336812770e-02) (111, -2.49830395502489754911e-01) (112, 6.88642764789018785310e-02) (113, -2.37327615273874546753e-02) (114, 5.89512950725253753737e-02) (115, -1.37029559604466000255e-01) (116, -8.25823390196875617431e-02) (117, 2.22421131417791795304e-02) (118, -8.43149406541164603279e-03) (119, -2.68548542379312582540e-01) (120, 5.43818545220127042006e-02) (121, 2.67932598866488201617e-02) (122, -1.48077261762539824641e-01) (123, -3.48679013540637988688e-02) (124, 6.66381694472359953352e-02) (125, 1.67371761490166831576e-01) (126, 5.16195073144841143353e-02) (127, -8.14269229988026921330e-02) (128, -2.53912017419077977454e-02) (129, -4.09041607148941180339e-02) (130, -2.00582342040642978842e-02) (131, -8.71061020615072068018e-02) (132, -9.58071905780947391529e-02) (133, 1.90139970069513691842e-01) (134, 9.38580996219748470155e-02) (135, -1.16840440784484800307e-01) (136, -2.82144373193518094300e-01) (137, -2.49165836421488947824e-03) (138, -1.33333907629790110461e-01) (139, -3.40514834253646314632e-01) (140, -1.53418781701750292154e-03) (141, 1.39033584334017745743e-01) (142, 1.10293728752930086934e-01) (143, -6.98484073327378801599e-02) (144, 4.94783257073238419421e-02) (145, 1.16580542749132223812e-01) (146, 1.81465143009909256333e-02) (147, -7.30750070168583870656e-02) (148, 7.08930695633914476073e-02) (149, 2.31013556483582210843e-01) (150, -1.95153072151317726057e-02) (151, -9.38944216253957512908e-03) (152, 3.32133968656326827862e-02) (153, 1.48768303129413664854e-01) (154, -1.54879063751880603761e-02) (155, 1.03896374679357278437e-01) (156, -3.40227673576215666751e-02) (157, -2.61452064872217948555e-02) (158, 6.86898973371977399766e-03) (159, -2.92316266764784504772e-01) (160, -8.12218178708827287515e-02) (161, 1.45294727894211828101e-01) (162, 4.32356958915027511647e-02) (163, -2.07133115775868202613e-02) (164, 1.05043188583357316457e-01) (165, 6.13267158350376886955e-02) (166, -3.86749140472956234871e-02) (167, -1.17732808272999062149e-02) (168, -2.70359922097762909662e-04) (169, -5.28737883670256439417e-02) (170, -1.88289519691601271723e-02) (171, -7.93975163367107023005e-02) (172, 1.33085266938419932714e-01) (173, -3.13572941288179155017e-03) (174, -6.56378829295466564853e-02) (175, -5.50442540649806952291e-02) (176, -2.64056503822237498280e-01) (177, 2.49412888358179901660e-01) (178, -4.81198608932854529630e-02) (179, -2.19042822095250916403e-01) (180, -7.81551252540005070291e-02) (181, -1.68347891206222455285e-01) (182, 2.29573315588057630388e-01) (183, 1.89285860442428316430e-01) (184, -1.86032168572713790811e-01) (185, 1.24755785722586207132e-01) (186, 1.76199459554111620418e-01) (187, -4.92547131961270506784e-02) (188, 2.73524955070551974157e-02) (189, -2.36606046739218332797e-02) (190, 1.45806788968228073777e-01) (191, -7.51494730151893025605e-02) (192, 1.42208180685310214830e-01) (193, -7.40959711061231207641e-02) (194, -2.73156426753507597383e-01) (195, -2.03850305175523882628e-01) (196, -4.63836653387216246713e-02) (197, 2.67148056378617368423e-02) (198, -1.78727954232609176355e-01) (199, -1.91710798329505466286e-01) (200, -7.21837592434573793732e-02) (201, -1.33774956185333443459e-01) (202, 9.18223188739026863203e-02) (203, 5.61156508714289042894e-02) (204, -2.53636941223555179015e-01) (205, -1.55779326255678016167e-02) (206, 1.19515639793000838509e-01) (207, -1.56830503525893477645e-01) (208, -2.03318378180342818062e-01) (209, 9.19646220753811971527e-02) (210, -1.06050819539641127953e-01) (211, 8.97925450727040004584e-03) (212, 7.36663188656668244114e-02) (213, 1.73829411527683330707e-01) (214, 9.44470099034523842552e-03) (215, -2.26563813525842094876e-01) (216, -1.06357357886264144997e-01) (217, 2.57969443862153813285e-02) (218, -4.09216057848727776669e-02) (219, -1.05029551509087742955e-01) (220, -1.94806667965096713679e-01) (221, 2.15558502519122535679e-01) (222, 8.31037027720870069558e-02) (223, 5.34432689508908057019e-02) (224, -7.50434616699394291262e-02) (225, 3.90217698147445612999e-02) (226, 1.49493588665913501590e-01) (227, 5.34848682806653638599e-02) (228, -1.59586686631193103159e-01) (229, 4.29600709458975646426e-02) (230, -3.91102355878958224400e-02) (231, 6.21094857702679803424e-02) (232, 2.21168102116750336927e-01) (233, -1.04457732526145652407e-01) (234, -2.44025270693260937227e-01) (235, 5.51802241257395506557e-02) (236, 8.26525127879703808143e-02) (237, 1.02713337770223317458e-01) (238, -1.37981271526928434001e-01) (239, 2.49501981542723134944e-02) (240, -6.92709547887842697067e-02) (241, 4.35773442062679858267e-02) (242, 8.79474202640691815613e-02) (243, 1.46106400110261019920e-01) (244, -2.10839740831444522051e-01) (245, -1.21947050774531516593e-02) (246, 1.80773016802256353275e-01) (247, -5.80348548716478965237e-02) (248, -1.40195859847034642875e-01) (249, 4.19395307630511596231e-02) (250, 7.25840242702837680489e-03) (251, -1.68692413952992337212e-01) (252, 9.19872142076872401084e-02) (253, -1.22307035953719847599e-01) (254, -1.40179979074943644735e-01) (255, 7.74449680610502649847e-02) (256, 1.28168293800719812481e-01) (257, -7.80779678176703462178e-02) (258, 1.26156727506795796057e-01) (259, 2.01543873665110201410e-01) (260, 1.37186427431245844266e-01) (261, 9.41600070959829754669e-02) (262, 5.65148734946179509553e-02) (263, 2.50429513902406808423e-01) (264, -1.33952929016520790040e-02) (265, 7.22371350474936141373e-02) (266, 2.36849816088776782275e-01) (267, -8.34484733011033458228e-02) (268, -2.16018418863693273391e-01) (269, 4.29820901481923617338e-02) (270, -5.68751094751313648890e-02) (271, -6.95765834982222247662e-02) (272, 7.27292264622313444633e-02) (273, -1.76572084076415253273e-01) (274, -3.89354937035709600113e-02) (275, 1.65510803337219555842e-02) (276, -1.53283161349706299748e-02) (277, -2.25801853455237962198e-02) (278, 1.22504762012809811922e-01) (279, 2.44874207633969456777e-02) (280, -6.45968341034452442351e-02) (281, 1.25046465013805216393e-02) (282, -4.03887607886713184691e-03) (283, -2.12921122089767510255e-02) (284, 1.02260552716631619719e-01) (285, -1.40402956896654274033e-01) (286, -9.42857977527827850750e-02) (287, 1.38397327704586209363e-01) (288, -9.93890866938197947711e-02) (289, -5.84293594435278881849e-02) (290, -2.89664651282484808537e-01) (291, -2.55106611222392309912e-01) (292, 5.21819422208192121304e-02) (293, -1.10838591745295006463e-01) (294, -1.69120980472019399876e-01) (295, -9.54530167861369488458e-02) (296, -6.10761690269299370448e-02) (297, -1.31610808184222688455e-01) (298, -1.01713345776289557088e-01) (299, 3.00849138915170377304e-03) (300, -8.41858608472101505038e-02) (301, 1.29924545306429939373e-01) (302, 9.75087834352997423482e-02) (303, -8.82189495746486807004e-02) (304, -7.90428951355990061511e-02) (305, -1.40430827473318836640e-01) (306, 3.86342547507331698919e-02) (307, 2.56799048630387410919e-02) (308, -2.43747044200116502743e-01) (309, 5.88862758026649710241e-02) (310, -5.80207662146160346728e-02) (311, -1.78344085802479790370e-01) (312, 1.52221885414629026778e-01) (313, -4.62332253845937485304e-02) (314, -2.32700046072316681089e-02) (315, -1.60476657704851727315e-01) (316, -1.36708411267768725761e-01) (317, -7.50188892056858139257e-03) (318, -5.22505735413952496216e-02) (319, -6.19007856227260927495e-02) (320, -1.55919319442528431230e-01) (321, -1.95971092436670324410e-02) (322, -1.14819920155496760228e-02) (323, -9.59892271560395804464e-02) (324, 8.45596231750928156723e-02) (325, -1.09739836456295175582e-01) (326, 4.47420263170587584334e-02) (327, -6.02593828105077236601e-02) (328, -2.48799155486864403963e-01) (329, 7.81485452369139362017e-03) (330, 6.63164307097620780995e-02) (331, 4.42842605376351020063e-03) (332, 5.13162229657259175153e-02) (333, -2.30245881016700633392e-02) (334, -7.80957920647941533643e-02) (335, 7.81990225102576069771e-02) (336, -1.13937138021854150738e-01) (337, -5.16173411099743462138e-02) (338, 1.38691441437021029115e-01) (339, 7.39819099204569452510e-02) (340, -2.21176863296400072478e-01) (341, 1.06234205453934041352e-01) (342, 6.61008667458778398363e-02) (343, 1.43809311555584712350e-01) (344, -1.15744765375163892462e-02) (345, 8.77571753448533609099e-02) (346, -1.96840807767559387159e-03) (347, 1.88921185102998261118e-02) (348, 3.56834203539616590106e-02) (349, 1.11211589751706946272e-01) (350, -1.24724615281119347032e-01) (351, -1.48799943744000018331e-01) (352, 1.61794870738881962913e-01) (353, -5.98463238389298629594e-02) (354, -1.28481438673083092628e-01) (355, -2.60231861987114780621e-02) (356, -2.66906260739830425432e-01) (357, -1.79052348189537413603e-01) (358, -3.56351492407597711387e-02) (359, -1.96616041292250465222e-01) (360, 4.27117051529145794198e-02) (361, -8.85768947138831919119e-02) (362, 2.15697441833702735492e-01) (363, 6.98516702007645484684e-02) (364, -6.06501397483121540422e-02) (365, 7.46681959108625725730e-02) (366, -1.36493951920639584180e-02) (367, -7.04519699561009099531e-02) (368, 4.90591206199867107401e-03) (369, -4.96152396880448418037e-02) (370, -1.54103527031896558874e-01) (371, -1.99715910067877144840e-01) (372, 2.12617371994853671113e-01) (373, -1.47314882248702535422e-02) (374, -4.04516570566639810380e-02) (375, -9.53406485215632648611e-02) (376, -3.13515462206083117547e-01) (377, -1.38278713356648569333e-01) (378, -1.06231878717140945656e-01) (379, -3.09744217607457850150e-01) (380, 5.47157026931073611764e-02) (381, -4.27102078406349158768e-02) (382, -2.19345635801710715784e-02) (383, -1.40113047672695157503e-02) (384, -1.06123773616070282699e-01) (385, -1.22565748478886044071e-01) (386, -9.00499209986604792766e-02) (387, 1.46891928029240625281e-02) (388, -7.09363295714280778226e-02) (389, -4.10637537378035627489e-02) (390, 1.77927958153004071862e-02) (391, -1.25117707012647100262e-01) (392, -7.61513199031763760027e-02) (393, -1.24287217846972955493e-01) (394, -7.68543405926365164049e-02) (395, 6.58744509138698280948e-02) (396, -1.66281190608575740741e-01) (397, -1.47950391384400303796e-01) (398, -4.59666675067249980158e-02) (399, -8.65294609107935958070e-02) (400, -1.05131485939458910184e-01) (401, 3.49480566037923753853e-02) (402, 4.38197217172253891682e-02) (403, -3.91788790002151679492e-02) (404, -2.41798687879707999149e-02) (405, 1.98588349668780937696e-02) (406, 4.72685654013140707508e-02) (407, -4.90245128317593550915e-02) (408, 5.71722344272433263823e-02) (409, -3.02184622667110401595e-02) (410, -2.64429163728560137625e-02) (411, 4.08551314402760407107e-02) (412, -2.88120978969827572225e-02) (413, -1.67867922813704217866e-01) (414, 1.38540278837848002125e-02) (415, 1.40594104522906195032e-02) (416, -1.55313784828416873163e-01) (417, -6.37315240371711805301e-02) (418, 9.88567118317418974671e-02) (419, -3.42410387501049379155e-02) (420, 5.29861061056547816284e-02) (421, -4.87227273531645396765e-02) (422, -1.57197522433386083218e-01) (423, -1.09474678119748328187e-01) (424, 7.38925275404463399731e-02) (425, -1.41990352228609062468e-01) (426, -5.74587586849697115610e-02) (427, -9.99195697220317535781e-02) (428, 1.46466281120824631801e-01) (429, 7.93883993448760288958e-02) (430, -3.10139745288003400303e-02) (431, -1.12787313942631153840e-01) (432, -1.03303809871315016577e-01) (433, -4.72138847883444984221e-02) (434, 1.19023814200236874306e-01) (435, -6.17371187249134562025e-02) (436, -1.11540606213462664686e-01) (437, -1.39630498391326435259e-01) (438, 1.13472056697013878868e-01) (439, -2.38226160624858351866e-01) (440, -7.58498443835488450615e-02) (441, -4.25332932996761101108e-02) (442, -1.03139020940852407793e-01) (443, -9.58498694305460890996e-02) (444, -4.67298951256234912366e-02) (445, 1.35900227084923969079e-01) (446, 2.76353268214947489501e-02) (447, 5.26409221834863022549e-02) (448, -1.95310663719265795168e-02) (449, -1.43313369539525531371e-01) (450, 8.53005498559739755438e-02) (451, -1.01475708474414838545e-01) (452, 3.37066181534001682585e-02) (453, -9.18182992320854853008e-03) (454, 3.09644043327182288960e-02) (455, -1.52676005424574906533e-01) (456, -1.42931767042748653074e-01) (457, -1.68266598180101145665e-01) (458, -1.34218574466465623285e-01) (459, -1.45369778604243465869e-01) (460, 7.31159663518080454869e-02) (461, -7.56846376299210171767e-02) (462, 1.24551923453935751984e-02) (463, -1.78086096991508825715e-02) (464, -6.60546992757123502260e-02) (465, 3.90311394913030254572e-02) (466, -1.68916659806503631491e-02) (467, -5.10598729720014438138e-02) (468, -1.06020052852716147734e-02) (469, -4.40440957496886480865e-03) (470, 1.71339296005649260879e-01) (471, -1.20177947791887576590e-01) (472, 1.11642446657730431969e-01) (473, -2.50205559306654334861e-02) (474, -7.09796691615346003745e-02) (475, -4.63922271816464976135e-02) (476, -6.84468495273491822628e-02) (477, 8.35468281840059251442e-02) (478, -5.30953762938945264538e-02) (479, -5.52630753129538382362e-03) (480, -4.86937720846193217161e-02) (481, -6.46307631018612493978e-02) (482, -9.34983915755106982648e-03) (483, 7.02999866116869459587e-02) (484, -5.16349362762678343319e-02) (485, 9.44534100744939264516e-02) (486, -2.89364616501479633703e-02) (487, -1.05893752311232783314e-02) (488, -7.88128035582554148375e-02) (489, -1.01693986390743021375e-01) (490, 1.10785982817831848979e-01) (491, -3.40418706999177159145e-02) (492, 7.28106594794637133200e-03) (493, -7.15985825283738368946e-03) (494, 3.92739384606729455274e-02) (495, -6.25617134635868127335e-02) (496, -9.70743194568569195413e-02) (497, 3.55926913376255552035e-02) (498, 7.03266611946737479899e-02) (499, 1.26594312590842389410e-01) (500, -8.37744834972254520666e-02) (501, 2.64303617083657231557e-02) (502, 3.35793762276417884216e-03) (503, -7.54726913539274790743e-02) (504, 1.12748023134260522138e-01) (505, 1.29795627684518549705e-01) (506, 4.25028831713366514466e-02) (507, -4.88023728211934362808e-02) (508, 1.03135726160936233575e-01) (509, 1.20778598110119372855e-01) (510, 1.16663282381854679914e-01) (511, 1.15259470584934256565e-01) (512, -3.22712771325339431439e-02) (513, 1.65060658579904040444e-01) (514, 1.60859457423441654100e-01) (515, 7.11499949198287351404e-02) (516, -1.75238058355547052236e-02) (517, -3.38939692189367397512e-02) (518, 6.14102163325805361360e-03) (519, 1.50982635496084201948e-02) (520, -1.06795605489831465368e-02) (521, 4.00978064298349104466e-02) (522, -5.23581413701546746764e-02) (523, -6.53942768676328695099e-02) (524, -4.40047134408342865974e-02) (525, -5.11373816349467436027e-02) (526, 8.83600523503332534181e-03) (527, -1.51774961945349094045e-02) (528, 2.96174940340785015913e-02) (529, -4.58932654986178439893e-02) (530, -8.65951445705175903989e-02) (531, 7.82375063672543780147e-02) (532, 9.82000327879934895026e-03) (533, 5.92461100917826138934e-02) (534, 7.57192587519490978298e-02) (535, 2.41301308581352846883e-02) (536, 7.17934870959659188205e-02) (537, -1.01304309847246060139e-01) (538, 1.48692717993564621493e-01) (539, -9.55757947186954837093e-02) (540, -3.61259346346363072189e-02) (541, 5.36844499283417736502e-02) (542, -2.22668852606401727889e-02) (543, -2.82221277349666184453e-02) (544, 5.75670294173189767140e-02) (545, -5.15143787119511781247e-02) (546, 2.38299472703986624234e-02) (547, -5.56889176561917425418e-03) (548, -6.21363926634410854155e-02) (549, 5.07749213925845696571e-02) (550, 1.86554811149871949127e-02) (551, 1.41528090810341372618e-01) (552, -1.43709892827300178553e-01) (553, 3.21330005449100945814e-03) (554, -1.20089100495894968157e-01) (555, 7.43112074252579302147e-02) (556, -1.06759569661728517809e-01) (557, 1.30275878411147794100e-01) (558, 4.73987593611825061557e-02) (559, 1.46917553246206644690e-01) (560, 1.02526059015214485171e-01) (561, 1.50131456293709220073e-01) (562, 1.62936678166240078713e-01) (563, -1.77515735170544253219e-01) (564, 2.12897513425518603025e-01) (565, -2.99171475760797000998e-01) (566, 3.77504627770536074771e-02) (567, -2.12027742607564850807e-01) (568, 1.29051265310929752506e-01) (569, -6.42434599265808564672e-02) (570, 1.68667434649974828931e-01) (571, -1.21857506793503683751e-01) (572, 1.57974160759204063087e-01) (573, -3.36993802818218238238e-02) (574, 6.33865531874609061669e-02) (575, 7.09403946318622972284e-03) (576, 1.49393465898095378908e-01) (577, -7.99355835487161880959e-02) (578, 1.51147050883257999532e-01) (579, -1.36558548843397853378e-01) (580, 2.28965057561708429379e-01) (581, -1.32260911604999642499e-01) (582, 5.03514526302685852532e-02) (583, -1.00222768865888094136e-02) (584, 1.49696339625766505765e-01) (585, -1.38669174856819454877e-01) (586, 1.55844353903344057244e-01) (587, -9.96297884761261492992e-02) (588, 2.02802569589331793676e-01) (589, 1.66087470193268735286e-02) (590, 1.04704687827273462686e-01) (591, -3.08775746240918490260e-02) (592, 2.11649505017915989802e-01) (593, -1.63594647160782119544e-01) (594, -3.15030448721127023792e-02) (595, -1.15672563226411808518e-02) (596, 1.13497553010213428348e-01) (597, -1.81115053566360428849e-01) (598, 6.96476170326641580433e-02) (599, 3.41156821970106383102e-02) (600, -2.41796375773159523404e-02) (601, -9.46069022781893254059e-02) (602, 1.46542271957934400195e-01) (603, -5.59253187580073599094e-02) (604, 2.08755655722747651692e-01) (605, -9.48009894458484436708e-02) (606, 7.13227608683525970967e-02) (607, 1.79578978338255056124e-02) (608, -2.18492485909996980720e-01) (609, 2.30617006117139089483e-01) (610, -1.98899139519374407170e-02) (611, -2.07989180422853969787e-01) (612, 1.46191220321145759486e-01) (613, -7.21467765788557369167e-02) (614, -2.02048836727149044856e-01) (615, 2.34691451914178700333e-01) (616, 1.62873138378530207815e-02) (617, -1.76494673608163898937e-01) (618, 1.52070820596872102737e-01) (619, 8.45207346019829081074e-02) (620, -2.17186066435929164831e-01) (621, 4.77187224354581607244e-02) (622, 1.05557094328969786057e-01) (623, -2.82090793676582851646e-01) (624, 1.05020345838194764654e-01) (625, 1.57184794711398651001e-01) (626, -1.67089641043179554236e-01) (627, 1.52211973500467112608e-01) (628, 1.96001369702417632679e-01) (629, -2.20936691332946466559e-01) (630, 8.79152641765563874765e-02) (631, 1.84457215786703127014e-01) (632, -1.21031732652211232448e-01) (633, 2.01117538365547549040e-01) (634, 1.00985523528174803154e-02) (635, -1.52651983924595530118e-01) (636, 9.13286153458627361634e-03) (637, 9.30439750854899355614e-02) (638, -2.24958390028035193353e-01) (639, 1.04127044264117868400e-01) (640, 1.01690651511387300521e-01) (641, -1.73655442699315515354e-01) (642, -3.76488240507294111281e-02) (643, 1.72462544931639982781e-01) (644, -8.29989115193319193509e-02) (645, 3.01223806158147748568e-02) (646, 1.23889685859269904622e-01) (647, -1.39414287097577693775e-01) (648, -7.76172662942374276887e-04) (649, -4.22323471895249148017e-03) (650, -3.47195532327129602335e-02) (651, 1.44386316205776382704e-01) (652, 1.18278244704651414737e-02) (653, -2.03798162868254001401e-01) (654, 4.88599403689090189262e-02) (655, 1.01353825505049649491e-01) (656, 