FANN_FLO_2.1
num_layers=3
learning_rate=0.100000
connection_rate=1.000000
network_type=0
learning_momentum=0.300000
training_algorithm=0
train_error_function=0
train_stop_function=0
cascade_output_change_fraction=0.010000
quickprop_decay=-0.000100
quickprop_mu=1.750000
rprop_increase_factor=1.200000
rprop_decrease_factor=0.500000
rprop_delta_min=0.000000
rprop_delta_max=50.000000
rprop_delta_zero=0.100000
cascade_output_stagnation_epochs=12
cascade_candidate_change_fraction=0.010000
cascade_candidate_stagnation_epochs=12
cascade_max_out_epochs=150
cascade_max_cand_epochs=150
cascade_num_candidate_groups=2
bit_fail_limit=3.49999999999999977796e-01
cascade_candidate_limit=1.00000000000000000000e+03
cascade_weight_multiplier=4.00000000000000022204e-01
cascade_activation_functions_count=10
cascade_activation_functions=3 5 7 8 10 11 14 15 16 17 
cascade_activation_steepnesses_count=4
cascade_activation_steepnesses=2.50000000000000000000e-01 5.00000000000000000000e-01 7.50000000000000000000e-01 1.00000000000000000000e+00 
layer_sizes=799 61 3 
scale_included=0
neurons (num_inputs, activation_function, activation_steepness)=(0, 0, 0.00000000000000000000e+00) (0, 0, 0.00000000000000000000e+00) (0, 0, 0.00000000000000000000e+00) (0, 0, 0.00000000000000000000e+00) (0, 0, 0.00000000000000000000e+00) (0, 0, 0.00000000000000000000e+00) (0, 0, 0.00000000000000000000e+00) (0, 0, 0.00000000000000000000e+00) (0, 0, 0.00000000000000000000e+00) (0, 0, 0.00000000000000000000e+00) (0, 0, 0.00000000000000000000e+00) (0, 0, 0.00000000000000000000e+00) (0, 0, 0.00000000000000000000e+00) (0, 0, 0.00000000000000000000e+00) (0, 0, 0.00000000000000000000e+00) (0, 0, 0.00000000000000000000e+00) (0, 0, 0.00000000000000000000e+00) (0, 0, 0.00000000000000000000e+00) (0, 0, 0.00000000000000000000e+00) (0, 0, 0.00000000000000000000e+00) (0, 0, 0.00000000000000000000e+00) (0, 0, 0.00000000000000000000e+00) (0, 0, 0.00000000000000000000e+00) (0, 0, 0.00000000000000000000e+00) (0, 0, 0.00000000000000000000e+00) (0, 0, 0.00000000000000000000e+00) (0, 0, 0.00000000000000000000e+00) (0, 0, 0.00000000000000000000e+00) (0, 0, 0.00000000000000000000e+00) (0, 0, 0.00000000000000000000e+00) (0, 0, 0.00000000000000000000e+00) (0, 0, 0.00000000000000000000e+00) (0, 0, 0.00000000000000000000e+00) (0, 0, 0.00000000000000000000e+00) (0, 0, 0.00000000000000000000e+00) (0, 0, 0.00000000000000000000e+00) (0, 0, 0.00000000000000000000e+00) (0, 0, 0.00000000000000000000e+00) (0, 0, 0.00000000000000000000e+00) (0, 0, 0.00000000000000000000e+00) (0, 0, 0.00000000000000000000e+00) (0, 0, 0.00000000000000000000e+00) (0, 0, 0.00000000000000000000e+00) (0, 0, 0.00000000000000000000e+00) (0, 0, 0.00000000000000000000e+00) (0, 0, 0.00000000000000000000e+00) (0, 0, 0.00000000000000000000e+00) (0, 0, 0.00000000000000000000e+00) (0, 0, 0.00000000000000000000e+00) (0, 0, 0.00000000000000000000e+00) (0, 0, 0.00000000000000000000e+00) (0, 0, 0.00000000000000000000e+00) (0, 0, 0.00000000000000000000e+00) (0, 0, 0.00000000000000000000e+00) (0, 0, 0.00000000000000000000e+00) (0, 0, 0.00000000000000000000e+00) (0, 0, 0.00000000000000000000e+00) (0, 0, 0.00000000000000000000e+00) (0, 0, 0.00000000000000000000e+00) (0, 0, 0.00000000000000000000e+00) (0, 0, 0.00000000000000000000e+00) (0, 0, 0.00000000000000000000e+00) (0, 0, 0.00000000000000000000e+00) (0, 0, 0.00000000000000000000e+00) (0, 0, 0.00000000000000000000e+00) (0, 0, 0.00000000000000000000e+00) (0, 0, 0.00000000000000000000e+00) (0, 0, 0.00000000000000000000e+00) (0, 0, 0.00000000000000000000e+00) (0, 0, 0.00000000000000000000e+00) (0, 0, 0.00000000000000000000e+00) (0, 0, 0.00000000000000000000e+00) (0, 0, 0.00000000000000000000e+00) (0, 0, 0.00000000000000000000e+00) (0, 0, 0.00000000000000000000e+00) (0, 0, 0.00000000000000000000e+00) (0, 0, 0.00000000000000000000e+00) (0, 0, 0.00000000000000000000e+00) (0, 0, 0.00000000000000000000e+00) (0, 0, 0.00000000000000000000e+00) (0, 0, 0.00000000000000000000e+00) (0, 0, 0.00000000000000000000e+00) (0, 0, 0.00000000000000000000e+00) (0, 0, 0.00000000000000000000e+00) (0, 0, 0.00000000000000000000e+00) (0, 0, 0.00000000000000000000e+00) (0, 0, 0.00000000000000000000e+00) (0, 0, 0.00000000000000000000e+00) (0, 0, 0.00000000000000000000e+00) (0, 0, 0.00000000000000000000e+00) (0, 0, 0.00000000000000000000e+00) (0, 0, 0.00000000000000000000e+00) (0, 0, 0.00000000000000000000e+00) (0, 0, 0.00000000000000000000e+00) (0, 0, 0.00000000000000000000e+00) (0, 0, 0.00000000000000000000e+00) (0, 0, 0.00000000000000000000e+00) (0, 0, 0.00000000000000000000e+00) (0, 0, 0.00000000000000000000e+00) (0, 0, 0.00000000000000000000e+00) (0, 0, 0.00000000000000000000e+00) (0, 0, 0.00000000000000000000e+00) (0, 0, 0.00000000000000000000e+00) (0, 0, 0.00000000000000000000e+00) (0, 0, 0.00000000000000000000e+00) (0, 0, 0.00000000000000000000e+00) (0, 0, 0.00000000000000000000e+00) (0, 0, 0.00000000000000000000e+00) (0, 0, 0.00000000000000000000e+00) (0, 0, 0.00000000000000000000e+00) (0, 0, 0.00000000000000000000e+00) (0, 0, 0.00000000000000000000e+00) (0, 0, 0.00000000000000000000e+00) (0, 0, 0.00000000000000000000e+00) (0, 0, 0.00000000000000000000e+00) (0, 0, 0.00000000000000000000e+00) (0, 0, 0.00000000000000000000e+00) (0, 0, 0.00000000000000000000e+00) (0, 0, 0.00000000000000000000e+00) (0, 0, 0.00000000000000000000e+00) (0, 0, 0.00000000000000000000e+00) (0, 0, 0.00000000000000000000e+00) (0, 0, 0.00000000000000000000e+00) (0, 0, 0.00000000000000000000e+00) (0, 0, 0.00000000000000000000e+00) (0, 0, 0.00000000000000000000e+00) (0, 0, 0.00000000000000000000e+00) (0, 0, 0.00000000000000000000e+00) (0, 0, 0.00000000000000000000e+00) (0, 0, 0.00000000000000000000e+00) (0, 0, 0.00000000000000000000e+00) (0, 0, 0.00000000000000000000e+00) (0, 0, 0.00000000000000000000e+00) (0, 0, 0.00000000000000000000e+00) (0, 0, 0.00000000000000000000e+00) (0, 0, 0.00000000000000000000e+00) (0, 0, 0.00000000000000000000e+00) (0, 0, 0.00000000000000000000e+00) (0, 0, 0.00000000000000000000e+00) (0, 0, 0.00000000000000000000e+00) (0, 0, 0.00000000000000000000e+00) (0, 0, 0.00000000000000000000e+00) (0, 0, 0.00000000000000000000e+00) (0, 0, 0.00000000000000000000e+00) (0, 0, 0.00000000000000000000e+00) (0, 0, 0.00000000000000000000e+00) (0, 0, 0.00000000000000000000e+00) (0, 0, 0.00000000000000000000e+00) (0, 0, 0.00000000000000000000e+00) (0, 0, 0.00000000000000000000e+00) (0, 0, 0.00000000000000000000e+00) (0, 0, 0.00000000000000000000e+00) (0, 0, 0.00000000000000000000e+00) (0, 0, 0.00000000000000000000e+00) (0, 0, 0.00000000000000000000e+00) (0, 0, 0.00000000000000000000e+00) (0, 0, 0.00000000000000000000e+00) (0, 0, 0.00000000000000000000e+00) (0, 0, 0.00000000000000000000e+00) (0, 0, 0.00000000000000000000e+00) (0, 0, 0.00000000000000000000e+00) (0, 0, 0.00000000000000000000e+00) (0, 0, 0.00000000000000000000e+00) (0, 0, 0.00000000000000000000e+00) (0, 0, 0.00000000000000000000e+00) (0, 0, 0.00000000000000000000e+00) (0, 0, 0.00000000000000000000e+00) (0, 0, 0.00000000000000000000e+00) (0, 0, 0.00000000000000000000e+00) (0, 0, 0.00000000000000000000e+00) (0, 0, 0.00000000000000000000e+00) (0, 0, 0.00000000000000000000e+00) (0, 0, 0.00000000000000000000e+00) (0, 0, 0.00000000000000000000e+00) (0, 0, 0.00000000000000000000e+00) (0, 0, 0.00000000000000000000e+00) (0, 0, 0.00000000000000000000e+00) (0, 0, 0.00000000000000000000e+00) (0, 0, 0.00000000000000000000e+00) (0, 0, 0.00000000000000000000e+00) (0, 0, 0.00000000000000000000e+00) (0, 0, 0.00000000000000000000e+00) (0, 0, 0.00000000000000000000e+00) (0, 0, 0.00000000000000000000e+00) (0, 0, 0.00000000000000000000e+00) (0, 0, 0.00000000000000000000e+00) (0, 0, 0.00000000000000000000e+00) (0, 0, 0.00000000000000000000e+00) (0, 0, 0.00000000000000000000e+00) (0, 0, 0.00000000000000000000e+00) (0, 0, 0.00000000000000000000e+00) (0, 0, 0.00000000000000000000e+00) (0, 0, 0.00000000000000000000e+00) (0, 0, 0.00000000000000000000e+00) (0, 0, 0.00000000000000000000e+00) (0, 0, 0.00000000000000000000e+00) (0, 0, 0.00000000000000000000e+00) (0, 0, 0.00000000000000000000e+00) (0, 0, 0.00000000000000000000e+00) (0, 0, 0.00000000000000000000e+00) (0, 0, 0.00000000000000000000e+00) (0, 0, 0.00000000000000000000e+00) (0, 0, 0.00000000000000000000e+00) (0, 0, 0.00000000000000000000e+00) (0, 0, 0.00000000000000000000e+00) (0, 0, 0.00000000000000000000e+00) (0, 0, 0.00000000000000000000e+00) (0, 0, 0.00000000000000000000e+00) (0, 0, 0.00000000000000000000e+00) (0, 0, 0.00000000000000000000e+00) (0, 0, 0.00000000000000000000e+00) (0, 0, 0.00000000000000000000e+00) (0, 0, 0.00000000000000000000e+00) (0, 0, 0.00000000000000000000e+00) (0, 0, 0.00000000000000000000e+00) (0, 0, 0.00000000000000000000e+00) (0, 0, 0.00000000000000000000e+00) (0, 0, 0.00000000000000000000e+00) (0, 0, 0.00000000000000000000e+00) (0, 0, 0.00000000000000000000e+00) (0, 0, 0.00000000000000000000e+00) (0, 0, 0.00000000000000000000e+00) (0, 0, 0.00000000000000000000e+00) (0, 0, 0.00000000000000000000e+00) (0, 0, 0.00000000000000000000e+00) (0, 0, 0.00000000000000000000e+00) (0, 0, 0.00000000000000000000e+00) (0, 0, 0.00000000000000000000e+00) (0, 0, 0.00000000000000000000e+00) (0, 0, 0.00000000000000000000e+00) (0, 0, 0.00000000000000000000e+00) (0, 0, 0.00000000000000000000e+00) (0, 0, 0.00000000000000000000e+00) (0, 0, 0.00000000000000000000e+00) (0, 0, 0.00000000000000000000e+00) (0, 0, 0.00000000000000000000e+00) (0, 0, 0.00000000000000000000e+00) (0, 0, 0.00000000000000000000e+00) (0, 0, 0.00000000000000000000e+00) (0, 0, 0.00000000000000000000e+00) (0, 0, 0.00000000000000000000e+00) (0, 0, 0.00000000000000000000e+00) (0, 0, 0.00000000000000000000e+00) (0, 0, 0.00000000000000000000e+00) (0, 0, 0.00000000000000000000e+00) (0, 0, 0.00000000000000000000e+00) (0, 0, 0.00000000000000000000e+00) (0, 0, 0.00000000000000000000e+00) (0, 0, 0.00000000000000000000e+00) (0, 0, 0.00000000000000000000e+00) (0, 0, 0.00000000000000000000e+00) (0, 0, 0.00000000000000000000e+00) (0, 0, 0.00000000000000000000e+00) (0, 0, 0.00000000000000000000e+00) (0, 0, 0.00000000000000000000e+00) (0, 0, 0.00000000000000000000e+00) (0, 0, 0.00000000000000000000e+00) (0, 0, 0.00000000000000000000e+00) (0, 0, 0.00000000000000000000e+00) (0, 0, 0.00000000000000000000e+00) (0, 0, 0.00000000000000000000e+00) (0, 0, 0.00000000000000000000e+00) (0, 0, 0.00000000000000000000e+00) (0, 0, 0.00000000000000000000e+00) (0, 0, 0.00000000000000000000e+00) (0, 0, 0.00000000000000000000e+00) (0, 0, 0.00000000000000000000e+00) (0, 0, 0.00000000000000000000e+00) (0, 0, 0.00000000000000000000e+00) (0, 0, 0.00000000000000000000e+00) (0, 0, 0.00000000000000000000e+00) (0, 0, 0.00000000000000000000e+00) (0, 0, 0.00000000000000000000e+00) (0, 0, 0.00000000000000000000e+00) (0, 0, 0.00000000000000000000e+00) (0, 0, 0.00000000000000000000e+00) (0, 0, 0.00000000000000000000e+00) (0, 0, 0.00000000000000000000e+00) (0, 0, 0.00000000000000000000e+00) (0, 0, 0.00000000000000000000e+00) (0, 0, 0.00000000000000000000e+00) (0, 0, 0.00000000000000000000e+00) (0, 0, 0.00000000000000000000e+00) (0, 0, 0.00000000000000000000e+00) (0, 0, 0.00000000000000000000e+00) (0, 0, 0.00000000000000000000e+00) (0, 0, 0.00000000000000000000e+00) (0, 0, 0.00000000000000000000e+00) (0, 0, 0.00000000000000000000e+00) (0, 0, 0.00000000000000000000e+00) (0, 0, 0.00000000000000000000e+00) (0, 0, 0.00000000000000000000e+00) (0, 0, 0.00000000000000000000e+00) (0, 0, 0.00000000000000000000e+00) (0, 0, 0.00000000000000000000e+00) (0, 0, 0.00000000000000000000e+00) (0, 0, 0.00000000000000000000e+00) (0, 0, 0.00000000000000000000e+00) (0, 0, 0.00000000000000000000e+00) (0, 0, 0.00000000000000000000e+00) (0, 0, 0.00000000000000000000e+00) (0, 0, 0.00000000000000000000e+00) (0, 0, 0.00000000000000000000e+00) (0, 0, 0.00000000000000000000e+00) (0, 0, 0.00000000000000000000e+00) (0, 0, 0.00000000000000000000e+00) (0, 0, 0.00000000000000000000e+00) (0, 0, 0.00000000000000000000e+00) (0, 0, 0.00000000000000000000e+00) (0, 0, 0.00000000000000000000e+00) (0, 0, 0.00000000000000000000e+00) (0, 0, 0.00000000000000000000e+00) (0, 0, 0.00000000000000000000e+00) (0, 0, 0.00000000000000000000e+00) (0, 0, 0.00000000000000000000e+00) (0, 0, 0.00000000000000000000e+00) (0, 0, 0.00000000000000000000e+00) (0, 0, 0.00000000000000000000e+00) (0, 0, 0.00000000000000000000e+00) (0, 0, 0.00000000000000000000e+00) (0, 0, 0.00000000000000000000e+00) (0, 0, 0.00000000000000000000e+00) (0, 0, 0.00000000000000000000e+00) (0, 0, 0.00000000000000000000e+00) (0, 0, 0.00000000000000000000e+00) (0, 0, 0.00000000000000000000e+00) (0, 0, 0.00000000000000000000e+00) (0, 0, 0.00000000000000000000e+00) (0, 0, 0.00000000000000000000e+00) (0, 0, 0.00000000000000000000e+00) (0, 0, 0.00000000000000000000e+00) (0, 0, 0.00000000000000000000e+00) (0, 0, 0.00000000000000000000e+00) (0, 0, 0.00000000000000000000e+00) (0, 0, 0.00000000000000000000e+00) (0, 0, 0.00000000000000000000e+00) (0, 0, 0.00000000000000000000e+00) (0, 0, 0.00000000000000000000e+00) (0, 0, 0.00000000000000000000e+00) (0, 0, 0.00000000000000000000e+00) (0, 0, 0.00000000000000000000e+00) (0, 0, 0.00000000000000000000e+00) (0, 0, 0.00000000000000000000e+00) (0, 0, 0.00000000000000000000e+00) (0, 0, 0.00000000000000000000e+00) (0, 0, 0.00000000000000000000e+00) (0, 0, 0.00000000000000000000e+00) (0, 0, 0.00000000000000000000e+00) (0, 0, 0.00000000000000000000e+00) (0, 0, 0.00000000000000000000e+00) (0, 0, 0.00000000000000000000e+00) (0, 0, 0.00000000000000000000e+00) (0, 0, 0.00000000000000000000e+00) (0, 0, 0.00000000000000000000e+00) (0, 0, 0.00000000000000000000e+00) (0, 0, 0.00000000000000000000e+00) (0, 0, 0.00000000000000000000e+00) (0, 0, 0.00000000000000000000e+00) (0, 0, 0.00000000000000000000e+00) (0, 0, 0.00000000000000000000e+00) (0, 0, 0.00000000000000000000e+00) (0, 0, 0.00000000000000000000e+00) (0, 0, 0.00000000000000000000e+00) (0, 0, 0.00000000000000000000e+00) (0, 0, 0.00000000000000000000e+00) (0, 0, 0.00000000000000000000e+00) (0, 0, 0.00000000000000000000e+00) (0, 0, 0.00000000000000000000e+00) (0, 0, 0.00000000000000000000e+00) (0, 0, 0.00000000000000000000e+00) (0, 0, 0.00000000000000000000e+00) (0, 0, 0.00000000000000000000e+00) (0, 0, 0.00000000000000000000e+00) (0, 0, 0.00000000000000000000e+00) (0, 0, 0.00000000000000000000e+00) (0, 0, 0.00000000000000000000e+00) (0, 0, 0.00000000000000000000e+00) (0, 0, 0.00000000000000000000e+00) (0, 0, 0.00000000000000000000e+00) (0, 0, 0.00000000000000000000e+00) (0, 0, 0.00000000000000000000e+00) (0, 0, 0.00000000000000000000e+00) (0, 0, 0.00000000000000000000e+00) (0, 0, 0.00000000000000000000e+00) (0, 0, 0.00000000000000000000e+00) (0, 0, 0.00000000000000000000e+00) (0, 0, 0.00000000000000000000e+00) (0, 0, 0.00000000000000000000e+00) (0, 0, 0.00000000000000000000e+00) (0, 0, 0.00000000000000000000e+00) (0, 0, 0.00000000000000000000e+00) (0, 0, 0.00000000000000000000e+00) (0, 0, 0.00000000000000000000e+00) (0, 0, 0.00000000000000000000e+00) (0, 0, 0.00000000000000000000e+00) (0, 0, 0.00000000000000000000e+00) (0, 0, 0.00000000000000000000e+00) (0, 0, 0.00000000000000000000e+00) (0, 0, 0.00000000000000000000e+00) (0, 0, 0.00000000000000000000e+00) (0, 0, 0.00000000000000000000e+00) (0, 0, 0.00000000000000000000e+00) (0, 0, 0.00000000000000000000e+00) (0, 0, 0.00000000000000000000e+00) (0, 0, 0.00000000000000000000e+00) (0, 0, 0.00000000000000000000e+00) (0, 0, 0.00000000000000000000e+00) (0, 0, 0.00000000000000000000e+00) (0, 0, 0.00000000000000000000e+00) (0, 0, 0.00000000000000000000e+00) (0, 0, 0.00000000000000000000e+00) (0, 0, 0.00000000000000000000e+00) (0, 0, 0.00000000000000000000e+00) (0, 0, 0.00000000000000000000e+00) (0, 0, 0.00000000000000000000e+00) (0, 0, 0.00000000000000000000e+00) (0, 0, 0.00000000000000000000e+00) (0, 0, 0.00000000000000000000e+00) (0, 0, 0.00000000000000000000e+00) (0, 0, 0.00000000000000000000e+00) (0, 0, 0.00000000000000000000e+00) (0, 0, 0.00000000000000000000e+00) (0, 0, 0.00000000000000000000e+00) (0, 0, 0.00000000000000000000e+00) (0, 0, 0.00000000000000000000e+00) (0, 0, 0.00000000000000000000e+00) (0, 0, 0.00000000000000000000e+00) (0, 0, 0.00000000000000000000e+00) (0, 0, 0.00000000000000000000e+00) (0, 0, 0.00000000000000000000e+00) (0, 0, 0.00000000000000000000e+00) (0, 0, 0.00000000000000000000e+00) (0, 0, 0.00000000000000000000e+00) (0, 0, 0.00000000000000000000e+00) (0, 0, 0.00000000000000000000e+00) (0, 0, 0.00000000000000000000e+00) (0, 0, 0.00000000000000000000e+00) (0, 0, 0.00000000000000000000e+00) (0, 0, 0.00000000000000000000e+00) (0, 0, 0.00000000000000000000e+00) (0, 0, 0.00000000000000000000e+00) (0, 0, 0.00000000000000000000e+00) (0, 0, 0.00000000000000000000e+00) (0, 0, 0.00000000000000000000e+00) (0, 0, 0.00000000000000000000e+00) (0, 0, 0.00000000000000000000e+00) (0, 0, 0.00000000000000000000e+00) (0, 0, 0.00000000000000000000e+00) (0, 0, 0.00000000000000000000e+00) (0, 0, 0.00000000000000000000e+00) (0, 0, 0.00000000000000000000e+00) (0, 0, 0.00000000000000000000e+00) (0, 0, 0.00000000000000000000e+00) (0, 0, 0.00000000000000000000e+00) (0, 0, 0.00000000000000000000e+00) (0, 0, 0.00000000000000000000e+00) (0, 0, 0.00000000000000000000e+00) (0, 0, 0.00000000000000000000e+00) (0, 0, 0.00000000000000000000e+00) (0, 0, 0.00000000000000000000e+00) (0, 0, 0.00000000000000000000e+00) (0, 0, 0.00000000000000000000e+00) (0, 0, 0.00000000000000000000e+00) (0, 0, 0.00000000000000000000e+00) (0, 0, 0.00000000000000000000e+00) (0, 0, 0.00000000000000000000e+00) (0, 0, 0.00000000000000000000e+00) (0, 0, 0.00000000000000000000e+00) (0, 0, 0.00000000000000000000e+00) (0, 0, 0.00000000000000000000e+00) (0, 0, 0.00000000000000000000e+00) (0, 0, 0.00000000000000000000e+00) (0, 0, 0.00000000000000000000e+00) (0, 0, 0.00000000000000000000e+00) (0, 0, 0.00000000000000000000e+00) (0, 0, 0.00000000000000000000e+00) (0, 0, 0.00000000000000000000e+00) (0, 0, 0.00000000000000000000e+00) (0, 0, 0.00000000000000000000e+00) (0, 0, 0.00000000000000000000e+00) (0, 0, 0.00000000000000000000e+00) (0, 0, 0.00000000000000000000e+00) (0, 0, 0.00000000000000000000e+00) (0, 0, 0.00000000000000000000e+00) (0, 0, 0.00000000000000000000e+00) (0, 0, 0.00000000000000000000e+00) (0, 0, 0.00000000000000000000e+00) (0, 0, 0.00000000000000000000e+00) (0, 0, 0.00000000000000000000e+00) (0, 0, 0.00000000000000000000e+00) (0, 0, 0.00000000000000000000e+00) (0, 0, 0.00000000000000000000e+00) (0, 0, 0.00000000000000000000e+00) (0, 0, 0.00000000000000000000e+00) (0, 0, 0.00000000000000000000e+00) (0, 0, 0.00000000000000000000e+00) (0, 0, 0.00000000000000000000e+00) (0, 0, 0.00000000000000000000e+00) (0, 0, 0.00000000000000000000e+00) (0, 0, 0.00000000000000000000e+00) (0, 0, 0.00000000000000000000e+00) (0, 0, 0.00000000000000000000e+00) (0, 0, 0.00000000000000000000e+00) (0, 0, 0.00000000000000000000e+00) (0, 0, 0.00000000000000000000e+00) (0, 0, 0.00000000000000000000e+00) (0, 0, 0.00000000000000000000e+00) (0, 0, 0.00000000000000000000e+00) (0, 0, 0.00000000000000000000e+00) (0, 0, 0.00000000000000000000e+00) (0, 0, 0.00000000000000000000e+00) (0, 0, 0.00000000000000000000e+00) (0, 0, 0.00000000000000000000e+00) (0, 0, 0.00000000000000000000e+00) (0, 0, 0.00000000000000000000e+00) (0, 0, 0.00000000000000000000e+00) (0, 0, 0.00000000000000000000e+00) (0, 0, 0.00000000000000000000e+00) (0, 0, 0.00000000000000000000e+00) (0, 0, 0.00000000000000000000e+00) (0, 0, 0.00000000000000000000e+00) (0, 0, 0.00000000000000000000e+00) (0, 0, 0.00000000000000000000e+00) (0, 0, 0.00000000000000000000e+00) (0, 0, 0.00000000000000000000e+00) (0, 0, 0.00000000000000000000e+00) (0, 0, 0.00000000000000000000e+00) (0, 0, 0.00000000000000000000e+00) (0, 0, 0.00000000000000000000e+00) (0, 0, 0.00000000000000000000e+00) (0, 0, 0.00000000000000000000e+00) (0, 0, 0.00000000000000000000e+00) (0, 0, 0.00000000000000000000e+00) (0, 0, 0.00000000000000000000e+00) (0, 0, 0.00000000000000000000e+00) (0, 0, 0.00000000000000000000e+00) (0, 0, 0.00000000000000000000e+00) (0, 0, 0.00000000000000000000e+00) (0, 0, 0.00000000000000000000e+00) (0, 0, 0.00000000000000000000e+00) (0, 0, 0.00000000000000000000e+00) (0, 0, 0.00000000000000000000e+00) (0, 0, 0.00000000000000000000e+00) (0, 0, 0.00000000000000000000e+00) (0, 0, 0.00000000000000000000e+00) (0, 0, 0.00000000000000000000e+00) (0, 0, 0.00000000000000000000e+00) (0, 0, 0.00000000000000000000e+00) (0, 0, 0.00000000000000000000e+00) (0, 0, 0.00000000000000000000e+00) (0, 0, 0.00000000000000000000e+00) (0, 0, 0.00000000000000000000e+00) (0, 0, 0.00000000000000000000e+00) (0, 0, 0.00000000000000000000e+00) (0, 0, 0.00000000000000000000e+00) (0, 0, 0.00000000000000000000e+00) (0, 0, 0.00000000000000000000e+00) (0, 0, 0.00000000000000000000e+00) (0, 0, 0.00000000000000000000e+00) (0, 0, 0.00000000000000000000e+00) (0, 0, 0.00000000000000000000e+00) (0, 0, 0.00000000000000000000e+00) (0, 0, 0.00000000000000000000e+00) (0, 0, 0.00000000000000000000e+00) (0, 0, 0.00000000000000000000e+00) (0, 0, 0.00000000000000000000e+00) (0, 0, 0.00000000000000000000e+00) (0, 0, 0.00000000000000000000e+00) (0, 0, 0.00000000000000000000e+00) (0, 0, 0.00000000000000000000e+00) (0, 0, 0.00000000000000000000e+00) (0, 0, 0.00000000000000000000e+00) (0, 0, 0.00000000000000000000e+00) (0, 0, 0.00000000000000000000e+00) (0, 0, 0.00000000000000000000e+00) (0, 0, 0.00000000000000000000e+00) (0, 0, 0.00000000000000000000e+00) (0, 0, 0.00000000000000000000e+00) (0, 0, 0.00000000000000000000e+00) (0, 0, 0.00000000000000000000e+00) (0, 0, 0.00000000000000000000e+00) (0, 0, 0.00000000000000000000e+00) (0, 0, 0.00000000000000000000e+00) (0, 0, 0.00000000000000000000e+00) (0, 0, 0.00000000000000000000e+00) (0, 0, 0.00000000000000000000e+00) (0, 0, 0.00000000000000000000e+00) (0, 0, 0.00000000000000000000e+00) (0, 0, 0.00000000000000000000e+00) (0, 0, 0.00000000000000000000e+00) (0, 0, 0.00000000000000000000e+00) (0, 0, 0.00000000000000000000e+00) (0, 0, 0.00000000000000000000e+00) (0, 0, 0.00000000000000000000e+00) (0, 0, 0.00000000000000000000e+00) (0, 0, 0.00000000000000000000e+00) (0, 0, 0.00000000000000000000e+00) (0, 0, 0.00000000000000000000e+00) (0, 0, 0.00000000000000000000e+00) (0, 0, 0.00000000000000000000e+00) (0, 0, 0.00000000000000000000e+00) (0, 0, 0.00000000000000000000e+00) (0, 0, 0.00000000000000000000e+00) (0, 0, 0.00000000000000000000e+00) (0, 0, 0.00000000000000000000e+00) (0, 0, 0.00000000000000000000e+00) (0, 0, 0.00000000000000000000e+00) (0, 0, 0.00000000000000000000e+00) (0, 0, 0.00000000000000000000e+00) (0, 0, 0.00000000000000000000e+00) (0, 0, 0.00000000000000000000e+00) (0, 0, 0.00000000000000000000e+00) (0, 0, 0.00000000000000000000e+00) (0, 0, 0.00000000000000000000e+00) (0, 0, 0.00000000000000000000e+00) (0, 0, 0.00000000000000000000e+00) (0, 0, 0.00000000000000000000e+00) (0, 0, 0.00000000000000000000e+00) (0, 0, 0.00000000000000000000e+00) (0, 0, 0.00000000000000000000e+00) (0, 0, 0.00000000000000000000e+00) (0, 0, 0.00000000000000000000e+00) (0, 0, 0.00000000000000000000e+00) (0, 0, 0.00000000000000000000e+00) (0, 0, 0.00000000000000000000e+00) (0, 0, 0.00000000000000000000e+00) (0, 0, 0.00000000000000000000e+00) (0, 0, 0.00000000000000000000e+00) (0, 0, 0.00000000000000000000e+00) (0, 0, 0.00000000000000000000e+00) (0, 0, 0.00000000000000000000e+00) (0, 0, 0.00000000000000000000e+00) (0, 0, 0.00000000000000000000e+00) (0, 0, 0.00000000000000000000e+00) (0, 0, 0.00000000000000000000e+00) (0, 0, 0.00000000000000000000e+00) (0, 0, 0.00000000000000000000e+00) (0, 0, 0.00000000000000000000e+00) (0, 0, 0.00000000000000000000e+00) (0, 0, 0.00000000000000000000e+00) (0, 0, 0.00000000000000000000e+00) (0, 0, 0.00000000000000000000e+00) (0, 0, 0.00000000000000000000e+00) (0, 0, 0.00000000000000000000e+00) (0, 0, 0.00000000000000000000e+00) (0, 0, 0.00000000000000000000e+00) (0, 0, 0.00000000000000000000e+00) (0, 0, 0.00000000000000000000e+00) (0, 0, 0.00000000000000000000e+00) (0, 0, 0.00000000000000000000e+00) (0, 0, 0.00000000000000000000e+00) (0, 0, 0.00000000000000000000e+00) (0, 0, 0.00000000000000000000e+00) (0, 0, 0.00000000000000000000e+00) (0, 0, 0.00000000000000000000e+00) (0, 0, 0.00000000000000000000e+00) (0, 0, 0.00000000000000000000e+00) (0, 0, 0.00000000000000000000e+00) (0, 0, 0.00000000000000000000e+00) (0, 0, 0.00000000000000000000e+00) (0, 0, 0.00000000000000000000e+00) (0, 0, 0.00000000000000000000e+00) (0, 0, 0.00000000000000000000e+00) (0, 0, 0.00000000000000000000e+00) (0, 0, 0.00000000000000000000e+00) (0, 0, 0.00000000000000000000e+00) (0, 0, 0.00000000000000000000e+00) (0, 0, 0.00000000000000000000e+00) (0, 0, 0.00000000000000000000e+00) (0, 0, 0.00000000000000000000e+00) (0, 0, 0.00000000000000000000e+00) (0, 0, 0.00000000000000000000e+00) (0, 0, 0.00000000000000000000e+00) (0, 0, 0.00000000000000000000e+00) (0, 0, 0.00000000000000000000e+00) (0, 0, 0.00000000000000000000e+00) (0, 0, 0.00000000000000000000e+00) (0, 0, 0.00000000000000000000e+00) (0, 0, 0.00000000000000000000e+00) (0, 0, 0.00000000000000000000e+00) (0, 0, 0.00000000000000000000e+00) (0, 0, 0.00000000000000000000e+00) (0, 0, 0.00000000000000000000e+00) (0, 0, 0.00000000000000000000e+00) (0, 0, 0.00000000000000000000e+00) (0, 0, 0.00000000000000000000e+00) (0, 0, 0.00000000000000000000e+00) (0, 0, 0.00000000000000000000e+00) (0, 0, 0.00000000000000000000e+00) (0, 0, 0.00000000000000000000e+00) (0, 0, 0.00000000000000000000e+00) (0, 0, 0.00000000000000000000e+00) (0, 0, 0.00000000000000000000e+00) (0, 0, 0.00000000000000000000e+00) (0, 0, 0.00000000000000000000e+00) (0, 0, 0.00000000000000000000e+00) (0, 0, 0.00000000000000000000e+00) (0, 0, 0.00000000000000000000e+00) (0, 0, 0.00000000000000000000e+00) (0, 0, 0.00000000000000000000e+00) (0, 0, 0.00000000000000000000e+00) (0, 0, 0.00000000000000000000e+00) (0, 0, 0.00000000000000000000e+00) (0, 0, 0.00000000000000000000e+00) (0, 0, 0.00000000000000000000e+00) (0, 0, 0.00000000000000000000e+00) (0, 0, 0.00000000000000000000e+00) (0, 0, 0.00000000000000000000e+00) (0, 0, 0.00000000000000000000e+00) (0, 0, 0.00000000000000000000e+00) (0, 0, 0.00000000000000000000e+00) (0, 0, 0.00000000000000000000e+00) (0, 0, 0.00000000000000000000e+00) (0, 0, 0.00000000000000000000e+00) (0, 0, 0.00000000000000000000e+00) (0, 0, 0.00000000000000000000e+00) (0, 0, 0.00000000000000000000e+00) (0, 0, 0.00000000000000000000e+00) (0, 0, 0.00000000000000000000e+00) (0, 0, 0.00000000000000000000e+00) (0, 0, 0.00000000000000000000e+00) (0, 0, 0.00000000000000000000e+00) (0, 0, 0.00000000000000000000e+00) (0, 0, 0.00000000000000000000e+00) (0, 0, 0.00000000000000000000e+00) (0, 0, 0.00000000000000000000e+00) (0, 0, 0.00000000000000000000e+00) (0, 0, 0.00000000000000000000e+00) (0, 0, 0.00000000000000000000e+00) (0, 0, 0.00000000000000000000e+00) (0, 0, 0.00000000000000000000e+00) (0, 0, 0.00000000000000000000e+00) (0, 0, 0.00000000000000000000e+00) (0, 0, 0.00000000000000000000e+00) (0, 0, 0.00000000000000000000e+00) (0, 0, 0.00000000000000000000e+00) (0, 0, 0.00000000000000000000e+00) (0, 0, 0.00000000000000000000e+00) (0, 0, 0.00000000000000000000e+00) (0, 0, 0.00000000000000000000e+00) (0, 0, 0.00000000000000000000e+00) (0, 0, 0.00000000000000000000e+00) (0, 0, 0.00000000000000000000e+00) (0, 0, 0.00000000000000000000e+00) (0, 0, 0.00000000000000000000e+00) (0, 0, 0.00000000000000000000e+00) (0, 0, 0.00000000000000000000e+00) (0, 0, 0.00000000000000000000e+00) (0, 0, 0.00000000000000000000e+00) (0, 0, 0.00000000000000000000e+00) (0, 0, 0.00000000000000000000e+00) (0, 0, 0.00000000000000000000e+00) (0, 0, 0.00000000000000000000e+00) (0, 0, 0.00000000000000000000e+00) (0, 0, 0.00000000000000000000e+00) (0, 0, 0.00000000000000000000e+00) (0, 0, 0.00000000000000000000e+00) (0, 0, 0.00000000000000000000e+00) (0, 0, 0.00000000000000000000e+00) (0, 0, 0.00000000000000000000e+00) (0, 0, 0.00000000000000000000e+00) (0, 0, 0.00000000000000000000e+00) (0, 0, 0.00000000000000000000e+00) (0, 0, 0.00000000000000000000e+00) (0, 0, 0.00000000000000000000e+00) (0, 0, 0.00000000000000000000e+00) (0, 0, 0.00000000000000000000e+00) (0, 0, 0.00000000000000000000e+00) (0, 0, 0.00000000000000000000e+00) (0, 0, 0.00000000000000000000e+00) (0, 0, 0.00000000000000000000e+00) (0, 0, 0.00000000000000000000e+00) (0, 0, 0.00000000000000000000e+00) (0, 0, 0.00000000000000000000e+00) (0, 0, 0.00000000000000000000e+00) (0, 0, 0.00000000000000000000e+00) (0, 0, 0.00000000000000000000e+00) (0, 0, 0.00000000000000000000e+00) (0, 0, 0.00000000000000000000e+00) (0, 0, 0.00000000000000000000e+00) (0, 0, 0.00000000000000000000e+00) (0, 0, 0.00000000000000000000e+00) (0, 0, 0.00000000000000000000e+00) (0, 0, 0.00000000000000000000e+00) (0, 0, 0.00000000000000000000e+00) (0, 0, 0.00000000000000000000e+00) (0, 0, 0.00000000000000000000e+00) (0, 0, 0.00000000000000000000e+00) (0, 0, 0.00000000000000000000e+00) (0, 0, 0.00000000000000000000e+00) (0, 0, 0.00000000000000000000e+00) (0, 0, 0.00000000000000000000e+00) (0, 0, 0.00000000000000000000e+00) (0, 0, 0.00000000000000000000e+00) (0, 0, 0.00000000000000000000e+00) (0, 0, 0.00000000000000000000e+00) (0, 0, 0.00000000000000000000e+00) (0, 0, 0.00000000000000000000e+00) (0, 0, 0.00000000000000000000e+00) (799, 3, 5.00000000000000000000e-01) (799, 3, 5.00000000000000000000e-01) (799, 3, 5.00000000000000000000e-01) (799, 3, 5.00000000000000000000e-01) (799, 3, 5.00000000000000000000e-01) (799, 3, 5.00000000000000000000e-01) (799, 3, 5.00000000000000000000e-01) (799, 3, 5.00000000000000000000e-01) (799, 3, 5.00000000000000000000e-01) (799, 3, 5.00000000000000000000e-01) (799, 3, 5.00000000000000000000e-01) (799, 3, 5.00000000000000000000e-01) (799, 3, 5.00000000000000000000e-01) (799, 3, 5.00000000000000000000e-01) (799, 3, 5.00000000000000000000e-01) (799, 3, 5.00000000000000000000e-01) (799, 3, 5.00000000000000000000e-01) (799, 3, 5.00000000000000000000e-01) (799, 3, 5.00000000000000000000e-01) (799, 3, 5.00000000000000000000e-01) (799, 3, 5.00000000000000000000e-01) (799, 3, 5.00000000000000000000e-01) (799, 3, 5.00000000000000000000e-01) (799, 3, 5.00000000000000000000e-01) (799, 3, 5.00000000000000000000e-01) (799, 3, 5.00000000000000000000e-01) (799, 3, 5.00000000000000000000e-01) (799, 3, 5.00000000000000000000e-01) (799, 3, 5.00000000000000000000e-01) (799, 3, 5.00000000000000000000e-01) (799, 3, 5.00000000000000000000e-01) (799, 3, 5.00000000000000000000e-01) (799, 3, 5.00000000000000000000e-01) (799, 3, 5.00000000000000000000e-01) (799, 3, 5.00000000000000000000e-01) (799, 3, 5.00000000000000000000e-01) (799, 3, 5.00000000000000000000e-01) (799, 3, 5.00000000000000000000e-01) (799, 3, 5.00000000000000000000e-01) (799, 3, 5.00000000000000000000e-01) (799, 3, 5.00000000000000000000e-01) (799, 3, 5.00000000000000000000e-01) (799, 3, 5.00000000000000000000e-01) (799, 3, 5.00000000000000000000e-01) (799, 3, 5.00000000000000000000e-01) (799, 3, 5.00000000000000000000e-01) (799, 3, 5.00000000000000000000e-01) (799, 3, 5.00000000000000000000e-01) (799, 3, 5.00000000000000000000e-01) (799, 3, 5.00000000000000000000e-01) (799, 3, 5.00000000000000000000e-01) (799, 3, 5.00000000000000000000e-01) (799, 3, 5.00000000000000000000e-01) (799, 3, 5.00000000000000000000e-01) (799, 3, 5.00000000000000000000e-01) (799, 3, 5.00000000000000000000e-01) (799, 3, 5.00000000000000000000e-01) (799, 3, 5.00000000000000000000e-01) (799, 3, 5.00000000000000000000e-01) (799, 3, 5.00000000000000000000e-01) (0, 3, 0.00000000000000000000e+00) (61, 3, 5.00000000000000000000e-01) (61, 3, 5.00000000000000000000e-01) (0, 3, 0.00000000000000000000e+00) 
connections (connected_to_neuron, weight)=(0, 1.07723700529532232656e-02) (1, -6.83510350836994632490e-03) (2, 3.93688331448884751285e-02) (3, -8.63122416328455932533e-02) (4, 4.50134991741337180809e-03) (5, 8.10504640908860964077e-03) (6, 3.60880701769589976730e-03) (7, -7.21051468017285118739e-02) (8, 1.80188572814513406350e-02) (9, -8.66172262904055384469e-02) (10, 7.22399075351636867082e-03) (11, -6.87743456735688957204e-02) (12, 6.99652601774895244180e-02) (13, -8.06809158651862201594e-02) (14, 3.48214691377685472973e-02) (15, -8.67897140638795583367e-02) (16, 7.91040716478337430084e-02) (17, -1.26145715488190784948e-02) (18, 9.79570859783108621732e-02) (19, 6.50186683482274901946e-02) (20, -4.48061116039752960205e-02) (21, -1.38195147839315662930e-01) (22, -6.81149691050428884864e-02) (23, -2.02732096084743095010e-02) (24, -7.96512388200641824332e-02) (25, 5.41409840979853104748e-02) (26, -9.85953533353470246148e-02) (27, -2.64208788853720934198e-02) (28, -1.37345386124499757585e-01) (29, -8.01420248867080325939e-02) (30, 5.83970178766846266527e-03) (31, -7.06189282786029372437e-04) (32, -9.92589751864270813941e-03) (33, -4.05028634018048394605e-02) (34, 8.44987921377102386977e-03) (35, -6.61484609748000801366e-02) (36, 6.27067772369945541922e-02) (37, -1.13870914175570131510e-01) (38, -4.99436587109276936003e-02) (39, -3.99678045758078848843e-03) (40, -1.02216695188283759888e-01) (41, 5.74366869398350229914e-02) (42, 1.91706164772809557750e-02) (43, 6.81020715396245812645e-02) (44, -8.22420341900655105238e-02) (45, -6.36366113204500649658e-02) (46, -7.65279771939127023694e-02) (47, 8.52455382271709027897e-02) (48, 2.77979548189137282144e-02) (49, -9.72132517841524657065e-02) (50, 5.41446147955628107051e-02) (51, -1.03143140515683739977e-01) (52, -4.09403582089130010924e-02) (53, -4.52252357351351219616e-02) (54, 1.54267282824564304355e-02) (55, -2.60910618491761794879e-02) (56, -7.18508943332676619509e-02) (57, -1.39570325337665655276e-03) (58, 5.49365547917328375660e-02) (59, -6.46146141180622274325e-02) (60, 5.22012808928001073583e-02) (61, -2.50522389441230168561e-02) (62, 6.39060406551234388983e-02) (63, -6.09921419952529145214e-02) (64, 8.99240610263984246897e-02) (65, -5.04773405881462841616e-02) (66, -5.46725860894052475419e-03) (67, 2.33678615584602192290e-02) (68, -4.39640505637127268490e-02) (69, 4.51232838792072626921e-02) (70, -7.83411261310575229855e-02) (71, -2.23028085382627437594e-02) (72, 3.17983209025485477617e-02) (73, 4.97453308619805190105e-02) (74, -2.54684476288642679120e-02) (75, 4.44673518842261181194e-02) (76, -9.43553927746990372949e-02) (77, 8.98406037058401690798e-03) (78, 1.61583114353413027919e-02) (79, 5.70601459403699343143e-02) (80, 4.16138053512004404966e-02) (81, -3.86559621594347643109e-03) (82, 8.42389861832850556089e-02) (83, -9.73046459306604882844e-02) (84, 8.94088333316341715706e-02) (85, -4.98053383271585131675e-02) (86, -5.27559858295984229759e-02) (87, -8.48146186510647243084e-02) (88, 6.28406134341000371935e-02) (89, -9.37243568265584275911e-02) (90, -2.59241629357506581099e-02) (91, 1.38844549769022457958e-02) (92, 2.08905131132419534523e-02) (93, -7.77609973784057356694e-02) (94, 1.13096501855554004701e-01) (95, -1.44431015658974537530e-02) (96, 2.10098635056747938543e-02) (97, -8.42061255120935166218e-03) (98, -8.83931579099134223654e-02) (99, 9.81146447596951271075e-02) (100, -3.44548228262349168216e-02) (101, -5.67913384922887759521e-02) (102, -1.35172210130700565928e-02) (103, -8.44937124566893932309e-02) (104, -6.67925270660385955734e-02) (105, 4.68378525061477826719e-02) (106, 5.93973442320534436578e-02) (107, -8.30006401618461203684e-02) (108, -4.64313877429451266066e-02) (109, -6.30528513329492272532e-03) (110, 6.27334898677249230836e-02) (111, -9.17934994453453723118e-02) (112, -1.05393675017633747792e-01) (113, 4.35098050509129877228e-02) (114, -7.98339740025668515022e-02) (115, 9.55599451110454578551e-02) (116, -1.12530971179004735117e-01) (117, -2.11644696777105803531e-02) (118, -1.07123430662275906378e-01) (119, 5.07571709736998402662e-02) (120, 4.62635713471954632126e-02) (121, 4.83967709496292784049e-03) (122, -2.52812418479889545325e-03) (123, -8.43063925855355722483e-02) (124, 7.48442784821606726942e-02) (125, -3.01819442726949729860e-02) (126, -1.27776068158906436212e-02) (127, -2.27281034453792017691e-02) (128, -7.09743553729169501798e-02) (129, 4.25835643527896282046e-02) (130, -4.63710168164644456756e-02) (131, -2.22015702060702688203e-02) (132, -1.29097345836582388934e-01) (133, 4.85137388920075657284e-02) (134, 2.17169798876966843593e-02) (135, -1.04449413976192936881e-01) (136, -1.46681531444666102965e-02) (137, -3.00707458941957758713e-03) (138, -9.54033998654695569730e-02) (139, 5.11510787813119136014e-02) (140, -6.91916658568969833443e-02) (141, -9.02674278899413401467e-02) (142, -1.01916628517176727220e-01) (143, -8.61746291582851514645e-02) (144, 6.55094480444931015484e-02) (145, -9.08751882052394877043e-02) (146, -1.02840582989578779860e-01) (147, 5.96261314387478424948e-02) (148, -7.10565948673977615217e-04) (149, -8.06443514788212634237e-02) (150, 4.01192697591417971048e-02) (151, -7.89498000814827238791e-02) (152, 2.96114927994746736373e-02) (153, -6.18275310597025604120e-02) (154, 1.27946287582078998407e-02) (155, -5.11564696276387356755e-03) (156, 6.27470667020583600104e-02) (157, -7.56014651404005311175e-02) (158, 5.61457348206010967151e-02) (159, 4.71793657195928375914e-02) (160, 8.22101325233025176376e-02) (161, -8.72825645730354038321e-02) (162, -4.31576382582556580814e-02) (163, 4.70906128044052130210e-02) (164, 1.12793910772073679993e-01) (165, -1.27154811869390454993e-01) (166, 5.95916818305408865775e-02) (167, -1.57392515761154844212e-02) (168, -1.00743270049324777117e-03) (169, -1.27980534991221639451e-01) (170, -1.61181686221526614122e-02) (171, 1.86453634688756864080e-02) (172, -1.21199872160729263393e-01) (173, -1.11926442601099785518e-02) (174, 8.46628594717763333088e-02) (175, 7.54600528064396647299e-02) (176, -1.45569201176991933760e-02) (177, 7.96251940091304150071e-02) (178, 2.96352302927149514888e-02) (179, -8.99810859336518664708e-02) (180, -6.07157076158144973221e-02) (181, -3.83338550923781676283e-02) (182, -3.14075567598279814518e-02) (183, 5.25293854491717809863e-02) (184, 7.43433345455216804121e-02) (185, 7.71711930315343158648e-02) (186, -5.75093018727349594710e-02) (187, 9.92371380222131435622e-03) (188, -7.72651706523023590334e-02) (189, -5.85339190878377893523e-02) (190, -1.80690688516696035260e-02) (191, 7.31291521737042760076e-02) (192, -5.20841722015292427073e-02) (193, 4.15878455876852667905e-02) (194, 8.98651353561907562106e-02) (195, -6.10653211466078704728e-02) (196, 1.27753806469947800428e-02) (197, 3.21921019241441855319e-02) (198, 4.59074492941037148180e-03) (199, -9.91324716921642701273e-02) (200, 5.53917926764113804916e-02) (201, -6.49469962063270872532e-02) (202, -1.01850122796489694910e-01) (203, 3.74875371249940858576e-02) (204, 6.00108098345306997801e-02) (205, -1.19157547167879476757e-01) (206, 2.33541359459438109536e-02) (207, -5.41583824646583444906e-02) (208, -9.15284804690111725156e-02) (209, 1.67537520045706110443e-03) (210, -1.48841167207603604361e-02) (211, -7.30223506875823796802e-02) (212, -1.27842528539387656483e-01) (213, 7.50348849853567506640e-02) (214, -7.44518665156286701956e-02) (215, 2.37041812231341339490e-02) (216, 1.14086060839271928417e-03) (217, -4.80675632215747036802e-02) (218, -5.06250245895310604927e-02) (219, 2.09317781360117555201e-02) (220, -3.77853756413023839783e-03) (221, 6.03032292184435686488e-02) (222, 6.29725784503633867484e-02) (223, 6.32125004811344981537e-02) (224, 6.86430993443593595593e-02) (225, 3.12293929453570789923e-02) (226, -8.63732479859768836894e-02) (227, 1.43407117798355267929e-02) (228, -3.92476082083144453549e-02) (229, 3.98462394841262723677e-02) (230, -7.39967119767281633624e-02) (231, -5.59118681530038630356e-02) (232, -9.11091039139035607786e-02) (233, -5.51613787203351982336e-02) (234, -5.07139114635220752958e-02) (235, 6.58429766784145997782e-02) (236, -7.62360299314309014518e-02) (237, -9.58342598490927316535e-02) (238, -9.55214655889961988811e-02) (239, -9.05424931400813787219e-02) (240, 3.09972963211452255672e-02) (241, 2.38173557732727636527e-02) (242, 8.38927238037673675408e-03) (243, 3.28690211060422218803e-02) (244, 2.86338838318429579621e-02) (245, 1.17807464418266168854e-02) (246, -2.11853255571351310749e-02) (247, -5.13847755333611613815e-02) (248, 8.29091914316322509126e-02) (249, 5.00368458264163831761e-02) (250, -7.75745258736465076455e-02) (251, -4.53817995596889674909e-03) (252, 3.50140815603799879230e-02) (253, 8.86767578870197026308e-02) (254, -6.24425646189578735512e-03) (255, 2.46840043571736542094e-02) (256, -1.11116734269010950659e-02) (257, -2.91927032460246350942e-02) (258, -6.39621857178335889715e-02) (259, -1.35244846865266860059e-01) (260, -3.44951453185056641781e-02) (261, -1.89304688910436197391e-02) (262, -4.89174751931108139913e-02) (263, -2.55080146906672064477e-02) (264, 7.62145377787694783267e-02) (265, 3.60551073497468281548e-03) (266, -4.06225528470462102226e-02) (267, -9.24895836493860312721e-02) (268, 8.21178358022733737367e-04) (269, -4.26039771014306012376e-02) (270, -1.17124036434569627624e-02) (271, -3.24313825739221198163e-02) (272, -8.87992224563922127878e-02) (273, -8.38674708646825473046e-02) (274, -8.12109196764341512154e-02) (275, 1.98509261968266015330e-02) (276, 7.13323116375159677754e-03) (277, -3.34059532637331728366e-03) (278, -1.08437405514459045408e-01) (279, 7.85929565880961848723e-03) (280, 1.03211665998711541598e-02) (281, -6.89638163830382372455e-02) (282, -6.45362418184253910924e-02) (283, -6.97358831417182745138e-02) (284, -1.42485279062321661125e-02) (285, -7.74965836025922651109e-03) (286, 5.32456437829055481692e-02) (287, 5.18534350693968110191e-02) (288, -8.45399549052691240414e-02) (289, -5.96015853181710228426e-02) (290, 7.03138765090572520622e-02) (291, -2.99555159124448681929e-02) (292, 3.69937847131786498589e-02) (293, -6.11420417928420154019e-02) (294, 8.44149801577057240509e-02) (295, 2.81332886095555069830e-03) (296, 2.60499780555488204270e-02) (297, -9.55778235906044326686e-02) (298, 1.24306166774243494894e-02) (299, -4.51180254583891521269e-02) (300, 7.71312584077852702452e-03) (301, -7.67764180295201353887e-02) (302, 3.68547075185143152565e-02) (303, 1.09153542777875381398e-02) (304, -9.86233608906458012258e-04) (305, 3.41087175558603961090e-02) (306, -5.18679801175317908846e-02) (307, -1.15219847767177210884e-01) (308, -5.78791723774216906873e-02) (309, -4.32655813643587142114e-02) (310, 2.93519153452166323137e-02) (311, 5.34460856529370975654e-02) (312, -8.42363135554481537795e-04) (313, 6.98086396628458255575e-02) (314, -7.15169117076733390492e-02) (315, 5.58104527773087485953e-02) (316, -2.47182766720123008042e-02) (317, -9.26154211749148914556e-02) (318, 1.11283713334967542669e-02) (319, -1.68356572551449021335e-02) (320, -4.62121385414769880740e-02) (321, -8.35302696709838005118e-03) (322, 7.22045397784407683162e-02) (323, -1.05395970967343169389e-01) (324, 9.04179947090840013812e-02) (325, 2.05327951835551220094e-02) (326, 6.30174593000656316916e-03) (327, 2.72447920490870472421e-02) (328, 6.25714035548074892779e-02) (329, -4.67964149857812150568e-02) (330, -1.14103165977201187475e-01) (331, -1.72458932732785230613e-02) (332, 1.13087848385335417584e-02) (333, 4.39342770843859503627e-02) (334, -5.32459254747032137423e-02) (335, 8.68298383643671123355e-02) (336, -2.12148677773960764315e-02) (337, 1.50547122202746904568e-02) (338, 6.66238905085275584517e-02) (339, 3.58236181626137364931e-02) (340, 8.38867256952006146165e-02) (341, 1.00108014065484821065e-02) (342, 5.56173970497133175056e-03) (343, -2.70910407815995934663e-03) (344, 3.71251976544647102618e-02) (345, 2.18729419855391085670e-02) (346, -4.64851274483950374639e-02) (347, -9.80922439732590384365e-02) (348, 2.42299974575382881525e-02) (349, -9.95247644245213364256e-02) (350, -5.23564617781019196741e-03) (351, -9.18939013555768874353e-02) (352, 2.14181978388506728816e-02) (353, -8.20649681485750848164e-03) (354, -5.21165458582343796290e-02) (355, 3.50734729543748053812e-03) (356, -8.70819695796267723154e-02) (357, 5.62063850332086764605e-02) (358, -8.25312976427534372714e-02) (359, -9.25280234057263284431e-02) (360, -8.66024066888129717690e-02) (361, -6.51346862803461601477e-02) (362, 7.10382252496180826955e-04) (363, 3.34280943288021228921e-02) (364, 1.22660985716418091673e-01) (365, 2.98287746347285498416e-02) (366, 2.11941644736363780932e-02) (367, -2.78070952120815818864e-02) (368, -6.53439043988543466490e-02) (369, 1.26802998112977034079e-02) (370, -7.73739340027378430520e-02) (371, -5.43768949996715558748e-02) (372, -4.35455876024053861739e-02) (373, 2.16805545658691131705e-02) (374, 2.91438851287964297010e-02) (375, 6.74712333226489963112e-02) (376, -4.45465088767721395513e-02) (377, -1.01236380232136879975e-01) (378, 6.97036079617498333105e-02) (379, -9.74372599288747115454e-02) (380, -8.11172620240167702166e-02) (381, -1.77702347716517591869e-02) (382, -8.47084022945322340226e-02) (383, 5.23810862838928054108e-02) (384, 8.42817979615620299638e-02) (385, -5.36918013207426103595e-02) (386, -5.80003571093267167313e-02) (387, -9.48554275959872655877e-02) (388, -9.39925039860149830195e-02) (389, -3.49387531784249860678e-02) (390, -6.94193889447174555807e-02) (391, -5.05680117779079771334e-02) (392, 1.48324643883102590125e-02) (393, 3.46668024813385142191e-02) (394, -9.87557970445517019353e-02) (395, -2.35075042023971019292e-03) (396, -2.13351609502132888441e-02) (397, 3.34303898258735895932e-02) (398, 7.26112425965977081876e-02) (399, 1.77133326097502728780e-02) (400, -2.82227025436174866480e-02) (401, -9.80747691422109851844e-02) (402, 6.03257297710120266032e-02) (403, 4.25624780048854470249e-02) (404, 3.59687012500172417773e-02) (405, 2.27641860717041656648e-02) (406, 7.79945544297126844985e-03) (407, -5.99802587926944463792e-02) (408, 2.57589631942176863766e-02) (409, 3.56854538428903883540e-02) (410, -5.90384200475982251488e-02) (411, 8.98550131816024805209e-02) (412, -6.73643500555118068807e-02) (413, -1.21285098932418108041e-03) (414, 4.78621806925009496414e-02) (415, -6.73108687334835753546e-02) (416, 5.85455609648784583432e-02) (417, -8.20711988663730407367e-02) (418, -3.61270125912224321363e-02) (419, 8.23681048582077524056e-02) (420, 2.20435830980491992426e-02) (421, -2.77889771488300718269e-03) (422, -5.07006213893517118652e-02) (423, -6.67689221813288630303e-02) (424, -5.66472414432623930236e-02) (425, -3.93578684360297720302e-02) (426, 6.13068014450123960346e-02) (427, 1.94433290227000871164e-02) (428, -9.19040536063365220976e-02) (429, 3.48796763342374346872e-02) (430, -2.08258014938413026085e-02) (431, -2.88042906782763723228e-02) (432, 4.64255561620873918871e-02) (433, -6.71176956214993014616e-02) (434, -6.97755886003369740767e-02) (435, 1.33531344371178098407e-02) (436, 5.14427751752311382405e-02) (437, 8.22784896475564492269e-02) (438, 3.78517331238399229454e-02) (439, 1.13856626213470358416e-02) (440, -8.02157487529805805770e-03) (441, -8.21147932286041826178e-02) (442, -5.74114822718551666425e-03) (443, 5.77366357496530355209e-02) (444, 1.75783143694032729931e-02) (445, -5.42292745823788890913e-02) (446, -8.34466669743674088755e-02) (447, -3.85514685166777823500e-02) (448, 1.32664673067356356922e-02) (449, -4.97971228211654196039e-02) (450, -1.72612703897593866564e-02) (451, -9.68242262325827163227e-02) (452, 1.01878696793928080755e-01) (453, 5.43939176437142814929e-03) (454, -2.31441145209949168324e-03) (455, -7.94676600938744037705e-02) (456, -8.46281422397551497117e-02) (457, -9.25889432019005031993e-02) (458, 8.29161300783884114285e-02) (459, -7.58878416477203471269e-02) (460, 8.21072781862475647996e-02) (461, -4.22876989899437297216e-02) (462, 9.42695507458640204190e-03) (463, 5.37803509288652253906e-02) (464, -2.12207528949277498057e-03) (465, 5.77811349052469100385e-02) (466, -1.59491854335029464851e-02) (467, -3.21580097834159583936e-02) (468, 3.65625870703663313765e-02) (469, -5.68119716811534281042e-02) (470, 8.69942787404767298165e-02) (471, -3.52200515359283039540e-02) (472, -5.88016849138677313857e-02) (473, -9.80159045042748415522e-03) (474, -6.59866239537686138927e-02) (475, 5.93635975056207507161e-02) (476, 6.13404050799214034528e-02) (477, -5.21442044141123273171e-02) (478, -5.86394808390599681092e-02) (479, -2.67757407023144038127e-02) (480, 3.88827880574603712560e-02) (481, 8.81544323037319541014e-03) (482, 1.73169020216876819347e-03) (483, 4.02135566189676454951e-02) (484, -5.75379842885937603514e-02) (485, -1.08395915207109491685e-01) (486, 8.99852769482019920755e-02) (487, -5.24499505583677777532e-02) (488, -5.89719156186974471923e-02) (489, 7.91269498821667582877e-02) (490, -2.51140105832675722408e-02) (491, -6.65456101098722968556e-02) (492, -5.56327268515921860570e-02) (493, 1.02542730290717545860e-01) (494, -1.10693315687037274753e-01) (495, 5.03760591609634378329e-02) (496, 6.69704568603629035728e-02) (497, -2.63547141794687397875e-02) (498, -7.52402587378984549771e-02) (499, 1.90872191181110859026e-02) (500, 1.51557969565308814364e-02) (501, -7.79821167588390234959e-02) (502, 9.23534874843141978529e-02) (503, 7.45275220915412733858e-02) (504, 3.59137187757242806740e-02) (505, -7.80783490236331839673e-02) (506, 3.13208660863701499055e-02) (507, 2.37571245431476632537e-02) (508, -3.63578882689834098629e-02) (509, 3.28288990332993024790e-02) (510, -1.11401736296913550506e-01) (511, -8.84894716850957024912e-02) (512, -4.64596874391342840038e-02) (513, -5.83878534062308180569e-04) (514, 3.55975835049089500695e-02) (515, -6.39186267353246580225e-03) (516, 2.67021202943855846812e-02) (517, -1.70683441467637392330e-02) (518, 6.70400655253111793508e-02) (519, -1.24819678993322732974e-01) (520, 1.73186360685781103042e-02) (521, -6.81925455085386211795e-02) (522, -7.60567957010765127723e-02) (523, 7.08747926728099247873e-02) (524, -7.66355155428154050101e-02) (525, -6.68625784841091058697e-02) (526, 6.88386815927882478316e-02) (527, -8.47842922968860129851e-02) (528, 5.17307190418707374402e-02) (529, -9.65771882647884910567e-02) (530, 2.92386815300863106559e-02) (531, -2.14921427556613552079e-02) (532, -5.16080633975229616239e-02) (533, -4.96756451686306780419e-03) (534, -7.24712111459348690135e-02) (535, -1.04169801834147660036e-01) (536, 2.67015922021078440374e-02) (537, 5.99042206977183910865e-02) (538, 2.71550364978049053877e-02) (539, -8.53375459710021544435e-02) (540, 1.71395955629575109935e-02) (541, 4.83395852618025007041e-02) (542, -5.53242299154778904846e-02) (543, -1.10920643521467299220e-01) (544, -3.63832732096404853558e-03) (545, -8.96903506433888164651e-02) (546, 1.95960622596722915112e-02) (547, -6.22934736923796694708e-02) (548, 7.18225973423054497857e-02) (549, 1.47224292144535213317e-02) (550, -6.47102242099454466606e-02) (551, 3.57296946494649048098e-02) (552, 1.03022920581043259114e-01) (553, 9.10600534010183419731e-03) (554, 1.27210335868515149460e-02) (555, -5.26686870908701851302e-02) (556, 6.99955646301452794056e-02) (557, -5.68191012286544464005e-02) (558, -5.84510128301127876438e-02) (559, 9.37773029505177373177e-03) (560, -5.52814505417013324351e-02) (561, 6.17115501848495978665e-02) (562, 7.49957930680167639270e-02) (563, -7.91078200423625532700e-03) (564, -5.70501014094396893817e-02) (565, -8.08595869703403885564e-02) (566, -1.88490845119527843099e-02) (567, -1.06519176335554230373e-01) (568, -8.07170671328700101155e-02) (569, -7.16362976431977743763e-02) (570, -7.62553915674085147636e-02) (571, 2.83672419219164508031e-02) (572, -1.28804401058421447157e-01) (573, -1.43283045847673005946e-02) (574, 2.53567535771304086722e-02) (575, -2.58302217622198258817e-02) (576, -4.25457695247942555700e-03) (577, -2.16491113435678117494e-02) (578, 3.34769557273328494107e-02) (579, -3.28268822839006130243e-02) (580, -9.31237508204935393596e-02) (581, 5.52588466649203413628e-02) (582, 7.54742202126693767505e-02) (583, -1.09955778388596436823e-01) (584, -2.33357478430415710147e-02) (585, -3.61831186025299202796e-03) (586, -4.67504690931237337770e-02) (587, -5.85229026925263434711e-02) (588, 3.71688587903041406380e-02) (589, -9.72607274722188559768e-03) (590, 7.23861218728552441304e-02) (591, -1.17886414930346669627e-01) (592, -3.07137086161380148952e-02) (593, 6.59043639994277147265e-02) (594, -1.28306623341979697019e-03) (595, 6.75576531778541017337e-02) (596, -9.09682974897318558094e-02) (597, -1.01117756443520306897e-01) (598, 9.70946786229582720074e-02) (599, -5.64226264827066351093e-02) (600, -5.57951228911099730845e-02) (601, -4.31864283609907431694e-02) (602, 8.87662826524148601548e-02) (603, -4.58092264840980548102e-02) (604, 3.86193324968992154900e-02) (605, 2.19576766791957818381e-02) (606, 6.43790238540431769554e-02) (607, -6.04715274541308411838e-02) (608, -6.77338507759795566132e-02) (609, 1.07001373652150025273e-02) (610, 4.95696380462917196574e-02) (611, -5.89471197427311813244e-02) (612, -2.24323091764697547107e-03) (613, 4.83805712768925547107e-02) (614, -4.05510115870809581540e-02) (615, -9.69369470950432743361e-02) (616, -5.60870997582534128179e-02) (617, 2.65178441021867682126e-02) (618, -3.96442840893510908828e-02) (619, 7.87524907168626331355e-02) (620, -5.72960044768367066093e-02) (621, -4.52584237245309481401e-02) (622, 1.02488441523108722575e-01) (623, 4.01047860920578161381e-02) (624, -7.23709203066889572575e-02) (625, -6.85210791201705787107e-03) (626, 1.47016841435916138792e-02) (627, -7.01381310988631462289e-02) (628, 6.93125078072793880668e-03) (629, 8.28953198297798649063e-03) (630, -6.24169613762262653900e-03) (631, 7.22522067975557014119e-02) (632, 5.61666890022251008574e-02) (633, -1.55723268787970794275e-02) (634, -5.98622418864116212500e-02) (635, 2.58482289607387533126e-03) (636, -7.26179482161267431106e-02) (637, -9.00638696906062019565e-02) (638, 6.70037629298935316635e-02) (639, -4.83415253072882189489e-02) (640, 1.75175594858912181406e-02) (641, 1.53091385593325871040e-02) (642, -3.74974872917201813502e-03) (643, -7.96548503100786287057e-02) (644, -3.98454360975445814885e-02) (645, 3.12022156692983894388e-02) (646, -1.00195225460140008300e-01) (647, -2.34236053005174062192e-02) (648, -3.22750096446153197927e-02) (649, -3.91103004343723303915e-02) (650, -3.70219099433012413525e-02) (651, -4.05715398488504762342e-03) (652, 5.89979037840124981296e-03) (653, -3.88903151693443943637e-02) (654, -6.85563020937883654815e-02) (655, 4.53131434331782295688e-02) (656, 7.56911369217815876986e-02) (657, 6.01796141454866290177e-02) (658, -8.95561668046369330209e-02) (659, -6.21969292815753495990e-03) (660, -1.23405733045538045650e-02) (661, 1.67544305955866536240e-02) (662, -1.65186935208357747740e-02) (663, -4.37881070675918276924e-02) (664, -8.70868635659037548802e-02) (665, 1.74017017183066662056e-02) (666, 6.90451504414393568698e-02) (667, -5.81182393621864495925e-02) (668, 4.81097173665444022284e-02) (669, 2.54903845935418489621e-02) (670, -1.17831813076676762686e-02) (671, -6.43741353998616705478e-02) (672, -5.45617783595408328834e-02) (673, -8.56581187947168670727e-02) (674, -3.88826970175757263837e-02) (675, 3.43101347648219756614e-02) (676, 3.58998251780989971471e-02) (677, -5.04686184645250588560e-03) (678, -8.30217052297576169062e-02) (679, -7.17151025294264637955e-02) (680, -1.14117999164342176499e-01) (681, 2.86192628624239034721e-03) (682, 5.68999549575296553749e-02) (683, 2.24714018040447181812e-02) (684, -1.10951669651533413319e-01) (685, -8.26529345447045982187e-02) (686, -4.27426844309885187179e-02) (687, 1.15281208402585835793e-01) (688, 8.85412661953331181497e-02) (689, 3.33575797965057971317e-02) (690, -4.00495499618379584977e-03) (691, -3.28900695593502268022e-02) (692, -5.75571253456623119216e-02) (693, 8.89362773386887656146e-02) (694, 5.20986832985688014253e-02) (695, -2.82569267925545514197e-02) (696, 1.53816518820859438749e-02) (697, 2.53777696193335615404e-02) (698, 3.90605442289409902912e-03) (699, -5.71217231344781292690e-02) (700, -2.04171310143760539879e-02) (701, -6.87959824596728747315e-02) (702, 1.07671797577701174736e-02) (703, -1.69951168591357974422e-03) (704, -7.58782119334258098320e-02) (705, -9.69077149360169365355e-02) (706, -8.11593304992602737613e-02) (707, -1.16150683780487137819e-01) (708, 2.49494728651045057088e-02) (709, -6.83893003621899864264e-02) (710, -9.30543400359561956314e-02) (711, 2.05377067640294570794e-02) (712, 5.67736378998044757815e-02) (713, 9.36698506494844790327e-02) (714, -4.60299264301625710161e-02) (715, 5.37054601594959546418e-02) (716, -9.53703236794165576384e-02) (717, 4.00278310046634014374e-02) (718, 4.55999208911007786194e-02) (719, -1.00738639878568098096e-01) (720, -2.51654989687179198032e-03) (721, -9.34966415217310525820e-02) (722, -1.49505350076464017806e-02) (723, 3.73953444004018614732e-02) (724, -7.48181339612365159386e-02) (725, -5.71779284083269029315e-02) (726, -6.47150830483637085067e-02) (727, 3.64980443006858723543e-02) (728, 6.61868767245630817975e-02) (729, 6.99883804236338946669e-02) (730, -1.00486590398986996853e-01) (731, -7.67689041572034019945e-02) (732, -9.82710296692937135266e-02) (733, 1.40197297106291213914e-02) (734, 2.23376743181331952059e-02) (735, -6.02707405360714404408e-02) (736, 2.42023946265073203188e-02) (737, 4.52524874224601303396e-02) (738, -4.11152123777315942066e-02) (739, -5.99289069812935365489e-02) (740, -9.39829998156545137755e-02) (741, -7.38910013934815541881e-03) (742, 5.41728657948143677014e-02) (743, 4.86411852238404981974e-02) (744, -3.10211222594903024419e-02) (745, -8.96514744943096297813e-02) (746, -4.23934266721065228928e-03) (747, -1.48613594561407009326e-02) (748, 7.65531946735262258663e-02) (749, -3.91185172702559064151e-02) (750, -1.27965396485307542768e-02) (751, -3.02454014293493562981e-02) (752, 1.20979732832400318360e-02) (753, 9.13759325755278545289e-02) (754, -6.18798187354214074274e-02) (755, 5.04812240854230209752e-02) (756, -5.28914647767567344672e-02) (757, -2.31620546055337078739e-02) (758, -1.16279908997298873224e-02) (759, -8.54922405766401355409e-02) (760, -4.92976676755791584639e-02) (761, -7.50888557677483348823e-03) (762, -5.38260450847619850712e-02) (763, -3.65067497494833068106e-02) (764, -1.08445245515977381490e-01) (765, 6.61842566698635920153e-02) (766, -2.94268029754198327461e-03) (767, 2.54850714634212403842e-02) (768, 1.13998371111037524045e-02) (769, 4.37321581791752303503e-02) (770, 5.94179255921563898024e-02) (771, 7.66255278507745659494e-03) (772, -7.20420846001917775103e-02) (773, 2.50210157289250216539e-02) (774, -1.58315227252502424560e-02) (775, 5.21049835783897533070e-02) (776, 7.36850680172664307399e-02) (777, -8.15921530944234557614e-02) (778, -6.47562762943449943265e-02) (779, 5.80725417419345260606e-02) (780, -1.78828339733313537718e-02) (781, 2.75854752608609005149e-02) (782, -7.63155267626961231198e-02) (783, -1.25936290715708859578e-01) (784, 7.00675177307410503025e-03) (785, -2.94168908838339619727e-02) (786, 7.99507546182666971324e-03) (787, 5.94959443582897887226e-02) (788, 3.29466394443617485721e-02) (789, -5.89243888481360000853e-02) (790, 1.66610856512875195323e-02) (791, 5.19792347790806255614e-02) (792, -2.18937445155166360289e-02) (793, -1.16481165586634335951e-01) (794, -8.41211685896223054781e-02) (795, -9.55048631826213578755e-03) (796, 7.36179255546192817805e-02) (797, 5.68904031188725706203e-02) (798, -7.63614031454735164850e-02) (0, -1.34400196175479165472e-02) (1, -6.14538431145500926855e-02) (2, -4.31813647257565380588e-02) (3, -6.48595312727481415616e-02) (4, 1.56874983968915221455e-01) (5, 1.01353491296779507636e-01) (6, 1.84193381599713455754e-02) (7, 2.77726519906705028584e-02) (8, 8.33587000949611439671e-02) (9, 7.34270841860536344070e-02) (10, 6.49047863634429345048e-02) (11, 1.91558315715154416428e-03) (12, 1.09199382651705180491e-02) (13, 3.73109394983904621435e-02) (14, 1.03586047107699252834e-01) (15, 5.16184619136457259470e-02) (16, -4.99539947101801037888e-02) (17, -4.28655862445419325035e-02) (18, -8.03614403985394160079e-02) (19, 7.44906467042290437730e-02) (20, 9.14242342114448547363e-02) (21, 1.44439410362557675571e-03) (22, 1.39750017521210939675e-01) (23, 2.12429749194717248581e-03) (24, -5.88822018154026641246e-02) (25, 2.54059383426481722942e-03) (26, -1.90183583264302263904e-01) (27, -1.47075442712743892359e-01) (28, -1.18167690642685986602e-02) (29, 2.78853968814900751716e-02) (30, -1.12635578364559067049e-02) (31, -8.90070851975403032341e-02) (32, -4.31937906924773906692e-02) (33, 4.59852018299370442905e-03) (34, -6.19538617677281577834e-02) (35, -7.14004362697601979715e-02) (36, 1.39019802173457676653e-02) (37, -1.05957668674158275723e-01) (38, 8.09592351011335364941e-02) (39, -5.29291405638203441009e-02) (40, -5.55190588661939737891e-02) (41, 5.26993692564696539216e-02) (42, -7.60679727561870827612e-02) (43, 4.93955994356524291655e-02) (44, -1.12734113066414232129e-01) (45, -2.82619566103760114228e-02) (46, -6.60680034891868023239e-02) (47, 2.63254716386873838241e-02) (48, 2.41742823336853936145e-02) (49, -7.92972939633260903713e-03) (50, -1.73887085917573507021e-02) (51, 1.18822507495792168558e-02) (52, -3.53113563043466541225e-02) (53, -2.81850413396573309943e-02) (54, -6.39754798806262681143e-02) (55, -1.48427878818572389630e-01) (56, -1.46185800907573687502e-01) (57, -2.40370576691118081891e-02) (58, -1.93192942386710246605e-02) (59, 4.44991042784977867269e-03) (60, -1.34292570715751329730e-02) (61, 6.22485319545157192445e-02) (62, 2.21678798239083839350e-03) (63, 1.55845697896756126000e-02) (64, -6.00465140500190883155e-02) (65, -5.77586166685482849115e-02) (66, 5.13574085368941543606e-02) (67, -6.22926447469454754036e-03) (68, 2.84062577794881206128e-02) (69, 9.36687396182866310879e-02) (70, 6.93351542279967009152e-02) (71, 7.87466438831664061748e-02) (72, 1.64519284268471351063e-02) (73, -3.52070308496511830132e-02) (74, -6.95343667077813563232e-03) (75, -1.06502652994994478908e-01) (76, -1.05595548239042647670e-02) (77, 8.00772316566839524599e-03) (78, 5.72302297238991494743e-02) (79, -1.13000886919384493923e-01) (80, 9.51072967473037267361e-02) (81, -1.15674008757940913195e-01) (82, -2.81886663490226903328e-02) (83, -4.71208322715437055717e-02) (84, -6.41765219598037367499e-02) (85, 7.62636967247055513885e-02) (86, 4.89457316702572912091e-04) (87, 3.54570958474199060539e-02) (88, -6.04048566090696348319e-02) (89, 1.37797075359428866648e-01) (90, -5.53077134529094058268e-02) (91, -3.12013901262579579354e-02) (92, 9.63227513261352974450e-02) (93, -8.62953295052100027851e-02) (94, -1.26714816754479597805e-01) (95, -5.44280208239766791212e-02) (96, -2.24809686720231736989e-02) (97, 5.83003274014397138147e-02) (98, 6.13875581702649358862e-02) (99, -1.11124920920700920313e-01) (100, 3.72744388867555578870e-02) (101, 1.23543662164963597740e-03) (102, -1.37895008737696139756e-01) (103, 1.32339652520156517146e-02) (104, -1.58643347509097504267e-01) (105, 3.74973124614280464706e-02) (106, 8.29726695910187050931e-02) (107, 5.04535784184707916666e-02) (108, -7.71527180391094573320e-03) (109, 4.94466360983756708647e-02) (110, 6.01406153854474115339e-02) (111, 5.66711796546157369620e-03) (112, 3.10692203519699339243e-02) (113, -6.56403315868030468039e-02) (114, 3.13935380096923219440e-02) (115, -4.34657215095797661020e-02) (116, -1.02683012189520347923e-01) (117, -7.33001984663595720568e-04) (118, 1.08619162450424536215e-01) (119, -2.53247553173483706812e-02) (120, -6.82754408152192737713e-02) (121, -1.20074706710608061777e-01) (122, -1.54557611298405585959e-02) (123, -4.90083852429191654809e-02) (124, -1.20623199996705468551e-01) (125, 6.37708437670574390665e-02) (126, 7.71658368390999993558e-02) (127, 6.22624991318326409528e-02) (128, 3.74729377396241999931e-02) (129, 3.26879299313568918994e-02) (130, 9.37292533632268776156e-02) (131, -4.45628499397471497523e-02) (132, -1.52589808592576616636e-02) (133, 9.14750070073091364753e-02) (134, 2.48614328588589485192e-02) (135, -3.54551302461102307850e-02) (136, 3.29672848093826229010e-02) (137, 2.51736548142473190448e-02) (138, -8.57135455205502161391e-02) (139, -5.27106061741395501286e-02) (140, -7.64916047670858023633e-02) (141, 1.40619829663794753544e-02) (142, 5.01133436396855331402e-03) (143, -6.34835915191629407417e-02) (144, -3.52929943166226944840e-02) (145, 6.03413579125585083939e-05) (146, 4.36669507314211974291e-02) (147, 7.06424984945200201691e-02) (148, -8.12187087125044310243e-02) (149, -3.93205541218727503555e-03) (150, -7.06687340870908314860e-02) (151, 1.37234281788457639084e-02) (152, 2.20820695145731299425e-02) (153, 9.73848688961445330126e-02) (154, -5.97230719811578207590e-03) (155, 7.57105057629962330257e-02) (156, 1.57341889646798356595e-02) (157, -5.43609925357085022046e-02) (158, 4.79244757772445267863e-02) (159, -2.51577287045118844558e-03) (160, -7.03752346685398710857e-02) (161, 4.14224456337548060242e-03) (162, -3.97237847012519296186e-02) (163, 1.13753104790002036728e-02) (164, -6.22417126573600945627e-02) (165, 1.57176241385717542498e-02) (166, -1.83491669579503467388e-03) (167, -5.13024828520127207376e-02) (168, -2.61927201860962174940e-02) (169, -5.62354487678733572925e-03) (170, -5.99728044361221099973e-03) (171, 4.52601203903562343545e-02) (172, 6.33132632904069986290e-02) (173, -4.70021856995731235340e-02) (174, -4.36774839108127685416e-02) (175, 4.65298248217780457958e-02) (176, 8.17574865794958305365e-02) (177, -1.10928184829261824995e-01) (178, 4.84358804768131867569e-02) (179, 8.40998035480177430490e-02) (180, -5.38450837715785737836e-02) (181, 6.20052621881837170981e-02) (182, -2.12162569861614087874e-02) (183, -5.56845705400658766426e-02) (184, -5.45058952669865495744e-02) (185, 8.88030738982820283534e-02) (186, -5.13082390657181169891e-02) (187, -7.59778472105142581999e-03) (188, 1.90136814072790170937e-02) (189, 7.76113744938977806465e-02) (190, 3.26343935260942144549e-02) (191, 5.35940596181171333146e-02) (192, 1.74872422539447056056e-02) (193, -3.23700104328864951553e-02) (194, -1.57541216042286658094e-01) (195, 2.59493848603684490461e-02) (196, 1.47203578963137543534e-01) (197, 1.95141282250189396219e-02) (198, -9.52910701031934037619e-02) (199, 2.85314499227455886654e-02) (200, 3.46652806298875376667e-02) (201, -2.03211278802970032875e-02) (202, 9.80797252369657868165e-02) (203, 1.40971840029587569543e-01) (204, -1.10182316077128056309e-01) (205, -1.27672989877388246005e-02) (206, 1.13801704906553668994e-01) (207, 1.34456971055228816092e-02) (208, -4.96183454526334596912e-02) (209, -4.58798991489930349519e-02) (210, -6.03061142420170184786e-02) (211, -9.01537916061331268125e-02) (212, 1.53235102265861840992e-02) (213, 2.86754411154351192270e-03) (214, -1.28269480313730782628e-01) (215, 1.13521565789224856968e-01) (216, 1.87413587938681826250e-02) (217, -6.76643469568012374121e-03) (218, -3.66693815041615883699e-02) (219, 1.40138324913807205130e-01) (220, -9.72567809305505265316e-02) (221, 2.14720666784915317771e-02) (222, 1.52818662235307840130e-02) (223, 2.11433050612266949797e-02) (224, -1.52382887746886658276e-01) (225, -1.28227367691969296182e-01) (226, 1.15534751841251739912e-02) (227, 1.20011625318089995562e-01) (228, 2.00555478171940589072e-02) (229, 4.66692236205527438697e-02) (230, -9.21427414609826689329e-02) (231, -3.57117609216081460799e-02) (232, -5.10749067959726452126e-02) (233, 1.10906967166966408112e-01) (234, -1.13982096240301283840e-01) (235, 7.48086003951116268462e-02) (236, 6.40614620690506259004e-02) (237, -1.34244256427744901305e-02) (238, -3.62389729026387028693e-03) (239, 1.58675361216417315502e-01) (240, 4.47203384906804321530e-02) (241, -4.15125343951045500113e-02) (242, -2.76581526137498938736e-03) (243, -9.29072027186354232331e-02) (244, 5.12048279082390027372e-03) (245, 6.46794669626691715036e-02) (246, -7.12054606506960785506e-02) (247, -3.77171463906855464199e-02) (248, -2.70176850475117510952e-02) (249, -3.81421822375716673692e-03) (250, -7.17342202441799831059e-02) (251, -5.00801261920104795466e-02) (252, -7.33404734764061400076e-02) (253, 1.06421954334069868153e-01) (254, 5.43004821041357266936e-03) (255, -8.34527202095574766050e-02) (256, 1.17074411071956124841e-01) (257, -6.69036093730892150733e-02) (258, -2.51332314363293743420e-02) (259, 3.48153837482232664247e-02) (260, 4.50348344639921599475e-02) (261, -3.69393526727537571674e-02) (262, 1.57586328499520131330e-03) (263, 4.70421774542119364160e-02) (264, -1.55785834837764702865e-01) (265, 1.54031058718267568897e-02) (266, -6.63083993199562772569e-03) (267, 3.52678283828937455535e-02) (268, -1.87434488850000725846e-02) (269, 6.10931268819930109459e-02) (270, -8.16759842069184199831e-02) (271, -7.38050870717126550336e-02) (272, 6.98030555888940751341e-02) (273, 8.36223713867788737142e-02) (274, -1.17023836364026079249e-01) (275, 2.55151849289143237143e-02) (276, 6.21403250270107371245e-02) (277, -6.99814489241673692854e-02) (278, 7.84137274179166204879e-02) (279, -7.73217136640204499853e-02) (280, 1.89033583674220345174e-03) (281, -1.01221350148019237358e-01) (282, -2.11536541774102644642e-02) (283, 1.22506409611961963879e-01) (284, -4.41414272780355013137e-02) (285, -1.22049030103032283417e-02) (286, 1.30486838958909584507e-01) (287, 1.04428716965505860581e-01) (288, -4.56896490863781118419e-02) (289, -6.31908434225962045705e-02) (290, -1.00498527429288275759e-01) (291, -1.26492179911335433928e-01) (292, -1.79467915582488084236e-02) (293, 6.01572845067860489943e-02) (294, 1.69696723064174000151e-02) (295, -2.96147349709781418370e-02) (296, -2.23264514330742090686e-02) (297, -7.48977842817723227231e-02) (298, 7.93353645810103286218e-02) (299, 2.65198727723332042250e-02) (300, 7.06243089268236562406e-02) (301, 2.80524078181574147706e-02) (302, 6.29578622562559312575e-03) (303, 6.89859510477882770241e-02) (304, -6.31480511289061741120e-02) (305, 8.97831442020858572217e-02) (306, -3.48152037904925562573e-02) (307, -1.23110806838051221879e-02) (308, -5.88602938944494322171e-02) (309, -5.27837611497528821913e-02) (310, -4.76533476771332439870e-02) (311, -2.50281199193732595276e-02) (312, -5.63789590709142529601e-02) (313, 1.00716747791654209765e-01) (314, -4.90206773954584978936e-02) (315, 1.06705762324126318674e-01) (316, 9.02764390851508446989e-02) (317, -4.29209467097866649576e-03) (318, 4.26224247540730946660e-02) (319, -4.78493491171786550220e-02) (320, 7.19030555476230653911e-02) (321, 2.22998745996345996978e-02) (322, -7.74913320762435492428e-02) (323, 6.21319241863953694582e-02) (324, -1.20488533528813959728e-01) (325, -5.60807283856435620506e-02) (326, -7.26245708974178616479e-02) (327, 2.17625962605930978189e-02) (328, 2.18294122819914712674e-02) (329, 8.95603464293594775381e-02) (330, -2.62141768459190384333e-02) (331, 6.50911836035486662810e-02) (332, -4.46043388683854888366e-02) (333, 9.04553789799537599770e-02) (334, -2.72799292006325744264e-02) (335, 6.85105249574620989161e-02) (336, 7.16420368211232588829e-02) (337, 1.64466016557072956805e-02) (338, 1.00224643756826117813e-03) (339, -7.84878263112539636959e-02) (340, 1.10287150873898676107e-01) (341, 6.16936592605279096602e-02) (342, 9.59931934065630550201e-03) (343, -1.10089240484364261907e-01) (344, -8.39708391619236466097e-02) (345, -3.16689202306597722414e-02) (346, -7.03538583592815264245e-02) (347, -3.11080362128579521186e-02) (348, 1.30176584963830971331e-01) (349, 6.93604481640152648048e-02) (350, 6.37802229014678562224e-02) (351, -6.60853403462224042730e-02) (352, -5.31466640201720824654e-02) (353, -7.19130644131903140615e-02) (354, -1.34444897481866582067e-01) (355, -9.48561372915937735251e-03) (356, -3.32294448834453137742e-02) (357, -3.74786682703123694149e-02) (358, -4.26259312558697825435e-02) (359, -2.31409781827842733759e-02) (360, -8.34578291461879756552e-02) (361, -4.53486702213028239350e-02) (362, -1.85206823998837998013e-02) (363, 3.33041042462944789082e-02) (364, -1.34411046764932651243e-01) (365, -7.19714902088503805100e-02) (366, 1.68592401173061276487e-02) (367, -5.57140920456452096166e-02) (368, 9.99380605787448528243e-02) (369, 9.15868883175890713400e-02) (370, -6.18844945648824931728e-02) (371, 1.86259958502878394948e-02) (372, -1.20340842045502435104e-02) (373, -1.37111315482356083129e-01) (374, 4.49508298565889363729e-02) (375, 2.43514721336572127763e-02) (376, -8.88333440321644463022e-02) (377, 6.50577683639792236914e-02) (378, -7.86403213341832912908e-02) (379, -1.15924305383890563492e-01) (380, 3.30468624286144258342e-03) (381, 8.37540255048396936610e-02) (382, -3.15742752722100658569e-02) (383, -1.16445248947539756190e-01) (384, -8.38206303034762789661e-02) (385, -7.98899922846997979746e-04) (386, 2.56915901216183580058e-02) (387, -1.61877915260656077279e-02) (388, 5.39133296934786870880e-02) (389, -1.18524164718716643052e-01) (390, -8.10496162652757090594e-02) (391, 5.90200023108290033891e-02) (392, 3.98854793326413204629e-03) (393, 1.24835444412730017100e-03) (394, 2.80837000889185136807e-03) (395, 4.59217009699898828790e-02) (396, 4.84002874546444541992e-02) (397, -1.21929207339978931679e-01) (398, -7.92678498843680523489e-02) (399, 3.53998162601490209966e-02) (400, 5.29652827621281130366e-02) (401, -4.32470719405515444111e-02) (402, 1.47236536079476502958e-02) (403, -7.14035621659798447336e-02) (404, -6.73113785516854003232e-03) (405, -4.21323230046472888000e-02) (406, -5.62588196395266484928e-02) (407, -1.49464860784832946627e-02) (408, 2.30968082239097621811e-02) (409, -8.01983454313250632151e-02) (410, 6.30311362046695050632e-02) (411, -1.11597672322127430822e-01) (412, -1.68065142206281388504e-02) (413, -1.14160661006191821443e-01) (414, -5.70423931869079303691e-02) (415, -4.11377873276562097682e-02) (416, 4.85206121238997006850e-02) (417, 4.36551938512885484567e-02) (418, 9.53060268310944730397e-02) (419, 3.27612666083634341066e-03) (420, 4.96696411034142221164e-02) (421, -9.64064561552164106528e-02) (422, -1.05012197326796782176e-02) (423, -1.74426376221795166599e-02) (424, 7.21866119028887198716e-02) (425, -1.34097459083469178198e-01) (426, -3.91077288625309160697e-02) (427, -2.16580311191457812459e-02) (428, -2.94363251548239793220e-02) (429, -8.83905966119138269965e-02) (430, -3.11280875287724967393e-02) (431, -1.44270646732616053542e-01) (432, 7.20578158010591052207e-02) (433, 5.86113373719381255955e-02) (434, 1.61110357425056360814e-02) (435, -1.57441965280094992030e-01) (436, 4.97769322529908603281e-02) (437, -1.08370472806765066887e-01) (438, 1.04927209137447449705e-01) (439, 3.25947766263819660448e-02) (440, 1.02489625283957663804e-01) (441, -7.61144953598868190259e-02) (442, -6.50514619025521351192e-02) (443, 6.63486564856512750499e-02) (444, 6.48276357249021606410e-02) (445, -9.58924720342522879379e-02) (446, 2.30994198336422033868e-02) (447, -7.44100153971465061442e-02) (448, -7.08083349259435446132e-02) (449, -5.44211469242043902050e-02) (450, -8.29981270575446267168e-02) (451, 5.50834007319013913007e-02) (452, 2.18919268463957719661e-02) (453, -2.57757848712184267637e-02) (454, -3.67674326537777290680e-02) (455, -9.44176920089415672166e-02) (456, 5.12900106023189902849e-02) (457, -3.26038743394004536247e-03) (458, -1.19268559452960238448e-02) (459, 7.93584686611224499053e-02) (460, -6.01800662784529177829e-02) (461, -1.28219625189315677982e-01) (462, 1.01315309696318786581e-01) (463, 6.83173978316215096962e-02) (464, -1.21920646019527373349e-01) (465, -5.63457292549861821218e-02) (466, 9.31358485125327179022e-02) (467, -1.31762710890382869766e-02) (468, 1.64839068654474285580e-02) (469, 4.02893080184113308584e-02) (470, -5.93895997813514812946e-03) (471, -6.19084608944283562582e-02) (472, -2.38613785821140678145e-02) (473, 3.87994592538814381255e-02) (474, -6.57997980598024889698e-02) (475, -1.13828891282737459933e-01) (476, 9.46839044844524913014e-02) (477, 3.12300994973412383848e-02) (478, -5.69475665549437071178e-02) (479, -8.00081612078050036230e-02) (480, 9.33981964734413999674e-02) (481, -4.58865680980252432786e-02) (482, 1.20942382453047447832e-01) (483, -2.78680215739800195285e-02) (484, -1.23598452337215891639e-01) (485, -1.83326688268633424331e-03) (486, -1.61805070176528455542e-03) (487, 2.07436203019544310178e-02) (488, 1.04453194176037614249e-01) (489, -5.92266002481126180301e-02) (490, 2.53880064396274675309e-02) (491, 1.16911127578208484667e-01) (492, -5.89010813916079831176e-02) (493, 3.24087522529475785538e-02) (494, 9.30883218542505330717e-02) (495, -4.08432360484844228510e-02) (496, 6.51811345940173925140e-02) (497, 7.19064720568265425271e-02) (498, -1.15551900405920476844e-01) (499, -8.62605810893713950693e-03) (500, 3.45336452507432473125e-04) (501, 1.56204194214157737752e-02) (502, 5.24440046654027353101e-02) (503, 6.22924978354993386098e-02) (504, -3.43017345308035334628e-02) (505, 7.48690205607921432929e-02) (506, 8.18556111102740069363e-02) (507, -6.33291306317645547042e-02) (508, 3.92145039438332020792e-03) (509, -1.85424064893779522167e-02) (510, -9.30003272270781000675e-03) (511, 1.75700189256799178816e-02) (512, 4.29543757167250156437e-02) (513, -7.58441649643955186771e-03) (514, 1.16617224149227857732e-01) (515, 1.04247277091337353649e-01) (516, 6.27286609816339740808e-02) (517, 1.37764470774288300126e-01) (518, 8.93762468211365679327e-02) (519, 4.56738778565324830567e-04) (520, 8.65348385356965038584e-02) (521, 4.54631619383422808101e-02) (522, -2.02160034617376131727e-02) (523, -6.65210169743693860434e-03) (524, -3.55400849198299409459e-02) (525, 1.43305831595515992261e-01) (526, 5.15120496030845864688e-02) (527, -9.44797484590947922456e-02) (528, 3.78957368214829712350e-02) (529, 9.01772929475292417401e-02) (530, 4.34633908144787597938e-02) (531, -7.85642173792816256306e-02) (532, 7.68257344282307231415e-03) (533, 6.55269911593256773608e-03) (534, 1.33247563464532897681e-01) (535, -4.22021391076729951441e-02) (536, -1.30929684507862745951e-02) (537, 5.71037365878276845232e-02) (538, 4.05510133209918410824e-02) (539, 8.50122488084237848405e-02) (540, 1.22407960634337495409e-01) (541, 6.14930267096239491220e-02) (542, -2.56651282785907430828e-02) (543, 6.77317104275547855058e-03) (544, -7.15212657538067814178e-02) (545, -6.71189589459331159560e-02) (546, -9.79182433280456100688e-03) (547, 1.34871654028388319145e-03) (548, 3.41384833421553707256e-02) (549, -1.05472342110823846806e-01) (550, -9.69864375514442877968e-02) (551, -9.40724702291484277117e-02) (552, -4.04469315985684155224e-02) (553, -8.69550465358274599081e-02) (554, 4.10877258923696350723e-02) (555, 4.83754242064786607602e-02) (556, -5.72675808449065598671e-02) (557, -9.91316341320596858266e-03) (558, 3.75583405921412552542e-02) (559, 8.29226573425164287245e-02) (560, 1.41316263828170536609e-02) (561, -2.32846104063957719255e-02) (562, 1.02807846627610180446e-01) (563, -6.83167766001989279490e-02) (564, 8.04615402354953296316e-02) (565, 7.78146260736905376332e-02) (566, -4.86092418960993033483e-02) (567, -5.32128893052238177708e-02) (568, -4.59430516048251816330e-02) (569, 1.98247512403920272961e-02) (570, 1.47911336399700971134e-01) (571, 1.04424821449591669585e-03) (572, 1.51503310460984370878e-02) (573, -4.41730960174076051072e-02) (574, -8.30357292206643643473e-02) (575, 7.34078585423290561063e-03) (576, 2.35128524585548927262e-02) (577, 3.15639095929010765618e-02) (578, -7.18326581172821221344e-02) (579, -4.47542795747385771521e-02) (580, 3.59623848028900322538e-02) (581, -2.30453551755353952535e-02) (582, 6.74442898909072691138e-02) (583, -4.82273098720049503418e-02) (584, 6.67681254791935713255e-02) (585, -9.54611992967655323405e-03) (586, 7.91743333023300077667e-02) (587, -4.25441233296591156399e-02) (588, -4.10089104320720057584e-02) (589, 8.17455197758797241780e-02) (590, -9.67399689864077566570e-02) (591, 3.72171496272623372747e-02) (592, -7.99260191252154639230e-02) (593, -8.19608215886864638344e-02) (594, 7.03898176780022588606e-02) (595, 4.90887130011904912474e-02) (596, 8.49405680598166595852e-02) (597, -1.41229072025431723336e-01) (598, -1.34018763374918803422e-01) (599, -5.11428535443730208909e-02) (600, 2.16258651122406969636e-02) (601, -8.82398233193866926571e-02) (602, 7.24155615098608512747e-02) (603, 7.51837275755455752835e-02) (604, -9.93593456740115253678e-03) (605, 1.17781925739635501271e-01) (606, -2.05535980731091638685e-02) (607, 1.10103425487510384051e-01) (608, -6.33580577400733469667e-03) (609, 3.48594240449066131160e-02) (610, -3.50750194719798430443e-02) (611, -1.92271540875051209774e-02) (612, -4.93223184227401870161e-02) (613, -8.88463607605087107855e-02) (614, -2.53860428421539552346e-02) (615, 7.37020402432044668961e-02) (616, 2.69077834721703733345e-02) (617, -3.07922154851793354602e-02) (618, -7.11404775249701859519e-02) (619, -3.91859251766994709509e-02) (620, -6.27122101811008886285e-02) (621, -4.71259336837328152159e-02) (622, 6.46148151881116017403e-02) (623, -5.40112098730746795217e-02) (624, -6.90700293777466028944e-02) (625, 5.31991760918078607223e-02) (626, -5.91154223241716209047e-02) (627, -2.68750590459233308638e-02) (628, 6.60522989735423809998e-02) (629, -1.43599930578654447905e-02) (630, 1.84352478052051474422e-02) (631, -1.98610049224135359891e-02) (632, -6.83072870601742886815e-03) (633, -1.85211512989395220286e-02) (634, -2.94913511079233602030e-02) (635, 6.77128654040017041726e-02) (636, -3.85594305096714981551e-02) (637, 6.40420905870381501623e-02) (638, 4.90525980691394816735e-02) (639, 8.07388650168964494558e-02) (640, 2.57466438492480048650e-02) (641, -9.99497535795136060610e-02) (642, -6.12774137858686993030e-02) (643, 6.69025086627607346035e-02) (644, -7.47727913343852190753e-02) (645, 7.97644209578685092765e-02) (646, 9.53940477145495957512e-02) (647, 1.17753945590623451678e-01) (648, -5.42016296285091764284e-02) (649, 1.15357500447492877793e-01) (650, 1.48708325896624554696e-01) (651, -3.25952822228003902781e-04) (652, 1.53628201700187483336e-01) (653, 7.50554962801692204799e-02) (654, 6.11369846436545447133e-02) (655, -1.51329531073859831214e-02) (656, 2.78489486524408462464e-02) (657, 8.55783036756228299158e-02) (658, -2.01397375646197827892e-02) (659, -5.38214989252699463340e-02) (660, -5.68352067265002619534e-02) (661, 6.73350195303904358601e-02) (662, -4.22457060118194231008e-03) (663, -3.58641745417433016607e-02) (664, -7.36841332590447289919e-02) (665, 6.73209067657696974551e-02) (666, -6.83732183438053586766e-02) (667, -1.91184869094325991801e-02) (668, -3.21519681278762932755e-03) (669, -1.06593038983993554369e-01) (670, -1.23603702517802345462e-02) (671, -4.53158242246646178475e-02) (672, -6.85520733211333332946e-02) (673, -4.43255313180816179486e-02) (674, -6.29179487007925503095e-02) (675, -8.07546185546797468113e-02) (676, -5.70642582213850696471e-02) (677, 9.01622029977396377554e-02) (678, -5.83706837938231595797e-02) (679, -6.76031949809352272762e-02) (680, 1.94623231067187710958e-03) (681, -7.33624277573005217912e-02) (682, 4.52022597688917435188e-02) (683, 6.77752764511960897886e-02) (684, 7.10645213135088632539e-02) (685, -1.01247662549379877084e-01) (686, 1.67207168889974250314e-01) (687, -1.05070429958671690551e-01) (688, -1.35036017079462972168e-01) (689, -5.01257498913312143918e-02) (690, -6.09366659595268964078e-02) (691, -5.20325516804254623038e-02) (692, 6.22144484366338734738e-02) (693, 4.81165591840788248179e-02) (694, 7.40814214875111093361e-02) (695, -8.42615986006693823418e-02) (696, 2.31594245488083621057e-03) (697, 1.16013580772998836643e-01) (698, 4.73066134716015954109e-02) (699, -6.72557556473005191400e-02) (700, -1.05997074352001507958e-01) (701, 5.20409403690862068514e-02) (702, -1.44137718257673214106e-03) (703, -2.49560591120636041107e-02) (704, -5.89816148789608363234e-03) (705, 4.58760237723358568762e-02) (706, -3.48494756674803257690e-02) (707, 4.23085942356971125844e-02) (708, 9.32790619440090548742e-03) (709, -4.63077047655470822041e-04) (710, -1.25906532705447153642e-02) (711, -5.47207589556389095709e-02) (712, -3.18848027599924407904e-02) (713, -9.96672166413571231081e-02) (714, -8.42369049021577664949e-02) (715, -5.03908514411713984171e-02) (716, -5.56851734144044249741e-02) (717, 1.22864490331437870019e-01) (718, 2.11026512949521946605e-02) (719, -3.20726018534463475085e-02) (720, -7.47271539121617534018e-02) (721, 1.81407321823880335332e-01) (722, 5.25940362673615532940e-02) (723, -4.98884154441761179521e-02) (724, 6.50336743748353707240e-02) (725, -2.23647314809635594512e-02) (726, -4.83906143045487943666e-02) (727, -5.94113133799479154612e-03) (728, -4.47636643233559963773e-02) (729, 8.23587245947639545740e-02) (730, 7.76177635132644858085e-03) (731, -6.46698629263928181921e-02) (732, 2.88726268589469606263e-02) (733, -8.72688100691439844203e-02) (734, -2.18016405293351665795e-02) (735, -3.71919949482787184913e-02) (736, 5.78680262251020718911e-02) (737, 4.08752586548365506869e-02) (738, -7.26928569844412508782e-02) (739, -2.93002048833265332783e-02) (740, -8.37675076647270283603e-02) (741, -1.43780447574682994361e-02) (742, 2.58889695270116820813e-02) (743, 2.67449481186152575318e-02) (744, 1.84271674524347853219e-02) (745, 2.52432158027497063890e-02) (746, -1.02309071825695874214e-01) (747, -5.13045921487126771465e-02) (748, 7.97821578700340650059e-02) (749, 4.39155511434509912561e-02) (750, 3.23828577852295004802e-02) (751, 1.04630879933227463607e-01) (752, 1.09722589544866497985e-02) (753, -6.47269617436365268803e-02) (754, 1.00373906089425118937e-01) (755, -5.45582619006354171964e-02) (756, -1.83982054576282798297e-02) (757, -4.66548273783334507825e-02) (758, 4.12669142093324836651e-02) (759, 4.01177882418963099864e-02) (760, -8.13835742851051480162e-02) (761, -2.14271329677318926599e-02) (762, 1.01997261412930417812e-01) (763, 8.50126518124153796041e-02) (764, -1.63929693184145484908e-02) (765, -6.85830166894749043704e-02) (766, -9.02774178334252025424e-02) (767, -4.15061159327781842299e-02) (768, -6.44726745350572422177e-02) (769, -4.72583491537491851009e-02) (770, -9.55700858922157586717e-02) (771, 8.87813152299617505681e-03) (772, -6.28052709414868987059e-02) (773, 4.74007299006072788106e-02) (774, -5.52816939740506038681e-02) (775, 4.34887331226184795097e-02) (776, 5.40193133844669038518e-03) (777, -6.63584418609112353105e-02) (778, 5.43458558492701873655e-02) (779, -5.83391161698653890055e-02) (780, 5.93572439338444016177e-02) (781, -2.59332466471088735060e-02) (782, -1.03279851847698958545e-01) (783, -5.33750283825777382951e-02) (784, -6.98440563701562683319e-02) (785, -8.92156481435315978912e-02) (786, 1.11517864891676910660e-02) (787, 1.25846392310345021881e-02) (788, -2.34839785632056687048e-02) (789, -1.36032832054865909788e-01) (790, -4.55306159885986230784e-02) (791, 5.33830288086555981159e-03) (792, 3.72203027317342255431e-02) (793, -1.14535087867686041774e-01) (794, -8.86190145392459632800e-02) (795, -1.15652898914799989738e-01) (796, 6.78061737482512499886e-02) (797, -2.47356033945494921400e-02) (798, 2.52401457288383632149e-02) (0, -3.30832080209735729381e-02) (1, 2.60595582240138734509e-01) (2, 1.63627989637541645940e-02) (3, 4.88185197619489669174e-02) (4, -2.51787208544460017201e-01) (5, -9.53549982104999818699e-03) (6, 1.40663197954271984580e-01) (7, 7.94219500382828125229e-02) (8, -1.02699797549734975211e-01) (9, -1.79365909331505000990e-02) (10, 7.61562187953294805753e-02) (11, 8.15917349827529336803e-02) (12, -1.48186850243900741786e-01) (13, 4.70424908522252063769e-02) (14, -2.45904968060247225425e-02) (15, -1.60855870093930791720e-01) (16, -6.97217452728190884015e-02) (17, 2.88906341312844955338e-02) (18, -7.46120390983764369963e-02) (19, -3.97311735524639025874e-02) (20, -9.43583101034164428711e-02) (21, -1.78836872951651459918e-01) (22, -1.25457645751613555696e-01) (23, 7.88717327076806085095e-02) (24, 1.90151697054822571564e-01) (25, 8.45936629093412550962e-02) (26, 1.23695469124862830745e-01) (27, 3.15695981683582482802e-02) (28, 1.39451743497229496693e-01) (29, -5.18015190215430285092e-02) (30, 1.02671788478496867070e-01) (31, 7.60482047323662313509e-02) (32, 1.09433773276557344545e-01) (33, -9.75390125585090944638e-02) (34, -1.19149490358183757222e-01) (35, 1.40233051888291430920e-03) (36, 1.46629229740882410793e-01) (37, -9.07997258275094615287e-02) (38, -2.66012478385551198734e-01) (39, -7.50215158315140073775e-02) (40, -1.38902502833794572190e-01) (41, -8.88178319216352540888e-03) (42, 1.02681555402436050506e-01) (43, -2.44801138515035598964e-02) (44, 7.21304224792874010275e-02) (45, -1.05467370359575707273e-01) (46, 1.91171291070975551962e-01) (47, -2.56285377626037924603e-02) (48, -4.15423588997357318142e-02) (49, -2.36882930462981450281e-02) (50, 3.17541897279934801079e-02) (51, 7.73346518756332645950e-02) (52, -4.60189780039725188088e-02) (53, -2.61024054516423853478e-02) (54, -1.17145884968976377039e-01) (55, 7.19437964698631249316e-03) (56, -1.58625962849616095052e-03) (57, 5.28438758186955889751e-02) (58, -2.26701420054334412679e-01) (59, -7.88802797623448792574e-02) (60, 5.29398730622263127832e-02) (61, 9.77354191461843498090e-03) (62, 1.50288344607135332387e-01) (63, -6.60494912056019817248e-02) (64, 3.27299478719726491538e-02) (65, 6.87537631598367782182e-02) (66, -4.15755833302997104828e-02) (67, -2.00961852711423027973e-01) (68, 8.37905343704591354381e-02) (69, -6.16401564874456131538e-02) (70, -1.71053120555461429797e-01) (71, -1.00274750420432684495e-01) (72, 2.29596835597652738914e-02) (73, 5.66455898315570190865e-03) (74, -9.77173454795048643598e-04) (75, 3.94870945466158015935e-02) (76, 1.39802916088839733477e-02) (77, -9.99257524638147154317e-02) (78, 2.60874658731754076324e-02) (79, 1.08412706221078319890e-01) (80, -9.45679002478305996693e-02) (81, -1.46463020165894464153e-01) (82, 1.56270356876952953851e-01) (83, 1.19413139661401893066e-01) (84, -3.81773143645053672501e-02) (85, 7.79559258846348052119e-02) (86, 3.74981902538575398443e-02) (87, 7.36551517351750756335e-02) (88, 1.25317051547993527777e-02) (89, -4.86821810616457281706e-02) (90, -4.26924760188851781795e-02) (91, 9.38563715162060198394e-03) (92, 3.34642965078780843524e-02) (93, -8.70378452054725165743e-02) (94, -7.63724369103084138599e-02) (95, 1.45099454202008894960e-02) (96, 6.19150699263762496760e-02) (97, 5.92103709670008318544e-02) (98, -4.13508141907660345393e-02) (99, 9.83069170233493438982e-02) (100, -4.90803137899314192993e-02) (101, -6.80850408687335567626e-02) (102, 1.90921793076582690940e-01) (103, -2.09639225859191091761e-01) (104, -1.57834861193003467283e-01) (105, -1.68093119958949432924e-01) (106, 9.18888316496331292171e-02) (107, -7.53442662166128734880e-02) (108, 1.48503850536048170872e-01) (109, 2.37507380259903352893e-02) (110, 2.99095215630398696127e-02) (111, 1.64614451463360428329e-01) (112, 8.88742152323171441530e-02) (113, -1.60428245232320160207e-01) (114, -1.08932108824211559828e-01) (115, -6.89398115346209622301e-02) (116, -1.41266572912673669254e-02) (117, -1.59298865265052075335e-01) (118, -2.05707969053947531402e-01) (119, -1.86876599931731973703e-01) (120, -1.27872444683766132295e-02) (121, 3.09314668254707242356e-02) (122, 1.73684256138439852002e-01) (123, -4.37645343901203465187e-02) (124, 1.37310669512038574513e-01) (125, -6.72221593590692084730e-02) (126, 1.18524182642076716943e-01) (127, 4.74504109559685735564e-02) (128, -3.13597377248255732018e-02) (129, 6.81901883986543114885e-03) (130, -9.82443417048618587717e-03) (131, -7.36126413239837767977e-02) (132, -4.15691881786891745398e-02) (133, -1.15309522764104180337e-01) (134, 5.30570033977708771511e-02) (135, -2.69366625937320185169e-02) (136, -6.72459800946390157117e-02) (137, -5.49641646646936293807e-02) (138, -1.11466772957124760079e-01) (139, -1.03608174177237638558e-01) (140, 9.10888976947617640123e-02) (141, -1.09774696520684347800e-01) (142, -1.91790155439908564794e-02) (143, -1.22789744146031387650e-01) (144, 1.23523879525919352829e-01) (145, 1.36795745358773146449e-01) (146, -1.54536017642016548779e-01) (147, -1.76629625232984394101e-01) (148, -2.13698749607969251674e-02) (149, 6.75610290447822420257e-02) (150, -7.94843172666898634127e-02) (151, -7.36256164409267443993e-02) (152, -1.06397227338490385495e-01) (153, -1.24459968858765798738e-01) (154, 7.49828980286501856067e-02) (155, 1.31285024243976894409e-01) (156, 4.26402078033285211744e-02) (157, -6.56180350032261466842e-02) (158, 7.32403055285999263213e-03) (159, -1.18920948028041428834e-01) (160, -4.46665201855784357865e-02) (161, -1.84935411960806123099e-01) (162, 1.01537525036416623192e-01) (163, -4.49420271200944437817e-02) (164, 1.55664584596048261034e-01) (165, -1.37236356807248965906e-01) (166, -2.99365068072228068807e-01) (167, -1.31948690358067194373e-01) (168, 1.62331721977956866532e-01) (169, -3.99954026612507756999e-02) (170, -2.42268893984814659426e-01) (171, -2.21781618186116025182e-01) (172, -3.93651381563943358888e-02) (173, -9.12419090121055834097e-03) (174, 6.37856314930878021130e-02) (175, 1.83747645016478569624e-02) (176, -2.40133313961073457943e-01) (177, -1.42659600825706084359e-01) (178, -1.73951457974173384624e-01) (179, -2.02527755720891128322e-01) (180, 6.49274824247223214524e-02) (181, -1.08469820733618396713e-01) (182, 2.96343064611660940433e-02) (183, 1.91967901014951647376e-02) (184, 1.43194392959544530841e-01) (185, -3.11551850082369130579e-02) (186, -7.21432101385820478967e-02) (187, 4.55247358781490016333e-02) (188, 1.98594116708193796361e-02) (189, -6.93670745701193552923e-02) (190, -2.79532901887392160045e-01) (191, -2.03864518795499827242e-01) (192, 4.15556683851260461049e-02) (193, 4.67579998676901434362e-02) (194, 7.49925309424244734835e-02) (195, -1.12504582680961248004e-02) (196, -1.41131267921200537208e-01) (197, -2.22508569639455928979e-02) (198, -1.69238025188470531113e-01) (199, -4.21154566385500972459e-01) (200, 5.13815450618009886274e-02) (201, -2.12633861799060075448e-01) (202, -2.35438464398170788083e-01) (203, -3.13064475022475974253e-01) (204, -2.61405417667246071922e-02) (205, -2.35017056867502016626e-01) (206, -2.57854477235208545682e-01) (207, -2.02598240059374934408e-01) (208, 1.15608570506783789322e-01) (209, -5.60837584178614789732e-02) (210, -2.72849823237814592680e-01) (211, -1.07402295281352838652e-01) (212, -2.51279101806208771119e-01) (213, 1.64785522740030471178e-01) (214, -2.87627858097071996413e-02) (215, -1.11993984474018690167e-01) (216, -1.58508051901374014125e-02) (217, -1.93353354643932801027e-01) (218, -2.67672591301325146773e-01) (219, -1.86580136397503232315e-01) (220, 6.80689136433909741664e-02) (221, -1.75891749889971138465e-01) (222, 1.34397825317797925404e-01) (223, 5.82889715263798027789e-02) (224, -7.70443508132682558509e-02) (225, 2.95253713798112882305e-02) (226, -3.39278750650870986050e-02) (227, -1.74983939199805427211e-01) (228, -1.28793232337808871701e-01) (229, -1.00818692375755636359e-01) (230, -7.01947529508526457676e-02) (231, -1.22819943936435485576e-01) (232, 1.18797819364150486487e-01) (233, -6.52086682535860107102e-02) (234, -1.16039817453100574385e-01) (235, 3.40570905612070512491e-03) (236, -1.63290502368450218817e-01) (237, 1.29953342862062198870e-01) (238, -9.23914834680282098800e-02) (239, -4.04564720765148100323e-01) (240, -1.40118526814379001921e-01) (241, 7.45724327476965376249e-02) (242, -1.96040505923174915304e-02) (243, 9.62472290931725288354e-02) (244, 7.89143372969812878504e-02) (245, 1.05612537821045369968e-02) (246, -1.12685810619319634607e-01) (247, -1.50390671998964747802e-01) (248, 8.21529038937189037828e-02) (249, 3.99175443308464952819e-02) (250, -1.97740733406164798103e-01) (251, 2.26513091929123111523e-01) (252, -9.67836296929396600053e-02) (253, 4.62503397566159310528e-02) (254, 4.66075304095123696402e-02) (255, 5.26487108806422687834e-02) (256, -9.42125678302153241050e-02) (257, -1.12622006418154618768e-01) (258, -1.11658722491337986105e-01) (259, -6.94685604065139600261e-02) (260, 1.02010174442390150890e-02) (261, -1.50731443551474691978e-01) (262, -3.55419037489854497402e-02) (263, 9.21902229125653865927e-02) (264, 1.03381964216177263394e-01) (265, -3.89709559581393541472e-02) (266, 5.66262885839435986535e-02) (267, -6.16257606543745284355e-02) (268, -5.77698443740601724761e-02) (269, -8.28361031444334039442e-02) (270, -1.55225153985593788269e-02) (271, -5.93555950114241920312e-02) (272, 4.47553065856938908640e-02) (273, 1.94569447256634497911e-01) (274, 1.66469765069093278420e-02) (275, -1.41892617246911854206e-02) (276, -4.64369675112649357707e-02) (277, 6.10112089941732757548e-02) (278, 8.08388608746611059264e-02) (279, -1.95348477475894871658e-01) (280, 1.29598006769617191125e-01) (281, 1.03071394798919871438e-01) (282, -3.46579147547403168539e-02) (283, -1.03526539883340554238e-01) (284, 3.45929817930343108667e-01) (285, 1.43474412320715640629e-02) (286, 1.25087982190459981457e-03) (287, -8.98902170133003414199e-02) (288, -5.20815116756106200047e-02) (289, 7.53339764605010370202e-02) (290, -1.38625493339548794269e-01) (291, 1.27782689050695286159e-01) (292, -8.75804688611345749649e-02) (293, 3.70002222476160380626e-02) (294, 7.92635480828236815842e-02) (295, 3.25233026720802981258e-02) (296, -2.17945046964320363059e-02) (297, -1.21136617974111807094e-01) (298, 2.90054988468596147699e-02) (299, -3.20491185818913351668e-02) (300, 3.77647791603710480945e-02) (301, -1.04706389531474130410e-04) (302, 2.05548111586217857605e-01) (303, -1.69253184463386899261e-02) (304, 2.74241078426688933423e-01) (305, -1.39248862256558636474e-01) (306, -5.99295442426077823450e-02) (307, -1.19969391362734240092e-01) (308, 1.12316571956644038754e-02) (309, 1.00066530368520742456e-01) (310, -9.88977789233272536196e-02) (311, -7.87130428870989051759e-02) (312, 5.37479172819679829054e-02) (313, 4.24413716241907601479e-02) (314, 2.72966881393177443482e-02) (315, 4.63384954828791398307e-02) (316, -5.88074754913475508666e-02) (317, 6.17651070094479073824e-02) (318, -2.64395674522936961759e-02) (319, -5.91576202554006721351e-03) (320, -1.48500368912010155542e-01) (321, -8.63630459326022170696e-02) (322, 1.11982653883728314193e-01) (323, 4.74715823435938651803e-03) (324, 1.25908604281212838094e-01) (325, 5.51840214828393307855e-02) (326, -5.97026627706393336892e-02) (327, -2.19255574321205876087e-02) (328, 8.87137841293576395740e-02) (329, 3.76726833581061959499e-02) (330, -6.05611862568205053248e-02) (331, 5.23637476076520766433e-02) (332, -7.82860922592241575968e-02) (333, -5.36739318694457040460e-02) (334, 8.43179878075478450583e-02) (335, 2.50971673621744661986e-01) (336, 7.34429161878746433745e-02) (337, -1.38600203236393410000e-01) (338, -4.86819597692604508210e-02) (339, 1.86407720796536502395e-01) (340, 8.81878723390118295089e-03) (341, 7.35384391278178228823e-02) (342, 5.82383135894416828493e-02) (343, 1.02497047070230315469e-01) (344, 3.00636662995437786705e-01) (345, -1.61277648424965086571e-01) (346, -1.65533679232654051816e-01) (347, -2.69257158451743187910e-02) (348, -1.02392445827009945236e-01) (349, -5.67845190523450643605e-02) (350, -2.55215968689810113190e-01) (351, 5.34105925331775713283e-02) (352, 3.69907922038490086236e-02) (353, -1.35809970363656246084e-01) (354, 2.37176666277150338669e-01) (355, 1.95426920417235305827e-01) (356, 1.40907695502586541303e-02) (357, 2.09432339897857536931e-03) (358, 4.86987393756908651388e-02) (359, 8.76026495427687512674e-02) (360, 1.99201532264866032484e-02) (361, 9.70915543906158799714e-03) (362, 3.93484781224598123561e-02) (363, -6.24070311460940413406e-02) (364, 4.31316366615132174012e-01) (365, -2.65177176445171303154e-02) (366, -1.58627111375928386838e-01) (367, -2.04039460384595278120e-01) (368, -6.87129236479647881319e-02) (369, -1.45514308433436823087e-01) (370, -1.59532613591236216433e-01) (371, 4.34873328659607441549e-02) (372, -9.68235576289009219897e-02) (373, -9.63996105570701783405e-03) (374, -3.90574767911806702836e-02) (375, -4.35912103101282061290e-02) (376, 2.27312407680535163990e-02) (377, 3.30468989878986291187e-02) (378, -2.58404733928088645167e-02) (379, -9.38715592718173952314e-02) (380, 1.00492797996308239061e-01) (381, 8.50263494985630668976e-02) (382, 4.52462023678388905457e-02) (383, 3.19492272509489536395e-03) (384, -6.48618231348415119619e-02) (385, 3.15891561029736644972e-02) (386, -1.11582157921999505779e-01) (387, 7.20873988707179669255e-02) (388, -7.58898863212218166563e-02) (389, 6.30742145944041682215e-02) (390, -5.24618768401006393964e-02) (391, 1.48462779150866031053e-01) (392, -1.46681811147584523214e-01) (393, 1.46068584916489468961e-01) 